<?xml version="1.0"?>
<opencv_storage>
<my_svm type_id="opencv-ml-svm">
  <svm_type>C_SVC</svm_type>
  <kernel><type>LINEAR</type></kernel>
  <C>1.0000000000000001e-01</C>
  <term_criteria><epsilon>2.2204460492503131e-16</epsilon>
    <iterations>1000</iterations></term_criteria>
  <var_all>2500</var_all>
  <var_count>2500</var_count>
  <class_count>13</class_count>
  <class_labels type_id="opencv-matrix">
    <rows>1</rows>
    <cols>13</cols>
    <dt>i</dt>
    <data>
      -4 -3 -2 -1 1 2 3 4 5 6 7 8 9</data></class_labels>
  <sv_total>78</sv_total>
  <support_vectors>
    <_>
      -1.63298155e-05 -1.68107836e-05 -1.79882463e-05 -1.87555506e-05
      -1.93325468e-05 -1.91805939e-05 -2.01790299e-05 -1.49199404e-05
      -1.32005862e-05 -1.96273013e-05 -2.04969074e-05 -2.01501462e-05
      -2.18742953e-05 -2.35606312e-05 -2.13714065e-05 -1.84027522e-05
      -2.02883348e-05 -2.05591477e-05 -2.32987641e-05 -1.95964421e-05
      -1.15855282e-05 3.57315434e-06 2.11771367e-05 1.65171532e-05
      6.10187908e-06 1.66631798e-05 2.72260004e-05 3.41339764e-05
      2.67435935e-05 1.14219965e-05 9.68536915e-06 3.68608767e-06
      1.67851867e-05 2.27088130e-05 1.58318962e-05 1.79311319e-05
      1.65165711e-05 1.23648433e-05 7.66297762e-06 1.61748630e-05
      4.11759447e-06 9.69631492e-06 2.46447689e-05 1.88318536e-05
      1.54739118e-05 1.41726905e-05 1.59293213e-05 1.28724378e-05
      1.84200489e-05 3.07575174e-05 -1.11175659e-05 -1.28797556e-05
      -1.43259122e-05 -1.76356934e-05 -1.89249586e-05 -1.87303176e-05
      -1.87080441e-05 -1.43182015e-05 -1.05239706e-05 -1.78981882e-05
      -2.25236017e-05 -2.21348673e-05 -2.31570320e-05 -1.98668986e-05
      -2.04603148e-05 -2.10220478e-05 -1.91965100e-05 -3.80274923e-06
      1.87964615e-05 3.28884016e-05 1.87208880e-05 -3.47908508e-06
      -8.89938838e-06 -1.11857989e-05 -1.13692922e-05 -1.04899964e-05
      -1.30153685e-05 -5.15088095e-06 2.97176416e-06 1.31545921e-05
      2.88810115e-05 3.72227332e-05 3.29914728e-05 1.78517421e-05
      1.60808395e-05 1.48355721e-05 6.69065776e-06 1.38781079e-05
      1.52398543e-05 3.60106401e-06 9.78918979e-06 1.45089934e-05
      3.45517874e-05 2.73275909e-05 2.41646067e-05 2.43890809e-05
      2.16730896e-05 1.38703390e-05 1.37403304e-05 2.38595185e-05
      -1.07721171e-05 -1.17471536e-05 -1.05303989e-05 -1.43974667e-05
      -1.45496633e-05 -1.46401317e-05 -1.57005852e-05 -1.50263913e-05
      -1.32066743e-05 -1.92347052e-05 -2.26011707e-05 -2.10136022e-05
      -1.83622833e-05 -2.45239116e-05 -2.49151799e-05 7.29162457e-06
      3.03283996e-05 1.58099847e-05 -1.88217552e-06 -8.10369511e-06
      -9.50406229e-06 -7.26244843e-06 -6.47953902e-06 -8.29957389e-06
      -8.45961858e-06 -8.01589249e-06 -9.81206085e-06 -7.87666340e-06
      -1.05567724e-05 -1.01630549e-05 -1.11347208e-05 -1.33257563e-05
      2.34001141e-06 2.85875467e-05 3.17883205e-05 1.15358043e-05
      5.71480405e-06 1.62181823e-05 1.41653982e-05 1.37061206e-05
      9.82694564e-06 1.53789206e-05 3.69234403e-05 3.72710529e-05
      2.51033052e-05 2.44148814e-05 3.03337820e-05 2.85954102e-05
      2.28831250e-05 3.02182143e-05 -8.86208272e-06 -1.12617417e-05
      -1.03507564e-05 -1.14483400e-05 -1.30073522e-05 -1.45049844e-05
      -1.57886698e-05 -9.25272070e-06 -8.58723615e-06 -1.76683498e-05
      -1.92726548e-05 -2.36400210e-05 -2.17752076e-05 -1.63510288e-06
      2.59742301e-05 1.18194157e-05 -2.84873454e-06 1.94009914e-07
      -2.48085689e-06 -7.32736726e-06 -1.15015300e-05 -1.03709708e-05
      -1.42948666e-05 -1.61957105e-05 -1.70982876e-05 -1.33602580e-05
      -1.20813629e-05 -1.04479859e-05 -9.82494112e-06 -9.18145270e-06
      -1.21483554e-05 -1.35467953e-05 -1.27223848e-05 -1.72218297e-05
      1.17638149e-06 2.12920859e-05 3.26089794e-05 2.67409960e-05
      1.95527409e-05 1.40895600e-05 2.05448978e-05 2.10126273e-05
      4.40867625e-05 4.09900495e-05 3.16351689e-05 3.15949037e-05
      2.96709404e-05 2.77244944e-05 2.19534941e-05 2.90777043e-05
      -7.40354244e-06 -1.03586899e-05 -1.08792337e-05 -1.09745470e-05
      -1.25123624e-05 -1.24993230e-05 -1.43468578e-05 -1.01696687e-05
      -4.33405921e-06 -2.36301094e-05 -1.77287129e-05 -5.09947949e-06
      2.30741043e-05 1.75389450e-05 1.29922219e-05 9.56822621e-09
      -7.04833428e-06 -6.59305442e-06 -9.67053256e-06 -1.30460376e-05
      -1.43980433e-05 -1.32288151e-05 -1.70307776e-05 -1.56478945e-05
      -1.10731744e-05 -1.27370777e-05 -1.31795668e-05 -1.59405390e-05
      -1.47706196e-05 -1.62402175e-05 -1.63708810e-05 -1.27257599e-05
      -1.39971962e-05 -1.15544954e-05 -1.09869316e-05 -8.99109546e-06
      8.31756950e-07 1.80333118e-05 2.68160657e-05 3.28368915e-05
      2.42941078e-05 2.42306796e-05 6.02863001e-05 5.43082424e-05
      4.10062312e-05 3.70260423e-05 3.36419034e-05 2.17007109e-05
      1.58773382e-05 2.22168619e-05 -7.06028050e-06 -8.40435314e-06
      -1.02750146e-05 -1.10809988e-05 -1.24235312e-05 -1.19469278e-05
      -1.59537558e-05 -1.19985962e-05 -1.19171245e-05 -9.76287720e-06
      6.89073204e-06 2.09309183e-05 1.07282549e-05 7.43767578e-06
      -5.09878009e-06 -8.63789774e-06 -5.02340981e-06 -1.17085920e-05
      -1.45432577e-05 -9.08818674e-06 -2.79552978e-06 -3.06354082e-07
      1.28747661e-06 6.57586816e-06 7.87942554e-06 5.89721913e-06
      4.83880422e-06 9.38615187e-07 1.08523670e-08 -5.80127562e-06
      -1.23261025e-05 -1.98107027e-05 -1.92343759e-05 -1.33291442e-05
      -1.33431204e-05 -1.53651763e-05 -1.26408213e-05 -1.13388287e-05
      4.26647284e-06 2.92740042e-05 4.07132175e-05 2.78361968e-05
      5.74532423e-05 5.92279030e-05 4.00643330e-05 2.95726695e-05
      4.07299922e-05 8.98159851e-06 -1.02402407e-06 -5.85864711e-07
      6.80613994e-06 6.27140253e-06 9.54710686e-06 1.23971749e-05
      8.82545737e-06 -4.34783306e-06 -1.40906859e-05 -9.60601665e-06
      6.22867674e-06 1.83059710e-05 2.70752898e-05 1.15285484e-05
      2.10854500e-06 -3.55736915e-06 -5.09179517e-06 -1.10097399e-05
      -2.03065410e-05 -8.94252480e-06 6.24025415e-06 1.01149526e-05
      4.61464015e-06 -9.78400294e-07 -2.22072160e-07 -1.56631222e-06
      -2.69931320e-06 1.08416174e-08 -1.40429336e-06 -4.10303255e-06
      -8.24416816e-07 2.67787391e-06 3.71983879e-06 3.19329069e-06
      -1.02435588e-05 -1.78310365e-05 -2.18983841e-05 -1.50745736e-05
      -1.60273066e-05 -1.28154079e-05 -9.55090309e-06 -8.69614269e-06
      3.05968788e-05 4.28770581e-05 5.31468759e-05 4.84047196e-05
      2.61300265e-05 1.16668280e-05 2.14556057e-05 -3.06684501e-06
      -5.77742139e-06 -7.21927290e-06 1.22692090e-05 9.75403509e-06
      8.05655145e-06 8.92084063e-06 2.23672250e-05 2.61991281e-05
      1.74824108e-05 1.18636362e-05 1.15311041e-05 2.95228074e-05
      1.26173218e-05 1.85253981e-07 -4.62359822e-06 -4.24264090e-06
      -1.38966270e-05 -5.45427838e-06 1.19575097e-05 7.17240482e-06
      4.04314505e-06 -2.28780618e-06 -2.11394058e-06 7.32497983e-06
      2.10850940e-05 2.01175899e-05 2.13101794e-05 2.14361498e-05
      1.99676797e-05 2.03295640e-05 9.13148779e-06 -2.71694785e-06
      -6.51168102e-06 -1.65484323e-06 5.60613080e-06 9.31982322e-06
      -6.10671395e-06 -1.11835125e-05 -1.50957212e-05 -1.63801415e-05
      -1.40531602e-05 -1.25854303e-05 -1.69321333e-06 2.87696639e-05
      3.68434848e-05 3.41254308e-05 1.62039269e-05 5.59057753e-06
      3.43567058e-06 -8.55125290e-06 -1.24405642e-05 -8.19416891e-06
      9.20497951e-06 9.91714842e-06 4.40350050e-06 1.47326527e-05
      2.29961261e-05 2.99827061e-05 1.59713309e-05 1.50079713e-05
      3.58074576e-05 7.34630657e-06 5.27187512e-06 -7.01245699e-06
      -4.13459111e-06 5.48230310e-06 6.24565791e-06 1.43093675e-05
      3.77199012e-06 -1.88145191e-06 1.13182696e-05 2.00333343e-05
      1.70486164e-05 1.49856696e-05 1.26131717e-05 1.04369719e-05
      1.04885130e-05 8.07323795e-06 1.08253853e-05 1.30252765e-05
      1.36257240e-05 1.68396637e-05 1.68621955e-05 1.06625512e-05
      -1.04849887e-05 -7.22695358e-06 4.51953065e-06 7.22994582e-06
      -8.45697741e-06 -1.35874279e-05 -1.49970474e-05 -1.47571955e-05
      -1.12467224e-05 -1.26938712e-05 3.24550383e-05 2.18307850e-05
      1.40065895e-05 1.05163808e-05 -1.58025011e-06 5.55178849e-06
      2.18976106e-06 -9.84689791e-07 1.55445798e-06 -6.55439317e-06
      -6.26260271e-06 4.25370189e-07 5.46575711e-06 3.73852401e-07
      1.40453431e-05 4.23581441e-05 9.62778631e-06 3.08568610e-06
      -6.26994324e-06 7.26196367e-06 1.26290079e-05 1.32292516e-05
      7.03775413e-06 -3.03269167e-06 2.67747146e-06 1.68037568e-05
      1.37342704e-05 1.13991482e-05 1.27364565e-05 8.08161894e-06
      9.89678665e-06 9.53112885e-06 1.15183057e-05 9.84214967e-06
      1.03043058e-05 1.08865470e-05 8.84241126e-06 9.55686210e-06
      1.22920401e-05 1.32548685e-05 1.92308726e-05 6.56896816e-07
      -1.66953396e-05 -3.68632459e-06 2.75882371e-06 1.46633838e-07
      -1.62088782e-05 -1.58036000e-05 -1.57386239e-05 -1.52846897e-05
      -6.54212772e-06 3.96282157e-05 1.15449839e-05 -1.03140428e-05
      2.47169783e-06 7.90162721e-06 -1.65297070e-06 -5.62123478e-06
      9.42007318e-06 9.07359208e-06 1.43884081e-05 5.20179765e-06
      -6.78884771e-06 1.31990032e-06 3.69624904e-05 1.06606994e-05
      -1.63809659e-06 -3.99841474e-06 4.29689999e-06 1.39235672e-05
      9.67364758e-06 6.25199164e-06 2.03035506e-06 6.70917643e-06
      1.34522315e-05 1.35290966e-05 7.93766048e-06 8.11467635e-06
      8.62582601e-06 1.13114229e-05 1.01198757e-05 9.14372140e-06
      9.40839436e-06 8.22911625e-06 1.07204587e-05 9.61857313e-06
      8.85478403e-06 8.42785994e-06 1.21167377e-05 1.11121317e-05
      1.13776850e-05 1.14512513e-05 1.36025083e-05 -9.98348514e-06
      -5.87465047e-06 8.91860691e-06 -2.27802047e-07 -1.78919418e-05
      -1.44086425e-05 -1.24177786e-05 -2.30247533e-05 2.07911180e-05
      3.00808060e-05 1.04771570e-05 1.66139598e-05 5.14758176e-06
      -5.90037962e-06 -7.11390385e-06 -9.23437142e-07 -1.06030784e-05
      -7.91020011e-06 -1.63583463e-05 -1.37412371e-05 1.50316628e-05
      2.72733141e-05 -1.10028498e-06 -7.00785040e-06 4.56916359e-06
      1.24468179e-05 1.12095295e-05 5.64735774e-06 -8.44630631e-06
      5.29355111e-06 1.37752495e-05 9.35554453e-06 1.17878362e-05
      1.63714376e-05 9.96477411e-06 9.12282758e-06 9.61620663e-06
      7.35154936e-06 8.61260742e-06 7.33380284e-06 9.78643129e-06
      1.08186123e-05 6.12904796e-06 1.18774697e-05 9.79958804e-06
      8.74673606e-06 6.09971130e-06 7.69897997e-06 1.29001382e-05
      6.80660150e-06 1.21813109e-05 -7.65659024e-06 -1.08977210e-05
      1.16381352e-05 4.78014363e-06 -1.76248614e-05 -1.27490594e-05
      -8.78766059e-06 -1.91490653e-05 2.75701495e-05 3.49140973e-05
      -6.74669946e-06 -4.28496151e-06 -9.02830925e-06 -8.07888955e-06
      -1.84600158e-05 -1.58386611e-05 -1.11878599e-05 -2.40932131e-05
      -4.34068170e-06 4.78434704e-05 3.58497232e-06 -4.17355295e-06
      -1.21083167e-06 1.38838141e-05 1.33407475e-05 2.79158030e-06
      -1.03785333e-05 1.06166590e-05 1.02245249e-05 1.00593661e-05
      1.09879547e-05 4.14128863e-06 8.19063189e-06 8.42173813e-06
      8.05645232e-06 7.23573748e-06 1.46913144e-05 8.49902426e-06
      1.19102315e-05 8.72019336e-06 8.65547554e-06 8.66223399e-06
      7.70857241e-06 9.80400910e-06 1.16253523e-05 9.80484037e-06
      5.79196558e-06 1.41149239e-05 6.62665298e-06 9.23893185e-06
      1.57450613e-05 -7.72199928e-06 -1.65344445e-05 1.10010187e-05
      -2.88347042e-06 -2.02683150e-05 -1.25824608e-05 -1.78163300e-05
      -3.08367930e-06 4.00074969e-05 6.40127837e-06 -2.13962558e-05
      -2.41386224e-05 -2.38856846e-05 6.12581925e-06 -5.37263486e-06
      -1.44532460e-05 -1.57112700e-05 3.31992705e-05 2.01183866e-05
      -4.37153631e-06 -7.55817337e-06 1.07121759e-05 1.86185916e-05
      1.28201227e-05 -5.94033054e-06 -1.61202394e-07 7.46072828e-06
      1.49664693e-05 8.19949946e-06 1.23458613e-05 9.87010480e-06
      7.37541177e-06 1.14307268e-05 9.04967874e-06 9.80107507e-06
      6.88202044e-06 1.07397727e-05 6.98826761e-06 1.10251685e-05
      6.88575483e-06 9.58514465e-06 9.28705595e-06 8.91632135e-06
      3.79707626e-06 1.00772395e-05 1.27110588e-05 6.72722581e-06
      6.19127877e-06 1.03655775e-05 9.13898020e-06 1.17717682e-05
      -7.32123544e-06 -7.27781662e-06 1.59627580e-05 -5.76630373e-06
      -1.57556642e-05 -5.75406239e-06 -2.25017793e-05 1.38818423e-05
      3.92942966e-05 -1.36547742e-05 -1.47764740e-05 -1.48953468e-05
      2.13554576e-05 1.33665117e-05 -1.22199199e-05 5.55654970e-06
      3.72002360e-05 2.69650491e-06 -5.26107806e-06 9.87380463e-06
      2.18138812e-05 1.40685861e-05 -1.97500754e-06 -1.28260672e-05
      1.09221837e-05 1.48310010e-05 8.95079393e-06 1.47381734e-05
      1.08367904e-05 1.15482180e-05 9.98138239e-06 1.24357666e-05
      8.53348411e-06 1.03809653e-05 3.70481587e-07 -8.44709575e-06
      3.54439436e-07 1.21329549e-05 1.00961606e-05 3.30871603e-06
      1.01966916e-05 9.10494236e-06 9.68460699e-06 2.04839962e-05
      1.63236764e-05 -8.94440382e-06 -1.24803146e-05 -3.57050681e-06
      2.59261196e-06 3.70872772e-06 1.00585530e-05 -2.28439094e-05
      1.70310625e-06 8.97821883e-06 -9.47368517e-06 -1.83067114e-05
      -1.25992556e-05 -9.56025633e-06 2.97515508e-05 1.75687310e-05
      -4.64784671e-06 -7.31910677e-06 1.69374816e-05 1.55758607e-05
      9.69942539e-06 2.93322719e-05 1.21369530e-05 4.73887349e-06
      6.30306158e-06 1.78317896e-05 2.57595948e-05 2.22609810e-06
      -2.47824992e-05 9.73411170e-06 1.02573695e-05 -2.74376862e-06
      -3.44191503e-05 -3.06484217e-05 -1.79333911e-05 2.54414476e-06
      8.82345921e-06 7.36496213e-06 4.07473181e-06 -2.97373463e-05
      -2.68056701e-05 -2.66313036e-05 -4.99118032e-05 -4.27790073e-05
      2.92327582e-06 1.06294965e-05 5.96410291e-06 1.29693481e-05
      3.83717124e-05 1.70495514e-05 -1.38666110e-05 -1.78434420e-05
      -2.68186504e-05 -3.91370086e-05 -3.04946388e-05 8.33621016e-06
      8.77915863e-06 -1.49268055e-06 -1.47245337e-05 1.35116152e-05
      6.09103290e-06 -1.25864863e-05 -1.06760062e-05 -1.90361352e-05
      2.80059703e-05 2.05722026e-05 -7.84311487e-06 -1.80154548e-05
      7.52432356e-07 -8.30483987e-06 -1.90750234e-06 4.90831699e-05
      4.70334612e-07 1.55384384e-06 1.97022418e-05 2.61429250e-05
      1.37157767e-05 -1.31876122e-05 -2.66144639e-07 8.17786986e-06
      -1.62548549e-05 -4.14909118e-05 1.81621795e-06 3.97737094e-05
      2.09860827e-05 2.33836272e-05 7.13700456e-06 9.64811352e-06
      -4.16253242e-05 -3.62869541e-05 -3.08992312e-05 -1.18078851e-05
      2.66957926e-07 -2.10130802e-05 -1.73215631e-05 1.13801952e-05
      8.28791235e-06 4.69591432e-05 3.39614635e-05 -7.31371574e-06
      -1.43682519e-06 1.62333811e-06 1.11305644e-05 6.09158451e-06
      -2.85509268e-05 -4.06199433e-05 6.97137102e-06 9.77824948e-06
      -2.18504774e-05 -3.35006666e-06 1.55382058e-05 -5.10057771e-06
      -1.22756219e-05 -1.19010847e-05 -4.15557497e-06 3.47103560e-05
      6.72035549e-06 -1.68501701e-05 -3.34015886e-06 -1.13888291e-05
      8.25551706e-06 3.51306699e-05 1.43319642e-06 2.98685472e-06
      2.62685426e-05 2.24846572e-05 7.34746550e-07 -1.89517923e-05
      -1.52374594e-06 -3.00984375e-05 -8.38590204e-05 -3.52274365e-05
      3.34819160e-05 4.75918459e-05 4.87045872e-05 2.70745477e-05
      1.07582191e-05 -3.04790356e-05 -5.79431216e-05 -6.44515603e-05
      -6.91765163e-05 -3.04744026e-05 -5.16206637e-06 -3.94928902e-05
      -5.41469926e-05 -3.63122927e-05 3.15524085e-05 6.13597949e-05
      7.53765744e-06 1.53851488e-05 2.28893769e-05 7.25260907e-05
      6.12012882e-05 1.52209568e-05 1.33900653e-06 -4.66625970e-05
      2.04207845e-06 2.93788025e-06 -3.47028094e-06 -1.86932939e-05
      1.22578886e-05 4.02908017e-06 -1.47762057e-05 -1.07086871e-05
      -1.71307747e-05 4.04916100e-05 1.23895497e-05 -4.76946752e-06
      -1.29578643e-06 -8.85454119e-06 2.73786591e-05 1.68317256e-05
      -1.72657724e-06 7.41430904e-06 3.08431590e-05 1.62002798e-05
      -6.06132244e-06 -1.90848932e-05 -2.17070210e-05 -4.66765305e-05
      -8.28261909e-05 -1.74456200e-05 5.32876547e-05 3.97986005e-05
      6.44266183e-05 1.78205628e-05 -1.41439987e-05 -6.17092228e-05
      -1.04262617e-04 -1.26848798e-04 -1.24494236e-05 6.08332120e-05
      3.57117096e-05 -7.61589472e-05 -1.15366296e-04 -1.15449278e-04
      1.36105145e-05 6.73742907e-05 3.62564278e-05 8.83337725e-06
      1.44423066e-05 3.11690965e-05 4.87203470e-05 3.07834016e-05
      9.46948433e-07 -2.85917959e-05 -2.04504558e-05 6.25542907e-06
      3.78274353e-06 -3.22291526e-05 -7.44853196e-07 1.08513950e-05
      -1.05060590e-05 -9.64615356e-06 -2.11703591e-05 3.09687275e-05
      1.89415769e-05 5.08136782e-06 -3.29395561e-06 -9.29349790e-06
      4.36101946e-05 5.37179085e-06 -7.04510603e-06 1.56406149e-05
      2.69590928e-05 1.07889009e-05 -3.06149814e-05 -2.32122857e-05
      -2.64134178e-05 -3.90296227e-05 -6.20264109e-05 1.96910805e-05
      5.78503896e-05 3.96208598e-05 6.33314048e-05 9.69236953e-06
      -2.25849017e-05 -6.28226771e-05 -1.38047646e-04 -8.87879360e-05
      8.13453589e-05 9.60160323e-05 8.97592836e-05 -5.83379369e-05
      -1.43130295e-04 -1.36938877e-04 -1.68292954e-05 7.81153503e-05
      3.65977248e-05 2.68913914e-06 -3.53775977e-05 -5.05545631e-06
      -6.29797159e-06 1.47332430e-05 -6.34755907e-06 -4.87093166e-06
      -1.33352823e-05 -1.39546573e-05 4.66494248e-06 -1.92057923e-05
      -1.32584446e-05 1.08262584e-05 -4.10216171e-06 -1.40545217e-05
      -1.53280325e-05 4.36077244e-06 2.89236668e-05 1.02956592e-05
      2.10680855e-06 -3.84216673e-06 4.73406253e-05 -1.62622871e-06
      -1.01452997e-05 2.69618158e-05 2.16699282e-05 6.99074326e-06
      -4.09691929e-05 -2.08301044e-05 -8.94047207e-06 -1.80116785e-05
      -2.28181507e-05 1.50868036e-05 5.39317334e-05 4.65623707e-05
      6.18661288e-05 1.09702714e-05 -3.01404616e-05 -3.89106790e-05
      -2.77366835e-05 1.07647065e-06 8.11772188e-05 1.74634843e-04
      1.57839633e-04 1.42459648e-05 -1.00849014e-04 -1.49773492e-04
      -3.16632213e-05 9.17087018e-05 1.79711315e-05 -1.58091771e-05
      -6.89887238e-05 -2.78101143e-05 -3.11687581e-05 1.58112998e-05
      3.32428754e-05 -2.58906312e-06 5.08232370e-06 -2.24785854e-05
      2.81067378e-06 -1.31909201e-06 -2.21037044e-05 9.60193847e-06
      -1.43109594e-06 -1.51360337e-05 -1.01025953e-05 -7.84254189e-06
      3.73370967e-05 1.11977897e-05 -4.43558656e-06 -6.66684173e-06
      3.59249607e-05 -6.37392623e-06 -6.99390603e-06 3.71074093e-05
      1.78235605e-05 -7.77974662e-07 -4.20857832e-05 -1.89547864e-05
      -4.05907667e-05 -2.80523109e-05 -1.57095565e-05 -3.25988907e-07
      4.59368639e-05 4.52785425e-05 6.08069968e-05 1.75413843e-05
      -7.24625170e-06 2.70131186e-05 4.61948621e-05 6.60158548e-05
      9.63311541e-05 1.59404924e-04 1.69151943e-04 2.44088569e-05
      -8.98141152e-05 -1.53243382e-04 -2.16351236e-05 9.11701791e-05
      1.99462775e-05 -5.06035467e-05 -8.36246909e-05 -2.78318075e-05
      -2.97685710e-05 3.21572384e-06 2.57533375e-05 7.46364412e-06
      1.30730368e-05 -5.95932852e-06 -5.43582519e-06 -2.50523362e-06
      -2.83245008e-05 1.01960268e-05 -2.95332006e-06 -1.11928357e-05
      -1.54807021e-05 -8.56672978e-06 3.66454587e-05 5.38228460e-06
      -2.01643388e-06 -2.41666726e-06 2.78927237e-05 -9.00812211e-06
      -2.73804017e-06 4.13385715e-05 1.39835756e-05 -1.09396287e-05
      -2.63288857e-05 -1.29066848e-06 -1.07789538e-05 -1.71828124e-05
      -2.05545512e-05 -2.09267873e-05 4.56380149e-05 4.50876651e-05
      6.93297188e-05 2.27680066e-05 5.44315162e-06 6.44592801e-05
      1.08115557e-04 8.01744245e-05 8.94285331e-05 1.45666287e-04
      1.34517817e-04 1.85302670e-05 -9.99541298e-05 -1.24740473e-04
      -1.54948048e-05 1.02671525e-04 1.37368033e-05 -7.05386628e-05
      -8.41108995e-05 -2.60075449e-05 -3.21607877e-05 -4.47468267e-08
      2.40017562e-05 1.83559393e-06 2.86297454e-05 3.06022542e-07
      -1.00718544e-05 -8.54681548e-06 -2.77441341e-05 8.43360431e-06
      -5.05524940e-06 -9.91974593e-06 -1.86162870e-05 -1.32747509e-05
      4.26013903e-05 1.43605366e-05 -6.06807589e-06 -2.36843516e-06
      2.49871300e-05 -8.61378157e-06 -2.27138102e-07 4.22462836e-05
      1.28872998e-05 -1.70616968e-05 -2.08445308e-05 9.32894818e-06
      4.53021630e-06 -1.80869447e-05 -4.59006551e-05 -4.80869494e-05
      4.08171363e-05 4.62065545e-05 6.41355873e-05 2.97335191e-05
      1.15015191e-05 2.83226946e-05 2.25860531e-05 2.97238057e-05
      6.53898824e-05 1.33768131e-04 9.69037501e-05 -8.24607923e-06
      -1.15035073e-04 -9.54454372e-05 1.82010153e-05 1.15648269e-04
      1.41788569e-05 -7.47924860e-05 -8.90025694e-05 -3.25247856e-05
      -2.34838408e-05 5.28063720e-06 1.25013439e-05 1.33009244e-05
      2.51057063e-05 1.27854764e-05 -1.24501794e-05 -1.16059782e-05
      -2.83827067e-05 1.77051061e-06 -6.36121649e-06 -9.51372931e-06
      -7.98268775e-06 -1.22009405e-05 3.16409569e-05 1.00565330e-05
      -1.75313307e-05 -3.64073685e-07 1.95117827e-05 -9.05492016e-06
      1.71817157e-06 4.07053485e-05 1.84395303e-05 -2.12878731e-05
      -1.31917577e-05 9.98615542e-06 6.76160607e-06 -2.01910134e-05
      -4.68197832e-05 -5.33792518e-05 4.07584448e-05 4.69119659e-05
      6.64762410e-05 2.93072280e-05 6.63257697e-06 1.11457939e-05
      1.22976289e-05 2.01676921e-05 5.10614009e-05 1.07028252e-04
      4.05822502e-05 -4.62279750e-05 -1.00122314e-04 -5.95664060e-05
      4.97436049e-05 1.23543286e-04 2.14750216e-05 -7.95309825e-05
      -8.86041889e-05 -3.30204457e-05 -2.05876240e-05 -6.44426379e-08
      1.09517368e-05 1.54812951e-05 2.81516823e-05 1.43749339e-05
      -1.54033351e-05 -1.03469847e-05 -2.81740722e-05 2.76748528e-06
      -2.20547508e-06 -7.21996639e-06 -1.18641010e-05 -1.14963268e-05
      3.15046855e-05 5.70827115e-06 -6.73980412e-06 1.64244932e-06
      2.94357378e-05 -8.99855968e-06 -1.19818606e-06 4.40574113e-05
      1.66946847e-05 -2.27467262e-05 -1.61780845e-05 9.64683659e-06
      1.05299250e-05 -1.60488071e-05 -4.52485183e-05 -5.39053981e-05
      3.94195959e-05 4.54223482e-05 6.92126559e-05 2.65050658e-05
      1.41004766e-05 3.59522392e-06 2.53138774e-06 6.40855660e-06
      4.54788824e-05 1.69813575e-05 -1.34871734e-05 -4.66134734e-05
      -4.27038030e-05 -2.16463013e-05 7.58038586e-05 1.16538067e-04
      2.25899912e-05 -6.80433441e-05 -8.75907062e-05 -3.87492910e-05
      -2.43211634e-05 5.34024275e-06 1.36875278e-05 4.86713179e-06
      2.87464736e-05 1.29013779e-05 -1.34169313e-05 -1.18651178e-05
      -2.87113926e-05 -2.73934302e-06 -2.97793827e-06 -5.93635332e-06
      -1.61755561e-05 -8.37867810e-06 2.99619151e-05 7.13149484e-06
      2.52224636e-05 1.72560904e-05 3.14346435e-05 -1.26937139e-05
      -7.95586038e-06 4.18448690e-05 1.25919851e-05 -1.17205418e-05
      -1.81169871e-05 8.50608285e-06 7.96406493e-06 -1.64353914e-05
      -4.62523312e-05 -5.93429868e-05 3.88660883e-05 4.74830049e-05
      6.56839184e-05 3.25362089e-05 7.58153283e-06 8.81012420e-06
      -3.92149195e-06 -7.75828880e-07 -3.07820337e-05 -4.72107313e-05
      -1.31990346e-05 -1.11909567e-05 2.65921371e-05 1.41671344e-05
      7.74528453e-05 1.17678908e-04 2.63364054e-05 -5.76515777e-05
      -8.50180222e-05 -4.17834017e-05 -1.86377420e-05 -9.52604694e-07
      2.50702778e-05 1.09493658e-05 2.99461935e-05 6.17129854e-06
      -1.25186461e-05 -1.18803182e-05 -2.92348777e-05 1.34148674e-08
      -3.41138525e-06 -7.55350311e-06 -1.54312238e-05 -8.82181757e-06
      3.01667405e-05 6.94575874e-06 3.20397012e-05 1.74512916e-05
      2.86693812e-05 -6.25383200e-06 -6.67047470e-06 3.91969770e-05
      1.41274122e-05 -3.34925198e-06 -3.00345837e-05 7.43427609e-06
      7.82136249e-06 -1.57938430e-05 -4.32403613e-05 -5.98244624e-05
      3.86782449e-05 4.64284785e-05 6.40960789e-05 2.96251583e-05
      4.87413081e-06 2.95899372e-06 -1.38836594e-05 -5.02031835e-05
      -1.28779589e-04 -5.07938894e-05 -1.46337584e-06 7.94700827e-05
      6.68790017e-05 2.20966340e-05 6.68188732e-05 1.10780675e-04
      2.98163068e-05 -4.38818970e-05 -7.29451494e-05 -3.07164628e-05
      -3.10916184e-05 2.42768710e-05 4.13355301e-05 1.31516686e-06
      1.62422693e-05 -7.47262311e-06 -8.80853349e-06 -1.38023861e-05
      -3.13667442e-05 9.07215053e-06 -2.73106320e-06 -1.23172331e-05
      -9.56849908e-06 -1.07276246e-05 2.36444066e-05 5.74694559e-06
      2.75642105e-05 1.45024824e-05 3.51107192e-05 -6.12847862e-06
      -1.83830434e-06 3.54817275e-05 2.22713697e-05 4.79156461e-06
      -3.91699396e-05 8.92090338e-06 1.24513317e-05 -1.58824405e-05
      -4.65698467e-05 -6.19994680e-05 3.98370066e-05 4.24943755e-05
      7.16619179e-05 2.96712515e-05 8.37692460e-06 -1.13107126e-05
      -4.56029593e-05 -1.24383034e-04 -1.44580408e-04 -3.54845470e-05
      7.14412963e-05 1.46720733e-04 7.00228047e-05 1.57395316e-05
      5.88777111e-05 9.07808499e-05 4.11214678e-05 -1.92486095e-05
      -7.28994200e-05 -8.70622716e-06 -3.06261572e-05 3.76936259e-05
      4.09329587e-05 -2.93664766e-06 -3.30011773e-07 -2.40353074e-05
      -2.85450096e-06 -2.34035269e-05 -2.90295902e-05 1.07184778e-05
      -1.40405052e-06 -1.46102029e-05 -7.94976677e-06 -3.08140807e-06
      1.66305763e-05 9.65870549e-06 2.76235187e-05 2.72978946e-06
      3.48011454e-05 -9.16147110e-06 -6.34261596e-06 2.20010843e-05
      3.22958804e-05 8.62005163e-06 -3.47745008e-05 -1.18003447e-06
      1.30344515e-05 -1.00045199e-05 -4.73202781e-05 -6.52853269e-05
      3.81396785e-05 4.29828251e-05 6.77765347e-05 2.32518541e-05
      -7.08282505e-06 -2.96792805e-05 -9.60319740e-05 -1.80917501e-04
      -1.31544308e-04 -2.64547252e-05 9.99174372e-05 8.43560410e-05
      -2.39484666e-06 -4.59045223e-05 -1.55330799e-05 6.44595566e-05
      3.81057725e-05 -7.71954944e-07 -5.50634322e-05 -2.16876415e-05
      -5.46672563e-05 -1.68398230e-07 -1.36764720e-05 -2.24673549e-05
      -5.26088734e-05 -3.23835520e-05 -3.47070591e-06 -3.52822863e-05
      -1.88169379e-05 6.56708562e-06 4.46202989e-07 -1.25556935e-05
      -9.96475683e-06 1.46116936e-05 9.33423144e-06 8.08697621e-07
      3.14438985e-05 1.32841751e-06 2.34447034e-05 1.90816465e-07
      -4.95850645e-06 8.62397064e-06 3.51281888e-05 1.57406266e-05
      -1.75129226e-05 -1.81665582e-05 9.10217932e-06 -6.76494483e-06
      -4.81875941e-05 -6.60744263e-05 3.25774527e-05 3.71952119e-05
      7.61722113e-05 2.02407082e-05 -2.01764797e-05 -5.39333087e-05
      -1.37559051e-04 -2.02683848e-04 -1.44467005e-04 -2.82647743e-05
      7.30307802e-05 3.81480822e-05 -4.38547177e-05 -8.93863107e-05
      -5.16988184e-05 4.33955138e-05 3.81031605e-05 8.59072770e-07
      -6.07521542e-06 2.78787070e-06 -3.16498808e-05 -2.68219919e-05
      -5.39398934e-05 -4.16121293e-05 -5.92104116e-05 4.63600600e-06
      -1.33681988e-05 -3.62694773e-05 -5.76435377e-06 4.75545721e-06
      -2.99602311e-06 -1.14078466e-05 -1.01693095e-05 2.67730484e-05
      1.95333837e-06 -2.07837056e-05 2.49668301e-05 -8.22973959e-07
      6.12517806e-06 1.34275724e-05 -4.66100937e-06 -1.38580754e-06
      3.46234301e-05 2.09669797e-05 -5.51098901e-06 -3.14214158e-05
      3.96647056e-06 -7.21041852e-06 -3.94702984e-05 -3.50056071e-05
      7.13351983e-05 7.69054677e-05 6.22275620e-05 1.64952562e-05
      -2.75700750e-05 -5.71106939e-05 -1.43670521e-04 -1.65047590e-04
      -1.05333726e-04 2.88180545e-05 8.92231183e-05 5.13794730e-05
      -2.30301739e-05 -6.98093718e-05 -1.23770760e-05 5.23263989e-05
      4.17437805e-05 8.76339436e-06 6.02912496e-06 4.99272610e-05
      3.32115451e-05 2.49969726e-05 -1.10982774e-06 1.20938512e-05
      -4.60699994e-06 -2.15611294e-07 -2.12462946e-05 -2.93923149e-05
      -1.40437749e-07 4.27259010e-06 -9.13928943e-06 -1.28473666e-05
      -8.75094338e-06 2.85928891e-05 -2.02168076e-06 -3.31085030e-05
      2.19996000e-05 3.69264103e-06 -1.09507164e-06 3.39906146e-05
      -5.54577946e-06 -3.82558392e-06 1.55412672e-05 3.58999605e-05
      1.13507176e-05 -3.57803074e-05 -8.55974940e-06 -4.87449779e-06
      -4.17507363e-05 -2.98262376e-06 9.08973816e-05 8.36570325e-05
      4.14433161e-05 1.19401443e-06 -3.78091136e-05 -5.27899101e-05
      -1.26933868e-04 -1.23724414e-04 -7.21484103e-05 1.22581714e-05
      4.58048416e-05 1.50644519e-05 -5.35240943e-05 -7.67571037e-05
      1.28988831e-05 5.03658775e-05 4.67586360e-05 1.77669190e-05
      1.33839712e-05 4.66901911e-05 8.29518176e-05 7.10260720e-05
      6.85266496e-05 3.24104003e-05 5.96549626e-06 -6.03721674e-06
      -3.46036868e-05 -1.46980592e-05 1.16890915e-05 -2.73483533e-06
      -1.19886681e-05 -1.05650124e-05 -8.64298443e-07 1.94670738e-05
      -1.40650882e-05 -2.88133342e-05 3.21650009e-06 -2.25755266e-05
      -1.88365666e-05 2.15223699e-05 -3.45955414e-06 -7.84080657e-06
      4.52779977e-06 3.63621475e-05 1.63555633e-05 -2.08095935e-06
      -3.57577628e-05 -6.94790651e-06 -2.55158375e-05 -2.68848180e-05
      2.40881363e-05 6.17304568e-06 3.98222392e-06 -5.19052901e-06
      -2.53336875e-05 -3.38711943e-05 -1.02198814e-04 -9.51505426e-05
      -5.19636596e-05 -1.91470590e-05 -1.66136178e-05 -5.11120306e-05
      -7.59315153e-05 -7.97912435e-05 5.04371747e-06 3.48573631e-05
      4.69590050e-05 2.45504307e-05 7.88556008e-06 1.67142446e-06
      1.36214931e-05 1.48819963e-05 -3.05975959e-06 -1.26044288e-05
      -1.38519749e-06 -1.42218005e-05 -2.61568748e-05 1.49843606e-06
      1.05903873e-05 -9.68359927e-06 -5.17657236e-06 -2.05161396e-05
      2.53281123e-05 6.59816533e-06 -5.35974050e-06 -1.35092769e-05
      -6.29011993e-07 -1.76720423e-05 -3.50015762e-05 -8.26729229e-06
      2.97218048e-05 -8.80076641e-06 -1.27033663e-05 1.73399294e-05
      4.08774285e-05 5.68260066e-06 -1.90398296e-05 -3.18903294e-05
      -4.35072388e-06 -3.46858724e-06 1.62244578e-06 -1.65692036e-05
      -2.13323892e-05 -1.12124226e-05 -1.72409989e-06 -6.49887352e-06
      -7.19896925e-05 -7.46288206e-05 -3.61682323e-05 -2.59124827e-05
      -3.96735668e-05 -6.13026205e-05 -6.01925785e-05 -5.64539732e-05
      8.18250214e-07 9.07101366e-06 2.39183446e-05 3.54185249e-05
      1.85898734e-05 8.78298943e-06 -4.81030474e-06 -8.31782654e-06
      -6.44805868e-06 -7.66097116e-07 -7.48205196e-08 -2.53727758e-05
      -1.23935997e-05 1.31026236e-05 6.99753286e-07 -8.08354253e-06
      -1.17087357e-05 -3.64587686e-06 2.41692687e-05 -1.02230524e-05
      -1.11069976e-05 -1.21769608e-05 -2.62223311e-05 -2.82516357e-05
      -3.87409818e-05 -2.94404254e-05 1.48527333e-05 5.12231782e-06
      -6.18060449e-06 -6.64090248e-06 2.77740128e-05 2.71620447e-05
      2.47863818e-06 -3.86881729e-05 -1.16962365e-05 6.52093740e-06
      3.45440912e-06 3.48998555e-07 4.54370638e-06 4.70656823e-06
      7.11947632e-06 3.73124817e-06 -5.49271090e-06 2.27688020e-07
      7.73129341e-06 7.78787489e-06 3.10654968e-06 8.39838265e-07
      2.25640315e-06 -4.25430881e-06 7.62403306e-06 5.75265130e-06
      6.01117972e-06 1.48349845e-05 1.46036191e-05 1.24984726e-05
      3.10718588e-06 2.11166457e-06 4.35875336e-06 9.50299454e-06
      -2.64920873e-05 -1.97559311e-05 6.66586220e-06 1.36781100e-05
      -1.16848996e-05 -1.25525985e-05 -1.08558042e-05 2.24616051e-05
      3.43036641e-06 -2.13639596e-05 -3.59459118e-05 -3.37400088e-05
      -2.74187623e-05 -3.29753457e-05 -3.21504267e-05 -2.87393450e-05
      -1.95465745e-05 2.16504159e-05 -8.08182995e-06 -5.64031097e-06
      4.07751349e-06 3.67411012e-05 1.53933051e-05 -5.62167907e-06
      -3.22544802e-05 -1.76176400e-05 1.47731871e-05 1.29388695e-06
      5.71220471e-06 5.35052641e-06 1.02414851e-05 6.43212525e-06
      2.52368659e-06 9.00397845e-06 8.04380306e-06 7.28970190e-06
      8.59263400e-06 8.13252609e-06 8.33565264e-06 7.64778270e-06
      2.87475541e-06 7.31568753e-06 8.24120525e-06 3.43147985e-06
      5.45065586e-06 3.73109765e-06 8.95948870e-06 4.68177359e-06
      4.14176247e-06 -1.65954043e-05 -1.89947623e-05 -4.15853174e-06
      8.80799598e-06 -7.37898290e-06 -1.61639200e-05 -9.14771044e-06
      -2.15398177e-06 2.73174992e-05 1.30544804e-05 -2.18966379e-05
      -3.70847301e-05 -4.15412942e-05 -3.05094291e-05 -1.45289432e-05
      -1.77852853e-05 -1.84257369e-05 -2.47876960e-05 9.34710442e-06
      8.74394755e-06 -4.73591354e-06 -3.11372401e-06 1.37429324e-05
      2.41550679e-05 1.48152249e-05 -1.11184663e-05 -3.00396659e-05
      -1.12456773e-05 6.19577122e-06 7.08805919e-06 7.57890348e-06
      1.86936279e-06 8.57855593e-06 7.91270395e-06 7.10566019e-06
      4.97060546e-06 8.28110296e-06 5.06318247e-06 4.90823913e-06
      2.37268046e-06 5.72589852e-06 2.70320220e-06 3.04971286e-06
      4.81696907e-06 6.08320579e-06 4.91468018e-06 5.87475597e-06
      6.45581076e-06 2.49626169e-06 -1.87005535e-05 -1.57940431e-05
      -1.35426735e-05 3.20971685e-06 -7.31603268e-06 -1.18254156e-05
      -3.06674610e-06 -6.50192487e-06 2.50764078e-05 3.09495263e-05
      3.98721750e-05 2.41834132e-05 7.63003300e-06 -2.82665701e-06
      -1.56789101e-05 -7.13712961e-06 -1.81334635e-05 -1.48815061e-05
      -2.43772374e-05 -2.31499198e-05 2.25620242e-05 1.07003849e-07
      -7.50328763e-06 -4.37771587e-06 2.04554926e-05 2.15185773e-05
      1.57039867e-05 -2.25629151e-06 -2.27435521e-05 -2.28765148e-05
      2.48609808e-06 5.07683581e-06 4.28209569e-06 1.00416501e-05
      4.14829810e-06 4.22046696e-06 7.38275457e-06 4.22883750e-06
      6.35004517e-06 1.08648719e-05 9.60053330e-06 6.36665163e-06
      6.21337131e-06 6.13397879e-06 3.81205882e-06 3.43648162e-06
      6.06132426e-06 1.84372652e-06 1.83068437e-06 -1.62480428e-05
      -1.94796812e-05 -5.92658807e-06 8.81294852e-07 -9.81387439e-06
      -1.59702486e-05 -1.22768834e-05 -6.34864364e-06 1.55631005e-05
      2.05911856e-05 3.72311551e-05 4.05497449e-05 4.61083146e-05
      4.21356672e-05 3.54619697e-05 -2.22276449e-05 -1.45170434e-05
      -5.59986529e-06 3.30254238e-06 5.15638158e-06 -1.73443386e-05
      -1.64899684e-05 2.29289617e-05 -4.13571206e-06 -1.01600908e-05
      -1.62234653e-06 2.22984927e-05 2.54992392e-05 1.07343185e-05
      -9.05525212e-07 -1.80001934e-05 -2.21613336e-05 -5.54407188e-06
      8.17593445e-06 3.56164628e-06 5.04164927e-06 6.09345352e-06
      4.95327276e-06 4.43950512e-06 7.48897901e-06 4.93046173e-07
      3.03608704e-06 2.53124063e-06 4.53223765e-06 4.77399954e-06
      5.15927604e-06 7.41756094e-06 5.97162580e-06 -7.26008102e-06
      -1.98342477e-05 -1.97520258e-05 -1.54636098e-06 -3.11778331e-06
      -3.49627635e-06 -1.22095944e-05 -2.02715055e-05 -1.03751927e-05
      3.29443196e-06 3.38269965e-05 1.59859446e-05 1.63180139e-05
      2.22286453e-05 3.60928534e-05 4.11962064e-05 4.24280261e-05
      -8.97645714e-06 -2.73152546e-06 -5.30326770e-06 -7.47801460e-06
      -4.63938477e-06 -1.26844843e-05 -1.03003031e-05 -1.04971004e-05
      2.38104585e-05 -1.17613354e-05 -1.33593915e-06 -5.96049540e-06
      8.54038899e-06 3.03639281e-05 1.44902606e-05 5.32701324e-06
      -7.45550960e-06 -1.96965921e-05 -2.32901875e-05 -8.46760031e-06
      5.52781239e-06 6.53515690e-06 2.85059605e-06 3.94761673e-06
      3.08621998e-06 5.82156099e-06 4.28439216e-06 5.09685924e-06
      6.14960800e-06 5.88521880e-06 1.51891879e-06 -8.14549003e-06
      -1.95181528e-05 -1.55305806e-05 -1.40312313e-05 -1.49669268e-06
      -1.33008962e-05 -8.51292407e-06 -8.21922094e-06 -1.61037060e-05
      -8.99189399e-06 -3.15710440e-06 2.01618313e-05 1.77440652e-05
      -2.17656122e-07 1.58452149e-05 8.69431551e-06 1.94426520e-05
      2.12412469e-05 3.18419407e-05 -2.78065163e-05 -2.36181986e-05
      -2.69519860e-05 -2.97788738e-05 -3.44897344e-05 -2.70156615e-05
      -2.17819252e-05 -1.96264591e-05 -2.98285431e-06 2.58478776e-05
      -3.68698261e-06 -1.05856470e-05 -3.72900763e-06 7.58557098e-06
      1.50838005e-05 2.22501367e-05 1.28070278e-05 1.21779340e-06
      -9.02575539e-06 -1.87934093e-05 -2.47019925e-05 -2.04507105e-05
      -8.85424197e-06 2.60735351e-06 4.70324130e-06 4.17105326e-07
      5.32655406e-07 5.29943236e-07 -1.25913512e-05 -2.22145991e-05
      -1.80060815e-05 -1.75591376e-05 -1.46026387e-05 -2.13224962e-06
      -2.06473760e-06 -5.84837517e-06 -3.79249059e-06 -9.36793094e-06
      -1.23654572e-05 -9.36437027e-06 -7.04729700e-07 1.78094670e-05
      -5.17191029e-06 4.52986967e-07 1.37503803e-05 1.27517378e-05
      5.54612279e-06 1.50492124e-05 8.93200104e-06 1.72119962e-05
      -3.09177958e-05 -1.32883215e-05 -1.13854185e-05 -1.55733724e-05
      -1.40903012e-05 -4.89302647e-06 -8.36522577e-06 6.45928139e-06
      -1.32975547e-05 5.40785777e-06 1.90064511e-05 -2.40129793e-07
      -7.26637893e-07 -9.78725893e-06 -7.73770171e-06 5.11606277e-06
      1.83031789e-05 1.58547300e-05 1.69907835e-05 7.01826548e-06
      -6.73745308e-06 -1.23013151e-05 -1.78781302e-05 -2.44813982e-05
      -2.14568172e-05 -1.70311650e-05 -1.73530916e-05 -1.71452702e-05
      -1.45324684e-05 -8.80839434e-06 -1.29343505e-06 1.30455714e-06
      1.19929673e-05 8.74508532e-06 -4.11880728e-06 -9.62529339e-06
      -9.97976804e-06 -1.35834580e-05 -8.23361643e-06 3.31793490e-06
      1.59315659e-05 -3.06706056e-06 1.05753143e-05 2.08155348e-06
      7.02290527e-06 1.15500607e-05 1.95448479e-06 6.18799913e-06
      1.50909182e-06 5.64963693e-06 -1.61996377e-06 7.79548009e-06
      1.06365460e-05 7.88970647e-06 9.35327989e-06 -1.96589349e-06
      4.57877896e-08 1.73075350e-05 3.25316214e-05 -3.43449429e-08
      1.09560988e-05 3.25037981e-05 1.74036256e-06 -4.65813491e-06
      -1.03712782e-05 -3.34459651e-06 -3.56506757e-06 2.83005284e-06
      1.80944498e-05 1.92661591e-05 5.74427077e-06 -5.95182928e-06
      -1.08628910e-05 -1.07725991e-05 -1.29192340e-05 -1.27601870e-05
      -1.59709580e-05 -1.12164489e-05 1.04602486e-06 7.23286712e-06
      7.92890114e-06 1.01964733e-05 -8.65170648e-07 -9.85238421e-06
      -5.40639292e-07 -9.31441991e-06 -1.38865098e-05 -4.58677414e-06
      1.53275432e-05 1.75269852e-05 7.94986227e-06 2.81480675e-06
      -1.43222314e-05 -5.57483827e-06 -3.76073581e-06 7.23992389e-06
      1.04203546e-05 7.36107950e-06 4.59739158e-06 3.44311820e-06
      9.38963240e-06 1.52858738e-05 1.71187185e-05 6.93735547e-06
      6.52204380e-06 7.26188546e-06 2.21695227e-05 1.58607490e-05
      1.92817170e-05 3.12166412e-05 2.32743751e-05 1.30497310e-05
      3.23239401e-05 1.42732779e-05 -3.33008370e-06 -9.52805294e-06
      -7.93992513e-06 -1.03372759e-05 -8.44914393e-06 -4.90448110e-06
      -1.45977833e-06 -3.05710813e-07 -4.97902283e-06 -1.04055671e-05
      -1.12569660e-05 -9.97985262e-06 1.04722744e-06 1.07460883e-05
      1.03563898e-05 3.44540103e-06 -2.59928152e-06 -6.38335405e-06
      -6.32801812e-06 -1.12196994e-05 -1.14791792e-05 -1.34947468e-05
      8.66147820e-06 3.24661851e-05 2.89252130e-05 2.61434943e-05
      -3.71576925e-06 6.39865618e-07 -1.33152698e-05 -2.29055695e-05
      -1.63336870e-06 8.42952159e-06 7.61602314e-06 7.69514918e-06
      9.98791711e-06 6.69763995e-06 3.27544803e-05 2.27406254e-05
      1.46884713e-05 7.92070659e-06 9.27146903e-06 2.56849535e-06
      1.59254778e-05 3.08521739e-05 4.08472042e-05 3.85618187e-05
      2.94152123e-05 1.90930514e-05 9.28838654e-06 2.25872300e-05
      3.17257436e-05 8.74126090e-06 -6.03098806e-06 -4.08106007e-06
      -5.40129622e-06 -7.38518156e-06 -1.01100786e-05 -1.21836765e-05
      -9.45547890e-06 -4.50668676e-06 -1.16122283e-05 -8.42223926e-06
      -1.22114545e-06 7.91181776e-07 -1.92882976e-06 -3.82409553e-06
      -6.35703645e-06 -7.67965957e-06 -9.08518632e-06 -3.04245327e-06
      1.56604344e-07 2.04610551e-05 3.60748563e-05 2.31088416e-05
      -1.42893741e-05 -8.82855420e-06 -1.04649534e-05 -1.08103504e-05
      -1.49779107e-05 -2.20826078e-05 -2.36405813e-05 2.63551783e-07
      7.08263133e-06 4.98412646e-06 7.85938573e-06 5.67112011e-06
      2.84248381e-05 2.56504918e-05 1.02930680e-05 -2.15564071e-07
      1.21969933e-05 1.30180561e-05 7.71151372e-06 1.54583850e-05
      1.68694478e-05 9.84665076e-06 2.12954546e-06 1.52936791e-05
      8.20839250e-06 9.91367142e-06 3.28686292e-05 2.77995841e-05
      2.92371860e-05 1.86473681e-05 3.04035234e-06 -3.90009154e-06
      -4.57537681e-06 -4.31637500e-06 -6.90189927e-06 -1.30907874e-05
      -9.55445012e-06 -4.41123666e-06 6.71484202e-07 -9.93431286e-07
      -4.30171212e-06 -6.13600014e-06 -6.40702956e-06 7.07849210e-07
      9.45589545e-06 2.37571185e-05 3.19590472e-05 3.03378874e-05
      2.04301596e-05 -1.41073297e-05 -3.81471946e-05 -3.10441028e-05
      -2.18045971e-05 -1.11477029e-05 1.27112537e-06 -3.06853030e-06
      -1.73819099e-05 -1.74265042e-05 -2.12930536e-06 -3.63716276e-06
      9.33492356e-06 8.77069306e-06 2.44268358e-05 1.89993989e-05
      7.53265158e-06 3.03844217e-06 4.38539337e-06 3.29585623e-06
      3.77588981e-06 8.30605768e-06 9.66653624e-06 -9.65580966e-06
      1.11170959e-06 1.73901026e-05 2.52917253e-05 2.49589048e-05
      2.58307555e-05 2.70974651e-05 2.59869303e-05 3.11982076e-05
      3.35254554e-05 3.07618502e-05 2.13926087e-05 1.26851101e-05
      7.71470695e-06 -6.28155192e-07 2.67588302e-06 -7.31933937e-07
      4.37338349e-06 5.24862253e-06 9.65338404e-06 2.51799884e-05
      3.41819432e-05 3.40528641e-05 3.81769969e-05 2.77239178e-05
      5.62171317e-06 -3.10517280e-05 -3.83472070e-05 -3.11753138e-05
      -4.03558370e-05 -4.53101093e-05 -4.32470697e-05 -3.83725164e-05
      -1.85614372e-05 -1.58005314e-05 -2.40770041e-05 -3.54064905e-05
      -3.30793482e-05 -1.93862834e-05 -4.86751787e-06 -4.44907482e-06
      8.86197631e-06 1.94780114e-05 2.28800400e-05 2.23420266e-05
      1.35907130e-05 1.10434939e-05 8.09947414e-06 9.85179304e-06
      7.61187357e-06 6.81967913e-06 -1.40521263e-06 1.09232833e-05
      1.48494128e-05 2.75748316e-05 2.74030008e-05 2.22937360e-05
      1.25561728e-05 2.82805991e-06 1.04687570e-05 2.74476588e-05
      3.48420290e-05 4.11361143e-05 3.68025285e-05 3.19972351e-05
      3.09892857e-05 3.51419949e-05 3.90649293e-05 4.40425756e-05
      4.65843514e-05 5.15627289e-05 3.60133345e-05 1.18231283e-05
      -1.96557412e-05 -2.57621487e-05 -3.39637118e-05 -3.45101289e-05
      -2.83180852e-05 -3.57376484e-05 -4.24969476e-05 -4.41577758e-05
      -3.90686218e-05 -3.52135503e-05 -2.80861259e-05 -1.95963803e-05
      -1.25685201e-05 -2.28532790e-05 -4.26566512e-05 -4.41883276e-05
      -1.26427449e-05 1.15886917e-06 9.96200197e-06 2.93096218e-05
      4.25144390e-05 3.84940759e-05 1.83491702e-05 2.60840829e-06
      -3.38451696e-06 -2.80103450e-06 -1.03620523e-05 -5.92562128e-06
      -1.19681681e-05 2.17730019e-07 2.20191873e-06 1.63154491e-05
      1.99585356e-05 1.66024820e-05 9.45844386e-06 -2.98536997e-06
      8.70965778e-06 1.93851884e-05 1.38424512e-05 6.17762726e-06
      7.56044483e-06 1.74084871e-05 5.40843348e-06 1.17051115e-06
      3.61151069e-06 4.37390872e-06 -2.88421529e-06 -1.48257404e-05
      -2.46239470e-05 -3.34949000e-05 -2.93981739e-05 -3.17225968e-05
      -3.55219599e-05 -2.84686739e-05 -2.63298443e-05 -2.85276346e-05
      -3.40526822e-05 -3.47989553e-05 -3.23177992e-05 -3.10441210e-05
      -2.74495778e-05 -1.82451695e-05 -9.51214861e-06 -1.57393242e-05
      -3.37242673e-05 -3.49910697e-05 -9.06243895e-06 1.06366087e-05</_>
    <_>
      3.35337936e-05 3.10728246e-05 2.81503653e-05 3.19857536e-05
      1.05091221e-05 2.69665907e-06 2.04788103e-05 3.20557447e-05
      3.14010831e-05 1.04502769e-05 1.84441592e-06 7.51463040e-06
      9.49207242e-06 8.48766922e-06 6.65692505e-06 1.12479111e-05
      8.63500463e-06 6.50561606e-06 3.57674844e-06 5.41954068e-06
      1.13536398e-05 1.53453420e-05 1.69923442e-05 1.76661124e-05
      1.16741194e-05 1.37440884e-05 1.47370192e-05 1.45277272e-05
      9.35668322e-06 5.35472373e-06 6.42585201e-06 1.84561338e-06
      2.15731370e-06 -3.28836876e-07 -2.98622876e-06 -2.23617144e-06
      -3.52632946e-06 -2.59634180e-06 -2.34915728e-06 -4.27582563e-06
      -1.73258704e-05 -8.01430724e-06 -1.21685835e-05 -1.46479006e-05
      -3.30538978e-06 -9.72533144e-06 -1.05497693e-05 -3.24830057e-06
      -7.39965799e-06 -3.11111506e-07 4.02620244e-05 3.99249984e-05
      3.43283718e-05 3.07220107e-05 2.56962685e-05 1.55038688e-05
      1.74885081e-05 2.17852012e-05 1.47416386e-05 1.01274400e-05
      -5.37109429e-07 2.81185771e-06 5.82497796e-06 9.16012232e-06
      7.77963396e-06 4.97733754e-06 1.03596221e-05 1.44774522e-05
      2.40001700e-05 2.78967636e-05 1.71046668e-05 4.58388422e-06
      3.54063718e-06 9.17677426e-06 4.48391211e-06 2.96873418e-06
      2.51943106e-06 6.31483545e-06 7.13507870e-06 8.81096639e-06
      1.60981890e-05 1.91167110e-05 1.94169697e-05 2.29400598e-06
      -1.16859582e-07 2.12186274e-06 6.91906791e-07 1.22610811e-06
      1.38036046e-06 -8.66699702e-06 -4.87697298e-06 8.89933233e-07
      -5.53326799e-06 -6.41152246e-06 1.00277055e-06 -9.70565998e-06
      -8.57995747e-06 -6.08323080e-06 -9.36359993e-06 -4.23865731e-06
      3.90342684e-05 2.56166131e-05 1.68103270e-05 2.08500605e-05
      3.93516057e-05 2.37791264e-05 1.82711519e-05 2.94137353e-05
      1.85531208e-05 1.22830206e-05 4.96813755e-06 6.69322071e-06
      7.99069949e-06 2.23163579e-06 3.97554322e-06 2.21082373e-05
      3.40811566e-05 2.25385866e-05 1.33864623e-05 8.95106950e-06
      4.31855779e-06 3.55403699e-06 4.14076203e-06 2.09521681e-06
      -2.77020308e-06 2.24526218e-07 5.99757584e-07 1.38368236e-07
      -3.71509782e-06 -6.17520345e-06 -4.28066096e-06 -2.46850345e-06
      5.57508065e-06 1.64001340e-05 1.84309920e-05 1.26980160e-06
      -7.42881730e-06 -3.07640630e-06 3.35940354e-06 -8.43585622e-06
      -8.75826572e-06 -4.40479027e-07 -4.81548022e-06 -2.22942185e-06
      1.24102064e-06 -9.18777550e-06 -2.68159511e-06 5.22724747e-07
      -5.46529100e-06 -2.53168037e-06 4.33395726e-05 3.84402992e-05
      4.02650912e-05 3.55589291e-05 5.59842192e-05 2.59499011e-05
      1.96518140e-05 2.74651793e-05 1.93706746e-05 2.03690688e-05
      1.14033592e-05 5.40038036e-06 4.55902942e-08 1.47098535e-05
      4.28532367e-05 3.26245499e-05 1.99181177e-05 1.27424883e-05
      5.11453482e-06 -2.94047436e-06 -9.70288329e-06 -1.09376842e-05
      -8.82675795e-06 -9.17729631e-06 -1.19082770e-05 -1.29812606e-05
      -1.42471008e-05 -9.88189731e-06 -2.82241785e-06 -3.38725869e-07
      -3.17576746e-06 -7.01483759e-06 -5.86316764e-06 -1.44292326e-05
      3.97097847e-06 2.45490264e-05 1.68205042e-05 -3.34917263e-06
      -1.84809801e-06 1.11423469e-06 2.82004817e-06 7.74171167e-06
      9.02584929e-07 -9.23292589e-07 6.67564109e-06 -5.58781551e-07
      1.15595833e-06 4.33234482e-06 -2.59839680e-06 -2.50298126e-06
      3.77229226e-05 4.64870791e-05 3.42358508e-05 3.48328285e-05
      3.73901239e-05 3.10654759e-05 1.98171383e-05 2.33318424e-05
      3.44045147e-05 2.25077711e-05 1.27090334e-05 1.41786149e-05
      4.38147799e-05 4.92034596e-05 2.26105894e-05 1.11794325e-05
      -3.23820427e-06 -1.04655701e-05 -1.55829130e-05 -1.40806051e-05
      -9.51533093e-06 -7.74340606e-06 -9.05489105e-06 -1.01441929e-05
      -5.60381432e-06 -7.73257489e-06 -8.36388790e-06 -8.12709277e-06
      -7.01995668e-06 -1.00452853e-05 -1.23311547e-05 -1.01977248e-05
      -7.61658157e-06 -2.19834942e-06 -2.97551992e-06 -7.81215022e-06
      5.06646847e-06 9.62579725e-06 8.19131799e-07 2.39254859e-06
      1.48100469e-06 2.25680935e-07 4.69621682e-06 -1.06889082e-07
      4.54634318e-07 -1.32514128e-06 3.23093190e-07 8.97739255e-07
      -2.44008902e-06 -4.83749864e-06 4.49470281e-05 2.95447826e-05
      1.54804384e-05 1.55697344e-05 2.02979627e-05 2.84382386e-05
      3.87774671e-05 3.64930529e-05 1.79289891e-05 1.79825438e-05
      2.14359079e-05 4.97510700e-05 3.51113449e-05 1.33973963e-05
      1.49979201e-06 -1.49366424e-05 -1.17028139e-05 -1.31325069e-05
      -8.30300542e-06 3.07560913e-06 9.68088261e-06 9.04368153e-06
      1.23302407e-05 2.00701361e-05 2.15297623e-05 2.35674579e-05
      2.29371071e-05 1.74584529e-05 1.16766023e-05 5.37736878e-06
      -2.51846973e-06 -5.81611948e-06 -9.06151217e-06 -1.00033640e-05
      -8.69359883e-06 -3.07665482e-06 -3.24026382e-06 -1.12896205e-05
      -1.19505903e-05 -9.53626841e-06 -9.23991684e-06 -1.24911267e-05
      -6.50113270e-06 -3.34350807e-06 -7.31360251e-06 -8.03987587e-06
      -1.40458314e-06 -5.31419164e-06 -9.03552791e-06 -1.36043736e-05
      4.92646723e-05 2.27001601e-05 1.96927813e-05 2.97443239e-05
      2.36426440e-05 2.75120383e-05 4.31849257e-05 4.73741020e-05
      3.00888823e-05 3.99161981e-05 4.76736823e-05 2.58612308e-05
      7.07026356e-06 -6.23485721e-06 -1.45115400e-05 -1.25044562e-05
      -1.54733680e-05 5.23157814e-06 2.18509558e-05 1.79497529e-05
      2.26550674e-06 -7.89272417e-06 -1.18386079e-05 -1.35387418e-05
      -1.75183777e-05 -1.92409952e-05 -1.64903631e-05 -9.11101870e-06
      7.00177770e-06 2.12541963e-05 2.40737336e-05 2.34049676e-05
      2.40544387e-06 -8.60415003e-06 -8.39206041e-06 -1.07088872e-05
      -1.04532419e-05 -6.18533250e-06 -1.00085354e-05 -1.29632490e-05
      -5.98416500e-06 -1.33966319e-06 -8.85387180e-06 -7.65292316e-06
      -7.22337518e-06 -1.31112465e-05 -7.37059554e-06 -1.03499779e-05
      -7.43146347e-06 -1.28947449e-05 4.81400421e-05 3.24669381e-05
      2.81802750e-05 3.04622499e-05 2.83117915e-05 2.36058295e-05
      2.07781159e-05 3.10110227e-05 4.60369447e-05 5.20093599e-05
      1.85384961e-05 -3.40418887e-06 -6.01546844e-06 -2.52920086e-06
      -3.74097044e-06 5.85359066e-06 1.81406358e-05 5.96778773e-06
      -1.28538795e-05 -3.14097815e-05 -3.61706479e-05 -2.41092639e-05
      -1.34761476e-05 -1.23316640e-05 -8.28367047e-06 -8.61628632e-06
      -4.64105005e-06 -8.83913799e-06 -2.00204977e-05 -2.42235456e-05
      -1.29084756e-05 7.73174361e-06 2.98429532e-05 2.02564061e-05
      6.20536139e-06 -3.32360196e-06 -8.10981965e-06 -1.07825699e-05
      -1.04812725e-05 -5.84184090e-06 -1.97451277e-06 -2.48676088e-06
      -1.03435596e-05 -1.33746771e-05 -1.40477650e-05 -1.85292065e-05
      -1.58163784e-05 -1.36641474e-05 -1.81157557e-05 -2.32582861e-05
      4.19207245e-05 3.88371882e-05 2.69232696e-05 2.69536322e-05
      2.64299269e-05 2.88487972e-05 2.48440356e-05 4.58079303e-05
      5.29302379e-05 1.11357413e-05 -4.20623519e-06 -8.31104990e-06
      -1.13349452e-05 9.10863582e-06 1.79104063e-05 -3.47732953e-06
      -1.68152055e-05 -3.94614908e-05 -2.74817903e-05 -1.20686000e-05
      -8.26477117e-06 1.13088015e-06 1.49998732e-06 1.71958402e-06
      2.47158732e-06 -7.77855007e-07 2.70487226e-06 1.45739227e-06
      8.60752493e-07 -1.51207007e-06 -1.11473546e-05 -1.89268540e-05
      -2.26920129e-05 1.12325242e-05 1.99197548e-05 8.05760374e-06
      -2.19668482e-06 -1.05611516e-05 -9.49651530e-06 -8.87094393e-06
      -6.58499766e-06 -1.02876284e-05 -6.00828707e-06 -2.18217810e-05
      -1.50034839e-05 -1.44702390e-05 -2.05026008e-05 -2.39274541e-05
      -2.61202294e-05 -2.64170812e-05 4.52195418e-05 3.69833542e-05
      3.72527866e-05 2.87344392e-05 2.80281274e-05 2.39521269e-05
      2.63855818e-05 5.25920368e-05 1.48367799e-05 -9.70637529e-07
      -1.04199507e-05 -1.69857515e-06 9.93363847e-06 -8.78134188e-07
      -1.44218402e-05 -2.40812587e-05 -3.26525260e-05 -1.14393042e-05
      -1.43268409e-07 -9.12795826e-07 1.84547662e-06 1.43251634e-06
      -6.14170119e-07 1.30698186e-06 2.80030213e-06 5.67961843e-06
      -1.22852794e-06 1.72811360e-06 4.68719827e-06 2.06578625e-06
      3.31347132e-06 2.88799083e-06 -6.15764179e-07 -1.70143758e-05
      -4.07059815e-06 1.47960973e-05 1.31200168e-05 7.85980592e-06
      -1.42700092e-05 -1.19054666e-05 -1.22952688e-05 -8.40193752e-06
      -2.45848205e-05 -1.23912350e-05 -1.95428220e-05 -1.80562074e-05
      -2.05430224e-05 -2.09264708e-05 -2.58811615e-05 -2.35197440e-05
      3.12681041e-05 3.05418289e-05 3.22910746e-05 1.62198485e-05
      1.98522084e-05 1.92840180e-05 4.05679421e-05 1.08819850e-05
      -7.79264246e-06 -1.06650268e-05 3.65541375e-08 1.12874177e-05
      9.90289436e-07 -1.20336699e-05 -2.95733607e-05 -2.44430303e-05
      5.03680099e-07 -2.03736334e-08 2.71281283e-06 1.65226470e-06
      1.22232495e-06 2.01970533e-06 3.43738975e-06 2.67850010e-06
      -1.35041080e-06 -7.87817385e-07 3.46590718e-06 2.78243624e-06
      -6.05240132e-07 3.58980037e-06 6.36551795e-06 2.99680255e-06
      1.89338868e-06 -7.35349033e-07 -5.45175180e-06 -1.68273473e-05
      1.35714281e-05 2.02956671e-05 1.21933426e-05 -9.50738286e-06
      -1.27551020e-05 -9.47612261e-06 -6.46976241e-06 -6.21158279e-06
      -2.27095225e-05 -2.60648885e-05 -1.66876471e-05 -1.92891730e-05
      -1.75653950e-05 -1.10617366e-05 2.63901220e-05 2.74405920e-05
      2.52072223e-05 2.39158562e-05 2.14756819e-05 5.20956164e-05
      3.30269650e-05 -3.96595124e-06 -8.26652831e-06 2.57602915e-06
      7.82117695e-06 -5.18665786e-07 -2.30529440e-05 -3.24884313e-05
      -1.24108628e-05 2.85377223e-06 -3.24177137e-07 2.84489306e-06
      6.59461830e-06 2.73782507e-06 1.60960951e-06 2.15682553e-06
      1.20839422e-06 -9.72670620e-08 1.88866738e-06 -1.82176166e-06
      1.30524381e-06 -8.04103081e-07 3.04860851e-06 3.01891896e-06
      -1.99442798e-06 -2.88534807e-06 3.74404976e-07 7.10662880e-06
      -1.58900548e-06 3.88380886e-06 -2.05715933e-05 8.11615791e-06
      2.73389269e-05 1.65673428e-05 -1.06588841e-05 -7.78604226e-06
      -1.04216124e-05 -1.11210538e-05 -8.83596476e-06 -1.56545830e-05
      -1.36343233e-05 2.79770757e-06 4.60144838e-06 3.52818097e-06
      1.25148536e-05 1.93105680e-05 3.15928519e-05 4.16450894e-05
      2.74176000e-05 6.01082975e-05 -1.04897033e-07 -8.78396713e-06
      -1.73907540e-06 3.03608454e-06 -4.16890953e-06 -2.95145601e-05
      -3.87425498e-05 -1.14025515e-05 1.09233198e-07 6.57009377e-06
      3.50940468e-06 6.30282102e-06 -1.43779948e-06 -1.89563207e-06
      3.53896439e-06 3.31682168e-06 1.81551775e-06 3.12272505e-06
      8.70750569e-07 5.05064509e-06 -9.50293142e-08 -6.46168303e-07
      1.88831257e-06 3.93687628e-07 3.50807636e-06 5.11364442e-06
      1.04692322e-06 2.12118584e-06 1.25030809e-07 -2.35157586e-06
      -9.33198919e-07 -1.65490783e-05 6.09085873e-06 2.54234783e-05
      9.36842207e-06 -1.38090072e-05 -1.42444160e-05 -1.47764367e-05
      -6.61312424e-06 -6.39600057e-06 -1.48390936e-05 3.68496353e-06
      1.21521416e-05 1.39832400e-05 3.08300005e-05 2.90046701e-05
      3.97916374e-05 3.31744050e-05 6.30669456e-05 1.83887532e-05
      -8.69594442e-06 -1.14239037e-05 1.35589505e-06 -7.17038631e-07
      -1.68757833e-05 -3.93858354e-05 -1.87695387e-05 2.66116672e-06
      4.13963062e-06 1.57231909e-06 4.04655839e-06 2.65549534e-06
      3.29591785e-07 2.67209089e-06 2.13934254e-06 9.02267857e-07
      6.53984671e-07 3.20123354e-06 1.33147398e-06 -1.58968578e-06
      -1.32973582e-06 3.40466931e-06 -2.69399749e-07 8.84889062e-07
      2.56811154e-06 2.05417200e-06 8.61333683e-06 7.01541103e-06
      7.05448429e-06 2.70640817e-06 5.63744470e-06 2.47093067e-06
      -1.26880550e-05 2.35095413e-05 3.30557668e-05 3.79173201e-07
      -9.09026585e-06 -7.72873955e-06 -1.10762176e-05 -1.17998743e-05
      2.48378615e-06 6.12863005e-07 7.15231999e-06 1.39052700e-05
      3.57051067e-05 4.69616389e-05 3.11459517e-05 3.51657036e-05
      5.17863336e-05 -2.48260790e-06 -1.24662138e-05 -3.78425898e-06
      7.93513937e-06 -1.03380726e-05 -3.85642525e-05 -2.23144925e-05
      9.04541685e-06 1.52138082e-05 3.03839897e-05 2.07661087e-05
      1.14075865e-05 3.83022916e-06 6.28394810e-06 6.06495541e-06
      1.36746576e-05 3.57580357e-05 4.96615939e-05 4.21854784e-05
      2.95850678e-05 1.16275842e-05 2.26525322e-06 -3.26310982e-07
      2.06398363e-06 1.01533954e-06 8.55095948e-07 1.34201155e-05
      3.52183597e-05 3.56174060e-05 3.99975033e-05 4.63961405e-05
      1.90289811e-05 -3.72392037e-06 2.94395045e-06 -1.35652626e-05
      2.68610784e-05 2.05683027e-05 -7.47375043e-06 -1.22317206e-05
      -1.56310507e-05 -8.49024218e-06 -1.67818928e-06 1.20897630e-05
      1.63170498e-05 1.01459736e-05 3.15892648e-05 3.26992231e-05
      3.36964840e-05 5.76176972e-05 1.32303849e-05 -5.23985909e-06
      -5.45339731e-07 7.44306519e-08 -5.41723421e-06 -1.84410455e-05
      -3.33619682e-05 1.61962744e-05 2.62329213e-05 5.59762084e-05
      3.89331435e-05 1.99122660e-05 -1.75476434e-05 -4.42165310e-06
      2.53106236e-06 2.28601657e-05 5.54680664e-05 4.31156004e-05
      2.71889294e-05 1.96639539e-05 1.71618485e-05 2.45520514e-05
      1.62212345e-05 -5.76819161e-07 1.99063493e-06 3.18593538e-06
      2.19125268e-05 3.79997255e-05 1.68140177e-05 -5.07461777e-07
      -8.53324650e-07 4.71239309e-06 3.07407281e-05 3.16548940e-05
      4.99490989e-06 -1.18940243e-05 5.29389808e-06 3.23770983e-05
      1.73122426e-05 -1.22089059e-05 -1.40572374e-05 -1.33279036e-05
      -7.00229566e-06 -9.16885620e-06 7.02784246e-06 1.61002099e-05
      1.88336635e-05 1.97566860e-05 4.06460495e-05 5.86339265e-05
      -8.83498615e-07 -8.11391692e-06 5.84186819e-06 -2.41218208e-06
      -8.08987534e-06 -3.11095828e-05 1.12711086e-05 7.88817561e-05
      1.03839360e-04 6.95788913e-05 4.80451818e-05 5.57787098e-06
      -3.56156561e-05 -2.12772761e-06 1.10084420e-05 5.52897327e-05
      5.36208099e-05 5.33838247e-05 3.99058044e-05 4.43952777e-05
      4.18080490e-05 1.47755036e-05 1.54005120e-05 1.19117058e-05
      -2.33506583e-07 1.23352538e-05 4.29476277e-05 4.08851838e-06
      -3.45337435e-06 -1.55906946e-05 -9.10023118e-06 8.87137776e-06
      2.48219862e-07 1.93086235e-05 1.74505749e-05 4.08335382e-06
      -3.11207550e-05 1.72699110e-05 2.54946699e-05 -2.62402114e-06
      -1.38926498e-05 -1.49450725e-05 -9.22639356e-06 -1.38097539e-05
      -9.32734565e-07 -7.26033022e-07 2.53872659e-05 2.84292255e-05
      4.54373658e-05 3.69896734e-05 -8.18430010e-07 -3.15424245e-06
      4.10144276e-06 -3.16121964e-06 -1.97962599e-05 -2.42275983e-05
      6.31770454e-05 1.14828566e-04 6.53396201e-05 3.26970185e-05
      3.28705210e-05 -1.96831297e-05 -3.62445971e-05 -3.18429625e-06
      3.17218182e-05 8.22469010e-05 4.93571861e-05 2.94312758e-05
      -2.30130772e-05 -1.76660633e-05 3.69515624e-06 2.53684193e-05
      -7.77786863e-06 6.52879351e-07 9.05478919e-06 2.85586430e-05
      1.54181598e-05 -1.74533966e-06 1.89423690e-06 -2.20030847e-06
      -1.92286225e-05 -2.77756353e-05 -5.39005384e-07 2.49768937e-06
      2.51160091e-05 8.42096779e-06 -1.45014856e-05 -1.00866746e-05
      3.30231560e-05 8.88163504e-06 -1.26321102e-05 -1.39049953e-05
      -9.88292413e-06 -3.51942890e-06 -2.86914565e-06 6.49569438e-06
      3.12544507e-05 3.52551651e-05 5.17738808e-05 1.21885796e-05
      -6.80719131e-06 -7.54025791e-07 2.40631380e-06 8.35557876e-06
      -9.89700493e-06 1.22373222e-05 6.71129965e-05 8.48134878e-05
      1.00722928e-05 -1.78206374e-05 4.13370944e-05 -3.27155358e-05
      -3.65781598e-05 1.19654078e-05 3.57828212e-05 7.17604926e-05
      1.65912807e-05 -3.72917893e-05 -6.25660396e-05 -5.11650178e-05
      -2.52888810e-07 -5.31711248e-06 6.14228566e-06 -4.65516496e-05
      -1.19685883e-05 3.38271202e-05 -7.74508044e-06 1.10779847e-05
      9.27800465e-06 -7.88919533e-06 -2.97788083e-05 -4.37230265e-05
      -2.83290028e-05 -2.64147402e-05 -1.01455826e-05 1.67840062e-05
      3.63380673e-06 -3.30902512e-05 2.03627824e-05 2.36768883e-05
      -9.37179357e-06 -1.37929155e-05 -1.40244747e-05 2.61088121e-06
      -1.12217640e-05 7.51015295e-06 3.72642935e-05 3.62408609e-05
      5.32926388e-05 5.13970747e-07 -7.39889401e-06 2.85681813e-06
      1.95992328e-07 1.61072076e-05 -1.10100791e-05 3.97606273e-05
      4.50336411e-05 1.99591705e-05 -4.68443395e-05 -1.03011807e-05
      4.81231291e-05 -3.82114922e-05 -3.38078244e-05 1.34892407e-05
      3.48075737e-05 5.59440596e-05 -1.30604049e-05 -7.32924091e-05
      -6.28474008e-05 -5.29704084e-05 1.75697242e-05 -4.34612275e-06
      9.05299657e-06 -4.02537626e-05 -3.10653595e-05 2.64878981e-05
      -1.70934400e-05 1.95616904e-05 -7.38743665e-06 -1.85861627e-05
      -2.37868899e-05 -1.84970031e-05 -1.84357341e-05 -1.29597038e-05
      -5.94589847e-06 -1.17673944e-05 1.88133290e-05 -2.43346749e-05
      -1.64113987e-06 3.59178448e-05 -2.53391022e-06 -1.62708766e-05
      -1.49299349e-05 -4.39014912e-06 -1.19407296e-05 7.69783946e-06
      2.96599846e-05 3.28966235e-05 4.67174323e-05 -2.14306351e-06
      -3.49629204e-06 3.26845179e-06 5.39442681e-07 5.88521107e-06
      -7.94788230e-06 -3.28014607e-07 -2.10924118e-05 -4.63445904e-05
      -2.98548184e-05 -1.07631613e-05 5.07758668e-05 -3.30601069e-05
      -2.44767944e-05 1.69917512e-05 4.32170455e-05 5.90143936e-05
      -9.38918583e-06 -4.90322454e-05 -4.99849921e-05 -1.39343692e-05
      3.60374033e-05 3.64897096e-05 9.21699120e-06 -1.17579038e-05
      -4.11255860e-05 2.12367231e-05 -4.47930643e-06 1.11109966e-05
      -1.79218114e-05 -2.49109889e-05 -2.39965593e-05 -7.15870056e-06
      -9.12678934e-06 -3.47399146e-05 -4.86994122e-06 -2.28429963e-05
      1.89568709e-05 -3.78422897e-06 -1.40800930e-05 3.81401733e-05
      6.13588827e-06 -1.54274931e-05 -9.92332571e-06 -9.97310235e-06
      -1.43270199e-05 -5.74830301e-06 2.16481385e-05 3.22067608e-05
      3.67712419e-05 -6.20883338e-06 -1.88017259e-06 9.70036012e-07
      4.14207261e-06 -1.70921867e-05 -2.60061897e-05 -3.98089360e-05
      -6.95726339e-05 -8.75229816e-05 -2.10581329e-05 -9.30709666e-06
      4.79824521e-05 -3.71723363e-05 -1.08556187e-05 5.55738116e-05
      8.75622136e-05 1.16340278e-04 4.34536923e-05 5.29574027e-06
      -2.16929657e-05 -7.23386393e-06 1.13745054e-05 3.09025381e-05
      7.47183913e-06 1.19511469e-05 -3.67982066e-05 1.82581916e-05
      1.36412855e-05 3.58157308e-06 -2.57863176e-05 -3.74597403e-05
      -1.99787937e-05 6.39367272e-06 -1.88481044e-05 -3.44598775e-05
      -1.54158333e-05 -1.14069326e-05 1.17761792e-05 1.15838639e-05
      -1.97480840e-05 3.00929278e-05 1.64249541e-05 -1.12812177e-05
      -1.52160837e-05 -1.00851876e-05 -9.19405829e-06 -1.66970240e-05
      2.49919340e-05 3.17202575e-05 2.92992081e-05 -1.04804221e-05
      -1.83578652e-06 3.45883632e-06 6.66119195e-06 -3.47824098e-05
      -4.34755821e-05 -5.13646082e-05 -5.65784430e-05 -4.34184658e-05
      -3.56526562e-06 -5.95360370e-06 5.02699186e-05 -3.90591485e-05
      9.30475835e-06 7.11049943e-05 1.32292305e-04 1.50102438e-04
      9.67353335e-05 4.92289109e-05 6.00519479e-06 -1.51989461e-05
      -4.15537288e-05 7.82425559e-06 1.20516206e-05 5.10645841e-05
      -3.15977413e-05 2.18529458e-05 1.44276864e-05 -3.26296140e-06
      -3.37065867e-05 -4.35275215e-05 -1.51397098e-05 9.30396527e-06
      -1.17959471e-05 -3.13112359e-05 -2.49835612e-05 -1.10451529e-05
      8.13857514e-06 2.03375348e-05 -1.99579554e-05 2.25174390e-05
      2.66473235e-05 -8.92691332e-06 -2.07071771e-05 -1.38812193e-05
      2.52641325e-06 -1.64070534e-05 2.29647849e-05 2.50647226e-05
      2.68248477e-05 -1.00927509e-05 -3.70072235e-06 5.95555412e-06
      6.82409245e-06 -3.73006078e-05 -2.77271738e-05 -1.04265382e-05
      -1.12800933e-06 2.80313202e-06 1.50169290e-05 -9.19218292e-06
      4.36913942e-05 -3.55744050e-05 1.41463024e-05 7.92261999e-05
      1.47619459e-04 1.37067778e-04 8.66906194e-05 5.19328387e-05
      -9.82628717e-06 -2.99741023e-05 -9.29688977e-05 -2.92636087e-05
      1.94938566e-05 8.26758551e-05 -1.80186271e-06 2.83109493e-05
      2.72343350e-05 -7.97356734e-06 -4.76663627e-05 -3.91036228e-05
      -1.06674961e-05 4.80349217e-06 -1.20787772e-05 -2.93584581e-05
      -3.60884660e-05 2.54918018e-06 1.11835334e-06 1.73107346e-05
      -2.16315602e-05 1.62585948e-05 3.23329368e-05 -8.49980461e-06
      -1.26548002e-05 -1.50781825e-05 -2.77856702e-06 -2.60331872e-05
      1.06917041e-05 2.55501909e-05 1.98931175e-05 -5.37491815e-06
      -1.15786577e-06 1.57536658e-06 7.05855291e-06 -4.22162193e-05
      -2.04911703e-05 4.21289315e-07 1.53143810e-05 9.54477218e-06
      1.37411071e-05 -1.65235251e-05 4.49025611e-05 -3.08184535e-05
      1.88657705e-05 7.81354829e-05 1.41447774e-04 1.41045166e-04
      8.91345262e-05 4.13631315e-05 -3.33522366e-05 -6.54492469e-05
      -1.53225366e-04 -5.20877074e-05 5.01223476e-05 1.24398226e-04
      1.85854842e-05 2.86502727e-05 3.17895574e-05 -6.92856702e-06
      -3.98535885e-05 -4.09387212e-05 -1.71911724e-05 5.55830457e-06
      -1.29357859e-05 -2.79624746e-05 -3.60676640e-05 8.18094941e-06
      -1.12471469e-06 1.36184317e-05 -1.83516058e-05 1.64394805e-05
      3.47855093e-05 -3.44423506e-06 -1.14126415e-05 -1.44782844e-05
      -4.93598782e-06 -3.74082301e-05 9.71716599e-06 1.97561531e-05
      2.32990387e-05 -1.03077064e-05 -1.51030770e-06 5.57145722e-06
      9.32460171e-06 -3.43791071e-05 -2.23871139e-05 1.18617265e-06
      2.00489121e-05 1.31969846e-05 1.28958573e-05 -2.09976643e-05
      4.58650175e-05 -3.29456998e-05 1.78908886e-05 7.24474376e-05
      1.45649537e-04 1.33975511e-04 7.65745790e-05 2.78532461e-05
      -4.56083726e-05 -1.47213039e-04 -1.81791736e-04 -3.64143270e-05
      1.13360227e-04 1.53892484e-04 3.55827615e-05 1.94890290e-05
      2.62990488e-05 -4.10246821e-06 -4.45856494e-05 -4.08578271e-05
      -1.54471254e-05 5.69760732e-06 -1.08669037e-05 -3.17941485e-05
      -3.80304846e-05 4.04666480e-06 -8.37169580e-07 1.46585571e-05
      -1.96375186e-05 1.29816381e-05 3.54067633e-05 -4.49780919e-06
      -1.44884843e-05 -1.39278500e-05 -9.21711398e-06 -4.01764373e-05
      2.02908650e-05 1.97098689e-05 2.79590477e-05 -9.28335066e-06
      -3.09777761e-06 7.39966208e-06 8.19866091e-06 -2.48746128e-05
      -2.52842256e-05 -1.17496893e-06 1.68689785e-05 1.42559193e-05
      1.36747140e-05 -2.86934992e-05 4.45733058e-05 -3.70288944e-05
      1.01543692e-05 8.30121062e-05 1.36638700e-04 1.42963952e-04
      6.66643173e-05 1.25835213e-05 -1.08782930e-04 -2.04735610e-04
      -1.76591770e-04 1.50453079e-05 1.75523572e-04 1.76774003e-04
      3.22658780e-05 2.48985543e-05 2.65569088e-05 -1.40024406e-06
      -3.92389738e-05 -4.20803226e-05 -1.28431893e-05 7.34557580e-06
      -1.33132353e-05 -2.90813259e-05 -2.55572177e-05 1.77819209e-06
      -3.08755330e-06 1.11159416e-05 -2.01079638e-05 1.59182964e-05
      3.44292348e-05 -8.15405201e-06 -1.72295277e-05 -1.28878764e-05
      -9.94554193e-06 -3.43669853e-05 2.47145545e-05 1.76043068e-05
      2.67534651e-05 -6.28811358e-06 -3.73939451e-06 7.16451041e-06
      6.21467098e-06 -1.52737648e-05 -3.45892440e-05 -7.98868143e-07
      1.36601793e-05 1.40111542e-05 1.63948207e-05 -3.34024699e-05
      4.01466859e-05 -4.17408446e-05 2.58840441e-06 7.01213503e-05
      1.25992185e-04 1.46779828e-04 6.71915623e-05 -1.89251405e-05
      -1.91764833e-04 -1.96057037e-04 -1.46241771e-04 1.09496585e-04
      1.96394671e-04 1.73290478e-04 1.39324075e-05 1.72616055e-05
      1.63682816e-05 -3.09703432e-06 -3.63605177e-05 -4.02669357e-05
      -2.59710851e-05 7.90865306e-06 -1.15042594e-05 -2.38064840e-05
      -2.57138672e-05 -1.27050789e-05 1.43153216e-06 3.78659024e-06
      -1.74699217e-05 2.58876735e-05 3.07538248e-05 -9.97409097e-06
      -1.46182101e-05 -1.42088065e-05 -1.85070876e-05 -3.41399464e-05
      2.12209234e-05 1.79148628e-05 2.66303050e-05 -7.33074967e-06
      -6.27887630e-07 5.85814860e-06 8.66216942e-06 -5.05677326e-06
      -4.59438816e-05 3.78086679e-06 1.92331754e-05 1.48421614e-05
      1.40126313e-05 -3.68984111e-05 3.71566675e-05 -4.35670663e-05
      -5.06730748e-06 5.51508092e-05 1.09364897e-04 1.34131100e-04
      6.23006708e-05 -6.80018202e-05 -2.04200347e-04 -1.67752049e-04
      -4.16107832e-05 1.85826793e-04 1.92760461e-04 1.47053157e-04
      3.26199438e-06 1.26432142e-05 1.04895325e-05 9.07051799e-06
      -3.05273825e-05 -2.80323366e-05 -2.51027122e-05 1.38728228e-05
      -9.11280495e-06 -2.02171614e-05 -5.69411532e-06 -1.16673809e-05
      4.99224052e-06 -1.14150334e-05 -1.07888627e-05 3.37301608e-05
      2.18689693e-05 -1.11237096e-05 -1.26057021e-05 -1.49689595e-05
      -3.15184116e-05 -3.49497386e-05 1.64171870e-05 2.01068433e-05
      2.89124746e-05 -1.30047665e-05 -1.60820616e-06 2.80549443e-06
      1.17431573e-05 6.17843807e-06 -4.80801391e-05 -2.46303944e-06
      2.27966630e-05 1.88570684e-05 1.35941809e-05 -3.62084756e-05
      3.62614919e-05 -4.13110793e-05 -1.55236849e-05 1.10382680e-05
      9.27323854e-05 1.17120137e-04 4.37282833e-05 -9.40301034e-05
      -1.62944358e-04 -1.32537156e-04 5.17248736e-05 1.55174319e-04
      1.65649326e-04 6.53165043e-05 -3.39619874e-05 9.45461670e-06
      -6.55506028e-06 9.73915758e-06 -2.29659890e-05 -2.28786139e-05
      -4.58481591e-05 -1.82879430e-05 -2.26000702e-05 -1.65035945e-05
      -2.83598933e-06 -1.98218277e-05 -4.87102852e-06 -2.82042674e-05
      1.58707246e-06 3.88808476e-05 1.27484554e-05 -1.47418441e-05
      -1.35872169e-05 -7.85919565e-06 -4.11650326e-05 -2.85924561e-05
      1.08218037e-05 1.50975993e-05 2.78397747e-05 -1.12623920e-05
      -7.99057852e-06 -1.32838338e-07 1.01426185e-05 1.35858663e-05
      -2.85552760e-05 -1.80304669e-05 1.95789762e-05 2.41455491e-05
      1.42107519e-05 -3.66917666e-05 3.05839167e-05 -4.18683194e-05
      -2.33362662e-05 -1.34727507e-05 3.00986594e-05 8.37476400e-05
      2.41498892e-05 -5.20974827e-05 -1.02340826e-04 -4.76227360e-05
      6.62373277e-05 1.09836794e-04 8.67796625e-05 -2.39719566e-06
      -4.37178824e-05 -3.75413288e-06 3.35294112e-06 3.73908847e-06
      -3.75901141e-06 5.85225143e-06 -1.03801522e-05 -1.71442807e-05
      -2.42153819e-05 1.80712084e-06 -8.13440238e-06 -4.18080253e-06
      -1.96500732e-05 -2.63184193e-05 1.48151421e-05 4.01407306e-05
      4.14274155e-06 -1.49181933e-05 -1.38272680e-05 -4.79524897e-06
      -4.22393350e-05 -1.62787346e-05 1.33121121e-05 1.41195314e-05
      3.10220275e-05 2.09640234e-06 -9.87900421e-06 -1.92171413e-07
      5.19232481e-06 1.35118935e-05 -4.53774373e-06 -2.86776776e-05
      1.52457078e-05 2.68318963e-05 1.69517498e-05 -2.79391352e-05
      4.19236385e-05 -2.11104525e-05 -2.88255014e-05 -4.18835516e-05
      -1.48479212e-05 3.22939886e-05 -1.14767608e-05 -1.08885779e-05
      -3.23582608e-05 2.87698404e-05 6.18075501e-05 7.06657447e-05
      -9.74459999e-06 -2.78601583e-05 -2.70376731e-05 4.51100232e-06
      3.37860547e-06 -4.72741249e-06 -1.32458956e-06 7.82962070e-06
      2.05103770e-05 2.71398167e-05 1.89054572e-05 8.39159566e-06
      -2.06488548e-05 -1.73492772e-05 -2.56597596e-05 -1.16342790e-05
      2.20169804e-05 3.42655840e-05 -3.80465031e-06 -1.16824785e-05
      -1.41553191e-05 -1.40195980e-05 -3.47328605e-05 -5.42472071e-06
      9.48889374e-06 5.56615032e-06 2.36089672e-05 2.88850770e-05
      -1.26937739e-05 -1.63846357e-06 1.02320937e-05 1.22601341e-05
      1.85075678e-05 -2.64284899e-05 8.09993344e-06 3.24186658e-05
      -1.35024275e-05 -4.93898988e-05 2.87791208e-05 -1.29543014e-05
      -1.53326910e-05 -5.56529521e-05 -8.29253768e-05 -4.17792544e-05
      -5.20967988e-05 -3.76482021e-05 -3.55622869e-05 -1.96515502e-05
      -2.80621480e-05 -6.86440617e-05 -7.94943699e-05 -7.32717526e-05
      -1.54327481e-05 4.88517799e-07 1.67870276e-05 -1.05841782e-05
      -7.75786611e-06 1.27791452e-06 7.40042378e-06 5.11319831e-06
      -1.62738638e-06 -2.23121224e-05 -1.61190510e-05 -1.98966663e-05
      -3.62360552e-05 1.04056271e-05 4.29724059e-05 9.92259447e-06
      -1.34943657e-05 -1.07897922e-05 -1.66236714e-05 -3.93609771e-05
      -3.38186583e-05 -1.35520122e-05 1.03131033e-05 7.23282437e-06
      1.02712902e-05 3.58533362e-05 -5.52045867e-06 -1.06404350e-05
      3.34017432e-06 8.63272544e-06 1.56902897e-05 1.54027063e-07
      -3.87082582e-05 -1.22012652e-05 -5.26355325e-05 -7.41396580e-05
      5.10201016e-06 -1.10476049e-05 -2.48471151e-05 -5.19955538e-05
      -6.20729697e-05 -6.53152383e-05 -8.55794715e-05 -5.39707798e-05
      -5.55282495e-05 -5.68444411e-05 -6.47487977e-05 -7.37598457e-05
      -7.53203349e-05 -9.36298093e-05 -1.12621537e-05 5.54361861e-07
      -3.19810511e-06 6.01342026e-06 -1.47071732e-05 -2.14487936e-05
      -1.60181607e-05 -1.07861106e-05 -1.53348064e-05 -1.80412862e-05
      -2.01800885e-05 -2.90431708e-05 -5.69041140e-06 2.52804348e-05
      4.09484128e-05 -6.98964504e-06 -1.16982674e-05 -2.12552113e-05
      -1.05934078e-05 -4.38324496e-05 -2.56487510e-05 -1.59699412e-05
      1.29185100e-05 1.90975898e-05 3.34790315e-07 3.01290729e-05
      2.84482194e-05 -1.47090323e-05 -6.46840590e-06 9.96944073e-06
      1.26845935e-05 1.32186387e-05 -2.21857608e-05 -3.18725106e-05
      -2.45642659e-05 -2.86574086e-05 2.31550021e-05 -1.12531852e-05
      -1.75763034e-05 -4.75636189e-05 -2.93102275e-05 -3.45309054e-05
      -6.13143930e-05 -3.47228452e-05 -2.58186792e-05 -2.27958444e-05
      -2.37232289e-05 -4.04772509e-05 -7.11827815e-05 -7.06876599e-05
      -6.65810830e-06 -6.86019757e-06 -5.82096220e-07 -1.63448317e-06
      5.21350194e-06 5.26464737e-06 -7.05727098e-06 -9.03581804e-06
      -1.87266287e-05 -1.46717812e-05 -1.55236776e-05 -2.21448408e-05
      1.14160994e-05 4.29943866e-05 1.83655593e-05 -1.76391441e-05
      -2.03202526e-05 -1.61802709e-05 -2.65895815e-05 -4.43382742e-05
      -1.10144538e-05 -7.51068637e-06 1.40460033e-05 2.35096231e-05
      6.29131318e-06 1.93691885e-05 3.77232391e-05 -4.40704889e-06
      -7.56260897e-06 6.35969991e-06 1.13436217e-05 1.73955596e-05
      -3.40892666e-06 -3.32201016e-05 -1.60922264e-05 -3.57065414e-06
      1.68692386e-05 5.69984832e-06 -4.22783887e-06 -1.73331900e-05
      -3.89215029e-06 -1.07456817e-05 -2.31493086e-05 -7.66361882e-06
      2.22488256e-06 8.08368077e-06 1.87080715e-07 -1.49132838e-05
      -2.06007771e-05 -1.57897557e-05 -6.91071818e-06 -6.63465880e-06
      -8.66212213e-06 -4.19962180e-06 -5.52178972e-06 -6.94863866e-06
      -1.13097603e-05 -1.20696241e-05 -3.91748245e-06 -7.24755819e-06
      -2.49462209e-05 2.32917341e-06 2.97337883e-05 3.80366473e-05
      -7.28361147e-06 -1.72925447e-05 -2.09971186e-05 -8.15047315e-06
      -5.14634303e-05 -2.92187342e-05 -1.03553703e-05 -7.77847890e-06
      2.31634021e-05 1.84689779e-05 1.20237364e-05 6.21789695e-06
      2.37584063e-05 2.29773068e-05 -1.20680315e-05 -6.73497652e-06
      8.81975939e-06 1.44276819e-05 1.85084937e-05 -2.25817348e-06
      -3.96672767e-05 -1.65774145e-05 -2.50618791e-06 -2.87965145e-06
      -2.76183414e-06 -2.39312999e-06 -6.91203354e-07 -1.30618128e-06
      -6.35196284e-06 -3.19596484e-06 -5.28970804e-06 -4.38120969e-06
      -7.60953935e-06 -4.56896578e-06 -3.26080522e-06 -4.34030699e-06
      -4.40352778e-06 -2.97350698e-06 -8.25116877e-06 -4.11763358e-06
      -6.38650681e-06 -8.59648753e-06 -3.06549714e-06 -9.32300736e-06
      -1.43779880e-05 -2.00824034e-05 -6.31744058e-07 1.93640244e-05
      4.97142137e-05 6.13263273e-06 -2.08703186e-05 -1.40689854e-05
      -2.03831933e-05 -2.43094164e-05 -4.31665758e-05 -1.26606737e-05
      -1.41853925e-05 -1.52114899e-05 1.88787781e-05 1.60912186e-05
      1.16596693e-05 6.25594566e-06 1.05780491e-05 3.41678460e-05
      3.21195716e-06 -8.02579780e-06 -4.29557349e-06 1.40191796e-05
      1.73933840e-05 1.78236423e-05 -4.17326009e-06 -3.26640838e-05
      -9.37991445e-06 -1.13296537e-05 -9.23009736e-07 -2.28436306e-06
      -9.77114905e-06 -4.51935193e-06 -4.26937549e-06 4.78712991e-07
      -4.98063173e-06 -1.66895347e-06 -6.70257805e-06 -4.51609958e-06
      -5.79343578e-06 -1.06996758e-05 -4.39496944e-06 -2.97677570e-06
      -5.06402648e-06 -5.28467490e-06 -1.11201416e-05 -8.68406096e-06
      -1.04779483e-05 -8.90657884e-06 -2.02618448e-05 5.20951471e-06
      1.88974991e-05 3.97889526e-05 2.10507842e-05 -1.50170981e-05
      -1.14033874e-05 -1.86318157e-05 -1.41936698e-05 -4.87739053e-05
      -1.08572485e-05 -5.10882955e-06 -5.76974617e-06 -8.92842672e-06
      7.67094025e-06 6.25360508e-06 1.00103953e-05 3.76616413e-06
      1.07762926e-05 1.76846443e-05 2.84588805e-05 -1.21730454e-06
      -7.67405800e-06 3.88192757e-06 1.06798334e-05 1.89788225e-05
      2.13723815e-05 -3.02236970e-07 -2.86224149e-05 -2.38336979e-05
      -5.61351908e-06 -4.30674208e-06 -3.73625198e-06 1.20383913e-06
      -6.07499624e-06 -6.47243905e-06 -5.84892723e-06 -4.68657618e-06
      -2.75256002e-06 -1.47989525e-07 -3.93752998e-06 -5.30637089e-06
      -3.47119089e-06 -2.77790650e-06 -3.35186905e-06 -7.55982592e-06
      -7.44084446e-06 -4.12518284e-06 -1.00959842e-05 -2.26713400e-05
      2.98479972e-06 1.84937471e-05 3.77047945e-05 2.81005250e-05
      -7.45042507e-06 -1.36380586e-05 -1.81734249e-05 -2.20823767e-05
      -3.87236832e-05 -2.90129065e-05 -3.24784651e-07 6.39567972e-08
      -1.34461436e-06 -3.87698265e-06 4.55870304e-06 2.46990021e-06
      3.78076038e-06 3.36281516e-07 8.26478390e-06 6.84790439e-06
      4.22231096e-06 1.68991646e-05 -9.82163419e-06 -6.99428665e-06
      5.13346276e-06 2.62910471e-05 2.57667780e-05 2.11136849e-05
      2.16533977e-06 -4.17515330e-05 -3.21991174e-05 -6.08931805e-06
      -4.53942630e-06 -9.70147812e-06 -2.44107355e-06 -3.86467946e-06
      -3.57394833e-06 -4.80846529e-06 -6.12192071e-06 -4.99295356e-06
      -5.81074846e-06 -1.82575661e-06 -4.68870076e-06 -2.13196950e-06
      -4.24116251e-06 -3.72985642e-06 -2.79348319e-06 -1.81724990e-05
      -1.82935855e-05 4.47476623e-06 2.51344773e-05 4.08654560e-05
      3.01247055e-05 -4.53406392e-06 -1.93161522e-05 -1.34615366e-05
      -2.47817115e-05 -3.42109233e-05 -5.16906039e-05 -2.80543245e-05
      -9.17088164e-06 -3.72149839e-06 2.59888293e-06 2.73657929e-06
      -3.30384296e-06 2.48044580e-06 2.14575479e-07 2.68080225e-06
      3.64937387e-06 2.41606699e-06 -2.06092250e-06 1.76795747e-05
      2.00372087e-05 -1.27084868e-05 -7.57537146e-06 -2.40202894e-07
      2.08351103e-05 3.32249620e-05 2.84960206e-05 7.13033751e-06
      -1.11743766e-05 -2.81392367e-05 -2.31994054e-05 -1.27713065e-05
      -6.95710287e-06 -2.50746734e-06 -7.69055532e-06 -5.23025074e-06
      -3.04729861e-06 -5.26817485e-06 -6.38560687e-06 -4.19816524e-06
      -2.21045752e-06 -1.93585879e-06 -3.60356421e-06 -7.10689164e-06
      -1.82008080e-05 -3.96793257e-06 1.32374507e-05 3.39462676e-05
      3.64774532e-05 2.68452713e-05 9.85661543e-08 -1.79016715e-05
      -1.27852227e-05 -1.55432153e-05 -1.63141121e-05 -4.48851133e-05
      -3.15442703e-05 -9.12603355e-06 -1.09803077e-05 -1.10309054e-06
      -3.13163628e-06 -7.88151738e-06 -2.80634822e-06 4.23478059e-06
      -5.40169424e-07 1.89303546e-06 8.22154198e-06 1.22798219e-05
      6.93472612e-06 9.68647237e-06 2.61508285e-05 2.02028641e-05
      -4.81871257e-06 -1.17818172e-05 -1.59247475e-06 2.17383149e-05
      2.11564784e-05 3.38245845e-05 2.01441508e-05 6.01357897e-06
      -2.85637066e-06 -2.10855815e-05 -3.07714363e-05 -2.33542123e-05
      -1.41124819e-05 -1.31275044e-06 -7.24227903e-06 -6.95654080e-06
      -8.82310189e-07 2.70926557e-06 -6.96402731e-06 -1.35621231e-05
      -9.63546699e-06 -7.47745753e-06 5.84735290e-06 2.41083399e-05
      4.08502819e-05 4.71396452e-05 1.97511854e-05 -6.19607044e-06
      -1.50878495e-05 -1.34310922e-05 -8.71440261e-06 -2.86183513e-05
      -5.39278444e-05 -3.08540511e-05 -1.55381149e-05 -1.20164295e-05
      -6.34365642e-06 2.19337380e-06 -6.53720372e-06 -1.00880025e-05
      1.00590250e-05 1.09143093e-05 2.01805983e-06 3.13873244e-07
      4.16499824e-06 2.32889897e-06 3.57751969e-06 1.08532322e-05
      6.84745555e-06 2.99854037e-05 2.48644119e-05 -2.94017514e-06
      -7.62062336e-06 -7.85181874e-06 3.79999915e-06 2.37627810e-05
      3.86978136e-05 3.49703041e-05 3.24666871e-05 1.50631749e-05
      3.77920674e-06 1.50789447e-06 -4.01315219e-06 -5.00580836e-06
      -1.87108026e-06 1.54878433e-06 2.30428191e-06 9.87759279e-08
      1.84745409e-06 1.37065344e-05 2.83925438e-05 3.64282823e-05
      4.87673569e-05 4.97429974e-05 3.74914307e-05 3.84519217e-06
      -5.80569485e-06 -1.53798865e-05 -1.67105700e-05 -9.64144328e-06
      -3.51119961e-05 -4.93301886e-05 -3.59517871e-05 -1.61099124e-05
      -1.36823301e-05 -2.60151646e-05 -2.75278653e-05 -2.03786021e-05
      -1.74171782e-05 -2.22192866e-05 7.54457187e-06 5.68102632e-06
      -1.26685791e-07 -2.86955969e-06 -3.42531666e-06 -6.31662351e-06
      -2.29045190e-06 5.40960764e-06 2.32193797e-05 9.13608346e-06
      2.42675669e-05 3.49470829e-05 1.52108692e-06 -9.86545820e-06
      -7.64107062e-06 -2.69393195e-06 1.28749944e-05 2.26355023e-05
      3.78980658e-05 4.48090213e-05 4.55180380e-05 4.00394274e-05
      3.34564720e-05 3.20157524e-05 2.69735392e-05 2.69393186e-05
      2.80774311e-05 3.39999933e-05 4.50480402e-05 5.18260422e-05
      4.93252774e-05 4.49498002e-05 2.69138636e-05 1.30782864e-05
      -7.71644682e-06 -1.53493147e-05 -1.43311463e-05 -9.87278236e-06
      -1.43270536e-05 -3.76883290e-05 -5.51123121e-05 -2.69953161e-05
      -1.27637259e-05 -1.63707755e-05 -2.05528650e-05 -2.00692903e-05
      -2.32380553e-05 -1.99629576e-05 -2.07920239e-05 -2.60005363e-05
      -1.67903727e-05 -1.45572158e-05 -1.32498662e-05 -8.52393623e-06
      -1.88613865e-06 -2.94250782e-07 -2.72466741e-06 -7.30008514e-06
      9.59288741e-07 1.41027404e-05 8.49411390e-06 1.32480736e-05
      4.02426012e-05 1.46286102e-05 -4.45203432e-06 -7.24698339e-06
      -9.10349536e-06 -3.74521665e-06 2.01254556e-06 1.47964520e-05
      2.77116669e-05 3.76122989e-05 4.20974684e-05 3.98941556e-05
      4.70834966e-05 4.48082028e-05 4.72689753e-05 4.71494823e-05
      4.09405402e-05 3.21030057e-05 2.07235553e-05 1.05241197e-05
      2.17450201e-06 -1.14516124e-05 -1.39670010e-05 -1.25257893e-05
      -3.21785546e-06 -1.17953114e-05 -3.58721300e-05 -4.19943317e-05
      -3.18146849e-05 -1.43916977e-05 -1.80522620e-05 -2.52865102e-05
      -3.23478962e-05 -2.91705255e-05 -3.05668400e-05 -3.08657727e-05
      -2.90036824e-05 -3.72902687e-05 -1.41278749e-08 8.79389688e-07
      -4.43806994e-06 -4.68133794e-06 7.22402137e-06 8.75485784e-06
      1.37376205e-07 -4.30365435e-06 6.40774078e-06 4.42620058e-06
      5.82600069e-06 5.27942484e-06 -5.09981146e-06 2.03149648e-05
      2.41338930e-05 6.98970189e-06 -5.91058961e-06 -9.59236104e-07
      -5.03561296e-06 -4.18124500e-06 -6.10124789e-06 -5.13363193e-06
      4.61324817e-06 7.14201633e-06 6.85382065e-06 9.13319127e-06
      1.15357016e-05 6.93944912e-06 2.69076031e-06 1.66423490e-07
      -4.64149070e-06 -8.54437076e-06 -9.08946640e-06 -1.04600949e-05
      -9.37047116e-06 -5.87240675e-06 -2.37982313e-05 -4.32691595e-05
      -4.25258149e-05 -2.20608254e-05 -1.60687141e-05 -2.33921583e-05
      -2.00397790e-05 -1.11838035e-05 -2.68290787e-05 -2.49478944e-05
      -2.84577945e-05 -3.00136835e-05 -3.48962822e-05 -4.52890199e-05
      -7.93532581e-06 -7.63896060e-06 -1.36170020e-05 -1.97785284e-05
      -9.50511821e-06 -6.62393359e-06 -5.19157811e-06 -3.49812183e-07
      -1.36136287e-05 -7.21985953e-06 3.06395259e-06 7.14495854e-06
      4.68547250e-06 -6.34557182e-06 -1.44665671e-06 1.60125001e-05
      1.97885420e-05 1.39257327e-05 7.06888045e-07 7.52932976e-07
      -1.68451572e-06 -5.12337465e-06 -1.59462297e-06 -7.59231534e-06
      -1.00961752e-05 -4.37270592e-06 -1.69191117e-06 -3.37858637e-06
      -4.97185783e-06 -7.43183455e-06 -1.02764816e-05 -8.04211413e-06
      -6.40890539e-06 -7.78070898e-06 -8.18427179e-06 -2.90303833e-05
      -4.12630834e-05 -3.34438191e-05 -2.75190778e-05 -1.51895938e-05
      -1.86608086e-05 -1.86371053e-05 -1.93729957e-05 -1.27215862e-05
      -2.22887957e-05 -2.70033488e-05 -1.91602157e-05 -3.11976619e-05
      -3.24048451e-05 -3.80830352e-05 -2.19578087e-05 -2.12064588e-05
      -1.85828485e-05 -2.17699762e-05 -1.89866532e-05 -1.60112177e-05
      -6.27074132e-06 -9.24045310e-07 1.75628747e-06 -3.59285082e-06
      -1.16616491e-06 5.12651286e-06 6.75791262e-06 -6.66251344e-06
      3.15904936e-06 2.33654714e-06 7.95722190e-06 7.39712641e-06
      4.29203601e-06 1.30277367e-05 1.55865582e-05 1.11170493e-05
      1.34977190e-05 4.21339382e-06 3.20543086e-06 2.51236293e-06
      4.18502714e-06 2.63585821e-06 7.05775165e-07 -1.27141197e-06
      -7.91761704e-06 -1.50900732e-05 -1.62200176e-05 -1.86112102e-05
      -2.68850781e-05 -3.64240805e-05 -2.34729214e-05 -2.46356976e-05
      -3.18203311e-05 -1.07478791e-05 -6.58552472e-06 -6.92195317e-06
      -1.20569202e-05 -8.99220413e-06 -1.85031768e-05 -2.55553314e-05
      -1.76145350e-05 -2.57445881e-05 -2.65909002e-05 -3.18942766e-05
      -1.33192934e-05 -5.09569190e-06 -9.14488282e-06 -6.91361492e-06
      -1.12487496e-05 -1.18510488e-05 -6.32344791e-06 1.29999853e-06
      1.12443195e-05 7.67238021e-07 2.95430664e-06 9.93495519e-07
      1.12629107e-06 -5.69780786e-06 -2.38375696e-06 1.27867088e-06
      1.76450499e-06 1.22103720e-05 1.73917615e-05 -4.47489128e-06
      -9.42850693e-06 -2.09542304e-05 -5.77294441e-06 -1.08540617e-05
      5.53217842e-06 -4.55394911e-06 -8.78062383e-06 -2.88347674e-05
      -3.20822692e-05 -2.94033707e-05 -2.72420275e-05 -3.46013221e-05
      -3.80025740e-05 -3.35916448e-05 -2.91782453e-05 -2.87648381e-05
      -2.40791742e-05 -1.97526515e-05 -3.04101286e-05 -1.80265633e-05
      -1.28380825e-05 -2.47920107e-05 -1.12433991e-05 -8.08649474e-06
      -2.20779966e-05 -1.78931314e-05 -1.96129185e-05 -2.35719126e-05
      -2.47962525e-05 -3.38186619e-05 -8.22007405e-06 1.70244803e-05
      2.68061685e-05 2.12036521e-05 -8.47484353e-06 -3.07989758e-05
      -2.85354181e-05 -1.54716945e-05 -3.60365129e-06 -7.72393014e-06
      -6.39216387e-06 -7.28080022e-06 -1.40199754e-05 -1.90971732e-05
      -1.37718271e-05 -5.78601612e-06 -1.48356557e-05 -9.81792527e-06
      -2.17475827e-06 -9.65881009e-06 -9.71049417e-07 -8.47563388e-06
      2.18467230e-05 2.84385715e-05 4.26085899e-05 2.12368632e-05
      -1.41899318e-05 -3.12619268e-05 -2.86838422e-05 -3.11592230e-05
      -3.18795137e-05 -3.59253900e-05 -3.78380682e-05 -3.44752698e-05
      -3.05021458e-05 -3.60602680e-05 -3.02669887e-05 -2.64167520e-05
      -3.08666749e-05 -1.82434906e-05 -2.05233864e-05 -2.56441162e-05
      -1.66701229e-05 -1.07050546e-05 -1.43024236e-05 -9.81538506e-06
      -1.28016063e-05 -2.26060320e-06 -3.52583152e-06 -9.82997426e-06</_>
    <_>
      -9.36899505e-06 -9.08560651e-06 -9.39817801e-06 -9.18308342e-06
      -8.77095590e-06 -9.25909353e-06 -9.20984894e-06 -9.02830288e-06
      -9.39566598e-06 -8.83114990e-06 -7.49359515e-06 -8.51080040e-06
      -9.44512976e-06 -8.39011318e-06 -1.05254167e-05 -7.99337431e-06
      -8.64603771e-06 -6.12527629e-06 -4.84488783e-06 -1.64563107e-06
      5.14962994e-06 1.11432637e-05 1.62163524e-05 2.06917575e-05
      1.91199288e-05 2.11974966e-05 2.09022000e-05 2.11838815e-05
      1.61561547e-05 8.23420578e-06 -8.92903074e-07 -3.14479007e-06
      -6.76344325e-06 -8.18167155e-06 -8.56593851e-06 -2.38910820e-06
      3.67726147e-06 5.96545988e-06 5.45655257e-06 1.54179440e-06
      -9.60698344e-07 -8.64600850e-07 3.50071082e-06 2.16717376e-06
      3.58653597e-06 4.98768577e-06 4.96915845e-06 4.31513899e-06
      6.25749681e-06 7.83224368e-06 -8.26755968e-06 -7.63306161e-06
      -7.95372671e-06 -8.77257844e-06 -9.13362874e-06 -9.57845805e-06
      -9.05170509e-06 -9.18938713e-06 -8.86801627e-06 -8.72332748e-06
      -9.62149807e-06 -1.05693489e-05 -1.06482394e-05 -9.29051930e-06
      -8.32794012e-06 -3.97396752e-06 3.56583769e-06 1.12860625e-05
      1.79162216e-05 1.87278711e-05 1.62467313e-05 1.34264319e-05
      1.06575380e-05 9.03629370e-06 1.14228487e-05 1.16100364e-05
      1.14907143e-05 1.28270267e-05 1.47931432e-05 2.25086751e-05
      2.72339439e-05 2.72519610e-05 2.01698494e-05 8.97667906e-06
      -1.90914875e-06 -3.08555855e-06 3.55754173e-06 5.36663219e-06
      6.75392721e-06 6.07177208e-06 4.67049585e-06 8.64705544e-06
      3.59051273e-06 9.97530151e-07 7.79809307e-06 7.80524988e-06
      6.04589286e-06 8.32357819e-06 1.01991118e-05 1.30038798e-05
      -7.14699809e-06 -6.92051026e-06 -7.81134077e-06 -8.17078217e-06
      -8.23570008e-06 -8.08849200e-06 -8.44684109e-06 -9.18640399e-06
      -9.40721930e-06 -9.23415246e-06 -9.53878680e-06 -8.00642283e-06
      -7.53724862e-06 -5.47873560e-06 2.43741943e-06 1.46489374e-05
      1.97943773e-05 1.39251651e-05 1.11503496e-05 1.12531197e-05
      8.20388050e-06 4.36496748e-06 4.50617745e-06 7.59957629e-06
      3.62804894e-06 3.98619432e-06 5.75651848e-06 6.67931727e-06
      4.19444132e-06 5.94213952e-06 9.09804385e-06 1.09506709e-05
      1.77578659e-05 2.56473195e-05 2.97701463e-05 2.10323378e-05
      1.25239885e-05 7.42528982e-06 6.75326237e-06 -1.12739724e-06
      -2.10930170e-06 1.00334591e-05 9.60432953e-06 1.22847064e-06
      5.41814507e-06 9.88304691e-06 1.02111726e-05 9.64422179e-06
      1.19496590e-05 1.38615842e-05 -7.10162567e-06 -7.60249532e-06
      -7.32685567e-06 -7.03307978e-06 -6.89330182e-06 -7.04625791e-06
      -7.15638089e-06 -7.25291966e-06 -6.15862564e-06 -8.78645460e-06
      -8.27756412e-06 -5.76506363e-06 4.14503148e-07 1.08649765e-05
      1.90787305e-05 1.15535477e-05 9.72954513e-06 8.84524525e-06
      7.14588759e-06 4.05621313e-06 2.08906317e-06 3.04867285e-06
      2.70932173e-06 1.64493500e-07 2.75677326e-06 3.42564113e-06
      2.13469480e-06 2.46202694e-06 4.60154615e-06 4.83382655e-06
      3.57777913e-06 4.07566495e-06 4.23064284e-06 7.61770389e-06
      1.40590346e-05 2.19806661e-05 3.15895850e-05 2.48545366e-05
      1.09580242e-05 1.17453635e-06 4.94523965e-06 1.18018925e-05
      2.32772209e-06 -1.95524308e-06 8.26661289e-06 1.32192608e-05
      1.55336420e-05 1.60518102e-05 1.37879188e-05 1.29653445e-05
      -7.24893653e-06 -7.39799179e-06 -6.65683001e-06 -6.55525355e-06
      -7.41634040e-06 -6.66493588e-06 -6.60445266e-06 -5.60735270e-06
      -6.55967278e-06 -5.52746678e-06 -3.00754891e-07 7.46958040e-06
      1.88934919e-05 1.33765152e-05 1.10571718e-05 8.23985192e-06
      2.99788098e-06 3.85051908e-06 2.61285527e-06 2.50180847e-07
      6.99396253e-07 3.03226329e-06 2.84004841e-06 1.39534563e-07
      5.63104720e-07 1.29464115e-06 1.20837592e-06 1.69269094e-06
      3.30253374e-06 2.12916302e-06 1.00292561e-06 2.19468325e-06
      1.70458156e-06 3.52650090e-06 5.10808422e-06 5.78273875e-06
      1.28721967e-05 2.41553589e-05 2.79456872e-05 1.89703078e-05
      6.52444078e-06 2.32748857e-06 3.75543482e-06 -7.31657678e-07
      3.86763122e-06 1.18472162e-05 1.06980733e-05 1.18013613e-05
      1.39429576e-05 1.17495601e-05 -7.35818821e-06 -7.11632765e-06
      -6.25080474e-06 -7.50731169e-06 -7.02610760e-06 -5.60332774e-06
      -7.18021283e-06 -7.11180019e-06 -5.65213304e-06 7.23895801e-06
      1.10847723e-05 1.73795779e-05 1.31926654e-05 1.10601122e-05
      5.13161467e-06 9.05115201e-07 4.67002383e-06 1.87463729e-06
      4.46445426e-07 1.29011676e-06 7.30449187e-07 -1.67771748e-06
      -1.46781201e-06 1.23685061e-06 1.56020303e-06 9.19058380e-07
      1.91186268e-06 1.26698311e-07 -2.64365212e-06 -2.89771469e-06
      7.93099730e-07 1.76061826e-06 2.33034893e-06 1.68930444e-06
      2.52886639e-06 2.78391349e-06 3.72980321e-06 7.73509691e-06
      1.64077082e-05 2.53475064e-05 1.89924504e-05 6.06917183e-06
      1.76501283e-06 5.85250518e-06 8.55875987e-06 1.28023576e-05
      1.28304309e-05 1.03402590e-05 1.07140559e-05 9.50467438e-06
      -7.82700590e-06 -8.00982889e-06 -7.39990446e-06 -8.06246499e-06
      -6.38868823e-06 -6.25587563e-06 -7.32472063e-06 -4.21381674e-06
      1.12288162e-05 1.29219616e-05 1.50974029e-05 1.19438500e-05
      4.74923763e-06 5.91171727e-07 4.60995216e-06 3.91086405e-06
      -1.08733070e-06 -2.39245765e-06 -1.37695315e-06 -8.93755967e-08
      -7.55158055e-07 -2.47205799e-06 -4.12544887e-06 -6.22752123e-06
      -8.02439354e-06 -8.56262886e-06 -7.68588961e-06 -8.93051856e-06
      -6.73812474e-06 -2.12234249e-06 1.22941833e-06 -8.60716455e-07
      -4.27463249e-07 7.60741727e-07 1.44614921e-06 1.33755464e-06
      1.12334271e-06 1.88405136e-06 5.04634363e-06 9.98683208e-06
      2.50659359e-05 2.39317178e-05 1.22626343e-05 1.16548572e-05
      8.98391590e-06 1.02428330e-05 1.18441358e-05 9.49799050e-06
      1.15917628e-05 1.05018771e-05 -8.36454274e-06 -9.21149876e-06
      -8.65580932e-06 -8.59990996e-06 -7.32101262e-06 -8.20382229e-06
      -6.29525721e-06 6.92144113e-06 1.25338629e-05 1.77710626e-05
      9.81251105e-06 2.02986416e-06 3.68854148e-06 5.86306578e-06
      2.18784635e-06 -2.38810185e-06 -4.94980327e-07 -6.70511042e-07
      -9.65020490e-07 -5.44882778e-06 -8.60866476e-06 -3.77571700e-06
      1.92529069e-06 1.66811924e-06 1.75651030e-06 -6.60509869e-08
      9.51408140e-07 1.94803511e-06 -4.80955407e-07 -1.05641584e-05
      -1.32851537e-05 -8.41489873e-06 -2.47012008e-06 -1.69879257e-07
      1.73879323e-06 2.45527804e-06 1.09248197e-06 8.51087009e-07
      1.30834258e-06 5.42684120e-06 9.91731940e-06 2.40076733e-05
      2.49458153e-05 1.27699541e-05 1.11657564e-05 9.19966169e-06
      8.43774069e-06 1.02331005e-05 7.26980807e-06 5.03419642e-06
      -8.69652831e-06 -1.07892529e-05 -9.31544673e-06 -8.60878026e-06
      -1.00868710e-05 -5.40211431e-06 4.83062786e-06 1.25153247e-05
      1.76793856e-05 8.15208205e-06 1.77604807e-06 3.64131847e-06
      3.54631334e-06 -3.51865843e-08 -9.05964498e-07 1.86451382e-06
      2.18593513e-07 -7.26162807e-06 -4.08592723e-06 -2.76210926e-07
      -1.03634852e-06 -2.61367495e-06 -1.30820320e-06 -3.22786690e-07
      -8.64450840e-07 -2.67229962e-06 -1.20570371e-06 -1.13486192e-06
      -4.28976762e-07 1.58848491e-06 1.28170063e-06 -4.18490117e-06
      -1.10525625e-05 -1.23754553e-05 -8.01266197e-06 -1.57237048e-06
      3.13316400e-06 1.60028651e-06 1.72639204e-06 -3.29649509e-07
      3.30390253e-06 1.11833351e-05 2.61203986e-05 2.42391543e-05
      1.07795004e-05 1.14930290e-05 8.12296912e-06 5.88349394e-06
      1.56571332e-06 5.04148545e-07 -1.06294037e-05 -8.02327304e-06
      -9.98333780e-06 -1.07581209e-05 -6.52446488e-06 -1.50297490e-06
      9.32094827e-06 2.00599879e-05 9.45796910e-06 1.73586318e-06
      4.70766645e-06 7.33494926e-06 -1.10682265e-06 9.68394829e-07
      -7.03559579e-07 -4.72893271e-06 -8.12059261e-06 6.69995984e-07
      -2.75008688e-07 -1.73355647e-06 -7.76297099e-07 2.58551239e-07
      1.42274388e-07 -2.03303898e-06 -1.32033676e-06 -9.21926926e-07
      -8.66200878e-07 -1.12713371e-06 -2.64478263e-06 -1.47599178e-06
      -7.19431767e-08 5.31160424e-07 1.22284484e-06 -4.58203431e-06
      -1.11620939e-05 -1.35010323e-05 -4.97263318e-06 3.45562989e-06
      2.46957961e-06 2.69663701e-06 1.05719016e-06 3.58180478e-06
      9.46640648e-06 2.83592453e-05 1.89387993e-05 6.30246313e-06
      8.62428897e-06 7.25653672e-06 3.70735324e-06 2.99255657e-06
      -9.99022541e-06 -9.24825781e-06 -9.92539117e-06 -1.02289414e-05
      -5.63420281e-06 7.95538563e-06 1.76107551e-05 8.23180562e-06
      1.19324022e-06 4.27412488e-06 6.30287286e-06 3.32453351e-06
      -9.96950803e-07 -9.00893212e-07 -7.01916861e-06 -4.71317435e-06
      -2.03597708e-07 -1.69387135e-06 -3.46141746e-06 -1.85165447e-06
      -2.02810156e-06 -2.83946497e-06 -3.39339226e-06 -1.48565664e-06
      -2.16544458e-06 -3.72003501e-06 -2.71916679e-06 -1.84592932e-06
      -2.54883662e-06 -2.02009187e-06 -9.98589826e-07 -2.16634749e-06
      -7.71840291e-07 -5.46231945e-07 2.53572807e-06 -9.37965797e-06
      -1.13297810e-05 -4.98716736e-06 4.53886878e-06 4.15314526e-06
      2.34995082e-06 5.32924219e-07 4.38602410e-06 1.74592769e-05
      2.59415283e-05 1.11647896e-05 9.39580332e-06 9.62461036e-06
      6.11677342e-06 4.33259220e-06 -7.70569386e-06 -1.12463704e-05
      -8.98594953e-06 -8.91547006e-06 6.49156505e-07 1.75157529e-05
      1.27709600e-05 1.00056081e-06 1.64114510e-06 5.66641575e-06
      2.38377902e-06 1.46957484e-06 -2.70051260e-06 -7.88372927e-06
      -1.27572866e-06 -1.77545394e-06 -2.84652651e-06 -3.36638345e-06
      -6.88853277e-08 -3.31212732e-07 -4.23029363e-08 -1.29662942e-06
      -2.03207537e-06 -8.58905366e-07 -1.11974896e-06 -1.25054248e-06
      -9.68069116e-07 -1.71558065e-06 -3.56645046e-07 -1.45639763e-06
      -1.39744145e-06 -1.12880696e-06 -4.78599532e-07 -3.30000319e-07
      -4.08981259e-06 2.04295316e-06 -8.65490529e-06 -1.48905265e-05
      -2.70606279e-06 2.84645398e-06 4.24532345e-06 7.82704092e-07
      2.88984734e-06 2.49126902e-06 2.18393143e-05 2.57709507e-05
      8.09268840e-06 6.99769544e-06 9.06105015e-06 6.78580045e-06
      -9.48528486e-06 -8.51968980e-06 -8.35465562e-06 -3.29406998e-06
      8.00997077e-06 1.93254473e-05 3.40160705e-06 2.38661119e-06
      3.99205965e-06 -1.72870159e-06 2.27270129e-06 -2.30650699e-06
      -1.36073595e-05 9.44180485e-08 -1.27130068e-06 -7.91286027e-07
      3.23369454e-06 -1.19250763e-06 -1.43799400e-06 -1.87560454e-06
      -4.33186824e-06 -3.87220052e-06 -3.33467398e-07 -2.92760205e-06
      -1.36956407e-06 -2.66887628e-06 -2.58315436e-06 -2.35041534e-06
      -2.24434098e-06 -2.57280681e-06 -1.64414655e-06 -8.38153483e-07
      -3.58314492e-06 7.29801172e-07 -2.59019134e-06 -3.63227150e-06
      2.25445956e-06 -5.73047419e-06 -1.60927102e-05 1.21395124e-06
      6.25935991e-06 1.59839590e-06 3.14816589e-06 1.51892493e-06
      7.93729214e-06 2.62375288e-05 1.21988987e-05 5.10965447e-06
      4.35114089e-06 3.62137757e-06 -2.20450443e-06 -7.25597374e-06
      -6.75283991e-06 5.93553023e-06 1.74478682e-05 9.19273680e-06
      -8.21922470e-07 2.65990980e-06 -2.08672282e-06 3.58738976e-06
      -1.00797183e-06 -1.05942272e-05 -3.56684723e-06 5.44649902e-06
      1.13944388e-05 1.44293708e-05 1.88363374e-05 1.62289671e-05
      1.16317096e-05 6.31920739e-06 5.36368304e-07 -3.12364392e-07
      -9.90310127e-07 -1.59147817e-06 -1.72783803e-06 -5.74774958e-07
      -5.67331938e-07 1.99473025e-08 -1.66035136e-06 -2.50946346e-06
      -3.21726611e-06 -1.66830876e-06 -3.91025623e-07 -1.59086107e-06
      -1.48921310e-06 3.30616160e-07 -5.70900795e-07 -1.01827652e-06
      -7.36828997e-06 -1.28361035e-05 4.35637730e-06 1.14466266e-05
      -1.01154706e-06 3.04564696e-06 3.30492048e-06 1.65197089e-05
      2.64411319e-05 5.77868241e-06 6.19302409e-06 5.45017383e-06
      3.11538315e-06 -1.22636027e-06 4.50453263e-06 1.00939569e-05
      1.50995920e-05 5.44062686e-06 1.56577914e-06 2.87764556e-06
      1.31176489e-06 2.58355772e-06 -9.66910557e-06 -5.87774048e-06
      1.33106887e-05 1.64423036e-05 1.95610137e-05 2.17588804e-05
      1.63235291e-05 2.15964010e-05 2.22800572e-05 1.89847997e-05
      1.21816593e-05 3.16274395e-06 -5.93837149e-06 -8.29303735e-06
      -6.81783422e-06 -8.56518398e-07 -4.33776307e-07 -3.23942299e-06
      5.27611860e-07 4.70082387e-06 1.02324730e-05 1.63203113e-05
      1.09758694e-05 9.98261385e-07 -8.39570305e-07 5.77197306e-06
      5.03644924e-06 -4.12898544e-07 1.95520124e-06 -1.31197366e-05
      -1.01344122e-05 9.27142992e-06 7.55157816e-06 1.87766446e-07
      2.42911801e-06 6.45674936e-06 2.49025361e-05 1.67662383e-05
      3.96557698e-06 3.41317059e-06 -3.46982074e-06 4.83019039e-06
      1.45934155e-05 1.76159356e-05 7.06717310e-06 2.11598581e-06
      5.87170871e-06 2.82344126e-06 2.48251240e-06 -5.76344746e-06
      -1.27378253e-05 1.39668555e-05 1.74138422e-05 1.20003524e-05
      4.08923233e-06 2.75532216e-06 1.80263814e-05 4.41120355e-05
      5.03486663e-05 4.91554383e-05 3.93925257e-05 4.82927999e-06
      -1.85378485e-05 -2.24011455e-05 -2.31556151e-05 -1.87768037e-05
      -4.20743072e-06 2.32387742e-06 1.44153846e-05 3.06639304e-05
      4.61099698e-05 4.19523858e-05 3.37575621e-05 2.73738624e-05
      1.04425162e-05 -2.85200008e-06 2.91298420e-06 1.73513581e-05
      4.78230277e-06 -1.76897584e-06 -1.41166593e-05 -4.03740046e-07
      1.19044980e-05 2.53256508e-06 2.92076083e-06 3.42640487e-06
      1.82428739e-05 1.98672951e-05 6.14730288e-06 6.60641945e-06
      -8.33294143e-06 5.64002050e-07 1.26005980e-05 2.32838429e-05
      2.94746951e-06 5.26870917e-06 7.33283605e-06 5.78647587e-07
      1.20171603e-06 -1.48608115e-05 1.09075800e-05 1.63299937e-05
      6.31733019e-06 -6.31760088e-07 1.54426061e-06 1.89147813e-05
      3.24947250e-05 5.25592004e-05 6.02562359e-05 6.11404248e-05
      3.74567899e-05 2.47817716e-05 -6.64177696e-06 -2.70143064e-05
      -2.71569261e-05 -2.35025182e-05 -2.23321949e-05 1.95171324e-05
      3.24864850e-05 5.07064433e-05 5.28011260e-05 4.17850060e-05
      4.13062953e-05 3.59104051e-05 2.97385286e-05 3.89292609e-06
      -8.90221236e-06 1.20243237e-06 1.53052242e-05 6.37562334e-06
      -1.06795333e-05 -9.07658523e-06 6.07061065e-06 6.14497321e-06
      1.51390554e-06 4.02787509e-06 6.33387162e-06 2.10068283e-05
