<?xml version="1.0"?>
<opencv_storage>
<my_svm type_id="opencv-ml-svm">
  <svm_type>C_SVC</svm_type>
  <kernel><type>LINEAR</type></kernel>
  <C>1.0000000000000001e-01</C>
  <term_criteria><epsilon>2.2204460492503131e-16</epsilon>
    <iterations>1000</iterations></term_criteria>
  <var_all>2500</var_all>
  <var_count>2500</var_count>
  <class_count>8</class_count>
  <class_labels type_id="opencv-matrix">
    <rows>1</rows>
    <cols>8</cols>
    <dt>i</dt>
    <data>
      1 2 3 4 5 6 7 8</data></class_labels>
  <sv_total>28</sv_total>
  <support_vectors>
    <_>
      2.73818455e-06 1.54931104e-06 -2.61516516e-06 -7.45917578e-06
      -7.36197717e-06 -1.97852000e-06 3.49259517e-06 4.31890567e-06
      1.80998563e-06 -4.97115423e-07 -1.32380490e-06 -1.30085141e-06
      -1.29110811e-06 -1.70796989e-06 -2.76571109e-06 -3.70320163e-06
      -3.90328523e-06 -3.88967283e-06 -3.91050389e-06 -3.61828302e-06
      -2.98626765e-06 -2.54558790e-06 -2.52112613e-06 -2.49666459e-06
      -2.44433159e-06 -2.43555428e-06 -2.39620226e-06 -2.39720498e-06
      -2.35374546e-06 -2.36078540e-06 -2.34960112e-06 -2.33902711e-06
      -2.33930200e-06 -2.14671172e-06 -1.73459841e-06 -1.40696500e-06
      -1.34511345e-06 -7.14428950e-07 1.38989515e-06 3.92283300e-06
      4.84719249e-06 3.63263803e-06 3.35733375e-07 -4.13906855e-06
      -6.49093818e-06 -4.16635476e-06 5.87405054e-07 3.33650632e-06
      4.02764317e-06 4.15453542e-06 2.05082711e-06 3.07220006e-07
      -4.04516595e-06 -6.95401468e-06 -4.81936604e-06 4.97402198e-07
      4.14862416e-06 3.82774078e-06 1.43596606e-06 -2.43250042e-07
      -8.60143359e-07 -8.74030945e-07 -8.96695781e-07 -1.81074813e-06
      -4.25677899e-06 -6.30173645e-06 -6.85632494e-06 -6.89467379e-06
      -6.77599564e-06 -5.94193489e-06 -4.40306530e-06 -3.53065525e-06
      -3.41197688e-06 -3.41892064e-06 -3.36658786e-06 -3.35086679e-06
      -3.28010924e-06 -3.31251749e-06 -3.32650097e-06 -3.36074277e-06
      -3.31361616e-06 -3.29963245e-06 -3.25361179e-06 -2.86805403e-06
      -1.87541696e-06 -1.10426481e-06 -9.08749826e-07 -4.76698091e-07
      1.01445949e-06 3.35583331e-06 4.95134827e-06 4.53911343e-06
      1.82897861e-06 -2.36183973e-06 -5.32335298e-06 -4.57481974e-06
      -7.90722083e-07 3.00763327e-06 4.97941483e-06 5.34794435e-06
      -7.05597017e-07 -2.79284268e-06 -5.71699411e-06 -4.67632526e-06
      -3.27256480e-08 4.00126464e-06 4.55008330e-06 2.60322736e-06
      7.23049084e-07 1.61283893e-08 -6.45470095e-08 1.02874836e-07
      2.06121115e-07 -1.36509789e-06 -5.54018197e-06 -8.94507320e-06
      -1.01443848e-05 -1.08017903e-05 -1.11897371e-05 -9.99075564e-06
      -7.61809997e-06 -6.23625829e-06 -6.02336331e-06 -6.01604870e-06
      -6.00032763e-06 -6.00032763e-06 -5.96892187e-06 -5.77679566e-06
      -5.13597070e-06 -4.49449954e-06 -4.23939036e-06 -4.20274182e-06
      -4.16800913e-06 -3.45426088e-06 -1.66857399e-06 -3.26917089e-08
      3.83392887e-07 1.97393476e-07 5.10710493e-07 2.08885444e-06
      4.37445487e-06 5.52385700e-06 4.31416220e-06 1.12435418e-06
      -2.51095344e-06 -4.23034498e-06 -2.20185120e-06 2.86042314e-06
      6.44858937e-06 7.21031665e-06 -5.63731328e-06 -6.21639583e-06
      -5.15192960e-06 -6.74001456e-07 3.53616088e-06 4.62449680e-06
      3.17693139e-06 1.19949061e-06 2.63866497e-07 2.82882098e-07
      9.31018519e-07 1.75716730e-06 2.03350533e-06 4.09385393e-07
      -3.26715008e-06 -6.16733769e-06 -7.94364860e-06 -1.02258100e-05
      -1.20793266e-05 -1.21050316e-05 -1.07840169e-05 -9.93243793e-06
      -9.82737220e-06 -9.76746378e-06 -9.69246594e-06 -9.71302234e-06
      -9.61348724e-06 -8.69451742e-06 -6.40273174e-06 -4.11641304e-06
      -3.17661375e-06 -3.14854447e-06 -3.06871129e-06 -2.36869528e-06
      -3.53181264e-07 1.77477909e-06 2.38893290e-06 1.36982260e-06
      5.29076431e-07 1.13178169e-06 2.89933450e-06 4.86065028e-06
      5.50562027e-06 3.95518919e-06 7.73555769e-07 -1.88735817e-06
      -1.12485930e-06 3.13402734e-06 6.65331299e-06 7.59566774e-06
      -9.55800078e-06 -8.30120644e-06 -3.65384403e-06 2.46366449e-06
      4.60886713e-06 3.19610899e-06 1.25420422e-06 3.29749469e-07
      1.89267311e-07 1.35543598e-06 3.69817940e-06 5.51052290e-06
      5.13058603e-06 2.69054385e-06 7.10132231e-10 -1.86982322e-06
      -3.84715941e-06 -7.04226795e-06 -1.03256434e-05 -1.22027004e-05
      -1.26581317e-05 -1.26016303e-05 -1.25910565e-05 -1.25586485e-05
      -1.24844810e-05 -1.24618164e-05 -1.18136768e-05 -9.54909228e-06
      -5.84456939e-06 -2.63831566e-06 -1.13516012e-06 -8.36459606e-07
      -7.16214515e-07 -2.45651449e-07 1.26629413e-06 3.44156160e-06
      4.33092191e-06 3.13064743e-06 1.74568538e-06 1.46274806e-06
      2.06502637e-06 3.57702038e-06 5.21244647e-06 5.21830270e-06
      2.94519759e-06 -2.72144351e-08 -6.32897638e-07 1.98919383e-06
      5.17744820e-06 6.51212804e-06 -9.91358047e-06 -7.74331329e-06
      -2.04065850e-06 3.09452935e-06 3.56609462e-06 1.49557400e-06
      3.34454484e-07 1.05772578e-07 9.25659663e-07 3.79602511e-06
      8.43903581e-06 1.10087512e-05 9.16741556e-06 4.97725250e-06
      1.96039764e-06 2.30578593e-07 -1.78980338e-06 -4.44858597e-06
      -8.33265130e-06 -1.18933394e-05 -1.34966194e-05 -1.38414971e-05
      -1.38576961e-05 -1.38891010e-05 -1.37344932e-05 -1.32830164e-05
      -1.12918333e-05 -7.32702210e-06 -3.46539036e-06 -7.26165410e-07
      1.04766673e-06 1.82831468e-06 1.94859649e-06 2.08995516e-06
      2.93704193e-06 4.64163759e-06 5.82320263e-06 5.02548301e-06
      3.62373908e-06 2.97989368e-06 2.71062004e-06 2.87789521e-06
      3.95048846e-06 4.87333500e-06 3.47034165e-06 4.51775918e-07
      -1.43033037e-06 -5.87680063e-07 2.50126777e-06 4.20988408e-06
      -7.28359282e-06 -4.72385727e-06 2.27664234e-08 2.40074633e-06
      1.72246405e-06 4.08596946e-07 -3.59453480e-08 5.25560381e-07
      2.80623431e-06 7.34416517e-06 1.26264440e-05 1.55550551e-05
      1.33390631e-05 7.81970448e-06 3.52528150e-06 9.59326258e-07
      -1.06694722e-06 -3.30693024e-06 -7.82898314e-06 -1.28838910e-05
      -1.52405037e-05 -1.56640745e-05 -1.56872156e-05 -1.56980641e-05
      -1.52124430e-05 -1.33254289e-05 -9.37897221e-06 -4.31617582e-06
      -6.55017402e-07 1.96073438e-06 4.14197166e-06 5.26905296e-06
      5.41416330e-06 5.30938496e-06 5.31617343e-06 6.09481776e-06
      6.75250158e-06 6.08195978e-06 4.79238452e-06 4.04159300e-06
      3.54763438e-06 3.00273018e-06 2.92057530e-06 3.58180228e-06
      3.70575935e-06 2.57735633e-06 3.10500411e-07 -1.51301447e-06
      -6.94428707e-07 5.64487777e-07 -2.90191633e-06 -4.05773875e-07
      2.40268810e-06 1.70776332e-06 4.38583129e-07 5.11991374e-08
      9.37577926e-09 1.21220523e-06 5.26606937e-06 1.09115981e-05
      1.57186823e-05 1.83669872e-05 1.64157209e-05 1.05298714e-05
      5.28494002e-06 1.76629942e-06 -1.14249531e-06 -4.28052772e-06
      -9.79062861e-06 -1.54266982e-05 -1.77163220e-05 -1.79425806e-05
      -1.79515464e-05 -1.79908984e-05 -1.69919404e-05 -1.31381494e-05
      -6.95035487e-06 -1.38212272e-06 2.45393630e-06 5.65340042e-06
      8.38064170e-06 9.80809727e-06 1.01695232e-05 9.84272356e-06
      8.99521820e-06 8.19073193e-06 7.76714023e-06 7.11116900e-06
      5.87259456e-06 4.61658647e-06 4.05710216e-06 3.59334604e-06
      2.81226698e-06 2.79821165e-06 4.32801880e-06 5.67790630e-06
      4.04977027e-06 -7.53963576e-08 -2.47688786e-06 -2.64254118e-06
      1.89646209e-06 3.15344323e-06 3.58496254e-06 1.40297516e-06
      1.19134342e-07 9.64414753e-08 2.00961239e-07 1.72562670e-06
      6.92352569e-06 1.37661136e-05 1.86214784e-05 2.04299686e-05
      1.78681548e-05 1.21307849e-05 7.38819654e-06 3.18717002e-06
      -1.88350703e-06 -7.24665779e-06 -1.36643948e-05 -1.87370169e-05
      -2.00648210e-05 -1.96891706e-05 -1.93761098e-05 -1.92183070e-05
      -1.76225840e-05 -1.23442842e-05 -4.43595854e-06 1.94885024e-06
      6.20961464e-06 9.89967884e-06 1.30271455e-05 1.49329153e-05
      1.56256992e-05 1.52349585e-05 1.34528927e-05 1.11665622e-05
      9.95836308e-06 9.75399416e-06 8.16792544e-06 5.60542003e-06
      4.30473619e-06 3.93517757e-06 3.36594167e-06 3.30925491e-06
      4.90029697e-06 6.61567810e-06 5.83561632e-06 2.03074524e-06
      -1.72479463e-06 -3.15585157e-06 4.65905214e-06 4.43133604e-06
      3.14167369e-06 1.03334958e-06 2.27026860e-07 5.52161396e-07
      1.03951493e-06 2.72927628e-06 7.94867174e-06 1.55620310e-05
      2.11127572e-05 2.18501427e-05 1.82427557e-05 1.36567623e-05
      9.95726987e-06 4.60049841e-06 -3.09123470e-06 -1.04360561e-05
      -1.75487949e-05 -2.26041939e-05 -2.33891151e-05 -2.20089241e-05
      -2.05529541e-05 -1.92819953e-05 -1.67877279e-05 -1.12421048e-05
      -3.30726357e-06 3.85009389e-06 9.10036397e-06 1.30129374e-05
      1.60021718e-05 1.77796192e-05 1.87769474e-05 1.85974841e-05
      1.70128460e-05 1.51315280e-05 1.43342259e-05 1.36564086e-05
      1.07106744e-05 6.77753542e-06 4.60362435e-06 4.05035826e-06
      3.86901638e-06 3.90668311e-06 4.55053214e-06 5.70247175e-06
      5.78688150e-06 3.52377901e-06 2.80279295e-07 -1.25955285e-06
      4.28189924e-06 3.41564441e-06 1.63763298e-06 5.34889352e-07
      5.29298404e-07 1.39287022e-06 2.56079034e-06 4.54788187e-06
      9.16087811e-06 1.66752452e-05 2.27279270e-05 2.26256925e-05
      1.88035920e-05 1.56976603e-05 1.25833158e-05 5.53898690e-06
      -4.19563094e-06 -1.24518665e-05 -1.99566039e-05 -2.57286738e-05
      -2.65852268e-05 -2.39925139e-05 -2.08597467e-05 -1.75923924e-05
      -1.33682097e-05 -8.18509125e-06 -1.63420430e-06 5.33707453e-06
      1.08016820e-05 1.40275897e-05 1.57595259e-05 1.70512485e-05
      1.84045639e-05 1.93972483e-05 1.96420860e-05 2.02243027e-05
      2.05867436e-05 1.84874225e-05 1.35403852e-05 8.31430134e-06
      5.30105717e-06 4.25928420e-06 4.01293573e-06 3.66798349e-06
      3.33941125e-06 4.31026092e-06 5.37416781e-06 4.16128341e-06
      2.17449815e-06 1.38593612e-06 1.91153117e-06 1.32035791e-06
      4.25283616e-07 3.56557962e-07 1.21993833e-06 2.58695491e-06
      4.10595158e-06 6.83720646e-06 1.14782051e-05 1.82743952e-05
      2.37479981e-05 2.35091029e-05 2.00160721e-05 1.74611905e-05
      1.44122541e-05 6.81346273e-06 -3.91764434e-06 -1.33173553e-05
      -2.13500953e-05 -2.65542949e-05 -2.60199013e-05 -2.22117069e-05
      -1.79704821e-05 -1.28302154e-05 -6.09392237e-06 1.10372786e-08
      5.31197111e-06 1.05388654e-05 1.37999232e-05 1.38750356e-05
      1.32821860e-05 1.45354988e-05 1.72828823e-05 2.02003630e-05
      2.32190287e-05 2.60123161e-05 2.70854525e-05 2.45273732e-05
      1.84742385e-05 1.17307236e-05 7.02841226e-06 4.91757783e-06
      4.13573662e-06 3.35587129e-06 2.49304844e-06 3.48356889e-06
      5.41925920e-06 5.05050639e-06 3.53214500e-06 2.94157644e-06
      -2.76214394e-07 -1.46205210e-07 1.36753286e-07 9.52679898e-07
      2.30789237e-06 3.86220199e-06 5.76517959e-06 9.04809804e-06
      1.39491794e-05 1.95041448e-05 2.33044866e-05 2.31016802e-05
      2.03960699e-05 1.80442330e-05 1.51644499e-05 8.01465285e-06
      -2.77148069e-06 -1.28922884e-05 -2.08811853e-05 -2.45969150e-05
      -2.27575492e-05 -1.86573252e-05 -1.39907352e-05 -7.03283013e-06
      1.89482466e-06 9.41976487e-06 1.42428153e-05 1.68480328e-05
      1.67806611e-05 1.39862559e-05 1.16422025e-05 1.27296134e-05
      1.59672491e-05 2.01898074e-05 2.59301178e-05 3.03311172e-05
      3.16294863e-05 2.97140232e-05 2.40213103e-05 1.59519386e-05
      9.33045158e-06 5.82167968e-06 4.41527254e-06 3.49842185e-06
      2.53470421e-06 3.25953283e-06 5.16381533e-06 5.68036648e-06
      4.25247981e-06 3.20378876e-06 -1.09284247e-06 -5.34438414e-07
      6.58770546e-07 2.10528719e-06 3.68084920e-06 5.60769240e-06
      7.97219764e-06 1.10036326e-05 1.49720245e-05 1.88928425e-05
      2.06743443e-05 1.97821828e-05 1.81233336e-05 1.72307446e-05
      1.52686862e-05 8.54179143e-06 -1.95169582e-06 -1.13825172e-05
      -1.81238920e-05 -2.12745745e-05 -2.06230616e-05 -1.78958253e-05
      -1.25103325e-05 -3.55476936e-06 6.32980891e-06 1.43077814e-05
      1.86748293e-05 1.90614574e-05 1.72617638e-05 1.48455383e-05
      1.29674518e-05 1.27177345e-05 1.33973526e-05 1.68157621e-05
      2.45440606e-05 3.09664138e-05 3.29209615e-05 3.18036218e-05
      2.71114550e-05 1.91473755e-05 1.12986609e-05 6.66150345e-06
      4.82156474e-06 3.90471268e-06 3.14356407e-06 2.88471165e-06
      3.82842609e-06 5.07055665e-06 4.40769372e-06 3.38264044e-06
      -1.18208391e-06 -4.99233806e-07 1.20363200e-06 3.28242618e-06
      5.31411570e-06 7.71213490e-06 1.01438027e-05 1.23253840e-05
      1.51597624e-05 1.78041228e-05 1.80143452e-05 1.57524955e-05
      1.48032032e-05 1.59998890e-05 1.51571303e-05 8.56291081e-06
      -1.85133160e-06 -1.07189035e-05 -1.60934287e-05 -1.92121170e-05
      -2.03846048e-05 -1.87444257e-05 -1.21794792e-05 -1.56152032e-06
      8.64353751e-06 1.65467318e-05 2.07325393e-05 2.00896848e-05
      1.77985658e-05 1.61083772e-05 1.45124650e-05 1.24698727e-05
      1.05187246e-05 1.24065236e-05 2.02460433e-05 2.82726360e-05
      3.20116924e-05 3.21020561e-05 2.88429474e-05 2.18190853e-05
      1.34900483e-05 7.86218789e-06 5.39720349e-06 4.45340856e-06
      3.74264550e-06 2.56355861e-06 2.51039842e-06 4.35442780e-06
      4.92305617e-06 4.38397547e-06 -1.18208391e-06 -4.97911230e-07
      1.31725051e-06 3.82582493e-06 6.58351200e-06 9.26443136e-06
      1.11892332e-05 1.25759425e-05 1.45551394e-05 1.65837537e-05
      1.59521624e-05 1.27241128e-05 1.21111480e-05 1.50677124e-05
      1.51793520e-05 8.48028412e-06 -2.21065079e-06 -1.15969087e-05
      -1.71810534e-05 -2.05277738e-05 -2.22528724e-05 -2.02186620e-05
      -1.26037003e-05 -1.28490035e-06 9.37419827e-06 1.75344394e-05
      2.17736870e-05 2.11154347e-05 1.80531642e-05 1.51907361e-05
      1.25822280e-05 9.90040462e-06 7.71714167e-06 8.94272853e-06
      1.56249898e-05 2.42937822e-05 3.04941059e-05 3.21287007e-05
      2.99320182e-05 2.41292892e-05 1.58457715e-05 9.22401068e-06
      6.01710553e-06 4.82855967e-06 4.04821867e-06 2.45430329e-06
      2.15339742e-06 4.34089588e-06 5.86305487e-06 5.90771560e-06
      -1.10724102e-06 -4.90611342e-07 1.31725051e-06 3.72156205e-06
      6.25612302e-06 8.82775112e-06 1.07352089e-05 1.14005634e-05
      1.22598749e-05 1.32582327e-05 1.24288508e-05 9.88538704e-06
      1.05958588e-05 1.46522234e-05 1.51203121e-05 8.45916384e-06
      -2.48520996e-06 -1.30062435e-05 -2.06432178e-05 -2.54368024e-05
      -2.66018396e-05 -2.32285984e-05 -1.58501207e-05 -5.46521187e-06
      6.02453156e-06 1.51032837e-05 1.91176568e-05 1.77679485e-05
      1.28751280e-05 8.34166349e-06 6.27023201e-06 5.11581766e-06
      4.12215013e-06 5.70026214e-06 1.20006125e-05 2.14586162e-05
      2.92740751e-05 3.17405902e-05 2.97961233e-05 2.46165473e-05
      1.68088536e-05 1.00118968e-05 6.31539069e-06 5.11316739e-06
      4.24592827e-06 2.55567147e-06 2.16533067e-06 4.52722315e-06
      6.53449843e-06 6.91707828e-06 -1.10724102e-06 -5.22053483e-07
      1.09715540e-06 2.88500905e-06 4.38401003e-06 6.42237410e-06
      8.44125407e-06 9.11027655e-06 9.28426289e-06 9.40505561e-06
      8.42708323e-06 7.17120110e-06 9.43123996e-06 1.44070991e-05
      1.50884343e-05 8.45577051e-06 -2.66305256e-06 -1.40908915e-05
      -2.41465768e-05 -3.06810543e-05 -3.12517477e-05 -2.68603144e-05
      -2.03040563e-05 -1.11383142e-05 8.77458945e-07 1.03275579e-05
      1.33448721e-05 1.04456758e-05 3.79582389e-06 -1.20949687e-06
      -1.67275550e-06 -8.16018144e-07 -1.98110271e-07 2.58899217e-06
      9.53081417e-06 1.97976187e-05 2.85014576e-05 3.11540716e-05
      2.88797619e-05 2.38003195e-05 1.65715592e-05 1.00326897e-05
      6.36280174e-06 5.17157923e-06 4.27261011e-06 2.56100770e-06
      2.17066690e-06 4.54834299e-06 6.66121832e-06 7.10715767e-06
      -1.13864644e-06 -6.09436199e-07 5.15475335e-07 1.44826311e-06
      2.07050562e-06 3.12773523e-06 4.80348217e-06 6.35562128e-06
      7.23091307e-06 7.35664389e-06 6.27848613e-06 5.06228662e-06
      7.96415407e-06 1.39118119e-05 1.50757896e-05 8.44666374e-06
      -2.80177233e-06 -1.48464997e-05 -2.56855474e-05 -3.28568858e-05
      -3.37300953e-05 -2.93615485e-05 -2.27241908e-05 -1.37957868e-05
      -2.51918527e-06 5.92789547e-06 7.32865374e-06 2.63509764e-06
      -4.21666937e-06 -8.12865710e-06 -7.72058956e-06 -6.48567766e-06
      -4.71531939e-06 -2.51166227e-07 7.31884847e-06 1.80523948e-05
      2.77645413e-05 3.08065537e-05 2.82968813e-05 2.31119011e-05
      1.64461308e-05 1.02666681e-05 6.60684327e-06 5.27270640e-06
      4.27261011e-06 2.54341398e-06 2.17066690e-06 4.54300653e-06
      6.66121832e-06 7.10715767e-06 -1.11601832e-06 -7.03762737e-07
      1.24006538e-08 3.63508406e-07 5.20311062e-07 7.80968548e-07
      1.75542687e-06 3.72930322e-06 5.60412991e-06 6.03868011e-06
      4.50417792e-06 3.09922052e-06 6.62077628e-06 1.34741786e-05
      1.50490860e-05 8.45861814e-06 -2.95743598e-06 -1.51009663e-05
      -2.54846764e-05 -3.22633568e-05 -3.35541699e-05 -2.97377192e-05
      -2.29871548e-05 -1.40160182e-05 -3.95954703e-06 2.48584433e-06
      2.02961792e-06 -3.87443015e-06 -1.07720771e-05 -1.36911649e-05
      -1.23961308e-05 -1.08940176e-05 -8.84989640e-06 -3.75687432e-06
      4.58632803e-06 1.60221989e-05 2.64824212e-05 3.02572043e-05
      2.80217846e-05 2.32927305e-05 1.73623575e-05 1.16432684e-05
      7.62752279e-06 5.59583987e-06 4.30401224e-06 2.54875044e-06
      2.19673279e-06 4.57127271e-06 6.66121832e-06 7.10715767e-06
      -1.10907445e-06 -6.96855636e-07 -1.29089088e-07 4.90867365e-08
      4.90867365e-08 7.51524851e-08 4.40072995e-07 1.83726638e-06
      3.94005838e-06 4.51002416e-06 2.45307592e-06 1.39200790e-06
      5.95048414e-06 1.33595286e-05 1.51227232e-05 8.68561165e-06
      -2.56357339e-06 -1.43347806e-05 -2.40030477e-05 -2.97807837e-05
      -3.06688744e-05 -2.73227597e-05 -2.10967482e-05 -1.24463695e-05
      -3.33145704e-06 7.77375817e-07 -1.80508357e-06 -8.42091231e-06
      -1.60442905e-05 -1.94141485e-05 -1.70827898e-05 -1.40334751e-05
      -1.20270497e-05 -7.71842406e-06 1.14725856e-06 1.33565936e-05
      2.43083796e-05 2.91110682e-05 2.78628922e-05 2.39059245e-05
      1.90394203e-05 1.39262738e-05 9.29451198e-06 6.16456600e-06
      4.38690495e-06 2.61278637e-06 2.24100791e-06 4.57127271e-06
      6.66121832e-06 7.10715767e-06 -1.04272056e-06 -6.42785267e-07
      -1.22145309e-07 2.60657487e-08 2.60657487e-08 4.90867365e-08
      1.01218234e-07 9.63351567e-07 3.11410190e-06 4.03974309e-06
      2.14613601e-06 1.21635287e-06 5.92021161e-06 1.33525564e-05
      1.52712455e-05 9.30970236e-06 -1.17121124e-06 -1.21266876e-05
      -2.10301932e-05 -2.56182138e-05 -2.52496266e-05 -2.20249767e-05
      -1.63537225e-05 -7.77853984e-06 2.61629822e-07 1.89664786e-06
      -2.96822100e-06 -1.06102798e-05 -1.90198061e-05 -2.39447600e-05
      -2.21931296e-05 -1.73576009e-05 -1.39748126e-05 -1.04586752e-05
      -2.85994361e-06 9.22959680e-06 2.12275445e-05 2.77652962e-05
      2.76835690e-05 2.43152917e-05 2.01224211e-05 1.53242199e-05
      1.03362490e-05 6.57625696e-06 4.64243249e-06 2.86517820e-06
      2.28965087e-06 4.56406406e-06 6.66121832e-06 7.10715767e-06
      -9.85249358e-07 -6.42785267e-07 -1.22145309e-07 7.29990468e-09
      2.60657487e-08 4.17868335e-08 4.17868335e-08 7.76964157e-07
      2.97984388e-06 4.49189929e-06 3.25044948e-06 2.30170940e-06
      6.49953699e-06 1.35181435e-05 1.54833306e-05 1.03306620e-05
      1.38022756e-06 -8.13371389e-06 -1.64038738e-05 -2.02724332e-05
      -1.87625647e-05 -1.54135814e-05 -1.01859769e-05 -1.67812516e-06
      5.74951491e-06 6.13336033e-06 -6.57182511e-07 -1.02169515e-05
      -1.94811746e-05 -2.57964548e-05 -2.57744559e-05 -2.01787279e-05
      -1.49227380e-05 -1.17978771e-05 -6.08459459e-06 4.87344141e-06
      1.77499605e-05 2.62726007e-05 2.74329577e-05 2.43913273e-05
      2.03247182e-05 1.55952657e-05 1.05416393e-05 6.77123717e-06
      4.88819160e-06 3.08800713e-06 2.35743823e-06 4.56406406e-06
      6.66121832e-06 7.10715767e-06 -9.85249358e-07 -6.58506337e-07
      -1.63932143e-07 -8.47032947e-21 1.57210831e-08 4.17868335e-08
      1.57210831e-08 7.71627811e-07 3.05348908e-06 4.81843517e-06
      4.20257629e-06 3.81560767e-06 7.84037820e-06 1.41782602e-05
      1.59744250e-05 1.17444852e-05 4.68053986e-06 -2.97123142e-06
      -1.04435430e-05 -1.43740399e-05 -1.27728072e-05 -9.26869325e-06
      -4.46173544e-06 3.41457235e-06 1.10858909e-05 1.23789387e-05
      4.85695318e-06 -7.30204738e-06 -1.78745468e-05 -2.46787640e-05
      -2.59993030e-05 -2.09194113e-05 -1.52146413e-05 -1.21463991e-05
      -7.41581061e-06 2.09653217e-06 1.46460034e-05 2.46930358e-05
      2.71943572e-05 2.43982704e-05 2.03331892e-05 1.55952657e-05
      1.05155732e-05 6.76651689e-06 4.97328483e-06 3.17310037e-06
      2.37878362e-06 4.54834299e-06 6.66121832e-06 7.10715767e-06
      -1.07268534e-06 -7.44397425e-07 -1.92351990e-07 -2.11199378e-08
      -2.11199378e-08 -2.11199378e-08 -2.11199378e-08 7.55906740e-07
      3.09503866e-06 5.40303017e-06 5.60763647e-06 5.64015909e-06
      9.55614360e-06 1.56253282e-05 1.74107354e-05 1.36587751e-05
      7.52114101e-06 1.09354448e-06 -5.57305384e-06 -9.08304628e-06
      -7.15616079e-06 -3.48132585e-06 7.27696829e-07 7.87814679e-06
      1.59152805e-05 1.83069624e-05 1.04789533e-05 -3.72833938e-06
      -1.57006380e-05 -2.30081914e-05 -2.52716054e-05 -2.08577021e-05
      -1.52162265e-05 -1.21249859e-05 -7.74605815e-06 4.01265510e-07
      1.20950235e-05 2.30811420e-05 2.69337270e-05 2.44139555e-05
      2.03507843e-05 1.55691996e-05 1.05102372e-05 6.70781719e-06
      4.80472318e-06 2.99920225e-06 2.32542038e-06 4.54834299e-06
      6.66121832e-06 7.10715767e-06 -1.12521082e-06 -7.51341190e-07
      -1.99295769e-07 -2.11199378e-08 -2.11199378e-08 -2.11199378e-08
      -2.11199378e-08 7.34786795e-07 3.17157037e-06 6.26660403e-06
      7.64954257e-06 7.85776228e-06 1.17117734e-05 1.82267795e-05
      2.02777919e-05 1.63034219e-05 9.94193306e-06 3.66435961e-06
      -2.32484786e-06 -4.76672130e-06 -1.95296775e-06 1.66002121e-06
      5.19982086e-06 1.18128919e-05 1.99729238e-05 2.23704556e-05
      1.41112241e-05 -1.10891870e-06 -1.41757400e-05 -2.25163294e-05
      -2.56162675e-05 -2.13001858e-05 -1.53553483e-05 -1.21213779e-05
      -7.95308824e-06 -5.68563451e-07 1.05944573e-05 2.22567396e-05
      2.67390624e-05 2.43963623e-05 2.03247182e-05 1.55638627e-05
      1.05363033e-05 6.64512891e-06 4.56593625e-06 2.73968590e-06
      2.25959639e-06 4.54834299e-06 6.66121832e-06 7.10715767e-06
      -1.12521082e-06 -7.51341190e-07 -1.99295769e-07 -2.11199378e-08
      -2.11199378e-08 -8.47032947e-21 -2.11199378e-08 7.34786795e-07
      3.23648487e-06 6.83190319e-06 9.15700730e-06 1.02662489e-05
      1.49296702e-05 2.20726724e-05 2.43689974e-05 2.01586081e-05
      1.35336077e-05 7.34730611e-06 1.85456668e-06 -3.33288540e-07
      2.12611872e-06 5.04310219e-06 7.98895780e-06 1.43726356e-05
      2.25357398e-05 2.49001059e-05 1.62207107e-05 3.72378651e-07
      -1.35024884e-05 -2.25064960e-05 -2.60862798e-05 -2.19429621e-05
      -1.58930670e-05 -1.23684804e-05 -7.93972958e-06 -2.84956769e-07
      1.10211904e-05 2.25788717e-05 2.68006388e-05 2.43777395e-05
      2.03121326e-05 1.55952657e-05 1.05363033e-05 6.59176567e-06
      4.37757990e-06 2.60032562e-06 2.23033521e-06 4.59733883e-06
      6.66121832e-06 7.10715767e-06 -1.14967258e-06 -7.44397425e-07
      -1.92351990e-07 -2.11199378e-08 -2.11199378e-08 -8.47032947e-21
      -2.11199378e-08 7.34786795e-07 3.28381566e-06 6.95219023e-06
      9.83567861e-06 1.21243684e-05 1.78459795e-05 2.54558272e-05
      2.78013067e-05 2.35659118e-05 1.69092018e-05 1.06560765e-05
      4.71742669e-06 1.54685927e-06 2.79687470e-06 5.41566715e-06
      8.38715823e-06 1.46202710e-05 2.30590904e-05 2.59959943e-05
      1.77757756e-05 1.82417159e-06 -1.25874740e-05 -2.20143411e-05
      -2.58210293e-05 -2.21856571e-05 -1.64370322e-05 -1.25893730e-05
      -7.74050204e-06 5.75716570e-07 1.21138219e-05 2.27666624e-05
      2.64504743e-05 2.40342506e-05 1.98403068e-05 1.51847262e-05
      1.04185174e-05 6.57795727e-06 4.36849223e-06 2.56634394e-06
      2.21432629e-06 4.56790031e-06 6.66121832e-06 7.10715767e-06
      -1.12884118e-06 -7.30509896e-07 -1.92351990e-07 -2.11199378e-08
      -2.11199378e-08 -2.11199378e-08 -2.11199378e-08 6.92546905e-07
      3.13583610e-06 6.74295461e-06 9.76235060e-06 1.26257582e-05
      1.88715258e-05 2.66492352e-05 2.89907894e-05 2.46997552e-05
      1.76413923e-05 1.00954730e-05 2.47203207e-06 -2.11583915e-06
      -1.23856807e-06 2.08292727e-06 6.02654063e-06 1.25999813e-05
      2.11274182e-05 2.50423545e-05 1.86872712e-05 4.06335403e-06
      -1.03988077e-05 -2.02798365e-05 -2.42653841e-05 -2.13717194e-05
      -1.63591030e-05 -1.25824945e-05 -7.29436897e-06 1.40340001e-06
      1.23988266e-05 2.16613189e-05 2.52873633e-05 2.34094987e-05
      1.87333408e-05 1.42148365e-05 1.01453206e-05 6.57795727e-06
      4.35080756e-06 2.55062287e-06 2.21432629e-06 4.56790031e-06
      6.66121832e-06 7.10715767e-06 -1.09049188e-06 -7.23566075e-07
      -1.92351990e-07 -2.11199378e-08 -2.11199378e-08 -2.11199378e-08
      -2.11199378e-08 5.44707348e-07 2.50223798e-06 5.55528732e-06
      8.60075397e-06 1.20292052e-05 1.87236874e-05 2.66313473e-05
      2.89536038e-05 2.46650161e-05 1.66890550e-05 7.01122781e-06
      -2.28252361e-06 -7.63451862e-06 -6.78730612e-06 -2.64067307e-06
      2.66447569e-06 9.74343584e-06 1.73116714e-05 2.13076619e-05
      1.72255423e-05 5.56009672e-06 -7.35592903e-06 -1.73700573e-05
      -2.21289301e-05 -2.02668343e-05 -1.61077078e-05 -1.20857258e-05
      -5.69064332e-06 3.60080026e-06 1.34839847e-05 2.11458009e-05
      2.48671422e-05 2.33608062e-05 1.80353727e-05 1.33680178e-05
      9.91602064e-06 6.57795727e-06 4.35277116e-06 2.56634394e-06
      2.21966275e-06 4.59396597e-06 6.66121832e-06 7.10715767e-06
      -1.09049188e-06 -7.23566075e-07 -1.92351990e-07 -2.11199378e-08
      -2.11199378e-08 -2.11199378e-08 -1.26719627e-07 3.78288547e-08
      1.25052213e-06 3.61028947e-06 6.68912526e-06 1.07197693e-05
      1.80267289e-05 2.61956829e-05 2.87259354e-05 2.43961313e-05
      1.54411209e-05 4.14787246e-06 -5.90872742e-06 -1.12651496e-05
      -1.08774238e-05 -6.83184135e-06 -5.81483107e-07 6.53949019e-06
      1.22040892e-05 1.53592555e-05 1.37553252e-05 5.89984711e-06
      -4.34998128e-06 -1.34448801e-05 -1.89274178e-05 -1.83115917e-05
      -1.48881772e-05 -1.02470531e-05 -2.24587347e-06 7.56053396e-06
      1.61553071e-05 2.22658837e-05 2.56620733e-05 2.41569487e-05
      1.80345505e-05 1.28212632e-05 9.42839324e-06 6.31325156e-06
      4.30979253e-06 2.55229861e-06 2.22162635e-06 4.56907219e-06
      6.66121832e-06 7.10715767e-06 -1.09049188e-06 -7.30509896e-07
      -1.92351990e-07 -2.11199378e-08 -1.41761598e-08 -4.22398756e-08
      -5.27998452e-07 -1.10264773e-06 -2.17347221e-07 2.24935707e-06
      5.29001454e-06 9.09353366e-06 1.61875505e-05 2.46532491e-05
      2.78925181e-05 2.37445311e-05 1.44028336e-05 2.95163477e-06
      -7.07154004e-06 -1.29486252e-05 -1.35046657e-05 -1.00665702e-05
      -4.25331791e-06 1.78549499e-06 5.89751016e-06 9.71992176e-06
      1.14584391e-05 6.82085874e-06 -1.70105477e-06 -9.19625290e-06
      -1.33979756e-05 -1.34498723e-05 -1.11582094e-05 -6.17716614e-06
      2.16746093e-06 1.13334954e-05 1.83525062e-05 2.33629198e-05
      2.64381451e-05 2.47636308e-05 1.79306644e-05 1.16984329e-05
      8.03897001e-06 5.54523422e-06 4.06555318e-06 2.48887864e-06
      2.21628989e-06 4.54300653e-06 6.66121832e-06 7.10715767e-06
      -1.05177162e-06 -7.16251293e-07 -2.05964625e-07 -3.47325653e-08
      -3.47325653e-08 -5.60450140e-08 -9.64765832e-07 -2.23618053e-06
      -1.36964115e-06 1.44574869e-06 4.01950001e-06 6.74523744e-06
      1.30353865e-05 2.15246564e-05 2.53507496e-05 2.17286488e-05
      1.32783898e-05 3.55477005e-06 -6.02837144e-06 -1.31625065e-05
      -1.48026120e-05 -1.19957876e-05 -7.06860692e-06 -2.60734350e-06
      6.96358029e-07 5.94052426e-06 1.09666689e-05 9.03668115e-06
      1.27625015e-06 -4.91753462e-06 -6.50585071e-06 -6.02276714e-06
      -4.67210293e-06 -1.09405045e-08 7.23063749e-06 1.43180541e-05
      1.98162852e-05 2.40812642e-05 2.60977558e-05 2.35348234e-05
      1.67745711e-05 1.02762961e-05 6.37728908e-06 4.54786141e-06
      3.57658178e-06 2.53048893e-06 2.71942213e-06 4.76846162e-06
      5.99465784e-06 5.94022003e-06 -7.17624800e-07 -4.68756554e-07
      -1.43278427e-07 -3.47325653e-08 5.54386181e-09 3.39116313e-09
      -1.01036585e-06 -2.53482926e-06 -1.87448597e-06 2.60834867e-07
      1.47644539e-06 3.19142828e-06 9.07142748e-06 1.72852979e-05
      2.08228485e-05 1.77562142e-05 1.16096089e-05 4.54229166e-06
      -4.32054003e-06 -1.23139034e-05 -1.48719073e-05 -1.24799535e-05
      -7.99821464e-06 -3.99246755e-06 -1.15305556e-06 3.92584479e-06
      1.02684107e-05 1.14178783e-05 5.32375316e-06 -4.91048127e-08
      3.19262739e-07 2.06124082e-06 3.50830510e-06 7.40818132e-06
      1.27164667e-05 1.72378186e-05 2.13821149e-05 2.49232180e-05
      2.44485527e-05 2.00462491e-05 1.45846370e-05 9.45778629e-06
      5.80867754e-06 4.01131638e-06 2.98919144e-06 2.93303196e-06
      4.16011926e-06 5.02463354e-06 3.78595973e-06 2.58316391e-06
      6.02482942e-07 3.89511513e-07 7.11690120e-08 -8.17635168e-08
      -5.38923146e-08 -4.36397904e-08 -7.35806680e-07 -2.06268987e-06
      -2.21029904e-06 -1.50864116e-06 -1.18925504e-06 2.57249951e-07
      6.11852465e-06 1.40395759e-05 1.68939914e-05 1.38433734e-05
      9.10532253e-06 4.03689910e-06 -3.28621718e-06 -1.09188877e-05
      -1.42346344e-05 -1.28647062e-05 -8.65236962e-06 -4.16286366e-06
      -1.38383587e-06 2.13038379e-06 7.81664585e-06 1.15798694e-05
      9.63125058e-06 6.89297121e-06 8.26550968e-06 1.03068069e-05
      1.18783037e-05 1.45594058e-05 1.74833240e-05 1.97857553e-05
      2.28076806e-05 2.50201374e-05 2.22318704e-05 1.66832342e-05
      1.26942150e-05 8.89281091e-06 5.57348403e-06 3.67483631e-06
      2.48731817e-06 3.26729491e-06 4.90683669e-06 3.96450059e-06
      4.81454094e-07 -1.49924313e-06 2.54402653e-06 1.89148852e-06
      7.40723920e-07 1.44899886e-07 -1.39991607e-09 -3.49250762e-08
      -3.51724140e-07 -1.34092522e-06 -2.90455978e-06 -3.73746298e-06
      -3.12583893e-06 -1.32719435e-06 4.38631332e-06 1.22697302e-05
      1.50115075e-05 1.16803067e-05 6.68575285e-06 2.03987543e-06
      -3.65640858e-06 -9.73524493e-06 -1.31637262e-05 -1.29175323e-05
      -9.24180677e-06 -4.41817701e-06 -1.61876392e-06 3.22309972e-07
      4.09845188e-06 8.90447427e-06 1.21661933e-05 1.39749773e-05
      1.57346276e-05 1.70136682e-05 1.82624917e-05 1.97681129e-05
      2.07172070e-05 2.15622258e-05 2.29189645e-05 2.30998157e-05
      1.95836274e-05 1.47211422e-05 1.12409334e-05 7.92536684e-06
      4.93994958e-06 3.34089214e-06 2.49069058e-06 3.61182856e-06
      4.52615222e-06 1.80065410e-06 -2.43619161e-06 -4.25521830e-06
      3.37060942e-06 3.10114956e-06 2.02075989e-06 7.21483730e-07
      7.35022425e-08 5.54386181e-09 -9.61321902e-08 -1.15387218e-06
      -4.18692525e-06 -6.03769922e-06 -4.82925498e-06 -3.01349837e-06
      1.93252504e-06 9.87993371e-06 1.35225819e-05 1.08410777e-05
      5.52075380e-06 2.39687324e-07 -5.33383491e-06 -9.63924685e-06
      -1.08393533e-05 -1.01377609e-05 -7.69244525e-06 -3.75681293e-06
      -1.01098738e-06 -1.23502218e-07 1.25985764e-06 5.59441560e-06
      1.14129007e-05 1.61411390e-05 1.87514615e-05 1.98111757e-05
      2.09196260e-05 2.24311934e-05 2.31568392e-05 2.23994703e-05
      2.08655783e-05 1.90319333e-05 1.62482575e-05 1.26868517e-05
      9.23735024e-06 6.23062851e-06 3.89846628e-06 2.79010101e-06
      3.13270448e-06 4.69182169e-06 4.44310854e-06 5.70432292e-07
      -3.34346646e-06 -4.56734688e-06 9.84481630e-07 2.17720299e-06
      2.59706803e-06 1.08289169e-06 6.12862721e-08 -5.38923146e-08
      -5.38923146e-08 -1.19029551e-06 -4.58079967e-06 -6.94299752e-06
      -6.15675526e-06 -5.24033067e-06 -1.79041365e-06 5.63947196e-06
      1.06360594e-05 9.43973737e-06 4.26874931e-06 -1.87544572e-06
      -7.90205650e-06 -1.09383782e-05 -9.67983669e-06 -7.90912509e-06
      -6.80462972e-06 -4.60109732e-06 -1.75495040e-06 -6.82369318e-07
      -3.11436764e-07 2.66147458e-06 7.95715823e-06 1.30202907e-05
      1.63139757e-05 1.83392476e-05 2.00392733e-05 2.18880050e-05
      2.23739171e-05 2.01051371e-05 1.65206602e-05 1.43314755e-05
      1.26610348e-05 9.95550636e-06 6.78857032e-06 4.29626834e-06
      2.61964828e-06 2.09289078e-06 3.70417160e-06 5.24528923e-06
      3.80110328e-06 1.31429658e-07 -2.24783844e-06 -2.67705150e-06
      -4.46872627e-06 -1.96480005e-06 9.52881408e-07 7.49073877e-07
      8.46186694e-08 -5.35212905e-08 -3.33359083e-08 -6.74962394e-07
      -2.87878333e-06 -5.25057567e-06 -6.58345334e-06 -7.16322575e-06
      -5.43821443e-06 -6.32775325e-08 5.37175356e-06 5.68098312e-06
      5.53801442e-07 -5.87759632e-06 -1.09431985e-05 -1.29114114e-05
      -1.19580054e-05 -1.08948489e-05 -1.05755498e-05 -9.23571497e-06
      -6.33021318e-06 -3.90960167e-06 -2.50485982e-06 -4.51058980e-07
      3.25499423e-06 7.12317478e-06 1.02647991e-05 1.36464250e-05
      1.66897298e-05 1.77595666e-05 1.63089171e-05 1.32444011e-05
      1.09469820e-05 1.06279831e-05 9.67300639e-06 7.21417427e-06
      4.70282066e-06 2.79180131e-06 1.47945468e-06 1.65293420e-06
      3.44234309e-06 3.70535963e-06 1.26438545e-06 -8.37933840e-07
      -4.25495472e-07 3.84314347e-07 -7.65655113e-06 -5.66444987e-06
      -2.10948838e-06 -1.32193094e-07 2.13596365e-07 8.95198440e-08
      -3.67259467e-09 -1.31476042e-07 -8.53998131e-07 -3.08955373e-06
      -6.21218260e-06 -7.60369267e-06 -7.25334439e-06 -4.95202767e-06
      -1.26080977e-06 -7.80690641e-07 -5.05269509e-06 -1.01286341e-05
      -1.33243229e-05 -1.45534314e-05 -1.47933524e-05 -1.48269246e-05
      -1.47118972e-05 -1.39368522e-05 -1.16258707e-05 -8.78795890e-06
      -6.77973640e-06 -5.26318399e-06 -2.67228552e-06 2.35235120e-07
      2.95066138e-06 7.02668194e-06 1.10156825e-05 1.19373835e-05
      9.44906151e-06 6.89128728e-06 6.64384470e-06 7.76896468e-06
      7.20131038e-06 4.97260771e-06 3.05831486e-06 1.70031319e-06
      1.26461020e-06 2.04086928e-06 2.48384868e-06 6.72217311e-07
      -1.68933082e-06 -1.08647430e-06 1.76504591e-06 3.27563998e-06
      -6.02120917e-06 -5.99194891e-06 -4.31887611e-06 -1.09449388e-06
      3.11760232e-07 1.99391238e-07 7.46120108e-08 2.94276141e-08
      -3.41760682e-07 -2.20515039e-06 -5.23423205e-06 -6.69685915e-06
      -7.14730822e-06 -7.60637522e-06 -7.26865301e-06 -7.85218799e-06
      -1.04021319e-05 -1.30318003e-05 -1.46125967e-05 -1.53513738e-05
      -1.57688901e-05 -1.59322281e-05 -1.59105057e-05 -1.56683345e-05
      -1.45997801e-05 -1.31608167e-05 -1.20934865e-05 -1.10904639e-05
      -8.83969005e-06 -6.00815474e-06 -3.30815487e-06 1.90324911e-07
      3.80571714e-06 5.60093258e-06 5.03881893e-06 4.05696164e-06
      4.26390261e-06 4.98421741e-06 4.66375650e-06 3.28651981e-06
      1.73279534e-06 1.19568813e-06 2.04535741e-06 2.87719035e-06
      1.12990733e-06 -2.28729095e-06 -3.28447004e-06 -5.42975620e-08
      3.84943905e-06 5.26194526e-06 -3.82494636e-06 -4.23815800e-06
      -3.81158611e-06 -1.71515751e-06 -4.14664747e-08 3.60134976e-07
      1.63071917e-07 -1.76830426e-08 -2.25819591e-07 -1.30537023e-06
      -3.42591738e-06 -5.32530930e-06 -6.82377413e-06 -8.55314283e-06
      -1.03751127e-05 -1.18891730e-05 -1.32543728e-05 -1.44427486e-05
      -1.52738376e-05 -1.57230243e-05 -1.58837338e-05 -1.58863331e-05
      -1.59035626e-05 -1.58826952e-05 -1.56730694e-05 -1.54304889e-05
      -1.52650682e-05 -1.46411157e-05 -1.28263191e-05 -1.00733469e-05
      -7.31694490e-06 -4.82137557e-06 -2.64630421e-06 -6.26776455e-07
      1.08976838e-06 2.07697713e-06 2.31497256e-06 2.39836208e-06
      2.29605212e-06 1.62792981e-06 1.09591883e-06 1.79020469e-06
      3.22368010e-06 2.97795759e-06 -1.18268829e-07 -3.86379452e-06
      -3.71068541e-06 1.08465701e-06 5.15595002e-06 6.18302056e-06
      -2.21453865e-06 -1.89094999e-06 -1.71486408e-06 -1.34544587e-06
      -4.16492583e-07 3.00418520e-07 3.19346725e-07 1.36921770e-07
      -3.65768464e-08 -3.58317664e-07 -1.64470646e-06 -3.98469001e-06
      -6.35760307e-06 -8.38902633e-06 -1.05304016e-05 -1.20520172e-05
      -1.29703440e-05 -1.39255153e-05 -1.48451518e-05 -1.53777091e-05
      -1.55573798e-05 -1.55077414e-05 -1.54866229e-05 -1.55675261e-05
      -1.54502286e-05 -1.51295817e-05 -1.48397548e-05 -1.44058595e-05
      -1.31773841e-05 -1.10622277e-05 -8.80763400e-06 -7.31075625e-06
      -6.20398214e-06 -4.38271263e-06 -1.72884904e-06 1.83359219e-07
      6.17489093e-07 6.07864933e-07 5.97667167e-07 7.58663191e-07
      1.49954087e-06 2.97016322e-06 3.54589497e-06 1.84398732e-06
      -1.22491883e-06 -3.68372275e-06 -2.71900717e-06 2.02358024e-06
      5.81990980e-06 6.66567530e-06 6.34355956e-07 3.14576312e-07
      2.18048495e-08 -1.05444826e-07 -3.21412813e-07 -1.48136763e-07
      3.09177921e-07 3.05256805e-07 5.01981177e-08 -1.03799970e-07
      -6.08435016e-07 -2.22096469e-06 -4.62874368e-06 -7.11718758e-06
      -8.87384158e-06 -9.74756404e-06 -1.03093653e-05 -1.12701828e-05
      -1.27516250e-05 -1.38527766e-05 -1.42398794e-05 -1.42297340e-05
      -1.42478257e-05 -1.42267063e-05 -1.39821996e-05 -1.30690969e-05
      -1.19776114e-05 -1.13560964e-05 -1.08140939e-05 -9.68886252e-06
      -8.31336820e-06 -7.34867854e-06 -6.07636503e-06 -3.78376376e-06
      -1.51171866e-06 -2.71183097e-07 4.98156716e-08 -4.88630914e-09
      1.50240808e-07 1.05679192e-06 2.53897679e-06 3.24351913e-06
      2.11053293e-06 -9.36546556e-08 -1.80707491e-06 -2.02839738e-06
      -2.02649932e-08 3.72906993e-06 6.27094005e-06 6.86058911e-06
      3.25303245e-06 2.53960707e-06 1.41287546e-06 8.38641427e-07
      2.72975829e-08 -4.32398082e-07 -8.97178012e-08 2.71455690e-07
      2.26312295e-07 1.39951375e-08 -1.85145893e-07 -8.28273528e-07
      -2.48057813e-06 -4.70063196e-06 -5.81464428e-06 -6.10908592e-06
      -6.67204768e-06 -8.16338616e-06 -1.00869229e-05 -1.15314378e-05
      -1.19538363e-05 -1.19538363e-05 -1.20143086e-05 -1.19639826e-05
      -1.16670908e-05 -1.06293255e-05 -9.30057467e-06 -8.68152802e-06
      -8.51880577e-06 -7.73667762e-06 -6.38958772e-06 -5.36759399e-06
      -3.81163500e-06 -1.66874622e-06 -3.81120685e-07 -6.17259417e-08
      1.08505971e-09 8.56692139e-08 3.89158743e-07 1.28199190e-06
      2.06256072e-06 1.71269880e-06 -3.62092436e-08 -1.61646994e-06
      -1.48675394e-06 3.56280765e-07 3.05853291e-06 5.31561045e-06
      6.04038087e-06 5.88492003e-06 5.06854349e-06 4.71985913e-06
      3.20447975e-06 1.43644922e-06 6.06846015e-07 -9.05502304e-08
      -6.64717959e-07 -3.47667964e-07 9.28690937e-08 1.63164088e-07
      8.43123118e-08 -1.10484677e-07 -8.86566681e-07 -1.88561592e-06
      -2.38810389e-06 -2.50050289e-06 -3.41511304e-06 -5.61848628e-06
      -7.62309219e-06 -8.61009721e-06 -8.78989067e-06 -8.82129643e-06
      -8.82129643e-06 -8.78194442e-06 -8.56444694e-06 -8.07580091e-06
      -7.45389934e-06 -7.19705940e-06 -7.00862620e-06 -5.75320064e-06
      -3.79197922e-06 -2.41547696e-06 -1.52697987e-06 -5.42560315e-07
      5.14877208e-08 2.72853327e-07 4.47074370e-07 4.40616219e-07
      4.65523499e-07 5.52827316e-07 1.83865282e-07 -7.73952479e-07
      -1.88342824e-06 -1.83241286e-06 7.18180075e-08 2.81585790e-06
      5.12540782e-06 5.91693743e-06 4.62512799e-06 3.58654574e-06
      6.99339444e-06 6.85983514e-06 5.53742211e-06 3.19145283e-06
      1.43402190e-06 4.74568878e-07 -5.95787412e-07 -1.61958553e-06
      -1.15039404e-06 2.18774360e-07 6.86903888e-07 3.61147329e-07
      -3.31267680e-09 -3.46746418e-07 -4.47714172e-07 -5.00239594e-07
      -1.24118981e-06 -2.95820678e-06 -4.25721555e-06 -4.65341100e-06
      -4.67453083e-06 -4.67673044e-06 -4.71608200e-06 -4.67453083e-06
      -4.64122422e-06 -4.48598712e-06 -4.41973953e-06 -4.40196982e-06
      -4.24494237e-06 -3.23201994e-06 -1.51165261e-06 -4.49205345e-07
      -2.86163981e-07 -1.49692880e-07 2.31182099e-07 1.32206446e-06
      2.17461775e-06 1.54075633e-06 2.79841345e-07 -1.42239315e-07
      -4.64713708e-07 -1.89475384e-06 -2.62800086e-06 -6.41376971e-07
      2.40472696e-06 4.88568685e-06 5.94388121e-06 4.91211904e-06
      2.63484753e-06 1.48445361e-06 9.04050557e-06 8.89193234e-06
      8.06219577e-06 5.91979961e-06 2.86961586e-06 1.23115467e-06
      -4.22472723e-08 -2.29881903e-06 -2.47682419e-06 -3.46937867e-07
      8.45594172e-07 8.31490183e-07 3.61519483e-07 8.62988543e-08
      2.08366693e-08 -8.32274765e-08 -2.75565782e-07 -8.16403087e-07
      -1.16186357e-06 -1.21773076e-06 -1.18646517e-06 -1.22801634e-06
      -1.24913629e-06 -1.19661081e-06 -1.19661081e-06 -1.19186404e-06
      -1.17074410e-06 -1.22326958e-06 -1.10518658e-06 -8.84553799e-07
      -3.60945876e-07 -6.60128521e-08 -3.98657818e-08 1.93150143e-07
      9.95488335e-07 2.64668347e-06 3.64830544e-06 2.15499290e-06
      4.25822861e-08 -3.41646569e-07 -2.87535613e-07 -1.62080687e-06
      -1.67260509e-06 1.39705628e-06 4.51110554e-06 5.98186625e-06
      5.31110527e-06 2.86367435e-06 5.03210515e-07 -4.41934645e-07
      1.04048186e-05 1.07205233e-05 1.02964696e-05 8.07820834e-06
      5.01685008e-06 2.37040013e-06 3.35214196e-07 -1.40593886e-06
      -2.68871304e-06 -2.17582146e-06 -4.91811001e-08 1.06964490e-06
      8.03475473e-07 3.22194239e-07 6.68437679e-08 9.68860459e-09
      -8.47032947e-21 -8.47032947e-21 -8.47032947e-21 -8.47032947e-21
      -8.47032947e-21 -8.47032947e-21 -8.47032947e-21 -8.47032947e-21
      -8.47032947e-21 -8.47032947e-21 -8.47032947e-21 -8.47032947e-21
      -8.47032947e-21 -8.47032947e-21 -8.47032947e-21 -8.47032947e-21
      -8.47032947e-21 6.30253055e-07 2.29993816e-06 3.61948696e-06
      3.05588856e-06 1.02610761e-06 4.53324276e-08 -2.09638500e-07
      -1.16348610e-06 -1.43977161e-06 5.64157858e-07 3.83778524e-06
      5.89108686e-06 5.49642300e-06 3.44185582e-06 8.41686187e-07
      -1.64753226e-06 -2.81145753e-06 1.09194762e-05 1.15614775e-05
      1.12908392e-05 8.88170052e-06 6.21155141e-06 3.05390267e-06
      4.70911090e-07 -5.89376612e-07 -2.50629068e-06 -3.32795457e-06
      -7.27559041e-07 1.27418048e-06 1.03971229e-06 3.66750584e-07
      7.41585708e-08 8.37469472e-09 -8.47032947e-21 -8.47032947e-21
      -8.47032947e-21 -8.47032947e-21 -8.47032947e-21 -8.47032947e-21
      -8.47032947e-21 -8.47032947e-21 -8.47032947e-21 -8.47032947e-21
      -8.47032947e-21 -8.47032947e-21 -8.47032947e-21 -8.47032947e-21
      -8.47032947e-21 -8.47032947e-21 -2.11199378e-08 9.36836273e-07
      3.01948717e-06 3.95577899e-06 2.23778511e-06 7.25937923e-08
      1.03297467e-07 -1.02496330e-07 -1.94263157e-06 -1.41118903e-06
      1.88867659e-06 5.02504327e-06 6.36280447e-06 4.90996945e-06
      2.22885342e-06 -7.57387397e-08 -2.60929050e-06 -4.12493864e-06</_>
    <_>
      2.72775196e-06 2.44356693e-06 -1.89175196e-07 -4.55262762e-06
      -5.73746047e-06 -1.37291079e-06 3.28814190e-06 2.83398867e-06
      2.87209929e-07 -8.49364255e-07 -1.15084822e-06 -1.13027681e-06
      -1.10600706e-06 -1.44589990e-06 -2.38535699e-06 -3.13530040e-06
      -3.33620824e-06 -3.31798105e-06 -3.31798105e-06 -3.09673828e-06
      -2.60381989e-06 -2.25805616e-06 -2.29943475e-06 -2.24664063e-06
      -2.19732055e-06 -2.20338688e-06 -2.19937169e-06 -2.16879607e-06
      -2.16249009e-06 -2.19189360e-06 -1.97187978e-06 -1.33595961e-06
      -7.78272124e-07 -4.74854119e-07 -7.94960044e-08 2.54902972e-07
      2.24456940e-07 1.74443322e-08 -2.85263752e-07 -1.09134749e-06
      -2.90719663e-06 -5.35514118e-06 -7.42921065e-06 -7.90907325e-06
      -5.76019102e-06 -1.49084519e-06 2.30989599e-06 3.44941873e-06
      3.29711406e-06 3.24603957e-06 3.11996359e-06 2.85259102e-06
      -1.83420624e-07 -4.33042760e-06 -3.71531337e-06 5.71291537e-07
      3.19998367e-06 2.20749325e-06 2.68951283e-07 -5.39997984e-07
      -7.93831362e-07 -7.41256997e-07 -7.58361239e-07 -1.54097222e-06
      -3.63420850e-06 -5.37422284e-06 -5.82282655e-06 -5.84481904e-06
      -5.74678188e-06 -5.10610744e-06 -3.90457353e-06 -3.21903099e-06
      -3.14321233e-06 -3.15859688e-06 -3.10927680e-06 -3.11534336e-06
      -3.08075232e-06 -3.08075232e-06 -3.08681865e-06 -3.12835937e-06
      -2.62526942e-06 -1.29808859e-06 -6.41164846e-08 6.90446313e-07
      1.62957190e-06 2.36563483e-06 2.47724347e-06 2.34308163e-06
      1.93718142e-06 7.54751738e-07 -1.54859322e-06 -4.14714850e-06
      -6.29192755e-06 -7.36695620e-06 -5.90329637e-06 -1.56654858e-06
      2.79785945e-06 4.30724458e-06 4.22846779e-06 4.17739329e-06
      3.14032968e-06 2.44378725e-06 -4.50272438e-07 -2.65967788e-06
      8.55936619e-08 3.19208448e-06 2.74191984e-06 1.16759827e-06
      2.46997075e-07 -2.72946892e-08 -1.99434300e-08 -7.64332171e-08
      -3.63563061e-07 -2.03619834e-06 -5.50967161e-06 -8.21137019e-06
      -9.13186159e-06 -9.48735760e-06 -9.60440775e-06 -8.56436964e-06
      -6.68240182e-06 -5.63662388e-06 -5.45719377e-06 -5.47348191e-06
      -5.48774779e-06 -5.49782953e-06 -5.46725369e-06 -5.34562378e-06
      -4.91574519e-06 -4.49898334e-06 -3.66448012e-06 -1.61742287e-06
      3.62730162e-07 1.50728340e-06 3.06917809e-06 4.83268468e-06
      5.81843915e-06 6.04498473e-06 5.63989670e-06 4.04821185e-06
      1.20659706e-06 -1.54757504e-06 -3.94080962e-06 -5.95037272e-06
      -5.93575260e-06 -2.27077248e-06 2.69006318e-06 5.17339140e-06
      5.59604678e-06 5.67246070e-06 1.26922703e-06 1.72805503e-08
      -1.09447603e-06 5.90060210e-07 2.96260578e-06 3.20611002e-06
      1.65513075e-06 4.83972826e-07 2.43819841e-07 4.98030033e-07
      9.17621890e-07 8.41739279e-07 -2.91094608e-07 -2.73985734e-06
      -5.70013663e-06 -7.53364247e-06 -8.66680875e-06 -9.98695214e-06
      -1.07907535e-05 -1.03771818e-05 -9.26805842e-06 -8.66715345e-06
      -8.58837666e-06 -8.61336321e-06 -8.55945018e-06 -8.58122712e-06
      -8.49703156e-06 -7.90895774e-06 -6.41677116e-06 -4.94567848e-06
      -3.84597752e-06 -2.43907584e-06 -1.11119380e-06 -3.35751537e-07
      1.24344479e-06 4.12537383e-06 6.88440286e-06 7.92238097e-06
      7.74497403e-06 6.65972266e-06 4.34795902e-06 1.39817348e-06
      -1.38038115e-06 -3.82701774e-06 -5.19295327e-06 -3.57916565e-06
      4.43067535e-07 3.98974635e-06 5.65329583e-06 6.08679329e-06
      -2.53212806e-06 -3.03633601e-06 -9.02521720e-07 3.61030357e-06
      4.21707318e-06 1.98856492e-06 6.19911646e-07 2.44402599e-07
      4.27292179e-07 1.38942175e-06 2.84441194e-06 3.12974248e-06
      1.10471547e-06 -2.19915250e-06 -4.22958510e-06 -4.85218334e-06
      -6.02439377e-06 -8.19225625e-06 -9.78937987e-06 -1.03747816e-05
      -1.08222384e-05 -1.11160343e-05 -1.11564614e-05 -1.11771151e-05
      -1.11802092e-05 -1.11447398e-05 -1.06742809e-05 -9.21439369e-06
      -6.83801591e-06 -4.55481859e-06 -3.03234629e-06 -2.12125838e-06
      -1.57796762e-06 -1.10648432e-06 6.70856480e-07 4.38218603e-06
      8.41285510e-06 1.05169129e-05 1.08411568e-05 1.01699097e-05
      8.31639591e-06 5.56555960e-06 2.51964525e-06 -6.23382391e-07
      -3.41037980e-06 -4.51247888e-06 -2.64698292e-06 1.22069230e-06
      4.41320071e-06 5.51465700e-06 -5.74416435e-06 -4.13173802e-06
      5.65179562e-07 4.58554268e-06 3.90100104e-06 1.49900848e-06
      8.71036207e-07 1.14737020e-06 2.18511104e-06 4.52586119e-06
      7.51183052e-06 8.43076668e-06 5.57504973e-06 1.28782824e-06
      -7.01889803e-07 -1.09961206e-06 -2.61133346e-06 -5.13276882e-06
      -7.25505151e-06 -9.07134472e-06 -1.12001526e-05 -1.25473589e-05
      -1.29243062e-05 -1.30298995e-05 -1.30141625e-05 -1.29492892e-05
      -1.19201604e-05 -9.37631921e-06 -6.69840392e-06 -4.21470077e-06
      -1.85640158e-06 -3.86659394e-07 2.99838604e-07 1.41662679e-06
      4.02483192e-06 7.83316136e-06 1.17697791e-05 1.46451803e-05
      1.56013011e-05 1.48459885e-05 1.29652562e-05 1.05339750e-05
      7.30520242e-06 3.15246461e-06 -9.39856420e-07 -4.00738418e-06
      -4.43390991e-06 -1.49030029e-06 2.62397771e-06 4.49775371e-06
      -4.57343822e-06 -1.86808609e-06 2.37794688e-06 3.45832109e-06
      2.33014907e-06 2.00171462e-06 3.03943125e-06 4.54764404e-06
      7.39121924e-06 1.19219312e-05 1.60498057e-05 1.71186402e-05
      1.33797575e-05 8.18076569e-06 6.10097595e-06 5.19811101e-06
      2.95017935e-06 1.61652153e-07 -2.81403572e-06 -6.80168387e-06
      -1.11232039e-05 -1.40516613e-05 -1.52343819e-05 -1.55037360e-05
      -1.55600392e-05 -1.54642021e-05 -1.40528246e-05 -1.07399719e-05
      -7.53746417e-06 -4.55487134e-06 -1.35299149e-06 8.99762256e-07
      2.49956861e-06 4.92974823e-06 8.17098771e-06 1.12777925e-05
      1.42059898e-05 1.72032851e-05 1.86939451e-05 1.82708009e-05
      1.66228238e-05 1.42581393e-05 1.05936742e-05 5.94962421e-06
      1.85379122e-06 -1.79664676e-06 -3.96410724e-06 -2.61515765e-06
      1.29038131e-06 3.52834081e-06 -2.77549219e-07 1.58953878e-06
      3.13164333e-06 1.81589439e-06 1.40932605e-06 3.47486184e-06
      6.24001586e-06 9.30315127e-06 1.42740510e-05 2.03898690e-05
      2.45203519e-05 2.51046058e-05 2.09412847e-05 1.53236051e-05
      1.31842417e-05 1.18117814e-05 8.63912283e-06 5.31886599e-06
      1.42589977e-06 -3.58454827e-06 -8.77911316e-06 -1.32658570e-05
      -1.61240696e-05 -1.71642132e-05 -1.71871106e-05 -1.67996459e-05
      -1.49166854e-05 -1.12766356e-05 -7.41058011e-06 -3.78790128e-06
      -3.00330896e-07 2.32202456e-06 4.73770660e-06 7.75280023e-06
      1.07774513e-05 1.29174714e-05 1.53642541e-05 1.87120022e-05
      2.08260444e-05 2.08671499e-05 1.95449011e-05 1.68888146e-05
      1.27015737e-05 8.26704036e-06 4.67597056e-06 1.31598688e-06
      -1.77086281e-06 -2.49313803e-06 1.09267049e-08 1.88100375e-06
      3.16423166e-06 2.97073325e-06 2.12101691e-06 1.36006634e-06
      2.86322347e-06 5.73717080e-06 8.96082020e-06 1.33199492e-05
      1.94923996e-05 2.53361959e-05 2.81602388e-05 2.78343650e-05
      2.37621880e-05 1.83957545e-05 1.61054304e-05 1.48792587e-05
      1.16055226e-05 7.32634226e-06 3.24558141e-06 1.43416386e-07
      -3.13814280e-06 -8.15151452e-06 -1.30156914e-05 -1.53980236e-05
      -1.56700335e-05 -1.42662548e-05 -1.14954655e-05 -7.79351376e-06
      -4.01670150e-06 -4.72475477e-07 2.66109055e-06 5.31573869e-06
      7.63120897e-06 9.76587035e-06 1.15574067e-05 1.32914638e-05
      1.64564262e-05 2.10959297e-05 2.41725957e-05 2.43820559e-05
      2.28123499e-05 1.98556063e-05 1.59034971e-05 1.14663517e-05
      7.43862029e-06 4.06847585e-06 5.04551565e-07 -2.36733649e-06
      -2.31390436e-06 -1.33251706e-06 4.82000905e-06 3.14510089e-06
      1.41454893e-06 2.47942944e-06 5.20666663e-06 7.87582303e-06
      1.12883636e-05 1.66106565e-05 2.28082299e-05 2.72666366e-05
      2.83385943e-05 2.64272803e-05 2.17614688e-05 1.67442158e-05
      1.46475677e-05 1.41250812e-05 1.19751303e-05 7.79163474e-06
      3.68344195e-06 1.74321258e-06 5.52176061e-07 -3.11491272e-06
      -8.37405878e-06 -1.21142630e-05 -1.28759066e-05 -1.08064050e-05
      -7.46281239e-06 -4.30103637e-06 -1.44380908e-06 1.51294182e-06
      4.58581053e-06 7.65842742e-06 9.84150302e-06 1.07280093e-05
      1.14815139e-05 1.32843443e-05 1.72042965e-05 2.25108433e-05
      2.63433722e-05 2.71826048e-05 2.58969249e-05 2.33771298e-05
      1.99007191e-05 1.50072729e-05 9.68829954e-06 5.72662748e-06
      1.93996357e-06 -2.50376070e-06 -4.60492674e-06 -4.51898131e-06
      4.63653123e-06 3.02256649e-06 2.04905928e-06 4.39998485e-06
      6.94808432e-06 9.05264005e-06 1.28216652e-05 1.87557889e-05
      2.43017166e-05 2.73260612e-05 2.68720378e-05 2.26803804e-05
      1.66753998e-05 1.19357574e-05 1.02810418e-05 1.03591401e-05
      9.61804835e-06 6.89624676e-06 3.03779348e-06 6.54291114e-07
      3.02986706e-07 -6.35758113e-07 -4.34233698e-06 -8.72479814e-06
      -1.02470622e-05 -8.34653474e-06 -5.30889884e-06 -3.09038296e-06
      -1.36813014e-06 8.70609711e-07 4.15703562e-06 8.01490933e-06
      1.07457472e-05 1.14793038e-05 1.18646094e-05 1.36309845e-05
      1.69341638e-05 2.10700073e-05 2.50316643e-05 2.73053483e-05
      2.74561717e-05 2.62705835e-05 2.36137257e-05 1.82123276e-05
      1.14141203e-05 6.56031034e-06 2.77348272e-06 -2.08103484e-06
      -5.32393960e-06 -5.98454335e-06 2.05048173e-06 1.60472416e-06
      2.57283773e-06 5.60213357e-06 7.59592558e-06 8.95039284e-06
      1.23483023e-05 1.81723226e-05 2.29412581e-05 2.49734385e-05
      2.31835675e-05 1.68946426e-05 9.98544056e-06 6.32911178e-06
      5.21441143e-06 4.63335573e-06 3.50259756e-06 1.80850407e-06
      3.94660944e-08 -6.01990678e-07 9.55626319e-07 2.54249539e-06
      5.21850836e-07 -4.30135788e-06 -6.90307752e-06 -5.45030980e-06
      -2.69935344e-06 -8.23265282e-07 4.79488222e-07 1.74091201e-06
      4.00750923e-06 8.43615362e-06 1.22555321e-05 1.32616969e-05
      1.34726079e-05 1.45308532e-05 1.59618758e-05 1.77221864e-05
      2.11600272e-05 2.47249318e-05 2.62928206e-05 2.69651737e-05
      2.63598504e-05 2.17005927e-05 1.35815681e-05 7.35910226e-06
      3.99221926e-06 1.19725257e-07 -3.86522834e-06 -5.56156783e-06
      -6.44200554e-07 3.15183257e-07 3.09285065e-06 6.19046023e-06
      7.57952284e-06 8.05886157e-06 1.03817438e-05 1.50592732e-05
      1.90587107e-05 2.05372580e-05 1.80236038e-05 1.05815589e-05
      3.53002224e-06 1.17931120e-06 7.86800172e-07 -6.88683258e-07
      -3.06424158e-06 -4.45146588e-06 -3.65753954e-06 -7.87439490e-07
      3.02783610e-06 5.79244988e-06 4.40184431e-06 -2.95450008e-07
      -3.19559945e-06 -2.15791442e-06 4.59320404e-07 2.51519327e-06
      4.20196011e-06 5.18666866e-06 6.39914970e-06 1.04156816e-05
      1.43555171e-05 1.52571674e-05 1.47688443e-05 1.44263522e-05
      1.36177878e-05 1.34261427e-05 1.66089012e-05 2.09523605e-05
      2.36219930e-05 2.57379088e-05 2.73208243e-05 2.42645965e-05
      1.55222679e-05 8.21792219e-06 5.41058807e-06 2.82099268e-06
      -1.76261563e-06 -4.44850048e-06 -9.62523927e-07 1.04990215e-06
      4.64592176e-06 6.87500960e-06 7.50519666e-06 7.46358637e-06
      8.42795907e-06 1.10797400e-05 1.39165022e-05 1.53087185e-05
      1.28054789e-05 5.34332094e-06 -1.48561935e-06 -3.10252653e-06
      -2.66135066e-06 -3.53992687e-06 -5.90887885e-06 -7.17618695e-06
      -5.18165734e-06 -6.92504500e-07 3.67894268e-06 5.92821561e-06
      4.54009341e-06 1.00085651e-06 -6.85063753e-07 3.66071589e-07
      2.59758076e-06 4.97069050e-06 6.98532494e-06 9.11707593e-06
      1.15271823e-05 1.40947832e-05 1.57208506e-05 1.54942609e-05
      1.40007069e-05 1.18062899e-05 9.42212409e-06 8.92201206e-06
      1.21775611e-05 1.73931512e-05 2.13182575e-05 2.39653182e-05
      2.63588245e-05 2.47765765e-05 1.65291840e-05 8.81685173e-06
      6.07459697e-06 3.89913021e-06 -8.01478507e-07 -3.80631013e-06
      -1.49234616e-08 2.36133928e-06 6.04785782e-06 7.43504233e-06
      7.30791680e-06 6.59371335e-06 6.51992332e-06 8.23974824e-06
      1.05330619e-05 1.14975328e-05 8.64149479e-06 1.26542136e-06
      -5.17571971e-06 -6.51679738e-06 -5.10298332e-06 -4.73242108e-06
      -6.58572571e-06 -8.12217240e-06 -5.84607051e-06 -1.07886990e-06
      2.58956766e-06 3.81311156e-06 2.49395839e-06 2.92452711e-07
      4.23537330e-08 1.32516584e-06 3.44677687e-06 6.69626934e-06
      9.65944128e-06 1.26845880e-05 1.57959694e-05 1.67247472e-05
      1.58004841e-05 1.43764819e-05 1.22000956e-05 8.72504279e-06
      5.32796139e-06 4.75058459e-06 7.78644517e-06 1.34583534e-05
      1.92688458e-05 2.26220782e-05 2.51151032e-05 2.47663211e-05
      1.79802682e-05 1.03781540e-05 6.67474069e-06 4.09495442e-06
      -1.68141781e-07 -2.86577347e-06 4.33413618e-07 2.66636994e-06
      6.07010907e-06 7.28766963e-06 6.76410446e-06 5.23717699e-06
      4.80751669e-06 7.17024614e-06 9.53036943e-06 9.37987079e-06
      5.43245187e-06 -1.96071142e-06 -7.99538520e-06 -8.80187054e-06
      -6.39755399e-06 -5.19258901e-06 -6.94932032e-06 -9.10471226e-06
      -7.18771298e-06 -2.77104959e-06 7.13906019e-08 1.06835864e-06
      2.15011454e-07 -1.28099362e-06 -8.20684363e-07 6.67281995e-07
      3.07101209e-06 7.29759495e-06 1.13286196e-05 1.42979015e-05
      1.62605029e-05 1.62577344e-05 1.47473793e-05 1.28809179e-05
      1.07359701e-05 6.92803860e-06 2.91303581e-06 1.78497885e-06
      3.71590772e-06 9.33745105e-06 1.70632684e-05 2.18805690e-05
      2.44635394e-05 2.51377442e-05 2.04769167e-05 1.31871629e-05
      7.77175410e-06 4.40245594e-06 8.18049955e-07 -1.41469434e-06
      -4.01765341e-08 1.61002049e-06 4.72207967e-06 6.27884583e-06
      5.43420174e-06 3.85899375e-06 4.06455592e-06 6.24051563e-06
      7.82892766e-06 6.87001148e-06 2.58737782e-06 -4.23066240e-06
      -9.44718613e-06 -9.79897140e-06 -6.93149195e-06 -5.11969711e-06
      -6.61313561e-06 -9.19892591e-06 -8.89394050e-06 -6.18941704e-06
      -3.57759700e-06 -1.61036098e-06 -2.02957744e-06 -3.79270932e-06
      -2.82192991e-06 -6.33905586e-07 1.40443603e-06 4.89711738e-06
      8.73254794e-06 1.18310227e-05 1.35908986e-05 1.38937530e-05
      1.30110693e-05 1.15141547e-05 9.32735111e-06 5.54499047e-06
      1.67878909e-06 3.59571374e-07 1.41222392e-06 6.55340182e-06
      1.50915957e-05 2.08781985e-05 2.34580566e-05 2.47017579e-05
      2.25593303e-05 1.61309981e-05 8.93549804e-06 4.66471784e-06
      1.41338444e-06 -4.79370669e-07 -7.79478171e-07 2.05638685e-07
      2.75809930e-06 4.53861458e-06 3.96087125e-06 3.23831910e-06
      4.11013752e-06 5.20026515e-06 5.48124763e-06 4.13635325e-06
      4.32308660e-08 -5.72212821e-06 -9.57553129e-06 -9.27111978e-06
      -6.38893289e-06 -4.27600526e-06 -4.84324664e-06 -7.38852259e-06
      -9.40742757e-06 -9.22552590e-06 -6.91749392e-06 -4.36015307e-06
      -4.80785775e-06 -6.41847055e-06 -4.60573028e-06 -1.78701669e-06
      -5.22735888e-07 1.04016613e-06 3.62518540e-06 6.78725610e-06
      9.31961404e-06 1.02783988e-05 1.06203906e-05 1.01610422e-05
      7.83462929e-06 4.09894074e-06 1.03178070e-06 3.54260230e-08
      7.29763599e-07 5.39151597e-06 1.36921708e-05 1.95799039e-05
      2.18971891e-05 2.35869211e-05 2.36680917e-05 1.83392840e-05
      1.01316218e-05 5.16182581e-06 2.13923818e-06 4.83987094e-07
      -1.02335525e-06 -4.51945851e-07 1.08208963e-06 2.50692915e-06
      3.02745252e-06 3.54772715e-06 4.40239455e-06 4.77639696e-06
      4.47772800e-06 2.55480472e-06 -1.96482438e-06 -6.82117980e-06
      -8.77900493e-06 -7.30569946e-06 -4.67917789e-06 -2.29268471e-06
      -1.44095043e-06 -3.67392386e-06 -7.52847518e-06 -9.47162243e-06
      -8.46696275e-06 -7.37203709e-06 -8.32001388e-06 -8.66875689e-06
      -5.78864820e-06 -2.81513348e-06 -2.11137126e-06 -1.59424201e-06
      -1.49450599e-07 2.37530526e-06 4.74625949e-06 5.77237688e-06
      7.18358342e-06 8.16661941e-06 5.91035314e-06 2.42324472e-06
      4.95023187e-07 1.93652578e-08 6.55155759e-07 5.07809546e-06
      1.29396149e-05 1.83059856e-05 2.05294436e-05 2.27837954e-05
      2.40322643e-05 1.96071414e-05 1.15920520e-05 6.46522813e-06
      3.84088116e-06 2.60297043e-06 -9.98845962e-07 -6.01802697e-07
      1.67737056e-07 9.93930939e-07 2.16391777e-06 3.53689916e-06
      4.50659854e-06 4.80580093e-06 4.35390893e-06 1.62491756e-06
      -3.81106702e-06 -8.10156052e-06 -8.21243793e-06 -5.42243424e-06
      -2.59172680e-06 -5.67587861e-08 1.20651293e-06 -1.18962248e-06
      -5.24419056e-06 -7.41828262e-06 -7.72780550e-06 -8.84827386e-06
      -1.09806651e-05 -1.07354663e-05 -7.15988972e-06 -4.48440733e-06
      -4.47951106e-06 -4.42489909e-06 -3.36662265e-06 -1.28063766e-06
      7.01958186e-07 1.76118021e-06 3.60854028e-06 5.13844907e-06
      3.52597863e-06 9.87355747e-07 1.25626258e-07 4.38745609e-08
      5.79061691e-07 4.73877117e-06 1.20446330e-05 1.71180127e-05
      1.96258552e-05 2.25062904e-05 2.41467696e-05 2.02385199e-05
      1.26601108e-05 7.66602534e-06 5.40716474e-06 4.53706889e-06
      -9.98845962e-07 -6.36100765e-07 -9.68960663e-08 2.99070564e-07
      1.17797640e-06 2.78618722e-06 4.28219710e-06 4.82450105e-06
      4.32187653e-06 9.31261866e-07 -5.17808576e-06 -8.76588638e-06
      -7.75868921e-06 -4.23297433e-06 -7.52041899e-07 2.04515845e-06
      2.42409601e-06 -7.64980200e-07 -3.72004024e-06 -4.50859170e-06
      -5.55238103e-06 -8.37779589e-06 -1.19519655e-05 -1.26075010e-05
      -9.03478667e-06 -6.55982376e-06 -7.28933855e-06 -7.75780700e-06
      -6.69924293e-06 -4.80129574e-06 -2.97648876e-06 -1.22214169e-06
      7.86323199e-07 1.87103092e-06 1.09830796e-06 5.27929735e-08
      -5.23857011e-08 1.53500679e-08 5.21365394e-07 4.22097719e-06
      1.08911117e-05 1.60707350e-05 1.91983781e-05 2.24065825e-05
      2.42036931e-05 2.04308599e-05 1.30296676e-05 8.15962267e-06
      5.97528879e-06 5.16781847e-06 -9.79231004e-07 -6.11591418e-07
      -9.68960663e-08 1.38634562e-07 5.98272550e-07 2.18778314e-06
      4.07649577e-06 4.82450105e-06 4.33694004e-06 9.94297920e-07
      -4.65775111e-06 -7.37690152e-06 -6.14591090e-06 -3.00686429e-06
      1.13122690e-06 4.74052695e-06 4.70407940e-06 8.06936157e-07
      -1.57437125e-06 -1.90998594e-06 -4.15663999e-06 -8.20620335e-06
      -1.23207819e-05 -1.35212767e-05 -1.03177945e-05 -7.46099477e-06
      -7.90732975e-06 -9.02069405e-06 -8.51022196e-06 -7.86112923e-06
      -7.25067139e-06 -4.36714618e-06 -9.88312763e-07 -1.05127327e-07
      -8.54101415e-07 -9.43004068e-07 -3.03514071e-07 2.18818013e-08
      4.86481667e-07 3.88838998e-06 1.02163121e-05 1.55387697e-05
      1.90553073e-05 2.23873030e-05 2.41584275e-05 2.04168500e-05
      1.30864637e-05 8.24170002e-06 6.04155139e-06 5.19637206e-06
      -9.84125336e-07 -6.40995097e-07 -9.68960663e-08 7.46690532e-08
      4.86071826e-07 2.07558242e-06 4.03909553e-06 4.82738960e-06
      4.43705358e-06 1.73123613e-06 -2.63616835e-06 -4.33867353e-06
      -3.18384969e-06 -5.97206395e-07 3.67294456e-06 7.92719675e-06
      8.44044462e-06 4.64166578e-06 1.29483954e-06 -6.25076325e-07
      -3.95963752e-06 -8.09723588e-06 -1.16351803e-05 -1.22702768e-05
      -8.96899655e-06 -5.60783019e-06 -5.79717334e-06 -8.06876324e-06
      -8.91491709e-06 -9.86713167e-06 -1.09489338e-05 -7.20084290e-06
      -2.13644944e-06 -1.17802642e-06 -2.30359456e-06 -2.34701565e-06
      -1.21378309e-06 -3.21248450e-07 3.86388535e-07 3.78121513e-06
      1.00588459e-05 1.54477857e-05 1.90179071e-05 2.23898205e-05
      2.41809776e-05 2.04383014e-05 1.30926519e-05 8.25210100e-06
      6.06011690e-06 5.20623280e-06 -1.00282546e-06 -6.59695274e-07
      -1.23461319e-07 7.46690532e-08 5.04771947e-07 2.07558242e-06
      4.04082857e-06 4.82310315e-06 4.57350370e-06 2.74169156e-06
      -1.48528557e-07 -7.89651722e-07 7.14120233e-07 3.37383722e-06
      7.44321278e-06 1.12529551e-05 1.20587520e-05 9.00601481e-06
      3.99284181e-06 -4.93032644e-07 -3.83433826e-06 -6.49491403e-06
      -8.69365067e-06 -8.10831807e-06 -4.01536954e-06 -7.18113824e-07
      -2.14431225e-06 -6.39410109e-06 -8.61802073e-06 -1.05018989e-05
      -1.22979600e-05 -8.43150428e-06 -3.14535259e-06 -2.42598799e-06
      -3.60392391e-06 -3.94260542e-06 -3.02544527e-06 -1.34387176e-06
      2.57536044e-07 3.76101616e-06 1.00436800e-05 1.54306799e-05
      1.90340907e-05 2.24044088e-05 2.42020978e-05 2.04163298e-05
      1.30936087e-05 8.20402511e-06 6.05028390e-06 5.20853200e-06
      -1.05390006e-06 -7.30185775e-07 -1.22254662e-07 6.54940493e-08
      4.24819262e-07 2.01031480e-06 3.99972896e-06 4.85062128e-06
      4.85209512e-06 4.31161970e-06 3.52429288e-06 3.81998188e-06
      5.17298304e-06 7.80698610e-06 1.17150839e-05 1.44420137e-05
      1.46721586e-05 1.21550020e-05 6.54144560e-06 8.64166793e-07
      -1.82797783e-06 -3.33603634e-06 -4.68861344e-06 -3.13508258e-06
      1.72299474e-06 4.93991411e-06 2.13810313e-06 -3.95592906e-06
      -7.66808353e-06 -1.03358689e-05 -1.23519330e-05 -8.61573062e-06
      -3.85864996e-06 -3.39301346e-06 -4.48137780e-06 -5.43094120e-06
      -5.10250948e-06 -2.57337160e-06 9.44572065e-08 3.81368682e-06
      1.00728748e-05 1.54607951e-05 1.90340907e-05 2.23939478e-05
      2.41755315e-05 2.04455700e-05 1.30161097e-05 7.97726807e-06
      5.84779264e-06 5.10185328e-06 -1.10446945e-06 -7.36252161e-07
      -1.28321076e-07 4.32440501e-08 4.34585559e-07 1.81556118e-06
      3.66177051e-06 4.41329894e-06 4.70535542e-06 5.92570677e-06
      8.09396624e-06 9.57361408e-06 1.04418496e-05 1.25361321e-05
      1.59082610e-05 1.73627614e-05 1.60622403e-05 1.33385302e-05
      8.51977893e-06 3.74028878e-06 1.37313248e-06 -1.93377431e-07
      -1.44815135e-06 1.33481450e-07 5.13921395e-06 8.60659929e-06
      5.83567407e-06 -1.25733936e-06 -6.35967672e-06 -1.02064168e-05
      -1.27069570e-05 -8.94356526e-06 -3.93263781e-06 -3.38764858e-06
      -4.71033945e-06 -6.51736491e-06 -6.75718229e-06 -3.50399409e-06
      -5.03500992e-08 3.91958292e-06 1.01029764e-05 1.54587451e-05
      1.90075261e-05 2.21680493e-05 2.35537245e-05 1.98505386e-05
      1.26761206e-05 7.65335153e-06 5.58058582e-06 4.92623167e-06
      -1.10698602e-06 -7.20646312e-07 -1.28321076e-07 4.32440501e-08
      2.89606305e-07 1.21161452e-06 2.30164005e-06 2.82726910e-06
      3.41755390e-06 6.40610733e-06 1.14715122e-05 1.50466913e-05
      1.69035975e-05 1.88062058e-05 2.02266983e-05 1.96830679e-05
      1.72732398e-05 1.36845665e-05 9.18729984e-06 5.04796390e-06
      2.54335373e-06 9.84820190e-07 -3.90295689e-08 1.28588727e-06
      5.47579111e-06 9.25528730e-06 7.52010783e-06 4.01770137e-07
      -5.68960377e-06 -1.06302323e-05 -1.40160537e-05 -9.85169390e-06
      -3.61845400e-06 -2.45091815e-06 -4.22019684e-06 -6.92487629e-06
      -7.60013882e-06 -3.88098442e-06 6.78811318e-08 4.11457449e-06
      1.02092599e-05 1.54707905e-05 1.90035116e-05 2.15009732e-05
      2.15372038e-05 1.77811053e-05 1.18971084e-05 7.44682802e-06
      5.37432925e-06 4.80614335e-06 -1.29127329e-06 -8.19760203e-07
      -1.52586736e-07 4.07275067e-08 1.26504617e-07 4.31773231e-07
      7.47742206e-07 1.24519374e-06 2.95484574e-06 7.40828455e-06
      1.39782451e-05 1.92676944e-05 2.28460776e-05 2.45691517e-05
      2.32473885e-05 2.04924891e-05 1.72765813e-05 1.27685344e-05
      7.60200464e-06 3.28002739e-06 7.11353948e-07 -3.17137022e-07
      -7.15137332e-07 2.38523882e-07 3.60908393e-06 7.84525491e-06
      7.67519850e-06 1.33109904e-06 -5.04908712e-06 -1.07057667e-05
      -1.44819314e-05 -1.00818670e-05 -3.09671668e-06 -1.39754070e-06
      -3.52313873e-06 -6.92478716e-06 -7.96557288e-06 -4.27464465e-06
      3.21912552e-07 5.03474666e-06 1.09970752e-05 1.58059956e-05
      1.90754727e-05 2.07398389e-05 1.91568524e-05 1.54001755e-05
      1.10921874e-05 7.39232200e-06 5.31077785e-06 4.74165290e-06
      -1.69754810e-06 -1.08552501e-06 -2.24350401e-07 4.18829380e-08
      5.69035663e-08 1.30776002e-07 3.20511816e-07 1.75634682e-06
      5.52023539e-06 1.09153862e-05 1.64581106e-05 2.17749111e-05
      2.59544559e-05 2.67122668e-05 2.34487106e-05 1.89948605e-05
      1.46651928e-05 9.45841111e-06 3.68732731e-06 -7.68925190e-07
      -2.66936399e-06 -3.03493812e-06 -3.05033450e-06 -2.14818215e-06
      9.76529464e-07 6.01678948e-06 7.62267427e-06 2.67332098e-06
      -3.73880675e-06 -9.05277557e-06 -1.18302696e-05 -7.90632475e-06
      -2.14702868e-06 -9.53495714e-07 -3.18470870e-06 -6.69888277e-06
      -8.18132594e-06 -4.92178424e-06 9.23897744e-07 7.24440133e-06
      1.31314209e-05 1.68971947e-05 1.93899050e-05 2.03740274e-05
      1.81160267e-05 1.44177066e-05 1.07711676e-05 7.38134531e-06
      5.29237377e-06 4.76301875e-06 -2.15777254e-06 -1.39711062e-06
      -2.83930234e-07 6.38436859e-08 9.95793172e-08 2.17411639e-07
      1.26975897e-06 4.50491052e-06 9.43549639e-06 1.36660938e-05
      1.72879136e-05 2.23443494e-05 2.62445355e-05 2.53920480e-05
      2.09950358e-05 1.62003180e-05 1.11606323e-05 4.95909899e-06
      -1.01987519e-06 -4.72626425e-06 -5.49638389e-06 -5.28924966e-06
      -5.19840569e-06 -4.19370372e-06 -9.15231567e-07 4.68452390e-06
      7.60737930e-06 3.67933376e-06 -2.41320322e-06 -6.89722538e-06
      -8.06777371e-06 -4.42679857e-06 -5.03408103e-07 -5.51254175e-07
      -3.03912316e-06 -6.02149521e-06 -7.26401731e-06 -4.09750419e-06
      2.51638130e-06 9.84269172e-06 1.53540459e-05 1.82831409e-05
      2.00851646e-05 2.02592819e-05 1.74850793e-05 1.38139121e-05
      1.05472627e-05 7.37527898e-06 5.29844010e-06 4.76244077e-06
      -2.45983620e-06 -1.58954629e-06 -3.23113369e-07 9.09135665e-08
      1.42272683e-07 3.40147665e-07 2.68904864e-06 7.90035028e-06
      1.22218598e-05 1.40348347e-05 1.66708414e-05 2.17076904e-05
      2.48396482e-05 2.25912390e-05 1.79740255e-05 1.36851540e-05
      8.42584632e-06 1.22115932e-06 -4.66514075e-06 -6.93061975e-06
      -6.93999937e-06 -6.51175787e-06 -6.08165919e-06 -5.00851229e-06
      -2.09846121e-06 3.05626554e-06 6.17997557e-06 3.51827794e-06
      -1.64684263e-06 -5.26113627e-06 -5.22281016e-06 -1.45587057e-06
      1.47201763e-06 6.03294836e-07 -2.05347101e-06 -4.11805377e-06
      -4.18546460e-06 -6.15929935e-07 5.57486601e-06 1.19776323e-05
      1.65820093e-05 1.94158420e-05 2.11473744e-05 2.04900116e-05
      1.66647751e-05 1.28120646e-05 1.01000296e-05 7.24467691e-06
      5.15828242e-06 4.59373314e-06 -2.61090486e-06 -1.66467055e-06
      -3.26257435e-07 1.31559389e-07 2.09551331e-07 5.74658372e-07
      3.48798812e-06 9.25056793e-06 1.30266171e-05 1.44800824e-05
      1.75999448e-05 2.18037312e-05 2.28750559e-05 2.01157454e-05
      1.66791560e-05 1.26189734e-05 6.41962561e-06 -8.24399706e-07
      -5.90145009e-06 -7.76261641e-06 -7.77486184e-06 -7.16727573e-06
      -6.55843860e-06 -5.74769638e-06 -3.95118241e-06 -8.53623874e-07
      2.06586787e-06 2.18586092e-06 -9.39266556e-07 -3.95499592e-06
      -3.47027049e-06 -1.83711222e-07 2.48881179e-06 2.56142857e-06
      6.65198968e-07 -7.80618848e-07 2.83185301e-07 4.35245647e-06
      9.26677967e-06 1.35052096e-05 1.70855110e-05 2.00878567e-05
      2.24880387e-05 2.18589030e-05 1.69066716e-05 1.21756138e-05
      9.56096483e-06 6.87097099e-06 4.66750544e-06 3.99016835e-06
      -1.96704696e-06 -1.36148390e-06 -3.58970681e-07 6.40702780e-08
      5.26813267e-07 1.80453458e-06 5.09745132e-06 9.81662197e-06
      1.29658019e-05 1.56020324e-05 1.92117077e-05 2.13024250e-05
      2.00769846e-05 1.77215807e-05 1.60548661e-05 1.25933002e-05
      6.37997346e-06 3.79134292e-07 -4.28175281e-06 -7.38612061e-06
      -8.48014952e-06 -8.21670164e-06 -7.63925618e-06 -7.24639995e-06
      -6.59753778e-06 -5.12505812e-06 -1.98847238e-06 9.51586458e-07
      -1.67333354e-07 -2.58932437e-06 -1.46860418e-06 1.23496693e-06
      3.63346180e-06 4.90228604e-06 4.05394985e-06 3.04973378e-06
      4.77486628e-06 9.35137814e-06 1.33236781e-05 1.59618830e-05
      1.87607748e-05 2.14660122e-05 2.36005526e-05 2.26112916e-05
      1.69574705e-05 1.15466919e-05 8.61285753e-06 6.12404301e-06
      3.88231228e-06 2.95406767e-06 2.50666528e-08 -2.17708873e-07
      -2.60282491e-07 1.86319710e-07 1.51263419e-06 5.00685974e-06
      9.40523205e-06 1.22796300e-05 1.40998554e-05 1.64767334e-05
      1.85771987e-05 1.81804335e-05 1.58402436e-05 1.41957134e-05
      1.38991682e-05 1.27815274e-05 9.52094433e-06 4.87209036e-06
      -2.36404816e-07 -5.00987517e-06 -8.26208907e-06 -9.36026936e-06
      -9.45428383e-06 -9.44212934e-06 -8.98996223e-06 -7.10568747e-06
      -3.17603008e-06 4.87474495e-07 2.78143286e-08 -9.87542307e-07
      1.87689716e-06 4.94895721e-06 6.25016537e-06 6.97486576e-06
      6.68328266e-06 6.58981662e-06 8.93183915e-06 1.38561400e-05
      1.80766565e-05 2.06764635e-05 2.30197111e-05 2.44219500e-05
      2.38474749e-05 2.05209562e-05 1.51436234e-05 1.03193861e-05
      7.26663347e-06 4.98192958e-06 2.69641419e-06 1.52101552e-06
      2.89747777e-06 1.97519307e-06 6.98531437e-07 9.81166750e-07
      3.36854532e-06 8.65679522e-06 1.38932655e-05 1.58079583e-05
      1.63148125e-05 1.72233213e-05 1.74078777e-05 1.58792409e-05
      1.33855101e-05 1.20176464e-05 1.25914921e-05 1.38303703e-05
      1.33186513e-05 9.99408348e-06 5.04824038e-06 8.98921400e-08
      -4.28533576e-06 -7.58376518e-06 -9.74103841e-06 -1.09358398e-05
      -1.07241040e-05 -8.58790372e-06 -4.93721700e-06 -1.94321274e-06
      -9.74011300e-07 9.53678295e-07 5.37865162e-06 8.52759877e-06
      9.07512185e-06 9.00029954e-06 9.68732638e-06 1.10543851e-05
      1.40226748e-05 1.88285521e-05 2.28910030e-05 2.53628477e-05
      2.67558553e-05 2.60988563e-05 2.24265477e-05 1.70823623e-05
      1.25487441e-05 8.99268980e-06 5.96843483e-06 3.42251997e-06
      9.91290108e-07 -3.34424158e-07 5.05796197e-06 4.17097044e-06
      2.29531247e-06 2.05176252e-06 5.29538420e-06 1.11300587e-05
      1.64354551e-05 1.89024649e-05 1.88007070e-05 1.80755451e-05
      1.75256937e-05 1.63947207e-05 1.42736972e-05 1.27474032e-05
      1.38276991e-05 1.57299019e-05 1.57983359e-05 1.35166492e-05
      9.82172878e-06 6.15629551e-06 2.29031457e-06 -2.60875095e-06
      -7.58965462e-06 -1.08149898e-05 -1.18600447e-05 -1.09710063e-05
      -9.09231312e-06 -6.71159205e-06 -2.96591793e-06 2.32950470e-06
      7.20684284e-06 9.88235115e-06 1.04148685e-05 1.09085122e-05
      1.29979589e-05 1.60062755e-05 1.95442281e-05 2.36627639e-05
      2.65550043e-05 2.76836581e-05 2.73157584e-05 2.46348409e-05
      1.96359961e-05 1.42812351e-05 1.05777872e-05 7.69031885e-06
      4.66561778e-06 1.91275490e-06 -8.06064179e-07 -2.19743060e-06
      4.96623943e-06 4.46729473e-06 2.80427253e-06 2.18355672e-06
      5.89472484e-06 1.19256511e-05 1.77420588e-05 2.14795455e-05
      2.10742292e-05 1.87948899e-05 1.77712482e-05 1.73849476e-05
      1.61419666e-05 1.51158292e-05 1.59310148e-05 1.71845622e-05
      1.71664560e-05 1.54978170e-05 1.24060834e-05 9.22071740e-06
      5.99703708e-06 1.12875921e-06 -4.85565079e-06 -9.75812964e-06
      -1.25160668e-05 -1.29215277e-05 -1.22979927e-05 -1.01290489e-05
      -4.98188638e-06 1.63119682e-06 6.86022213e-06 9.63717866e-06
      1.07188534e-05 1.17872023e-05 1.46299781e-05 1.84930232e-05
      2.25934255e-05 2.63008933e-05 2.82279088e-05 2.78014722e-05
      2.54322367e-05 2.15609780e-05 1.69158357e-05 1.24230610e-05
      8.85939062e-06 5.58164857e-06 2.83339568e-06 1.05324796e-06
      -1.32432478e-06 -2.87677858e-06 3.10308815e-06 3.31408637e-06
      2.44505009e-06 2.08507367e-06 5.45811417e-06 1.11735153e-05
      1.71470620e-05 2.18991936e-05 2.19812609e-05 1.88064314e-05
      1.69386785e-05 1.64654957e-05 1.60380732e-05 1.57470586e-05
      1.61046373e-05 1.66611353e-05 1.68077840e-05 1.58938219e-05
      1.30807166e-05 9.40948485e-06 5.76677667e-06 1.54512941e-06
      -3.71369151e-06 -9.03294767e-06 -1.26509158e-05 -1.36979443e-05
      -1.31374600e-05 -1.12309908e-05 -7.00081819e-06 -1.04990431e-06
      4.14530632e-06 7.46825071e-06 8.90046977e-06 1.02657505e-05
      1.32237674e-05 1.71772554e-05 2.11391671e-05 2.47039752e-05
      2.62623489e-05 2.49124041e-05 2.13739513e-05 1.73180579e-05
      1.35203163e-05 9.79556444e-06 6.32971114e-06 2.86761224e-06
      7.15788019e-07 2.44913252e-07 -1.46481557e-06 -2.93755397e-06
      8.70901260e-07 1.72392697e-06 2.66941083e-06 3.37999313e-06
      5.81182712e-06 9.47064564e-06 1.40866905e-05 1.90069841e-05
      2.03408908e-05 1.77111560e-05 1.45453932e-05 1.30394083e-05
      1.26030072e-05 1.23554428e-05 1.24728649e-05 1.32044815e-05
      1.39930316e-05 1.38305413e-05 1.18547514e-05 8.29536384e-06
      3.70424959e-06 -7.50613935e-07 -5.21938409e-06 -9.55042287e-06
      -1.22493821e-05 -1.29830678e-05 -1.26386312e-05 -1.16167894e-05
      -9.25142467e-06 -5.00150463e-06 -1.92375055e-07 2.89808759e-06
      4.20651941e-06 5.82204893e-06 9.12969881e-06 1.26608329e-05
      1.58165203e-05 1.88668855e-05 2.01694675e-05 1.87250625e-05
      1.53052933e-05 1.15511421e-05 7.99056579e-06 4.79341134e-06
      2.28285671e-06 2.75260504e-07 -9.16819090e-07 -1.50280914e-06
      -2.53241615e-06 -3.34318884e-06 -8.38035078e-07 4.09502320e-07
      3.12733732e-06 5.58220063e-06 7.41443546e-06 8.59281772e-06
      1.06145908e-05 1.43082843e-05 1.68567440e-05 1.55692105e-05
      1.19473852e-05 9.57776138e-06 8.24285598e-06 6.70186273e-06
      6.26823976e-06 7.06025594e-06 8.07315973e-06 8.14748637e-06
      6.66961432e-06 3.45920603e-06 -8.26671112e-07 -4.70470104e-06
      -7.90515060e-06 -1.05432355e-05 -1.17774080e-05 -1.19903480e-05
      -1.19140614e-05 -1.17349073e-05 -1.08202512e-05 -8.45556769e-06
      -4.99566386e-06 -2.31785748e-06 -5.24273730e-07 2.01085618e-06
      5.31624573e-06 8.35585251e-06 1.08155291e-05 1.30170029e-05
      1.39048616e-05 1.26014456e-05 9.68993663e-06 6.22912148e-06
      2.88168303e-06 1.70310059e-07 -1.59156002e-06 -2.20309676e-06
      -2.39424139e-06 -2.88869546e-06 -2.67560745e-06 -2.24223777e-06
      -1.89966693e-06 -5.97525002e-07 3.13550390e-06 7.50688605e-06
      9.58003147e-06 9.26910980e-06 8.96945039e-06 1.04246083e-05
      1.26831474e-05 1.25171746e-05 9.64810533e-06 6.96447023e-06
      4.35182255e-06 1.17600439e-06 -3.67161533e-07 -1.39859139e-07
      3.37654171e-07 3.58380414e-09 -1.75493255e-06 -4.46160266e-06
      -6.89731451e-06 -8.65108905e-06 -9.98647647e-06 -1.10588217e-05
      -1.15049852e-05 -1.15115245e-05 -1.14647964e-05 -1.14620452e-05
      -1.12283869e-05 -1.02564445e-05 -8.30670433e-06 -5.96164364e-06
      -3.00956367e-06 3.73465667e-07 3.21560424e-06 5.68652740e-06
      7.90021386e-06 9.27742531e-06 9.57235716e-06 8.42406280e-06
      5.77192850e-06 2.62440381e-06 6.72741436e-08 -1.81638450e-06
      -3.36502399e-06 -3.81130167e-06 -3.43636589e-06 -2.71778686e-06
      -5.65289383e-07 1.05703839e-06 -2.21573032e-06 -1.10470160e-06
      3.13820419e-06 8.51763070e-06 1.08852482e-05 1.04714491e-05
      9.29384805e-06 8.75212027e-06 9.38836456e-06 8.99758470e-06
      6.09051858e-06 2.85691453e-06 -1.81909314e-07 -3.39459280e-06
      -5.46952560e-06 -6.26714427e-06 -6.38632719e-06 -6.78675679e-06
      -8.12283542e-06 -9.71828104e-06 -1.05157287e-05 -1.07927972e-05
      -1.10390611e-05 -1.12327507e-05 -1.13504984e-05 -1.13504657e-05
      -1.13504657e-05 -1.13227952e-05 -1.12125726e-05 -1.04927440e-05
      -8.96353595e-06 -7.03502019e-06 -4.64542472e-06 -1.77183028e-06
      7.86122257e-07 2.95676114e-06 4.62203616e-06 5.21205902e-06
      5.16329874e-06 4.34886670e-06 2.47739536e-06 2.70240491e-07
      -1.25142890e-06 -1.99635656e-06 -2.18158789e-06 -2.80340259e-06
      -2.85374904e-06 -7.96941492e-07 2.45917977e-06 4.08713731e-06
      -1.54315023e-06 -7.32182741e-07 2.66767051e-06 7.56370491e-06
      1.03562788e-05 1.06788430e-05 9.29551334e-06 7.35628691e-06
      6.37183257e-06 5.16902674e-06 2.29797047e-06 -1.04040737e-06
      -3.64767629e-06 -5.85477119e-06 -7.89354817e-06 -9.05303841e-06
      -9.38613903e-06 -9.62745071e-06 -1.02741951e-05 -1.10155097e-05
      -1.12896396e-05 -1.12821272e-05 -1.12355683e-05 -1.12419866e-05
      -1.12590942e-05 -1.09721186e-05 -1.06954285e-05 -1.05339041e-05
      -1.04118153e-05 -9.50507183e-06 -7.89076239e-06 -6.58480940e-06
      -5.47980835e-06 -3.71121541e-06 -1.34719892e-06 4.35202111e-07
      1.23091161e-06 1.32329023e-06 1.17711681e-06 7.25799623e-07
      -2.88184594e-07 -1.18999083e-06 -1.56341105e-06 -1.08753738e-06
      -1.50146661e-07 -5.46340402e-07 -6.56616578e-07 1.96361725e-06
      4.84192515e-06 5.70171596e-06 6.14591613e-07 4.18578026e-07
      1.30508101e-06 4.42330975e-06 7.77419791e-06 8.89168678e-06
      7.07918889e-06 4.31306398e-06 2.60512365e-06 1.70882117e-06
      2.86024090e-07 -1.60808088e-06 -3.60219906e-06 -5.67137249e-06
      -7.16942805e-06 -7.96746917e-06 -8.22430320e-06 -8.63613241e-06
      -9.65555228e-06 -1.06462121e-05 -1.10645842e-05 -1.10645515e-05
      -1.09953871e-05 -1.09542743e-05 -1.08506265e-05 -9.99017175e-06
      -8.95272478e-06 -8.55494818e-06 -8.42689315e-06 -7.76961406e-06
      -6.62368438e-06 -5.79677544e-06 -4.77839239e-06 -3.03160550e-06
      -1.25562042e-06 -2.77539044e-07 -4.45788437e-08 -1.87684250e-07
      -6.16429247e-07 -1.18331047e-06 -1.67361611e-06 -1.75929290e-06
      -8.99304325e-07 2.13121396e-07 5.34193020e-07 7.84511997e-07
      2.12548639e-06 4.40098347e-06 5.72920908e-06 5.96114205e-06
      2.64301980e-06 2.02420460e-06 9.07817309e-07 1.47256253e-06
      4.36750861e-06 6.60103115e-06 5.67736470e-06 2.95372524e-06
      1.03163779e-06 3.61010819e-07 -2.04220186e-07 -8.39350434e-07
      -1.95679445e-06 -3.61653474e-06 -4.57508804e-06 -4.82607493e-06
      -5.24129791e-06 -6.34873868e-06 -7.99024110e-06 -9.33652154e-06
      -9.73891201e-06 -9.71234658e-06 -9.73291753e-06 -9.70894143e-06
      -9.52996652e-06 -8.48907166e-06 -7.25168775e-06 -6.74597186e-06
      -6.65693551e-06 -6.04975776e-06 -5.00089800e-06 -4.19470734e-06
      -2.98519808e-06 -1.36305789e-06 -3.54161216e-07 -9.00475783e-08
      -1.56694512e-07 -6.07046104e-07 -1.70489886e-06 -2.84958446e-06
      -3.06029301e-06 -1.79848621e-06 -1.36150916e-07 6.39210270e-07
      7.26876749e-07 2.05770129e-06 4.44219540e-06 5.58890724e-06
      5.28026294e-06 4.85822329e-06 3.70887665e-06 3.52495817e-06
      2.01301486e-06 4.80756739e-07 1.52917426e-06 4.50643256e-06
      5.92082552e-06 4.47049797e-06 2.82577207e-06 1.65045378e-06
      1.12027623e-08 -7.24658946e-07 -9.32876731e-07 -1.50723599e-06
      -1.84137082e-06 -1.94101040e-06 -2.66691359e-06 -4.39056430e-06
      -6.03460603e-06 -6.88008731e-06 -7.03439537e-06 -7.10658924e-06
      -7.10407267e-06 -7.07600884e-06 -6.97381847e-06 -6.47145998e-06
      -5.83166184e-06 -5.59173759e-06 -5.44468185e-06 -4.51332835e-06
      -2.96695157e-06 -1.89083289e-06 -1.17945319e-06 -4.49438261e-07
      -1.51045825e-07 -1.67922835e-07 -5.42380462e-07 -1.56829321e-06
      -3.43859597e-06 -5.05310436e-06 -4.69906081e-06 -2.03377294e-06
      -5.30231361e-08 3.33671636e-07 1.65365725e-06 3.98825296e-06
      5.54568442e-06 5.39032499e-06 3.85276417e-06 2.87296984e-06
      4.19959770e-06 4.31313219e-06 2.98450823e-06 3.31099841e-07
      -2.30226718e-07 1.93549317e-06 4.43471799e-06 5.34049786e-06
      5.30414945e-06 3.70998100e-06 7.02023385e-07 -9.04577234e-07
      -8.24812957e-07 -6.11781388e-07 -4.25713893e-07 -3.80690238e-07
      -9.76349384e-07 -2.31391277e-06 -3.29996919e-06 -3.59910632e-06
      -3.64566540e-06 -3.66711265e-06 -3.66769041e-06 -3.61658363e-06
      -3.65484948e-06 -3.55036559e-06 -3.45291369e-06 -3.41292616e-06
      -3.28786314e-06 -2.52807490e-06 -1.20809079e-06 -3.95268614e-07
      -2.05226016e-07 -2.21314380e-07 -4.63483758e-07 -7.05427965e-07
      -1.44886235e-06 -3.17785180e-06 -5.29341150e-06 -6.40022154e-06
      -5.45406874e-06 -2.73577712e-06 -3.44081940e-07 1.37896802e-06
      3.57938643e-06 5.47058107e-06 5.50864115e-06 4.00909221e-06
      2.15681871e-06 1.20095592e-06 4.43847102e-06 4.74631088e-06
      3.77946753e-06 1.09001303e-06 -4.84285806e-07 -2.23632242e-07
      1.46679986e-06 4.10065877e-06 6.07132506e-06 5.32402282e-06
      2.10840403e-06 -3.89661835e-07 -1.05419542e-06 -8.47881040e-07
      -4.75443159e-07 -2.35417929e-07 -2.19913417e-07 -6.32758486e-07
      -8.75795592e-07 -8.95410494e-07 -9.01949875e-07 -9.26491339e-07
      -9.46485045e-07 -9.01982048e-07 -9.09167227e-07 -9.51347204e-07
      -9.31353554e-07 -9.34937873e-07 -9.08170023e-07 -6.87586294e-07
      -2.56743618e-07 -4.24835278e-08 -7.81029144e-08 -3.68853534e-07
      -9.50331014e-07 -1.66954885e-06 -2.94171150e-06 -4.96672237e-06
      -6.48648347e-06 -6.42487930e-06 -5.04112722e-06 -2.75937623e-06
      2.46916358e-07 3.46421575e-06 5.31577098e-06 5.57081376e-06
      4.43846466e-06 2.33670380e-06 7.84297697e-07 2.94111629e-07
      4.67869040e-06 5.30613033e-06 5.27104567e-06 3.17827880e-06
      6.24117149e-07 -7.95421272e-07 -3.51679063e-07 1.89793070e-06
      4.79513756e-06 6.16144916e-06 4.46812055e-06 1.32510843e-06
      -8.24112078e-07 -1.42908652e-06 -1.25281258e-06 -7.03969022e-07
      -1.93392864e-07 2.71050543e-20 2.71050543e-20 2.71050543e-20
      2.71050543e-20 2.71050543e-20 2.71050543e-20 2.71050543e-20
      2.71050543e-20 2.71050543e-20 2.71050543e-20 2.71050543e-20
      2.71050543e-20 1.87001259e-08 1.87001259e-08 -5.45977485e-08
      -2.75000303e-07 -7.91503624e-07 -1.48529955e-06 -2.82791643e-06
      -4.74469562e-06 -6.33736499e-06 -6.51525852e-06 -5.63130607e-06
      -4.07034668e-06 -1.18121284e-06 2.38225789e-06 5.13855730e-06
      5.79999869e-06 4.71629892e-06 2.72591410e-06 9.69077064e-07
      1.71565119e-07 2.45093030e-08 4.77691947e-06 5.60390936e-06
      6.21009622e-06 4.44828493e-06 1.39567169e-06 -6.47010040e-07
      -8.30346949e-07 7.07766617e-07 3.78993900e-06 6.34438038e-06
      5.76272532e-06 2.45801357e-06 -5.73182774e-07 -1.71494730e-06
      -1.66930647e-06 -1.05475976e-06 -2.83237654e-07 2.71050543e-20
      2.71050543e-20 2.71050543e-20 2.71050543e-20 2.71050543e-20
      2.71050543e-20 2.71050543e-20 2.71050543e-20 2.71050543e-20
      2.71050543e-20 2.71050543e-20 2.71050543e-20 2.71050543e-20
      2.71050543e-20 -7.88634154e-08 -4.53221702e-07 -1.03416028e-06
      -1.80226550e-06 -3.42875933e-06 -5.67234611e-06 -6.86032854e-06
      -6.25716211e-06 -5.10612199e-06 -3.48806566e-06 2.21738574e-08
      3.79340781e-06 5.70584143e-06 5.76919319e-06 4.09305358e-06
      1.78917912e-06 4.41167458e-07 7.35279073e-08 0.</_>
    <_>
      2.17161846e-06 2.17511456e-06 1.24895905e-06 -5.74089825e-07
      -1.28681052e-06 1.68170601e-07 2.40726035e-06 2.71778231e-06
      8.21182709e-07 -1.18890785e-06 -1.67414294e-06 -1.18795720e-06
      -7.24779284e-07 -1.19568506e-06 -2.25913459e-06 -2.93423409e-06
      -2.67999121e-06 -2.51393726e-06 -2.51393726e-06 -2.37843756e-06
      -1.97813915e-06 -1.68618294e-06 -1.66771235e-06 -1.61970297e-06
      -1.70299393e-06 -1.67464225e-06 -1.64526102e-06 -1.59725164e-06
      -1.57904856e-06 -1.57904856e-06 -1.60816228e-06 -1.67187477e-06
      -1.59643992e-06 -1.48589231e-06 -1.14122918e-06 -9.22876779e-07
      -1.04730998e-06 -3.85819163e-07 2.80063273e-06 5.93443065e-06
      5.34484070e-06 2.39497331e-06 3.95427691e-07 -5.65147673e-07
      -1.13927422e-06 -1.62214434e-07 1.90427863e-06 2.59128569e-06
      2.48074321e-06 2.46307536e-06 2.45729984e-06 2.53878761e-06
      1.36967208e-06 -4.55963345e-07 -4.94624715e-07 1.21522726e-06
      2.65252174e-06 2.32300931e-06 6.46439617e-07 -7.62907746e-07
      -8.67334791e-07 3.38066002e-07 1.30344927e-06 2.95309633e-07
      -2.37813447e-06 -4.32677962e-06 -4.53178245e-06 -4.41298334e-06
      -4.33910100e-06 -3.86269176e-06 -2.90579192e-06 -2.42299302e-06
      -2.34911045e-06 -2.35347943e-06 -2.35102493e-06 -2.37451104e-06
      -2.29712032e-06 -2.29712032e-06 -2.32665911e-06 -2.29738794e-06
      -2.33756964e-06 -2.34335471e-06 -2.26530756e-06 -1.98685052e-06
      -1.26941859e-06 -7.29252804e-07 -7.14211922e-07 -3.13784199e-07
      1.85800377e-06 4.86874887e-06 5.83461406e-06 3.85891281e-06
      1.20976313e-06 -4.63367599e-07 -6.91685045e-07 7.20848277e-07
      2.62938011e-06 3.23160407e-06 3.18155799e-06 3.16496039e-06
      2.18115702e-06 2.14648753e-06 1.17657544e-06 1.69504119e-07
      1.17598972e-06 2.62123604e-06 2.85513374e-06 2.44968169e-06
      1.87482351e-06 1.48285301e-06 1.98061434e-06 3.71654096e-06
      4.78550464e-06 2.83832765e-06 -1.74299907e-06 -5.06933384e-06
      -5.93831555e-06 -6.29978331e-06 -6.75452793e-06 -6.32941919e-06
      -5.04407308e-06 -4.26779525e-06 -4.16551575e-06 -4.17303409e-06
      -4.18878290e-06 -4.19008029e-06 -4.19969365e-06 -4.17031242e-06
      -4.12278678e-06 -4.14222814e-06 -4.14249598e-06 -4.14511214e-06
      -4.07675225e-06 -3.39216331e-06 -1.76636695e-06 -4.79132929e-08
      7.35942251e-07 9.65552431e-07 1.56031467e-06 3.84142868e-06
      6.37275025e-06 5.56029227e-06 2.34559775e-06 1.25156191e-07
      8.39415648e-08 1.60580726e-06 3.30359376e-06 4.13632688e-06
      4.25992448e-06 4.28899466e-06 1.06221449e-07 -2.58665676e-08
      1.12886816e-07 1.26349937e-06 2.61432911e-06 2.84792964e-06
      2.97016868e-06 4.39734140e-06 5.79215020e-06 6.15209410e-06
      6.59882153e-06 7.44902991e-06 7.00003238e-06 4.05661012e-06
      3.23204830e-07 -1.89745037e-06 -2.95973928e-06 -4.47713273e-06
      -6.44599868e-06 -7.55534893e-06 -7.29391058e-06 -6.86467047e-06
      -6.80054745e-06 -6.85864143e-06 -6.78806555e-06 -6.79451523e-06
      -6.82389646e-06 -6.88151931e-06 -6.79327695e-06 -6.72356737e-06
      -6.51577329e-06 -6.26610608e-06 -5.97418330e-06 -4.91206765e-06
      -2.27677310e-06 1.03525940e-06 3.35045866e-06 4.11321344e-06
      4.17569026e-06 5.18149318e-06 6.26121664e-06 4.93935522e-06
      2.45716615e-06 1.18822595e-06 6.39064638e-07 1.03495427e-06
      2.49436425e-06 3.73604212e-06 4.41108523e-06 4.59952571e-06
      -2.58190084e-06 -2.56959902e-06 -9.52690584e-07 1.91857998e-06
      3.05323965e-06 2.83105828e-06 4.08852839e-06 7.13599320e-06
      9.47231638e-06 1.03019856e-05 1.05238951e-05 1.03259154e-05
      8.23318442e-06 4.70804571e-06 2.55574196e-06 1.87926616e-06
      7.24013262e-07 -2.09177915e-06 -5.66331664e-06 -8.43101498e-06
      -9.84934923e-06 -1.02587082e-05 -1.02917447e-05 -1.03324592e-05
      -1.03291486e-05 -1.02993426e-05 -1.02993426e-05 -1.03572911e-05
      -1.02089525e-05 -9.69161283e-06 -8.44399983e-06 -6.99825932e-06
      -5.93339109e-06 -4.67041900e-06 -1.88439935e-06 1.97895747e-06
      5.31868136e-06 6.91362220e-06 7.27239239e-06 7.27803126e-06
      6.43981593e-06 4.35576430e-06 2.62797630e-06 1.79145388e-06
      6.14113844e-07 -1.62381369e-07 5.39267887e-07 2.06392679e-06
      3.51918015e-06 4.14111082e-06 -4.33506739e-06 -3.78833374e-06
      -1.38955829e-06 1.48999413e-06 2.62302319e-06 3.77665492e-06
      6.47079469e-06 9.23773860e-06 1.16099745e-05 1.30304834e-05
      1.34710508e-05 1.29831260e-05 1.04439023e-05 6.80401308e-06
      5.03722822e-06 4.56935049e-06 2.55121768e-06 -1.63586799e-06
      -6.18540525e-06 -9.92796868e-06 -1.27626054e-05 -1.40473758e-05
      -1.42456065e-05 -1.42936160e-05 -1.43081061e-05 -1.43361895e-05
      -1.43361895e-05 -1.43943071e-05 -1.40773445e-05 -1.26197110e-05
      -9.26569010e-06 -5.20750609e-06 -2.50358949e-06 -1.03108152e-06
      1.13859574e-06 4.05149376e-06 6.76434320e-06 8.43492126e-06
      9.00499072e-06 8.72921100e-06 7.56518648e-06 5.81486120e-06
      3.88579474e-06 2.34804475e-06 1.18481478e-06 -1.00391411e-07
      -9.12534347e-07 7.45827862e-08 2.08096935e-06 3.09824486e-06
      -4.38029110e-06 -3.20008121e-06 -1.37852180e-06 -8.33967704e-08
      2.35101243e-06 5.72796398e-06 8.59248848e-06 1.09307957e-05
      1.42646286e-05 1.74553388e-05 1.85164536e-05 1.79790568e-05
      1.54800928e-05 1.18665948e-05 9.85959377e-06 8.41733527e-06
      4.75463867e-06 -1.20193909e-06 -6.63096625e-06 -1.12792541e-05
      -1.54918616e-05 -1.75882487e-05 -1.79452381e-05 -1.79491071e-05
      -1.78633582e-05 -1.79274302e-05 -1.79274302e-05 -1.79340477e-05
      -1.75408404e-05 -1.51887843e-05 -9.28831287e-06 -1.69581324e-06
      3.63603658e-06 5.85014595e-06 7.69737744e-06 9.77826494e-06
      1.08031263e-05 1.07282876e-05 1.03353850e-05 1.00085044e-05
      9.34351738e-06 8.32557271e-06 6.32865658e-06 4.49169374e-06
      3.97962731e-06 2.43255840e-06 1.47340922e-08 -2.48053340e-07
      8.75130695e-07 1.41277428e-06 -2.53235521e-06 -1.06671439e-06
      -5.73279294e-07 -9.70681185e-07 3.07283972e-06 8.73735553e-06
      1.18805337e-05 1.42822146e-05 1.84723503e-05 2.22481194e-05
      2.30569076e-05 2.21458777e-05 1.96996207e-05 1.64486719e-05
      1.45823778e-05 1.23309965e-05 7.16307886e-06 1.09258259e-07
      -6.27187546e-06 -1.16153979e-05 -1.63314890e-05 -1.90475257e-05
      -1.99811129e-05 -2.01914299e-05 -2.01631556e-05 -2.01943512e-05
      -2.01895109e-05 -1.98597118e-05 -1.84534001e-05 -1.43839234e-05
      -6.45771888e-06 3.36424569e-06 1.01764745e-05 1.29250229e-05
      1.47803094e-05 1.65942911e-05 1.65716847e-05 1.49839825e-05
      1.37259149e-05 1.29201098e-05 1.19917559e-05 1.10453930e-05
      9.36512060e-06 7.72936255e-06 7.39490497e-06 5.60178023e-06
      2.33529386e-06 7.71473594e-07 3.96718974e-07 1.17729137e-07
      4.40586518e-07 1.17712909e-06 6.43908209e-07 1.38274231e-07
      5.22399478e-06 1.29003201e-05 1.79212002e-05 2.03608834e-05
      2.28140652e-05 2.40840527e-05 2.25606418e-05 2.06206296e-05
      1.83862448e-05 1.61537318e-05 1.53398287e-05 1.32961613e-05
      8.28847806e-06 1.78636378e-06 -4.73572754e-06 -1.02003296e-05
      -1.42622557e-05 -1.75280293e-05 -1.96241654e-05 -2.01517851e-05
      -2.01253333e-05 -2.01416115e-05 -2.01555122e-05 -1.89099246e-05
      -1.48873214e-05 -7.88342822e-06 1.05183756e-06 9.44476687e-06
      1.47387018e-05 1.70372423e-05 1.84642777e-05 1.98679518e-05
      2.05615906e-05 2.03084310e-05 1.98671423e-05 1.83965567e-05
      1.58411913e-05 1.38201376e-05 1.21033017e-05 1.01305259e-05
      8.65709899e-06 6.71491125e-06 3.90282457e-06 1.62561059e-06
      4.96956773e-07 2.23346362e-07 1.95789744e-06 1.50898347e-06
      3.09161038e-07 1.58636590e-06 8.70214626e-06 1.76973426e-05
      2.34598920e-05 2.52835744e-05 2.48251035e-05 2.27915407e-05
      1.93969863e-05 1.63644054e-05 1.38862151e-05 1.28052170e-05
      1.33106450e-05 1.21485855e-05 8.06625576e-06 2.95906716e-06
      -2.50076619e-06 -7.41622898e-06 -1.11806821e-05 -1.48010440e-05
      -1.69395262e-05 -1.71230604e-05 -1.69566210e-05 -1.73579738e-05
      -1.71480333e-05 -1.42747404e-05 -7.90700960e-06 4.95461961e-07
      8.31073157e-06 1.38067016e-05 1.72614837e-05 1.92394491e-05
      2.01559997e-05 2.08403453e-05 2.18812638e-05 2.30221995e-05
      2.36019787e-05 2.25396816e-05 1.98000726e-05 1.68008264e-05
      1.43917669e-05 1.19101505e-05 9.34492164e-06 7.44934732e-06
      5.48909566e-06 2.64773985e-06 8.10479719e-07 5.37438723e-07
      6.00276223e-07 -4.89767558e-07 -1.67157452e-06 2.21426217e-06
      1.19574051e-05 2.09161572e-05 2.50446810e-05 2.55882023e-05
      2.33897190e-05 1.97555019e-05 1.59240299e-05 1.19594752e-05
      8.83814755e-06 8.50627930e-06 1.02363219e-05 1.02756985e-05
      7.19761738e-06 3.28712576e-06 -2.51824702e-07 -4.10780922e-06
      -8.44412625e-06 -1.19093083e-05 -1.30805174e-05 -1.23631035e-05
      -1.20013719e-05 -1.28160500e-05 -1.20679233e-05 -7.26751296e-06
      -3.76500040e-08 6.81515940e-06 1.22430247e-05 1.58284583e-05
      1.85060780e-05 2.02508672e-05 2.03664222e-05 1.98845773e-05
      2.01295679e-05 2.12210598e-05 2.22002818e-05 2.28037006e-05
      2.23391526e-05 1.97285772e-05 1.65213933e-05 1.37332490e-05
      1.08915037e-05 9.15060264e-06 7.38357539e-06 3.94236031e-06
      1.19280844e-06 4.80911012e-07 -2.69212524e-06 -2.84702810e-06
      -2.22931135e-06 2.86436807e-06 1.25065853e-05 2.00884169e-05
      2.23018360e-05 2.21248683e-05 2.00942832e-05 1.62241395e-05
      1.11596009e-05 5.88839112e-06 2.41184307e-06 2.86831164e-06
      6.26294877e-06 8.29751662e-06 6.56070688e-06 3.22556480e-06
      9.02029399e-07 -1.32050866e-06 -5.01367094e-06 -8.25371080e-06
      -9.34163927e-06 -8.79094932e-06 -8.45362229e-06 -9.03792898e-06
      -7.33132674e-06 -1.02412002e-06 6.14678083e-06 1.12557191e-05
      1.48974441e-05 1.79003728e-05 1.95368157e-05 1.88470494e-05
      1.66521640e-05 1.46111825e-05 1.46967795e-05 1.70424937e-05
      1.93475425e-05 2.11348979e-05 2.26506927e-05 2.20713264e-05
      1.92681728e-05 1.58095372e-05 1.27819558e-05 1.04436695e-05
      7.95093092e-06 4.72550391e-06 2.05226343e-06 1.04926221e-06
      -5.39827306e-06 -3.88552508e-06 -9.23951234e-07 3.45716785e-06
      1.02641416e-05 1.59448373e-05 1.80548013e-05 1.78924329e-05
      1.61354092e-05 1.20191935e-05 5.90081981e-06 4.84789062e-08
      -3.31313254e-06 -2.45991237e-06 1.81439646e-06 5.72149838e-06
      5.96181235e-06 3.36687049e-06 1.71905015e-06 1.38821702e-06
      -5.71112764e-07 -4.35490438e-06 -7.08156495e-06 -7.27251381e-06
      -6.86195108e-06 -6.24021777e-06 -3.18682260e-06 3.35177265e-06
      1.00353345e-05 1.43329689e-05 1.72394994e-05 1.95860684e-05
      1.92495190e-05 1.53295496e-05 1.08704844e-05 8.11122027e-06
      8.69635005e-06 1.25672905e-05 1.64830381e-05 1.91502422e-05
      2.13672192e-05 2.28229928e-05 2.11707502e-05 1.72407326e-05
      1.43187708e-05 1.14456107e-05 7.94848984e-06 5.20424283e-06
      2.98951977e-06 1.95961297e-06 -5.80712231e-06 -3.41414216e-06
      3.47672909e-07 3.15889611e-06 6.88565115e-06 1.15243402e-05
      1.47929968e-05 1.46837638e-05 1.13728966e-05 6.75828778e-06
      1.83561724e-06 -2.67585779e-06 -5.51280937e-06 -5.10059363e-06
      -1.75572688e-06 2.55622308e-06 4.78799257e-06 3.87392129e-06
      3.26376994e-06 4.59336434e-06 3.69120653e-06 -1.86034367e-06
      -6.81298934e-06 -7.30991269e-06 -6.08649680e-06 -3.56068790e-06
      1.05050447e-06 6.74354442e-06 1.20630557e-05 1.62531942e-05
      1.86077905e-05 1.88408249e-05 1.61073858e-05 1.11049058e-05
      7.04503782e-06 5.04528907e-06 5.39541816e-06 8.45215163e-06
      1.30354692e-05 1.69838895e-05 1.97282625e-05 2.15199980e-05
      2.05150172e-05 1.73172648e-05 1.50105552e-05 1.26382174e-05
      9.22796880e-06 6.24631139e-06 3.78555092e-06 2.57801935e-06
      -4.06037589e-06 -1.98545786e-06 1.14897716e-06 2.62523122e-06
      4.11893416e-06 7.36136553e-06 1.05107156e-05 1.01849982e-05
      6.44949250e-06 2.46945069e-06 -2.99676714e-07 -3.50669711e-06
      -5.91832804e-06 -5.65163646e-06 -2.77280037e-06 1.33395895e-06
      3.90597279e-06 3.83970928e-06 4.17774163e-06 6.22723564e-06
      5.12449424e-06 -2.06431127e-06 -8.61439730e-06 -9.36067045e-06
      -7.56340887e-06 -3.55065686e-06 2.58185946e-06 8.42620921e-06
      1.37014986e-05 1.76995745e-05 1.87520727e-05 1.67133458e-05
      1.26234327e-05 8.12875351e-06 5.39873872e-06 4.42047622e-06
      4.15075147e-06 5.38832501e-06 9.69641860e-06 1.48084710e-05
      1.79924536e-05 1.96014407e-05 1.90121136e-05 1.68178940e-05
      1.51923514e-05 1.36214367e-05 1.11244099e-05 8.17853106e-06
      5.17717126e-06 3.74738761e-06 -1.89463162e-06 -5.34347862e-07
      1.40245095e-06 2.17951265e-06 2.67105793e-06 3.75262448e-06
      4.74354738e-06 4.36303753e-06 2.41654948e-06 5.43229191e-07
      -1.23320137e-06 -3.91863705e-06 -5.86029091e-06 -4.63735341e-06
      -8.42866257e-07 2.82616156e-06 4.07703828e-06 3.16969522e-06
      3.34672177e-06 4.77903131e-06 2.42753322e-06 -5.47962554e-06
      -1.22325155e-05 -1.34886423e-05 -1.18865228e-05 -7.26274448e-06
      1.73348539e-07 7.60439525e-06 1.40286602e-05 1.78013524e-05
      1.73592744e-05 1.46890552e-05 1.10513329e-05 7.13686268e-06
      4.88344222e-06 4.04423781e-06 3.27365683e-06 3.53553537e-06
      7.43391092e-06 1.28222509e-05 1.61547650e-05 1.80636744e-05
      1.81489704e-05 1.64939738e-05 1.52149814e-05 1.41301953e-05
      1.22025313e-05 9.67890992e-06 6.85858367e-06 5.37693222e-06
      -7.84919564e-07 -6.63794708e-08 1.20608217e-06 1.80374741e-06
      1.70010833e-06 1.42479109e-06 1.12817031e-06 7.97985081e-07
      3.78201122e-07 -3.31224669e-07 -1.82695101e-06 -3.82782127e-06
      -4.14642591e-06 -1.57935824e-06 2.08015058e-06 4.73908904e-06
      4.71631438e-06 2.51331835e-06 1.39083261e-06 9.46807916e-07
      -2.95125437e-06 -1.06132229e-05 -1.68199040e-05 -1.85682748e-05
      -1.69978102e-05 -1.18328890e-05 -3.80082929e-06 4.06362460e-06
      1.05727586e-05 1.43315701e-05 1.45107842e-05 1.29729269e-05
      1.04076971e-05 7.00013061e-06 4.72091961e-06 3.41204327e-06
      2.11145402e-06 2.35641983e-06 6.34693424e-06 1.15066441e-05
      1.44302339e-05 1.62489341e-05 1.69656905e-05 1.61510470e-05
      1.52750672e-05 1.42624503e-05 1.21569065e-05 9.28752524e-06
      6.75574802e-06 5.69782151e-06 -7.39151460e-07 -2.90918024e-07
      6.80032144e-07 1.23344432e-06 9.45254612e-07 3.92550504e-07
      1.30402029e-07 4.47106316e-08 -6.12522086e-08 -6.37829714e-07
      -2.00072714e-06 -2.75770913e-06 -1.26732937e-06 2.16672333e-06
      5.30010720e-06 6.70056988e-06 5.56822988e-06 2.44466878e-06
      -3.43916042e-07 -3.42049248e-06 -9.13582971e-06 -1.61914631e-05
      -2.10229246e-05 -2.24363775e-05 -2.07165649e-05 -1.51185086e-05
      -7.08029438e-06 -1.10466260e-07 5.06425158e-06 8.65542370e-06
