<?xml version="1.0"?>
<opencv_storage>
<my_svm type_id="opencv-ml-svm">
  <svm_type>C_SVC</svm_type>
  <kernel><type>LINEAR</type></kernel>
  <C>100.</C>
  <term_criteria><epsilon>2.2204460492503131e-16</epsilon>
    <iterations>1000</iterations></term_criteria>
  <var_all>2500</var_all>
  <var_count>2500</var_count>
  <class_count>10</class_count>
  <class_labels type_id="opencv-matrix">
    <rows>1</rows>
    <cols>10</cols>
    <dt>i</dt>
    <data>
      0 1 2 3 4 5 6 7 8 9</data></class_labels>
  <sv_total>45</sv_total>
  <support_vectors>
    <_>
      -3.33763419e-05 -9.52100072e-06 7.19044283e-06 -4.10414505e-05
      -1.83355023e-05 -4.67343716e-06 -2.16774642e-05 -5.30381294e-06
      3.91780668e-06 -1.90738592e-05 -8.14927989e-06 -3.28109491e-06
      -4.15305876e-05 -3.55187294e-05 -3.53379983e-05 -1.92542411e-05
      -1.49593270e-05 -1.62958167e-05 -1.87419391e-05 -1.61324097e-05
      -1.26871973e-05 -9.63958428e-06 -4.62107892e-06 -1.95506473e-07
      2.16345779e-05 2.57003212e-05 3.45551780e-05 2.18423211e-05
      2.44238272e-05 3.48388712e-05 -5.53179643e-06 -3.96821497e-06
      4.96863368e-06 -9.95514893e-06 -1.10714172e-05 -2.98600662e-06
      -1.99387478e-06 -2.46771583e-06 3.83179668e-06 -2.08716410e-05
      -2.22538056e-05 -1.48116951e-05 -1.96195033e-05 -1.53704586e-05
      -9.41385861e-06 6.13471047e-06 9.67163396e-06 1.45254180e-05
      -3.73420846e-07 -1.53131223e-05 -4.36435184e-05 -3.48116555e-05
      -2.77985691e-05 -1.93533724e-05 -1.97994395e-05 -1.39888389e-05
      -1.24814251e-05 -2.32358361e-05 -2.20178445e-05 -4.90304883e-05
      -6.11087962e-05 -6.34820390e-05 -5.11017897e-05 -6.82520840e-05
      -7.56179143e-05 -6.26823009e-07 -2.39793044e-05 -3.17542872e-05
      1.36168192e-05 -6.78584047e-06 -1.32313153e-05 3.08455856e-05
      8.07808738e-06 2.45251022e-06 4.21359218e-05 2.05586457e-05
      1.53711990e-05 4.95120257e-05 2.79431788e-05 2.27394685e-05
      4.98452682e-05 2.56205840e-05 2.10666312e-05 3.12482443e-05
      6.37634912e-06 1.34822358e-06 1.39497261e-05 -1.15358880e-05
      -2.10654725e-05 -1.44765354e-05 -4.81869101e-05 -5.53033387e-05
      -4.10634721e-06 -2.89871241e-05 -3.47657624e-05 4.82862306e-05
      3.01403797e-05 2.39238452e-05 8.55373582e-06 1.42822264e-05
      -3.68488472e-05 -3.85516105e-05 -5.50741288e-06 -3.34260840e-05
      -3.78464792e-05 -6.02916407e-06 -4.43927311e-05 -5.40937835e-05
      -2.76424107e-05 -9.33272531e-06 -2.43698614e-05 -5.95086885e-06
      -1.79778981e-05 -4.02928963e-05 -2.76339179e-05 4.32881689e-06
      -2.32642360e-05 -1.27804024e-05 3.98209977e-06 -2.75453949e-05
      -1.41391383e-05 2.87137300e-05 -3.37448751e-06 1.02496706e-05
      6.14383898e-05 2.92332479e-05 4.43380231e-05 6.69694418e-05
      3.24815046e-05 5.24977804e-05 6.70194568e-05 2.75642305e-05
      4.96931643e-05 4.90679413e-05 1.13071419e-05 2.00535942e-05
      2.06499826e-05 -1.60134332e-05 5.59777527e-06 -5.38549011e-06
      -4.02012993e-05 -1.37824927e-05 7.12066822e-06 -2.44858948e-05
      6.07966695e-06 4.78329130e-05 1.73269182e-05 2.49902550e-05
      1.84568071e-05 2.64209871e-06 -4.34277135e-05 -1.00664856e-05
      3.60961690e-06 -2.70706623e-05 3.18877968e-09 9.78063417e-06
      -7.08981531e-07 1.80339193e-05 1.92945045e-05 4.02032783e-05
      4.93696789e-05 4.27391387e-05 1.66187947e-05 1.68479328e-05
      2.54382257e-06 2.16632907e-05 1.53979327e-05 -3.43908187e-06
      2.36987726e-05 1.55377238e-05 -4.76814421e-06 4.74633380e-05
      4.04919665e-05 2.22207891e-05 7.21820106e-05 6.57409037e-05
      4.80686176e-05 6.69297660e-05 5.92341239e-05 4.31399276e-05
      4.26304468e-05 3.83900951e-05 2.17966845e-05 4.29235843e-05
      3.91183457e-05 2.39897854e-05 4.88479891e-05 4.91494648e-05
      3.57427598e-05 9.71320787e-06 1.49055104e-05 5.76363891e-06
      -3.93782244e-07 9.86134182e-06 5.03844149e-06 1.46809634e-05
      8.58953899e-06 3.25834444e-05 -1.25477882e-05 -2.09055725e-05
      -2.53815342e-05 -1.64256562e-05 -8.88361285e-07 -4.60627598e-06
      -1.81739188e-06 1.09388357e-05 2.82822984e-05 2.55240266e-05
      3.16164806e-05 4.02156984e-05 2.36630603e-05 2.19394969e-05
      1.22061801e-05 -1.83701613e-05 -2.95750524e-05 4.13466769e-05
      4.77262574e-06 -1.91685722e-05 4.17748925e-05 5.12263478e-06
      -2.21969203e-05 5.48244716e-05 1.64446919e-05 -1.20078539e-05
      8.27506083e-05 3.29544746e-05 8.70757140e-06 7.20552853e-05
      3.58504039e-05 1.50733422e-05 4.83467302e-05 1.20176628e-05
      -5.85123780e-06 5.27893426e-05 2.44709281e-05 1.16917618e-05
      4.66991187e-05 2.98647483e-05 2.19070553e-05 2.95381233e-05
      1.12617736e-05 1.00973812e-05 2.40201643e-05 1.33982367e-05
      1.76682679e-05 1.49591378e-05 3.43730608e-05 4.12466616e-05
      1.72202635e-05 3.57211502e-05 -9.78509161e-06 -1.26574469e-06
      3.82662911e-05 8.36435902e-06 1.25423858e-05 4.35951952e-05
      2.45832762e-05 2.15591554e-05 4.44531433e-05 1.41354431e-05
      -8.65784841e-06 7.30181773e-06 7.14367525e-06 -2.75674556e-05
      -2.34524396e-05 2.76824339e-05 -1.48240269e-05 -1.82302902e-05
      2.21510873e-05 -2.22474555e-05 -3.94527233e-05 3.16215264e-05
      -1.30582048e-05 -2.31863251e-05 4.32576126e-05 2.48249125e-06
      -1.04798128e-05 5.38704080e-05 1.80581592e-05 7.81835115e-06
      3.71190981e-05 8.39619861e-06 2.25539088e-06 2.31281847e-05
      1.92450375e-06 -3.54038775e-06 2.24253436e-05 1.08246477e-05
      9.07215963e-06 2.94119218e-05 2.59392891e-05 2.98533505e-05
      4.86897225e-05 5.36710104e-05 5.74275946e-05 6.47732159e-05
      6.39286227e-05 7.25061545e-05 4.60065276e-05 4.81203715e-05
      1.37234838e-06 3.20351974e-05 4.27367959e-05 -5.95610391e-06
      1.55718681e-05 2.03233849e-05 -4.42488181e-06 2.19584095e-07
      -5.11065718e-06 1.12393100e-05 -1.40804548e-06 -2.04140870e-05
      1.45404956e-05 -1.57563591e-05 -4.74057742e-05 3.47255118e-05
      5.59316686e-06 -3.39395519e-05 3.79394587e-05 6.34297112e-06
      -3.93894807e-05 4.85267847e-05 1.75745463e-05 -3.03149191e-05
      2.63714337e-05 -2.13443923e-06 -4.67814098e-05 1.67215003e-05
      -7.47740069e-06 -4.82061441e-05 1.28875922e-06 -1.92363859e-05
      -5.24190618e-05 2.05185415e-08 -1.40457978e-05 -4.22052799e-05
      1.36339104e-05 9.47530589e-06 -1.13424512e-05 3.03685829e-05
      3.33964526e-05 1.92323896e-05 2.39942310e-05 2.41373327e-05
      4.27594932e-05 2.86745562e-05 2.75461298e-05 5.08910052e-05
      2.52197042e-05 2.55272025e-05 1.38381174e-05 3.17882732e-05
      3.45489461e-05 1.92809566e-05 2.87833864e-05 3.21960615e-05
      3.20593099e-05 2.68200019e-05 2.28263725e-05 9.01791100e-06
      -1.05852714e-05 -1.64132853e-05 3.43257962e-05 -1.25282677e-05
      -3.12207121e-05 2.33858336e-05 -2.69302873e-05 -5.60177177e-05
      1.76875001e-05 -3.42627100e-05 -7.11267858e-05 2.01262756e-05
      -2.56763760e-05 -6.24105596e-05 -1.56968545e-05 -4.91613173e-05
      -8.16466199e-05 -4.27328923e-05 -6.58374702e-05 -9.22033578e-05
      -3.63757572e-05 -5.37822525e-05 -7.31559339e-05 -1.37072739e-05
      -2.23916522e-05 -3.49025686e-05 -2.90598859e-06 4.71581728e-07
      -3.55811358e-06 -3.99484497e-06 9.00903433e-06 1.17034951e-05
      -2.40197078e-05 1.96169512e-05 8.90975934e-06 -1.51102358e-05
      2.90904554e-05 2.04397038e-05 -1.89697530e-05 2.07875528e-05
      2.76829123e-05 2.84283396e-05 5.44782633e-05 3.06556794e-05
      3.39911458e-05 4.65500088e-05 4.37936578e-05 4.47892962e-05
      3.56770834e-05 2.87705698e-05 1.35774362e-05 -3.90225478e-06
      5.03212177e-05 1.86321104e-05 -1.79741801e-05 2.04622447e-05
      -1.70041658e-05 -5.90823802e-05 5.89806450e-06 -2.97353236e-05
      -7.03349579e-05 -1.41473802e-05 -4.30480395e-05 -8.26982214e-05
      -4.45328951e-05 -6.38736601e-05 -9.77424206e-05 -3.85513049e-05
      -4.83828990e-05 -7.36668371e-05 -9.00882515e-06 -8.07780725e-06
      -3.07686059e-05 -7.36829634e-06 6.44264844e-07 -1.59631927e-05
      -9.54387087e-06 6.05235437e-06 -5.73647321e-06 -1.18329490e-05
      8.77060393e-06 -4.19829712e-06 2.57362331e-06 5.62857531e-06
      -1.35345590e-06 6.92141441e-07 5.69997792e-06 3.90173727e-06
      -3.67294092e-07 8.03549938e-06 2.95725367e-05 5.20330650e-05
      5.31720179e-05 1.49126345e-05 2.36655069e-05 1.83113443e-05
      2.85506667e-05 1.53120563e-05 -2.59293483e-06 9.45740794e-06
      -2.23311363e-05 -5.27054726e-05 2.40281406e-05 -2.48602755e-05
      -7.07801883e-05 2.01674284e-05 -3.53786927e-05 -9.03173204e-05
      1.12298258e-05 -4.29818137e-05 -1.01198639e-04 -5.49452034e-06
      -5.20728026e-05 -1.05536652e-04 -1.07065871e-05 -5.40267392e-05
      -9.74513750e-05 9.81736775e-06 -1.90193696e-05 -5.76699713e-05
      1.43005700e-05 -6.48948617e-06 -3.37003439e-05 1.13813903e-05
      -8.06248238e-07 -2.46276104e-05 9.46833370e-06 2.47615844e-06
      -1.55187354e-05 6.19116645e-06 -4.18639229e-06 3.58296211e-06
      6.61704325e-06 -2.09825785e-07 7.53704444e-06 -3.85249592e-07
      7.98915607e-06 1.33118529e-05 1.99206875e-06 1.36486397e-05
      1.49576290e-05 2.08445108e-05 3.67161592e-05 -6.83360486e-06
      -1.24027283e-05 2.45899923e-06 1.76494086e-05 4.95230188e-06
      6.97239466e-06 -1.36667277e-05 -3.74979718e-05 -4.81263560e-05
      -1.42937029e-06 -3.98923548e-05 -6.28857742e-05 7.24055690e-06
      -3.21226798e-05 -5.96098362e-05 -1.27337353e-05 -4.73607251e-05
      -7.56385925e-05 -2.76971932e-05 -5.50363075e-05 -7.90323902e-05
      -4.15041541e-06 -1.21620360e-05 -2.86279228e-05 -3.03834599e-06
      -5.30483112e-06 -1.60623968e-05 -5.83167866e-06 1.05948118e-06
      -3.84502482e-06 -9.67669621e-06 2.89792092e-06 1.41908708e-06
      -1.43171428e-05 4.51660981e-06 4.06531262e-06 -1.97172722e-05
      2.16023600e-05 1.24567541e-05 -4.97814426e-06 2.26537377e-05
      1.50590186e-05 6.74068019e-07 2.37335316e-05 1.40019320e-05
      -4.69360293e-06 1.17368190e-05 -7.44875661e-06 3.25439100e-06
      2.20103375e-05 -2.07086177e-05 -8.05954369e-06 5.56429677e-06
      4.75702245e-06 3.10457972e-06 8.95251651e-06 -3.68462388e-05
      -5.04784039e-05 -6.11291252e-05 -1.60710624e-05 -4.36022710e-05
      -6.29469796e-05 -1.15805769e-05 -4.37526032e-05 -6.89578010e-05
      -1.76570338e-05 -4.51871092e-05 -7.12092296e-05 -1.26392033e-05
      -2.93599642e-05 -5.42454618e-05 -1.84652004e-06 -7.96695349e-06
      -2.70525943e-05 9.41415692e-07 3.67948428e-06 -9.85833685e-06
      -1.70453325e-06 6.68274834e-06 -3.53024870e-06 -6.97446285e-06
      5.87838122e-06 -6.52102017e-06 -8.40129087e-06 1.23703348e-05
      -1.08529957e-05 1.23071013e-05 1.23643422e-05 -2.20245829e-06
      1.96462170e-05 1.48195950e-05 1.31418903e-06 1.17515883e-05
      6.14511328e-06 4.15307113e-06 -6.05456398e-06 -6.25048233e-06
      1.17390555e-05 2.19223657e-05 2.24362484e-05 1.97938334e-05
      1.38483601e-05 8.79110576e-06 -8.20078549e-06 -2.69881621e-05
      -3.92562870e-05 -1.30106273e-05 -4.44189427e-05 -6.12633085e-05
      7.60204694e-06 -3.61989405e-05 -6.29370043e-05 -6.83123608e-06
      -5.65314840e-05 -8.34067978e-05 -3.23311610e-06 -4.95396853e-05
      -7.43063283e-05 2.25433141e-05 -1.71151496e-05 -3.59967125e-05
      1.72336040e-05 -1.42932286e-05 -2.68957228e-05 1.71516913e-05
      -7.12448764e-06 -1.73946610e-05 8.17373621e-06 -2.38132429e-06
      -6.97569021e-06 4.59428838e-06 -1.47763171e-06 -5.88958164e-06
      3.62506762e-06 -6.21813297e-06 1.53047731e-05 2.60638694e-06
      -6.54838823e-06 1.14036820e-05 8.79988693e-06 -3.97584927e-07
      9.35440585e-06 7.06524497e-06 1.74117218e-07 -3.62207243e-06
      -1.00697671e-05 8.10818733e-07 -2.65524477e-06 2.42585429e-05
      4.25519029e-05 -9.69177222e-07 2.17054421e-05 3.71522256e-05
      -3.29422292e-05 -2.39295769e-05 -1.66219961e-05 -2.42152164e-05
      -2.73486094e-05 -2.85301448e-05 -1.61772587e-05 -3.16050864e-05
      -3.69994450e-05 -3.16701080e-05 -5.08387930e-05 -5.75384729e-05
      -1.07716514e-05 -2.46207674e-05 -2.93078392e-05 -4.01288617e-06
      -1.08911099e-05 -1.22573674e-05 -7.48490538e-06 -1.20871491e-05
      8.63268426e-08 -4.14605847e-06 -4.32172919e-06 8.19980141e-06
      -2.68356098e-06 1.97691224e-06 1.16837509e-05 -4.02085197e-06
      -3.08797576e-06 4.74892568e-06 -2.34303807e-05 1.61391145e-05
      2.63159836e-06 -1.88325375e-05 1.40897664e-05 5.87074646e-06
      -9.89677847e-06 1.25550814e-05 9.80939785e-06 -1.02657132e-05
      3.46552406e-06 3.26550048e-06 -1.27546855e-05 -1.46491732e-06
      -1.99666174e-05 9.51008769e-06 1.88792928e-05 -1.54426398e-05
      8.99586303e-06 1.52976845e-05 6.84334054e-06 2.22786493e-05
      2.31578506e-05 -1.56348742e-05 -1.23175978e-05 -1.38287032e-05
      -2.38485445e-05 -3.25770961e-05 -3.86789106e-05 -2.70805158e-05
      -3.91095273e-05 -4.81678180e-05 1.97558302e-06 -5.84841882e-06
      -2.16564713e-05 -5.28478813e-06 -5.43691931e-06 -2.06666537e-05
      7.13612451e-07 6.48518562e-06 1.51504025e-06 1.11124132e-06
      1.06426487e-05 1.24802546e-06 -5.73269290e-06 3.84970690e-06
      4.86158388e-06 -1.38279202e-05 1.44913815e-06 3.02259679e-07
      -7.71219220e-07 2.52268774e-06 5.99384384e-06 -1.29000682e-06
      3.95362667e-06 1.27751873e-05 -1.65023710e-06 2.27850961e-07
      1.29198861e-05 -1.16816209e-05 -8.02418435e-06 1.79004219e-05
      -1.74229372e-05 -1.60350683e-05 8.95019355e-07 4.62748403e-06
      1.37741736e-05 5.40603924e-06 5.96480777e-06 1.29189539e-05
      4.41154880e-05 3.82071266e-05 4.21076293e-05 9.94868969e-07
      -1.25358865e-05 -1.19168362e-05 -8.98385588e-06 -3.19442079e-05
      -3.59736732e-05 -7.82975894e-06 -2.63044349e-05 -3.11818330e-05
      7.36350557e-06 -9.37631739e-06 -1.66017435e-05 1.03144484e-05
      -7.15126498e-06 -1.20001841e-05 7.16741624e-06 -8.04138926e-06
      -1.65233378e-05 6.23237520e-06 -5.37647429e-06 -1.42919698e-05
      1.05348099e-05 -1.81989162e-06 -7.88668694e-06 5.29375711e-06
      -9.92311834e-06 6.85070518e-06 2.09778705e-06 -5.24648340e-06
      9.08247330e-06 4.57328269e-06 -2.44252851e-06 7.35930826e-06
      4.09735640e-06 -3.89163188e-06 1.04582580e-06 -6.96110692e-06
      -3.36138305e-06 -4.84483780e-06 -1.26667846e-05 3.99183278e-07
      -2.76270221e-05 5.69570238e-06 2.44468501e-05 -1.27162702e-05
      1.52834164e-05 3.70710732e-05 6.09939207e-06 2.39641067e-05
      5.05679018e-05 -3.69932604e-05 -3.09581301e-05 2.80062341e-06
      -2.11344086e-05 -2.62652102e-05 3.36716607e-06 -8.90175579e-06
      -8.72857436e-06 1.17339023e-05 -8.04434148e-06 -1.54115824e-05
      3.21924017e-06 -1.40109896e-05 -7.94472635e-06 3.25960741e-06
      -7.14331600e-06 1.67599524e-06 8.22478250e-06 -1.56243423e-05
      -6.57969758e-06 1.40217344e-06 -1.40038128e-05 -6.40765256e-06
      5.74658861e-06 -1.28072907e-05 1.62915803e-05 1.62930519e-05
      -1.25371744e-05 1.40440716e-05 1.80256684e-05 -1.47850078e-05
      8.14397572e-06 1.15972398e-05 -5.63433514e-06 8.93029028e-06
      9.64036462e-06 -9.06652440e-06 1.06680864e-06 2.57948136e-06
      -2.49644563e-05 -8.99882525e-06 -3.30252151e-05 -2.72926559e-06
      1.29257251e-05 -2.55988543e-05 4.56509724e-06 1.05919207e-05
      -3.43814759e-06 2.36743981e-05 3.37378187e-05 -3.51951312e-05
      -1.46041048e-05 3.65423631e-07 -1.37421102e-05 6.80599896e-06
      1.14205368e-05 -2.29559519e-05 -2.74129115e-06 4.02809337e-06
      -2.14979354e-05 3.95537563e-06 4.23010624e-06 -1.90468909e-05
      7.87675071e-06 2.07158382e-06 -1.76144404e-05 7.40132100e-06
      -1.25183055e-06 -1.98653088e-05 3.67275766e-06 -2.00964882e-06
      -1.30943636e-05 3.34449919e-06 -1.61712720e-07 6.48060904e-06
      9.47777244e-06 9.98165615e-06 2.57872421e-06 3.87706268e-06
      1.05823328e-05 5.72627323e-06 3.36561652e-06 1.18170583e-05
      2.96321628e-06 -1.72955515e-06 1.13421165e-05 -1.13549286e-05
      -9.74471823e-06 1.88738813e-05 -1.40473767e-05 2.62783078e-06
      -3.26595036e-05 -1.23109194e-05 5.17338094e-06 -1.60895670e-05
      3.99035486e-07 1.41301352e-05 -4.07797143e-06 4.37173640e-06
      1.79913113e-05 -2.80524673e-05 -2.81750945e-05 -1.84228866e-05
      1.53835445e-05 4.68088683e-06 1.03428174e-05 1.97626650e-06
      -1.34554402e-05 -1.51841759e-05 -1.15711646e-06 -1.11333120e-05
      -2.13938474e-05 6.97585892e-06 1.43616148e-07 -1.51785780e-05
      6.19017510e-06 3.33739898e-08 -1.99207680e-05 5.81337008e-06
      9.18161618e-07 -1.64469202e-05 1.26827008e-05 -3.81231553e-06
      4.24975633e-06 1.14261265e-05 -2.99768067e-06 8.41803740e-06
      1.07741707e-05 -2.72265129e-06 1.03083294e-05 1.60375785e-05
      3.69886402e-06 1.12538319e-05 1.94161785e-05 1.92929037e-05
      1.31093120e-05 -6.69484416e-06 9.91442084e-06 -1.41478836e-06
      -2.13637941e-05 1.42839317e-05 -5.96326645e-05 -3.14481367e-05
      1.61540920e-05 -2.50819107e-06 1.69520335e-05 5.91815078e-05
      -2.45371357e-05 -5.13833129e-07 4.30191540e-05 -4.69527986e-05
      -2.84119342e-05 1.12657726e-05 -6.72427268e-06 3.70157477e-06
      4.01692560e-05 -1.68544939e-05 -1.11104246e-05 1.94718705e-05
      -2.37716995e-05 -1.27147368e-05 8.80561220e-06 -1.89486018e-05
      -7.66852372e-06 5.98140787e-06 -1.47295450e-05 -2.31133845e-06
      3.97280837e-06 -8.24729796e-06 4.66765277e-06 1.39117083e-05
      -1.58346993e-05 1.45532986e-05 8.54200789e-06 -1.22524561e-05
      2.07164776e-05 1.75749428e-05 3.77686797e-06 2.47993521e-05
      2.35415846e-05 8.34473940e-06 6.94501387e-06 8.68317329e-06
      1.01453388e-05 9.60001898e-07 -1.90070364e-06 4.43587896e-06
      -1.62638582e-06 -9.75398143e-06 -1.37032503e-05 -1.79067029e-05
      -5.13814775e-05 1.18531409e-06 2.92818968e-05 -1.83532738e-05
      3.37774218e-05 6.09117051e-05 -4.93082152e-05 1.33610195e-06
      2.75539260e-05 -5.08651028e-05 -8.27543136e-06 1.42021818e-05
      -1.45888189e-05 2.09957161e-05 3.77961260e-05 -2.35297102e-05
      1.57406828e-06 1.31949591e-05 -2.26295870e-05 2.75230832e-06
      8.90597039e-06 -1.53581950e-05 1.01499973e-05 1.12426997e-05
      -1.42374056e-05 1.12870275e-05 1.12014623e-05 3.26682266e-06
      2.32702441e-05 9.20182538e-06 1.87307287e-05 2.00686864e-05
      3.79463131e-06 1.65717265e-05 1.51616532e-05 3.93560367e-06
      1.72147011e-05 1.32228406e-05 8.71654447e-06 1.11360096e-05
      3.33718413e-06 1.27931371e-05 -1.25553597e-05 -2.17049601e-05
      -8.30127919e-06 -3.38651625e-05 -4.32567394e-05 -1.78053378e-05
      -2.52216414e-05 -3.15516299e-05 2.57023294e-06 2.25845451e-05
      4.47891689e-05 6.44838281e-07 1.94232489e-05 3.78786353e-05
      -3.24716566e-05 -1.61019998e-05 -6.62915568e-07 -2.10155795e-05
      -1.04880382e-05 1.79887115e-06 1.16160691e-05 1.62815213e-05
      2.41396556e-05 -4.43806721e-06 -8.05099353e-06 -5.43730494e-06
      -2.55363545e-07 -1.64556138e-06 -2.17280194e-06 1.75388086e-05
      1.85853914e-05 1.38399300e-05 1.91552608e-05 1.87430542e-05
      1.01818268e-05 2.29237157e-05 8.40426310e-06 1.95344510e-05
      4.36640630e-06 5.47919853e-06 1.54541558e-05 7.72334533e-06
      7.93288473e-06 1.26707328e-05 1.50269552e-05 1.43165962e-05
      1.51662116e-05 -1.11748177e-05 -6.55289432e-06 -1.61536409e-05
      -4.64914083e-05 -3.23459935e-05 -5.36094303e-05 -4.45697187e-05
      -2.77597483e-05 -5.01020040e-05 -1.30806266e-05 5.55847782e-06
      -3.05301255e-05 1.49894186e-05 6.92347385e-05 -3.61312013e-05
      9.12482574e-06 6.18438789e-05 -5.19166351e-05 -1.12370981e-05
      3.78450095e-05 -3.70326779e-05 -4.12331474e-06 3.85299682e-05
      -9.06823607e-06 1.56607912e-05 5.17981280e-05 -1.96534529e-05
      -1.43539546e-06 2.76485534e-05 -9.66134166e-07 7.63364915e-06
      2.93957837e-05 4.50793868e-06 1.11550789e-05 2.43874802e-05
      1.61168427e-05 1.29932678e-05 1.54167956e-05 -6.15950330e-06
      1.59321662e-05 7.58557735e-06 -5.93037612e-06 1.96695091e-05
      7.19660511e-06 2.90000094e-06 1.50737278e-05 -6.94557059e-07
      1.49338700e-06 1.17618401e-05 -2.60692173e-06 -3.16900587e-05
      -2.95570480e-05 -4.42638047e-05 -4.01212164e-05 -4.29362335e-05
      -6.14936580e-05 -1.84589335e-05 -2.22023100e-05 -3.97130752e-05
      -1.02988247e-06 -5.22284381e-07 -4.84931588e-05 1.40390184e-05
      5.08978083e-05 -4.35823895e-05 1.60907439e-05 4.97990150e-05
      -5.02439216e-05 5.76704360e-06 4.30429063e-05 -2.79468550e-05
      1.99836304e-05 4.55230547e-05 -8.73774115e-06 3.13391429e-05
      5.20531794e-05 -1.89554448e-05 7.01673935e-06 2.46260788e-05
      6.75407864e-06 2.93103567e-05 3.03544512e-05 -3.58197212e-06
      1.42731878e-05 2.01333787e-05 9.29662656e-06 1.87708702e-05
      1.57402621e-06 1.30408089e-05 1.47954079e-05 8.79619733e-07
      5.28548753e-06 3.98876000e-06 -2.99024350e-07 6.81118263e-06
      3.34789843e-06 3.59842579e-06 -5.27105385e-06 -1.37591542e-05
      2.91397419e-06 -5.33468774e-05 -6.47521520e-05 -3.38022874e-05
      -3.50281225e-05 -4.92574654e-05 -2.40612299e-05 -9.33996125e-06
      -2.47207299e-05 -1.21096355e-06 -9.30453643e-06 -2.24696159e-05
      -5.40266992e-05 -1.97607314e-05 7.19787795e-06 -1.42249355e-05
      1.74510387e-05 4.45412334e-05 -2.46472791e-05 1.02647746e-05
      3.48692920e-05 -1.64761368e-05 1.36320714e-05 3.63957952e-05
      1.51142922e-05 3.40472434e-05 5.45125949e-05 -4.10436178e-06
      1.02762742e-05 2.37707518e-05 2.23077291e-06 1.58966159e-05
      2.18363894e-05 4.86766930e-06 1.60758191e-05 1.48192421e-05
      9.01418025e-06 -4.92606631e-08 9.58839428e-06 1.46774823e-06
      -1.01359763e-06 5.12000133e-06 4.65240419e-06 5.50358209e-06
      3.25756969e-06 1.14131753e-05 1.15940129e-05 2.80021482e-06
      -3.05010635e-05 -2.86426402e-05 -4.06406034e-05 -5.06241158e-05
      -4.06707077e-05 -5.37401866e-05 -1.17245154e-05 -3.26114417e-07
      -1.34495140e-05 4.38562395e-08 1.12585540e-05 -2.98183704e-06
      -4.44919033e-06 6.47592515e-06 -3.25641267e-05 7.54990242e-06
      5.58795691e-05 -1.53110032e-05 2.28233821e-05 6.92827889e-05
      -3.39630569e-05 2.24094265e-06 4.61952222e-05 -2.54104434e-05
      -1.42902115e-06 4.19288153e-05 3.54448980e-06 1.93553678e-05
      6.08258779e-05 -1.90298624e-06 7.21199694e-06 3.41158375e-05
      7.03322848e-06 8.99772294e-06 2.15652490e-05 6.93886659e-06
      2.01483999e-05 2.12115883e-05 -1.79133731e-05 2.03195159e-05
      8.03305920e-06 -1.54906775e-05 2.32205766e-05 8.07548440e-06
      -9.06986224e-06 2.71345143e-05 8.25124243e-06 -2.13481453e-05
      5.59318232e-06 -9.92202786e-06 -4.92658364e-05 -3.63792242e-05
      -4.34929061e-05 -1.84968103e-05 -1.52335515e-05 -1.86373618e-05
      2.47053913e-06 -5.18329080e-06 -8.78944502e-06 7.80522078e-06
      2.02780075e-06 2.68681122e-09 7.92205981e-07 -1.15698404e-05
      -6.34710013e-05 -7.62495665e-06 2.03847358e-05 -3.52928182e-05
      1.86352136e-05 4.18580858e-05 -2.79272899e-05 2.35414282e-05
      5.33318780e-05 -1.81736668e-05 2.62108297e-05 5.87090035e-05
      3.76086086e-06 3.90946188e-05 6.59499565e-05 -7.28572013e-06
      2.71998829e-06 3.30156799e-05 -3.36386233e-06 3.17322929e-06
      2.72217512e-05 8.11502923e-06 1.25663728e-05 6.06041840e-06
      -3.28250349e-06 1.69485043e-06 -6.73282386e-07 4.56221642e-06
      1.15415969e-05 6.33152467e-06 4.75090155e-06 1.42600138e-05
      1.94711538e-05 -2.30538662e-05 -1.56245569e-05 -8.15954081e-06
      -3.62882820e-05 -3.23153363e-05 -1.18272083e-05 5.54055259e-06
      5.72022464e-06 3.06218171e-05 -4.30476894e-06 -1.10069004e-05
      1.21435141e-05 -3.85630528e-06 -1.38354744e-05 9.18261503e-06
      -6.80060703e-06 -1.66901173e-05 -5.14255480e-05 -1.49886173e-05
      6.18923059e-06 -1.09012699e-05 2.59425615e-05 4.81137868e-05
      1.82606964e-05 5.65142655e-05 7.86781748e-05 8.16548618e-06
      3.53194737e-05 5.62120549e-05 1.11210429e-05 2.95268474e-05
      4.74418339e-05 5.29242743e-06 1.18435846e-05 2.33099126e-05
      8.23765731e-06 1.31368643e-05 1.85950448e-05 1.03648854e-05
      -4.18660920e-06 1.51640979e-05 2.94489109e-06 3.42072440e-07
      1.14385684e-05 7.84092754e-06 1.35915143e-05 2.70090077e-05
      -2.71104454e-06 9.20501043e-06 2.03657364e-05 -2.19208832e-05
      -2.39784163e-06 -3.35271068e-07 -2.07054818e-05 6.89316676e-06
      1.23604350e-05 8.95426865e-07 2.79824217e-05 3.53266478e-05
      -1.07891119e-05 5.30696570e-06 1.33657941e-05 -2.15297059e-05
      -8.13278439e-06 6.88664159e-07 -1.96605888e-05 -9.86849500e-06
      -4.43521822e-05 -1.48296658e-05 2.34316976e-05 -2.18433179e-05
      4.53358825e-06 4.07634652e-05 -7.41793610e-06 3.29165305e-05
      6.96247662e-05 -8.66355185e-06 2.89161562e-05 5.44923678e-05
      5.44851503e-07 2.87228031e-05 4.55512854e-05 1.97591589e-06
      2.17509878e-05 2.96983162e-05 3.89485785e-06 2.26986413e-05
      2.67370615e-05 -2.10834769e-05 2.24677606e-05 1.92185744e-05
      -9.92691184e-06 3.36196063e-05 2.93988633e-05 -8.43535418e-06
      2.70979763e-05 2.56131207e-05 -2.83612681e-05 5.65059827e-06
      9.32533567e-06 -7.34871855e-06 1.50628830e-05 2.38889334e-05
      1.02060321e-05 2.30901733e-05 3.55654702e-05 1.21706989e-05
      1.96231158e-05 3.58945799e-05 1.61388084e-06 -2.36908477e-06
      1.05199970e-05 -6.62998946e-06 -1.12153621e-05 -3.35246591e-06
      -6.50577022e-06 -1.81073974e-05 -5.82937937e-05 -2.60583438e-05
      6.60517435e-06 -5.17382578e-05 -1.34854226e-05 1.90781921e-05
      -3.34985962e-05 3.45785747e-06 3.74375850e-05 -8.08196364e-06
      1.83885913e-05 5.17093358e-05 1.02810782e-05 2.57305837e-05
      5.75329650e-05 8.67366634e-06 1.60487889e-05 3.35838122e-05
      8.72996407e-06 1.69008727e-05 2.35045172e-06 4.29062993e-06
      1.27287949e-05 3.72212889e-06 1.16376132e-05 2.40405170e-05
      2.02223946e-05 -1.38744565e-06 1.43973821e-05 1.88620616e-05
      -1.03889270e-05 9.92823152e-06 2.70216315e-05 1.16299288e-05
      3.12210614e-05 6.49047797e-05 1.16842257e-05 3.00815300e-05
      6.51957525e-05 -2.88081128e-06 9.80655386e-06 5.15120992e-05
      -1.34338279e-05 -1.13339729e-05 1.96554902e-05 -2.13216226e-05
      -2.51532056e-05 8.59618467e-06 -2.26887005e-05 -3.23982131e-05
      -1.65555066e-05 -1.26460520e-06 1.97774098e-05 -1.43893039e-05
      4.52037420e-06 2.76554601e-05 -1.07794822e-05 1.50629639e-05
      3.90551395e-05 1.90382762e-05 4.38760508e-05 6.82641185e-05
      1.87775440e-05 3.69043228e-05 5.24103743e-05 -1.80611721e-06
      1.27235835e-05 2.35234875e-05 -8.53246149e-07 -1.01987134e-05
      1.61723910e-05 8.61726494e-06 1.02255763e-05 3.43248939e-05
      1.23064387e-06 1.19509505e-05 3.40939660e-05 -6.88920591e-06
      1.14363929e-05 3.47891910e-05 8.83718349e-06 3.79500125e-05
      5.96863174e-05 1.68862116e-05 5.76408092e-05 7.87688914e-05
      1.25622146e-05 4.96186367e-05 6.97388095e-05 -6.68090024e-06
      2.41849648e-05 4.18996642e-05 -1.67448306e-05 2.57640386e-06
      1.50233573e-05 -1.85509616e-05 -8.70270469e-06 -5.54028816e-07
      -2.43492559e-05 -1.53580950e-05 -1.81542091e-05 1.36616245e-05
      4.53834837e-05 6.68624625e-06 3.49592883e-05 6.23540909e-05
      1.42088556e-05 3.91461472e-05 5.80313645e-05 3.26836962e-05
      5.69200092e-05 6.93236652e-05 1.55722937e-05 3.44327273e-05
      3.94198069e-05 5.68605674e-06 1.81748346e-05 1.89901311e-05
      -2.40474947e-05 1.19150745e-05 8.17177443e-06 -2.27206983e-05
      1.54292266e-05 1.55120415e-05 -3.13870914e-05 1.59754491e-05
      2.43975737e-05 -1.08417098e-05 2.43239083e-05 3.88153167e-05
      1.91191284e-05 5.61763663e-05 7.79587936e-05 3.61093335e-05
      6.25816538e-05 8.64892572e-05 9.66574771e-06 3.66060776e-05
      5.84376285e-05 1.26221300e-06 2.20542024e-05 3.51880190e-05
      -2.05927809e-05 7.60346609e-07 1.77095935e-05 -1.78499031e-05
      -9.59603949e-06 2.50362928e-06 -6.02612909e-06 -9.94476432e-06
      -4.23247002e-05 -2.27738474e-05 6.40739518e-06 -1.98564412e-05
      -4.00717499e-06 2.02026185e-05 1.30938715e-05 2.73821406e-05
      4.35171387e-05 3.63799227e-05 4.43048812e-05 5.42443195e-05
      1.62075758e-05 1.80075858e-05 2.44728362e-05 2.75602451e-06
      8.45754857e-06 -7.03825390e-06 -3.17029458e-06 8.83674329e-06
      4.95684799e-06 -6.28222961e-06 1.53809942e-05 2.00341510e-05
      -1.30779745e-05 1.39004833e-05 3.72913710e-05 1.27754720e-05
      4.16936964e-05 6.96946445e-05 3.77408833e-05 6.77968637e-05
      1.23080012e-04 3.12753400e-05 5.09220481e-05 1.08753171e-04
      -9.69630310e-06 1.26851328e-05 7.46283404e-05 -2.85864667e-06
      1.36342069e-05 5.24132192e-05 -1.71517252e-06 2.74465219e-06
      3.43229367e-05 -1.90636401e-05 -1.38442529e-05 7.27349925e-06
      -1.17753534e-05 -8.93932247e-06 -4.48591200e-05 -2.91054548e-05
      -3.23171776e-06 -3.72060367e-06 1.03976590e-05 3.11448821e-05
      1.94752902e-05 2.83264180e-05 3.80499478e-05 3.31924202e-05
      3.63535910e-05 3.78159966e-05 2.88472129e-05 3.00855991e-05
      2.50411485e-05 -2.16569902e-06 -1.71283646e-05 7.49404933e-07
      -4.39608539e-06 9.36197921e-07 2.77602521e-05 -1.89466027e-05
      -2.81562939e-06 3.10022187e-05 -1.19501146e-05 1.61161042e-05
      5.53439422e-05 1.09425937e-05 4.63946672e-05 8.42960872e-05
      2.18519272e-05 6.99700322e-05 1.02477730e-04 1.11312620e-05
      5.66561212e-05 8.82311506e-05 -2.11082497e-05 1.63031091e-05
      4.48305364e-05 -2.57488919e-05 3.21521725e-06 2.63910588e-05
      -3.50863447e-05 -1.16123028e-05 5.01075419e-06 -3.01613982e-05
      -1.97682821e-05 -7.63779644e-06 -3.49456423e-05 -3.24876564e-05
      -2.72024408e-05 -5.38356289e-06 1.52824523e-05 -8.88802333e-06
      1.21641197e-05 2.71707686e-05 7.07451045e-06 2.40654681e-05
      2.76307219e-05 1.10396904e-05 1.62646629e-05 1.22091697e-05
      1.58122184e-05 2.23504685e-05 1.61752523e-05 -3.13545024e-05
      -6.72676060e-06 -1.58475650e-05 -3.56319906e-05 -2.99711837e-06
      -2.91351535e-06 -4.01994839e-05 9.65655545e-06 2.50505000e-05
      -4.31540593e-06 5.58483771e-05 9.42431507e-05 2.64406426e-05
      7.30216052e-05 1.18255579e-04 3.94127937e-06 4.43447716e-05
      9.32271432e-05 -2.41620237e-05 8.38280630e-06 5.56491541e-05
      -4.91987921e-05 -2.36992200e-05 1.91706804e-05 -5.36450316e-05
      -3.52378738e-05 1.41880162e-06 -7.45146535e-05 -6.25303146e-05
      -3.75614072e-05 -6.93672991e-05 -5.96260725e-05 -4.26890874e-05
      -8.75851256e-05 -7.88374236e-05 -3.18042330e-05 -8.12586131e-06
      1.02286940e-05 -2.41697689e-05 -3.00829470e-06 9.33201318e-06
      -1.83227676e-05 -1.47914443e-06 1.53569226e-06 4.00276031e-06
      1.23924128e-05 7.24863776e-06 1.27190069e-05 1.18087391e-05
      -1.09326147e-05 -3.02558710e-05 -2.91179513e-05 -3.88898734e-05
      -2.78974094e-05 -1.10448191e-05 -2.63395236e-06 4.29970760e-06
      3.00618194e-05 4.96520443e-05 2.73778733e-05 6.35202086e-05
      1.03459948e-04 2.88094434e-05 7.12990732e-05 1.36070463e-04
      -9.43787018e-06 3.63586478e-05 1.01952457e-04 -3.69904083e-05
      5.54310736e-06 7.03149562e-05 -5.06859578e-05 -1.61795488e-05
      4.60445990e-05 -4.77795002e-05 -2.08659694e-05 1.79389717e-05
      -7.54023931e-05 -5.82264802e-05 -3.25735200e-05 -7.74011060e-05
      -6.41916704e-05 -4.81182869e-05 -6.27592817e-05 -5.42423477e-05
      -4.66545935e-05 -1.05107447e-05 9.16283261e-06 -3.35923214e-05
      -2.26854854e-06 1.12972575e-05 -2.10922408e-05 2.57889906e-06
      1.21667222e-06 -4.81158440e-06 8.13164297e-06 -1.51836639e-06
      3.62824176e-06 -2.24558630e-06 5.20361425e-07 -9.32220337e-06
      -1.91174913e-05 -1.31018805e-05 -1.64852318e-05 -1.24932012e-05
      6.64416530e-06 2.05682427e-05 4.19118296e-05 7.26722938e-05
      4.77321555e-05 8.32304868e-05 1.25083054e-04 3.82433536e-05
      9.00575469e-05 1.41536904e-04 2.45195024e-05 8.02454233e-05
      1.37624520e-04 4.58433760e-06 5.84536647e-05 1.16402596e-04
      -4.71538078e-06 3.64819716e-05 8.74592151e-05 -1.13910000e-05
      1.07424830e-05 5.34523897e-05 -2.09732989e-05 -4.34501908e-06
      2.58175660e-05 -2.86565064e-05 -1.85638673e-05 6.10795132e-06
      -3.89154739e-05 -3.09436182e-05 -2.73158203e-05 1.03425991e-05
      3.13997080e-05 -1.38163259e-05 1.67194412e-05 3.24707726e-05
      -9.98316955e-06 2.37503373e-05 2.56061066e-05 1.84256223e-05
      3.53277719e-05 3.24091270e-05 1.39899427e-07 2.23257575e-05
      9.84342023e-06 -2.70923065e-05 -7.61808087e-06 -1.48170475e-05
      -1.95810821e-06 2.61211735e-05 3.02234985e-05 2.09109785e-05
      5.71346463e-05 8.00404232e-05 5.60707995e-05 9.60007674e-05
      1.38194024e-04 4.48662213e-05 8.74088146e-05 1.44982827e-04
      3.94390481e-05 8.55346225e-05 1.49643194e-04 2.20409565e-05
      6.47362976e-05 1.29334396e-04 6.99324573e-07 3.87922082e-05
      9.52950213e-05 -2.05961351e-05 -4.93543496e-07 5.04828022e-05
      -1.77884540e-05 3.43129977e-06 3.18480343e-05 -2.09648115e-05
      -2.82112478e-06 1.50860251e-05 -1.48974050e-05 -4.38410734e-06
      -2.44570710e-05 1.21739722e-05 4.05135288e-05 -2.09876871e-05
      1.01855694e-05 2.99370822e-05 -1.01622595e-06 2.15642376e-05
      2.97662518e-05 3.17183876e-05 4.27728519e-05 2.34697563e-05
      2.72818834e-05 2.49715777e-05 2.53337794e-06 -3.32809827e-06
      -7.39772440e-06 -2.73111636e-05 2.39631081e-05 3.18218918e-05
      2.39099172e-05 3.55893753e-05 5.58713691e-05 6.29961360e-05
      3.76675271e-05 7.28572413e-05 1.07907385e-04 3.63322251e-05
      7.76252418e-05 1.33510679e-04 2.44523380e-05 6.94354239e-05
      1.39118478e-04 1.42647032e-05 5.87114046e-05 1.20242505e-04
      5.49435799e-06 3.75036689e-05 8.96022175e-05 -4.16407283e-06
      1.89857001e-05 5.85603120e-05 -7.72889689e-06 2.26671841e-06
      2.92661553e-05 -1.59971914e-05 -1.23288219e-05 1.52534758e-05
      -3.37305355e-05 -3.54366748e-05 -1.89167658e-05 7.25066502e-06
      2.26877146e-05 -3.04098630e-05 -8.48392756e-06 9.32308978e-07
      -1.05408953e-05 1.73615331e-06 -1.79827637e-07 2.99924577e-05
      1.07963242e-05 2.00496033e-05 3.90379028e-05 1.39667136e-05
      1.34895863e-05 2.46929503e-05 -1.02368870e-06 -6.18003696e-06
      3.05609501e-05 1.71063803e-05 1.32367441e-05 5.54004291e-05
      5.13902560e-05 4.83550721e-05 3.72327486e-05 5.77115861e-05
      6.77752687e-05 4.35824804e-05 8.31435100e-05 1.05668412e-04
      4.93351945e-05 9.94942093e-05 1.34671180e-04 3.63517538e-05
      8.26775431e-05 1.18434451e-04 1.92107582e-05 5.34867540e-05
      8.34877719e-05 2.56410067e-06 2.77273739e-05 4.95715103e-05
      -1.04869323e-05 2.29969260e-06 1.16268129e-05 -2.47121352e-06
      1.41049202e-06 3.27184239e-06 -5.19808646e-06 -4.10293524e-06
      -1.50009482e-05 1.81612213e-05 3.94709241e-05 -1.70927287e-05
      7.40997802e-06 2.43548820e-05 -6.46956369e-06 9.43650230e-06
      1.04246237e-05 2.55249051e-05 5.11163162e-05 3.96765063e-05
      3.38801801e-05 4.45172955e-05 2.22262406e-05 3.11677177e-05
      3.24823268e-05 4.28593921e-06 4.95333297e-05 5.34304527e-05
      2.51538786e-05 4.21197110e-05 4.79486807e-05 2.25248314e-05
      4.54489127e-05 5.14311032e-05 4.85016790e-05 4.59252224e-05
      5.63870053e-05 6.12363874e-05 5.32397862e-05 7.62752970e-05
      8.65606344e-05 6.21634535e-05 7.81787094e-05 8.94614423e-05
      1.95219018e-05 4.17881747e-05 4.78183247e-05 6.60659543e-06
      2.59891167e-05 2.58023319e-05 -2.41956673e-06 7.92443825e-06
      -3.05771709e-06 -1.07397263e-05 -5.89429283e-06 -1.99856586e-05
      -4.20595961e-06 -3.34468473e-06 -4.78328866e-06 2.26967659e-05
      4.66790407e-05 -1.85347562e-06 2.08087931e-05 4.01993348e-05
      9.11175266e-06 2.01143885e-05 6.85274881e-06 4.09337481e-05
      2.74352660e-05 1.42377867e-05 4.66864658e-05 1.58564180e-05
      -8.00679027e-06 5.25429241e-05 1.03332231e-05 -1.73621665e-05
      5.06253382e-05 1.31513743e-05 -1.74580073e-05 4.77036665e-05
      1.99414244e-05 -3.84006535e-06 2.73120149e-05 1.13001252e-05
      2.55413374e-06 4.08067681e-05 3.15972720e-05 2.10461931e-05
      1.76625472e-05 1.63195291e-05 2.45852079e-05 2.32155890e-05
      2.45466199e-05 3.76308999e-05 2.39356559e-05 2.20828606e-05
      3.65486667e-05 6.22670268e-06 2.30664455e-06 1.41059581e-05
      2.99159979e-06 -4.85022156e-06 1.42984186e-06 -8.56914357e-06
      -2.01202765e-05 -1.61611733e-05 -1.93030683e-05 -3.82824146e-05
      2.92387472e-06 9.34949185e-06 1.45564391e-05 2.84614180e-06
      6.35233209e-06 6.18575359e-06 3.72338263e-06 -2.01010134e-05
      -8.28673728e-06 3.72295799e-05 9.34309264e-06 8.29468081e-06
      6.03555163e-05 1.51446438e-05 -9.73648298e-07 5.17060653e-05
      1.20312834e-05 -1.54784248e-05 4.55601512e-05 7.49689980e-06
      -3.39356448e-05 2.20755337e-05 -4.59334342e-06 -5.34592145e-05
      5.00823353e-06 -1.35047831e-05 -6.13309967e-05 2.58883374e-05
      9.35271146e-06 -3.48428403e-05 2.96810231e-05 2.15836862e-05
      -1.80224797e-05 1.26794066e-05 8.93431934e-06 -2.82399469e-05
      -9.43834311e-06 -1.26002642e-05 -4.61893906e-05 4.50870220e-06
      1.45292722e-06 -3.19480641e-05 1.68251961e-06 1.18187745e-06
      -3.53454052e-05 -1.31862153e-05 -1.18237358e-05 -4.72306201e-05
      -7.14437419e-06 -8.00935231e-06 -2.41665803e-05 -1.40733744e-06
      1.77800102e-05 -2.70194887e-05 -9.02740430e-06 2.50733274e-06
      -3.76601092e-05 -6.64505933e-06 -1.87479964e-05 1.14020841e-05
      2.10000380e-05 5.46114052e-06 5.10088284e-05 3.09224815e-05
      -2.32178081e-07 4.60758783e-05 1.51908071e-05 -2.78810967e-05
      4.06143554e-05 -7.80923165e-06 -6.03160297e-05 2.90987628e-05
      -1.38155056e-05 -7.22458499e-05 2.81514040e-05 -1.07590467e-05
      -7.00373930e-05 8.65173388e-06 -2.33744904e-05 -8.04397423e-05
      2.75475322e-05 -7.81872188e-07 -5.46900956e-05 1.84948640e-05
      -3.29828799e-06 -5.17455701e-05 2.08600636e-06 -1.77545371e-05
      -6.28287235e-05 -1.54435766e-05 -3.14210156e-05 -7.39073657e-05
      -9.59637964e-06 -2.13713738e-05 -6.29910501e-05 7.23948006e-06
      -3.36732273e-06 -4.20258802e-05 -2.72332363e-06 -1.16797519e-05
      -4.79061528e-05 -1.19286333e-05 -4.63278684e-06 -2.42256738e-05
      8.81552933e-06 -4.00102044e-06 4.11540896e-06 7.07148865e-06
      -1.17364098e-05 3.79358171e-05 2.23789266e-05 -1.54104328e-06
      6.49623107e-05 2.74839622e-05 -6.77492426e-06 5.08417143e-05
      -2.09082117e-07 -3.85351268e-05 4.66739839e-05 -7.44368572e-06
      -4.39034193e-05 4.55695335e-05 -1.07304677e-05 -4.60597330e-05
      3.67160210e-05 -1.70125095e-05 -5.08846970e-05 3.28572132e-05
      -1.72303589e-05 -5.07670738e-05 2.52451173e-05 -1.89775183e-05
      -5.20080284e-05 2.76272731e-05 -1.34709644e-05 -4.31759509e-05
      2.57605934e-05 -1.29346017e-05 -3.84140512e-05 1.14987406e-05
      -2.23970947e-05 -4.47931343e-05 -6.03215585e-06 -3.29794821e-05
      -5.31229744e-05 -6.79407731e-06 -2.94170932e-05 -4.53140492e-05
      -4.64445702e-06 -2.31070990e-05 -4.00893732e-05 -1.61273547e-05
      -1.51470940e-05 -1.88661179e-05 -5.04027230e-06 1.63584336e-05
      -1.61000025e-05 -1.22235415e-05 -1.84593011e-06 2.77379804e-05
      1.44768082e-05 1.33932836e-05 4.50274856e-05 9.30089936e-06
      -7.06866740e-06 3.22066007e-05 -1.41925302e-05 -5.03499505e-05
      2.31093763e-05 -1.87079131e-05 -6.96914358e-05 1.03802613e-05
      -2.81602788e-05 -8.59226420e-05 2.69116572e-05 -4.63799370e-06
      -6.61678132e-05 3.25578803e-05 1.86269904e-06 -6.06055801e-05
      2.00274171e-05 -6.59284251e-06 -6.91996465e-05 2.19408139e-06
      -2.20122547e-05 -8.22561051e-05 1.04333694e-05 -1.21971407e-05
      -6.64957042e-05 1.86327925e-05 -2.92824637e-07 -4.97007895e-05
      1.87097237e-06 -9.76572210e-06 -5.67079005e-05 -7.03556816e-06
      -1.40177963e-05 -5.46028059e-05 -1.56198839e-05 -1.69614887e-05
      -6.10490315e-05 -2.73571623e-05 -5.16806404e-06 -4.43335848e-05
      1.08991489e-05 8.39060340e-06 -3.36562407e-05 4.31120452e-06
      -6.18026161e-06 1.46516013e-05 3.19900901e-05 1.19370579e-05
      3.60659615e-05 2.67714549e-05 -3.48733874e-06 4.56545640e-05
      9.32068451e-06 -2.80704244e-05 4.75805100e-05 1.50720575e-06
      -4.28579806e-05 4.31487133e-05 -9.58140845e-06 -6.02005821e-05
      5.19109308e-05 -1.40059910e-06 -5.48326207e-05 4.43559584e-05
      -9.14203611e-06 -6.28546186e-05 4.09250279e-05 -1.12186717e-05
      -6.44730389e-05 3.96540199e-05 -1.22461670e-05 -6.32233059e-05
      3.89172346e-05 -1.37629677e-05 -5.96874015e-05 3.76410280e-05
      -1.13004871e-05 -5.37283813e-05 2.98492305e-05 -1.33255035e-05
      -5.15634711e-05 2.86282848e-05 -7.51700099e-06 -4.08125670e-05
      2.61453552e-05 -2.71018484e-06 -5.05128919e-05 2.38126040e-06
      -7.01928172e-07 -2.50725898e-05 7.46834212e-06 1.28540648e-07
      -3.22177584e-05 -1.16336623e-05 -2.49127606e-05 -2.82286760e-06
      -1.38781866e-06 -1.91502913e-05 2.89356940e-05 5.22052096e-06
      -1.78020146e-05 2.68679833e-05 -1.20182958e-05 -3.80872916e-05
      2.28784429e-05 -2.19329650e-05 -4.40849799e-05 2.35451935e-05
      -2.47106127e-05 -4.61297823e-05 3.84335544e-05 -9.61226942e-06
      -3.49683214e-05 3.91505018e-05 -8.92065691e-06 -3.56564997e-05
      4.28298881e-05 -3.94349763e-06 -3.08880153e-05 4.64236728e-05
      -1.70660883e-06 -2.71513436e-05 4.47531711e-05 -1.89205355e-06
      -2.45573028e-05 4.05798455e-05 -5.16134469e-06 -2.43959148e-05
      4.16868716e-05 7.50730976e-07 -1.42983044e-05 2.60541838e-05
      -9.46291402e-06 -2.08860238e-05 3.05231915e-05 1.28074896e-06
      -4.20897377e-05 -4.32482375e-05 -1.01606738e-05 -4.06977415e-05
      -4.90739367e-05 -2.02479423e-05 -3.54598633e-05 -4.79498995e-05
      -2.69248012e-05 -2.14915690e-05 -3.69967056e-05 -2.79187243e-05
      -1.35700666e-05 -3.46531342e-05 -4.01945254e-05 -8.68832194e-06
      -3.32897107e-05 -5.07641998e-05 -7.24014535e-06 -2.79401756e-05
      -5.12900478e-05 -4.26085944e-06 -2.35833686e-05 -5.15104475e-05
      3.75848163e-06 -1.36406898e-05 -4.32604866e-05 1.26489467e-05
      -2.92023856e-06 -3.43966822e-05 1.62669676e-05 6.06914728e-06
      -2.80788918e-05 1.69829236e-05 7.79942184e-06 -2.39434721e-05
      5.81824497e-06 -5.46835645e-06 -3.13974233e-05 -1.93863634e-05
      -2.93679404e-05 -5.00459937e-05 -1.55581074e-05 -2.45900501e-05
      -4.18617637e-05 -1.32571895e-05 -2.09872687e-05 -3.29183895e-05
      -1.44290914e-06 -5.58537113e-06 -5.70095544e-05 -5.17758090e-05
      -3.21819389e-05 -5.78176259e-05 -5.47060772e-05 -3.84166415e-05
      -5.52964375e-05 -5.42909547e-05 -4.67254940e-05 -5.04400450e-05
      -5.64592519e-05 -5.53294303e-05 -4.83984877e-05 -6.18091872e-05
      -6.88242071e-05 -3.55932571e-05 -5.73697143e-05 -6.80748271e-05
      -2.31354879e-05 -4.96235662e-05 -6.12920994e-05 -1.47683895e-05
      -4.36727787e-05 -5.71485980e-05 -1.21710191e-05 -3.79422454e-05
      -5.55792794e-05 -1.01807627e-05 -3.31181836e-05 -5.33337807e-05
      -9.36079232e-06 -2.66046882e-05 -5.12234183e-05 -2.69979864e-06
      -1.74601319e-05 -4.05433748e-05 -3.83360066e-06 -1.71994689e-05
      -3.73370603e-05 -2.64512964e-05 -3.83566075e-05 -5.30373436e-05
      -2.52557275e-05 -3.69959598e-05 -4.65948797e-05 -2.54749339e-05
      -3.52957868e-05 -4.18227246e-05 9.01519888e-06 -2.85569882e-07</_>
    <_>
      -2.29233592e-05 -4.20160450e-06 -6.34263642e-06 -1.46497960e-05
      4.25004873e-06 1.53206884e-06 -1.57096074e-05 2.36518781e-06
      -6.12511656e-07 -1.50753358e-05 9.19271031e-07 -2.45331785e-06
      -1.86409416e-05 -6.92991398e-06 -9.23985863e-06 -1.67973121e-05
      -6.67619906e-06 -8.97105565e-06 -8.10127131e-06 1.59673084e-06
      1.30821763e-06 -4.58770188e-07 1.08451977e-05 9.79060587e-06
      2.73192700e-06 1.49723519e-05 1.40998864e-05 -5.38988218e-07
      1.21366575e-05 1.01633022e-05 -3.88389435e-06 8.70155873e-06
      5.56058740e-06 -3.21668790e-06 9.77628133e-06 6.09361223e-06
      3.52924508e-06 1.96113142e-05 1.59833198e-05 1.90911419e-06
      1.93543674e-05 1.63894256e-05 -4.53752637e-06 1.74860579e-05
      1.50669603e-05 -3.32062655e-06 1.76751109e-05 1.65995752e-05
      -4.57084752e-06 -3.95705683e-06 -8.13792212e-06 -5.18953493e-06
      -1.62358665e-05 5.31835349e-06 3.98396060e-06 -6.56167094e-06
      -6.09115659e-07 -4.68858752e-06 -1.55634934e-05 -3.86395413e-06
      -7.94696462e-06 -1.82172789e-05 5.34625315e-07 -6.82555265e-06
      -1.65744314e-05 1.16754100e-05 -2.86806142e-07 -8.96853089e-06
      1.76341346e-05 8.19455090e-06 -5.78242769e-08 2.21480968e-05
      1.17793588e-05 2.32574916e-06 1.86643592e-05 9.98232827e-06
      -1.00469515e-06 1.47644469e-05 6.64306208e-06 -5.77668470e-06
      1.77219990e-05 9.45581360e-06 -3.69496229e-06 1.77200818e-05
      1.02970998e-05 -2.86854993e-06 2.10098151e-05 1.54925001e-05
      5.27085547e-07 1.48071440e-05 4.29563079e-06 -8.65853235e-06
      1.01741853e-05 6.54562564e-06 -5.89135152e-06 2.69884385e-05
      2.67300711e-05 1.54150002e-05 -4.22180074e-06 1.31804218e-05
      -8.47582942e-06 -1.58135135e-05 9.52943310e-07 -7.49718311e-06
      -1.45465747e-05 3.13456349e-06 -1.98862949e-06 -9.27861129e-06
      7.73755619e-06 6.96896359e-06 -1.85991985e-06 1.25475490e-05
      1.38775458e-05 5.43131534e-07 1.49189018e-05 1.14143550e-05
      -4.78264292e-06 9.32975581e-06 1.46045659e-05 -3.38701238e-06
      1.20421546e-05 1.31100587e-05 -4.90678167e-06 9.78223306e-06
      1.45028253e-05 -3.06075071e-06 1.14382665e-05 1.91600539e-05
      1.01130445e-06 1.79952804e-05 1.96355340e-05 -1.46415209e-06
      1.65688161e-05 9.41964208e-06 -1.06391790e-05 -8.55915800e-07
      -8.03869341e-07 -1.85864956e-05 -9.28532529e-07 -3.68059403e-07
      -1.63358000e-05 4.67020163e-06 1.70664553e-05 2.86215072e-06
      2.55928171e-05 2.40370664e-05 9.72669568e-06 1.30898216e-05
      8.24434665e-06 4.60522187e-06 -2.24833166e-05 2.88789420e-06
      2.56146109e-06 -1.18172466e-05 1.12441221e-05 1.03181110e-05
      -2.31760760e-06 1.92822990e-05 1.50228734e-05 9.01920339e-06
      2.57535139e-05 1.91691051e-05 1.05622994e-05 2.18117730e-05
      1.38809037e-05 8.21109188e-06 1.56839906e-05 7.02496573e-06
      6.05086279e-06 1.31323222e-05 3.94448489e-06 7.58584838e-06
      1.54267327e-05 7.25469636e-06 5.20004642e-06 1.43271127e-05
      5.84491954e-06 7.05871162e-06 1.61522239e-05 8.46475996e-06
      2.27113492e-06 1.28017136e-05 4.68882536e-06 2.49699747e-06
      1.19647966e-05 5.09485744e-06 2.71688828e-06 1.47613282e-05
      8.91539912e-06 -1.46500324e-05 -9.98204541e-07 -5.06505921e-06
      -1.23001628e-05 3.63339041e-06 4.00155045e-07 -6.86584781e-06
      -6.75754336e-06 1.16871361e-05 7.83129781e-06 1.85471970e-06
      -5.66599056e-06 1.08100278e-06 -1.99928036e-06 3.93229493e-06
      8.61490298e-06 5.09523397e-06 1.09528100e-05 1.51643189e-05
      9.89333512e-06 1.38258538e-05 1.08277491e-05 3.82534699e-06
      1.32672321e-05 1.73122180e-06 -7.30943293e-06 1.96774508e-05
      4.67270047e-06 -9.85024963e-06 2.59501830e-05 1.05419986e-05
      -4.19155685e-06 2.22998897e-05 7.40954329e-06 -8.15419662e-06
      2.88189094e-05 6.99073598e-06 -5.02703551e-06 2.41741163e-05
      1.12435509e-05 9.68021595e-07 3.32169802e-05 1.94654713e-05
      1.13411888e-05 3.20989748e-05 2.18552359e-05 1.71285174e-05
      3.51266426e-05 2.94849451e-05 2.70635392e-05 3.02016597e-05
      2.27332439e-05 2.37923941e-05 3.71694878e-05 3.22405067e-05
      3.42061576e-05 1.65943584e-05 3.49311158e-05 3.79188386e-05
      2.51001552e-06 1.98136950e-05 2.88161868e-06 6.63581068e-06
      2.87802413e-05 1.06361740e-05 1.36135686e-05 3.16915030e-05
      1.12815278e-05 1.29711834e-05 2.73174956e-05 1.92814368e-05
      1.13631131e-05 2.42311471e-05 2.29713260e-05 7.91405182e-06
      1.71320044e-05 2.02868378e-05 5.11285414e-08 7.93510208e-06
      1.68503393e-05 -3.97687518e-06 -2.87110652e-06 1.22918609e-05
      -8.20278365e-06 -3.31164870e-06 1.71496758e-05 1.81217530e-07
      2.70265105e-06 2.16180033e-05 7.83139512e-06 1.08359918e-05
      2.82011424e-05 1.75285932e-05 2.17299257e-05 2.48343440e-05
      1.74821507e-05 2.08547735e-05 3.11853255e-05 2.67828691e-05
      3.15070647e-05 2.73967944e-05 2.70897781e-05 3.25223227e-05
      2.34294057e-05 2.56907333e-05 2.63197544e-05 2.69295433e-05
      2.36749274e-05 2.28751906e-05 2.25856165e-05 2.27638920e-05
      -1.14802049e-06 2.46948075e-05 2.54681727e-05 -1.66646100e-06
      1.96968376e-05 1.83218272e-05 -1.15192199e-06 1.25813785e-05
      6.41244469e-06 6.06456342e-06 1.06118605e-05 -1.05040431e-06
      1.50784754e-05 9.51278616e-06 -6.21218169e-06 4.25775443e-06
      -1.07050721e-06 -1.76623180e-05 1.12815189e-06 -7.05015827e-06
      -2.50308294e-05 1.64240191e-06 -6.73333579e-06 -2.51762922e-05
      1.67802827e-05 9.49198693e-06 -7.62714899e-06 1.56348433e-05
      8.77111870e-06 -7.11228859e-06 1.51786944e-05 9.06719924e-06
      -5.30081797e-06 1.45140148e-05 9.55545056e-06 -2.67251608e-06
      6.48279229e-06 3.99691180e-06 -5.24486222e-06 -5.36352763e-06
      -5.73734633e-06 -1.28510383e-05 3.47429250e-06 -3.53391147e-06
      1.50276101e-05 1.71905976e-05 8.31783927e-06 2.76852807e-05
      1.86383350e-05 1.29001191e-05 6.83197868e-06 1.88483173e-05
      1.43094294e-05 1.68677579e-05 2.60172255e-05 2.40084828e-05
      3.11099689e-06 7.36697166e-06 3.71937927e-06 -9.24973574e-06
      -1.15751127e-05 -1.21097410e-05 1.05448112e-06 -1.69410323e-05
      -2.04394764e-05 -1.20189816e-06 -2.14431584e-05 -2.81098964e-05
      -7.18713693e-07 -2.31012109e-05 -3.23152490e-05 -5.42256566e-06
      -2.53735616e-05 -3.41358536e-05 -1.01906644e-05 -2.26623251e-05
      -3.02762073e-05 -3.53083465e-06 -1.14821114e-05 -1.74103534e-05
      8.28311784e-07 -4.42934061e-06 -8.37080370e-06 -1.37384859e-05
      -1.66757200e-05 -1.88371141e-05 -1.61812895e-05 -1.51407412e-05
      -1.34401007e-05 -6.47920706e-06 -2.31540525e-06 2.79748929e-06
      -8.14344639e-06 1.92322623e-05 1.42813924e-05 -4.99627322e-06
      2.27112778e-05 1.82650583e-05 -9.53514791e-06 1.57624090e-05
      1.42900183e-06 -2.34499089e-06 1.52046614e-05 2.39600308e-06
      5.33863385e-06 1.38105670e-05 5.07258483e-06 1.28604770e-05
      8.63494643e-06 -7.04917147e-06 -5.39231905e-06 -1.32006644e-05
      -5.69386611e-06 -1.13449869e-05 -2.64475239e-05 -1.98455546e-05
      -2.92101777e-05 -4.54409164e-05 -7.73543616e-06 -1.79842500e-05
      -3.11017320e-05 -1.84999171e-05 -2.62427147e-05 -3.89869056e-05
      -1.69067280e-05 -2.03586133e-05 -3.13679593e-05 2.04607454e-06
      2.11944507e-06 -5.71083228e-06 -1.67287562e-05 -1.34661495e-05
      -2.20836209e-05 -9.95398568e-06 -4.67159862e-06 -9.98359701e-06
      -7.26993221e-06 7.08908942e-07 -3.03431693e-06 -1.35164316e-06
      9.52884147e-06 2.14844908e-06 1.12041798e-05 8.83561461e-06
      3.27641510e-06 1.03648454e-05 9.06741752e-06 8.58537169e-06
      5.78247364e-06 7.83231917e-06 1.20919440e-05 2.50490320e-05
      2.55731466e-05 1.03013272e-05 1.49577654e-05 1.24515500e-05
      1.90132178e-05 1.53189721e-05 6.18758440e-06 -3.85814428e-06
      -1.58418006e-05 -3.01373402e-05 7.58549231e-06 -1.24612943e-05
      -3.23451786e-05 2.58860018e-06 -2.20173879e-05 -4.46886806e-05
      1.07443602e-05 -1.41167529e-05 -3.81184182e-05 4.27692430e-06
      -1.90755618e-05 -4.09684908e-05 3.03934462e-06 -1.83314896e-05
      -3.69388363e-05 1.14669929e-05 -5.60428907e-06 -2.25699750e-05
      4.29843021e-06 -9.58994315e-06 -2.23009665e-05 1.09486218e-05
      1.03266757e-06 -1.14440236e-05 1.14066333e-05 3.08002495e-06
      -6.15846193e-06 1.22157971e-05 -2.28858084e-07 1.17251820e-05
      9.55981432e-06 -1.25165434e-06 9.28591817e-06 8.00563794e-06
      7.95719643e-06 1.60225190e-05 9.15624605e-06 1.01433570e-05
      5.85030921e-06 6.68051598e-06 1.59250467e-05 3.37484289e-06
      -1.52361724e-06 1.06059333e-05 6.42882560e-06 3.19274341e-06
      8.09416360e-06 -9.71707232e-06 -1.55922007e-05 -1.58964795e-05
      1.75073001e-06 -1.00975412e-05 -1.57410777e-05 3.72861336e-06
      -9.66436892e-06 -1.67394828e-05 -2.58946625e-06 -1.35537739e-05
      -2.02549309e-05 -2.74200124e-06 -1.28678057e-05 -1.78222708e-05
      -6.37880066e-06 -8.42970167e-06 -1.04818828e-05 -4.82011592e-06
      -5.71119654e-06 -5.67664711e-06 2.61305672e-07 2.47123558e-06
      4.80645713e-06 -8.30683916e-07 3.45594117e-06 7.14802081e-06
      -3.53000655e-06 3.41146188e-06 8.32052865e-06 -8.59986085e-06
      1.76757912e-05 1.41030996e-05 5.66860194e-07 1.89735929e-05
      1.53562614e-05 6.05414289e-06 2.01112598e-05 1.56813912e-05
      1.54176769e-06 8.49366188e-06 -1.20926607e-05 -8.14621762e-06
      2.91712399e-06 -6.69445853e-06 1.68918734e-06 1.00070347e-05
      1.00432874e-06 5.69061785e-06 9.89347882e-06 -9.65039089e-06
      -7.80797654e-06 -1.11830268e-05 -5.34126548e-06 -1.00900243e-05
      -1.66155914e-05 -9.01245767e-06 -1.68668084e-05 -2.56214280e-05
      -1.17490617e-06 -8.05707259e-06 -1.82221465e-05 1.01421847e-05
      6.77707476e-06 -2.76481182e-06 -1.27154271e-06 -3.81483773e-07
      -8.03680359e-06 -2.62853041e-06 6.71312364e-07 -5.00437727e-06
      4.20334618e-06 8.57717896e-06 5.18003208e-06 -9.40714017e-07
      4.38342795e-06 -3.57610617e-07 -2.21335313e-06 7.00618921e-06
      -6.71099633e-06 1.71411320e-05 1.09825205e-05 3.74944648e-07
      1.95548837e-05 1.25290326e-05 2.51736083e-06 1.43921379e-05
      6.97104952e-06 3.70911425e-06 -1.96884025e-06 -8.52393623e-06
      6.16484613e-06 1.02669828e-05 9.52416485e-06 1.01484202e-05
      5.62658306e-06 2.02165461e-06 5.69430995e-06 -3.01421005e-06
      -1.03351749e-05 -1.33200069e-06 -1.38271052e-05 -2.33899918e-05
      1.87591759e-05 9.92672312e-07 -1.29547843e-05 1.01242658e-05
      -1.19879360e-05 -2.46571853e-05 1.80037641e-05 -5.58955071e-06
      -1.59213778e-05 1.92594725e-05 -3.50583264e-06 -1.07511851e-05
      1.09789798e-05 -8.93289598e-06 -1.32333544e-05 1.26006707e-05
      -5.69034592e-06 -8.15053136e-06 8.52234734e-06 -3.40673364e-06
      -1.72389468e-06 9.48926026e-06 -2.00364821e-06 1.96859560e-07
      1.09442117e-05 -6.49043977e-06 1.69317591e-05 1.18710450e-05
      -6.45134514e-06 1.27168032e-05 1.16008650e-05 -3.88571880e-06
      6.18161357e-06 9.02750890e-06 -5.10071823e-06 -5.94610083e-06
      -6.72346141e-06 -9.66378229e-06 -3.39610119e-06 1.27713547e-05
      2.50074863e-05 3.02419357e-06 1.78898972e-05 2.84392790e-05
      -4.11858673e-06 5.18226807e-06 1.10133951e-05 -8.52475750e-06
      -3.70463954e-06 -2.03110426e-06 6.82009659e-06 5.24919278e-06
      4.97747214e-06 5.42822272e-06 8.57883151e-07 1.39901817e-06
      3.86602687e-06 -7.61583181e-07 2.80857876e-06 -4.38930920e-06
      -7.19294758e-06 -5.36871937e-07 -3.99822511e-06 -8.02368595e-06
      7.50099753e-06 1.78632149e-06 -2.64284313e-06 1.38634832e-05
      -3.25889382e-09 -3.30147850e-06 1.22351330e-05 3.14069302e-06
      -5.30153693e-06 8.91737636e-06 -9.82875463e-06 9.71703957e-06
      7.01978752e-06 -7.86160399e-06 5.77183346e-06 4.05489982e-06
      -5.26129770e-06 1.12025225e-06 -4.27327734e-07 -6.46932813e-06
      -7.70538190e-06 -1.00171155e-05 -1.37672741e-05 -1.83101038e-05
      -6.14527926e-06 1.48140844e-05 1.85297013e-05 -1.87906977e-07
      1.89627481e-05 2.11700462e-05 -1.01104715e-05 5.37466485e-06
      4.04047069e-06 -1.21228650e-05 -1.52653558e-06 -3.81988866e-06
      1.40324448e-06 4.29773672e-06 1.36861487e-07 6.81221354e-06
      7.23382800e-06 2.60016054e-06 5.54008693e-07 4.23746201e-07
      -7.29014164e-06 -4.92351683e-06 -2.64473715e-06 -8.12795042e-06
      1.59904687e-06 4.73758382e-06 7.78498361e-06 3.34335118e-06
      6.69377823e-06 8.28108386e-06 -3.49949050e-06 -2.05800620e-06
      6.50473839e-06 -8.21798039e-06 -6.11101177e-06 -3.35255464e-07
      3.67734265e-06 -7.53768018e-06 -2.60571915e-06 2.99994304e-06
      -9.59923000e-06 -2.81916505e-06 -2.01041462e-06 -1.61972657e-05
      -1.13941887e-05 -1.44298365e-05 -2.76896935e-05 -1.54032496e-05
      -2.80475688e-05 -4.08545311e-05 -1.84684552e-06 1.36942356e-06
      3.72929981e-06 5.22955403e-08 1.16036028e-06 2.32567163e-06
      4.01162515e-06 4.42364853e-06 2.49038862e-06 9.61125806e-07
      -1.79070412e-06 -5.33994671e-06 1.83949160e-05 9.80259119e-06
      4.68000189e-06 1.29769717e-06 -6.33057471e-06 -1.00321931e-05
      4.35453148e-06 -6.05593368e-06 -8.51706682e-06 1.63222085e-05
      2.26530437e-06 2.81172788e-06 4.74881335e-06 -1.03251841e-05
      -9.36735069e-06 4.54877636e-06 -1.04071651e-05 -8.56438783e-06
      8.89661897e-06 -8.06249682e-06 -5.87184195e-06 4.49925119e-06
      -1.88085723e-05 1.50142569e-06 3.54888675e-06 -1.97797235e-05
      -4.31297303e-06 8.38946016e-06 -1.63819022e-05 -7.82781262e-06
      -5.84064765e-07 -2.62177509e-05 -2.60780544e-05 -2.19615740e-05
      -3.87031396e-05 -4.70169834e-05 -3.22120468e-05 -3.85851381e-05
      -2.46117906e-05 -3.42845306e-06 6.93027232e-06 -1.48907857e-05
      4.11443125e-06 1.65214187e-05 -4.95486120e-06 1.05660765e-05
      2.50103058e-05 -1.30081607e-05 -4.93666448e-06 1.46107350e-05
      -6.13245265e-06 -5.90245145e-06 1.26858740e-05 -1.54544905e-05
      -1.40286556e-05 1.27520559e-06 -3.09635152e-06 -1.15827124e-05
      6.15583986e-06 2.18589571e-06 -1.36337951e-06 1.33457697e-05
      -2.37241647e-06 -6.80123321e-06 6.34862681e-06 -7.36899528e-06
      -1.33735821e-05 -1.19401545e-06 -9.83653354e-06 -1.78600512e-05
      -7.62165882e-06 -7.94709740e-06 -5.61600473e-08 -2.48061497e-06
      -7.06042056e-06 -3.33940170e-06 -8.56884708e-06 -1.85473655e-05
      -1.94239492e-05 -2.75798611e-05 -2.59637891e-05 -3.32777272e-05
      -4.50438165e-05 -2.74202812e-05 -4.02727019e-05 -5.26884251e-05
      -3.28938986e-05 -4.46826416e-05 -2.08835718e-05 -2.34120805e-07
      4.63757215e-06 -2.15656837e-05 9.18576518e-07 -1.07557787e-06
      -2.25679596e-05 7.20052810e-07 9.67705205e-07 -2.78521402e-05
      -8.47593856e-06 -3.93570508e-06 -1.54117515e-05 2.26713587e-06
      1.81514849e-06 -1.62776232e-05 -1.71555541e-06 1.84148792e-06
      -1.03250086e-05 2.51385177e-06 5.23699055e-06 -1.11152231e-05
      -1.47887442e-06 -1.17663092e-06 -9.91852812e-06 -4.81630877e-06
      -4.60072579e-06 -1.05011759e-05 -9.26937082e-06 -9.54537973e-06
      -8.08916411e-06 -1.28955116e-05 -1.78118262e-05 5.74286332e-06
      -1.11847557e-05 -2.09990612e-05 -4.29035708e-06 -2.39303190e-05
      -3.51129893e-05 -1.51469885e-05 -3.68164801e-05 -4.89996310e-05
      -1.84399159e-05 -4.18733944e-05 -4.90394850e-05 -2.66627339e-05
      -4.65336780e-05 -4.03928061e-05 -2.87610274e-05 -4.04562124e-05
      -3.12282718e-05 -2.13203821e-05 -1.76911435e-05 -2.71200151e-05
      -1.84277560e-05 -1.69429877e-05 -2.01547009e-05 -1.40211041e-05
      -1.22504380e-05 -2.03211075e-05 -1.97550053e-05 -1.88361955e-05
      -7.10600125e-06 -1.43616417e-05 -1.38999549e-05 -1.05792458e-06
      -1.30925728e-05 -1.46910788e-05 5.93296954e-06 -8.15801741e-06
      -1.25602573e-05 5.71781084e-06 -1.00012694e-05 -1.67962644e-05
      6.46038916e-06 -1.12900334e-05 -2.14316788e-05 1.02184970e-06
      -1.77912989e-05 -2.97212828e-05 1.14309648e-06 -2.84677917e-05
      -2.38313623e-05 -3.24780240e-06 -3.47756722e-05 -3.24150678e-05
      -1.24473127e-05 -4.40155018e-05 -4.63195647e-05 -1.25302477e-05
      -4.30956607e-05 -5.15284046e-05 -9.22949403e-06 -2.99709372e-05
      -4.76730966e-05 -2.61146124e-05 -3.28219794e-05 -5.36369880e-05
      -4.12302943e-05 -3.46783891e-05 -3.43548272e-05 -2.00986924e-05
      2.26119460e-06 -1.13124488e-05 -1.99896726e-06 1.77935999e-05
      -7.69682811e-06 6.03024046e-06 2.83492027e-05 -7.52961296e-06
      3.03554816e-06 2.47414919e-05 -2.84863086e-06 2.21217692e-06
      2.38700377e-05 -7.58344959e-06 -7.17807097e-06 1.31336701e-05
      -1.25451852e-05 -1.28624506e-05 2.44455236e-06 -1.33980539e-05
      -1.72850796e-05 -6.26760630e-06 -1.17804539e-05 -1.75828191e-05
      -1.37270308e-05 -1.68531624e-05 -2.45185583e-05 -2.05513261e-05
      -2.96688850e-05 -2.39060610e-05 -3.73695111e-05 -3.34931283e-05
      -2.68535532e-05 -4.14033821e-05 -2.26826542e-05 -2.57295851e-05
      -4.24141253e-05 -1.65356632e-05 -3.53193718e-05 -4.95059430e-05
      -1.51199065e-05 -4.01370053e-05 -5.50504483e-05 -1.55769139e-05
      -3.69618356e-05 -5.36620282e-05 -2.06083459e-05 -3.94001399e-05
      -2.60822908e-05 3.32338891e-06 8.80041353e-06 -3.62332321e-06
      2.65562012e-05 3.31376214e-05 -4.55394820e-06 2.57750216e-05
      3.32554409e-05 -1.37754478e-05 1.21872190e-05 2.02988522e-05
      -6.54147470e-06 1.36139206e-05 2.03247673e-05 -7.86415967e-06
      5.73170564e-06 1.04139981e-05 -1.25893321e-05 -3.69033069e-06
      -1.65570316e-06 -1.31156212e-05 -7.07897607e-06 -8.60494220e-06
      -1.93821452e-05 -1.74522647e-05 -2.14985685e-05 -1.66686186e-05
      -1.94060194e-05 -3.94156777e-05 -8.53483107e-06 -2.70163455e-05
      -5.29665631e-05 -1.19037240e-05 -3.29304457e-05 -5.91070493e-05
      -7.88173475e-06 -3.04620735e-05 -5.39119355e-05 -1.34078427e-05
      -3.69036061e-05 -4.83611693e-05 -2.35229800e-05 -4.76196692e-05
      -5.00684146e-05 -3.03863690e-05 -5.23992494e-05 -4.34150388e-05
      -1.81339092e-05 -3.51966264e-05 -9.12117048e-06 -4.08740425e-06
      -3.56777377e-06 1.44289570e-05 1.93290543e-05 1.86309135e-05
      1.18410044e-05 1.67660437e-05 1.66514219e-05 2.32785646e-06
      4.31528588e-06 4.66848178e-06 1.24119351e-05 8.48565560e-06
      9.15908913e-06 8.84544897e-06 3.54153684e-08 -1.57349928e-06
      2.29030979e-06 -8.19912657e-06 -1.25129136e-05 6.19647108e-06
      -5.74482874e-06 -1.37712932e-05 2.38006623e-06 -1.37464131e-05
      -2.62858357e-05 -4.50465768e-06 -3.53984251e-05 -3.32657219e-05
      -2.00991726e-05 -4.25422695e-05 -4.61563432e-05 -1.55889284e-05
      -3.84726882e-05 -4.79529408e-05 -9.70478231e-06 -3.26725458e-05
      -4.74688131e-05 -2.24759406e-05 -3.85984858e-05 -6.08805167e-05
      -3.06513393e-05 -3.63105173e-05 -6.14487581e-05 -2.63064376e-05
      -2.71548070e-05 -5.00220704e-05 -8.19621346e-06 -5.39420262e-06
      -8.77371895e-06 1.16857491e-05 3.40514562e-05 1.70188275e-06
      2.26548327e-05 4.48429382e-05 -1.33254457e-06 1.80687694e-05
      4.08269771e-05 -7.57892622e-06 7.94242715e-06 2.94337497e-05
      1.89656919e-06 1.04576293e-05 3.04310979e-05 -3.02702483e-06
      2.82883843e-06 1.90648443e-05 4.21826400e-07 -2.83307372e-06
      9.28171266e-06 4.41739758e-07 -7.76068737e-06 -2.54719748e-06
      1.45666650e-06 -1.68691786e-05 -2.19629765e-05 -2.18019268e-05
      -2.12139839e-05 -3.81108803e-05 -2.67368523e-05 -2.54403476e-05
      -4.84896991e-05 -1.87185597e-05 -2.71700319e-05 -5.37632077e-05
      -2.10203689e-05 -2.98492414e-05 -5.64271068e-05 -2.44104795e-05
      -3.81311693e-05 -6.29750502e-05 -1.64988232e-05 -3.13994715e-05
      -5.28823366e-05 -5.69544090e-06 -1.78387745e-05 -3.62709507e-05
      4.30273303e-06 -4.10394614e-06 -1.38638134e-05 1.88050544e-05
      2.79266787e-05 -8.12054259e-06 2.39661877e-05 3.20524960e-05
      -8.36280469e-06 2.22834697e-05 3.52677271e-05 -7.17613466e-06
      2.00842405e-05 2.78526531e-05 7.24930942e-07 2.13744697e-05
      2.84854905e-05 -4.46045169e-06 9.12926680e-06 1.46078264e-05
      -6.28376142e-07 8.41718338e-06 4.40118265e-06 -1.11446698e-05
      -8.16603460e-06 -1.12056478e-05 -4.99098724e-06 -1.40991278e-05
      -3.55440061e-05 3.18877642e-06 -1.43811640e-05 -3.83859551e-05
      -7.73507600e-06 -2.79218220e-05 -4.79885493e-05 -1.22595266e-05
      -3.41480263e-05 -5.15385800e-05 -1.98218095e-05 -4.12074587e-05
      -4.87898942e-05 -3.01044638e-05 -4.98299160e-05 -4.25905419e-05
      -1.80882871e-05 -3.55902339e-05 -2.64240116e-05 -2.43083605e-06
      -1.83435423e-05 -6.74034527e-06 -3.10226937e-06 -1.60786876e-05
      -2.87327589e-06 1.02426029e-05 1.43640618e-05 9.60947273e-06
      2.19173835e-05 2.63193597e-05 6.54811492e-06 2.15092878e-05
      2.73549158e-05 5.39722623e-06 1.87289406e-05 2.47300904e-05
      1.58515468e-05 2.17457327e-05 2.80289714e-05 1.74804700e-06
      6.07388256e-06 9.31623163e-06 1.26409964e-06 2.82164024e-06
      1.88337333e-06 -7.53067661e-06 -1.00698890e-05 -1.61400330e-05
      2.31854671e-07 -2.29541820e-05 -1.73201661e-05 -1.86320312e-06
      -2.48738779e-05 -2.51520960e-05 -3.92786978e-06 -2.48107899e-05
      -3.25373112e-05 -8.84675865e-06 -2.90151729e-05 -4.37120470e-05
      -2.37745935e-05 -3.71155256e-05 -5.73345387e-05 -2.89614163e-05
      -2.96662984e-05 -4.99214912e-05 -1.20925433e-05 -7.55148994e-06
      -2.37994955e-05 -3.24869029e-06 4.52412723e-06 -8.82629683e-06
      -3.65248570e-06 4.54107385e-06 1.59366937e-06 1.99515580e-05
      4.24233440e-05 9.24222149e-06 2.65830749e-05 4.76908644e-05
      -4.21022742e-06 1.22061028e-05 3.32268210e-05 3.33100888e-06
      1.38513033e-05 3.58348989e-05 7.76242086e-06 1.30990593e-05
      3.66884778e-05 6.38483425e-06 9.29077214e-06 2.35418738e-05
      1.37373336e-05 9.70417477e-06 1.54878417e-05 5.61612433e-06
      5.92216884e-06 3.82281451e-06 -1.80051811e-05 -4.25143867e-07
      -1.25491733e-05 -1.71825868e-05 -2.35933499e-06 -1.85662484e-05
      -1.55440794e-05 -4.36607615e-06 -2.35596308e-05 -2.17893903e-05
      -1.63626846e-05 -3.52514398e-05 -2.84309062e-05 -2.90918379e-05
      -4.43029821e-05 -1.39952217e-05 -1.66318459e-05 -2.73172664e-05
      -2.33413721e-06 -7.76005891e-06 -1.47286455e-05 3.35793720e-06
      1.60753461e-06 -1.46259356e-06 2.00859199e-06 -3.38209543e-06
      -1.40251750e-05 1.79948747e-05 2.54685383e-05 -1.60690834e-05
      1.44960095e-05 1.98828948e-05 -2.61619916e-05 3.35719415e-06
      1.33626163e-05 -6.29291617e-06 2.09721275e-05 3.40850493e-05
      8.73060981e-06 3.03462748e-05 4.12965783e-05 3.69437316e-06
      9.38784524e-06 2.52120062e-05 8.53294932e-06 9.54925417e-06
      2.39054480e-05 1.15136590e-05 7.99620284e-06 8.12328040e-07
      5.91538537e-06 -1.70765225e-06 -8.81431970e-06 4.56721273e-06
      -3.74511683e-06 -1.22100946e-05 -1.94396966e-06 -9.23422613e-06
      -1.26654086e-05 -1.44332416e-05 -2.02505526e-05 -2.27190776e-05
      -1.41071259e-05 -1.73142089e-05 -8.48624859e-06 -3.42950045e-07
      -8.70169174e-07 1.21797075e-05 -4.59498006e-06 -3.19694254e-06
      1.21248067e-05 -6.15594900e-06 -5.36486914e-06 1.37629768e-05
      -8.85258851e-06 -9.02913780e-06 -1.58928706e-05 1.07802327e-06
      6.90182287e-06 -1.41200271e-05 4.33774949e-06 1.00930001e-05
      -3.45917556e-06 1.52796183e-05 2.27164001e-05 1.22744186e-05
      2.56235271e-05 3.30306357e-05 1.92835050e-05 2.84368107e-05
      3.54696422e-05 6.05949890e-06 9.41499184e-06 1.54285080e-05
      7.45417174e-06 9.13643271e-06 1.31870265e-05 1.50224496e-05
      -1.96715496e-06 1.77140391e-05 1.35575310e-05 -2.25633343e-07
      1.30205353e-05 1.35762702e-05 4.81832649e-06 1.64014837e-05
      5.92594574e-07 -3.27258908e-06 3.48723370e-06 -1.16764231e-05
      -7.03261230e-06 -8.96849451e-06 -7.02308034e-06 1.11373402e-05
      1.01277465e-05 1.47324738e-06 2.34900854e-05 2.55597242e-05
      -2.38510302e-06 1.93505439e-05 2.53764265e-05 -1.43738389e-05
      7.91425282e-06 1.83963075e-05 -1.44472688e-05 4.44895022e-06
      -2.91813067e-05 -1.48465506e-05 4.73099635e-06 -1.98817561e-05
      -7.74541422e-06 1.12232947e-05 -1.22540023e-05 9.08799120e-06
      2.92235491e-05 6.50009179e-06 2.81941193e-05 4.02844817e-05
      1.08378645e-05 2.71211138e-05 3.62367937e-05 3.12596762e-06
      1.59389965e-05 2.07384473e-05 4.12780309e-06 1.58534003e-05
      2.16758926e-05 -1.22848742e-05 1.71929623e-05 1.95051471e-05
      -4.83371878e-06 2.08405272e-05 2.17801407e-05 1.60968511e-06
      2.08832080e-05 2.10270973e-05 -7.39089955e-06 1.13179176e-05
      1.21057701e-05 8.68416066e-07 1.31773049e-05 1.66016380e-05
      1.12540156e-05 2.16390508e-05 2.83634909e-05 1.14091781e-05
      2.26007687e-05 3.36276717e-05 9.88478223e-06 1.89594484e-05
      3.22134110e-05 2.34380582e-06 1.39840567e-05 2.86464292e-05
      -1.52934206e-06 6.30040859e-06 -3.51293565e-05 -1.66781901e-05
      -2.24138580e-06 -3.08666640e-05 -6.81478650e-06 7.84992153e-06
      -2.88195333e-05 -7.78831509e-06 8.79681374e-06 4.63614106e-06
      1.92596017e-05 3.74232295e-05 1.11345480e-05 1.93241867e-05
      4.04255879e-05 1.00712350e-05 1.42138633e-05 2.87492967e-05
      1.18901080e-05 1.65969050e-05 9.19237300e-06 3.75280933e-06
      6.91415244e-06 3.06749371e-06 9.89627733e-06 1.31378583e-05
      1.24242633e-05 6.79322102e-06 1.26911600e-05 1.49699281e-05
      6.03604349e-06 1.62495890e-05 2.44251114e-05 1.33733856e-05
      2.69929205e-05 4.88602018e-05 1.45028835e-05 3.22683554e-05
      5.74465266e-05 3.40979091e-06 2.18054920e-05 5.49277756e-05
      2.00721615e-07 1.66821574e-05 4.68787221e-05 -5.64446100e-06
      9.60673151e-06 4.58507711e-05 -7.59108525e-06 5.46251113e-06
      1.12843024e-08 5.52691063e-06 1.33149779e-05 -2.96997541e-06
      4.90503044e-06 1.44411370e-05 -8.45687919e-06 3.54649751e-06
      1.47278988e-05 1.79971958e-05 3.06382863e-05 4.38788993e-05
      1.67615890e-05 2.72440811e-05 3.88648295e-05 1.40987640e-06
      1.09196162e-05 2.29481520e-05 5.19785181e-06 -4.42623468e-06
      2.50592348e-05 5.99310943e-06 1.56497299e-06 2.92953846e-05
      4.98237614e-06 5.93435288e-06 2.94570509e-05 1.04692356e-06
      8.17414457e-06 2.81254961e-05 8.13489623e-06 2.53829276e-05
      3.88975386e-05 8.96300935e-06 3.96004361e-05 5.18500674e-05
      1.65670299e-05 5.09082929e-05 6.56893244e-05 8.44757778e-06
      4.31375338e-05 5.98122824e-05 4.02395335e-06 3.57448480e-05
      5.40252368e-05 6.32175386e-07 2.77083800e-05 4.77499525e-05
      -2.32311868e-06 2.78776479e-05 -1.84542239e-06 1.54253376e-05
      3.23566237e-05 -4.11005931e-06 1.11498148e-05 2.49655313e-05
      2.94945994e-06 1.66626742e-05 2.53410690e-05 1.18744329e-05
      2.65341423e-05 3.31767806e-05 1.66064037e-05 2.84653288e-05
      3.49202382e-05 6.65591915e-06 1.53686433e-05 2.11506831e-05
      -1.40456477e-05 1.36333101e-05 1.81901196e-05 -1.49458147e-05
      1.25972738e-05 1.85932258e-05 -1.90273404e-05 1.24736507e-05
      2.10426060e-05 -5.22123992e-06 1.88532322e-05 2.94570691e-05
      5.77114224e-06 3.11337280e-05 4.53371504e-05 1.45131780e-05
      3.46586457e-05 5.18585766e-05 1.21375815e-05 3.93863374e-05
      5.86532224e-05 1.82373860e-05 4.57283459e-05 6.40145008e-05
      8.65403308e-06 4.18877426e-05 6.69608271e-05 6.78527886e-06
      3.51134004e-05 6.16807665e-05 8.31991383e-06 3.09790121e-05
      -2.54368770e-05 -1.29095888e-05 -9.74147838e-07 -4.08974483e-06
      5.58361080e-06 1.61449352e-05 6.77995422e-06 1.80554362e-05
      2.67507603e-05 6.65602784e-06 1.43561238e-05 2.33690098e-05
      1.75995883e-05 2.26743086e-05 3.18162529e-05 4.57960050e-06
      1.08247959e-05 3.20275012e-06 -1.08937616e-06 6.26935298e-06
      3.10966061e-06 4.30280761e-06 1.52842022e-05 1.69369268e-05
      -1.39590441e-06 1.24049939e-05 2.52951613e-05 7.52169763e-06
      2.32420371e-05 3.98727898e-05 7.24836036e-06 2.63181191e-05
      6.69991787e-05 5.72763383e-06 2.39342244e-05 6.91146124e-05
      5.42823898e-07 2.46840809e-05 7.75520821e-05 9.22316485e-06
      3.62419523e-05 7.85798547e-05 1.31815123e-05 4.01497746e-05
      8.39313943e-05 1.05549498e-05 4.15550458e-05 8.17263935e-05
      1.31242541e-05 4.44352518e-05 -6.63836317e-06 2.36372443e-06
      1.10093470e-05 6.20033779e-06 1.46214034e-05 2.25517178e-05
      1.34153925e-05 2.18967107e-05 2.77421514e-05 1.68067818e-05
      2.32195125e-05 2.85723017e-05 1.73116805e-05 2.21983428e-05
      2.60954894e-05 3.73574949e-06 -5.10660675e-06 1.75976202e-05
      -7.43036708e-07 -2.29365719e-06 2.25746589e-05 -3.86865486e-06
      6.92570268e-07 2.66074931e-05 -2.18917535e-06 1.03974926e-05
      3.59857258e-05 -2.36752726e-06 1.66118443e-05 4.00092104e-05
      -5.17000990e-06 2.82702003e-05 5.12476545e-05 -4.79133951e-06
      3.22128799e-05 5.92506440e-05 -7.00230703e-06 3.10422765e-05
      6.12273798e-05 -6.57211740e-06 3.16656660e-05 6.42884988e-05
      -7.02712305e-06 3.84240229e-05 7.14425769e-05 3.50668279e-06
      4.12415684e-05 7.62501586e-05 1.63348864e-06 3.60314334e-05
      2.38228040e-06 1.15428384e-05 1.79405324e-05 1.07130172e-05
      2.06317018e-05 2.58279160e-05 1.74654833e-05 2.74929862e-05
      3.08918352e-05 1.27814919e-05 1.71327829e-05 1.88007671e-05
      9.04948774e-06 1.53016208e-05 1.91126437e-05 -8.47423871e-06
      1.45119438e-05 1.61394619e-05 -1.27954509e-05 1.24261542e-05
      1.53803849e-05 -2.35702155e-05 1.06665148e-05 1.91017989e-05
      -7.35473577e-06 3.24925713e-05 5.16235159e-05 1.03478988e-06
      3.17505583e-05 5.63033027e-05 -8.28524298e-06 2.01213334e-05
      5.01531395e-05 -1.31652805e-05 1.43800326e-05 4.77211943e-05
      -1.21517369e-05 1.59294013e-05 5.27695483e-05 -1.11529998e-05
      1.89457041e-05 5.71813835e-05 -1.53567344e-05 1.76170142e-05
      5.47571253e-05 -1.14631539e-05 2.48246652e-05 6.14177188e-05
      -1.84845521e-05 1.94365493e-05 -7.44619956e-06 9.59723479e-07
      6.53539564e-06 7.67534129e-06 1.53426136e-05 1.93865471e-05
      1.48996005e-05 2.22423114e-05 2.57809133e-05 4.97359042e-06
      8.87458191e-06 1.13179121e-05 -3.20928621e-06 -3.55188490e-06
      -9.83959944e-06 -7.04827335e-06 -6.91314199e-06 -7.51427842e-06
      -6.50406901e-06 2.55608234e-06 9.21715036e-06 8.09946869e-06
      2.21617483e-05 3.16253427e-05 1.42173494e-05 3.59877813e-05
      5.40461624e-05 6.01636157e-06 3.38108002e-05 6.91097812e-05
      -8.46744570e-06 2.42279748e-05 6.36029508e-05 -1.59288720e-05
      1.85363424e-05 6.29354763e-05 -1.13352071e-05 2.35588650e-05
      7.28079394e-05 -4.77236017e-06 3.10729920e-05 6.85811829e-05
      -1.47878882e-05 2.19429749e-05 5.87292561e-05 -1.38879113e-05
      2.38657885e-05 5.91895296e-05 -1.14260083e-05 2.62526410e-05
      -4.03847916e-05 -2.54541574e-05 -2.03860018e-05 -2.20672646e-05
      -9.17905072e-06 -5.00388023e-06 -1.39131234e-05 -3.78787263e-06
      -3.80296092e-06 -3.03854517e-06 2.66157235e-06 1.96673818e-06
      -4.56910038e-06 -9.93576759e-06 6.76030913e-06 -2.16990088e-06
      -1.21406192e-05 6.54808582e-06 1.22670178e-06 -8.32043952e-07
      2.13262520e-05 1.47549281e-05 2.45604151e-05 4.73816690e-05
      1.88679842e-05 3.86389765e-05 6.12821750e-05 9.57012435e-06
      4.46065424e-05 6.96131683e-05 4.16318562e-06 4.55282170e-05
      7.52565902e-05 -1.21241089e-06 4.48438041e-05 7.87355893e-05
      4.94114147e-06 4.74205663e-05 8.46502444e-05 7.70997121e-06
      4.17790798e-05 8.12789076e-05 5.52756137e-06 4.26479637e-05
      8.34911916e-05 4.35926950e-07 3.80779566e-05 7.94314547e-05
      4.34251461e-07 3.80913116e-05 -2.07402300e-05 -6.05090418e-06
      -3.57430281e-08 -1.37526113e-05 -2.35610287e-06 1.39091844e-06
      -1.48130157e-05 1.18244702e-06 3.13278179e-06 1.53709716e-05
      2.36778778e-05 2.59514272e-05 -1.47435512e-05 4.35410220e-06
      5.02785406e-06 -2.54213592e-05 -7.83627638e-06 -2.98277655e-06
      -3.16462592e-06 1.88039849e-05 2.76767514e-05 1.09411130e-05
      3.56283890e-05 5.16510991e-05 1.68428633e-05 4.20799297e-05
      6.48046043e-05 1.16959391e-05 3.96314317e-05 6.88871878e-05
      1.08231343e-05 4.45056685e-05 7.88682155e-05 1.15185894e-05
      4.80991366e-05 8.62057786e-05 9.34339914e-06 4.88977748e-05
      8.87990391e-05 5.16207001e-06 3.94300987e-05 8.36862018e-05
      6.09166500e-06 4.77883004e-05 8.72635501e-05 3.39569260e-06
      4.69235529e-05 8.41212095e-05 1.07675860e-05 5.08504600e-05
      -1.84683195e-05 -3.97463918e-06 6.30557861e-06 -9.34276613e-06
      3.16669025e-06 1.06989573e-05 8.10947313e-06 1.72953678e-05
      2.24981850e-05 2.56029198e-05 3.00627307e-05 1.99059541e-05
      1.62607048e-05 1.43007946e-05 6.22769949e-06 -6.88092859e-06
      -9.22436811e-06 -1.40677566e-05 1.26140076e-05 1.67459839e-05
      1.84182190e-05 1.91674972e-05 3.00011216e-05 3.71025053e-05
      1.14320183e-05 3.06864422e-05 5.38082131e-05 2.91803440e-06
      2.89878008e-05 6.29804417e-05 2.12230771e-06 3.35272671e-05
      7.69623002e-05 6.39340578e-06 4.22763333e-05 8.07002289e-05
      1.06197476e-05 4.62600437e-05 8.44807655e-05 1.00300022e-05
      4.67372083e-05 8.36522158e-05 8.19306388e-06 4.45321384e-05
      8.30144199e-05 4.75786237e-06 3.94251547e-05 8.23862283e-05
      -2.39530323e-06 2.99970925e-05 -7.31631280e-06 2.48441120e-06
      4.36436767e-06 -3.71208694e-06 4.79447499e-06 4.95560289e-06
      1.40325246e-05 1.89277762e-05 1.74762408e-05 1.59066967e-05
      6.50737547e-07 1.63833574e-05 2.06089644e-05 1.97262921e-06
      1.61077969e-05 7.72618841e-06 -1.03920529e-05 2.96888084e-06
      1.60889522e-05 5.06766719e-06 1.68458118e-05 2.65144790e-05
      1.92349144e-05 2.72874622e-05 1.52612411e-05 2.57313441e-05
      3.60351114e-05 1.65553847e-05 4.20125070e-05 5.79319349e-05
      1.48304862e-05 4.89500198e-05 7.03901314e-05 1.47724541e-05
      5.01016475e-05 7.46353398e-05 1.51668446e-05 4.94375308e-05
      7.62669370e-05 1.02934309e-05 4.52218846e-05 7.35158828e-05
      6.30679324e-06 4.18681448e-05 6.94437258e-05 1.09096827e-05
      4.42857199e-05 7.15684946e-05 8.11000609e-06 4.01755387e-05
      -1.44527451e-06 1.51243466e-05 2.13677631e-05 4.53680650e-06
      1.69053346e-05 2.30061669e-05 1.25476954e-05 2.24561845e-05
      2.07784378e-05 7.70484803e-06 3.11663534e-05 2.78401549e-05
      1.48482059e-05 3.00191114e-05 2.51143483e-05 8.52813719e-06
      1.86796224e-05 1.33463736e-05 1.66403652e-06 1.09379962e-05
      5.83965175e-06 1.04794781e-05 1.70745243e-05 1.28103566e-05
      1.32472496e-05 1.73066201e-05 2.45629508e-05 1.81122632e-05
      2.43098439e-05 3.42808671e-05 1.93963297e-05 3.58178986e-05
      4.77202229e-05 2.09598202e-05 3.59888400e-05 4.96952416e-05
      1.16330984e-05 3.80312777e-05 5.19763016e-05 9.89904856e-06
      4.10722278e-05 5.59717228e-05 5.13099258e-06 3.91807735e-05
      5.28448909e-05 4.82487940e-06 3.78723962e-05 5.20855938e-05
      9.68929726e-06 4.03005906e-05 -7.04787271e-06 8.64383401e-06
      1.87550158e-05 1.12402649e-05 2.47612006e-05 3.31604388e-05
      1.13192382e-05 1.95777338e-05 8.19686920e-06 2.24135256e-05
      1.61805929e-05 9.51115271e-06 3.77430224e-05 2.16060726e-05
      1.38991409e-05 2.99009862e-05 7.91565435e-06 1.82262340e-06
      1.25127517e-05 -7.42061911e-06 -1.34017182e-05 6.63121546e-06
      -8.07206743e-06 -7.72282510e-06 6.28347516e-06 -2.97035376e-06
      6.39177415e-06 1.18212347e-05 6.68383473e-06 1.18771086e-05
      8.33616559e-06 8.71578231e-06 2.53105336e-05 1.02694912e-05
      1.45325284e-05 3.47164059e-05 9.76881438e-06 1.85674726e-05
      4.06289837e-05 3.02633566e-06 1.56263632e-05 3.92183283e-05
      -1.27327644e-06 1.36923218e-05 3.78372824e-05 2.18467449e-06
      1.78933115e-05 4.20248507e-05 -3.83621952e-08 1.19899241e-05
      -2.39599353e-06 2.50775088e-06 -4.14643218e-08 1.11694708e-05
      1.38333671e-05 1.00326079e-05 1.62300184e-05 -4.36531792e-07
      1.25489178e-05 2.96138278e-05 1.10456658e-05 2.09267673e-05
      3.70910166e-05 9.12293308e-06 1.47467617e-05 2.23228653e-05
      -4.98946520e-08 1.16853278e-06 1.68391562e-05 -4.27662644e-06
      -1.23802320e-05 -1.38862310e-06 -1.33960993e-05 -2.61721580e-05
      -2.37433528e-06 -1.01036094e-05 -2.34899853e-05 -1.17251273e-06
      -8.53863185e-06 -2.07956709e-05 5.00192891e-06 3.21862399e-06
      -6.91706691e-06 5.30539546e-06 7.99298505e-06 2.91133819e-08
      -9.27230474e-07 5.63619824e-06 2.31511834e-07 -1.91395202e-06
      8.35451101e-06 4.22603443e-06 -3.71334454e-06 1.16212186e-05
      7.21967763e-06 -1.03901548e-05 7.68002610e-06 3.30856346e-06
      -3.27484054e-06 1.42743593e-05 -2.36467731e-05 -8.86373982e-06
      -1.06261007e-06 -6.25750863e-06 5.22877599e-06 1.00084826e-05
      -8.28944667e-06 1.81216856e-05 1.05351473e-05 1.13695387e-05
      2.56094518e-05 2.08210549e-05 2.59198132e-05 2.28125245e-05
      1.35561422e-05 1.20316408e-05 1.75734226e-06 -1.11780982e-05
      1.04148594e-05 -1.30500648e-05 -2.93368394e-05 9.62155627e-06
      -1.18438202e-05 -3.04670029e-05 -8.10949223e-06 -2.79592896e-05
      -4.66273013e-05 -3.23806739e-06 -1.92452007e-05 -3.73828516e-05
      2.77513664e-07 -1.36884273e-05 -2.96571470e-05 -3.79024800e-06
      -1.22663787e-05 -2.54273109e-05 -2.57560100e-06 -7.26545568e-06
      -1.85596418e-05 -3.62289256e-06 -3.66412746e-06 -1.35508581e-05
      -6.22583639e-06 -2.63891116e-06 -1.17453965e-05 -4.78001130e-06
      2.78817254e-07 -8.01142596e-06 -3.29729437e-06 2.69830775e-06
      -1.02169279e-05 1.30502640e-05 1.15773601e-05 4.31417857e-06
      2.53152939e-05 1.22607289e-05 2.81008379e-05 2.97643091e-05
      1.40756474e-05 3.90874920e-05 3.09237694e-05 1.74983106e-05
      4.49553627e-05 2.52097707e-05 1.02125905e-05 3.28093629e-05
      5.53776454e-06 -7.36485390e-06 2.23937150e-05 -6.24213817e-06
      -1.26032810e-05 2.75011789e-05 -1.62012532e-06 -4.73925547e-06
      1.66232130e-05 -1.10924020e-05 -1.22310357e-05 -1.62717572e-06
      -2.69847969e-05 -2.79416963e-05 -1.02918657e-05 -3.17008598e-05
      -3.14219105e-05 -5.01430213e-06 -2.31189097e-05 -2.16563039e-05
      -5.97951839e-06 -1.94704826e-05 -1.59717310e-05 -6.98191980e-06
      -1.69094128e-05 -1.21837356e-05 -9.21367791e-06 -1.55290945e-05
      -9.66877269e-06 -8.87424449e-06 -1.20699524e-05 -5.71822829e-06
      -1.13583137e-05 -1.33477970e-05 -7.97849953e-06 2.42827196e-06
      -2.07872085e-06 -2.28245244e-06 1.13073463e-06 1.66558275e-05
      1.39116337e-05 1.09773009e-05 2.35396183e-05 2.83065565e-05
      1.71842548e-05 2.58271939e-05 2.46409199e-05 3.71183341e-06
      5.62586320e-06 1.41457103e-05 -1.15886469e-05 -2.06987261e-05
      5.34801120e-06 -1.47676656e-05 -3.11366493e-05 5.80590086e-06
      -9.52234950e-06 -2.92713485e-05 1.05682611e-05 4.83099939e-07
      -2.17659453e-05 4.15468185e-06 -4.34951562e-06 -2.73639744e-05
      -1.07100886e-05 -1.51274098e-05 -3.75523741e-05 -2.02901119e-05
      -2.22381404e-05 -4.29002830e-05 -2.36168180e-05 -2.14498923e-05
      -4.02971273e-05 -1.74713314e-05 -1.26327222e-05 -2.96001581e-05
      -1.63642544e-05 -8.73874160e-06 -2.44716284e-05 -1.60973941e-05
      -6.43685235e-06 -1.99496244e-05 -2.12938903e-05 -8.09128960e-06
      -2.15852015e-05 -7.28518489e-06 4.51156302e-06 -1.16048150e-05
      2.28931367e-05 1.81820014e-05 -4.35466200e-06 2.24468913e-05
      1.61491025e-05 1.28828178e-05 2.89285563e-05 2.00280429e-05
      2.02792799e-05 2.03904092e-05 9.14424618e-06 1.28352403e-05
      -3.57868771e-06 -1.54278496e-05 1.04560231e-05 -1.30068311e-05
      -2.73136138e-05 2.02993433e-05 -6.20298033e-06 -2.27916971e-05
      1.74395209e-05 -9.78519165e-06 -2.79434571e-05 2.21540704e-05
      -3.57607837e-06 -2.21343853e-05 1.64031499e-05 -6.64713889e-06
      -2.48912093e-05 4.21162213e-06 -1.61373555e-05 -3.29540744e-05
      -6.65360312e-06 -2.45004921e-05 -3.93716255e-05 -5.22520668e-06
      -2.09783047e-05 -3.34764190e-05 -3.57266708e-06 -1.61497137e-05
      -2.77756135e-05 -2.59981266e-06 -1.16033298e-05 -2.14275624e-05
      -6.06240155e-06 -1.04112705e-05 -2.16184471e-05 8.38633969e-06
      -2.12780560e-06 6.76149102e-06 2.27838373e-05 9.19079957e-06
      4.13308135e-06 1.40603397e-05 6.56245334e-07 1.53054843e-05
      1.63725854e-05 5.11681856e-06 1.72007858e-05 5.17938497e-06
      -4.42259807e-06 1.43834413e-05 -4.56906400e-06 -1.21797002e-05
      1.40224611e-05 -7.52149663e-06 -9.09316350e-06 4.45476417e-06
      -1.85816552e-05 -1.73416065e-05 1.40349839e-05 -8.53258280e-06
      -9.38278117e-06 1.12518483e-05 -1.03731481e-05 -1.10300371e-05
      1.11610707e-05 -8.53711936e-06 -9.29436555e-06 1.20737104e-05
      -5.50712275e-06 -5.80203914e-06 3.21109519e-06 -1.25204670e-05
      -1.22056372e-05 -9.01456769e-06 -2.26441043e-05 -2.15777636e-05
      -1.35827622e-05 -2.50325538e-05 -2.26973279e-05 -8.31439593e-06
      -1.64921003e-05 -1.25654415e-05 -1.35024925e-06 -4.98542840e-06
      -2.27572291e-05 -2.75646962e-05 -1.17477230e-05 -2.05527863e-06
      -1.31921224e-05 2.02679485e-06 -4.81839561e-06 -1.68651204e-05
      -2.96345752e-06 -2.21313667e-06 -1.33135354e-05 -3.80892152e-06
      8.09818403e-07 -1.04563651e-05 -8.12516737e-06 -5.18220668e-06
      -1.56774167e-05 -1.93528849e-05 -8.48644777e-06 -1.30643966e-05
      -2.08040092e-05 -6.92621870e-06 -9.47759600e-06 -1.90113315e-05
      -4.82952009e-06 -7.17731791e-06 -1.66974369e-05 -7.14906309e-06
      -8.38231881e-06 -1.77927159e-05 -1.09773746e-05 -1.08369659e-05
      -2.00411396e-05 -1.02483054e-05 -9.16695626e-06 -1.64863777e-05
      -1.32636560e-05 -1.22372676e-05 -1.71156444e-05 -1.95493194e-05
      -1.72469481e-05 -2.06772274e-05 -2.41193939e-05 -1.99590741e-05
      -2.33318369e-05 -3.16941478e-05 -2.60810684e-05 -2.73285095e-05
      -2.91640335e-05 -2.13925141e-05 -3.93138507e-05 -3.69346708e-05
      -3.52265270e-05 -2.59554981e-05 -2.43552458e-05 -2.27004384e-05
      -2.79545930e-05 -2.66566294e-05 -2.62711364e-05 -2.35057032e-05
      -2.46718610e-05 -2.44432686e-05 -2.09312420e-05 -2.42769238e-05
      -2.50185512e-05 -2.43165450e-05 -3.01534492e-05 -3.15103534e-05
      -2.27653036e-05 -3.12197662e-05 -3.25841575e-05 -1.92290481e-05
      -2.87237672e-05 -3.02412736e-05 -1.98374328e-05 -2.92254499e-05
      -3.15501929e-05 -2.18155838e-05 -3.14756835e-05 -3.32169875e-05
      -2.59165517e-05 -3.31741503e-05 -3.59610240e-05 -2.31339491e-05
      -2.95439568e-05 -3.13241580e-05 -2.42120605e-05 -2.85151764e-05
      -3.00950960e-05 -2.92363984e-05 -3.13144010e-05 -3.18324855e-05
      -3.04147925e-05 -3.08514354e-05 -3.09089119e-05 -3.47880850e-05
      -3.34772994e-05 -3.22680426e-05 -2.12889463e-05 -1.87961177e-05</_>
    <_>
      -2.93387202e-05 8.01150463e-07 6.27109648e-06 -2.56996518e-05
      2.35049333e-06 7.35645244e-06 -2.09746540e-05 2.05793981e-06
      7.11022858e-06 -1.18785019e-05 5.28176133e-06 1.04023056e-05
      -2.85748156e-05 -1.68540919e-05 -1.02357089e-05 -3.50545961e-05
      -2.48544147e-05 -1.79124745e-05 -2.77163035e-05 -1.61463940e-05
      -6.69367819e-06 -1.36047611e-05 9.88038096e-07 9.47330409e-06
      -3.41300711e-06 1.21519161e-05 2.04904791e-05 -6.50129914e-06
      9.18806654e-06 1.56117967e-05 -1.05548697e-05 2.33877063e-06
      8.12078815e-06 -1.46399652e-05 -3.04805735e-06 1.00041575e-06
      -1.02457843e-05 -1.66557925e-07 5.48505022e-06 -1.15024377e-05
      -2.58618684e-06 3.95808775e-06 -1.45957074e-05 -6.50873881e-06
      9.24027461e-07 3.22254368e-06 1.07664864e-05 1.75608620e-05
      -7.55621159e-06 -2.06859040e-05 -1.90729497e-05 -7.84001168e-06
      -1.53913224e-05 -5.26532767e-06 -1.40830718e-06 -9.40773953e-06
      -9.55680935e-06 -1.35832051e-05 -2.15921737e-05 -1.72469972e-05
      -2.43621762e-05 -3.22114065e-05 -2.15235214e-05 -3.38366772e-05
      -4.17678275e-05 -4.12766485e-06 -2.01743678e-05 -2.63220227e-05
      9.36254582e-06 -1.82313136e-06 -8.18664739e-06 2.14333086e-05
      1.04735527e-05 3.04480523e-06 1.65145866e-05 8.60218370e-06
      -6.18641479e-07 1.76230842e-05 8.90049614e-06 -1.31414981e-06
      1.54628851e-05 4.55651207e-06 -6.21452409e-06 1.42669651e-05
      1.81497512e-06 -9.64699575e-06 8.97420796e-06 -5.08752009e-06
      -1.62173310e-05 2.74412287e-06 -1.79532126e-05 -2.60501747e-05
      -1.19033564e-06 -1.75216210e-05 -2.44721687e-05 2.30052610e-05
      1.01063633e-05 3.76855496e-06 -1.16335077e-05 -1.82022438e-06
      -2.05913184e-05 -2.76427636e-05 2.34282948e-06 -1.86389552e-05
      -2.74737467e-05 3.78000891e-06 -1.54956451e-05 -2.88232059e-05
      1.76018500e-06 -6.36160530e-06 -2.49410441e-05 2.59233661e-06
      -5.57620524e-06 -3.16942933e-05 -5.58107149e-06 -1.24037172e-06
      -2.97530041e-05 -4.78874472e-06 1.31615036e-06 -2.71392637e-05
      -1.85402928e-06 1.25615788e-05 -1.53580004e-05 8.86196631e-06
      2.39171077e-05 -2.68354711e-06 2.04472235e-05 2.86196191e-05
      2.70838314e-07 2.58533910e-05 2.75557140e-05 -1.26624582e-06
      2.40636145e-05 2.51334350e-05 -2.10675535e-06 1.36693043e-05
      1.26412033e-05 -1.47688370e-05 1.05326853e-05 -6.75581487e-06
      -3.43308202e-05 -4.70454188e-06 -1.56316545e-07 -2.72182406e-05
      4.26738097e-06 2.19105186e-05 -6.15538238e-06 2.45959086e-06
      1.10924384e-05 -1.72164243e-06 -4.24165773e-05 -7.07991876e-06
      3.81203699e-06 -3.17163467e-05 -4.26582233e-07 9.32852072e-06
      -1.49713223e-05 1.11443296e-05 1.69281629e-05 -1.36004257e-06
      1.74821962e-05 1.89130042e-05 -4.79830442e-06 7.16106115e-06
      4.84174961e-06 -4.96856956e-06 9.79513970e-07 -1.99667465e-06
      -4.51559936e-06 1.20439188e-06 -3.14008025e-06 6.62593811e-06
      1.10730916e-05 6.36619234e-06 1.34662114e-05 1.87657552e-05
      1.37438665e-05 1.97315549e-05 2.56051571e-05 2.13271433e-05
      8.88821342e-06 1.72231412e-05 1.28202873e-05 2.05773777e-05
      2.93220273e-05 2.69499287e-05 1.59926312e-05 2.51706315e-05
      2.52202371e-05 -2.33703531e-06 7.57097087e-06 9.79126980e-06
      -5.78388199e-06 5.65722439e-06 9.80067216e-06 7.57610860e-06
      -1.44242267e-06 2.96033104e-05 3.96642645e-06 -1.73368771e-05
      -2.95921363e-05 -1.90768151e-05 -1.78323717e-05 -6.89209355e-06
      -1.98314069e-07 1.65537841e-07 1.09119901e-05 1.37702018e-05
      9.51914990e-06 1.29773425e-05 6.77442949e-06 -1.21208177e-06
      6.09352037e-06 -1.03684206e-05 -2.38568500e-05 1.97487425e-05
      -3.15415627e-06 -1.95263492e-05 2.78689640e-05 5.09008350e-06
      -1.33551030e-05 3.34808465e-05 1.06010984e-05 -8.66201572e-06
      4.57314345e-05 1.61589323e-05 -1.19649215e-07 4.04425555e-05
      2.21265309e-05 8.82473250e-06 3.70905873e-05 2.02620413e-05
      1.02082531e-05 3.89989909e-05 2.74585054e-05 2.18346813e-05
      3.26818554e-05 2.91332508e-05 2.69594457e-05 2.76081737e-05
      2.21479004e-05 2.48623783e-05 2.84825055e-05 2.43722534e-05
      2.96418439e-05 5.70094016e-06 2.78001389e-05 3.87655455e-05
      -9.97392181e-06 1.12532944e-05 -1.81855448e-05 -2.15532964e-05
      1.99544193e-05 -3.11032341e-06 -8.70868189e-06 2.70579421e-05
      1.01849328e-05 -5.21519951e-07 2.74904014e-05 1.43514480e-05
      -4.81488132e-06 1.77399797e-05 1.09150742e-05 -1.75419973e-05
      -2.31051740e-06 1.77390411e-05 -1.67456492e-05 -5.69449185e-06
      2.43409686e-05 -1.21664634e-05 -8.75721798e-06 3.16509104e-05
      -4.35855736e-06 7.84849021e-07 3.61635211e-05 4.18569016e-06
      7.09349297e-06 4.03438098e-05 1.35475448e-05 1.66699665e-05
      3.57395074e-05 1.63624318e-05 2.07368848e-05 3.05747708e-05
      1.92068437e-05 2.37125150e-05 2.53312737e-05 2.07434878e-05
      2.65482813e-05 2.41815469e-05 2.49952100e-05 3.29862705e-05
      2.21543814e-05 2.43724025e-05 2.61091154e-05 2.39599285e-05
      2.42757069e-05 1.92809348e-05 1.58946041e-05 1.95725333e-05
      -1.78386217e-05 1.17047248e-05 2.58476757e-05 -1.71610154e-05
      5.22500886e-06 1.53499132e-05 -1.07156393e-05 4.70518586e-07
      3.38620362e-06 -2.76302967e-06 -3.57173053e-06 -8.25854386e-06
      -4.68550837e-07 -1.44350906e-05 -2.61350051e-05 4.85039834e-07
      -1.70168623e-05 -3.10846881e-05 7.28730902e-06 -1.43241687e-05
      -3.08102572e-05 2.32930997e-05 8.62228603e-07 -1.63058976e-05
      1.29997634e-05 -7.58369333e-06 -2.30517780e-05 1.00280968e-05
      -6.42954228e-06 -2.02429528e-05 7.41364602e-06 -3.14420799e-06
      -1.36992930e-05 5.62086689e-06 6.05823516e-07 -7.56122336e-06
      2.24886412e-06 3.50763298e-06 -7.70383679e-07 1.25767565e-06
      4.68195549e-06 3.71933311e-06 2.90851290e-06 -3.56157784e-06
      2.38685698e-05 7.43726696e-06 -3.51035419e-06 2.42441874e-05
      5.71517739e-06 1.49645371e-06 -9.79779725e-06 1.48035883e-06
      3.35226264e-06 -9.78705685e-08 7.71887881e-06 1.06130092e-05
      -2.22547442e-06 -1.13659928e-06 -1.79053905e-06 -1.92461812e-05
      -2.72815141e-05 -2.67997493e-05 -1.62073393e-05 -4.27526938e-05
      -4.78085713e-05 -7.79127276e-06 -3.77528741e-05 -4.79230293e-05
      2.12545297e-06 -3.16775659e-05 -4.46215636e-05 -4.06784557e-06
      -3.48198191e-05 -4.69650804e-05 -1.28292122e-05 -3.44779182e-05
      -4.49136132e-05 -1.77682577e-05 -3.09178431e-05 -3.90404748e-05
      -1.54017216e-05 -1.99976148e-05 -2.48818942e-05 -1.86215930e-05
      -1.66125119e-05 -1.94748682e-05 -1.68374208e-05 -8.54838254e-06
      -7.66452285e-06 -1.41913906e-05 -3.01874661e-06 1.69445866e-06
      -2.28985118e-05 1.40646998e-05 1.22693673e-05 -2.08470974e-05
      1.50360402e-05 1.42188346e-05 -2.21329919e-05 1.25805500e-05
      -6.28587668e-06 -1.57558316e-05 9.82490474e-06 -4.44280613e-06
      -6.71448061e-06 7.97681332e-06 -8.78599622e-06 -8.60627460e-06
      -1.04126993e-05 -1.94299664e-05 -2.80764434e-05 -3.60946360e-05
      -1.60672989e-05 -3.58164179e-05 -5.40962646e-05 -1.03652519e-05
      -3.48534959e-05 -5.48390926e-05 -1.32266332e-05 -3.90974856e-05
      -5.64015427e-05 -1.33139238e-05 -3.64101106e-05 -5.26809090e-05
      -1.49032012e-05 -3.08126546e-05 -4.37981798e-05 -1.82213189e-05
      -2.62860522e-05 -3.53800351e-05 -2.10772487e-05 -2.25021195e-05
      -2.70036689e-05 -1.27253152e-05 -8.07543984e-06 -9.35781100e-06
      -1.30336030e-05 -1.94318363e-06 -9.16204897e-07 -1.56026363e-05
      -7.89195212e-07 -4.76546893e-06 8.80089829e-07 5.63003414e-06
      -2.24011160e-06 -8.49685875e-07 5.13660461e-06 3.51665653e-06
      -5.13657369e-06 5.57481872e-06 5.44517252e-06 1.74699289e-05
      2.55092800e-05 -4.03960485e-06 -3.48284743e-06 1.04279309e-06
      4.13204049e-09 -1.28368056e-05 -1.60859072e-05 -8.94273398e-06
      -3.37497368e-05 -4.43836580e-05 2.24034466e-06 -3.44454784e-05
      -5.20453323e-05 6.35267361e-06 -3.51528142e-05 -5.67243733e-05
      5.92735387e-06 -3.53481373e-05 -5.84051995e-05 5.87745126e-06
      -3.09356255e-05 -5.27206503e-05 -7.00445185e-07 -2.87041112e-05
      -4.73413747e-05 -1.30871820e-06 -2.02348365e-05 -3.67822358e-05
      -3.50400137e-06 -1.41146675e-05 -2.84278431e-05 6.18271542e-07
      -2.18678929e-06 -1.47299379e-05 -1.19270862e-06 -3.91521382e-07
      -1.08717086e-05 -3.38578639e-06 -7.05461798e-06 5.84826330e-06
      2.43533009e-06 -6.34631760e-06 4.90095044e-06 -3.57796011e-07
      3.89743082e-06 1.16121955e-05 1.10703149e-06 6.76187301e-06
      2.81535722e-06 5.03725914e-06 1.62064025e-05 -9.60882244e-06
      -1.40235106e-05 -9.14694567e-07 -8.25535153e-07 -8.60940872e-06
      -2.67464679e-06 -1.58332095e-05 -2.98676496e-05 -3.13409910e-05
      -4.43375302e-06 -2.76330211e-05 -3.50644441e-05 -9.90687840e-06
      -3.58935322e-05 -4.67923273e-05 -4.14268789e-06 -2.61419555e-05
      -3.71197712e-05 -1.04674782e-05 -2.79958858e-05 -3.62419778e-05
      -8.99474981e-06 -1.82776803e-05 -2.22846738e-05 -6.52528161e-06
      -8.71726661e-06 -1.09674365e-05 -6.70602367e-06 -3.55788029e-06
      -3.68833753e-06 -9.27672227e-06 -1.93108076e-06 -8.25937931e-08
      -1.34179509e-05 -1.83689622e-06 1.22614279e-06 -1.96945184e-05
      1.46218244e-05 1.26762061e-05 -9.81544508e-06 1.50125597e-05
      1.36066146e-05 -6.03450644e-06 1.39747935e-05 1.21711046e-05
      -8.72802229e-06 4.01548732e-06 -1.09849570e-05 -1.05833878e-05
      1.35236485e-06 -1.37731604e-05 -1.03817538e-05 -2.72972784e-06
      2.58989530e-06 -2.35170887e-06 2.01620060e-06 -1.30150229e-05
      -2.54358238e-05 -2.55886334e-05 -3.71689430e-06 -2.47203534e-05
      -2.82143137e-05 -1.41801538e-05 -3.68812543e-05 -4.30930595e-05
      -6.57914097e-06 -2.48854340e-05 -3.23246022e-05 -8.76801550e-06
      -1.98809466e-05 -2.65962171e-05 -6.73274553e-06 -9.52296614e-06
      -1.43826837e-05 -5.83465589e-06 -2.11331417e-06 -4.93319521e-06
      -7.18123329e-06 4.61312766e-07 -9.23780817e-07 -1.27541152e-05
      -1.62874619e-06 -4.58933437e-06 -1.43806137e-05 2.47936487e-06
      -1.05031258e-05 8.51954974e-06 1.27809417e-05 -2.46924014e-06
      1.10626106e-05 1.33403037e-05 8.81924166e-07 2.60295769e-06
      4.32290744e-06 -7.80213213e-07 -9.64866467e-06 -6.81178790e-06
      3.92330730e-06 1.79522283e-06 4.11309293e-06 1.24701219e-05
      3.88113403e-06 3.61948196e-06 1.25494726e-05 -3.90602645e-06
      -8.61680655e-06 3.70404223e-06 -1.94551358e-05 -2.84878824e-05
      6.59577290e-06 -2.11721072e-05 -3.32145537e-05 -2.41514817e-06
      -3.22102351e-05 -4.47606799e-05 2.16541071e-06 -2.44582461e-05
      -3.58988436e-05 6.98792383e-06 -1.49493153e-05 -2.42252263e-05
      5.31604246e-06 -1.12537327e-05 -1.89158200e-05 3.40027009e-06
      -8.11434620e-06 -1.47973888e-05 -1.75103810e-06 -4.18758782e-06
      -7.31786076e-06 -2.58109367e-06 -2.06807113e-06 -5.26400709e-06
      -2.93411085e-06 -8.30847694e-06 1.48652452e-05 1.61212552e-06
      -1.00717298e-05 9.75307648e-06 3.55829911e-06 -3.94770905e-06
      7.40014184e-06 2.46803597e-06 -6.50662878e-06 -3.74934052e-06
      -3.96016094e-06 -1.99747547e-06 8.08847926e-06 1.63299865e-05
      2.81281827e-05 1.58676703e-05 2.08921465e-05 3.17920021e-05
      6.92938647e-06 5.82370740e-06 1.34245311e-05 -9.81030826e-06
      -1.75486530e-05 -1.42518611e-05 -1.03841294e-05 -2.36894193e-05
      -2.13880685e-05 -1.12615189e-05 -2.55801460e-05 -2.32860893e-05
      -9.75341663e-06 -1.96920319e-05 -1.60648142e-05 -6.62020648e-06
      -1.20360801e-05 -5.64061247e-06 -9.08316724e-06 -1.24065591e-05
      8.97819007e-07 -8.23851769e-06 -8.92243133e-06 3.94231074e-06
      -6.57144847e-06 -3.33227445e-06 7.47124159e-06 -6.52748395e-06
      -6.52340623e-06 3.67989469e-06 -2.14646025e-05 1.19856613e-05
      9.66317020e-06 -1.97748068e-05 1.13446704e-05 8.62534853e-06
      -1.15552484e-05 1.19410997e-05 9.68431868e-06 -1.20010372e-05
      1.74808997e-06 -4.70745334e-07 -7.35225058e-06 -1.04402670e-06
      1.25692131e-05 2.21311966e-05 3.15995749e-05 6.51334676e-06
      1.38697751e-05 2.24293617e-05 1.44652377e-05 1.74507659e-05
      2.40233403e-05 -1.59004394e-05 -1.76957255e-05 -1.14644508e-05
      -1.21832527e-05 -1.94684089e-05 -1.40843968e-05 -1.30845838e-05
      -1.91839645e-05 -1.56078841e-05 -1.21489866e-05 -1.46204784e-05
      -1.55726630e-05 -8.59923421e-06 -5.21230595e-06 -6.41800170e-06
      -9.20332968e-06 -1.09933660e-06 3.10687528e-06 -7.91979983e-06
      2.47827347e-06 3.10041241e-06 -1.37125890e-05 -2.33378296e-06
      4.28763406e-06 -1.61849093e-05 -4.29567899e-06 -1.16402066e-06
      1.17503032e-06 2.97565384e-06 1.28607780e-06 1.73046612e-06
      3.77476408e-06 7.53247150e-06 2.61819559e-06 3.46372053e-06
      6.89206718e-06 -3.67115717e-06 -5.99577834e-06 7.20086655e-06
      -7.37503296e-06 -1.63382665e-05 2.81676366e-05 2.12045143e-05
      2.32693837e-05 1.27805197e-05 6.16215630e-06 6.66518599e-06
      2.56031271e-05 1.78017708e-05 1.79150993e-05 -6.33606533e-06
      -1.52390239e-05 -1.60731943e-05 7.21716560e-07 -1.13174710e-05
      -1.30674780e-05 -1.65644396e-05 -2.33440805e-05 -2.46568034e-05
      -3.74431465e-06 -9.42076167e-06 -9.67376764e-06 1.88407932e-06
      -3.65555479e-06 -3.36981157e-06 -3.23100699e-06 -7.41459417e-06
      -7.11332905e-06 -4.51440883e-06 -5.87068280e-06 -6.16604302e-06
      -5.03444062e-06 -5.69811982e-06 -5.35838717e-06 -3.82728240e-06
      -8.92136450e-06 1.34476059e-05 3.62357559e-06 -6.54775658e-06
      1.42181079e-05 5.52272604e-06 -5.26873328e-06 1.12068619e-05
      3.98304246e-06 -8.79930121e-06 7.86643795e-07 -2.29791794e-07
      -6.89589615e-06 -7.54566008e-06 -7.54820712e-06 -9.34366471e-06
      7.65570167e-06 1.15727271e-05 1.99252190e-05 5.51204084e-06
      8.01756414e-06 1.96716283e-05 6.48156856e-06 8.23905066e-06
      2.47581975e-05 -1.05950458e-05 -1.29263408e-05 9.47556600e-06
      -1.04278806e-05 -1.64587982e-05 4.46621243e-06 -1.60441614e-05
      -1.75712703e-05 1.10844451e-06 -5.91789012e-06 -8.85731606e-06
      5.29198360e-06 -1.30581648e-05 -6.14877990e-06 2.59126864e-06
      -1.32126615e-05 -2.33406081e-06 3.62318156e-06 -1.99335700e-05
      -6.70153895e-06 -4.38132361e-07 -1.88048070e-05 -4.42196460e-06
      6.96223452e-08 -1.67518810e-05 1.85562203e-05 1.46726034e-05
      -1.66411119e-05 1.38718060e-05 1.07971082e-05 -1.12912194e-05
      1.19438919e-05 8.61230819e-06 -3.15015154e-06 8.24417111e-06
      4.12531244e-06 -2.46877130e-06 -2.46635614e-06 -1.01765609e-05
      -1.60676645e-05 -1.96475285e-05 1.26363311e-05 1.67330018e-05
      2.28325225e-05 6.40299959e-06 1.26884461e-05 1.36525377e-05
