<?xml version="1.0"?>
<opencv_storage>
<my_svm type_id="opencv-ml-svm">
  <svm_type>C_SVC</svm_type>
  <kernel><type>LINEAR</type></kernel>
  <C>1.0000000000000001e-01</C>
  <term_criteria><epsilon>2.2204460492503131e-16</epsilon>
    <iterations>1000</iterations></term_criteria>
  <var_all>2500</var_all>
  <var_count>2500</var_count>
  <class_count>13</class_count>
  <class_labels type_id="opencv-matrix">
    <rows>1</rows>
    <cols>13</cols>
    <dt>i</dt>
    <data>
      -4 -3 -2 -1 1 2 3 4 5 6 7 8 9</data></class_labels>
  <sv_total>78</sv_total>
  <support_vectors>
    <_>
      -2.80507561e-06 -2.80507561e-06 -2.80507561e-06 -2.80507561e-06
      -2.80507561e-06 -2.80507561e-06 -2.80507561e-06 -2.80507561e-06
      -2.80507561e-06 -2.80507561e-06 -2.80507561e-06 -2.80507561e-06
      -2.80507561e-06 -2.80507561e-06 -2.80507561e-06 -2.80507561e-06
      -2.80507561e-06 -2.80507561e-06 -2.79407527e-06 -2.79407527e-06
      -2.80507561e-06 -2.80507561e-06 -2.80507561e-06 -2.79407527e-06
      -2.79407527e-06 -2.79407527e-06 -2.79407527e-06 -2.79407527e-06
      -2.79407527e-06 -2.80507561e-06 -2.80507561e-06 -2.80507561e-06
      -2.80507561e-06 -2.80507561e-06 -2.80507561e-06 -2.80507561e-06
      -2.80507561e-06 -2.80507561e-06 -2.79407527e-06 -2.79407527e-06
      -2.79407527e-06 -2.80507561e-06 -2.80507561e-06 -2.80507561e-06
      -2.80507561e-06 -2.80507561e-06 -2.80507561e-06 -2.80507561e-06
      -2.80507561e-06 -2.80507561e-06 -2.80507561e-06 -2.80507561e-06
      -2.80507561e-06 -2.80507561e-06 -2.80507561e-06 -2.80507561e-06
      -2.80507561e-06 -2.80507561e-06 -2.80507561e-06 -2.80507561e-06
      -2.80507561e-06 -2.80507561e-06 -2.80507561e-06 -2.80507561e-06
      -2.80507561e-06 -2.80507561e-06 -2.80507561e-06 -2.80507561e-06
      -2.79407527e-06 -2.79407527e-06 -2.80507561e-06 -2.80507561e-06
      -2.79407527e-06 -2.79407527e-06 -2.79407527e-06 -2.80507561e-06
      -2.79407527e-06 -2.79407527e-06 -2.79407527e-06 -2.80507561e-06
      -2.79407527e-06 -2.79407527e-06 -2.79407527e-06 -2.79407527e-06
      -2.79407527e-06 -2.79407527e-06 -2.79407527e-06 -2.79407527e-06
      -2.79407527e-06 -2.79407527e-06 -2.79407527e-06 -2.80507561e-06
      -2.80507561e-06 -2.80507561e-06 -2.80507561e-06 -2.80507561e-06
      -2.80507561e-06 -2.80507561e-06 -2.80507561e-06 -2.80507561e-06
      -2.80507561e-06 -2.80507561e-06 -2.80507561e-06 -2.80507561e-06
      -2.80507561e-06 -2.80507561e-06 -2.80507561e-06 -2.80507561e-06
      -2.80507561e-06 -2.80507561e-06 -2.80507561e-06 -2.80507561e-06
      -2.80507561e-06 -2.80507561e-06 -2.80507561e-06 -2.80507561e-06
      -2.80507561e-06 -2.79407527e-06 -2.79407527e-06 -2.79407527e-06
      -2.79407527e-06 -2.79407527e-06 -2.79407527e-06 -2.79407527e-06
      -2.79407527e-06 -2.80507561e-06 -2.79407527e-06 -2.79407527e-06
      -2.80507561e-06 -2.79407527e-06 -2.78307516e-06 -2.79407527e-06
      -2.79407527e-06 -2.79407527e-06 -2.79407527e-06 -2.79407527e-06
      -2.79407527e-06 -2.79407527e-06 -2.79407527e-06 -2.79407527e-06
      -2.80507561e-06 -2.80507561e-06 -2.80507561e-06 -2.80507561e-06
      -2.80507561e-06 -2.80507561e-06 -2.80507561e-06 -2.80507561e-06
      -2.80507561e-06 -2.80507561e-06 -2.80507561e-06 -2.80507561e-06
      -2.80507561e-06 -2.80507561e-06 -2.80507561e-06 -2.80507561e-06
      -2.80507561e-06 -2.80507561e-06 -2.80507561e-06 -2.80507561e-06
      -2.80507561e-06 -2.80507561e-06 -2.80507561e-06 -2.80507561e-06
      -2.80507561e-06 -2.80507561e-06 -2.79407527e-06 -2.79407527e-06
      -2.79407527e-06 -2.79407527e-06 -2.79407527e-06 -2.79407527e-06
      -2.79407527e-06 -2.79407527e-06 -2.79407527e-06 -2.79407527e-06
      -2.79407527e-06 -2.80507561e-06 -2.80507561e-06 -2.79407527e-06
      -2.79407527e-06 -2.79407527e-06 -2.79407527e-06 -2.79407527e-06
      -2.79407527e-06 -2.79407527e-06 -2.79407527e-06 -2.79407527e-06
      -2.79407527e-06 -2.80507561e-06 -2.80507561e-06 -2.80507561e-06
      -2.80507561e-06 -2.80507561e-06 -2.80507561e-06 -2.80507561e-06
      -2.80507561e-06 -2.80507561e-06 -2.80507561e-06 -2.80507561e-06
      -2.80507561e-06 -2.80507561e-06 -2.80507561e-06 -2.80507561e-06
      -2.80507561e-06 -2.80507561e-06 -2.80507561e-06 -2.80507561e-06
      -2.80507561e-06 -2.80507561e-06 -2.80507561e-06 -2.80507561e-06
      -2.80507561e-06 -2.80507561e-06 -2.80507561e-06 -2.80507561e-06
      -2.79407527e-06 -2.79407527e-06 -2.79407527e-06 -2.79407527e-06
      -2.79407527e-06 -2.71707336e-06 -2.54106862e-06 -2.46406648e-06
      -2.46406648e-06 -2.46406648e-06 -2.47506682e-06 -2.47506682e-06
      -2.55206896e-06 -2.71707336e-06 -2.79407527e-06 -2.79407527e-06
      -2.79407527e-06 -2.79407527e-06 -2.79407527e-06 -2.79407527e-06
      -2.80507561e-06 -2.80507561e-06 -2.80507561e-06 -2.80507561e-06
      -2.80507561e-06 -2.80507561e-06 -2.80507561e-06 -2.80507561e-06
      -2.80507561e-06 -2.80507561e-06 -2.80507561e-06 -2.80507561e-06
      -2.80507561e-06 -2.80507561e-06 -2.80507561e-06 -2.80507561e-06
      -2.80507561e-06 -2.80507561e-06 -2.80507561e-06 -2.80507561e-06
      -2.80507561e-06 -2.80507561e-06 -2.80507561e-06 -2.80507561e-06
      -2.80507561e-06 -2.80507561e-06 -2.80507561e-06 -2.80507561e-06
      -2.80507561e-06 -2.80507561e-06 -2.79407527e-06 -2.71707336e-06
      -2.54106862e-06 -2.46406648e-06 -2.47506682e-06 -2.31006243e-06
      -1.96905307e-06 -1.81504902e-06 -1.81504902e-06 -1.81504902e-06
      -1.81504902e-06 -1.81504902e-06 -1.98005341e-06 -2.31006243e-06
      -2.46406648e-06 -2.54106862e-06 -2.70607302e-06 -2.79407527e-06
      -2.79407527e-06 -2.79407527e-06 -2.79407527e-06 -2.79407527e-06
      -2.79407527e-06 -2.80507561e-06 -2.80507561e-06 -2.80507561e-06
      -2.80507561e-06 -2.80507561e-06 -2.80507561e-06 -2.80507561e-06
      -2.80507561e-06 -2.80507561e-06 -2.80507561e-06 -2.80507561e-06
      -2.80507561e-06 -2.80507561e-06 -2.80507561e-06 -2.80507561e-06
      -2.80507561e-06 -2.80507561e-06 -2.80507561e-06 -2.80507561e-06
      -2.80507561e-06 -2.80507561e-06 -2.80507561e-06 -2.80507561e-06
      -2.80507561e-06 -2.80507561e-06 -2.80507561e-06 -2.71707336e-06
      -2.55206896e-06 -2.29906209e-06 -1.96905307e-06 -1.81504902e-06
      -1.81504902e-06 -1.73804688e-06 -1.56204214e-06 -1.48504012e-06
      -1.48504012e-06 -1.48504012e-06 -1.48504012e-06 -1.48504012e-06
      -1.57304248e-06 -1.72704654e-06 -1.81504902e-06 -1.96905307e-06
      -2.29906209e-06 -2.46406648e-06 -2.55206896e-06 -2.71707336e-06
      -2.80507561e-06 -2.79407527e-06 -2.79407527e-06 -2.79407527e-06
      -2.80507561e-06 -2.80507561e-06 -2.80507561e-06 -2.80507561e-06
      -2.80507561e-06 -2.80507561e-06 -2.80507561e-06 -2.80507561e-06
      -2.80507561e-06 -2.80507561e-06 -2.80507561e-06 -2.80507561e-06
      -2.80507561e-06 -2.80507561e-06 -2.80507561e-06 -2.80507561e-06
      -2.80507561e-06 -2.80507561e-06 -2.80507561e-06 -2.80507561e-06
      -2.80507561e-06 -2.80507561e-06 -2.80507561e-06 -2.71707336e-06
      -2.55206896e-06 -2.31006243e-06 -1.98005341e-06 -1.72704654e-06
      -1.56204214e-06 -1.48504012e-06 -1.48504012e-06 -1.48504012e-06
      -1.48504012e-06 -1.48504012e-06 -1.48504012e-06 -1.48504012e-06
      -1.48504012e-06 -1.48504012e-06 -1.48504012e-06 -1.48504012e-06
      -1.48504012e-06 -1.56204214e-06 -1.72704654e-06 -1.81504902e-06
      -1.98005341e-06 -2.38706434e-06 -2.71707336e-06 -2.79407527e-06
      -2.80507561e-06 -2.80507561e-06 -2.80507561e-06 -2.80507561e-06
      -2.80507561e-06 -2.80507561e-06 -2.80507561e-06 -2.80507561e-06
      -2.80507561e-06 -2.80507561e-06 -2.80507561e-06 -2.80507561e-06
      -2.64007122e-06 -2.71707336e-06 -2.80507561e-06 -2.80507561e-06
      -2.80507561e-06 -2.80507561e-06 -2.80507561e-06 -2.80507561e-06
      -2.80507561e-06 -1.77832624e-06 -1.77832624e-06 -1.77832624e-06
      -2.71707336e-06 -2.38706434e-06 -9.53303925e-07 -7.11297446e-07
      -1.57304248e-06 -1.48504012e-06 -1.83112081e-06 -1.83112081e-06
      -1.83112081e-06 -4.58290600e-07 -4.58290600e-07 -1.48504012e-06
      -1.48504012e-06 -1.83112081e-06 -1.83112081e-06 -2.85787019e-06
      -1.83112081e-06 -1.83112081e-06 -1.48504012e-06 -1.48504012e-06
      -4.58290600e-07 -4.58290600e-07 -2.92735422e-06 -3.25736301e-06
      -3.67537427e-06 -3.91738104e-06 -1.69032387e-06 -1.77832624e-06
      -2.79407527e-06 -2.79407527e-06 -2.79407527e-06 -2.80507561e-06
      -2.80507561e-06 -2.80507561e-06 -2.80507561e-06 -2.80507561e-06
      -2.80507561e-06 -2.80507561e-06 -2.14505781e-06 -2.38706434e-06
      -2.71707336e-06 -2.79407527e-06 -2.79407527e-06 -2.79407527e-06
      -2.80507561e-06 -2.80507561e-06 -2.80507561e-06 -1.77832624e-06
      -1.76732590e-06 -1.69032387e-06 -1.36031497e-06 -8.54301277e-07
      -5.35292656e-07 -4.58290600e-07 -4.58290600e-07 -1.83112081e-06
      -1.83112081e-06 -3.20395111e-06 -1.83112081e-06 -1.83112081e-06
      -1.83112081e-06 -1.83112081e-06 -1.83112081e-06 -1.83112081e-06
      -1.83112081e-06 -1.83112081e-06 -1.83112081e-06 -1.83112081e-06
      -1.83112081e-06 -1.83112081e-06 -1.40235727e-06 -1.82360270e-06
      -1.82360270e-06 -1.90060473e-06 -2.06560912e-06 -2.31861600e-06
      -3.15439047e-06 -1.69032387e-06 -1.76732590e-06 -2.79407527e-06
      -2.79407527e-06 -2.79407527e-06 -2.79407527e-06 -2.79407527e-06
      -2.79407527e-06 -2.80507561e-06 -2.80507561e-06 -2.80507561e-06
      -1.65004451e-06 -1.90305138e-06 -2.38706434e-06 -2.71707336e-06
      -2.80507561e-06 -2.80507561e-06 -2.80507561e-06 -2.80507561e-06
      -2.79407527e-06 -2.79407527e-06 -1.69032387e-06 -1.36031497e-06
      -8.65301558e-07 -5.46292995e-07 -4.58290600e-07 -4.58290600e-07
      -4.58290600e-07 -1.83112081e-06 -1.83112081e-06 -1.83112081e-06
      -1.83112081e-06 -1.83112081e-06 -1.83112081e-06 -1.83112081e-06
      -1.83112081e-06 -8.04371325e-07 -8.04371325e-07 -1.83112081e-06
      -1.83112081e-06 -1.83112081e-06 -1.83112081e-06 -1.83112081e-06
      -1.82360270e-06 -7.96853158e-07 -1.82360270e-06 -3.61767820e-06
      -1.82360270e-06 -1.91160507e-06 -4.36538045e-07 -9.31551426e-07
      -2.71707336e-06 -2.79407527e-06 -2.79407527e-06 -2.79407527e-06
      -2.80507561e-06 -2.80507561e-06 -2.80507561e-06 -2.80507561e-06
      -2.80507561e-06 -2.80507561e-06 -1.48504012e-06 -1.57304248e-06
      -1.96905307e-06 -2.54106862e-06 -2.79407527e-06 -2.80507561e-06
      -2.80507561e-06 -2.80507561e-06 -1.76732590e-06 -2.71707336e-06
      -1.36031497e-06 -8.76301897e-07 -5.35292656e-07 -4.58290600e-07
      -4.58290600e-07 -4.58290600e-07 -1.83112081e-06 -1.83112081e-06
      -1.83112081e-06 -1.83112081e-06 -1.83112081e-06 -1.83112081e-06
      -2.85787019e-06 -1.83112081e-06 -1.83112081e-06 5.68458859e-07
      -1.83112081e-06 -1.83112081e-06 -1.83112081e-06 -1.83112081e-06
      -1.83112081e-06 -1.83112081e-06 -1.82360270e-06 -1.82360270e-06
      -2.25236613e-06 -2.25236613e-06 -1.83460293e-06 3.99236455e-07
      -1.06529150e-07 -3.68612655e-06 -2.38706434e-06 -2.71707336e-06
      -2.79407527e-06 -2.80507561e-06 -2.80507561e-06 -2.80507561e-06
      -2.80507561e-06 -2.80507561e-06 -2.80507561e-06 -2.80507561e-06
      -1.48504012e-06 -1.48504012e-06 -1.81504902e-06 -2.46406648e-06
      -2.79407527e-06 -2.79407527e-06 -2.80507561e-06 -2.80507561e-06
      -2.71707336e-06 -1.36031497e-06 -8.65301558e-07 -5.46292995e-07
      -4.58290600e-07 -4.58290600e-07 -4.58290600e-07 -4.58290600e-07
      -1.83112081e-06 -1.83112081e-06 -1.83112081e-06 -1.83112081e-06
      -1.83112081e-06 -2.85787019e-06 -2.85787019e-06 -1.83112081e-06
      -1.83112081e-06 -4.58290600e-07 -4.58290600e-07 -1.83112081e-06
      -1.83112081e-06 -1.83112081e-06 -1.83112081e-06 -2.42910687e-06
      -1.82360270e-06 -3.61767820e-06 -2.25236613e-06 -2.25236613e-06
      -1.82360270e-06 -1.82360270e-06 -1.82360270e-06 -3.36711810e-06
      -3.68612655e-06 -2.38706434e-06 -2.71707336e-06 -2.79407527e-06
      -2.79407527e-06 -2.79407527e-06 -2.80507561e-06 -2.80507561e-06
      -2.80507561e-06 -2.80507561e-06 -1.48504012e-06 -1.48504012e-06
      -1.81504902e-06 -2.46406648e-06 -2.79407527e-06 -2.79407527e-06
      -2.79407527e-06 -2.79407527e-06 -2.55206896e-06 -9.42303643e-07
      -5.46292995e-07 -4.58290600e-07 -4.58290600e-07 -4.58290600e-07
      -4.58290600e-07 -4.58290600e-07 -1.83112081e-06 -1.83112081e-06
      -1.83112081e-06 -1.83112081e-06 -4.58290600e-07 -4.58290600e-07
      -1.83112081e-06 -1.83112081e-06 -1.83112081e-06 -1.83112081e-06
      -1.83112081e-06 -1.83112081e-06 -1.83112081e-06 1.45968706e-05
      4.64261029e-05 6.28540947e-05 6.28506168e-05 6.38883648e-05
      6.28616108e-05 4.82276992e-05 1.41756254e-05 -2.25236613e-06
      -1.82360270e-06 -2.85035208e-06 -1.56204214e-06 -1.98005341e-06
      -2.55206896e-06 -2.79407527e-06 -2.79407527e-06 -2.79407527e-06
      -2.79407527e-06 -2.80507561e-06 -2.80507561e-06 -2.80507561e-06
      -1.48504012e-06 -1.56204214e-06 -1.96905307e-06 -2.55206896e-06
      -2.79407527e-06 -2.79407527e-06 -2.79407527e-06 -2.71707336e-06
      -2.31006243e-06 -7.00297107e-07 -1.48504012e-06 -4.58290600e-07
      5.68458859e-07 1.59697011e-05 4.77989342e-05 6.42269297e-05
      4.64261029e-05 1.35701212e-05 -1.83112081e-06 -4.58290600e-07
      -5.99558280e-06 -1.70701678e-05 -2.36342094e-05 -4.00622012e-05
      -7.18914307e-05 -8.83194225e-05 -6.77269709e-05 -2.37964050e-05
      1.45968706e-05 7.92820865e-05 1.23374848e-04 7.27043589e-05
      2.91469605e-05 2.92672503e-05 3.78082768e-05 3.05192953e-05
      -5.47171067e-06 -1.45295844e-05 -1.82360270e-06 -1.05627657e-06
      -1.48504012e-06 -1.72704654e-06 -2.31006243e-06 -2.71707336e-06
      -2.79407527e-06 -2.79407527e-06 -2.79407527e-06 -2.79407527e-06
      -2.80507561e-06 -2.80507561e-06 -1.49604034e-06 -1.73804688e-06
      -2.31006243e-06 -2.71707336e-06 -2.79407527e-06 -2.80507561e-06
      -2.71707336e-06 -2.38706434e-06 -1.89205105e-06 -5.46292995e-07
      -2.58525029e-06 -3.75892159e-06 9.51716720e-06 7.53252607e-05
      1.48273059e-04 1.63265111e-04 1.26886604e-04 5.00353599e-05
      -4.42299233e-06 -4.26433508e-05 -9.00874002e-05 -9.57592420e-05
      -5.15958236e-05 -3.00997526e-05 -8.18879125e-05 -1.36742950e-04
      -1.25522478e-04 -3.26477202e-05 7.92820865e-05 1.38430012e-04
      5.70307020e-05 -1.01279460e-04 -1.29997017e-04 -8.36890686e-05
      -5.20892718e-05 -2.18885052e-05 -1.91985309e-05 -1.26863306e-05
      6.20951914e-06 4.22296398e-06 -1.59096533e-06 -1.56204214e-06
      -1.98005341e-06 -2.55206896e-06 -2.79407527e-06 -2.79407527e-06
      -2.86283853e-06 -2.79407527e-06 -2.80507561e-06 -2.80507561e-06
      -1.66104485e-06 -1.99105375e-06 -2.56306907e-06 -2.79407527e-06
      -2.79407527e-06 -2.80507561e-06 -2.55206896e-06 -1.96905307e-06
      -1.24946632e-06 -7.21100650e-06 -3.10825089e-05 -5.72636927e-05
      -2.31016038e-05 8.91508680e-05 1.57272749e-04 1.53047993e-04
      1.33661699e-04 6.37524645e-05 -3.02894423e-05 -1.47779836e-04
      -2.40153531e-04 -1.85838959e-04 -1.38870373e-05 8.26336254e-05
      7.84406438e-06 -9.24746637e-05 -1.41928103e-04 -7.84152362e-05
      1.02961894e-04 1.12267575e-04 -4.72338979e-05 -7.44032950e-05
      2.60873294e-05 8.18189801e-05 7.22508921e-05 6.48845962e-05
      4.15942159e-05 -5.35110803e-06 -7.02774287e-06 1.70777530e-05
      6.77774187e-06 -3.70817907e-06 -2.22035510e-06 -2.75278126e-06
      -2.89176182e-06 -2.86283853e-06 -2.86283853e-06 -2.86283853e-06
      -2.80507561e-06 -2.80507561e-06 -2.14505781e-06 -2.38706434e-06
      -2.71707336e-06 -2.79407527e-06 -2.79407527e-06 -2.71707336e-06
      -2.31006243e-06 -1.72704654e-06 -7.21100650e-06 -3.71776223e-05
      -6.77371863e-05 -8.81837914e-05 -5.33400271e-05 3.58600482e-05
      6.83504622e-05 8.76115810e-05 1.00150064e-04 2.63558704e-05
      -1.09807064e-04 -2.58503685e-04 -2.87732604e-04 -1.33450492e-04
      4.55654845e-05 7.76588931e-05 -5.71468445e-05 -1.38651798e-04
      -2.07519377e-04 -2.28101213e-04 -9.18035312e-06 5.39371395e-05
      6.77699882e-06 1.53449568e-04 2.26538730e-04 1.85211873e-04
      1.48619656e-04 9.09864830e-05 6.34384851e-05 7.95556662e-06
      -5.10900136e-05 -2.10051403e-05 -1.71591836e-07 -5.52388565e-06
      -2.21211621e-06 -1.60212380e-06 -2.99478779e-06 -2.41614566e-06
      -3.25022188e-06 -2.91342826e-06 -2.80507561e-06 -2.80507561e-06
      -2.64007122e-06 -2.71707336e-06 -2.79407527e-06 -2.79407527e-06
      -2.79407527e-06 -2.55206896e-06 -1.98005341e-06 -1.57304248e-06
      -2.89519994e-05 -6.31414441e-05 -9.64715218e-06 2.17311135e-05
      -2.10631697e-05 -2.00681825e-05 7.33261459e-07 8.27637123e-05
      1.06248895e-04 -4.08224114e-05 -2.01180126e-04 -3.00212821e-04
      -1.82230739e-04 2.14844385e-05 2.02457177e-05 -6.24710592e-05
      -1.25009436e-04 -9.77989694e-05 -1.63132296e-04 -2.92131677e-04
      -1.00365934e-04 3.88916742e-05 3.98375159e-05 1.50449952e-04
      8.52737940e-05 2.87732164e-05 1.06931155e-04 7.67937599e-05
      5.57779167e-05 5.63495269e-05 -5.71802666e-05 -1.13245689e-04
      -4.16549519e-05 -2.06651953e-06 -2.54556858e-06 -1.43711929e-06
      -1.93213259e-06 -2.33914375e-06 -3.35614709e-06 -3.28738406e-06
      -2.80507561e-06 -2.80507561e-06 -2.80507561e-06 -2.80507561e-06
      -2.79407527e-06 -2.79407527e-06 -2.79407527e-06 -2.47506682e-06
      -1.81504902e-06 -1.48504012e-06 -3.34594079e-05 -2.33360752e-05
      1.15993054e-04 1.40299919e-04 -3.93366754e-05 -1.36636183e-04
      -7.13599802e-05 9.96601229e-05 1.25638719e-04 -7.46677033e-05
      -2.15159831e-04 -2.65950017e-04 -1.32384012e-04 1.91714280e-05
      -1.16929026e-04 -2.22219038e-04 -1.56321563e-04 -5.09272286e-05
      -8.72205783e-05 -2.13212450e-04 -8.06858079e-05 1.61653716e-05
      -2.25628028e-05 2.82881647e-05 -5.44007016e-05 -4.88372898e-05
      1.21853715e-04 1.37922092e-04 7.57036469e-05 6.61364538e-05
      -1.95027915e-05 -1.12705646e-04 -5.87372451e-05 -6.14897044e-06
      -5.16400041e-06 -1.43711929e-06 -2.54212523e-06 -3.11414055e-06
      -3.35614709e-06 -3.26122199e-06 -2.80507561e-06 -2.80507561e-06
      -2.79407527e-06 -2.79407527e-06 -2.79407527e-06 -2.79407527e-06
      -2.79407527e-06 -2.47506682e-06 -1.81504902e-06 -1.13327860e-06
      -1.06925745e-05 3.96343094e-05 1.53130750e-04 1.29763081e-04
      -6.92268732e-05 -2.12998086e-04 -1.29485124e-04 8.24439121e-05
      1.14405477e-04 -6.15595272e-05 -1.65241436e-04 -2.07540390e-04
      -1.74716333e-04 -1.16898467e-04 -2.39911300e-04 -3.27266724e-04
      -2.35492349e-04 -1.24433820e-04 -1.19658194e-04 -1.39612181e-04
      -4.92248546e-05 -3.76058561e-05 -7.34632995e-05 -4.34065623e-05
      -7.68814061e-05 -3.88982626e-05 1.07593063e-04 1.66123529e-04
      9.66797816e-05 4.08384476e-05 1.73831377e-05 -2.09593381e-05
      -4.40456206e-05 -3.03011184e-05 -9.14102384e-06 -1.53336066e-06
      -1.52512166e-06 -3.03713841e-06 -3.35614709e-06 -3.19245896e-06
      -2.80507561e-06 -2.80507561e-06 -2.80507561e-06 -2.80507561e-06
      -2.79407527e-06 -2.79407527e-06 -2.71707336e-06 -2.31006243e-06
      -1.72704654e-06 -1.72704654e-06 1.41594146e-05 7.37930895e-05
      1.31213892e-04 1.18215008e-04 2.27568635e-05 -9.70309629e-05
      -8.65011971e-05 6.12527147e-05 9.87880630e-05 -2.71151457e-05
      -1.09109416e-04 -1.01114485e-04 -3.29175855e-05 1.07004262e-05
      -1.00025405e-04 -2.15034830e-04 -1.61437943e-04 -8.18081317e-05
      -1.16240095e-04 -1.22989673e-04 -7.84541480e-05 -7.56107911e-05
      -6.04109337e-05 -7.87666431e-05 -7.92586361e-05 -2.07294543e-05
      8.35647006e-05 1.50893873e-04 9.18141741e-05 3.24358480e-05
      3.46097695e-05 2.93319135e-05 -3.09400639e-05 -5.27396769e-05
      -1.59381980e-05 -1.86336956e-06 -7.89714136e-07 -3.03713841e-06
      -2.54649876e-06 -3.29838417e-06 -2.80507561e-06 -2.80507561e-06
      -2.80507561e-06 -2.80507561e-06 -2.79407527e-06 -2.79407527e-06
      -2.55206896e-06 -1.98005341e-06 -1.57304248e-06 -1.72704654e-06
      2.45207266e-05 7.64644137e-05 1.10584995e-04 1.29859225e-04
      1.30937493e-04 6.19702187e-05 -1.35118880e-05 5.00518363e-05
      1.11371373e-04 2.29935358e-05 -4.26886145e-05 5.55066390e-06
      1.50716471e-04 2.43348142e-04 1.32317218e-04 -5.03935626e-05
      -8.93054530e-05 -2.97512870e-05 -6.72075694e-05 -1.30262240e-04
      -1.59034666e-04 -8.69268479e-05 1.07000369e-05 -5.54852268e-05
      -7.07346771e-05 -2.01944567e-06 7.59255418e-05 1.35875409e-04
      7.80391274e-05 2.95407426e-05 3.69259797e-05 3.74802730e-05
      -2.17684956e-05 -6.16432153e-05 -2.73294263e-05 -3.12858424e-06
      -1.61036269e-06 -1.93213259e-06 -2.33914375e-06 -3.29838417e-06
      -2.80507561e-06 -2.80507561e-06 -2.80507561e-06 -2.80507561e-06
      -2.79407527e-06 -2.79407527e-06 -2.46406648e-06 -1.81504902e-06
      -1.48504012e-06 -1.56204214e-06 1.07956066e-05 1.87235510e-05
      8.97886184e-06 3.26222325e-05 9.36983270e-05 9.91833294e-05
      5.26001486e-06 3.35816439e-05 1.27649168e-04 6.07687580e-05
      -7.87031786e-06 1.75285750e-05 1.15773400e-04 2.03663993e-04
      1.05664323e-04 -7.78768153e-05 -1.22905796e-04 -5.00037204e-05
      -4.10810062e-05 -1.16497496e-04 -1.95913672e-04 -9.05674751e-05
      5.85108464e-05 -3.33137941e-05 -6.63994797e-05 4.21350887e-06
      6.93465845e-05 1.30440589e-04 7.96656459e-05 3.17717240e-05
      3.89661946e-05 4.18678064e-05 -1.63867990e-05 -6.38110432e-05
      -3.54856420e-05 -5.32900503e-06 -2.38535972e-06 -1.53336066e-06
      -2.10537610e-06 -2.42714600e-06 -2.80507561e-06 -2.80507561e-06
      -2.53882172e-06 -2.53882172e-06 -2.53882172e-06 -2.53882172e-06
      -2.47506682e-06 -1.81504902e-06 -1.48504012e-06 -1.48504012e-06
      -1.84107284e-06 -2.82138953e-05 -6.61026424e-05 -6.02539149e-05
      1.87815967e-05 7.64212527e-05 -1.28244039e-06 2.67104260e-05
      1.33659370e-04 6.43793828e-05 -9.11221196e-06 -1.03929970e-05
      2.48578672e-05 5.90062518e-05 -5.42601119e-05 -1.79024049e-04
      -1.34216461e-04 -5.66865310e-05 -6.91503301e-05 -9.14173652e-05
      -1.47258994e-04 -7.08987282e-05 7.27808001e-05 -3.25995716e-05
      -6.93422480e-05 1.06623520e-05 6.98100848e-05 1.27850435e-04
      8.12867293e-05 3.18159218e-05 4.02498481e-05 4.19475691e-05
      -1.52865887e-05 -6.26998299e-05 -3.65170890e-05 -7.36921675e-06
      -3.12900602e-06 -2.18900482e-06 -1.92244875e-06 -3.36714743e-06
      -2.80507561e-06 -2.80507561e-06 -2.53882172e-06 -2.52782161e-06
      -2.52782161e-06 -2.53882172e-06 -2.20881293e-06 -1.54879513e-06
      -1.48504012e-06 -1.48504012e-06 -9.32421926e-07 -2.79789529e-05
      -6.65932821e-05 -6.78548822e-05 5.56692976e-06 6.41926526e-05
      -4.19809749e-06 3.05776703e-05 1.38500487e-04 6.47904380e-05
      -1.46458824e-05 -4.12887057e-05 -2.72692687e-05 -3.43784413e-05
      -1.81026931e-04 -2.36899607e-04 -1.05878295e-04 -6.38132769e-05
      -1.09038694e-04 -4.53975481e-05 -4.15273680e-05 -1.00187826e-05
      8.10555503e-05 -4.48104001e-05 -7.37862574e-05 1.05419949e-05
      7.00803357e-05 1.28790431e-04 8.17944820e-05 3.18049206e-05
      3.93888404e-05 4.15263239e-05 -1.58409821e-05 -6.26888359e-05
      -3.67741195e-05 -7.30045349e-06 -2.37712061e-06 -2.37712061e-06
      -2.96837538e-06 -3.18145862e-06 -2.80507561e-06 -2.80507561e-06
      -2.52782161e-06 -2.52782161e-06 -2.52782161e-06 -2.52782161e-06
      -2.19781259e-06 -1.53779479e-06 -1.21878622e-06 -1.48504012e-06
      -6.73168586e-07 -2.79789529e-05 -7.01924946e-05 -7.21433680e-05
      9.58738656e-06 5.98353981e-05 -1.22824395e-05 3.94480085e-05
      1.47077459e-04 6.55484764e-05 -2.92632249e-05 -7.73423599e-05
      -6.94112605e-05 -1.15861279e-04 -2.62227230e-04 -1.89158804e-04
      -4.55415175e-05 -8.92013122e-05 -7.90428239e-05 5.02885596e-05
      4.04636558e-05 5.42955750e-05 8.22146903e-05 -6.90676461e-05
      -7.51457192e-05 1.00147045e-05 6.75146221e-05 1.27967476e-04
      8.17944820e-05 3.05037411e-05 3.97029035e-05 4.15263239e-05
      -1.58409821e-05 -6.25939065e-05 -3.58585457e-05 -7.30045349e-06
      -3.31712204e-06 -2.37712061e-06 -3.96613950e-06 -3.28738406e-06
      -2.79407527e-06 -2.80507561e-06 -2.53882172e-06 -2.52782161e-06
      -2.52782161e-06 1.73224009e-06 1.05823719e-05 1.09761359e-05
      2.77502158e-06 -1.21878622e-06 -6.73168586e-07 -2.80477143e-05
      -7.79488182e-05 -6.67693166e-05 3.54427902e-05 5.56097293e-05
      -3.40025726e-05 3.95796633e-05 1.50122520e-04 6.57150522e-05
      -3.98703924e-05 -1.12196998e-04 -1.54319961e-04 -2.13132298e-04
      -2.32258302e-04 -6.46221160e-05 -4.70767991e-05 -1.63911725e-04
      -1.86039124e-05 1.31999463e-04 6.07609436e-05 8.28699776e-05
      9.85258375e-05 -6.48643327e-05 -7.44496356e-05 7.99222562e-06
      6.96430216e-05 1.28619373e-04 7.65011573e-05 3.54282383e-05
      6.79266886e-05 6.16315592e-05 -1.43508951e-05 -5.94672201e-05
      -3.02018179e-05 -6.00097610e-06 -3.28577153e-06 -3.36277367e-06
      -3.18290381e-06 -3.08811673e-06 -2.80507561e-06 -2.80507561e-06
      -2.53882172e-06 -2.53882172e-06 1.73224009e-06 1.42461713e-05
      2.72683628e-05 2.75741240e-05 1.54782047e-05 2.77502158e-06
      -8.26383484e-07 -2.97005445e-05 -8.37587650e-05 -4.45862497e-05
      8.18690241e-05 4.86734971e-05 -7.46188598e-05 2.50709127e-05
      1.50228443e-04 5.93963741e-05 -5.62875030e-05 -1.56775204e-04
      -2.61789304e-04 -2.53106642e-04 -9.85073493e-05 3.62704595e-05
      -7.25559512e-05 -1.55260583e-04 9.48250999e-06 8.76078338e-05
      9.59083809e-06 6.08254923e-05 1.35345137e-04 7.24959273e-06
      -7.21516844e-05 -1.64900921e-05 7.64030556e-05 1.35207476e-04
      7.97266403e-05 6.79918448e-05 9.68743188e-05 4.06060208e-05
      -2.27506207e-05 -3.70996422e-05 -1.94821860e-05 -3.85831800e-06
      -2.61912714e-06 -3.69278268e-06 -4.09979339e-06 -3.91976573e-06
      -2.80507561e-06 -2.80507561e-06 -2.53882172e-06 -2.53882172e-06
      9.97510961e-06 2.70263554e-05 2.28432964e-05 1.90012470e-05
      2.38333232e-05 1.55552061e-05 3.43367810e-06 -3.10115538e-05
      -8.55379403e-05 -2.92554523e-05 1.13517068e-04 5.31710248e-05
      -1.04627885e-04 7.14953012e-06 1.50496475e-04 4.18960663e-05
      -8.16272805e-05 -1.90334060e-04 -2.98125378e-04 -2.04026030e-04
      -2.08370548e-05 2.84578819e-05 -4.77873982e-05 -2.10959206e-05
      5.19801906e-05 -1.85583649e-05 -7.16360955e-05 -5.40245992e-06
      1.23141988e-04 1.06020430e-04 -5.40051187e-05 -3.74072370e-05
      1.34568138e-04 1.94058899e-04 1.18224874e-04 8.00584530e-05
      4.01582429e-06 -8.05343807e-05 -3.47855384e-05 -5.06614151e-06
      -1.26474752e-05 -2.86113368e-06 -2.61912714e-06 -3.03713841e-06
      -4.18779609e-06 -3.26122199e-06 -2.80507561e-06 -2.80507561e-06
      -2.37381732e-06 -2.45081947e-06 1.42351710e-05 3.12864177e-05
      1.42461713e-05 1.79599510e-06 1.94852582e-05 2.80691365e-05
      1.19538017e-05 -2.37190088e-05 -7.47687809e-05 -4.48372666e-05
      9.28395602e-05 6.46047847e-05 -9.43486302e-05 4.29840520e-06
      1.50496475e-04 2.48155975e-05 -1.04882689e-04 -2.20472633e-04
      -3.32460913e-04 -1.98669717e-04 -8.33472586e-05 -1.05119965e-04
      -9.48679663e-05 -1.81822215e-05 1.57522081e-05 -9.46984437e-05
      -1.04095838e-04 -4.69620027e-05 4.88258556e-05 1.62895813e-04
      4.61164600e-05 -5.01452587e-06 1.44177829e-04 1.61620832e-04
      5.97327053e-05 -2.89895070e-05 -1.31778026e-04 -1.31754205e-04
      -2.48487922e-05 4.14764509e-06 -7.99265035e-06 -2.53112489e-06
      -1.51412144e-06 -3.03713841e-06 -3.26122199e-06 -3.19245896e-06
      -2.80507561e-06 -2.80507561e-06 -2.04380854e-06 -2.28581507e-06
      1.42351710e-05 3.51682174e-05 2.66903335e-05 1.41171495e-05
      2.76693590e-05 3.67435059e-05 1.66351092e-05 -9.88613465e-06
      -5.20463545e-05 -7.83072464e-05 5.07127006e-05 1.03818857e-04
      -4.97529036e-05 9.19097329e-06 1.51183980e-04 1.61986118e-05
      -1.16038398e-04 -2.17496388e-04 -2.99887353e-04 -1.49675267e-04
      -8.52147496e-05 -1.42159231e-04 -1.20420103e-04 -6.75246483e-05
      -4.43084464e-05 -1.18095108e-04 -7.58109818e-05 -3.65628403e-05
      -9.98181895e-06 1.52279870e-04 1.44466889e-04 4.10384746e-05
      3.09903771e-05 -8.71289376e-06 -5.68897194e-05 -6.93637849e-05
      -6.61333106e-05 -3.31901356e-05 -1.08112199e-05 -6.15545468e-06
      -4.72422971e-06 -1.36835615e-06 -2.07497851e-06 -2.92602454e-06
      -2.35838297e-06 -2.25245753e-06 -2.80507561e-06 -2.80507561e-06
      -1.88580452e-06 -1.94955965e-06 1.86534780e-05 4.76123787e-05
      4.32715497e-05 3.08876188e-05 3.98365119e-05 4.48396058e-05
      2.43231880e-05 3.33237767e-06 -3.82247017e-05 -1.00842517e-04
      -1.14585573e-05 9.09905793e-05 1.48316494e-05 7.48282037e-05
      1.77363501e-04 2.12309460e-05 -1.25163759e-04 -2.04960379e-04
      -2.22641131e-04 -5.97859871e-05 -9.91975321e-06 -3.17329686e-05
      -9.56797157e-06 -2.11808092e-05 -6.21131549e-05 -1.14295362e-04
      -2.03688014e-05 3.30899479e-06 -6.84666738e-05 3.01572218e-05
      1.10354478e-04 6.76107520e-05 1.34686989e-05 -1.54659629e-05
      -1.69050725e-06 4.87970829e-05 7.28748710e-05 2.60871911e-05
      -1.46294788e-05 -8.57168925e-06 -1.90305138e-06 -1.81504902e-06
      -2.41598764e-06 -2.82299857e-06 -2.91100105e-06 -2.79407527e-06
      -2.71707336e-06 -2.64007122e-06 -1.73180035e-06 -2.05080892e-06
      2.70375895e-05 6.00565436e-05 3.91234971e-05 1.41413966e-05
      2.26902703e-05 4.44615871e-05 4.47128987e-05 1.55683101e-05
      -2.56563708e-05 -8.41360161e-05 -8.19843990e-05 -1.01446258e-05
      3.51359486e-05 9.23962143e-05 1.14703413e-04 -6.49172307e-06
      -1.15902360e-04 -2.07265170e-04 -2.29915982e-04 -7.07820363e-05
      1.94107652e-05 5.95716920e-05 1.06799140e-04 3.44860091e-05
      -1.07573316e-04 -1.78427887e-04 -2.12391860e-05 7.15749920e-05
      -5.43654460e-05 -6.75164047e-05 3.64199041e-05 7.16315335e-05
      6.02944056e-05 5.39313478e-05 5.59131731e-05 6.40247818e-05
      4.60072915e-05 2.49353025e-06 -1.19612987e-05 -3.57585554e-06
      -1.65004451e-06 -2.08597862e-06 -2.65799417e-06 -2.91100105e-06
      -2.91100105e-06 -2.90000071e-06 -2.55206896e-06 -2.31006243e-06
      -1.38379062e-06 -1.71379952e-06 2.26722786e-05 5.60627341e-05
      3.92355032e-05 5.86229362e-06 1.85523868e-06 3.12311640e-05
      5.63535832e-05 3.24420434e-05 -4.54348447e-06 -3.29495124e-05
      -5.81879031e-05 -1.39737040e-05 5.39758294e-05 5.57780040e-05
      4.08611413e-05 8.22213588e-06 -4.35406801e-05 -1.50374864e-04
      -2.41882866e-04 -1.33624169e-04 4.83493432e-06 6.72091483e-05
      8.67314593e-05 -5.29831641e-06 -1.60937765e-04 -2.22601215e-04
      -5.33529274e-05 1.06504536e-04 4.34759168e-05 -2.98980267e-05
      3.26230997e-06 3.32175987e-05 3.14401223e-05 2.95653062e-05
      1.99124388e-05 6.39655855e-06 -6.30113163e-06 -6.84168344e-06
      -3.58685588e-06 -1.66796747e-06 -1.83297186e-06 -2.41598764e-06
      -2.82299857e-06 -2.91100105e-06 -2.91100105e-06 -2.80507561e-06
      -2.47506682e-06 -2.14505781e-06 -1.20778589e-06 -1.46079276e-06
      6.37530775e-06 3.93235059e-05 5.57964813e-05 2.26785251e-05
      -2.45781985e-06 1.48004283e-05 4.76702699e-05 5.33232451e-05
      2.43556024e-05 1.60184663e-06 -5.93581717e-06 4.08667693e-05
      1.07042753e-04 1.10442168e-04 1.06356660e-04 8.13235238e-05
      2.03932868e-05 -7.12958354e-05 -1.80310817e-04 -1.39222961e-04
      -1.28562660e-05 3.37376441e-05 7.29561953e-06 -9.05118359e-05
      -1.84091317e-04 -1.73557390e-04 -5.30408179e-05 4.76738533e-05
      4.21365621e-05 5.67348297e-06 -2.57136799e-06 4.28884823e-06
      4.71761177e-06 4.06947311e-06 2.72391753e-06 4.18830325e-07
      -1.25017471e-06 -3.49478341e-07 -1.66796747e-06 -1.66796747e-06
      -2.08597862e-06 -2.65799417e-06 -2.90000071e-06 -2.80507561e-06
      -2.80507561e-06 -2.71707336e-06 -2.31006243e-06 -1.98005341e-06
      -1.21878622e-06 -1.29578825e-06 -1.70279930e-06 2.26722786e-05
      5.57964813e-05 3.95057577e-05 6.13954762e-06 1.80224174e-06
      2.72137131e-05 5.79836960e-05 4.87790057e-05 1.96658584e-05
      3.19072615e-06 2.23680418e-05 6.10574934e-05 7.77535170e-05
      7.78594404e-05 5.43032002e-05 1.55078251e-05 -2.19413832e-05
      -6.58719509e-05 -3.81244972e-05 2.65607214e-05 4.11413130e-05
      2.42845599e-05 -3.94175004e-05 -8.86753769e-05 -6.70700902e-05
      -2.28166864e-05 -1.95791563e-06 -6.52135327e-07 -9.20165746e-07
      -9.20165746e-07 -1.87815203e-06 -1.74303750e-06 -1.73203728e-06
      -1.94691529e-06 -1.94691529e-06 -8.51402604e-07 -2.92829691e-06
      -1.67896769e-06 -2.00897671e-06 -2.49298978e-06 -2.82299857e-06
      -2.79407527e-06 -2.79407527e-06 -2.79407527e-06 -2.66899451e-06
      -1.98005341e-06 -1.65004451e-06 -9.59532827e-07 -9.59532827e-07
      -1.46779325e-06 6.36830691e-06 3.09153911e-05 4.76546193e-05
      3.10976393e-05 5.45204830e-06 5.89541378e-06 2.83643712e-05
      4.58556424e-05 4.04828970e-05 1.96728597e-05 3.65665187e-06
      -8.28195823e-07 -9.20165746e-07 -8.14240479e-07 -8.51402604e-07
      -2.20616857e-06 -1.94691529e-06 5.58589761e-07 1.55078251e-05
      3.19358187e-05 3.00884185e-05 3.10149917e-05 1.56137503e-05
      -7.45477337e-07 -7.45477337e-07 -1.17941909e-06 -9.20165746e-07
      4.52664466e-07 5.21427637e-07 9.42672955e-07 5.10427299e-07
      -9.31166085e-07 1.06583713e-07 -1.18641958e-06 -9.20165746e-07
      -8.51402604e-07 -1.40402074e-06 -1.83297186e-06 -2.41598764e-06
      -2.82299857e-06 -2.91100105e-06 -2.91100105e-06 -2.90000071e-06
      -2.82299857e-06 -2.41598764e-06 -1.72704654e-06 -1.47403978e-06
      -9.59532827e-07 -9.59532827e-07 -1.03653485e-06 -1.44354590e-06
      6.11530004e-06 3.49864422e-05 5.17916742e-05 2.66903335e-05
      3.58839475e-06 2.17161778e-06 1.94231361e-05 4.47779639e-05
      5.04258351e-05 2.42074384e-05 3.07364212e-06 -9.20165746e-07
      -9.20165746e-07 -9.20165746e-07 -1.94691529e-06 -1.84098997e-06
      -4.68159698e-07 -8.51402604e-07 -6.60912406e-07 -1.20612549e-06
      -8.14240479e-07 -8.14240479e-07 -7.45477337e-07 4.52664466e-07
      1.01405965e-06 2.99336392e-07 2.99336392e-07 3.68099535e-07
      1.33496258e-06 -1.44049466e-06 -1.34892923e-06 -1.18641958e-06
      -1.18641958e-06 -2.72175953e-06 -7.45477337e-07 2.91097450e-07
      -2.08597862e-06 -2.65799417e-06 -2.90000071e-06 -2.80507561e-06
      -2.91100105e-06 -2.82299857e-06 -2.59891499e-06 -1.99797637e-06
      -1.56204214e-06 -1.48504012e-06 -1.21878622e-06 -1.22578672e-06
      -1.22578672e-06 -1.46779325e-06 -1.77355480e-06 1.39871509e-05
      4.32715497e-05 4.34955655e-05 2.39292895e-05 9.02092142e-06
      4.98494319e-06 2.70715882e-05 5.91282114e-05 5.40991714e-05
      3.19620740e-05 1.54878944e-05 3.19797846e-06 -1.73955539e-06
      -9.45613237e-07 4.27217003e-07 -1.84098997e-06 -1.87815203e-06
      -4.22639090e-07 -8.14240479e-07 -2.24039309e-06 -2.50664698e-06
      -2.17163006e-06 -8.40765040e-08 -5.65307914e-07 -6.06639858e-08
      -4.60067184e-07 -1.48681670e-06 -6.73168586e-07 -1.44049466e-06
      -1.50925780e-06 -1.73903777e-06 -1.61518312e-06 -1.24300402e-06
      -2.11948259e-06 -1.35043319e-06 -2.49298978e-06 -2.82299857e-06
      -2.90000071e-06 -2.80507561e-06 -2.91100105e-06 -2.65799417e-06
      -2.08597862e-06 -1.67896769e-06 -1.48504012e-06 -1.48504012e-06
      -1.22578672e-06 -1.22578672e-06 -1.22578672e-06 -1.31378908e-06
      -1.64379799e-06 1.76098968e-06 1.81352043e-05 3.91234971e-05
      4.36075716e-05 3.11634103e-05 1.43231728e-05 1.02811127e-05
      3.16284058e-05 5.74885162e-05 6.11375654e-05 4.85923920e-05
      3.20354156e-05 1.51504209e-05 3.18852130e-06 -9.59532827e-07
      -1.22578672e-06 -1.51171446e-06 -5.30769285e-07 -9.59532827e-07
      -1.22578672e-06 -1.48504012e-06 -1.22578672e-06 -1.22578672e-06
      -1.48504012e-06 -1.48504012e-06 -1.21878622e-06 -1.48504012e-06
      -1.48504012e-06 -1.22578672e-06 -1.48504012e-06 -1.48504012e-06
      -1.48504012e-06 -1.56204214e-06 -1.90305138e-06 -2.39806468e-06
      -2.71707336e-06 -2.80507561e-06 -2.80507561e-06 -2.79407527e-06
      -2.71707336e-06 -2.29906209e-06 -1.72704654e-06 -1.48504012e-06
      -1.48504012e-06 -1.48504012e-06 -1.22578672e-06 -1.22578672e-06
      -1.22578672e-06 -1.22578672e-06 -1.31378908e-06 -1.90305138e-06
      1.76098968e-06 1.81352043e-05 3.48634348e-05 3.92355032e-05
      3.51994568e-05 1.84712280e-05 1.87314672e-05 3.98787488e-05
      4.87638863e-05 5.70285156e-05 6.12535732e-05 4.43323333e-05
      1.96334913e-05 3.18852130e-06 -1.22578672e-06 -1.22578672e-06
      -9.59532827e-07 -1.21878622e-06 -1.22578672e-06 -1.22578672e-06
      -1.22578672e-06 -1.22578672e-06 -1.22578672e-06 -1.48504012e-06
      -1.22578672e-06 -1.22578672e-06 -1.48504012e-06 -1.47403978e-06
      -1.48504012e-06 -1.56204214e-06 -1.72704654e-06 -1.96905307e-06
      -2.38706434e-06 -2.71707336e-06 -2.80507561e-06 -2.79407527e-06
      -2.80507561e-06 -2.71707336e-06 -2.38706434e-06 -1.89205105e-06
      -1.56204214e-06 -1.48504012e-06 -1.48504012e-06 -1.48504012e-06
      -1.22578672e-06 -1.22578672e-06 -1.22578672e-06 -1.22578672e-06
      -1.22578672e-06 -1.31378908e-06 -1.63279765e-06 2.02024307e-06
      1.44006499e-05 3.07576192e-05 4.32715497e-05 3.93475093e-05
      3.11816439e-05 2.68625718e-05 2.68493241e-05 3.98475095e-05
      4.44615871e-05 4.47275961e-05 4.04435305e-05 2.35042917e-05
      1.51071763e-05 1.51071763e-05 1.51071763e-05 1.09591219e-05
      2.92226741e-06 -1.22578672e-06 -1.22578672e-06 -1.48504012e-06
      -1.22578672e-06 -1.22578672e-06 -1.22578672e-06 -1.22578672e-06
      -1.48504012e-06 -1.56204214e-06 -1.72704654e-06 -1.96905307e-06
      -2.29906209e-06 -2.54106862e-06 -2.70607302e-06 -2.79407527e-06
      -2.80507561e-06 -2.79407527e-06 -2.71707336e-06 -2.38706434e-06
      -1.89205105e-06 -1.57304248e-06 -1.48504012e-06 -1.48504012e-06
      -1.48504012e-06 -1.48504012e-06 -1.22578672e-06 -1.48504012e-06
      -1.48504012e-06 -1.22578672e-06 -1.22578672e-06 -1.22578672e-06
      -1.30278875e-06 -1.63279765e-06 2.28649697e-06 9.99334316e-06
      2.22062572e-05 3.91344947e-05 4.37658200e-05 3.12096490e-05
      2.69255816e-05 2.68625718e-05 1.46604152e-05 1.92192474e-05
      4.04255406e-05 4.45035839e-05 3.59664555e-05 3.17063932e-05
      3.16953920e-05 2.75513394e-05 1.51071763e-05 2.92226741e-06
      -1.22578672e-06 -1.48504012e-06 -1.22578672e-06 -1.22578672e-06
      -1.22578672e-06 -1.30278875e-06 -1.72704654e-06 -1.99105375e-06
      -2.31006243e-06 -2.55206896e-06 -2.70607302e-06 -2.79407527e-06
      -2.79407527e-06 -2.79407527e-06 -2.80507561e-06 -2.71707336e-06
      -2.38706434e-06 -1.89205105e-06 -1.57304248e-06 -1.48504012e-06
      -1.48504012e-06 -1.48504012e-06 -1.48504012e-06 -1.48504012e-06
      -1.22578672e-06 -1.48504012e-06 -1.48504012e-06 -1.48504012e-06
      -1.22578672e-06 -1.22578672e-06 -1.22578672e-06 -1.30278875e-06
      -1.36654376e-06 -2.12781106e-06 1.70123451e-06 1.80582028e-05
      3.91344947e-05 4.77666254e-05 4.38778261e-05 3.09503957e-05
      1.84712280e-05 1.47474311e-05 2.33975534e-05 3.60244776e-05
      3.18284146e-05 1.93034830e-05 1.92684784e-05 2.72150828e-05
      2.34032850e-05 7.07032132e-06 -1.22578672e-06 -1.57304248e-06
      -1.47879348e-06 -1.55579562e-06 -1.55579562e-06 -1.70979979e-06
      -2.29906209e-06 -2.55206896e-06 -2.71707336e-06 -2.79407527e-06
      -2.79407527e-06 -2.79407527e-06 -2.79407527e-06 -2.79407527e-06
      -2.71707336e-06 -2.38706434e-06 -1.89205105e-06 -1.56204214e-06
      -1.48504012e-06 -1.48504012e-06 -1.48504012e-06 -1.48504012e-06
      -1.48504012e-06 -1.48504012e-06 -1.22578672e-06 -1.22578672e-06
      -1.22578672e-06 -1.22578672e-06 -1.22578672e-06 -1.22578672e-06
      -1.22578672e-06 -1.22578672e-06 -1.03653485e-06 -1.63279765e-06
      -2.11681072e-06 1.70823489e-06 1.83244556e-05 3.92887414e-05
      4.78088659e-05 4.77666254e-05 4.76123787e-05 4.33413188e-05
      3.51754497e-05 3.96005162e-05 4.39485812e-05 2.71635890e-05
      1.87074620e-05 2.29192719e-05 1.47771671e-05 2.59225840e-06
      -1.55579562e-06 -1.98005341e-06 -2.05080892e-06 -2.21581331e-06
      -2.21581331e-06 -2.29281545e-06 -2.70607302e-06 -2.79407527e-06
      -2.79407527e-06 -2.79407527e-06 -2.80507561e-06 -2.79407527e-06
      -2.71707336e-06 -2.55206896e-06 -2.29906209e-06 -1.90305138e-06
      -1.57304248e-06 -1.48504012e-06 -1.48504012e-06 -1.47403978e-06
      -1.48504012e-06 -1.48504012e-06 -1.48504012e-06 -1.48504012e-06
      -9.66533321e-07 -9.66533321e-07 -1.22578672e-06 -1.22578672e-06
      -1.48504012e-06 -1.22578672e-06 -1.23678694e-06 -1.22578672e-06
      -9.59532827e-07 -1.04753519e-06 -1.63279765e-06 -2.03280820e-06
      1.86223906e-06 9.99334316e-06 2.24725100e-05 3.90114874e-05
      4.74196022e-05 5.16796645e-05 5.56804735e-05 6.02107903e-05
      6.02107903e-05 4.31705412e-05 2.65965591e-05 1.43064017e-05
      1.93224059e-06 -2.21581331e-06 -2.20481320e-06 -2.29281545e-06
      -2.45781985e-06 -2.53482199e-06 -2.54582233e-06 -2.54582233e-06
      -2.79407527e-06 -2.79407527e-06 -2.79407527e-06 -2.79407527e-06
      -2.80507561e-06 -2.71707336e-06 -2.38706434e-06 -1.98005341e-06
      -1.72704654e-06 -1.57304248e-06 -1.48504012e-06 -1.48504012e-06
      -1.48504012e-06 -1.48504012e-06 -1.48504012e-06 -1.48504012e-06
      -1.48504012e-06 -1.48504012e-06 -1.22578672e-06 -1.22578672e-06
      -1.22578672e-06 -1.22578672e-06 -1.48504012e-06 -1.22578672e-06
      -1.22578672e-06 -1.22578672e-06 -1.21878622e-06 -9.59532827e-07
      -1.57304248e-06 -1.73804688e-06 -1.98005341e-06 -2.31006243e-06
      1.59598528e-06 9.99334316e-06 1.40533948e-05 1.80472016e-05
      3.08273884e-05 3.93585105e-05 3.08383860e-05 1.80582028e-05
      1.01755941e-05 1.60223181e-06 -2.54582233e-06 -2.54582233e-06
      -2.53482199e-06 -2.53482199e-06 -2.80507561e-06 -2.80507561e-06
      -2.80507561e-06 -2.80507561e-06 -2.80507561e-06 -2.80507561e-06
      -2.79407527e-06 -2.71707336e-06 -2.56306907e-06 -2.31006243e-06
      -1.89205105e-06 -1.56204214e-06 -1.48504012e-06 -1.48504012e-06
      -1.48504012e-06 -1.48504012e-06 -1.48504012e-06 -1.48504012e-06
      -1.48504012e-06 -1.48504012e-06 -1.48504012e-06 -1.48504012e-06
      -1.48504012e-06 -1.48504012e-06 -1.48504012e-06 -1.48504012e-06
      -1.48504012e-06 -1.48504012e-06 -1.48504012e-06 -1.48504012e-06
      -1.48504012e-06 -1.48504012e-06 -1.48504012e-06 -1.48504012e-06
      -1.57304248e-06 -1.72704654e-06 -1.96905307e-06 -2.31006243e-06
      -2.47506682e-06 -2.55206896e-06 1.54298834e-06 5.72604768e-06
      1.46598620e-06 -2.79407527e-06 -2.80507561e-06 -2.80507561e-06
      -2.80507561e-06 -2.80507561e-06 -2.80507561e-06 -2.80507561e-06
      -2.80507561e-06 -2.80507561e-06 -2.80507561e-06 -2.80507561e-06
      -2.71707336e-06 -2.55206896e-06 -2.47506682e-06 -2.31006243e-06
      -1.98005341e-06 -1.73804688e-06 -1.56204214e-06 -1.48504012e-06
      -1.48504012e-06 -1.48504012e-06 -1.48504012e-06 -1.48504012e-06
      -1.48504012e-06 -1.48504012e-06 -1.48504012e-06 -1.48504012e-06
      -1.48504012e-06 -1.48504012e-06 -1.48504012e-06 -1.48504012e-06
      -1.48504012e-06 -1.48504012e-06 -1.48504012e-06 -1.48504012e-06
      -1.48504012e-06 -1.48504012e-06 -1.48504012e-06 -1.48504012e-06
      -1.48504012e-06 -1.48504012e-06 -1.48504012e-06 -1.48504012e-06
      -1.63904417e-06 -1.96905307e-06 -2.14505781e-06 -2.31006243e-06
      -2.62907088e-06 -2.80507561e-06 -2.79407527e-06 -2.79407527e-06
      -2.79407527e-06 -2.80507561e-06 -2.80507561e-06 -2.80507561e-06
      -2.80507561e-06 -2.80507561e-06 -2.80507561e-06 -2.80507561e-06
      -2.80507561e-06 -2.80507561e-06 -2.64007122e-06 -2.31006243e-06
      -2.14505781e-06 -1.98005341e-06 -1.65004451e-06 -1.48504012e-06
      -1.48504012e-06 -1.48504012e-06 -1.48504012e-06 -1.48504012e-06
      -1.48504012e-06 -1.48504012e-06 -1.48504012e-06 -1.48504012e-06
      -1.48504012e-06 -1.48504012e-06 -1.48504012e-06 -1.48504012e-06</_>
    <_>
      -2.18183959e-06 -2.18183959e-06 -2.18183959e-06 -2.18183959e-06
      -2.18183959e-06 -2.18183959e-06 -2.18183959e-06 -2.18183959e-06
      -2.18183959e-06 -2.18183959e-06 -2.18183959e-06 -2.18183959e-06
      -2.18183959e-06 -2.18183959e-06 -2.18183959e-06 -2.18183959e-06
      -2.18183959e-06 -2.18183959e-06 -2.17328329e-06 -2.17328329e-06
      -2.18183959e-06 -2.18183959e-06 -2.18183959e-06 -2.17328329e-06
      -2.17328329e-06 -2.17328329e-06 -2.17328329e-06 -2.17328329e-06
      -2.17328329e-06 -2.18183959e-06 -2.18183959e-06 -2.18183959e-06
      -2.18183959e-06 -2.18183959e-06 -2.18183959e-06 -2.18183959e-06
      -2.18183959e-06 -2.18183959e-06 -2.17328329e-06 -2.17328329e-06
      -2.17328329e-06 -2.18183959e-06 -2.18183959e-06 -2.18183959e-06
      -2.18183959e-06 -2.18183959e-06 -2.18183959e-06 -2.18183959e-06
      -2.18183959e-06 -2.18183959e-06 -2.18183959e-06 -2.18183959e-06
      -2.18183959e-06 -2.18183959e-06 -2.18183959e-06 -2.18183959e-06
      -2.18183959e-06 -2.18183959e-06 -2.18183959e-06 -2.18183959e-06
      -2.18183959e-06 -2.18183959e-06 -2.18183959e-06 -2.18183959e-06
      -2.18183959e-06 -2.18183959e-06 -2.18183959e-06 -2.18183959e-06
      -2.17328329e-06 -2.17328329e-06 -2.18183959e-06 -2.18183959e-06
      -2.17328329e-06 -2.17328329e-06 -2.17328329e-06 -2.18183959e-06
      -2.17328329e-06 -2.17328329e-06 -2.17328329e-06 -2.18183959e-06
      -2.17328329e-06 -2.17328329e-06 -2.17328329e-06 -2.17328329e-06
      -2.17328329e-06 -2.17328329e-06 -2.17328329e-06 -2.17328329e-06
      -2.17328329e-06 -2.17328329e-06 -2.17328329e-06 -2.18183959e-06
      -2.18183959e-06 -2.18183959e-06 -2.18183959e-06 -2.18183959e-06
      -2.18183959e-06 -2.18183959e-06 -2.18183959e-06 -2.18183959e-06
      -2.18183959e-06 -2.18183959e-06 -2.18183959e-06 -2.18183959e-06
      -2.18183959e-06 -2.18183959e-06 -2.18183959e-06 -2.18183959e-06
      -2.18183959e-06 -2.18183959e-06 -2.18183959e-06 -2.18183959e-06
      -2.18183959e-06 -2.18183959e-06 -2.18183959e-06 -2.18183959e-06
      -2.18183959e-06 -2.17328329e-06 -2.17328329e-06 -2.17328329e-06
      -2.17328329e-06 -2.17328329e-06 -2.17328329e-06 -2.17328329e-06
      -2.17328329e-06 -2.18183959e-06 -2.17328329e-06 -2.17328329e-06
      -2.18183959e-06 -2.17328329e-06 -2.16472699e-06 -2.17328329e-06
      -2.17328329e-06 -2.17328329e-06 -2.17328329e-06 -2.17328329e-06
      -2.17328329e-06 -2.17328329e-06 -2.17328329e-06 -2.17328329e-06
      -2.18183959e-06 -2.18183959e-06 -2.18183959e-06 -2.18183959e-06
      -2.18183959e-06 -2.18183959e-06 -2.18183959e-06 -2.18183959e-06
      -2.18183959e-06 -2.18183959e-06 -2.18183959e-06 -2.18183959e-06
      -2.18183959e-06 -2.18183959e-06 -2.18183959e-06 -2.18183959e-06
      -2.18183959e-06 -2.18183959e-06 -2.18183959e-06 -2.18183959e-06
      -2.18183959e-06 -2.18183959e-06 -2.18183959e-06 -2.18183959e-06
      -2.18183959e-06 -2.18183959e-06 -2.17328329e-06 -2.17328329e-06
      -2.17328329e-06 -2.17328329e-06 -2.17328329e-06 -2.17328329e-06
      -2.17328329e-06 -2.17328329e-06 -2.17328329e-06 -2.17328329e-06
      -2.17328329e-06 -2.18183959e-06 -2.18183959e-06 -2.17328329e-06
      -2.17328329e-06 -2.17328329e-06 -2.17328329e-06 -2.17328329e-06
      -2.17328329e-06 -2.17328329e-06 -2.17328329e-06 -2.17328329e-06
      -2.17328329e-06 -2.18183959e-06 -2.18183959e-06 -2.18183959e-06
      -2.18183959e-06 -2.18183959e-06 -2.18183959e-06 -2.18183959e-06
      -2.18183959e-06 -2.18183959e-06 -2.18183959e-06 -2.18183959e-06
      -2.18183959e-06 -2.18183959e-06 -2.18183959e-06 -2.18183959e-06
      -2.18183959e-06 -2.18183959e-06 -2.18183959e-06 -2.18183959e-06
      -2.18183959e-06 -2.18183959e-06 -2.18183959e-06 -2.18183959e-06
      -2.18183959e-06 -2.18183959e-06 -2.18183959e-06 -2.18183959e-06
      -2.17328329e-06 -2.17328329e-06 -2.17328329e-06 -2.17328329e-06
      -2.17328329e-06 -2.11338966e-06 -1.97648978e-06 -1.91659615e-06
      -1.91659615e-06 -1.91659615e-06 -1.92515245e-06 -1.92515245e-06
      -1.98504608e-06 -2.11338966e-06 -2.17328329e-06 -2.17328329e-06
      -2.17328329e-06 -2.17328329e-06 -2.17328329e-06 -2.17328329e-06
      -2.18183959e-06 -2.18183959e-06 -2.18183959e-06 -2.18183959e-06
      -2.18183959e-06 -2.18183959e-06 -2.18183959e-06 -2.18183959e-06
      -2.18183959e-06 -2.18183959e-06 -2.18183959e-06 -2.18183959e-06
      -2.18183959e-06 -2.18183959e-06 -2.18183959e-06 -2.18183959e-06
      -2.18183959e-06 -2.18183959e-06 -2.18183959e-06 -2.18183959e-06
      -2.18183959e-06 -2.18183959e-06 -2.18183959e-06 -2.18183959e-06
      -2.18183959e-06 -2.18183959e-06 -2.18183959e-06 -2.18183959e-06
      -2.18183959e-06 -2.18183959e-06 -2.17328329e-06 -2.11338966e-06
      -1.97648978e-06 -1.91659615e-06 -1.92515245e-06 -1.79680899e-06
      -1.53156577e-06 -1.41177850e-06 -1.41177850e-06 -1.41177850e-06
      -1.41177850e-06 -1.41177850e-06 -1.54012196e-06 -1.79680899e-06
      -1.91659615e-06 -1.97648978e-06 -2.10483336e-06 -2.17328329e-06
      -2.17328329e-06 -2.17328329e-06 -2.17328329e-06 -2.17328329e-06
      -2.17328329e-06 -2.18183959e-06 -2.18183959e-06 -2.18183959e-06
      -2.18183959e-06 -2.18183959e-06 -2.18183959e-06 -2.18183959e-06
      -2.18183959e-06 -2.18183959e-06 -2.18183959e-06 -2.18183959e-06
      -2.18183959e-06 -2.18183959e-06 -2.18183959e-06 -2.18183959e-06
      -2.18183959e-06 -2.18183959e-06 -2.18183959e-06 -2.18183959e-06
      -2.18183959e-06 -2.18183959e-06 -2.18183959e-06 -2.18183959e-06
      -2.18183959e-06 -2.18183959e-06 -2.18183959e-06 -2.11338966e-06
      -1.98504608e-06 -1.78825280e-06 -1.53156577e-06 -1.41177850e-06
      -1.41177850e-06 -1.35188486e-06 -1.21498510e-06 -1.15509147e-06
      -1.15509147e-06 -1.15509147e-06 -1.15509147e-06 -1.15509147e-06
      -1.22354140e-06 -1.34332868e-06 -1.41177850e-06 -1.53156577e-06
      -1.78825280e-06 -1.91659615e-06 -1.98504608e-06 -2.11338966e-06
      -2.18183959e-06 -2.17328329e-06 -2.17328329e-06 -2.17328329e-06
      -2.18183959e-06 -2.18183959e-06 -2.18183959e-06 -2.18183959e-06
      -2.18183959e-06 -2.18183959e-06 -2.18183959e-06 -2.18183959e-06
      -2.18183959e-06 -2.18183959e-06 -2.18183959e-06 -2.18183959e-06
      -2.18183959e-06 -2.18183959e-06 -2.18183959e-06 -2.18183959e-06
      -2.18183959e-06 -2.18183959e-06 -2.18183959e-06 -2.18183959e-06
      -2.18183959e-06 -2.18183959e-06 -2.18183959e-06 -2.11338966e-06
      -1.98504608e-06 -1.79680899e-06 -1.54012196e-06 -1.34332868e-06
      -1.21498510e-06 -1.15509147e-06 -4.77367848e-07 -1.15509147e-06
      -1.15509147e-06 -1.15509147e-06 -1.15509147e-06 -1.15509147e-06
      -1.15509147e-06 -1.15509147e-06 -1.15509147e-06 -1.15509147e-06
      -1.15509147e-06 -1.21498510e-06 -1.34332868e-06 -1.41177850e-06
      -1.54012196e-06 -1.85670262e-06 -2.11338966e-06 -2.17328329e-06
      -2.18183959e-06 -2.18183959e-06 -2.18183959e-06 -2.18183959e-06
      -2.18183959e-06 -2.18183959e-06 -2.18183959e-06 -2.18183959e-06
      -2.18183959e-06 -2.18183959e-06 -2.18183959e-06 -2.18183959e-06
      -2.05349602e-06 -2.11338966e-06 -2.18183959e-06 -2.18183959e-06
      -2.18183959e-06 -2.18183959e-06 -2.18183959e-06 -2.18183959e-06
      -1.98930593e-06 -1.98930593e-06 -1.31158231e-06 -1.50411586e-06
      -1.24313249e-06 -1.85670262e-06 -1.02287686e-06 -1.15935131e-06
      -5.13762700e-07 -4.45312821e-07 -5.04055208e-07 -5.04055208e-07
      -5.04055208e-07 6.83368512e-07 -4.45312821e-07 -4.45312821e-07
      3.98772961e-08 -6.30301258e-07 -9.55012865e-07 -1.63273648e-06
      -1.14754641e-06 -9.55012865e-07 2.32410812e-07 3.98772961e-08
      3.98772961e-08 -1.15509147e-06 -1.57876570e-06 -1.31820752e-06
      -2.16058970e-06 -2.34882668e-06 -1.24313249e-06 -1.50411586e-06
      -2.17328329e-06 -2.17328329e-06 -2.17328329e-06 -2.18183959e-06
      -2.18183959e-06 -2.18183959e-06 -2.18183959e-06 -2.18183959e-06
      -2.18183959e-06 -2.18183959e-06 -1.66846553e-06 -1.85670262e-06
      -2.11338966e-06 -2.17328329e-06 -2.17328329e-06 -2.17328329e-06
      -2.18183959e-06 -2.18183959e-06 -1.98930593e-06 -7.94337154e-07
      -7.85780969e-07 -5.65408868e-07 -4.69200302e-07 -5.92858726e-07
      -3.44727994e-07 2.32410812e-07 2.32410812e-07 -4.37767710e-07
      2.05723509e-07 -4.64455013e-07 2.05723509e-07 2.05723509e-07
      2.05723509e-07 2.05723509e-07 -4.37767710e-07 -4.37767710e-07
      -4.37767710e-07 -1.11549139e-06 -9.55012865e-07 -4.37767710e-07
      2.39955909e-07 -4.37767710e-07 -4.37767710e-07 -1.00162697e-06
      -1.00162697e-06 -8.68987058e-07 -1.18986407e-06 -1.90390256e-06
      -2.22048334e-06 -1.24313249e-06 -2.17328329e-06 -2.17328329e-06
      -2.17328329e-06 -2.17328329e-06 -2.17328329e-06 -2.17328329e-06
      -2.17328329e-06 -2.18183959e-06 -2.18183959e-06 -2.18183959e-06
      -1.28343504e-06 -1.48022832e-06 -1.85670262e-06 -2.11338966e-06
      -2.18183959e-06 -2.18183959e-06 -2.18183959e-06 -2.18183959e-06
      -1.65603808e-06 -7.85780969e-07 -1.24313249e-06 -9.86445457e-07
      -8.41698125e-08 1.63960948e-07 2.32410812e-07 2.32410812e-07
      8.75902060e-07 -4.72000124e-07 2.05723509e-07 2.05723509e-07
      2.05723509e-07 2.05723509e-07 3.98257015e-07 2.05723509e-07
      -4.37767710e-07 -4.37767710e-07 -4.37767710e-07 -4.37767710e-07
      -4.37767710e-07 -2.45234190e-07 -2.45234190e-07 -4.37767710e-07
      -1.00162697e-06 -3.23903322e-07 -1.00162697e-06 -2.23566462e-06
      -1.00162697e-06 -1.07007679e-06 -8.41698125e-08 -1.14692398e-06
      -2.11338966e-06 -2.17328329e-06 -2.17328329e-06 -2.17328329e-06
      -2.18183959e-06 -2.18183959e-06 -2.18183959e-06 -2.18183959e-06
      -2.18183959e-06 -2.18183959e-06 -1.15509147e-06 -1.22354140e-06
      -1.53156577e-06 -1.97648978e-06 -2.17328329e-06 -2.18183959e-06
      -2.18183959e-06 -2.18183959e-06 -7.85780969e-07 -7.25887332e-07
      -9.86445457e-07 -6.09971210e-07 -5.37261485e-07 3.98772961e-08
      3.98772961e-08 -1.15509147e-06 -1.11549139e-06 2.05723509e-07
      8.49214700e-07 2.05723509e-07 -4.37767710e-07 -4.37767710e-07
      2.05723509e-07 2.05723509e-07 -4.37767710e-07 2.32410812e-07
      -4.37767710e-07 -4.37767710e-07 -1.11549139e-06 -1.11549139e-06
      -9.22957838e-07 -4.37767710e-07 -1.00162697e-06 -1.00162697e-06
      -1.51887207e-06 -1.00162697e-06 -8.17649664e-07 4.24944346e-07
      -5.05206458e-07 -2.51317647e-06 -1.85670262e-06 -2.11338966e-06
      -2.17328329e-06 -2.18183959e-06 -2.18183959e-06 -2.18183959e-06
      -2.18183959e-06 -2.18183959e-06 -2.18183959e-06 -2.18183959e-06
      -1.15509147e-06 -1.15509147e-06 -1.41177850e-06 -1.91659615e-06
      -2.17328329e-06 -2.17328329e-06 -2.18183959e-06 -1.98930593e-06
      -7.25887332e-07 -4.69200302e-07 -6.01414968e-07 -3.53284207e-07
      -2.84834357e-07 3.98772961e-08 3.98772961e-08 -9.62557920e-07
      -4.37767710e-07 2.05723509e-07 2.05723509e-07 2.05723509e-07
      -4.37767710e-07 7.83815540e-06 1.67575690e-05 8.48164655e-06
      1.31899842e-08 2.32410812e-07 2.32410812e-07 -4.37767710e-07
      -4.37767710e-07 -1.11549139e-06 -1.11549139e-06 -4.37767710e-07
      -1.00162697e-06 -2.23566462e-06 -1.00162697e-06 -1.51887207e-06
      -1.00162697e-06 -1.67935059e-06 -1.67935059e-06 -2.26504562e-06
      -2.70570990e-06 -1.85670262e-06 -2.11338966e-06 -2.17328329e-06
      -2.17328329e-06 -2.17328329e-06 -2.18183959e-06 -2.18183959e-06
      -2.18183959e-06 -2.18183959e-06 -1.15509147e-06 -1.15509147e-06
      -1.41177850e-06 -1.91659615e-06 -2.17328329e-06 -2.17328329e-06
      -2.17328329e-06 -2.17328329e-06 -5.97543817e-07 -1.44063449e-07
      7.92263836e-06 2.76234696e-05 4.13827402e-05 3.59948208e-05
      1.75574096e-05 3.12041357e-06 2.05723509e-07 -3.11521660e-07
      7.83815540e-06 2.74705362e-05 4.25114231e-05 6.47114575e-05
      8.33533122e-05 6.40412836e-05 4.42782912e-05 3.34390752e-05
      1.09186913e-05 -4.37767710e-07 -4.37767710e-07 -4.37767710e-07
      -4.37767710e-07 7.83815540e-06 2.33003393e-05 3.15848192e-05
      3.44728214e-05 3.87873952e-05 2.63894326e-05 7.27429551e-06
      -1.00162697e-06 -1.51887207e-06 -1.21498510e-06 -1.54012196e-06
      -1.98504608e-06 -2.17328329e-06 -2.17328329e-06 -2.17328329e-06
      -2.17328329e-06 -2.18183959e-06 -2.18183959e-06 -2.18183959e-06
      -1.15509147e-06 -1.21498510e-06 -1.53156577e-06 -1.98504608e-06
      -2.17328329e-06 -2.17328329e-06 -2.17328329e-06 -2.11338966e-06
      -9.26551820e-07 7.80285154e-06 3.58993930e-05 7.21790493e-05
      1.11186841e-04 1.27678606e-04 9.14987468e-05 4.11344954e-05
      1.01790447e-05 7.96440145e-06 4.35051370e-05 1.00252197e-04
      1.22828860e-04 1.17457814e-04 1.16710464e-04 1.03686471e-04
      9.06602945e-05 6.82954123e-05 2.27884557e-05 1.95834815e-07
      -4.37767710e-07 -4.37767710e-07 -2.21452297e-06 2.98499822e-06
      2.31320191e-05 3.86854299e-05 4.43336212e-05 4.74141561e-05
      4.49501676e-05 4.30893269e-05 3.23579698e-05 1.08790910e-05
      -1.15509147e-06 -1.34332868e-06 -1.79680899e-06 -2.11338966e-06
      -2.17328329e-06 -2.17328329e-06 -2.17328329e-06 -2.17328329e-06
      -2.18183959e-06 -2.18183959e-06 -1.16364777e-06 -1.35188486e-06
      -1.79680899e-06 -2.11338966e-06 -2.17328329e-06 -2.18183959e-06
      -2.11338966e-06 -1.85670262e-06 -6.01414968e-07 2.44744842e-05
      6.75437259e-05 8.94203986e-05 1.34216447e-04 1.67436461e-04
      1.25676481e-04 5.54816033e-05 5.28287899e-07 1.66813934e-05
      1.08354528e-04 1.76990332e-04 1.51117798e-04 6.69281217e-05
      2.54575953e-05 3.24083812e-05 6.11390496e-05 8.79249201e-05
      5.70797019e-05 1.10415758e-05 -4.37767710e-07 -1.11606241e-05
      -3.50125592e-05 -3.22613596e-05 8.26006180e-06 2.82178589e-05
      1.71642496e-05 -1.63833886e-06 1.44136930e-05 6.39440332e-05
      7.47075173e-05 4.12677473e-05 1.03750963e-05 -1.21498510e-06
      -1.54012196e-06 -1.98504608e-06 -2.17328329e-06 -2.17328329e-06
      -2.54871316e-06 -2.17328329e-06 -2.18183959e-06 -2.18183959e-06
      -1.29199123e-06 -1.54867826e-06 -1.99360238e-06 -2.17328329e-06
      -2.17328329e-06 -2.18183959e-06 -1.98504608e-06 -1.53156577e-06
      -1.25405415e-06 2.44059884e-05 4.90995844e-05 3.03414927e-05
      3.61136372e-05 4.15238283e-05 2.42830374e-05 5.74320893e-07
      -3.45635599e-05 3.48949397e-05 1.62637443e-04 1.62825352e-04
      4.71258609e-05 -5.99936611e-05 -8.26673931e-05 -6.60570804e-05
      -2.97431561e-05 3.79972298e-05 3.02619428e-05 -3.21060979e-05
      -2.41366888e-05 -3.31241718e-05 -6.40885555e-05 7.72409476e-06
      7.13162517e-05 2.60784309e-05 -1.82587664e-05 -3.70189446e-05
      -4.22937919e-05 -2.50672838e-06 5.81820314e-05 8.34023595e-05
      4.34386493e-05 3.63112053e-06 -1.65211918e-06 -2.32106936e-06
      -1.90202513e-06 -1.94311360e-06 -1.51468203e-06 -1.94311360e-06
      -2.18183959e-06 -2.18183959e-06 -1.66846553e-06 -1.85670262e-06
      -2.11338966e-06 -2.17328329e-06 -2.17328329e-06 -2.11338966e-06
      -1.79680899e-06 -1.34332868e-06 1.46815296e-06 2.01540006e-05
      2.41620528e-05 -4.08227461e-05 -1.06958905e-04 -1.11088601e-04
      -4.88722726e-05 -7.73517058e-06 -2.70538039e-05 6.08900991e-05
      1.30429282e-04 3.21716252e-05 -8.76438935e-05 -1.26381739e-04
      -9.56033109e-05 -6.80082521e-05 -7.98580513e-05 -6.51497176e-05
      -6.60094738e-05 -1.18450713e-04 -8.82684471e-05 -5.22131413e-05
      -1.73951739e-05 9.16812278e-05 6.49989015e-05 -5.07808545e-05
      -5.33056082e-05 -1.72588498e-05 -3.80822421e-05 -4.23334786e-05
      1.55886901e-05 6.97541545e-05 6.27401314e-05 2.15152977e-05
      -1.36205585e-06 -1.03035143e-06 -1.90370713e-06 -2.09194422e-06
      -2.42563260e-06 -2.67332030e-06 -2.18183959e-06 -2.18183959e-06
      -2.05349602e-06 -2.11338966e-06 -2.17328329e-06 -2.17328329e-06
      -2.17328329e-06 -1.98504608e-06 -1.54012196e-06 5.63136382e-06
      7.87826593e-06 8.37442713e-06 3.41523664e-05 -5.29922045e-06
      -1.17177122e-04 -1.38411022e-04 -3.61996390e-05 2.98313571e-05
      1.31448378e-05 6.08461305e-05 4.87181351e-05 -5.28923701e-05
      -7.53210115e-05 -8.21768263e-05 -8.06242970e-05 -2.41641337e-05
      -6.16460602e-06 -3.19365608e-05 -3.11776057e-05 -8.69517680e-05
      -1.34085858e-04 -6.18422055e-05 5.97686194e-05 1.04107145e-04
      -1.42122190e-05 -6.00334206e-05 2.03666459e-05 6.56081538e-05
      4.43706813e-05 -1.30051912e-05 -4.85265628e-05 -9.15346482e-06
      5.76144266e-05 3.48820467e-05 -2.99556700e-06 -3.84762785e-07
      -7.69793303e-07 -1.08637391e-06 -2.44443754e-06 -2.58625300e-06
      -2.18183959e-06 -2.18183959e-06 -2.18183959e-06 -2.18183959e-06
      -2.17328329e-06 -2.17328329e-06 -2.17328329e-06 -1.92515245e-06
      -1.41177850e-06 1.94096228e-05 1.35578948e-05 -2.77022700e-05
      2.35571770e-05 5.50737604e-05 -6.86133571e-05 -1.48846288e-04
      -5.37439155e-05 6.49901340e-05 6.47568813e-05 4.41219454e-05
      2.12605410e-05 -4.86917052e-05 -1.00207617e-04 -1.45106344e-04
      -1.93111977e-04 -1.50564272e-04 -6.38259444e-05 -5.63520844e-05
      -1.47694864e-05 1.18256357e-05 -8.31758516e-05 -5.49761608e-05
      8.40471403e-05 8.13043807e-05 -8.24410199e-06 1.62671022e-05
      6.80168450e-05 8.91972377e-05 1.02657817e-04 9.40517384e-06
      -8.37945263e-05 -2.09028713e-05 5.83955552e-05 2.16933877e-05
      -9.36591823e-06 -3.84762785e-07 -1.61874289e-06 -2.06366690e-06
      -2.44443754e-06 -3.14396743e-06 -2.18183959e-06 -2.18183959e-06
      -2.17328329e-06 -2.17328329e-06 -2.17328329e-06 -2.17328329e-06
      -2.17328329e-06 -1.92515245e-06 -1.41177850e-06 2.62046342e-05
      4.83032454e-06 -7.93340150e-05 -1.29087930e-05 9.94886723e-05
      -8.06883327e-06 -1.54348410e-04 -8.07544275e-05 1.01688864e-04
      1.24959770e-04 2.63111870e-05 -7.75672015e-06 -8.09391349e-05
      -2.39534289e-04 -3.13645229e-04 -3.42359679e-04 -3.32560303e-04
      -2.14583575e-04 -1.77139722e-04 -1.19899007e-04 4.48976389e-05
      7.64510696e-06 -4.54573492e-05 3.67154826e-05 3.14826357e-05
      1.82670428e-05 5.08534940e-05 3.89185152e-05 7.51871048e-05
      1.44528647e-04 5.95948004e-05 -3.74767260e-05 1.53473393e-05
      3.77213910e-05 1.11493473e-05 4.32434945e-06 -5.50742413e-07
      -8.66278583e-07 -2.00377326e-06 -2.25190411e-06 -2.57600414e-06
      -2.18183959e-06 -2.18183959e-06 -2.18183959e-06 -2.18183959e-06
      -2.17328329e-06 -2.17328329e-06 -2.11338966e-06 -1.79680899e-06
      -1.34332868e-06 1.92213865e-05 -2.64377900e-06 -1.13399561e-04
      -8.08206896e-05 9.47740336e-05 8.13743172e-05 -7.02765101e-05
      -5.88318435e-05 1.07289510e-04 1.65042336e-04 6.30763607e-05
      1.92811831e-06 -3.43963147e-05 -1.64214391e-04 -2.53518199e-04
      -2.85923015e-04 -2.75625061e-04 -1.49225176e-04 -1.44689882e-04
      -1.50249383e-04 2.54377483e-05 5.85100361e-06 -3.85394123e-05
      2.93139183e-05 -8.75556816e-06 3.51762574e-05 7.43120763e-05
      1.89976781e-05 5.88414732e-05 1.34997899e-04 6.51758601e-05
      -2.59012700e-06 1.70541243e-05 1.28937961e-06 3.01260588e-05
      3.52706884e-05 -5.86896988e-07 -1.97570117e-07 -2.00377326e-06
      -2.26046041e-06 -1.88503054e-06 -2.18183959e-06 -2.18183959e-06
      -2.18183959e-06 -2.18183959e-06 -2.17328329e-06 -2.17328329e-06
      -1.98504608e-06 -1.54012196e-06 -1.22354140e-06 5.51157655e-06
      4.43410909e-06 -6.65744301e-05 -1.01920879e-04 2.36671058e-05
      9.76252486e-05 4.64273398e-06 -4.21916302e-05 8.87916685e-05
      1.90903695e-04 1.38277828e-04 1.11117617e-04 1.35978742e-04
      6.86521671e-05 -5.14232052e-05 -1.44773046e-04 -1.67500300e-04
      -8.39880158e-05 -1.09181165e-04 -1.16228766e-04 8.19907928e-06
      -6.13019438e-05 -1.88786253e-05 9.42504339e-05 1.64621918e-06
      5.34099017e-05 8.26350442e-05 -6.94482651e-06 3.02481931e-05
      9.06482601e-05 2.65412509e-05 6.33283548e-07 1.95354387e-05
      -4.76488822e-06 5.00475435e-05 4.33400055e-05 -6.72211718e-06
      -3.90103622e-07 -7.69793303e-07 -1.08637391e-06 -1.88503054e-06
      -2.18183959e-06 -2.18183959e-06 -2.18183959e-06 -2.18183959e-06
      -2.17328329e-06 -2.17328329e-06 -1.91659615e-06 -1.41177850e-06
      -1.15509147e-06 -1.21498510e-06 4.37554399e-06 -1.55704838e-05
      -4.76513524e-05 2.35709740e-06 5.68699361e-05 -1.05655663e-05
      -5.92647739e-05 8.95317135e-05 2.11221050e-04 1.66606653e-04
      1.76697431e-04 2.24117059e-04 1.46994265e-04 -5.85026646e-06
      -1.58257186e-04 -2.18577101e-04 -1.48285239e-04 -1.36463845e-04
      -8.80998268e-05 1.03558050e-05 -8.92013923e-05 -1.09110861e-05
      1.28036627e-04 2.18472378e-05 5.41462432e-05 7.11030807e-05
      -8.75773731e-06 3.42896856e-05 8.34354505e-05 1.91970066e-05
      6.86928934e-06 1.98490197e-05 -6.17168553e-06 6.19996208e-05
      4.52370004e-05 -1.19128763e-05 -1.36739675e-06 -3.30209986e-07
      -5.82600592e-07 -1.77578886e-06 -2.18183959e-06 -2.18183959e-06
      -2.18183959e-06 -2.18183959e-06 -2.18183959e-06 -2.18183959e-06
      -1.92515245e-06 -1.41177850e-06 -1.15509147e-06 -1.15509147e-06
      -1.54610041e-06 -1.07172445e-05 -1.74915513e-05 1.61236567e-05
      3.67087341e-05 -3.79645207e-05 -7.07711224e-05 9.42632105e-05
      2.16129964e-04 1.75811379e-04 1.88943086e-04 2.01759205e-04
      8.80886437e-05 -9.39570964e-05 -2.77805870e-04 -3.23004322e-04
      -1.89290513e-04 -1.38323478e-04 -1.05908563e-04 1.18468606e-05
      -5.15306965e-05 -2.43921568e-06 1.26596671e-04 4.19661919e-05
      6.01231695e-05 6.73350150e-05 -1.40347674e-06 4.09667409e-05
      8.47747942e-05 1.80041843e-05 6.53650932e-06 1.46246248e-05
      -2.17601446e-05 5.85054331e-05 6.17181358e-05 -2.93471544e-06
      -1.11496956e-06 -9.33297883e-09 -8.33972024e-07 -2.88142542e-06
      -2.18183959e-06 -2.18183959e-06 -2.18183959e-06 -2.17328329e-06
      -2.17328329e-06 -2.18183959e-06 -1.92515245e-06 -1.41177850e-06
      -1.15509147e-06 -1.15509147e-06 -1.47765059e-06 -1.08151999e-05
      -1.76632966e-05 1.57817904e-05 3.60909034e-05 -4.31254630e-05
      -7.52618871e-05 8.28256962e-05 2.05577235e-04 1.92756168e-04
      1.89660088e-04 1.52478780e-04 2.57034644e-05 -1.81941257e-04
      -3.91430542e-04 -3.79580335e-04 -1.71075691e-04 -1.59692398e-04
      -1.60016629e-04 6.25767207e-05 6.47055276e-05 4.73776854e-05
      1.17694712e-04 3.28381248e-05 6.01050378e-05 6.63636965e-05
      -7.73955435e-07 4.32335291e-05 8.57572159e-05 1.90675510e-05
      6.96476718e-06 2.04772878e-05 -2.28859444e-05 4.45831465e-05
      6.27224654e-05 5.17556873e-06 -1.49039931e-06 -1.49039931e-06
      -1.62834351e-06 -2.67116775e-06 -2.18183959e-06 -2.18183959e-06
      -2.17328329e-06 -2.17328329e-06 -2.17328329e-06 -2.17328329e-06
      -1.91659615e-06 -1.40322231e-06 -1.15509147e-06 -1.15509147e-06
      -1.47765059e-06 -1.08151999e-05 -2.19378235e-05 1.06208454e-05
      4.09292916e-05 -4.86618374e-05 -8.59592110e-05 7.15331262e-05
      1.95035667e-04 1.99840215e-04 1.57593429e-04 1.02860038e-04
      6.56926477e-06 -2.43884497e-04 -4.63790610e-04 -3.37211764e-04
      -1.20947007e-04 -2.03517440e-04 -1.33989466e-04 1.95300614e-04
      1.74072440e-04 9.01513049e-05 9.27780638e-05 7.34907132e-07
      6.11791183e-05 6.97003998e-05 -9.23973857e-06 3.60402410e-05
      9.18490259e-05 2.44623589e-05 -6.58261115e-07 2.72788766e-05
      -1.93297933e-06 4.00499994e-05 4.27746018e-05 -2.55928580e-06
      -3.07946425e-06 -1.49039931e-06 -3.52928532e-06 -2.78833431e-06
      -2.17328329e-06 -2.18183959e-06 -2.18183959e-06 -2.17328329e-06
      -2.17328329e-06 -2.17328329e-06 -1.91659615e-06 -1.40322231e-06
      -1.15509147e-06 -1.15509147e-06 -9.60405373e-07 -1.06733851e-05
      -3.22597116e-05 2.98955513e-07 5.12511797e-05 -4.36893242e-05
      -9.13614567e-05 5.95811653e-05 1.81239433e-04 2.09137972e-04
      1.39236596e-04 5.18490706e-05 -5.18114648e-05 -2.98936968e-04
      -4.12298745e-04 -1.94761276e-04 -8.13162333e-05 -2.43440401e-04
      -5.03623378e-05 3.05909518e-04 1.94277498e-04 7.82721763e-05
      6.85676423e-05 -8.40623488e-06 7.71202249e-05 9.00071318e-05
      -1.40385819e-05 2.26442335e-05 1.04638093e-04 3.97560361e-05
      -1.10877027e-05 2.19874019e-05 1.65812471e-05 3.85666062e-05
      2.33930532e-05 -1.25922343e-05 -2.04227763e-06 -2.10217127e-06
      -2.92252525e-06 -3.35845016e-06 -2.18183959e-06 -2.18183959e-06
      -2.18183959e-06 -2.18183959e-06 -2.17328329e-06 -2.17328329e-06
      -1.98504608e-06 -1.54012196e-06 -1.21498510e-06 -1.15509147e-06
      -1.20170557e-06 -1.63577024e-05 -4.39913929e-05 7.69457642e-07
      7.14407506e-05 -2.95066311e-05 -9.98193427e-05 4.37361778e-05
      1.66418307e-04 1.88963197e-04 1.15123265e-04 -6.30586874e-06
      -1.50987311e-04 -2.93331483e-04 -2.54362792e-04 -6.90587331e-05
      -4.96293105e-05 -1.97665635e-04 2.61749233e-06 2.83874979e-04
      1.32831148e-04 3.06742768e-05 5.99881787e-05 1.48449908e-05
      8.69947762e-05 1.08307861e-04 1.30491771e-05 4.21563018e-05
      1.32316258e-04 5.68237992e-05 -2.48597862e-05 2.03490472e-05
      4.46482227e-05 4.00072277e-05 1.46486491e-05 -8.68020834e-06
      -2.16206490e-06 -2.77192407e-06 -2.19201047e-06 -2.45514639e-06
      -2.18183959e-06 -2.18183959e-06 -2.18183959e-06 -2.18183959e-06
      -2.18183959e-06 -2.17328329e-06 -2.11338966e-06 -1.78825280e-06
      -1.34332868e-06 -1.15509147e-06 -1.20170557e-06 -2.85132719e-05
      -6.37172125e-05 4.50728839e-06 1.08834633e-04 -3.18721254e-06
      -1.16923547e-04 1.93148153e-05 1.32771325e-04 1.26279992e-04
      8.56950719e-05 5.15296428e-09 -1.26546685e-04 -1.94605745e-04
      -1.64282916e-04 -9.26872090e-05 -7.29361345e-05 -1.00722878e-04
      5.89641168e-05 1.79929746e-04 2.31351387e-05 -2.32670645e-05
      4.86209392e-05 5.65738010e-05 6.61707672e-05 6.61480444e-05
      3.56285382e-05 6.75933406e-05 1.32657180e-04 3.01869295e-05
      -9.49506357e-05 -1.19121123e-05 7.53556524e-05 3.21856787e-05
      -2.14174656e-06 -1.86687362e-06 -2.09170230e-06 -2.41683938e-06
      -2.26046041e-06 -2.57172542e-06 -2.18183959e-06 -2.18183959e-06
      -2.05349602e-06 -2.11338966e-06 -2.18183959e-06 -2.17328329e-06
      -2.17328329e-06 -1.91659615e-06 -1.41177850e-06 -1.15509147e-06
      -1.71895078e-06 -1.98140824e-05 -6.60863661e-05 -1.53881138e-05
      1.20600962e-04 1.67081907e-05 -1.25945298e-04 -5.17664239e-06
      8.09670601e-05 7.00978271e-05 7.30445827e-05 3.93914124e-05
      -1.14852955e-05 -4.12770387e-05 -1.02800725e-04 -1.47820785e-04
      -1.23014164e-04 -4.31090230e-05 7.69233884e-05 1.17895570e-05
      -1.12898197e-04 -5.46412193e-05 3.75728123e-05 1.05483727e-04
      7.89647747e-05 1.99016085e-05 2.89778927e-05 5.89535521e-05
      7.80766713e-05 -3.80061538e-05 -1.42604360e-04 -2.05740816e-05
      7.86523742e-05 1.55284361e-05 -1.49948783e-05 -2.02325259e-06
      -8.57722341e-07 -2.00377326e-06 -2.14329384e-06 -2.67972405e-06
      -2.18183959e-06 -2.18183959e-06 -1.79680899e-06 -1.98504608e-06
      -2.18183959e-06 -2.17328329e-06 -2.17328329e-06 -1.92515245e-06
      -1.41177850e-06 -1.15509147e-06 -1.15509147e-06 4.06598519e-06
      -4.16436596e-05 -3.66616587e-05 1.03111328e-04 3.19650608e-05
      -1.17669377e-04 -1.27927651e-05 3.83384722e-05 1.76223166e-05
      5.85660709e-05 4.21386867e-05 3.72895483e-05 7.96096574e-05
      1.80746465e-05 -7.81814379e-05 -5.44847171e-05 5.97342878e-05
      4.47408929e-05 -1.72561224e-04 -2.06653742e-04 -5.63158610e-05
      3.20314175e-05 1.24991726e-04 1.45584607e-04 7.37457303e-05
      4.62813223e-05 5.21781476e-05 2.71872905e-05 -3.96433570e-05
      -2.54071747e-05 7.25261343e-05 7.11910761e-05 7.23782705e-06
      -8.34837465e-06 -1.33425885e-06 -1.22030065e-06 -1.01103217e-06
      -7.79393986e-07 -1.14565592e-06 -2.18183959e-06 -2.18183959e-06
      -1.66846553e-06 -1.92515245e-06 -2.17328329e-06 -2.17328329e-06
      -2.18183959e-06 -1.99360238e-06 -1.54012196e-06 -1.22354140e-06
      -1.77980542e-06 4.69966972e-06 -2.93362882e-05 -5.19319838e-05
      4.56628113e-05 2.47144089e-06 -1.13716989e-04 -1.19185970e-05
      9.71202098e-06 -5.50034420e-05 -2.62428472e-07 3.83581937e-06
      -2.47392090e-05 4.30781329e-05 4.79043738e-05 -1.17553400e-05
      2.33027040e-05 8.50626166e-05 -4.82967371e-05 -2.41081507e-04
      -1.74840898e-04 -4.20016841e-05 -9.23070729e-06 5.09825695e-05
      1.11081201e-04 9.79810429e-05 6.12898220e-05 4.01538418e-05
      5.31250805e-07 8.91289710e-06 9.32930125e-05 1.01832600e-04
      3.36530793e-05 1.10218821e-06 -1.48022832e-06 -1.41177850e-06
      -1.91397544e-06 -2.23055622e-06 -2.29900593e-06 -2.17328329e-06
      -2.11338966e-06 -2.05349602e-06 -1.54867826e-06 -1.79680899e-06
      -2.10483336e-06 -2.17328329e-06 -2.18183959e-06 -2.11338966e-06
      -1.79680899e-06 -1.34332868e-06 -1.60553316e-06 -2.10668554e-06
      -1.39732374e-05 -4.86908466e-05 -2.86669601e-05 -4.22734192e-05
      -9.31058603e-05 -2.49036584e-05 -3.24204157e-05 -1.24416489e-04
      -9.00884261e-05 -5.77008723e-05 -7.42851189e-05 -2.15899745e-05
      1.99965925e-05 6.16001125e-06 1.64158973e-05 -1.24694534e-05
      -1.56163485e-04 -2.35735090e-04 -1.18904543e-04 -3.55866068e-05
      -5.49534925e-05 -3.97173644e-05 1.25364904e-05 4.57424539e-05
      5.18532725e-05 2.88278206e-05 -2.66731718e-06 3.23090680e-05
      7.79043185e-05 3.97864642e-05 -2.64713958e-06 -3.33777984e-06
      -1.28343504e-06 -1.65728852e-06 -2.10221265e-06 -2.29900593e-06
      -2.29900593e-06 -2.29044986e-06 -1.98504608e-06 -1.79680899e-06
      -1.28343504e-06 -1.54012196e-06 -1.98504608e-06 -2.17328329e-06
      -2.18183959e-06 -2.18183959e-06 -1.98504608e-06 -2.10398116e-06
      -1.96275187e-06 -1.58944044e-06 6.79020741e-06 -8.51677669e-06
      -1.74405359e-05 -7.24949632e-06 -3.06894763e-05 -3.49274051e-05
      -6.46498156e-05 -1.11749483e-04 -8.69978830e-05 -6.25117318e-05
      -6.23555461e-05 -2.63815691e-05 6.12079157e-06 5.74536170e-06
      -1.60323380e-05 -7.85890006e-05 -1.67123595e-04 -1.82862859e-04
      -8.09979392e-05 -1.77062848e-05 -4.28090716e-05 -5.45086477e-05
      -1.95154480e-05 2.01086241e-05 3.51732342e-05 2.86981322e-05
      1.75978657e-05 3.09182979e-05 3.19413921e-05 8.10887650e-06
      -3.34633614e-06 -1.33215167e-06 -1.46049513e-06 -1.91397544e-06
      -2.23055622e-06 -2.29900593e-06 -2.29900593e-06 -2.18183959e-06
      -1.92515245e-06 -1.66846553e-06 -1.14653528e-06 -1.34332868e-06
      -1.78825280e-06 -2.11338966e-06 -2.17328329e-06 -2.18183959e-06
      -2.11338966e-06 -1.85670262e-06 -2.42326632e-06 -1.33963408e-06
      5.58372085e-06 6.41094493e-06 7.34412242e-06 1.31542238e-05
      1.39907218e-06 -1.62720626e-05 -3.23943423e-05 -3.77852812e-05
      -2.33619648e-05 -3.20880499e-05 -6.09421841e-05 -6.08139162e-05
      -5.00910610e-05 -5.04083073e-05 -6.49837966e-05 -9.23485932e-05
      -1.16693271e-04 -1.00639787e-04 -3.79120829e-05 -4.65754454e-07
      -1.11886111e-05 -2.18753139e-05 -8.03837793e-06 9.64399624e-06
      1.16183774e-05 1.13797887e-05 1.19871420e-05 1.21056810e-05
      8.23424489e-06 2.64166147e-06 -1.52468510e-06 -1.33215167e-06
      -1.65728852e-06 -2.10221265e-06 -2.29044986e-06 -2.18183959e-06
      -2.18183959e-06 -2.11338966e-06 -1.79680899e-06 -1.54012196e-06
      -1.15509147e-06 -1.21498510e-06 -1.53156577e-06 -1.98504608e-06
      -2.17328329e-06 -2.17328329e-06 -2.17328329e-06 -2.11338966e-06
      -2.22260178e-06 -1.45942136e-06 -1.58088426e-06 -2.09812947e-06
      -1.70768794e-06 -1.58088426e-06 -2.09812947e-06 -1.77557035e-06
      -3.38950713e-07 -6.61509773e-07 -9.71209829e-07 -1.10238880e-05
      -3.33814605e-05 -4.41043157e-05 -4.31924564e-05 -4.31924564e-05
      -4.36758855e-05 -4.43536082e-05 -4.40363656e-05 -3.24546490e-05
      -1.13186361e-05 -9.79766014e-07 -1.05624395e-06 -1.64893345e-06
      -5.58143881e-07 -8.58676003e-07 -8.49740502e-07 -1.26961584e-06
      -7.50677373e-07 -7.29537604e-08 -8.58676003e-07 -1.51890788e-06
      -1.34070785e-06 -1.59739488e-06 -1.97386908e-06 -2.23055622e-06
      -2.17328329e-06 -2.17328329e-06 -2.17328329e-06 -2.11076895e-06
      -1.54012196e-06 -1.28343504e-06 -1.15509147e-06 -1.15509147e-06
      -1.34332868e-06 -1.78825280e-06 -2.11338966e-06 -2.17328329e-06
      -2.17328329e-06 -2.73714249e-06 -2.41083899e-06 -1.96591486e-06
      -2.00449858e-06 -2.25860776e-06 -2.25860776e-06 -1.58088426e-06
      -2.08633969e-06 -1.58088426e-06 -1.30500098e-06 -5.95780023e-07
      -9.71209829e-07 -9.71209829e-07 8.66875371e-09 -1.39964141e-06
      -1.16374326e-06 -9.71209829e-07 -1.14493821e-06 -1.14493821e-06
      -7.69508404e-07 -2.86079967e-07 -1.64893345e-06 -1.02620663e-06
      -5.16090893e-07 -7.61626211e-07 4.07832488e-07 -1.11067538e-06
      -7.59233615e-07 -7.50677373e-07 -7.50677373e-07 -7.50677373e-07
      -6.66142455e-07 -7.56649342e-07 -1.46049513e-06 -1.91397544e-06
      -2.23055622e-06 -2.29900593e-06 -2.29900593e-06 -2.29044986e-06
      -2.23055622e-06 -1.91397544e-06 -1.34332868e-06 -1.14653528e-06
      -1.15509147e-06 -1.15509147e-06 -1.21498510e-06 -1.53156577e-06
      -1.98504608e-06 -2.17328329e-06 -2.18183959e-06 -2.17328329e-06
      -1.23674477e-06 -2.28249542e-06 -1.58346211e-06 -1.64077790e-06
      -3.46846491e-07 -2.09812947e-06 -1.58088426e-06 -2.25860776e-06
      -2.45114143e-06 -1.64893345e-06 -7.78676281e-07 -1.80185573e-08
      8.66875371e-09 -1.70193516e-06 -1.39964141e-06 -1.28247484e-06
      -1.14493821e-06 -1.14493821e-06 -7.69508404e-07 -1.46218326e-06
      -7.84459644e-07 -4.74759645e-07 -6.67293193e-07 -5.22288644e-07
      3.24610966e-07 -1.03416608e-06 -7.50677373e-07 -7.50677373e-07
      -7.50677373e-07 -1.42085594e-06 -3.56442456e-07 -4.23881175e-07
      -1.65728852e-06 -2.10221265e-06 -2.29044986e-06 -2.18183959e-06
      -2.29900593e-06 -2.23055622e-06 -2.09103564e-06 -1.58883859e-06
      -1.21498510e-06 -1.15509147e-06 -1.15509147e-06 -1.15509147e-06
      -1.15509147e-06 -1.34332868e-06 -1.78825280e-06 -2.11338966e-06
      -2.18183959e-06 -2.18183959e-06 -2.18183959e-06 -2.42416854e-06
      -2.47718140e-06 -1.52829182e-06 -9.23985283e-07 -1.35891901e-06
      -2.14782904e-06 -1.70716089e-06 -2.22440599e-06 -1.88943477e-06
      -4.52815129e-07 -2.11068155e-07 -1.33923345e-06 -2.34542631e-06
      -2.34542631e-06 -2.60368961e-06 -1.20204402e-06 -1.00951047e-06
      -8.49140349e-07 -1.35891901e-06 -8.90332160e-07 -2.91863387e-07
      2.71995845e-07 -6.07393417e-07 2.34104093e-07 -1.03416608e-06
      -1.11870099e-06 -1.51890788e-06 -7.50677373e-07 -4.40977374e-07
      -8.53323854e-07 -1.38972143e-06 -1.97386908e-06 -2.23055622e-06
      -2.29044986e-06 -2.18183959e-06 -2.29900593e-06 -2.10221265e-06
      -1.65728852e-06 -1.34070785e-06 -1.15509147e-06 -1.15509147e-06
      -1.15509147e-06 -1.15509147e-06 -1.15509147e-06 -1.22354140e-06
      -1.48022832e-06 -1.85670262e-06 -2.11338966e-06 -2.18183959e-06
      -2.18183959e-06 -2.18183959e-06 -2.11338966e-06 -1.85670262e-06
      -1.47167214e-06 -1.22354140e-06 -1.16364777e-06 -1.15509147e-06
      -1.15509147e-06 -1.53052133e-06 -1.15509147e-06 -1.15509147e-06
      -1.15509147e-06 -1.82527003e-06 -6.71663088e-07 -1.15509147e-06
      -1.15509147e-06 -1.15509147e-06 -1.15509147e-06 -1.15509147e-06
      -1.15509147e-06 -1.15509147e-06 -1.15509147e-06 -1.15509147e-06
      -1.15509147e-06 -1.15509147e-06 -1.15509147e-06 -1.15509147e-06
      -1.15509147e-06 -5.37261485e-07 -1.48022832e-06 -1.86525881e-06
      -2.11338966e-06 -2.18183959e-06 -2.18183959e-06 -2.17328329e-06
      -2.11338966e-06 -1.78825280e-06 -1.34332868e-06 -1.15509147e-06
      -1.15509147e-06 -1.15509147e-06 -1.15509147e-06 -1.15509147e-06
      -1.15509147e-06 -1.15509147e-06 -1.22354140e-06 -1.48022832e-06
      -1.85670262e-06 -2.11338966e-06 -2.18183959e-06 -2.18183959e-06
      -2.18183959e-06 -2.11338966e-06 -1.85670262e-06 -1.54012196e-06
      -1.34332868e-06 -1.21498510e-06 -1.15509147e-06 -1.15509147e-06
      -1.15509147e-06 -1.15509147e-06 -1.15509147e-06 -1.15509147e-06
      -1.15509147e-06 -1.15509147e-06 -1.15509147e-06 -1.15509147e-06
      -1.15509147e-06 -1.15509147e-06 -1.15509147e-06 -1.15509147e-06
      -1.15509147e-06 -1.15509147e-06 -1.15509147e-06 -1.14653528e-06
      -1.15509147e-06 -1.21498510e-06 -1.34332868e-06 -1.53156577e-06
      -1.85670262e-06 -2.11338966e-06 -2.18183959e-06 -2.17328329e-06
      -2.18183959e-06 -2.11338966e-06 -1.85670262e-06 -1.47167214e-06
      -1.21498510e-06 -1.15509147e-06 -1.15509147e-06 -1.15509147e-06
      -1.15509147e-06 -1.15509147e-06 -1.15509147e-06 -1.15509147e-06
      -1.15509147e-06 -1.22354140e-06 -1.47167214e-06 -1.85670262e-06
      -2.11338966e-06 -2.18183959e-06 -2.18183959e-06 -2.18183959e-06
      -2.11338966e-06 -1.98504608e-06 -1.78825280e-06 -1.53156577e-06
      -1.34332868e-06 -1.22354140e-06 -1.15509147e-06 -1.16364777e-06
      -1.15509147e-06 -1.15509147e-06 -1.15509147e-06 -1.15509147e-06
      -1.15509147e-06 -1.15509147e-06 -1.15509147e-06 -1.15509147e-06
      -1.15509147e-06 -1.15509147e-06 -1.15509147e-06 -1.15509147e-06
      -1.15509147e-06 -1.21498510e-06 -1.34332868e-06 -1.53156577e-06
      -1.78825280e-06 -1.97648978e-06 -2.10483336e-06 -2.17328329e-06
      -2.18183959e-06 -2.17328329e-06 -2.11338966e-06 -1.85670262e-06
      -1.47167214e-06 -1.22354140e-06 -1.15509147e-06 -1.15509147e-06
      -1.15509147e-06 -1.15509147e-06 -1.15509147e-06 -1.15509147e-06
      -1.15509147e-06 -1.15509147e-06 -1.15509147e-06 -1.15509147e-06
      -1.21498510e-06 -1.47167214e-06 -1.85670262e-06 -2.11338966e-06
      -2.17328329e-06 -2.17328329e-06 -2.17328329e-06 -2.17328329e-06
      -2.10483336e-06 -1.98504608e-06 -1.79680899e-06 -1.53156577e-06
      -1.34332868e-06 -1.22354140e-06 -1.15509147e-06 -1.15509147e-06
      -1.16364777e-06 -1.15509147e-06 -1.15509147e-06 -1.15509147e-06
      -1.15509147e-06 -1.15509147e-06 -1.15509147e-06 -1.15509147e-06
      -1.15509147e-06 -1.21498510e-06 -1.34332868e-06 -1.54867826e-06
      -1.79680899e-06 -1.98504608e-06 -2.10483336e-06 -2.17328329e-06
      -2.17328329e-06 -2.17328329e-06 -2.18183959e-06 -2.11338966e-06
      -1.85670262e-06 -1.47167214e-06 -1.22354140e-06 -1.15509147e-06
      -1.15509147e-06 -1.15509147e-06 -1.15509147e-06 -1.15509147e-06
      -1.15509147e-06 -1.15509147e-06 -1.15509147e-06 -1.15509147e-06
      -1.15509147e-06 -1.15509147e-06 -1.15509147e-06 -1.21498510e-06
      -1.47167214e-06 -1.85670262e-06 -2.10483336e-06 -2.17328329e-06
      -2.17328329e-06 -2.17328329e-06 -2.17328329e-06 -2.17328329e-06
      -2.11338966e-06 -1.98504608e-06 -1.79680899e-06 -1.54012196e-06
      -1.40322231e-06 -1.41177850e-06 -1.35188486e-06 -1.21498510e-06
      -1.15509147e-06 -1.15509147e-06 -1.15509147e-06 -1.22354140e-06
      -1.35188486e-06 -1.41177850e-06 -1.41177850e-06 -1.53156577e-06
      -1.78825280e-06 -1.98504608e-06 -2.11338966e-06 -2.17328329e-06
      -2.17328329e-06 -2.17328329e-06 -2.17328329e-06 -2.17328329e-06
      -2.11338966e-06 -1.85670262e-06 -1.47167214e-06 -1.21498510e-06
      -1.15509147e-06 -1.15509147e-06 -1.15509147e-06 -1.15509147e-06
      -1.15509147e-06 -1.15509147e-06 -1.15509147e-06 -1.15509147e-06
      -1.15509147e-06 -1.15509147e-06 -1.15509147e-06 -1.15509147e-06
      -1.15509147e-06 -1.15509147e-06 -1.21498510e-06 -1.47167214e-06
      -1.84814644e-06 -2.10483336e-06 -2.17328329e-06 -2.17328329e-06
      -2.17328329e-06 -2.17328329e-06 -2.17328329e-06 -2.18183959e-06
      -2.11338966e-06 -1.98504608e-06 -1.91659615e-06 -1.92515245e-06
      -1.78825280e-06 -1.53156577e-06 -1.41177850e-06 -1.41177850e-06
      -1.41177850e-06 -1.54012196e-06 -1.79680899e-06 -1.92515245e-06
      -1.92515245e-06 -1.98504608e-06 -2.10483336e-06 -2.17328329e-06
      -2.17328329e-06 -2.17328329e-06 -2.18183959e-06 -2.17328329e-06
      -2.11338966e-06 -1.98504608e-06 -1.78825280e-06 -1.48022832e-06
      -1.22354140e-06 -1.15509147e-06 -1.15509147e-06 -1.14653528e-06
      -1.15509147e-06 -1.15509147e-06 -1.15509147e-06 -1.15509147e-06
      -1.15509147e-06 -1.15509147e-06 -1.15509147e-06 -1.15509147e-06
      -1.15509147e-06 -1.15509147e-06 -1.16364777e-06 -1.15509147e-06
      -1.15509147e-06 -1.22354140e-06 -1.47167214e-06 -1.78825280e-06
      -1.98504608e-06 -2.11338966e-06 -2.17328329e-06 -2.18183959e-06
      -2.18183959e-06 -2.18183959e-06 -2.18183959e-06 -2.17328329e-06
      -2.17328329e-06 -2.17328329e-06 -2.10483336e-06 -1.98504608e-06
      -1.92515245e-06 -1.92515245e-06 -1.91659615e-06 -1.98504608e-06
      -2.11338966e-06 -2.17328329e-06 -2.18183959e-06 -2.18183959e-06
      -2.17328329e-06 -2.17328329e-06 -2.17328329e-06 -2.17328329e-06
      -2.18183959e-06 -2.11338966e-06 -1.85670262e-06 -1.54012196e-06
      -1.34332868e-06 -1.22354140e-06 -1.15509147e-06 -1.15509147e-06
      -1.15509147e-06 -1.15509147e-06 -1.15509147e-06 -1.15509147e-06
      -1.15509147e-06 -1.15509147e-06 -1.15509147e-06 -1.15509147e-06
      -1.15509147e-06 -1.15509147e-06 -1.15509147e-06 -1.15509147e-06
      -1.15509147e-06 -1.15509147e-06 -1.15509147e-06 -1.15509147e-06
      -1.22354140e-06 -1.35188486e-06 -1.54012196e-06 -1.79680899e-06
      -1.98504608e-06 -2.11338966e-06 -2.18183959e-06 -2.18183959e-06
      -2.18183959e-06 -2.17328329e-06 -2.17328329e-06 -2.17328329e-06
      -2.17328329e-06 -2.18183959e-06 -2.18183959e-06 -2.18183959e-06
      -2.17328329e-06 -2.17328329e-06 -2.18183959e-06 -2.18183959e-06
      -2.18183959e-06 -2.18183959e-06 -2.18183959e-06 -2.18183959e-06
      -2.17328329e-06 -2.11338966e-06 -1.99360238e-06 -1.79680899e-06
      -1.47167214e-06 -1.21498510e-06 -1.15509147e-06 -1.15509147e-06
      -1.15509147e-06 -1.15509147e-06 -1.15509147e-06 -1.15509147e-06
      -1.15509147e-06 -1.15509147e-06 -1.15509147e-06 -1.15509147e-06
      -1.15509147e-06 -1.15509147e-06 -1.15509147e-06 -1.15509147e-06
      -1.15509147e-06 -1.15509147e-06 -1.15509147e-06 -1.15509147e-06
      -1.15509147e-06 -1.15509147e-06 -1.15509147e-06 -1.15509147e-06
      -1.22354140e-06 -1.34332868e-06 -1.53156577e-06 -1.79680899e-06
      -1.92515245e-06 -1.98504608e-06 -2.11338966e-06 -2.17328329e-06
      -2.17328329e-06 -2.17328329e-06 -2.18183959e-06 -2.18183959e-06
      -2.18183959e-06 -2.18183959e-06 -2.18183959e-06 -2.18183959e-06
      -2.18183959e-06 -2.18183959e-06 -2.18183959e-06 -2.18183959e-06
      -2.11338966e-06 -1.98504608e-06 -1.92515245e-06 -1.79680899e-06
      -1.54012196e-06 -1.35188486e-06 -1.21498510e-06 -1.15509147e-06
      -1.15509147e-06 -1.15509147e-06 -1.15509147e-06 -1.15509147e-06
      -1.15509147e-06 -1.15509147e-06 -1.15509147e-06 -1.15509147e-06
      -1.15509147e-06 -1.15509147e-06 -1.15509147e-06 -1.15509147e-06
      -1.15509147e-06 -1.15509147e-06 -1.15509147e-06 -1.15509147e-06
      -1.15509147e-06 -1.15509147e-06 -1.15509147e-06 -1.15509147e-06
      -1.15509147e-06 -1.15509147e-06 -1.15509147e-06 -1.15509147e-06
      -1.27487874e-06 -1.53156577e-06 -1.66846553e-06 -1.79680899e-06
      -2.04493972e-06 -2.18183959e-06 -2.17328329e-06 -2.17328329e-06
      -2.17328329e-06 -2.18183959e-06 -2.18183959e-06 -2.18183959e-06
      -2.18183959e-06 -2.18183959e-06 -2.18183959e-06 -2.18183959e-06
      -2.18183959e-06 -2.18183959e-06 -2.05349602e-06 -1.79680899e-06
      -1.66846553e-06 -1.54012196e-06 -1.28343504e-06 -1.15509147e-06
      -1.15509147e-06 -1.15509147e-06 -1.15509147e-06 -1.15509147e-06
      -1.15509147e-06 -1.15509147e-06 -1.15509147e-06 -1.15509147e-06
      -1.15509147e-06 -1.15509147e-06 -1.15509147e-06 -1.15509147e-06</_>
    <_>
      -3.01764430e-06 -3.01764430e-06 -3.01764430e-06 -3.01764430e-06
      -3.01764430e-06 -3.01764430e-06 -3.01764430e-06 -3.01764430e-06
      -3.01764430e-06 -3.01764430e-06 -3.01764430e-06 -3.01764430e-06
      -3.01764430e-06 -3.01764430e-06 -3.01764430e-06 -2.96828421e-06
      -2.96828421e-06 -2.96828421e-06 -2.95645032e-06 -2.95645032e-06
      -3.01764430e-06 -3.01764430e-06 -3.01764430e-06 -2.95645032e-06
      -2.95645032e-06 -2.95645032e-06 -2.95645032e-06 -2.95645032e-06
      -2.95645032e-06 -2.96828421e-06 -2.96828421e-06 -2.96828421e-06
      -2.96828421e-06 -3.01764430e-06 -3.01764430e-06 -3.01764430e-06
      -3.01764430e-06 -2.96828421e-06 -2.95645032e-06 -3.00581041e-06
      -3.00581041e-06 -3.01764430e-06 -3.01764430e-06 -3.01764430e-06
      -3.01764430e-06 -3.01764430e-06 -3.01764430e-06 -3.01764430e-06
      -3.01764430e-06 -3.01764430e-06 -3.01764430e-06 -3.01764430e-06
      -3.01764430e-06 -3.01764430e-06 -3.01764430e-06 -3.01764430e-06
      -3.01764430e-06 -3.01764430e-06 -3.01764430e-06 -3.01764430e-06
      -2.96828421e-06 -3.01764430e-06 -3.01764430e-06 -3.01764430e-06
      -3.01764430e-06 -2.96828421e-06 -2.96828421e-06 -2.96828421e-06
      -2.95645032e-06 -2.95645032e-06 -2.22788117e-06 -6.48354614e-07
      1.53242524e-07 1.53242524e-07 1.53242524e-07 1.41408620e-07
      1.53242524e-07 1.53242524e-07 1.53242524e-07 -5.98994404e-07
      -2.16668695e-06 -2.95645032e-06 -2.95645032e-06 -3.00581041e-06
      -3.00581041e-06 -2.95645032e-06 -2.95645032e-06 -2.95645032e-06
      -2.95645032e-06 -3.00581041e-06 -3.00581041e-06 -3.01764430e-06
      -3.01764430e-06 -3.01764430e-06 -3.01764430e-06 -3.01764430e-06
      -3.01764430e-06 -3.01764430e-06 -3.01764430e-06 -3.01764430e-06
      -3.01764430e-06 -3.01764430e-06 -3.01764430e-06 -3.01764430e-06
      -3.01764430e-06 -3.01764430e-06 -3.01764430e-06 -3.01764430e-06
      -3.01764430e-06 -2.96828421e-06 -2.96828421e-06 -2.96828421e-06
      -3.01764430e-06 -2.96828421e-06 -2.96828421e-06 -2.96828421e-06
      -2.96828421e-06 -2.16668695e-06 -5.87160514e-07 1.53242524e-07
      1.68340887e-06 4.05269839e-06 4.05269839e-06 3.31229558e-06
      3.31229558e-06 3.30046169e-06 3.31229558e-06 3.26293525e-06
      3.25110136e-06 2.52253221e-06 1.00419993e-06 1.53242524e-07
      -6.36520724e-07 -2.21604728e-06 -3.00581041e-06 -2.95645032e-06
      -2.95645032e-06 -2.95645032e-06 -2.95645032e-06 -3.00581041e-06
      -3.01764430e-06 -3.01764430e-06 -3.01764430e-06 -3.01764430e-06
      -3.01764430e-06 -3.01764430e-06 -3.01764430e-06 -3.01764430e-06
      -3.01764430e-06 -3.01764430e-06 -3.01764430e-06 -3.01764430e-06
      -3.01764430e-06 -3.01764430e-06 -3.01764430e-06 -3.01764430e-06
      -3.01764430e-06 -3.01764430e-06 -2.96828421e-06 -2.96828421e-06
      -2.96828421e-06 -2.96828421e-06 -2.96828421e-06 -2.96828421e-06
      -2.17852084e-06 -6.48354614e-07 1.53242524e-07 9.43005773e-07
      2.47317212e-06 3.26293525e-06 4.05269839e-06 4.05269839e-06
      1.68340887e-06 1.53242524e-07 1.53242524e-07 2.02602720e-07
      1.53242524e-07 1.41408620e-07 1.41408620e-07 9.43005773e-07
      2.52253221e-06 3.31229558e-06 2.52253221e-06 9.43005773e-07
      1.53242524e-07 -6.36520724e-07 -2.16668695e-06 -2.95645032e-06
      -2.95645032e-06 -3.01764430e-06 -3.01764430e-06 -3.01764430e-06
      -3.01764430e-06 -3.01764430e-06 -3.01764430e-06 -3.01764430e-06
      -3.01764430e-06 -3.01764430e-06 -3.01764430e-06 -3.01764430e-06
      -3.01764430e-06 -3.01764430e-06 -3.01764430e-06 -3.01764430e-06
      -3.01764430e-06 -3.01764430e-06 -3.01764430e-06 -3.01764430e-06
      -2.96828421e-06 -2.96828421e-06 -2.96828421e-06 -2.96828421e-06
      -2.17852084e-06 -5.98994404e-07 1.72093507e-06 4.04086450e-06
      4.05269839e-06 2.52253221e-06 1.73276908e-06 2.47317212e-06
      3.31229558e-06 2.60536967e-06 1.21518542e-06 5.08259518e-07
      5.08259518e-07 5.08259518e-07 4.96425628e-07 4.96425628e-07
      4.13588310e-07 2.36079828e-07 1.53242524e-07 1.53242524e-07
      9.43005773e-07 2.52253221e-06 4.05269839e-06 4.05269839e-06
      9.31171883e-07 -2.17852084e-06 -3.01764430e-06 -3.01764430e-06
      -3.01764430e-06 -3.01764430e-06 -3.01764430e-06 -3.01764430e-06
      -3.01764430e-06 -3.01764430e-06 -3.01764430e-06 -3.01764430e-06
      -3.01764430e-06 -3.01764430e-06 -3.01764430e-06 -3.01764430e-06
      -3.01764430e-06 -3.01764430e-06 -3.01764430e-06 -3.01764430e-06
      -3.01764430e-06 -3.01764430e-06 -2.96828421e-06 -2.96828421e-06
      -2.96828421e-06 -2.17852084e-06 9.80532036e-07 4.09022505e-06
      4.83062786e-06 4.04086450e-06 2.47317212e-06 1.81560631e-06
      2.00494878e-06 2.82818905e-06 3.65547862e-06 3.83298720e-06
      4.19983780e-06 4.36551272e-06 4.31615217e-06 4.31615217e-06
      4.31615217e-06 4.31615217e-06 4.13864382e-06 2.99386375e-06
      1.29802277e-06 4.25422201e-07 2.47913732e-07 1.53242524e-07
      1.73276908e-06 4.84246175e-06 4.84246175e-06 1.68340887e-06
      -6.36520724e-07 -2.22788117e-06 -3.01764430e-06 -3.01764430e-06
      -3.01764430e-06 -3.01764430e-06 -3.01764430e-06 -3.01764430e-06
      -3.01764430e-06 -3.01764430e-06 -3.01764430e-06 -3.01764430e-06
      -3.01764430e-06 -3.01764430e-06 -3.01764430e-06 -3.01764430e-06
      -3.01764430e-06 -3.01764430e-06 -3.01764430e-06 -2.96828421e-06
      -2.96828421e-06 -2.17852084e-06 -6.48354614e-07 9.31171883e-07
      3.25110136e-06 4.04086450e-06 2.51069832e-06 1.81560631e-06
      1.94375457e-06 3.00569764e-06 3.41007467e-06 1.99622286e-06
      1.20645961e-06 1.28929685e-06 1.47863932e-06 1.56147655e-06
      1.56147655e-06 1.56147655e-06 1.56147655e-06 1.56147655e-06
      1.46680543e-06 2.09089399e-06 3.52638904e-06 4.94024107e-06
      4.58522391e-06 2.08778602e-06 4.13588310e-07 1.81560631e-06
      4.04086450e-06 4.84246175e-06 4.05269839e-06 9.43005773e-07
      -2.22788117e-06 -3.01764430e-06 -3.01764430e-06 -3.01764430e-06
      -3.01764430e-06 -3.01764430e-06 -3.01764430e-06 -3.01764430e-06
      -3.01764430e-06 -3.01764430e-06 -3.01764430e-06 -3.01764430e-06
      -3.01764430e-06 -3.01764430e-06 -3.01764430e-06 -3.01764430e-06
      -3.01764430e-06 -2.22788117e-06 -6.48354614e-07 9.31171883e-07
      2.51069832e-06 2.51069832e-06 1.72093507e-06 1.81560631e-06
      2.78287803e-06 4.57339002e-06 4.13864382e-06 2.09089399e-06
      6.88876014e-07 -7.58452984e-07 -1.54821623e-06 -1.54821623e-06
      -1.54821623e-06 -1.54821623e-06 -1.54821623e-06 -1.54821623e-06
      -1.54821623e-06 -1.54821623e-06 -1.54821623e-06 -8.07813194e-07
      7.71713303e-07 3.00880561e-06 5.20058666e-06 5.94503899e-06
      4.92840718e-06 2.96038661e-06 1.81560631e-06 2.52253221e-06
      4.83062786e-06 4.83062786e-06 8.81811673e-07 -2.22788117e-06
      -3.01764430e-06 -3.01764430e-06 -3.01764430e-06 -3.01764430e-06
      -3.01764430e-06 -3.01764430e-06 -3.01764430e-06 -3.01764430e-06
      -2.84013595e-06 -2.92297318e-06 -2.96828421e-06 -2.96828421e-06
      -2.96828421e-06 -2.96828421e-06 -2.22788117e-06 9.31171883e-07
      4.53162602e-06 4.12150666e-06 2.54197994e-06 2.70475402e-06
      2.17606384e-06 3.54998951e-06 5.65061009e-06 5.91095613e-06
      2.48801052e-06 3.24207690e-07 -1.18950493e-06 -1.18950493e-06
      -1.18950493e-06 -4.65555559e-07 -8.26013149e-07 -1.21793255e-06
      -1.21793255e-06 -1.28834677e-06 -1.18950493e-06 -1.42094689e-06
      -1.54996258e-06 -1.54996258e-06 -1.10451879e-06 -3.14755511e-07
      1.10199699e-06 3.47128662e-06 4.67796008e-06 5.60346780e-06
      4.39419000e-06 2.04535672e-06 2.40750569e-06 5.42252747e-06
      4.84246175e-06 9.43005773e-07 -2.21604728e-06 -2.96828421e-06
      -3.01764430e-06 -3.01764430e-06 -3.01764430e-06 -3.01764430e-06
      -3.01764430e-06 -3.01764430e-06 -2.25825011e-06 -2.51859592e-06
      -2.87361308e-06 -2.95645032e-06 -2.95645032e-06 -2.16668695e-06
      9.31171883e-07 4.83062786e-06 5.42023099e-06 3.03274123e-06
      2.81542975e-06 5.21819675e-06 4.34204912e-06 3.00788020e-06
      2.61066020e-06 1.85437398e-06 -1.66553534e-07 -9.58063083e-07
      -9.58063083e-07 -1.91345430e-06 -1.18950493e-06 -1.18950493e-06
      -1.18950493e-06 -1.18950493e-06 -1.45112074e-06 -1.18950493e-06
      -1.18950493e-06 -1.18950493e-06 -1.18950493e-06 -1.18950493e-06
      -1.18950493e-06 -1.28834677e-06 -1.23886514e-06 -7.55571364e-07
      8.23955133e-07 3.06104744e-06 6.53335337e-06 5.77041237e-06
      2.22286508e-06 2.40750569e-06 4.84246175e-06 4.84246175e-06
      9.43005773e-07 -2.16668695e-06 -2.95645032e-06 -2.95645032e-06
      -2.95645032e-06 -2.96828421e-06 -3.01764430e-06 -3.01764430e-06
      -1.72572470e-06 -1.99790452e-06 -2.51859592e-06 -2.87361308e-06
      -2.96828421e-06 -5.98994404e-07 4.04086450e-06 4.83062786e-06
      2.32237198e-06 2.68282952e-06 6.10680172e-06 6.36297682e-06
      2.99604631e-06 2.29536496e-07 -4.65555559e-07 -4.65555559e-07
      -9.56316740e-07 -1.18950493e-06 -1.18950493e-06 -9.27889175e-07
      -1.18950493e-06 -1.18950493e-06 -1.42094689e-06 -1.18950493e-06
      -6.98743747e-07 -1.40176053e-06 -1.14014472e-06 -1.18950493e-06
      -1.18950493e-06 -1.18950493e-06 -1.18950493e-06 -1.18950493e-06
      -1.64417634e-06 -1.54533461e-06 -1.54533461e-06 -1.78599021e-06
      2.40348163e-06 5.46786350e-06 5.31597561e-06 1.97275949e-06
      1.91444815e-06 4.84246175e-06 4.84246175e-06 9.43005773e-07
      -2.17852084e-06 -2.96828421e-06 -2.96828421e-06 -2.96828421e-06
      -3.01764430e-06 -3.01764430e-06 -1.54821623e-06 -1.64288747e-06
      -2.06890786e-06 -2.68427061e-06 -2.16668695e-06 9.31171883e-07
      3.25110136e-06 1.72093507e-06 2.81542975e-06 5.38459835e-06
      5.87221575e-06 2.49345112e-06 2.41370401e-07 -4.65555559e-07
      -4.65555559e-07 2.25365923e-07 2.41819549e-07 -6.61357547e-07
      -1.18950493e-06 -1.18950493e-06 -1.45112074e-06 -1.78140442e-06
      -1.28834677e-06 -1.28834677e-06 -1.18950493e-06 -6.77811158e-07
      -1.68026622e-06 -1.18950493e-06 -1.18950493e-06 -1.18950493e-06
      -1.18950493e-06 -6.98743747e-07 -1.49597440e-06 -1.54533461e-06
      -1.49597440e-06 -1.54533461e-06 -7.67405254e-07 1.85437398e-06
      4.14082660e-06 4.07330117e-06 2.17062325e-06 1.81560631e-06
      4.84246175e-06 4.09022505e-06 -6.48354614e-07 -2.96828421e-06
      -2.96828421e-06 -3.01764430e-06 -3.01764430e-06 -3.01764430e-06
      -1.59757644e-06 -1.59757644e-06 -1.90323317e-06 -1.81167002e-06
      9.43005773e-07 3.26293525e-06 9.31171883e-07 1.41408620e-07
      4.49599338e-06 5.87221575e-06 2.55464511e-06 2.29536496e-07
      4.51006053e-06 1.44119331e-05 1.91259332e-05 1.98168545e-05
      1.98826692e-05 1.91917479e-05 1.84513447e-05 1.79112230e-05
      1.31949255e-05 3.42565363e-06 -1.28834677e-06 -1.28834677e-06
      -1.18950493e-06 -4.65555559e-07 -4.65555559e-07 -1.42094689e-06
      -1.18950493e-06 -9.58063083e-07 -1.18950493e-06 -1.18950493e-06
      -8.05052935e-07 -9.46866749e-07 -4.74769280e-07 -1.80695042e-06
      -1.77677646e-06 -1.49597440e-06 8.73315344e-07 5.36902189e-06
      4.78242282e-06 2.17062325e-06 1.81560631e-06 3.26293525e-06
      9.43005773e-07 -2.21604728e-06 -3.01764430e-06 -3.01764430e-06
      -3.01764430e-06 -3.01764430e-06 -1.59757644e-06 -1.54821623e-06
      -1.90323317e-06 -2.32143535e-07 4.05269839e-06 4.05269839e-06
      2.02602720e-07 9.43005773e-07 3.88373883e-06 2.91320885e-06
      2.29536496e-07 4.24844484e-06 2.41509097e-05 4.53238681e-05
      4.83386029e-05 4.44163052e-05 4.63440483e-05 5.43085080e-05
      5.39266221e-05 4.84320044e-05 4.34615977e-05 2.41015496e-05
      3.63790923e-06 -1.28834677e-06 -1.28834677e-06 -1.18950493e-06
      -1.18950493e-06 -1.42094689e-06 -1.18950493e-06 9.03390628e-06
      3.30355979e-05 4.65080593e-05 3.96468677e-05 2.96051421e-05
      2.31389222e-05 1.60307882e-05 5.30651369e-06 8.23955133e-07
      3.41918920e-08 2.17203979e-06 6.16785837e-06 4.92840718e-06
      4.13588310e-07 9.43005773e-07 3.26293525e-06 9.43005773e-07
      -2.21604728e-06 -2.96828421e-06 -3.01764430e-06 -3.01764430e-06
      -1.59757644e-06 -1.63105358e-06 -2.01954754e-06 4.13588310e-07
      4.05269839e-06 2.52253221e-06 1.73276908e-06 3.34577271e-06
      2.31491617e-06 6.38619042e-08 4.01700299e-06 2.41509097e-05
      5.05309254e-05 5.96894643e-05 6.13518860e-05 7.05090788e-05
      7.85772281e-05 8.67731287e-05 8.62430388e-05 8.65782931e-05
      8.89101357e-05 5.26070326e-05 -9.81669746e-06 -4.27232808e-05
      -4.68971593e-05 -4.67983191e-05 -2.88392748e-05 1.55776197e-05
      4.66334459e-05 6.85460400e-05 9.09861847e-05 8.01767674e-05
      4.99237358e-05 3.32568343e-05 2.09098816e-05 -4.87449324e-06
      -1.44028245e-05 7.08973721e-06 1.46994244e-05 4.98884810e-06
      2.35123980e-06 4.41082375e-06 1.46369734e-06 2.36079828e-07
      4.05269839e-06 4.05269839e-06 -6.36520724e-07 -3.00581041e-06
      -3.01764430e-06 -3.01764430e-06 -1.69863449e-06 -1.90962010e-06
      -1.64599544e-06 1.81560631e-06 4.05269839e-06 2.46133823e-06
