<?xml version="1.0"?>
<opencv_storage>
<my_svm type_id="opencv-ml-svm">
  <svm_type>C_SVC</svm_type>
  <kernel><type>LINEAR</type></kernel>
  <C>1.0000000000000001e-01</C>
  <term_criteria><epsilon>2.2204460492503131e-16</epsilon>
    <iterations>1000</iterations></term_criteria>
  <var_all>2500</var_all>
  <var_count>2500</var_count>
  <class_count>13</class_count>
  <class_labels type_id="opencv-matrix">
    <rows>1</rows>
    <cols>13</cols>
    <dt>i</dt>
    <data>
      -4 -3 -2 -1 1 2 3 4 5 6 7 8 9</data></class_labels>
  <sv_total>78</sv_total>
  <support_vectors>
    <_>
      1.58314506e-05 1.32700179e-05 5.95173969e-06 -1.52916630e-06
      -3.80596384e-06 -3.80596384e-06 -3.80596384e-06 -3.80596384e-06
      -3.68395672e-06 -3.80596384e-06 -3.80596384e-06 -3.64333550e-06
      -2.74032618e-06 -3.80596384e-06 -3.80596384e-06 -3.13704049e-06
      -2.94041547e-06 9.72349517e-06 4.06841391e-05 4.21478253e-05
      1.00095995e-05 -1.15504663e-05 -1.38372025e-05 7.02051182e-08
      1.31511697e-05 1.66168411e-05 1.68621555e-05 1.73024764e-05
      9.34253785e-06 -3.51654535e-06 6.29927081e-06 3.37075435e-05
      3.83880797e-05 2.49807545e-05 2.59950502e-05 3.28210517e-05
      2.66031839e-05 1.50765381e-05 1.10315177e-05 1.10721394e-05
      6.83984263e-06 -2.41016596e-06 -8.20043340e-07 9.16662793e-06
      1.13389078e-05 1.29467817e-05 1.88220947e-05 2.05925971e-05
      1.79905419e-05 1.53862075e-05 1.58314506e-05 1.44084161e-05
      9.52956452e-06 3.34968558e-06 1.07288804e-06 -2.28139157e-07
      -2.66756501e-06 -3.80596384e-06 -3.06997322e-06 -3.39755775e-06
      -3.80596384e-06 -3.80596384e-06 -3.06997322e-06 -4.47488719e-06
      3.74308001e-06 1.94205113e-05 1.77902602e-05 1.61756579e-05
      3.94167255e-05 2.95168757e-05 -1.12863499e-05 -2.85526185e-05
      -1.50020724e-05 6.51703840e-06 1.86042762e-05 1.96665242e-05
      1.80261486e-05 1.81887772e-05 5.96374184e-06 -1.95140146e-05
      -1.52771754e-05 1.34577531e-05 2.77888867e-05 3.16938313e-05
      3.93114460e-05 4.44272955e-05 3.21640364e-05 1.50765381e-05
      1.21676367e-05 1.46499642e-05 1.24574963e-05 5.43801889e-06
      6.77703292e-06 1.25865972e-05 1.51831337e-05 1.85351782e-05
      2.34163108e-05 2.51868132e-05 2.28693934e-05 2.02650590e-05
      1.57094437e-05 1.57094437e-05 1.44084161e-05 1.19689903e-05
      1.06679636e-05 8.22853690e-06 2.33329388e-06 -2.50493667e-06
      -3.80596384e-06 -4.59689409e-06 -3.80596384e-06 -2.58621708e-06
      2.79944948e-06 1.78079572e-05 3.69458030e-05 4.74007466e-05
      2.38360535e-05 -3.31296803e-07 1.17921682e-05 -6.89755234e-06
      -3.89447050e-05 -3.95026836e-05 -1.56442729e-05 6.75188312e-06
      1.22323718e-05 1.13672795e-05 9.88594275e-06 9.46440650e-06
      -5.07488858e-06 -3.54383155e-05 -4.21089571e-05 -2.62480098e-05
      -6.83613553e-06 1.01235264e-05 3.13467790e-05 5.20029971e-05
      5.10257269e-05 3.37483034e-05 2.43208251e-05 2.30637397e-05
      2.41517209e-05 2.22151994e-05 2.23443003e-05 2.41517209e-05
      2.51845322e-05 2.63229322e-05 2.89272666e-05 3.00656648e-05
      2.89272666e-05 2.74613303e-05 1.56688220e-05 1.56688220e-05
      1.57094437e-05 1.57094437e-05 1.55468151e-05 1.42457875e-05
      8.39116547e-06 -2.28139157e-07 -3.80596384e-06 -3.80596384e-06
      3.74308001e-06 9.22578874e-06 1.62443012e-05 3.44749897e-05
      4.34037538e-05 2.61201549e-05 -1.08947934e-05 -2.84723228e-05
      -1.37737215e-05 -1.33655431e-05 -2.24773503e-05 -1.70626790e-05
      -5.39660277e-06 -1.92724747e-06 -2.97663996e-06 -5.97659118e-06
      -4.13574207e-06 -1.77945219e-06 -6.81478468e-06 -1.82824260e-05
      -2.40476438e-05 -2.35633706e-05 -2.28570607e-05 -2.72704528e-05
      -1.02116683e-05 2.14812007e-05 4.18143136e-05 4.63685137e-05
      4.12409063e-05 4.02711376e-05 3.69557129e-05 3.00633837e-05
      3.00633837e-05 3.00633837e-05 3.00633837e-05 2.99007552e-05
      2.97716542e-05 3.02282933e-05 2.89090240e-05 2.74271260e-05
      1.56688220e-05 1.56688220e-05 1.57094437e-05 1.57094437e-05
      1.57094437e-05 1.55468151e-05 1.08305912e-05 1.07288804e-06
      -3.80596384e-06 2.92145660e-06 1.85134668e-05 1.89010534e-05
      1.13640926e-05 7.00391047e-06 -5.03123692e-06 -9.45507327e-06
      -1.38853329e-05 -1.57425693e-05 -5.26011763e-06 -2.24043424e-06
      -5.30766783e-06 -5.55136376e-06 -6.01058809e-06 -3.78244931e-06
      -3.47884202e-06 -2.37332756e-06 -3.33025082e-06 -3.77946412e-06
      -6.58162253e-06 -5.93204959e-06 -5.06695733e-06 -4.68887947e-06
      -8.33240392e-06 -1.92666776e-05 -1.66453628e-05 -7.45411626e-06
      1.90849664e-06 1.32965961e-05 2.72913167e-05 5.00610004e-05
      4.99873931e-05 4.26807019e-05 3.69557129e-05 3.01853925e-05
      3.00633837e-05 2.97716542e-05 2.97716542e-05 2.87463954e-05
      2.37991371e-05 2.00062386e-05 1.55468151e-05 1.57094437e-05
      1.57094437e-05 1.55468151e-05 1.55468151e-05 1.57094437e-05
      1.08305912e-05 1.07288804e-06 4.59713010e-06 2.17221059e-05
      1.74360357e-05 -1.20699160e-05 -1.47659366e-05 -1.54898153e-05
      -2.35233583e-05 -1.19057668e-05 -2.20277025e-06 -3.77259289e-06
      -3.07920374e-07 3.00787201e-06 3.05634808e-06 7.15347369e-06
      1.06383195e-05 1.03855355e-05 8.87123588e-06 1.02237473e-05
      4.94204596e-06 2.24690734e-06 6.65989910e-06 4.90108778e-06
      -1.33872400e-05 -1.61054613e-05 -8.09900848e-06 -4.04586171e-06
      -5.89257115e-06 -7.91574621e-06 -7.72128533e-06 -1.14806935e-05
      -2.49981531e-06 3.40669467e-05 4.81611787e-05 5.70308657e-05
      5.41978625e-05 3.74498013e-05 2.99007552e-05 2.85814876e-05
      2.66430816e-05 2.26447755e-05 1.54021909e-05 1.09201510e-05
      1.55468151e-05 1.57094437e-05 1.55468151e-05 1.55468151e-05
      1.64008652e-05 1.83529792e-05 1.44908054e-05 1.12165080e-05
      2.46115942e-05 2.99442800e-05 -6.56093653e-06 -3.92393704e-05
      -2.64933969e-05 -1.62619381e-05 -1.71145584e-05 -1.33361191e-05
      -8.92251865e-06 -9.24278481e-07 1.65416313e-05 2.78330117e-05
      2.46807722e-05 2.88128685e-05 3.65909618e-05 3.16820951e-05
      1.57259892e-05 5.67906136e-06 1.13233750e-06 6.55164649e-06
      2.97565894e-05 2.29810194e-05 -8.91665059e-06 -1.11819936e-05
      4.17080128e-06 -6.21744107e-07 -1.03818666e-05 -7.59615705e-06
      -2.98833174e-06 -6.51906066e-06 -4.77976391e-06 1.59143765e-05
      3.52469106e-05 4.65221638e-05 5.87985014e-05 5.13921950e-05
      3.07048613e-05 1.97957106e-05 1.50597207e-05 1.04070332e-05
      5.36449488e-06 1.18230741e-06 1.55468151e-05 1.55468151e-05
      1.55468151e-05 1.55468151e-05 1.82309723e-05 2.38433004e-05
      2.84166472e-05 3.49807669e-05 3.25497931e-05 1.06504958e-05
      -1.31786883e-05 -1.89113325e-05 -1.43531215e-05 -1.53750680e-05
      -1.59623269e-05 -5.21057291e-06 9.14022348e-06 2.70299588e-05
      4.10457906e-05 3.97788863e-05 2.07417233e-05 1.37223697e-05
      1.63095538e-05 2.16971439e-05 2.72014004e-05 2.22639374e-05
      1.07616952e-05 1.60764614e-06 9.63633192e-06 8.41133806e-06
      -4.87098487e-06 1.00391071e-05 2.90570279e-05 2.20366583e-05
      9.24921460e-06 -2.42906617e-06 -1.04638975e-05 -7.95759024e-06
      -3.11454573e-06 5.75491458e-06 1.32025825e-05 1.92292791e-05
      3.74506817e-05 5.27806187e-05 3.68614055e-05 1.24251346e-05
      7.37262553e-07 -1.44509522e-06 -6.17218848e-06 -1.01175783e-05
      1.64119065e-05 1.55468151e-05 1.57094437e-05 1.43901743e-05
      1.54141308e-05 2.91452034e-05 4.61010131e-05 3.84654741e-05
      8.32203477e-06 -7.90474678e-06 -5.52005713e-06 -5.42027283e-06
      -5.12158203e-06 4.57570695e-06 2.31833055e-05 3.24180473e-05
      3.89179222e-05 3.88068875e-05 2.70368637e-05 1.98828548e-05
      1.31659581e-05 -1.19651520e-06 -1.09773018e-05 5.46610363e-06
      3.68601395e-05 4.96707944e-05 3.12551347e-05 -9.96897825e-07
      -1.45132799e-05 -1.09123739e-05 -5.41232976e-06 7.39503366e-06
      1.66941918e-05 2.58882155e-05 3.25243709e-05 2.23770821e-05
      5.05025946e-06 -5.57411659e-06 -7.57558246e-06 -1.25832412e-06
      1.98312773e-06 5.59241380e-06 1.40398797e-05 3.24492030e-05
      4.17933770e-05 2.36586020e-05 1.45948263e-06 -8.85634563e-06
      -1.46659104e-05 -1.76352423e-05 1.07621845e-05 1.05972758e-05
      1.05972758e-05 6.98752774e-06 1.02170416e-05 3.14039899e-05
      3.43262873e-05 4.98756208e-06 -1.53539750e-05 -1.01120941e-05
      -7.03364231e-06 -8.46937473e-06 5.90116315e-06 4.44187681e-05
      7.63767239e-05 5.57899948e-05 2.58269502e-05 1.29621185e-05
      -6.08030319e-08 5.57929161e-06 1.99846236e-05 8.91376385e-06
      -5.15673401e-06 7.04754598e-07 1.65019246e-05 2.50876710e-05
      1.82685872e-05 1.80249413e-06 -6.97942187e-06 -6.00336489e-06
      -6.94419759e-06 -9.29212547e-06 -1.56567967e-05 -1.31598226e-05
      1.07411324e-05 3.09948955e-05 3.31954361e-05 1.44841952e-05
      -7.31577211e-06 -6.00620206e-06 -2.31250419e-06 1.86163743e-06
      4.21021605e-06 1.23991167e-05 3.93910850e-05 5.41879053e-05
      2.54267325e-05 -7.31755836e-06 -1.85389526e-05 -1.95717639e-05
      8.67666643e-07 7.02758030e-07 -5.98269139e-07 2.23683151e-06
      1.55744401e-05 2.95859190e-05 1.52248094e-05 -1.26281184e-05
      -1.86657689e-05 -1.54903191e-05 -1.10584770e-05 6.14434384e-06
      3.26855916e-05 5.67579300e-05 6.36696568e-05 2.55822852e-05
      -1.62197630e-05 -1.50628057e-05 -5.71340252e-06 1.79145195e-06
      1.02501108e-05 6.05564492e-06 -1.22007137e-07 -9.48676901e-20
      -9.48676901e-20 -9.48676901e-20 -9.48676901e-20 -9.48676901e-20
      -9.48676901e-20 -8.54043719e-07 -2.72627130e-06 -5.11824283e-06
      -2.25914646e-05 -3.86460451e-05 -2.03703621e-05 1.01282167e-05
      2.88758638e-05 3.05802350e-05 2.81489974e-06 -1.16729652e-05
      -6.68617395e-06 -1.37564496e-06 -9.73525630e-07 3.62660739e-06
      3.13308919e-05 6.50611837e-05 4.82943942e-05 -2.15078489e-06
      -2.46132440e-05 -2.46132440e-05 -4.24222071e-06 -5.38061931e-06
      -1.00968427e-05 -5.08693256e-06 8.34413277e-06 1.77814218e-05
      2.00909926e-05 3.95669895e-06 -1.63570348e-05 -1.63345685e-05
      4.72162765e-06 3.41048690e-05 4.34225549e-05 3.07016780e-05
      1.47796009e-05 -1.23142390e-05 -3.68154797e-05 -1.97431873e-05
      -1.86117927e-06 -1.21974665e-06 -9.48676901e-20 -9.48676901e-20
      -9.48676901e-20 -9.48676901e-20 -9.48676901e-20 -9.48676901e-20
      -9.48676901e-20 -9.48676901e-20 -9.48676901e-20 -9.48676901e-20
      8.65092147e-07 8.65092147e-07 -7.91682396e-06 -1.83272714e-05
      -1.28671181e-05 -8.66394930e-06 9.21717515e-07 1.58555013e-05
      1.02277008e-05 -6.81034589e-06 -1.14403183e-05 -6.26074780e-06
      -2.48938409e-06 -1.92355219e-06 1.07512178e-05 4.06652216e-05
      4.51895030e-05 7.45645912e-06 -2.76029059e-05 -3.42083185e-05
      -3.29859017e-06 -7.82004554e-06 -9.50639969e-06 -1.23898444e-05
      -1.64287267e-05 -1.60601815e-06 1.50757969e-05 3.63642039e-06
      -1.12980770e-05 2.45243996e-06 3.84605919e-05 5.49576180e-05
      2.98412197e-05 3.54511326e-06 -5.79449670e-06 -1.18910548e-05
      -1.73512144e-05 -7.68417704e-06 -9.48676901e-20 8.65092147e-07
      -9.48676901e-20 -9.48676901e-20 -9.48676901e-20 -9.48676901e-20
      -9.48676901e-20 -9.48676901e-20 -9.48676901e-20 -9.48676901e-20
      -9.48676901e-20 -9.48676901e-20 -9.48676901e-20 8.65092147e-07
      -1.29101437e-07 -9.48676901e-20 -7.63439687e-07 -6.60189608e-06
      -1.78281152e-05 -1.85721055e-05 -2.02829483e-06 4.42691453e-06
      -5.54060352e-06 -9.33898536e-06 -5.34772335e-06 -1.15436046e-06
      -2.91527272e-06 9.02515967e-06 3.30084113e-05 2.50945450e-05
      -1.74732504e-05 -3.90871719e-05 -4.36422761e-06 -9.12107225e-06
      -8.17752607e-06 -1.33476942e-05 -2.29473990e-05 -1.06269117e-05
      -1.04959099e-06 -7.35227422e-06 -4.54809924e-06 2.48566066e-05
      6.18725826e-05 5.50738041e-05 1.53112087e-05 -5.48114349e-06
      -4.81723828e-06 -2.29745524e-06 -9.48676901e-20 -8.65092147e-07
      -9.48676901e-20 8.65092147e-07 -9.48676901e-20 1.09773953e-06
      8.65092147e-07 -9.48676901e-20 -9.48676901e-20 -9.48676901e-20
      -9.48676901e-20 -9.48676901e-20 -9.48676901e-20 -9.48676901e-20
      -9.48676901e-20 -9.48676901e-20 -9.48676901e-20 -9.48676901e-20
      -9.48676901e-20 -7.63439687e-07 -2.06082786e-05 -4.64519107e-05
      -3.45583576e-05 -5.86747547e-07 1.09023949e-05 3.81838890e-06
      -6.16503712e-07 -1.54680470e-06 -1.56276644e-06 -2.20668781e-07
      2.06002751e-05 3.53250434e-05 3.07559299e-06 -2.49327150e-05
      -4.24222071e-06 -1.44292721e-06 -8.38386859e-06 -2.53853395e-05
      -2.29663001e-05 -1.07671030e-05 -8.98510007e-06 -9.62681770e-06
      8.77312777e-06 4.39821597e-05 5.57544299e-05 2.28885328e-05
      -1.18718126e-05 -1.21515714e-05 -1.86117927e-06 -9.48676901e-20
      -9.48676901e-20 -9.48676901e-20 -9.48676901e-20 -9.48676901e-20
      -1.14594371e-07 -2.57648571e-06 -1.05316949e-05 -1.90699157e-05
      -2.82497222e-05 -2.41502694e-05 -7.68417704e-06 -9.48676901e-20
      -9.48676901e-20 5.35138679e-06 1.47163137e-05 1.23835243e-05
      -4.08256892e-06 -1.18367643e-05 -1.18646349e-05 -1.13583392e-05
      -1.74249417e-05 -3.72552568e-05 -4.57654860e-05 -1.51068707e-05
      2.01787589e-05 2.17949491e-05 1.44098203e-06 -5.33727871e-06
      -8.33340266e-07 -2.95719337e-06 3.34320930e-06 2.98486320e-05
      2.44068269e-05 3.37619963e-06 -8.87737679e-06 -2.80143695e-06
      -8.65140191e-06 -2.98660543e-05 -2.54431689e-05 -1.38032256e-05
      -1.28734091e-05 2.83966938e-06 3.75989948e-05 5.93263940e-05
      2.71186691e-05 -2.59306853e-05 -4.97040674e-05 -3.30785697e-05
      -5.50366394e-06 9.98906216e-06 2.20734819e-05 2.58315158e-05
      1.22721240e-05 -9.48676901e-20 -4.22145968e-06 -1.45651711e-05
      -2.80979511e-05 -3.47337409e-05 -4.78085531e-05 -4.84060183e-05
      -2.15843356e-05 -7.63439687e-07 6.48978539e-06 2.89969121e-05
      4.62661883e-05 2.38698976e-05 -1.43432799e-05 -2.00246650e-05
      -1.46379443e-05 -1.26169843e-05 -1.60821928e-05 -2.42569222e-05
      -2.63582697e-05 -1.17747632e-05 1.19067026e-05 2.01413004e-05
      8.72151759e-07 -8.48568925e-06 -1.66730661e-06 -4.44109401e-06
      -5.37164715e-06 1.59311585e-05 3.17119011e-05 2.71192985e-05
      1.02251408e-06 -6.10377856e-06 -1.46028560e-05 -1.05585186e-05
      -1.26400146e-05 -1.88336253e-05 -8.98776671e-06 2.50203921e-05
      6.01551801e-05 5.69636832e-05 -1.22628094e-07 -6.08905211e-05
      -8.07945107e-05 -6.28207126e-05 -1.03616112e-05 4.14442293e-05
      7.35104913e-05 7.68357422e-05 3.46755587e-05 -1.03534021e-05
      -3.83952938e-05 -5.18935049e-05 -5.40511282e-05 -3.55248922e-05
      -2.55013620e-05 -4.36477239e-05 -4.30252694e-05 -1.59367009e-05
      1.82009553e-05 6.23663800e-05 7.14627386e-05 2.94984311e-05
      6.91345122e-06 3.14718491e-05 3.83312181e-05 1.71097072e-05
      -6.89987246e-06 -2.99111925e-05 -2.29393809e-05 -1.25165379e-05
      -1.26023233e-05 4.79650771e-06 5.10554264e-06 -6.65293192e-06
      -3.59770820e-06 -1.56986073e-06 -6.04294837e-06 4.58644809e-06
      3.35555924e-05 4.79044575e-05 3.42325002e-05 1.48042882e-05
      -8.32036221e-06 2.42057786e-06 8.11630287e-07 -1.45221620e-05
      6.80979110e-06 4.90859929e-05 6.42631931e-05 2.41535727e-05
      -4.12910922e-05 -8.91840900e-05 -1.18388591e-04 -8.52008307e-05
      2.14719421e-06 7.18727897e-05 1.07818596e-04 1.04596860e-04
      4.87582656e-05 -3.99246383e-05 -1.05143110e-04 -1.09433284e-04
      -8.68938441e-05 -4.91553074e-05 -2.45594219e-05 -5.97248109e-05
      -8.32250225e-05 -6.91677124e-05 -2.18868736e-05 5.98087790e-05
      8.88908471e-05 6.57329292e-05 6.00685089e-05 7.25997234e-05
      6.14692617e-05 2.66004845e-05 1.29485352e-06 -2.69580323e-05
      -3.62325773e-05 -2.75306556e-05 -2.60051311e-05 -3.19996616e-06
      1.83247830e-05 9.44082603e-06 -2.38380522e-07 -2.25175199e-06
      -4.78944457e-06 1.35398784e-06 3.14258541e-05 4.63125762e-05
      4.18153395e-05 2.11762854e-05 -7.16963496e-06 -2.51519555e-06
      -2.38920620e-06 -4.42654846e-06 2.92062996e-05 6.76975542e-05
      5.92406541e-05 -1.16043711e-05 -7.41660333e-05 -9.55685755e-05
      -1.20149038e-04 -8.11005448e-05 1.59880292e-05 7.40672258e-05
      1.07134147e-04 1.15234041e-04 5.14530839e-05 -6.56177508e-05
      -1.44641337e-04 -1.33227542e-04 -8.15147505e-05 -3.84836676e-05
      -2.92647510e-05 -7.98447727e-05 -1.14769653e-04 -1.31378576e-04
      -1.03611856e-04 1.10513665e-05 9.19747763e-05 9.24957712e-05
      5.44971699e-05 7.48180810e-06 -6.65883931e-07 2.36215533e-06
      2.43695808e-07 -1.30935769e-05 -3.53651194e-05 -3.49904476e-05
      -3.13103483e-05 -1.89565144e-05 1.81531614e-05 3.01953351e-05
      5.53224800e-06 -4.69117776e-06 -4.84499651e-06 8.86300222e-06
      3.29706891e-05 3.81038335e-05 2.25717813e-05 4.68753069e-06
      -6.05539208e-06 -1.13888109e-06 -6.75775254e-06 1.13280812e-05
      6.37113772e-05 8.04138690e-05 2.65166109e-05 -4.63049182e-05
      -6.03187764e-05 -4.20083888e-05 -5.73744801e-05 -4.25409926e-05
      1.85959361e-05 6.52834206e-05 1.09422777e-04 1.28105341e-04
      5.26469776e-05 -7.65910809e-05 -1.50551074e-04 -1.14167458e-04
      -3.08712370e-05 2.17656725e-05 4.17787624e-06 -6.86212807e-05
      -1.21409961e-04 -1.52209788e-04 -1.38714444e-04 -2.32623443e-05
      8.53010788e-05 8.36093459e-05 -4.26995121e-06 -6.22199659e-05
      -2.30715195e-05 1.92858370e-05 1.25843890e-05 -3.63177310e-06
      -1.06476737e-05 -2.07926951e-05 -4.34921967e-05 -4.86132885e-05
      -1.01801709e-06 2.15658838e-05 6.59565501e-07 -5.97659118e-06
      -2.49337450e-06 1.42527442e-05 4.22721969e-05 5.05017670e-05
      6.21895606e-06 3.13937039e-06 1.69206596e-05 9.87474596e-06
      -1.71159427e-05 2.81362991e-05 1.01611600e-04 8.59111678e-05
      -4.33896457e-06 -6.42960076e-05 -3.52906645e-05 8.02060549e-06
      1.18393837e-05 1.37227444e-05 3.31662923e-05 6.39094796e-05
      1.04523235e-04 1.19218879e-04 5.78581821e-05 -5.24950738e-05
      -1.22847196e-04 -7.10603126e-05 4.48505089e-05 1.07841035e-04
      7.49372994e-05 -2.87458552e-05 -1.11996575e-04 -1.55300731e-04
      -1.29801148e-04 -1.39693457e-05 8.76281629e-05 7.51901098e-05
      -3.36739467e-05 -7.40110336e-05 -5.92905735e-06 3.15357756e-05
      1.34249130e-05 4.96255325e-07 3.90956711e-06 -1.96237920e-06
      -2.05490524e-05 -2.62445901e-05 -4.37278959e-06 1.32263012e-05
      6.44580996e-06 -8.77162165e-07 8.28138184e-07 6.38739948e-06
      3.09190909e-05 4.84448210e-05 -7.09886126e-06 4.86462568e-06
      3.05678223e-05 1.41612882e-05 -1.67265844e-05 3.47004570e-05
      9.88261745e-05 6.87128777e-05 -3.77301308e-06 -4.05433639e-05
      -2.08049041e-05 1.27397579e-05 2.64734754e-05 4.40932636e-05
      6.26779292e-05 7.47244703e-05 9.65489598e-05 1.09001761e-04
      8.05736054e-05 3.25104884e-05 -1.07250116e-05 2.09410555e-05
      1.31615918e-04 2.07230492e-04 1.69332779e-04 3.81317113e-05
      -8.75381156e-05 -1.55459973e-04 -1.20221950e-04 9.13393160e-06
      8.63826717e-05 4.05225292e-05 -6.53512834e-05 -1.03874976e-04
      -5.09548663e-05 -3.49764514e-06 2.22223252e-06 -7.13102452e-07
      9.25201584e-06 2.51925321e-05 2.20983711e-05 -5.82940811e-06
      -1.83719076e-05 1.09694502e-05 2.05588694e-05 2.47032699e-06
      -2.74002446e-06 5.75201000e-07 1.83655266e-05 3.68511719e-05
      -1.21294343e-05 1.06215316e-06 2.90321823e-05 1.29442815e-05
      -8.22533639e-06 3.39779544e-05 7.27832739e-05 3.78787881e-05
      -6.99049906e-06 -7.64370270e-06 9.25939457e-06 1.69063205e-05
      2.05127872e-05 4.28512249e-05 7.01381869e-05 7.87032841e-05
      1.02165272e-04 1.28106025e-04 1.14733863e-04 1.10511282e-04
      1.17938602e-04 1.44278485e-04 2.26170887e-04 2.86192546e-04
      2.29026380e-04 7.57272574e-05 -7.12889450e-05 -1.49645377e-04
      -1.14926712e-04 2.83183217e-05 7.95832384e-05 -1.49321213e-05
      -1.15850904e-04 -1.48880150e-04 -8.59428837e-05 -6.04330296e-07
      3.05270805e-05 1.31300285e-05 2.55020659e-05 5.31605838e-05
      2.29004763e-05 -4.65076082e-05 -6.33400705e-05 -6.67582799e-06
      1.42650706e-05 -3.53527230e-06 -3.69152554e-06 -7.01166528e-07
      1.17520549e-05 2.39235105e-05 -1.26943396e-05 1.22443197e-07
      2.87928542e-05 1.19331280e-05 -7.53454469e-06 3.52652933e-05
      6.07983275e-05 1.60704967e-05 -2.90413936e-05 -1.40730094e-06
      2.98501800e-05 1.22428282e-05 -3.99965302e-06 1.66221562e-05
      5.12426886e-05 7.32702392e-05 1.09719615e-04 1.45392871e-04
      1.23470236e-04 1.03831124e-04 1.28417916e-04 1.77029768e-04
      2.45995005e-04 2.76405510e-04 2.00691953e-04 4.82050928e-05
      -7.53034983e-05 -1.33823953e-04 -9.40467507e-05 4.70129708e-05
      7.94283987e-05 -4.04871207e-05 -1.42593854e-04 -1.65831196e-04
      -8.51396690e-05 2.16169374e-05 6.32292431e-05 4.72501524e-05
      5.24193238e-05 6.79959776e-05 1.59394112e-05 -7.58245806e-05
      -9.04626577e-05 -2.09844948e-05 1.01410124e-05 -6.10219286e-06
      -5.89599358e-06 -1.02397519e-06 2.54520978e-06 4.99946145e-06
      -1.64889934e-05 -1.66825089e-07 2.86484155e-05 1.17684176e-05
      -7.96795848e-06 3.42966559e-05 6.14672535e-05 8.34965431e-06
      -4.43231111e-05 -1.46792017e-05 8.30694535e-06 -2.35467560e-05
      -5.24821298e-05 -2.97335973e-05 3.04343484e-05 7.09466185e-05
      1.12002257e-04 1.45392871e-04 1.07988511e-04 5.12513179e-05
      4.49606778e-05 7.95550877e-05 1.42360746e-04 1.71547668e-04
      1.05754683e-04 -9.28104237e-06 -8.16362081e-05 -9.98558899e-05
      -4.06780309e-05 8.64949907e-05 9.10080271e-05 -3.84567647e-05
      -1.41299490e-04 -1.65354402e-04 -8.51396690e-05 1.99110655e-05
      6.91095338e-05 6.58670906e-05 6.80609664e-05 7.73373977e-05
      2.06864679e-05 -7.54885914e-05 -9.51897528e-05 -2.53265443e-05
      1.14251889e-05 -6.50926040e-06 -4.93554171e-06 -1.02262199e-07
      -6.85162149e-07 1.34700099e-06 -1.51780851e-05 1.13605745e-06
      3.49938273e-05 1.66812661e-05 -4.03088006e-06 3.55976845e-05
      6.14672535e-05 7.08719836e-06 -4.72509564e-05 -2.58650070e-05
      -1.24958751e-05 -4.61199270e-05 -8.03745133e-05 -5.82472894e-05
      1.80013976e-05 7.08923544e-05 1.14238399e-04 1.48489722e-04
      1.03224142e-04 2.83697718e-05 -5.76534785e-06 4.22215635e-06
      4.19489697e-05 5.45150942e-05 1.18412254e-05 -4.57703645e-05
      -6.72786846e-05 -4.82571631e-05 2.83610480e-05 1.41857265e-04
      1.09367844e-04 -3.77393480e-05 -1.39929005e-04 -1.66101410e-04
      -8.64375907e-05 2.03589898e-05 7.26000580e-05 6.95744093e-05
      6.87848151e-05 7.93771324e-05 2.17602646e-05 -7.54080538e-05
      -9.83460268e-05 -2.92980021e-05 8.07060133e-06 -5.80932556e-06
      -4.41364637e-06 -9.12619157e-07 1.78846733e-06 3.82063035e-06
      -5.01866771e-06 1.44882706e-05 4.69111728e-05 2.81395169e-05
      3.68506130e-06 3.84324921e-05 6.12235526e-05 8.34965431e-06
      -4.54208493e-05 -2.46023537e-05 -1.22521797e-05 -4.67720274e-05
      -8.46760231e-05 -6.66062915e-05 1.40653947e-05 7.11787507e-05
      1.15087700e-04 1.53730100e-04 1.04191422e-04 2.30939222e-05
      -1.92819789e-05 -3.39413891e-05 -4.06855543e-05 -4.11233596e-05
      -3.63205727e-05 -4.59441544e-05 -2.54577226e-05 3.40671468e-05
      1.02352875e-04 1.79036579e-04 1.23357808e-04 -3.59387304e-05
      -1.38883304e-04 -1.60614436e-04 -8.38888809e-05 2.65610761e-05
      7.18849114e-05 5.30447142e-05 4.77962822e-05 5.88953262e-05
      1.14053491e-05 -7.45043435e-05 -9.62128761e-05 -2.73215592e-05
      1.04749342e-05 -4.06170739e-06 -4.76355217e-06 -7.51415826e-07
      1.78846733e-06 3.82063035e-06 2.77903155e-06 2.27237088e-05
      5.33057246e-05 3.33927783e-05 7.26060580e-06 4.71199346e-05
      7.44343852e-05 1.69478026e-05 -4.94448104e-05 -3.83055085e-05
      -2.01012645e-05 -4.66932397e-05 -8.61169829e-05 -6.89152075e-05
      1.26673376e-05 7.08923544e-05 1.16639836e-04 1.56204347e-04
      1.05636936e-04 1.17584968e-05 -4.88506084e-05 -1.10403002e-04
      -1.50946333e-04 -1.00791236e-04 -3.40394217e-05 -1.63931945e-05
      3.77774959e-05 1.18961354e-04 1.54601090e-04 1.84380231e-04
      1.23236212e-04 -2.63842030e-05 -1.28753833e-04 -1.49913190e-04
      -8.31566140e-05 1.56283641e-05 5.39061366e-05 2.62571120e-05
      1.16968968e-05 1.84195978e-05 2.66596476e-06 -4.65512021e-05
      -6.63349201e-05 -1.63046989e-05 7.68449718e-06 -5.79961579e-06
      -4.25953749e-06 -8.24924626e-08 1.78846733e-06 3.82063035e-06
      2.61412288e-06 2.17800789e-05 5.23620947e-05 3.37676902e-05
      4.20513879e-06 5.44143186e-05 1.00287209e-04 4.01580473e-05
      -5.01937502e-05 -6.33408999e-05 -3.61587518e-05 -4.62846365e-05
      -8.61169829e-05 -7.01887111e-05 1.28322463e-05 7.22880577e-05
      1.17816220e-04 1.62036013e-04 1.06326421e-04 -1.61816170e-05
      -1.20830606e-04 -2.14102722e-04 -2.25889817e-04 -1.13900955e-04
      -1.20135737e-05 2.06776931e-05 8.42535737e-05 1.32581845e-04
      1.35004404e-04 1.60077208e-04 1.22668207e-04 7.42658904e-06
      -9.48245361e-05 -1.29033957e-04 -8.72458186e-05 -1.60513628e-05
      3.35851983e-05 2.55546329e-05 -7.75537501e-07 -1.86970119e-05
      -1.11168838e-05 8.76699460e-08 -1.22738957e-05 1.12856042e-05
      1.96727251e-05 1.07693033e-07 -5.54894223e-06 -8.24924626e-08
      3.01530827e-06 3.88836906e-06 -2.86284194e-06 1.58747644e-05
      5.04595992e-05 3.32278687e-05 -2.65493395e-06 4.03380873e-05
      9.45954744e-05 6.23546366e-05 -2.31833928e-05 -6.40402650e-05
      -4.34784961e-05 -4.65283301e-05 -8.65253896e-05 -7.01887111e-05
      1.31979496e-05 7.22880577e-05 1.16982388e-04 1.64742873e-04
      1.05818719e-04 -4.69063707e-05 -2.01255636e-04 -2.91979435e-04
      -2.54182727e-04 -1.11964429e-04 -1.44351714e-06 4.54671463e-05
      8.45054892e-05 7.92283099e-05 6.17202313e-05 1.07560169e-04
      1.26244544e-04 6.17991973e-05 -4.86794997e-05 -9.67004380e-05
      -6.57876590e-05 -2.10322014e-05 1.37985053e-05 2.03565996e-05
      -1.13263559e-05 -6.14743767e-05 -5.78728977e-05 -1.93212109e-05
      1.76598724e-06 2.58565124e-05 3.51792041e-05 9.04184253e-06
      -4.28853673e-06 -5.79799860e-07 2.88620686e-06 3.88836906e-06
      3.21681478e-06 2.59319731e-05 5.63738831e-05 3.32278687e-05
      -4.78378297e-06 1.40495813e-05 6.07545444e-05 6.85256236e-05
      8.67697872e-06 -3.50021655e-05 -2.91894285e-05 -4.04022430e-05
      -8.32581427e-05 -6.96100178e-05 1.36546359e-05 7.12580513e-05
      1.16027535e-04 1.67045029e-04 1.09566077e-04 -6.81255769e-05
      -2.50917190e-04 -3.28367692e-04 -2.63568887e-04 -1.22611513e-04
      -3.78516984e-06 4.87941325e-05 5.83475594e-05 2.73989772e-05
      -3.52640814e-06 3.84704763e-05 1.04614825e-04 1.01580197e-04
      3.66305426e-06 -5.15746542e-05 -1.11993677e-05 2.15458876e-05
      1.43821217e-05 2.61434957e-06 -3.60127924e-05 -8.35669853e-05
      -8.49280841e-05 -6.36748591e-05 -1.99120732e-05 1.75312834e-05
      1.50778305e-05 1.85611339e-06 -2.23371694e-06 9.16789190e-07
      1.50708422e-06 1.18127491e-06 3.29902396e-05 4.47856437e-05
      5.01610011e-05 2.31139184e-05 -2.34435720e-06 5.80217102e-06
      3.82863218e-05 5.86253918e-05 2.88706615e-05 -8.52052744e-06
      -1.99830320e-05 -3.34762663e-05 -6.64199397e-05 -5.12306760e-05
      1.87033729e-05 7.91190323e-05 1.39255295e-04 1.82587362e-04
      1.08988846e-04 -8.04967422e-05 -2.56769417e-04 -3.15572106e-04
      -2.57410895e-04 -1.37762632e-04 -2.23023526e-05 3.02485751e-05
      2.18557088e-05 -2.00325157e-05 -4.27412597e-05 1.89809532e-06
      7.84636577e-05 1.18514159e-04 7.81549170e-05 2.73445512e-05
      4.19405733e-05 4.58242394e-05 1.09255843e-05 -2.50799690e-06
      -3.11562872e-05 -5.87335817e-05 -5.26631666e-05 -4.86248209e-05
      -9.69951634e-06 1.97692098e-05 1.20335346e-06 -4.33415516e-06
      -9.79437687e-07 2.09549921e-06 4.83612939e-06 5.88618468e-06
      4.53330686e-05 3.51439012e-05 2.19196518e-05 1.61593107e-05
      7.05522416e-06 3.06250104e-06 2.32707316e-05 4.44477264e-05
      4.23760284e-05 4.52637096e-07 -4.02943697e-05 -5.69923031e-05
      -5.96851642e-05 -2.70308901e-05 3.88239823e-05 1.10758308e-04
      1.74845860e-04 1.70120766e-04 6.80476514e-05 -8.66406190e-05
      -2.15616616e-04 -2.54528684e-04 -2.14600645e-04 -1.27026113e-04
      -2.87494022e-05 1.74701454e-05 -6.90442505e-07 -5.69036420e-05
      -5.35819818e-05 2.54317038e-05 8.19614506e-05 1.11444744e-04
      1.26879226e-04 1.17290467e-04 1.04103659e-04 6.96106727e-05
      3.58189463e-05 3.56988712e-05 1.86585257e-05 -2.06289405e-05
      -2.74410522e-05 -1.21363828e-05 1.39948042e-05 2.89698746e-05
      7.40954556e-06 -4.24837162e-06 6.01325667e-07 1.94967060e-06
      1.30103736e-05 2.31437461e-05 1.27314315e-05 4.77064259e-06
      1.91092913e-05 4.24175742e-05 2.38274606e-05 -1.81672226e-06
      4.87498346e-06 3.41930754e-05 5.48808457e-05 2.21491355e-05
      -4.50642910e-05 -7.81138879e-05 -6.42464220e-05 -2.08306647e-05
      4.53154607e-05 1.11738358e-04 1.34785587e-04 8.60744185e-05
      2.99410272e-06 -8.60550645e-05 -1.68525294e-04 -1.89636587e-04
      -1.46392907e-04 -8.37170664e-05 -2.36333690e-05 -4.24086193e-06
      -4.12691079e-05 -8.36466061e-05 -3.96317264e-05 4.68763719e-05
      7.67698584e-05 7.31120454e-05 9.31903996e-05 1.22136655e-04
      1.16874282e-04 9.05645284e-05 7.59817267e-05 5.75354570e-05
      2.19394806e-05 -1.17025074e-05 -1.12680136e-05 1.08070126e-05
      2.61007553e-05 1.70236544e-05 2.24110113e-06 7.24488928e-07
      8.72141300e-06 1.60726868e-05 1.76827762e-05 1.55069010e-05
      -4.41300945e-05 -3.06963520e-05 9.98911037e-06 4.31626686e-05
      3.42300191e-05 6.54577798e-06 5.68914402e-07 2.01822659e-05
      5.46703013e-05 5.76634302e-05 6.32303738e-07 -5.29745630e-05
      -4.99484777e-05 -1.61040116e-05 1.28321908e-05 2.42122060e-05
      2.05134493e-05 -1.17587688e-05 -4.31546250e-05 -6.16382313e-05
      -1.12762238e-04 -1.40554330e-04 -1.06280320e-04 -5.96343998e-05
      -4.48219580e-05 -6.74781622e-05 -1.04649276e-04 -9.80427576e-05
      -3.41588930e-05 2.67549894e-05 4.60971023e-05 3.08548370e-05
      1.74133693e-05 2.63539278e-05 3.27003836e-05 3.34094329e-05
      2.41239504e-05 -6.63068022e-06 -2.50166377e-05 -1.45915856e-05
      3.90434479e-06 2.22670515e-05 2.90997286e-05 6.62854336e-06
      -3.74253477e-06 -3.61335168e-07 1.65002839e-05 3.60076083e-05
      1.38259675e-05 -1.00615280e-05 -7.21953111e-05 -5.40216752e-05
      -2.89962409e-05 6.47013621e-07 3.45823137e-05 2.20260299e-05
      -2.48564561e-06 2.44495777e-06 3.32659583e-05 6.34610624e-05
      4.44987963e-05 -1.44648166e-05 -4.81527713e-05 -3.13103483e-05
      -1.92250463e-05 -4.17992378e-05 -5.66689741e-05 -6.69766814e-05
      -5.62610294e-05 -2.78594343e-05 -4.54325491e-05 -8.28778284e-05
      -7.74243672e-05 -4.82240866e-05 -4.98225636e-05 -8.12091748e-05
      -1.00091260e-04 -7.59630057e-05 -2.55266441e-05 4.68246344e-06
      1.64365556e-05 1.42850740e-05 -1.36205208e-05 -2.71275476e-05
      -2.12042305e-05 -1.79149247e-05 -3.08691015e-05 -4.76871828e-05
      -3.24866960e-05 -3.30629200e-06 5.26680560e-06 2.65396488e-06
      4.27331224e-06 1.25891904e-06 -2.64921732e-06 -7.59108525e-06
      -4.40456188e-06 1.50153019e-05 2.53847520e-06 -2.24712439e-05
      -5.78442305e-05 -3.53176911e-05 -1.74099532e-05 -1.21502135e-05
      1.89808234e-05 2.86730537e-05 8.22539914e-06 -5.79844982e-06
      9.28834379e-06 4.56632879e-05 5.41461850e-05 7.72108251e-06
      -5.09469719e-05 -6.32435767e-05 -3.87983564e-05 -3.78756122e-05
      -6.24798195e-05 -6.60511869e-05 -3.63627150e-05 -7.68417704e-06
      -9.31942395e-06 -2.50043140e-05 -2.84458911e-05 -1.90809642e-05
      -1.82158710e-05 -2.82497222e-05 -3.29321847e-05 -2.54106380e-05
      -8.78191622e-06 -9.48676901e-20 5.35138679e-06 6.60332080e-06
      -5.30940997e-06 -1.07664937e-05 -8.29286455e-06 -8.78277478e-06
      -1.45105432e-05 -1.70708227e-05 -5.83432484e-06 9.27759118e-07
      -1.59965202e-05 -3.09667848e-05 -1.88899157e-05 -2.71982685e-06
      2.36601508e-07 -1.22656093e-05 -1.89308448e-05 -9.56815825e-07
      -7.67853999e-06 -2.74608192e-05 -1.49724519e-05 5.78741856e-06
      2.71209938e-05 2.92805385e-06 -6.15658473e-06 1.97593563e-05
      1.57296981e-05 -4.01593934e-06 -2.73290402e-06 2.15558684e-05
      4.15691356e-05 2.66250154e-05 -1.78294049e-05 -5.20486647e-05
      -4.83153999e-05 -3.15090074e-05 -2.86474369e-05 -2.40282625e-05
      -8.78191622e-06 -9.48676901e-20 -9.48676901e-20 -9.48676901e-20
      -9.48676901e-20 -4.08405981e-07 -8.65092147e-07 -9.48676901e-20
      -9.48676901e-20 -9.48676901e-20 -2.43675345e-06 1.64908627e-07
      7.22920561e-07 -9.32830915e-07 -1.09773953e-06 -1.54109046e-07
      -8.65092147e-07 4.83663030e-07 -2.60132367e-07 2.04647677e-06
      2.49459276e-06 -1.04172314e-05 -3.19298815e-05 -3.07281043e-05
      -1.20163286e-05 -1.14549300e-06 2.03485592e-06 8.08609457e-06
      1.92924253e-05 3.38908358e-05 1.85011959e-05 -1.10401845e-06
      2.61388832e-05 3.36879275e-05 4.06960826e-05 1.60792897e-05
      -1.90469182e-05 -8.01278838e-06 1.05005938e-05 3.87462114e-06
      -1.44277919e-06 5.72866020e-06 2.20993352e-05 3.28363130e-05
      1.99357946e-05 -1.95611142e-06 -2.13268995e-05 -3.26438203e-05
      -2.45679148e-05 -5.97830604e-06 1.64908627e-07 1.03000070e-06
      -9.48676901e-20 7.85383563e-08 2.04136995e-06 -9.48676901e-20
      -9.48676901e-20 -1.09773953e-06 -9.48676901e-20 1.62628396e-07
      -4.08405981e-07 -9.48676901e-20 6.68923349e-07 -9.48676901e-20
      -1.64908627e-07 6.08131131e-07 2.79994515e-06 1.49326536e-06
      2.13267663e-06 2.93249218e-06 -6.23356345e-06 -2.18818095e-05
      -2.35274711e-05 -1.11041663e-05 -2.24323253e-06 2.41166759e-07
      5.51046196e-06 3.18197381e-05 6.12293734e-05 6.52388626e-05
      5.07709301e-05 4.31894587e-05 4.09594759e-05 3.96883079e-05
      3.97200238e-05 3.13658857e-05 1.69322129e-06 -1.57326904e-05
      5.75630975e-06 2.11894912e-05 7.69037342e-06 6.37393327e-07
      7.99501322e-06 2.17203542e-05 2.69539178e-05 2.93683115e-05
      2.35813623e-05 -9.90674471e-06 -2.64661685e-05 -1.86675788e-05
      -1.29659647e-05 -6.66744108e-06 9.43630482e-07 -9.48676901e-20
      -9.48676901e-20 1.22007137e-07 -8.65092147e-07 -1.96624995e-07
      6.68923349e-07 -9.48676901e-20 -5.46916226e-07 -4.08405981e-07
      -1.86942714e-06 2.57096281e-06 3.50012851e-06 6.28596808e-06
      7.63670414e-06 5.39706389e-06 2.44863804e-06 -7.52792812e-06
      -1.91855961e-05 -1.82664735e-05 -6.60826663e-06 -4.45111112e-07
      -6.98509609e-07 3.58880101e-07 1.44498699e-05 4.49273866e-05
      6.50072980e-05 6.39784921e-05 5.92960314e-05 5.91740245e-05
      4.09594759e-05 4.06319377e-05 4.06319377e-05 4.06319377e-05
      3.26039844e-05 1.21103740e-05 1.02915692e-05 2.72751240e-05
      1.66733280e-05 9.00899295e-07 2.94590723e-06 4.52001314e-06
      1.01706382e-05 2.96610633e-05 5.37295236e-05 4.17834744e-05
      9.27229576e-06 -1.37465177e-05 -2.24399755e-05 -1.83809825e-05
      -1.06617435e-05 -1.47104197e-06 7.31087403e-06 4.95290169e-06
      1.94956647e-06 -9.48676901e-20 6.68923349e-07 1.83497207e-06
      5.89191950e-06 1.43101497e-05 1.81848027e-05 1.27688054e-05
      7.63670414e-06 6.15587078e-06 5.69135091e-06 5.19198693e-06
      -1.15871910e-06 -1.56653314e-05 -1.88983504e-05 -7.28087298e-06
      1.29835473e-06 -1.61255389e-06 -1.17077562e-07 1.21125631e-05
      4.59961739e-05 6.83925828e-05 6.42273808e-05 5.92960314e-05
      5.92960314e-05 5.92960314e-05 4.06319377e-05 4.06319377e-05
      4.06319377e-05 3.95341995e-05 4.16079965e-05 3.58951147e-05
      2.76430073e-05 2.38033554e-05 9.75366220e-06 -4.49677884e-07
      2.43695808e-07 2.13836159e-07 -8.38403253e-07 9.11262305e-06
      4.51595188e-05 6.57089477e-05 4.53891262e-05 2.25940239e-05
      2.28483782e-06 -1.54322479e-05 -2.07182493e-05 -1.40192719e-06
      1.47095052e-05 1.10540677e-05 3.98688917e-06 3.31452156e-07
      3.31452156e-07 3.91936555e-06 1.24063026e-05 2.79295818e-05
      3.65015003e-05 2.02299925e-05 5.72715817e-06 1.71154772e-06
      -2.80119275e-06 -1.61951914e-06 -8.76456215e-06 -1.38928499e-05
      -7.20625485e-06 -4.56254469e-07 -6.92073718e-06 -1.20278219e-05
      8.76479044e-06 4.69200568e-05 7.57002126e-05 7.52935885e-05
      6.38564889e-05 5.92960314e-05 5.92960314e-05 5.92960314e-05
      3.94873459e-05 4.17296797e-05 4.06319377e-05 4.06319377e-05
      4.06319377e-05 4.25088947e-05 4.22628909e-05 3.23916975e-05
      1.61138159e-05 5.54709504e-06 1.74358433e-06 4.49544160e-07
      2.30657719e-07 -1.97108238e-06 8.22290349e-06 2.73847236e-05
      4.15600771e-05 4.86848840e-05 4.11833425e-05 2.63975890e-05
      8.47453794e-06 1.42985482e-06 5.39719622e-06 3.58036073e-06
      -2.69105868e-07 -1.18586081e-06 -2.08957090e-06 -5.15390923e-07
      5.00414990e-06 1.41480468e-05 2.71007048e-05 2.76215469e-05
      1.39559088e-05 -1.96908377e-06 -1.21843568e-05 -1.11075169e-05
      -1.08203221e-05 -7.11256871e-06 -1.94218819e-06 -6.63433821e-06
      -2.43352806e-05 -1.75807800e-05 3.72026225e-05 7.59439063e-05
      7.64809156e-05 6.35817778e-05 6.04701381e-05 5.92960314e-05
      5.92960314e-05 5.92960314e-05 1.02799431e-05 1.30610615e-05
      1.50106280e-05 1.50106280e-05 2.49309433e-05 4.21305922e-05
      5.00202768e-05 5.42735543e-05 5.19687965e-05 2.82045567e-05
      1.06141570e-05 1.45175754e-05 8.54103109e-06 -9.43397254e-07
      -4.12590816e-06 -1.88580611e-06 1.43684547e-05 3.02384251e-05
      4.79261544e-05 5.69533295e-05 3.13560377e-05 6.29040414e-06
      3.20667755e-06 8.72211149e-06 2.21403116e-05 2.85439892e-05
      2.71903009e-05 2.01688254e-05 1.13100159e-05 4.34719368e-06
      1.33181948e-05 3.10650612e-05 1.91965337e-05 -5.59455884e-06
      -1.33783260e-05 -9.05921934e-06 -5.27609200e-06 -2.43034197e-06
      -6.61412651e-06 -2.47178050e-05 -2.33141909e-05 2.01456714e-05
      6.91883179e-05 7.46508085e-05 6.24972527e-05 5.82303946e-05
      5.82303946e-05 5.91740245e-05 5.92960314e-05 5.92960314e-05
      -4.04120292e-05 -3.63096078e-05 -3.13531418e-05 -3.02554035e-05
      -1.26102523e-05 2.15453474e-05 4.55773443e-05 6.78539509e-05
      8.15614403e-05 5.96418104e-05 3.38472455e-05 2.85761071e-05
      1.60636882e-05 -4.03403444e-09 -1.64582298e-06 -2.57881510e-07
      8.18953197e-07 5.05689422e-06 1.30793042e-05 2.03412874e-05
      1.18092921e-05 6.08326945e-06 1.02281783e-05 2.18335299e-05
      4.34492504e-05 5.55073857e-05 5.59846085e-05 4.19369535e-05
      1.98609214e-05 5.01960494e-06 4.50155903e-06 8.11048994e-06
      3.43664556e-06 -3.30402440e-06 -4.16983312e-06 -2.60651427e-06
      -1.46811544e-06 1.23314828e-06 -9.87138264e-06 -1.76502053e-05
      2.14547308e-05 6.98882577e-05 7.37071750e-05 5.83985930e-05
      5.45701805e-05 5.73763427e-05 5.82303946e-05 5.82303946e-05
      6.11235882e-05 6.29514689e-05 -5.48159296e-05 -5.17683729e-05
      -4.73793807e-05 -4.62816388e-05 -3.74590636e-05 -2.05031120e-05
      4.09635777e-06 3.89781089e-05 6.49412978e-05 7.52488631e-05
      6.14381570e-05 4.12688496e-05 2.81810535e-05 1.34833763e-05
      7.75307581e-06 3.09041729e-06 1.61255389e-06 -6.66100391e-07
      -4.16926923e-06 -4.01375974e-06 -1.68429540e-06 -1.89807849e-06
      -2.05407719e-06 4.97557176e-06 1.56167807e-05 2.14122538e-05
      2.22177641e-05 1.63239638e-05 3.76449270e-06 -2.92756226e-06
      -4.58853719e-06 -5.93545337e-06 -4.34802723e-06 -2.43276327e-06
      4.72298353e-07 -6.05564492e-06 -1.28159654e-05 9.76511092e-06
      2.36545457e-05 2.23785191e-05 4.04533057e-05 4.89172817e-05
      4.28086387e-05 5.34480823e-05 5.99292580e-05 6.13341399e-05
      6.28593407e-05 6.18858321e-05 6.83127728e-05 7.39177776e-05
      -4.38422139e-05 -4.49779400e-05 -4.38395400e-05 -4.14027891e-05
      -4.14027891e-05 -4.33523528e-05 -3.73331095e-05 -1.92831521e-05
      1.55985999e-05 6.57560231e-05 8.28543998e-05 7.34482674e-05
      6.72156821e-05 5.19162095e-05 3.51055787e-05 1.82849726e-05
      7.64075685e-06 5.10415975e-06 2.00092458e-07 1.53401550e-06
      -2.73306625e-07 -3.57782460e-06 -6.21786558e-06 -5.38403401e-06
      -4.71556677e-06 -4.54046494e-06 -3.36190669e-06 -3.17484000e-06
      -5.44294289e-06 -2.46928562e-06 -1.53600513e-06 -1.21922972e-06
      -7.56893223e-06 -1.96391138e-05 -1.68526585e-05 -6.73199338e-06
      4.75273237e-06 3.42759558e-05 4.64925834e-05 1.81681698e-05
      -1.36381204e-05 -2.21119863e-05 -4.30065847e-06 3.27923517e-05
      5.01246104e-05 5.42785201e-05 6.62743769e-05 7.39177776e-05
      7.92790888e-05 8.48840937e-05 -4.23378988e-05 -4.25005273e-05
      -4.25005273e-05 -4.25005273e-05 -4.38395400e-05 -4.79429036e-05
      -5.35479048e-05 -4.79429036e-05 -9.40571317e-06 5.77530227e-05
      9.07247304e-05 9.46392393e-05 9.43960404e-05 8.88857176e-05
      7.42681004e-05 5.06502765e-05 4.52932945e-05 3.91020258e-05
      1.89636903e-05 -8.29416649e-07 -1.49616508e-05 -1.90076498e-05
      -6.44865395e-06 -9.85017437e-07 8.61138005e-07 1.71804473e-07
      1.51081849e-06 1.40212717e-06 -6.49804724e-06 -1.88055055e-05
      -1.83205757e-05 -1.56984675e-06 3.97916165e-06 -3.45135709e-06
      -7.37103801e-06 2.24797623e-06 2.77231429e-05 3.05784524e-05
      -3.15908414e-06 -3.97850672e-05 -5.74954611e-05 -5.29756762e-05
      -2.92136901e-05 -6.00783187e-06 8.06621358e-07 1.02487656e-05
      3.85466883e-05 5.55991210e-05 6.48864589e-05 7.41413751e-05
      -4.25768194e-05 -4.06272520e-05 -3.90433888e-05 -3.96537434e-05
      -4.34334142e-05 -5.35479048e-05 -6.08587798e-05 -5.52537786e-05
      -2.46444597e-05 2.49975146e-05 5.08536541e-05 5.54851504e-05
      6.07292277e-05 6.52434901e-05 6.95784693e-05 7.42653574e-05
      9.10933741e-05 9.05051056e-05 6.12879812e-05 3.15190737e-05
      7.06351193e-06 6.85956456e-06 2.40895752e-05 1.95763841e-05
      9.94875518e-06 8.14133455e-06 7.10852373e-06 1.87892729e-05
      2.60272027e-05 8.34979801e-06 1.30494209e-05 3.18638449e-05
      3.43980028e-05 4.08187261e-05 2.45948468e-05 -1.62686847e-05
      -1.81992273e-05 -2.33242718e-05 -5.29981226e-05 -6.67097047e-05
      -5.95637357e-05 -4.57912611e-05 -3.21360167e-05 -2.59158824e-05
      -2.59158824e-05 -2.09293066e-05 -9.54858660e-06 -4.74286175e-08
      1.69131927e-05 3.19216997e-05 -4.25720391e-05 -3.89166053e-05
      -3.52611678e-05 -3.72132818e-05 -4.44069265e-05 -5.72033423e-05
      -6.45142209e-05 -6.08587798e-05 -4.07372499e-05 -7.80506525e-06
      1.26821678e-05 1.97493464e-05 2.51128840e-05 2.86510913e-05
      4.52391905e-05 7.65849618e-05 1.06745123e-04 1.12095928e-04
      8.64280009e-05 6.20874562e-05 4.88854894e-05 5.36151165e-05
      6.32953088e-05 3.99866003e-05 1.98975104e-05 1.60244672e-05
      1.40879456e-05 3.66099084e-05 6.27062036e-05 5.67095522e-05
      6.01992615e-05 6.49045542e-05 4.72544089e-05 5.03300871e-05
      2.65701401e-05 -3.69857553e-05 -5.78578656e-05 -5.76141720e-05
      -6.49250433e-05 -6.49250433e-05 -5.42024281e-05 -4.14060123e-05
      -3.23822605e-05 -2.68919393e-05 -2.49398236e-05 -2.68919393e-05
      -3.03084580e-05 -3.01864493e-05 -1.23717782e-05 3.61278558e-06</_>
    <_>
      1.30951821e-05 1.30951821e-05 1.30951821e-05 1.17857480e-05
      7.94473999e-06 4.01643729e-06 2.70700275e-06 2.70700275e-06
      2.70700275e-06 2.70700275e-06 5.32587137e-06 1.03370858e-05
      1.30619301e-05 1.31824772e-05 1.31824772e-05 1.25341630e-05
      1.30744083e-05 2.27118344e-05 4.28580206e-05 5.17127119e-05
      4.81214229e-05 3.98564152e-05 2.79797932e-05 2.13352268e-05
      2.07005396e-05 2.14789488e-05 2.14463180e-05 2.13382482e-05
      2.74429276e-05 3.84194645e-05 4.38426396e-05 3.49405382e-05
      1.40213551e-05 2.59893386e-06 3.16563137e-06 3.89737534e-06
      3.42519866e-06 3.17068361e-06 3.33275921e-06 2.59714898e-06
      -5.51205494e-06 -2.25301937e-05 -2.15836117e-05 -3.53857240e-06
      6.47009483e-06 1.05636091e-05 1.43267007e-05 1.30951821e-05
      1.31824772e-05 1.31824772e-05 1.30951821e-05 1.30951821e-05
      1.30951821e-05 1.24841126e-05 9.86524356e-06 5.93694085e-06
      3.40536781e-06 2.70700275e-06 2.43309387e-06 3.13360579e-06
      4.62750677e-06 9.16687895e-06 1.20709765e-05 1.31824772e-05
      1.83689954e-05 3.04651821e-05 3.46389606e-05 3.43483698e-05
      4.59026996e-05 5.45400362e-05 5.17320441e-05 4.10794601e-05
      2.57392239e-05 1.73862409e-05 1.71724787e-05 1.71950360e-05
      1.70632811e-05 1.48984536e-05 1.67587605e-05 2.91090073e-05
      4.22114681e-05 3.17611630e-05 1.05203571e-05 1.27575486e-05
      1.55901271e-05 7.97642588e-06 3.98793827e-06 3.25619430e-06
      3.33275921e-06 2.59714898e-06 -3.59469141e-06 -1.62302840e-05
      -1.55576108e-05 -3.31899741e-06 4.62750677e-06 9.70003293e-06
      1.17078325e-05 1.05636091e-05 1.05636091e-05 1.05636091e-05
      1.30951821e-05 1.30951821e-05 1.30951821e-05 1.31824772e-05
      1.24841126e-05 9.86524356e-06 6.63530591e-06 4.62750677e-06
      3.31807223e-06 2.68832309e-06 4.01643729e-06 8.12341386e-06
      1.17857480e-05 2.15819746e-05 4.12179616e-05 6.22473744e-05
      6.60657315e-05 4.66266538e-05 3.36325065e-05 3.41589330e-05
      3.55635166e-05 2.75498205e-05 1.27190442e-05 6.59526359e-06
      6.02905175e-06 6.61053582e-06 6.61394324e-06 1.36203255e-06
      -4.08460801e-06 2.66980942e-06 1.94644235e-05 1.33626827e-05
      -3.32486003e-08 1.71367410e-05 2.88287629e-05 1.85025074e-05
      1.26912028e-05 7.07359550e-06 3.29551381e-06 4.60494812e-06
      3.13459873e-06 -1.58510716e-06 -2.62063236e-06 5.15730051e-07
      3.31807223e-06 4.62750677e-06 5.32587137e-06 5.32587137e-06
      5.32587137e-06 5.32587137e-06 1.30951821e-05 1.30951821e-05
      1.30951821e-05 1.31824772e-05 1.31824772e-05 1.24841126e-05
      1.11746785e-05 9.25417498e-06 6.63530591e-06 5.32587137e-06
      6.54801033e-06 1.37958459e-05 2.41097387e-05 4.31455228e-05
      6.12457661e-05 5.71042001e-05 4.71328385e-05 3.25247820e-05
      1.13770220e-05 5.98758152e-06 7.85101656e-06 5.45759485e-06
      1.48172026e-08 -2.60058960e-06 -1.34281322e-06 -1.04409753e-06
      -1.12620057e-06 -3.45511557e-06 -7.92261380e-06 -6.96252664e-06
      -1.24270809e-06 -2.41717339e-06 -5.51589847e-06 2.11954625e-06
      1.50896367e-05 2.17844754e-05 2.45027386e-05 1.71773117e-05
      9.46164982e-06 1.04738101e-05 1.05636091e-05 8.55580947e-06
      4.62750677e-06 2.70700275e-06 2.70700275e-06 2.70700275e-06
      2.43309387e-06 2.70700275e-06 2.70700275e-06 2.70700275e-06
      1.30951821e-05 1.30951821e-05 1.30951821e-05 1.30951821e-05
      1.30951821e-05 1.30951821e-05 1.30951821e-05 1.24841126e-05
      1.11746785e-05 1.05822883e-05 1.41819501e-05 3.09633178e-05
      4.63715587e-05 4.93199623e-05 4.17540759e-05 2.15402397e-05
      1.02119329e-05 9.08900256e-06 3.53383552e-06 -1.81243456e-06
      -2.59428225e-06 -2.27480859e-06 -2.49793538e-06 1.01616968e-06
      8.06560092e-06 1.20314744e-05 7.78897083e-06 2.22139374e-06
      -1.35090158e-06 -2.16673970e-06 -2.63147422e-06 -1.19774563e-06
      -1.26438829e-06 -5.36625976e-06 -2.88736885e-07 9.02296324e-06
      1.61560929e-05 1.64218563e-05 1.54372683e-05 1.13396745e-05
      4.97313931e-06 6.37867242e-06 5.32587137e-06 2.70700275e-06
      2.70700275e-06 2.52038944e-06 2.43309387e-06 2.70700275e-06
      2.61970717e-06 2.61970717e-06 1.30951821e-05 1.30951821e-05
      1.30951821e-05 1.30951821e-05 1.30951821e-05 1.30951821e-05
      1.31824772e-05 1.31824772e-05 1.32259402e-05 1.56250135e-05
      2.92658933e-05 4.48707578e-05 4.39299147e-05 2.52975497e-05
      1.08985141e-05 2.45596470e-06 -3.75891062e-07 -1.00260695e-06
      1.36745575e-06 3.55847101e-06 6.87411102e-06 1.79105446e-05
      2.52589507e-05 3.16586993e-05 4.42020937e-05 5.08753583e-05
      4.41504781e-05 3.23372769e-05 2.34984473e-05 1.69662417e-05
      6.39895325e-06 -2.49238411e-07 -1.40931570e-06 -1.34281322e-06
      -1.94675613e-06 -1.06689311e-06 3.00005672e-06 7.19116224e-06
      8.21798767e-06 4.09387576e-06 -4.39783207e-06 -4.12131203e-06
      6.35959765e-08 2.70700275e-06 2.70700275e-06 2.70700275e-06
      2.28039994e-06 2.70700275e-06 2.61970717e-06 2.61970717e-06
      1.31824772e-05 1.31824772e-05 1.31824772e-05 1.30951821e-05
      1.30951821e-05 1.30951821e-05 1.30951821e-05 2.04124099e-05
      3.14805839e-05 3.46043635e-05 3.79734229e-05 3.53660507e-05
      1.77845504e-05 4.11608926e-06 -8.68098425e-07 -9.08069694e-07
      8.36176582e-07 8.78257742e-06 2.55241775e-05 3.43128486e-05
      3.61929197e-05 4.53025932e-05 4.71510211e-05 4.77620852e-05
      5.50655568e-05 5.64185757e-05 5.59083637e-05 5.22175505e-05
      4.40820550e-05 4.00329409e-05 3.71865790e-05 2.85989699e-05
      2.04018270e-05 1.11993013e-05 2.30963042e-06 -1.12079078e-06
      -8.25528502e-07 5.99362011e-07 -1.88100807e-06 2.40751689e-07
      4.00730869e-06 -8.79987601e-06 -1.32045561e-05 -1.97601526e-06
      2.70700275e-06 2.70700275e-06 2.70700275e-06 2.70700275e-06
      7.89639159e-07 -1.48892934e-06 1.31824772e-05 1.31824772e-05
      1.31824772e-05 1.31824772e-05 1.31824772e-05 1.31824772e-05
      2.08169877e-05 4.65891353e-05 6.46802655e-05 4.90617276e-05
      2.59158405e-05 1.24888429e-05 2.56952831e-06 -5.71905616e-07
      6.03487024e-07 9.37259392e-06 2.47938733e-05 4.23442434e-05
      5.26451731e-05 4.07402695e-05 1.70044532e-05 6.80217136e-06
      -5.17057424e-06 -6.48736159e-06 5.72034378e-06 1.12324842e-05
      1.05985482e-05 3.02530998e-06 -1.03528055e-05 -2.20966467e-06
      2.96509443e-05 5.38693894e-05 6.02759283e-05 4.97445362e-05
      3.16273326e-05 1.32380692e-05 2.48879246e-06 -6.70819588e-07
      -2.71235899e-06 -1.80424422e-07 6.51113987e-06 8.47707838e-07
      -9.77535092e-06 -8.68060670e-06 -1.32770049e-06 2.70700275e-06
      3.27875273e-06 7.89639159e-07 -7.42763405e-06 -1.37275438e-05
      1.44651385e-05 1.32182486e-05 1.31824772e-05 1.31824772e-05
      1.31824772e-05 2.08169877e-05 4.71607600e-05 7.21328033e-05
      6.25663233e-05 3.13289311e-05 9.65338040e-06 1.94503116e-07
      5.06079687e-07 1.20261057e-05 2.62759277e-05 3.46337802e-05
      3.90701753e-05 3.94324270e-05 1.83242992e-05 -1.50919304e-05
      -3.29364193e-05 -4.06929394e-05 -4.87723555e-05 -4.10815264e-05
      -1.86116122e-05 -7.63545358e-06 -1.59633455e-05 -3.61731509e-05
      -5.06980905e-05 -4.41592347e-05 -2.04910666e-05 1.05084991e-05
      3.83675942e-05 5.42359048e-05 5.25119722e-05 4.40574331e-05
      2.63315578e-05 6.88447972e-06 -7.22445179e-08 -4.68954880e-07
      1.38224721e-06 1.03347056e-05 1.56202987e-05 5.74651551e-07
      -8.56100451e-06 -1.97601526e-06 1.36138897e-06 -7.42763405e-06
      -1.97535428e-05 -2.60534525e-05 1.83131215e-05 1.64318844e-05
      1.38665637e-05 1.32866680e-05 1.24054459e-05 3.08957533e-05
      6.54883988e-05 6.27263144e-05 2.86630802e-05 6.75898355e-06
      1.26630550e-06 3.93008065e-07 1.46594275e-05 4.41456141e-05
      5.95985548e-05 3.22781016e-05 -8.84094879e-06 -2.32686507e-05
      -3.44044674e-05 -4.25848084e-05 -3.04751702e-05 -2.12205723e-05
      -2.14944812e-05 -1.63528803e-05 -5.85395082e-06 1.35525272e-20
      -5.12220731e-06 -1.60983654e-05 -2.20396123e-05 -2.19523172e-05
      -2.72706402e-05 -3.32043783e-05 -2.10247126e-05 -3.48948311e-06
      1.70407657e-05 4.90742714e-05 5.63120957e-05 3.23150343e-05
      7.78725644e-06 4.38581054e-07 -1.54604561e-06 6.40095914e-06
      2.12074228e-05 1.52991106e-05 -4.16688817e-06 -4.69977977e-06
      -3.36023550e-06 -1.79442486e-05 -2.79708165e-05 -3.01620894e-05
      2.21611044e-05 2.01943567e-05 1.62926572e-05 1.38852429e-05
      1.33510557e-05 3.30806397e-05 5.64118600e-05 3.60643062e-05
      7.16310160e-06 -3.67331637e-07 -1.78662361e-07 1.30501421e-05
      4.41684861e-05 6.55870681e-05 4.12798217e-05 -1.69035866e-05
      -6.01514330e-05 -5.23959206e-05 -2.91106444e-05 -1.60983654e-05
      -5.85395082e-06 1.35525272e-20 5.79698906e-07 1.35525272e-20
      1.35525272e-20 1.35525272e-20 1.35525272e-20 1.35525272e-20
      1.35525272e-20 -4.00710547e-07 -5.85395082e-06 -1.60983654e-05
      -2.64623777e-05 -3.32456839e-05 -2.13093099e-05 1.12403377e-05
      4.29587344e-05 5.31012374e-05 3.24190223e-05 7.98460042e-06
      5.22010168e-07 3.08565546e-07 6.94987875e-06 1.12481112e-05
      3.48049844e-06 -1.63226116e-06 -8.25554343e-06 -2.13513813e-05
      -2.75432212e-05 -2.75432212e-05 2.34437648e-05 2.27596793e-05
      2.00310060e-05 1.89409475e-05 2.45257706e-05 3.80992715e-05
      4.18815580e-05 1.97706559e-05 3.31176864e-07 7.15634451e-06
      2.87129642e-05 4.64684708e-05 5.59299115e-05 3.62339342e-05
      -1.22910533e-05 -4.91327337e-05 -5.25147807e-05 -2.70558430e-05
      -5.85395082e-06 -7.31743853e-07 1.35525272e-20 1.35525272e-20
      9.02783199e-07 1.35525272e-20 1.35525272e-20 1.35525272e-20
      1.35525272e-20 1.35525272e-20 1.35525272e-20 1.35525272e-20
      1.35525272e-20 1.35525272e-20 -5.85395082e-06 -1.30122789e-05
      -1.84849068e-05 -2.37931017e-05 -2.92872824e-06 3.81409955e-05
      5.15645588e-05 3.20879881e-05 9.32443891e-06 7.03502053e-07
      2.47296470e-07 2.15039927e-06 -5.01265447e-07 -1.18416137e-05
      -2.53736416e-05 -2.49052973e-05 -2.23054831e-05 -2.23054831e-05
      2.34437648e-05 2.34437648e-05 2.35267089e-05 3.11044569e-05
      4.36531336e-05 3.90341993e-05 2.14307129e-05 7.27431143e-06
      2.96009830e-06 3.25066758e-05 7.39874449e-05 6.52277304e-05
      2.03118907e-05 -1.94991371e-05 -3.51773706e-05 -2.95691934e-05
      -1.74597444e-05 -5.10352720e-06 1.39227382e-07 1.35525272e-20
      1.35525272e-20 1.35525272e-20 9.02783199e-07 1.35525272e-20
      1.35525272e-20 1.35525272e-20 1.35525272e-20 1.35525272e-20
      1.35525272e-20 1.35525272e-20 1.35525272e-20 1.35525272e-20
      -2.73909109e-07 1.35525272e-20 -5.12220731e-06 -2.14166885e-05
      -2.78027383e-05 -2.38538269e-06 3.86825741e-05 5.28157361e-05
      3.29474460e-05 9.48514753e-06 -7.83944188e-07 1.12554358e-06
      -4.89425020e-06 -2.29278321e-05 -3.56171549e-05 -2.75867023e-05
      -1.96866149e-05 -1.96866149e-05 2.34437648e-05 2.34437648e-05
      3.02124226e-05 4.80296439e-05 5.45341427e-05 2.72177567e-05
      3.19529818e-06 6.08714013e-09 9.46096225e-06 4.69091901e-05
      7.58589304e-05 3.55901175e-05 -2.24921841e-05 -3.78452387e-05
      -2.18134192e-05 -4.51113783e-06 1.35525272e-20 9.02783199e-07
      1.35525272e-20 6.11069368e-07 1.92050379e-06 7.16844261e-06
      1.31179013e-05 1.64585035e-05 1.24195367e-05 3.95167081e-06
      1.86797458e-08 1.35525272e-20 1.35525272e-20 1.35525272e-20
      1.35525272e-20 3.34060132e-06 1.04135224e-05 1.44041587e-05
      1.44560900e-05 9.19465583e-06 -1.04404271e-05 -2.43035229e-05
      -1.95286020e-06 4.30647087e-05 6.31805597e-05 3.83638762e-05
      8.78655010e-06 -8.86014675e-08 -2.26660745e-06 -1.07967753e-05
      -1.81667237e-05 -1.87095393e-05 -1.92025891e-05 -1.97739100e-05
      2.34437648e-05 2.48645829e-05 3.74871452e-05 5.66301824e-05
      5.09475758e-05 1.72392156e-05 -2.28661463e-08 2.63359453e-07
      1.35591681e-05 4.10432003e-05 3.63049585e-05 -1.69849936e-05
      -4.09537206e-05 -1.04676301e-05 1.44455589e-05 1.38681980e-05
      4.56812677e-06 1.35525272e-20 6.98365000e-07 6.57053943e-06
      1.73635763e-05 2.45520314e-05 2.72917496e-05 2.90031057e-05
      2.05644756e-05 9.43599025e-06 7.29732938e-06 4.51619508e-06
      1.35525272e-20 1.35525272e-20 3.90512560e-06 1.32336218e-05
      2.12678242e-05 2.36568412e-05 2.53358794e-05 2.53358794e-05
      1.67841536e-05 -7.13745794e-06 -1.97852532e-05 1.36085064e-05
      6.40724174e-05 6.59575380e-05 2.35161297e-05 2.04832588e-07
      -1.19833402e-07 -2.43456981e-07 -4.41706061e-06 -1.20234927e-05
      -1.85112458e-05 -1.96866149e-05 2.33582541e-05 2.59998669e-05
      4.25961298e-05 5.37997803e-05 3.35614095e-05 7.13412874e-06
      3.18805792e-06 1.73864610e-05 3.10640462e-05 2.66243933e-05
      -9.77638774e-06 -3.84066225e-05 -1.40648099e-05 4.09492459e-05
      5.58794163e-05 2.93737357e-05 3.17749277e-06 -1.75284242e-06
      6.57053943e-06 2.49464629e-05 5.14352396e-05 6.61093291e-05
      5.65538721e-05 4.57956485e-05 3.08629678e-05 1.76014782e-05
      1.94376626e-05 1.58524908e-05 4.03896638e-06 3.34060132e-06
      1.24145827e-05 1.25200067e-05 1.69183716e-06 7.41999202e-06
      1.99166134e-05 2.22034014e-05 2.33250903e-05 1.98422676e-05
      4.71582507e-06 4.68758998e-07 3.24486937e-05 6.25782122e-05
      3.97614094e-05 7.78917820e-06 -3.93742511e-07 -2.87767136e-07
      -3.31058845e-06 -1.10943611e-05 -1.67149574e-05 -1.87425521e-05
      2.18594560e-05 2.45702231e-05 4.57907918e-05 5.38625209e-05
      2.25212461e-05 -2.66163966e-07 9.14192424e-06 3.77497199e-05
      4.76153982e-05 9.64005721e-06 -1.08760032e-05 1.78672781e-05
      6.52103481e-05 9.44876811e-05 7.79505572e-05 2.57307838e-05
      -1.18255230e-05 -1.10180754e-05 1.58039911e-05 5.62267305e-05
      9.69946414e-05 1.10861190e-04 9.69920075e-05 7.55442888e-05
      4.96371104e-05 2.94918536e-05 1.69984905e-05 3.89672550e-06
      -2.26868792e-06 9.24319738e-06 1.83002849e-05 -4.79450091e-06
      -1.02364074e-05 2.36221240e-05 4.18300224e-05 3.24056600e-05
      2.11421411e-05 2.38608536e-05 3.23539934e-05 4.64418372e-06
      -1.60711879e-05 2.47961270e-05 4.41406119e-05 1.74486377e-05
      -2.41164230e-07 -7.33763954e-07 7.15882535e-08 -5.34385708e-06
      -1.30208909e-05 -1.62431970e-05 2.32490966e-05 3.11744188e-05
      5.18602792e-05 4.81943280e-05 1.78799673e-05 4.20195147e-06
      2.25213334e-05 5.20123540e-05 5.07880577e-05 1.07798542e-05
      1.88002577e-05 8.58994754e-05 1.07697553e-04 9.11582683e-05
      6.19896236e-05 1.42575363e-05 -2.98528976e-05 -2.75129187e-05
      2.51473630e-05 9.12184187e-05 1.18856115e-04 1.00916506e-04
      7.01558965e-05 4.40870936e-05 2.77740692e-05 2.11333208e-05
      7.45878833e-06 -2.66449697e-05 -3.96940632e-05 -6.04076422e-06
      9.04180706e-06 -5.54870667e-07 2.28005483e-05 5.95634519e-05
      5.11421058e-05 2.30968562e-05 9.81538233e-06 1.41328901e-05
      3.54525619e-05 1.36601575e-05 -4.21947261e-05 -2.48693104e-05
      3.24209359e-05 3.19660103e-05 7.18440742e-06 9.00956081e-07
      1.29088926e-06 -3.73061835e-06 -1.18056814e-05 -2.16403387e-05
      2.86987670e-05 3.65747619e-05 4.35745205e-05 2.63601214e-05
      5.17266608e-06 1.14374316e-05 4.40056465e-05 7.25433711e-05
      6.52424278e-05 3.47115965e-05 3.67514112e-05 7.54745852e-05
      7.01045356e-05 3.89784909e-05 2.63768106e-05 -3.03717025e-06
      -4.80436793e-05 -2.87553048e-05 5.48654389e-05 1.16589195e-04
      1.03293649e-04 5.24021270e-05 6.18000013e-06 -2.31400954e-05
      -1.93587530e-05 -7.42881596e-08 1.12959451e-05 -3.12644515e-05
      -8.49734643e-05 -5.52381171e-05 -4.26180395e-06 2.98551768e-05
      5.71423298e-05 4.08919477e-05 7.01353110e-06 -8.53899019e-06
      -5.39186340e-06 2.75482762e-06 1.66682312e-05 2.23858442e-05
      -2.87638850e-05 -5.61811539e-05 1.12416101e-05 5.33169405e-05
      2.27075107e-05 1.39355586e-06 -1.08148505e-07 5.01387149e-06
      -6.41963470e-06 -2.31506983e-05 3.15277866e-05 3.27052330e-05
      3.25094297e-05 1.52640278e-05 6.66994538e-07 1.70539424e-05
      6.18950507e-05 9.42377519e-05 8.05419550e-05 4.38270181e-05
      2.85635015e-05 3.09264287e-05 2.16455774e-05 1.58267885e-05
      1.35481041e-05 -1.32195837e-05 -5.22654955e-05 -8.67240487e-06
      9.83324207e-05 1.30816523e-04 7.01926328e-05 1.09005650e-05
      -3.66738095e-05 -6.87234424e-05 -4.91132159e-05 -1.13881806e-05
      1.17593072e-05 -2.19483336e-05 -9.24654596e-05 -8.91338932e-05
      -1.33005269e-05 5.57084240e-05 5.10060381e-05 2.71675185e-06
      -2.48994511e-05 -3.02350145e-05 -1.87670394e-05 -6.32541605e-06
      7.08732159e-06 2.04910302e-05 -9.56777058e-06 -5.88760959e-05
      -1.79320105e-05 4.25542821e-05 2.98033738e-05 2.14752004e-06
      -3.93571298e-07 1.01152191e-05 6.92696449e-06 -1.11641702e-05
      2.91012057e-05 3.29211216e-05 3.99708297e-05 2.07949597e-05
      6.17179268e-08 2.33161009e-05 7.42893099e-05 1.08524488e-04
      7.93240906e-05 1.19193037e-05 -1.54652025e-05 -1.78697974e-05
      -7.81251492e-06 2.54267761e-05 3.10997166e-05 -5.21091943e-06
      -3.31709671e-05 2.97644128e-05 1.42255623e-04 1.48781182e-04
      6.11430441e-05 -1.35085811e-05 -6.46996341e-05 -8.01257702e-05
      -3.74823867e-05 1.82530778e-06 9.48787783e-06 -1.29969385e-05
      -5.43495953e-05 -7.50454201e-05 -7.98826295e-06 6.94252085e-05
      4.11278670e-05 -3.98369593e-06 -2.33777573e-05 -4.99754169e-05
      -4.51205196e-05 -1.45917502e-05 9.51720722e-06 1.63775130e-05
      1.07088299e-05 -2.01507064e-05 -2.87894145e-05 2.25482017e-05
      3.81727114e-05 1.08419363e-05 5.71242396e-08 4.69899715e-06
      2.02164665e-06 -6.37523863e-06 2.61486093e-05 3.40464321e-05
      4.33594032e-05 2.27087967e-05 4.07311563e-06 3.07701048e-05
      7.19844393e-05 8.30779754e-05 4.77255162e-05 -1.94215227e-05
      -5.57578423e-05 -5.45412950e-05 -2.79434844e-05 2.89119926e-05
      5.13315135e-05 6.63237188e-06 2.66208849e-06 9.66335938e-05
      2.02159499e-04 2.16349566e-04 1.24830345e-04 1.07999067e-05
      -5.75784761e-05 -5.77913488e-05 -4.67386735e-06 2.83085337e-05
      1.65649781e-05 4.23879146e-06 -1.00536136e-05 -4.34638059e-05
      -8.75687056e-06 4.46781851e-05 1.38846326e-05 -2.69326247e-05
      -5.00347560e-05 -7.35983485e-05 -6.16707184e-05 -1.53777764e-05
      2.15979398e-05 1.97841837e-05 1.61936041e-05 -5.68260248e-06
      -2.86352424e-05 3.01037508e-05 6.68827488e-05 2.50487155e-05
      -1.41581006e-06 1.62167169e-07 -5.41743339e-06 -1.07969545e-05
      2.48738415e-05 3.21576517e-05 4.06877080e-05 2.11557963e-05
      1.25367806e-05 4.15853756e-05 6.02552791e-05 3.52665920e-05
      1.99562555e-06 -1.04175642e-05 -3.54239201e-05 -5.73329125e-05
      -3.47812856e-05 2.41280231e-05 5.04078780e-05 6.85412033e-06
      2.48713623e-05 1.46280683e-04 2.49183155e-04 2.83021101e-04
      2.11443359e-04 7.36624934e-05 -1.24534890e-05 -3.63527070e-05
      -1.34452112e-05 2.77420495e-05 1.98141333e-05 1.22280198e-05
      7.66083576e-06 -1.96324236e-05 -7.05197363e-06 2.28415661e-06
      -3.02139524e-05 -7.33368652e-05 -9.34866766e-05 -6.89364024e-05
      -4.30421569e-05 -1.51630675e-05 2.29596299e-05 2.13754247e-05
      5.05678690e-06 -3.09526331e-05 -5.53526625e-05 1.82365111e-05
      7.20553580e-05 3.24938665e-05 2.05515198e-06 7.89353976e-07
      -6.66881670e-06 -1.37473689e-05 2.44027142e-05 3.22843989e-05
      4.12976078e-05 2.24405576e-05 1.56858023e-05 4.75391207e-05
      5.76627572e-05 1.41124356e-05 -2.37542154e-05 6.70537338e-06
      2.24430278e-05 -1.41996952e-05 -1.67468061e-05 2.25501317e-05
      3.67620123e-05 9.67190999e-07 2.91372326e-05 1.58622177e-04
      2.57829553e-04 2.91539152e-04 2.32905542e-04 1.05653475e-04
      1.81791729e-05 -5.08376979e-05 -7.75794106e-05 -1.78129558e-05
      1.32599152e-05 2.65391318e-05 2.61576297e-05 1.21859657e-05
      3.36524099e-05 1.75193909e-05 -3.24128778e-05 -8.82501990e-05
      -1.07364431e-04 -5.38314634e-05 -2.04714288e-05 -1.94483437e-05
      4.46489730e-06 2.87929288e-05 2.05824381e-05 -3.44142682e-05
      -7.75659937e-05 -1.42134022e-05 5.74453952e-05 3.43626925e-05
      2.76824107e-06 4.77000413e-07 -8.10235906e-06 -1.79315757e-05
      2.44533403e-05 3.27803064e-05 4.20713804e-05 2.05504730e-05
      1.48550807e-05 4.69216357e-05 5.95218080e-05 1.63090826e-05
      -3.07003429e-05 -6.26996155e-07 4.88720689e-05 4.50143161e-05
      2.43699142e-05 2.82227429e-05 3.20036088e-05 -8.15169301e-07
      3.02943590e-05 1.59193936e-04 2.54493323e-04 2.80113542e-04
      2.19271038e-04 9.34043710e-05 -6.12243775e-06 -1.22283178e-04
      -1.82173768e-04 -9.09192531e-05 3.31180968e-06 5.83828223e-05
      6.96190400e-05 5.16080436e-05 6.81612873e-05 4.40202894e-05
      -1.69839386e-05 -8.03123694e-05 -1.03167695e-04 -5.23148010e-05
      -1.75281875e-05 -2.43829945e-05 -1.37454708e-06 5.14870153e-05
      4.57883616e-05 -1.91260406e-05 -6.52508024e-05 -1.83654720e-05
      5.32670892e-05 3.51254894e-05 2.20460288e-06 5.66697508e-07
      -9.53572180e-06 -1.90527644e-05 2.47272492e-05 3.22603955e-05
      4.14005081e-05 2.05816305e-05 1.40986967e-05 4.71219137e-05
      6.04614070e-05 1.78214523e-05 -3.22298692e-05 -1.20213163e-05
      4.80870185e-05 7.19945747e-05 4.66609454e-05 3.29057621e-05
      3.13030978e-05 -7.81790391e-07 2.92394398e-05 1.58353781e-04
      2.53641861e-04 2.80514272e-04 2.12635161e-04 7.38883682e-05
      -6.33349628e-05 -2.21410693e-04 -2.73858226e-04 -1.34330447e-04
      1.25293727e-05 1.06427491e-04 1.33635665e-04 8.70596923e-05
      6.46662229e-05 2.60393354e-05 -3.06959919e-05 -8.55151593e-05
      -1.03523256e-04 -5.37362612e-05 -1.76136982e-05 -2.22966264e-05
      8.59195461e-06 6.78166907e-05 5.27509910e-05 -1.15622142e-05
      -5.30000361e-05 -1.23986056e-05 5.26525546e-05 3.66009845e-05
      2.70147643e-06 -2.78664788e-06 -1.09922985e-05 -2.00321119e-05
      2.01451003e-05 3.00440843e-05 4.16270304e-05 2.14941629e-05
      1.44415726e-05 4.72066276e-05 5.93823097e-05 1.77304992e-05
      -3.20906438e-05 -1.18502303e-05 4.90616112e-05 7.35171561e-05
      4.84230804e-05 3.23966742e-05 3.12206139e-05 -1.66462189e-06
      2.58672608e-05 1.56956186e-04 2.58069835e-04 2.90562079e-04
      2.21134658e-04 5.00299175e-05 -1.36010218e-04 -3.01932771e-04
      -2.98478146e-04 -1.10284302e-04 6.10873831e-05 1.92394567e-04
      2.11898368e-04 1.11706519e-04 5.02739858e-05 4.64409413e-06
      -4.17060728e-05 -8.46972980e-05 -1.06311854e-04 -5.69757831e-05
      -2.18575351e-05 -2.26225457e-05 6.70181362e-06 4.34427675e-05
      2.84355410e-05 -2.05084816e-05 -5.51295416e-05 -5.49368906e-06
      5.82533648e-05 3.71863607e-05 2.46975242e-06 -2.02473257e-06
      -1.09067878e-05 -2.00321119e-05 1.08998529e-05 2.61476889e-05
      4.17984047e-05 2.20475140e-05 1.56616370e-05 4.76134410e-05
      6.01902502e-05 2.03511827e-05 -3.11682379e-05 -1.82768144e-05
      4.39394025e-05 7.39943862e-05 4.77747635e-05 3.28232782e-05
      3.05723006e-05 -3.21138145e-06 2.50682479e-05 1.55205460e-04
      2.64942762e-04 3.05244030e-04 2.25457974e-04 3.29732870e-06
      -2.22403920e-04 -3.41226289e-04 -2.66462826e-04 -4.26540500e-05
      1.53586181e-04 2.84431037e-04 2.61133071e-04 1.09996596e-04
      4.00669742e-05 1.18818971e-05 -1.81164396e-05 -6.35081815e-05
      -1.06373183e-04 -6.82128593e-05 -3.46580091e-05 -2.98083232e-05
      -7.86373403e-06 -7.11632947e-06 -1.03595903e-05 -2.79310498e-05
      -5.12604129e-05 1.04163919e-05 6.88647124e-05 3.47092828e-05
      1.78566654e-06 -2.67304745e-06 -1.15640487e-05 -2.00134327e-05
      5.93435243e-06 1.91194449e-05 3.26160225e-05 1.74574379e-05
      1.11200525e-05 4.39085561e-05 6.21021682e-05 3.12464399e-05
      -2.01912226e-05 -2.80552667e-05 3.29632458e-05 7.35171561e-05
      4.71264502e-05 3.23966742e-05 3.12206139e-05 -3.21138145e-06
      2.55041869e-05 1.55971342e-04 2.61937617e-04 2.84967100e-04
      1.78604911e-04 -5.86150345e-05 -2.67423835e-04 -3.25941102e-04
      -2.01846095e-04 3.40538645e-05 2.32986436e-04 3.20220861e-04
      2.42942173e-04 8.69876967e-05 3.71103961e-05 4.02255355e-05
      1.43803127e-05 -3.47533060e-05 -9.21360406e-05 -9.03255059e-05
      -5.62998430e-05 -2.07174544e-05 7.61965521e-06 -2.08189231e-05
      -2.39117544e-05 -1.74657434e-05 -4.19270254e-05 1.94572131e-05
      6.85959021e-05 2.98113264e-05 2.94545487e-07 -1.77696393e-06
      -1.80621464e-05 -3.50395676e-05 6.36095501e-06 8.58763451e-06
      1.30499102e-05 8.00662565e-06 3.09494044e-06 2.98658524e-05
      5.69955773e-05 4.79963455e-05 2.05426591e-06 -2.66144161e-05
      2.71092940e-05 7.35171561e-05 4.66998463e-05 3.23966742e-05
      3.18689272e-05 -3.21138145e-06 1.19722572e-05 1.25988270e-04
      2.25449650e-04 2.24521340e-04 1.07702159e-04 -7.08840307e-05
      -2.15392938e-04 -2.44108087e-04 -1.09496352e-04 1.04469866e-04
      2.60857923e-04 2.92874407e-04 1.86655234e-04 4.95247477e-05
      3.79900885e-05 7.54400753e-05 3.66942077e-05 -8.14300256e-06
      -4.54371730e-05 -8.61196531e-05 -7.24691927e-05 -2.69978364e-06
      2.32148977e-05 -1.79321123e-05 -2.32534658e-05 -2.23912084e-05
      -3.22717424e-05 2.05010947e-05 5.20940303e-05 1.76457161e-05
      -1.89095260e-06 -6.14750661e-07 -2.86908926e-05 -5.75417762e-05
      1.54122954e-05 8.51357436e-06 -9.11774919e-07 -1.10557676e-06
      -2.68142543e-07 1.74007637e-05 4.79752307e-05 5.75429112e-05
      1.89946841e-05 -1.47466953e-05 3.34361175e-05 7.99162008e-05
      4.99734415e-05 3.26183872e-05 3.14423269e-05 -6.43139811e-06
      -1.92912612e-05 5.36245607e-05 1.47555285e-04 1.42545672e-04
      3.71314927e-05 -5.23709641e-05 -1.02868762e-04 -1.18219534e-04
      -1.92382158e-05 1.34444170e-04 2.16287619e-04 2.03263102e-04
      9.84656144e-05 -7.28540272e-06 2.11502702e-05 8.90005904e-05
      5.07551049e-05 1.33258009e-05 1.63018140e-05 -2.13185685e-05
      -4.01827601e-05 3.29207660e-06 4.67521340e-06 -2.98337891e-05
      -3.12280245e-05 -4.07391999e-05 -2.09220962e-05 3.24551584e-05
      3.28158822e-05 4.57895885e-06 -1.93659233e-07 -2.32648986e-07
      -2.69809225e-05 -5.62169334e-05 3.01066248e-05 2.06647655e-05
      3.03944444e-06 -2.29838406e-06 4.67467885e-07 1.39905278e-05
      4.34506837e-05 5.64757138e-05 3.25569708e-05 2.79262326e-06
      4.05556348e-05 8.80186781e-05 5.65172995e-05 2.64878054e-05
      1.53795445e-05 -2.09449936e-05 -4.15870200e-05 -8.60378975e-07
      5.84510199e-05 5.53143545e-05 -1.08251079e-05 -4.01381731e-05
      -2.72414291e-05 -2.54079823e-05 2.01476687e-05 9.46807340e-05
      1.00241785e-04 4.09567983e-05 -1.57968225e-05 -4.58120521e-05
      -5.50454570e-06 6.29029018e-05 6.58102072e-05 4.09068671e-05
      5.04782911e-05 3.32228374e-05 -1.32149250e-06 2.61625928e-06
      -1.55834659e-05 -3.18644452e-05 -2.95101436e-05 -4.47615421e-05
      5.22544133e-06 5.85773159e-05 3.08442359e-05 9.71041118e-07
      -2.68408007e-06 3.39405847e-06 -1.31237957e-05 -3.33525713e-05
      2.96785529e-05 3.10832402e-05 3.21974185e-05 2.09283280e-05
      5.23755534e-06 1.14264194e-05 3.66773565e-05 5.19502355e-05
      4.74311637e-05 2.10020371e-05 3.26480986e-05 6.83149483e-05
      4.19046155e-05 8.93530705e-06 -9.26808752e-06 -3.92465772e-05
      -4.35180700e-05 -2.99942349e-05 -2.54041151e-05 -2.47571079e-05
      -3.16062760e-05 -2.64305891e-05 -1.03129196e-05 -6.58904264e-06
      6.83634516e-06 1.35518376e-05 -4.37213348e-05 -1.10098270e-04
      -9.65259605e-05 -4.23230376e-05 -1.05426288e-05 2.34341587e-05
      5.99546293e-05 6.62414095e-05 5.59940854e-05 3.43133033e-05
      1.40551483e-05 3.48270032e-06 -1.17766758e-05 -2.14730298e-05
      -3.25489600e-05 -2.55724553e-05 3.39392464e-05 6.16703328e-05
      2.37125696e-05 -8.60327305e-07 4.85297448e-07 -1.96248038e-06
      -1.38609512e-05 -2.17374854e-05 2.60119850e-05 4.05947103e-05
      6.24471795e-05 4.66408310e-05 1.24359030e-05 3.41757550e-06
      2.10239159e-05 4.67985010e-05 5.50755540e-05 3.33222160e-05
      1.86893085e-05 2.74164158e-05 2.60508659e-05 2.09024674e-05
      -7.80999130e-07 -3.67307766e-05 -3.89645393e-05 -4.59047733e-05
      -7.02546604e-05 -7.85631055e-05 -7.34290297e-05 -5.90739401e-05
      -4.88720107e-05 -4.97656438e-05 -5.35507170e-05 -8.56686456e-05
      -1.44059333e-04 -1.57079179e-04 -9.55525757e-05 -2.27153068e-05
      9.62685817e-07 -5.51345556e-06 1.62398192e-05 4.73693726e-05
      3.91076683e-05 1.87927089e-05 1.19807964e-05 -1.87797332e-06
      -1.44848436e-05 -2.46713807e-05 -3.08021263e-05 1.26461673e-05
      6.43625681e-05 4.32950292e-05 6.50316269e-06 -2.07897997e-07
      2.01924763e-06 -1.43523921e-05 -3.39420767e-05 -3.69843874e-05
      2.86628165e-05 4.53810972e-05 6.52464660e-05 5.28464661e-05
      2.37209460e-05 5.60122089e-06 1.10992787e-05 3.75278250e-05
      5.30631150e-05 4.82904143e-05 2.35704647e-05 5.13286477e-06
      1.93857559e-05 4.00026984e-05 1.69014329e-05 -2.44750827e-05
      -3.88293956e-05 -5.52669335e-05 -7.31778637e-05 -7.32656918e-05
      -8.69755168e-05 -9.44548301e-05 -9.03991822e-05 -9.13413242e-05
      -9.59153258e-05 -1.14879571e-04 -1.38187024e-04 -1.14663373e-04
      -5.05512726e-05 -5.74997193e-06 1.82689223e-06 -1.43251382e-05
      -1.83738211e-05 -2.59632793e-06 1.91884942e-06 -2.10425674e-06
      -8.70951772e-06 -2.37710428e-05 -2.94871643e-05 -2.92209970e-05
      -6.93074844e-06 4.84994962e-05 6.82889731e-05 2.46820400e-05
      -4.20417365e-07 -2.98069125e-07 3.82671487e-06 -1.03782486e-05
      -3.54713302e-05 -4.05604987e-05 3.00309875e-05 3.59403966e-05
      4.78283691e-05 5.72523531e-05 4.71079147e-05 1.63034692e-05
      3.55680299e-06 1.88818431e-05 4.12324662e-05 5.18254456e-05
      3.97765689e-05 1.53539859e-05 2.75321281e-06 4.58518571e-06
      9.76060278e-07 -2.12278846e-05 -4.69051483e-05 -6.58547506e-05
      -5.67102834e-05 -3.49170114e-05 -4.16363182e-05 -5.27961893e-05
      -5.35135623e-05 -5.33743369e-05 -5.42522757e-05 -5.49840515e-05
      -6.12612639e-05 -5.38348577e-05 -1.90062801e-05 1.35525272e-20
      -3.09872689e-06 -9.26762186e-06 -1.88560316e-05 -1.99709320e-05
      -1.74826819e-05 -1.64244757e-05 -2.37976092e-05 -3.44337750e-05
      -2.65934959e-05 -3.30478110e-06 3.21894331e-05 5.57899766e-05
      3.98046286e-05 9.97693405e-06 -2.87861326e-07 -4.13287034e-06
      -1.13195219e-05 -1.87151472e-05 -2.01667426e-05 -1.85444987e-05
      3.08354356e-05 2.90996068e-05 3.51532508e-05 5.58660249e-05
      6.08170121e-05 3.06389811e-05 6.41085035e-06 4.15437171e-06
      2.29413999e-05 4.17025913e-05 4.27801606e-05 3.04608966e-05
      2.96146573e-06 -2.79331707e-05 -2.46086656e-05 -2.12867435e-05
      -4.35192560e-05 -5.10629616e-05 -2.93973153e-05 -8.32443675e-06
      -5.31916430e-06 -6.55671238e-06 -7.07506115e-06 -6.95451354e-06
      -7.07506115e-06 -7.22449931e-06 -1.13038459e-05 -1.34895081e-05
      -5.85395082e-06 -8.55107274e-08 1.39992324e-06 -2.51334973e-06
      -6.45554746e-06 -7.22449931e-06 -7.09195592e-06 -7.94858624e-06
      -1.22159481e-05 -1.65773508e-05 -3.00359011e-06 3.05523972e-05
      4.89656923e-05 3.29455652e-05 8.60248656e-06 6.55699353e-07
      7.24118763e-07 -1.11808331e-05 -3.71305505e-05 -3.91552639e-05
      -1.66257796e-05 -5.11010740e-06 3.12620396e-05 3.02640110e-05
      3.08447270e-05 4.24886748e-05 5.86535680e-05 4.57581118e-05
      1.35796517e-05 1.27501573e-06 1.09915691e-05 3.31729643e-05
      4.08914093e-05 3.71404458e-05 1.90703468e-05 -1.62140695e-05
      -3.66817876e-05 -2.73100104e-05 -2.14994088e-05 -1.60983654e-05
      -5.85395082e-06 1.35525272e-20 1.35525272e-20 1.35525272e-20
      -1.06888979e-06 -4.26602838e-07 1.35525272e-20 1.35525272e-20
      1.39992324e-06 1.35525272e-20 -2.71704425e-06 1.35525272e-20
      1.98530051e-06 -7.31743853e-07 -7.31743853e-07 -6.46168587e-07
      -1.04190477e-07 -1.62165850e-06 -4.23054098e-06 2.82279302e-06
      2.67657924e-05 4.53892171e-05 3.47859132e-05 1.04790670e-05
      -1.27147155e-06 -5.05615219e-07 -3.41646046e-06 -2.05792603e-05
      -4.12522750e-05 -3.39717226e-05 -1.62099277e-05 -1.09003668e-05
      2.98374089e-05 3.08354356e-05 2.98102586e-05 3.57246754e-05
      5.09616693e-05 4.80205490e-05 1.96588462e-05 2.40860140e-06
      5.72061617e-06 1.82096719e-05 3.49593465e-05 3.99112250e-05
      3.08909985e-05 1.22067004e-05 -2.01412040e-05 -3.73301009e-05
      -2.43822378e-05 -5.59943601e-06 -8.72956250e-08 5.71749865e-07
      1.20811728e-06 8.72956250e-08 7.31743853e-07 1.35525272e-20
      1.35525272e-20 -7.31743853e-07 1.39992324e-06 1.39992324e-06
      -9.98352675e-07 1.35525272e-20 1.35525272e-20 1.35525272e-20
      1.35525272e-20 -7.31743853e-07 -2.51334973e-06 -4.87885609e-06
      4.49662548e-06 2.86491359e-05 4.72462052e-05 4.12960835e-05
      1.65687725e-05 8.31182263e-07 -1.00565296e-06 -3.89595380e-06
      -2.08131605e-05 -3.76730350e-05 -3.21920488e-05 -1.34426928e-05
      -1.25590450e-05 -1.81443083e-05 3.00906249e-05 3.00906249e-05
      2.94108049e-05 3.14161516e-05 4.29127249e-05 5.01164141e-05
      3.50137416e-05 1.85327190e-05 6.32533965e-06 3.69090549e-06
      1.85205790e-05 3.18611128e-05 3.48216163e-05 3.50266237e-05
      1.82372241e-05 -2.72064754e-05 -4.23455349e-05 -2.90161242e-05
      -1.62583601e-05 -5.85395082e-06 1.35525272e-20 1.35525272e-20
      1.35525272e-20 1.35525272e-20 1.35525272e-20 -9.60820785e-07
      1.86797458e-08 1.35525272e-20 1.35525272e-20 -4.26602838e-07
      -1.01198009e-06 1.35525272e-20 -2.51334973e-06 -4.78487846e-06
      -8.66125447e-06 3.98263956e-06 3.34692340e-05 5.13603918e-05
      4.41967932e-05 2.43746526e-05 7.41545773e-06 1.07292840e-06
      -3.92257834e-06 -2.43113063e-05 -5.27063203e-05 -5.26652548e-05
      -2.42121732e-05 -5.00889519e-06 -7.16804789e-06 -1.09858775e-05
      3.00906249e-05 3.00906249e-05 2.95188747e-05 2.88347892e-05
      3.92953953e-05 5.71567543e-05 6.01080683e-05 4.19879761e-05
      1.45936583e-05 8.72099065e-07 4.18146556e-06 1.14862287e-05
      2.01513249e-05 3.83124097e-05 4.73476757e-05 9.36709421e-06
      -3.54414915e-05 -5.04250202e-05 -3.99921773e-05 -2.24294417e-05
      -1.27577641e-05 -5.85395082e-06 4.84454233e-07 -4.26602838e-07
      1.35525272e-20 1.35525272e-20 -5.71749865e-07 -2.79161014e-07
      6.48314824e-07 1.35525272e-20 -5.70758448e-06 -1.27577641e-05
      -1.26501709e-05 -8.68067127e-06 4.62196431e-06 3.42651510e-05
      6.02329164e-05 5.05706957e-05 2.42340993e-05 7.01847875e-06
      1.02185879e-06 1.39227382e-07 -1.49918533e-05 -4.88303231e-05
      -6.25395405e-05 -3.89491324e-05 -1.28280362e-05 -3.35021764e-06
      -3.35021764e-06 -3.35021764e-06 2.95188747e-05 2.95188747e-05
      2.95188747e-05 2.87871317e-05 3.40213082e-05 4.82811884e-05
      6.38827041e-05 5.60018198e-05 2.50733392e-05 4.04410275e-06
      3.58466025e-07 1.07580388e-06 5.87086197e-06 2.29565958e-05
      4.76142741e-05 3.85981257e-05 4.00958425e-06 -1.17339496e-05
      -1.37687966e-05 -1.91732543e-05 -1.58734165e-05 8.37832033e-07
      1.19532178e-05 8.47338924e-06 1.31495756e-06 -3.70047474e-06
      -1.72856176e-06 5.96047130e-06 1.18139906e-05 1.18139906e-05
      -1.07953167e-06 -1.28363063e-05 4.78652328e-06 2.84295693e-05
      4.39975338e-05 5.49634024e-05 4.42285855e-05 2.39371693e-05
      7.64423476e-06 9.41628798e-07 -9.79348101e-07 -6.33009495e-06
      -3.03565212e-05 -5.29975732e-05 -4.13324160e-05 -1.61991084e-05
      -4.92338449e-06 -3.35021764e-06 -3.35021764e-06 -3.35021764e-06
      2.92210334e-05 3.02506196e-05 2.95188747e-05 2.95188747e-05
      2.95188747e-05 3.43191496e-05 4.77183858e-05 5.86005044e-05
      4.55974114e-05 1.91576710e-05 3.63952563e-06 3.91718032e-07
      6.49201013e-07 5.99299938e-06 1.80481584e-05 2.60612560e-05
      3.36804696e-05 5.04025847e-05 4.63007163e-05 3.42080893e-05
      3.56732780e-05 3.85279927e-05 3.59707919e-05 2.34462768e-05
      6.87922511e-06 -5.14996714e-07 5.12532870e-06 2.44135499e-05
      3.65073829e-05 4.05096325e-05 3.96517171e-05 3.91875910e-05
      5.71248529e-05 6.68098437e-05 5.35206455e-05 3.39283579e-05
      1.30682847e-05 3.11025133e-06 8.16329020e-07 -3.38737863e-07
      -6.41560564e-06 -2.63771381e-05 -4.41022312e-05 -3.67584144e-05
      -1.56273582e-05 -5.14812245e-06 -2.78352013e-06 -3.35021764e-06
      -3.82744656e-06 -3.82744656e-06 7.56655845e-06 7.56655845e-06
      7.56655845e-06 7.56655845e-06 1.34205093e-05 2.43966679e-05
      3.34585020e-05 4.80494164e-05 5.90915333e-05 4.46644590e-05
      2.60427623e-05 1.85993449e-05 6.28185535e-06 4.19618658e-07
      1.10370445e-06 5.12669885e-06 2.37295608e-05 4.76443929e-05
      5.82051580e-05 6.76462514e-05 7.36269358e-05 6.66034102e-05
      5.36419539e-05 4.11613219e-05 4.15012364e-05 4.44444304e-05
      4.89519116e-05 6.06816393e-05 6.24660024e-05 6.28170164e-05
      7.08074440e-05 7.22793411e-05 6.31463190e-05 4.39115611e-05
      2.13250805e-05 6.52113931e-06 1.53281769e-06 1.89686361e-07
      -4.65822177e-06 -1.48980689e-05 -3.04648984e-05 -4.44213256e-05
      -3.70060188e-05 -1.61991084e-05 -5.71481996e-06 -3.35021764e-06
      -3.35021764e-06 -3.35021764e-06 -3.35021764e-06 -3.82744656e-06
      -3.56063319e-05 -3.63380750e-05 -3.63380750e-05 -3.56063319e-05
      -2.53619164e-05 -3.40959991e-06 1.34205093e-05 2.89846103e-05
      4.78208021e-05 5.82599932e-05 5.85678063e-05 4.70787636e-05
      2.15557138e-05 2.92917343e-06 -3.12125223e-07 1.96687097e-07
      4.69785982e-06 1.17138652e-05 2.07028916e-05 3.29207251e-05
      4.36397640e-05 5.03178089e-05 4.91419087e-05 5.08218254e-05
      6.63183091e-05 7.66212324e-05 7.92088395e-05 7.66455341e-05
      6.18995036e-05 5.05562202e-05 4.64238510e-05 3.69517948e-05
      2.16534390e-05 8.55242615e-06 1.25376573e-06 -8.40606617e-07
      -5.09573283e-07 -1.76397270e-06 -1.76669782e-05 -4.35737529e-05
      -5.26784788e-05 -3.67584144e-05 -1.61991084e-05 -4.92338449e-06
      -3.35021764e-06 -3.35021764e-06 -3.35021764e-06 -3.35021764e-06
      -3.35021764e-06 -3.82744656e-06 -5.75586455e-05 -5.82903922e-05
      -5.82903922e-05 -5.75586455e-05 -5.24364405e-05 -4.14602800e-05
      -2.46301715e-05 -2.67785595e-06 1.78130886e-05 4.23061574e-05
      6.14687233e-05 5.88782641e-05 4.29233187e-05 2.16848803e-05
      9.87040403e-06 3.78797381e-06 1.31734953e-06 -2.14243396e-08
      -1.95831234e-07 3.10130076e-06 9.22843901e-06 1.60114632e-05
      1.95720222e-05 2.56402309e-05 3.44795808e-05 3.82028156e-05
      3.96340656e-05 3.69590125e-05 2.54722436e-05 1.65617130e-05
      9.31701197e-06 4.44493708e-06 1.49868345e-06 8.73024462e-08
      1.08069088e-07 -4.61870513e-06 -1.12713906e-05 -1.11427407e-05
      -2.81526354e-05 -4.98324298e-05 -3.97634067e-05 -1.58571493e-05
      -5.14812245e-06 -3.35021764e-06 -3.35021764e-06 -3.12547945e-06
      -3.35021764e-06 -3.35021764e-06 -7.16804789e-06 -1.09858775e-05
      -5.75586455e-05 -5.86652823e-05 -5.86652823e-05 -5.75586455e-05
      -5.75586455e-05 -5.75586455e-05 -5.18736342e-05 -4.14602800e-05
      -1.95952616e-05 1.75058649e-05 4.50470106e-05 5.75991216e-05
      6.09534909e-05 5.32982522e-05 3.68481742e-05 1.73805802e-05
      5.88594230e-06 -9.54840289e-07 -1.95409689e-06 1.08083725e-06
      1.22006463e-06 1.23874440e-06 2.00648765e-06 2.30085470e-06
      2.61756577e-06 2.12273835e-06 3.51174276e-06 3.07582081e-06
      7.99859436e-07 -5.19317638e-08 -1.29578916e-06 -7.24039353e-07
      -4.73399268e-06 -1.34949596e-05 -1.36677027e-05 -1.25137067e-05
      -1.80546594e-05 -2.00376035e-05 -2.24770083e-05 -2.50278445e-05
      -1.49164471e-05 -5.39572693e-06 -3.35021764e-06 -3.10261339e-06
      -3.59782189e-06 -3.59782189e-06 -3.35021764e-06 -3.35021764e-06
      -1.09858775e-05 -1.81443083e-05 -5.82903922e-05 -5.82903922e-05
      -5.82903922e-05 -5.82903922e-05 -5.86652823e-05 -5.82903922e-05
      -5.82903922e-05 -5.82903922e-05 -3.63380750e-05 8.19023353e-06
      3.41832820e-05 4.23202000e-05 5.12183615e-05 6.61255108e-05
      6.57226046e-05 4.69238039e-05 3.07650807e-05 1.31112920e-05
      5.96534119e-06 3.30669786e-06 -9.33194133e-06 -1.28976881e-05
      -3.67187272e-06 3.39307235e-07 1.02869784e-07 -6.79500033e-07
      -1.03856706e-07 -4.64662344e-06 -1.30344733e-05 -1.63884069e-05
      -1.39468111e-05 -1.17539830e-05 -1.70344756e-05 -2.22577382e-05
      -1.69124505e-05 -2.97929091e-06 -2.36863866e-06 -1.29608507e-05
      -1.24564767e-05 -7.15102260e-06 -4.46403646e-06 -3.59782189e-06
      -3.35021764e-06 -3.35021764e-06 -3.35021764e-06 -3.91691492e-06
      -3.35021764e-06 -3.35021764e-06 -7.16804789e-06 -1.09858775e-05
      -5.82903922e-05 -5.82903922e-05 -5.82903922e-05 -5.82903922e-05
      -5.82903922e-05 -5.82903922e-05 -5.82903922e-05 -5.82903922e-05
      -4.14602800e-05 -8.53180700e-06 7.56655845e-06 7.56655845e-06
      1.14206759e-05 2.88291358e-05 5.15319589e-05 5.94804114e-05
      5.91146709e-05 5.12759980e-05 4.08606393e-05 2.72702418e-05
      8.47913384e-07 -2.68879830e-06 1.52562561e-05 2.17023608e-05
      2.36782271e-05 2.11974821e-05 9.54255120e-06 -4.78632501e-06
      -1.63905934e-05 -2.55682116e-05 -2.70157470e-05 -2.59550834e-05
      -2.09136251e-05 -3.69625104e-06 9.95569644e-06 1.20831082e-05
      6.08010350e-06 -4.45821934e-06 -5.53984046e-06 -3.35021764e-06
      -3.35021764e-06 -3.35021764e-06 -3.35021764e-06 -3.35021764e-06
      -3.35021764e-06 -3.35021764e-06 -3.35021764e-06 -3.35021764e-06
      -3.35021764e-06 -3.35021764e-06 -5.82903922e-05 -5.82903922e-05
      -5.82903922e-05 -5.82903922e-05 -5.82903922e-05 -5.82903922e-05
      -5.82903922e-05 -5.82903922e-05 -4.73142318e-05 -2.53619164e-05
      -1.43857578e-05 -1.43857578e-05 -1.43857578e-05 -4.66103620e-06
      2.45674164e-05 5.17299486e-05 6.65177140e-05 7.43571436e-05
      6.70587906e-05 4.77185749e-05 2.18161149e-05 2.11507413e-05
      4.03191516e-05 4.36454393e-05 4.73564542e-05 4.22540215e-05
      1.99691694e-05 -9.58328201e-07 -8.78983883e-06 -1.67938724e-05
      -2.54955958e-05 -2.91339438e-05 -1.72135751e-05 1.07535152e-05
      2.37853274e-05 1.52335042e-05 2.52620384e-06 -3.82744656e-06
      -3.82744656e-06 -3.82744656e-06 -3.35021764e-06 -3.35021764e-06
      -3.35021764e-06 -3.35021764e-06 -3.35021764e-06 -3.35021764e-06
      -3.35021764e-06 -3.35021764e-06 -3.35021764e-06 -3.35021764e-06</_>
    <_>
      -1.59883493e-05 -1.59883493e-05 -1.59883493e-05 -1.59883493e-05
      -1.59883493e-05 -1.59883493e-05 -1.59883493e-05 -1.59883493e-05
      -1.59883493e-05 -1.58283328e-05 -1.54917616e-05 -1.54917616e-05
      -1.59883493e-05 -1.57310442e-05 -1.57310442e-05 -1.59883493e-05
      -8.50378274e-06 8.79409799e-06 2.23109109e-05 3.21753250e-05
      4.41346965e-05 4.68967046e-05 4.12290683e-05 3.82035578e-05
      3.86212268e-05 3.93435876e-05 3.84056329e-05 3.74656884e-05
      3.96458454e-05 4.47547391e-05 4.49853942e-05 3.85872227e-05
      3.01355631e-05 1.15770217e-05 -8.69333235e-06 -1.53882083e-05
      -1.50300202e-05 -1.59656920e-05 -1.60151303e-05 -1.58551138e-05
      -1.33802341e-05 -6.30844397e-06 6.53360871e-07 3.52440475e-06
      3.32425520e-06 3.21362404e-06 3.16423871e-06 3.05360777e-06
      3.21362404e-06 3.21362404e-06 -1.59883493e-05 -1.59883493e-05
      -1.59883493e-05 -1.59883493e-05 -1.59883493e-05 -1.59883493e-05
      -1.59883493e-05 -1.59883493e-05 -1.59883493e-05 -1.56557271e-05
      -1.59883493e-05 -1.61483658e-05 -1.59883493e-05 -1.25122360e-05
      -3.94330345e-06 3.13899659e-06 1.06726302e-05 2.35220323e-05
      3.28865863e-05 3.48401772e-05 3.65502492e-05 3.50822484e-05
      3.04355126e-05 2.74500326e-05 2.78935349e-05 2.77385825e-05
      2.76258834e-05 2.67722116e-05 2.91807955e-05 3.50022165e-05
      3.84202649e-05 3.98788288e-05 3.81336940e-05 2.58152595e-05
      1.01001415e-05 3.66476343e-06 -3.28504439e-06 -1.02762988e-05
      -1.12146372e-05 -1.10329056e-05 -8.57974101e-06 -2.78808216e-06
      1.93349251e-06 3.21362404e-06 3.21362404e-06 3.32425520e-06
      3.16423871e-06 3.05360777e-06 3.21362404e-06 3.21362404e-06
      -1.59883493e-05 -1.59883493e-05 -1.59883493e-05 -1.59883493e-05
      -1.59883493e-05 -1.59883493e-05 -1.59883493e-05 -1.59883493e-05
      -1.59883493e-05 -1.58996809e-05 -1.59883493e-05 -1.57092818e-05
      -1.08955328e-05 8.48760465e-06 3.11067997e-05 3.65398810e-05
      3.22041487e-05 3.00582251e-05 2.83231784e-05 2.06882160e-05
      1.44105843e-05 1.25345696e-05 9.33807496e-06 8.86859198e-06
      8.37225161e-06 8.41306792e-06 8.38534470e-06 8.36379877e-06
      9.10041672e-06 1.19641782e-05 1.61114676e-05 2.01490875e-05
      2.67410887e-05 2.91046235e-05 3.09647403e-05 3.34380129e-05
      2.66154202e-05 1.64261128e-05 8.45883551e-06 3.69227536e-07
      -4.66754273e-07 1.93349251e-06 1.93349251e-06 6.53360871e-07
      1.93349251e-06 3.21362404e-06 3.05360777e-06 3.05360777e-06
      3.21362404e-06 3.21362404e-06 -1.59883493e-05 -1.59883493e-05
      -1.59883493e-05 -1.59883493e-05 -1.59883493e-05 -1.59883493e-05
      -1.59883493e-05 -1.59883493e-05 -1.59883493e-05 -1.54917616e-05
      -1.20156483e-05 -6.15763520e-06 5.89091769e-06 3.15949073e-05
      4.79724622e-05 3.61175698e-05 1.94582590e-05 1.06808684e-05
      6.58311092e-06 2.45006640e-06 -3.31986541e-07 1.10631028e-07
      4.43606524e-07 -1.25516863e-07 4.74826010e-07 -1.19051919e-07
      -1.19051919e-07 2.54119726e-07 -3.36225469e-07 -1.46722869e-07
      -2.79068360e-07 -3.86512511e-07 3.59472551e-06 9.14900193e-06
      1.79581784e-05 2.92142613e-05 3.86775064e-05 4.37137387e-05
      3.62341525e-05 2.15418586e-05 8.58817475e-06 3.05360777e-06
      -4.66754273e-07 -4.14713259e-06 -4.66754273e-07 3.05360777e-06
      3.05360777e-06 3.05360777e-06 3.21362404e-06 3.21362404e-06
      -1.59883493e-05 -1.59883493e-05 -1.59883493e-05 -1.59883493e-05
      -1.59883493e-05 -1.59883493e-05 -1.59883493e-05 -1.59883493e-05
      -1.59883493e-05 -1.05227527e-05 5.36533389e-06 1.85236113e-05
      2.25689892e-05 2.64740884e-05 2.27099954e-05 1.02268623e-05
      2.21078517e-06 1.68637712e-07 8.28574343e-07 5.29181676e-08
      -2.57353889e-07 1.41529517e-06 5.21143875e-06 7.60723970e-06
      1.12040834e-05 1.24506523e-05 1.06862371e-05 7.78942649e-06
      4.31241369e-06 1.33956314e-06 3.11564037e-08 -5.81080826e-07
      -2.57106251e-07 -7.75656133e-07 1.03922184e-06 7.44838098e-06
      1.87308015e-05 3.16891164e-05 4.28310050e-05 4.28653730e-05
      2.46805230e-05 8.40397661e-06 -1.06585480e-06 -5.26724762e-06
      -4.66754273e-07 3.05360777e-06 3.05360777e-06 3.05360777e-06
      3.05360777e-06 3.21362404e-06 -1.59883493e-05 -1.59883493e-05
      -1.59883493e-05 -1.59883493e-05 -1.59883493e-05 -1.59883493e-05
      -1.59883493e-05 -1.59883493e-05 -1.07714386e-05 8.67510516e-06
      2.85246788e-05 2.94588299e-05 2.00765808e-05 9.85091538e-06
      2.31683021e-06 -1.33236256e-07 5.82335151e-22 1.92995572e-06
      6.88136106e-06 4.95070890e-06 -1.44834371e-06 2.90803996e-06
      1.36384424e-05 1.90494629e-05 2.41555681e-05 2.74917620e-05
      2.48305441e-05 1.89934945e-05 1.17853733e-05 7.97574739e-06
      7.07753634e-06 5.44373597e-06 1.21489927e-06 -9.70897887e-08
      -4.17468556e-07 -3.54930648e-07 1.67024143e-06 7.25907876e-06
      2.20160127e-05 3.83256702e-05 3.77116303e-05 2.33884639e-05
      7.00562578e-06 3.11566964e-07 1.93349251e-06 3.05360777e-06
      2.95632958e-06 3.05360777e-06 3.21362404e-06 3.21362404e-06
      -1.59883493e-05 -1.59883493e-05 -1.59883493e-05 -1.59883493e-05
      -1.59883493e-05 -1.59883493e-05 -1.59883493e-05 -1.02748500e-05
      8.93559718e-06 3.08289709e-05 2.93567045e-05 1.43792613e-05
      6.33387208e-06 1.56258989e-06 -5.43173932e-08 1.52971495e-06
      5.58638158e-06 1.10251258e-05 1.71474785e-05 1.28382080e-05
      1.20948789e-06 4.97729025e-06 1.44025262e-05 1.72621531e-05
      1.78214432e-05 1.53238216e-05 1.23837981e-05 1.08487502e-05
      1.14394670e-05 1.42184808e-05 1.74279648e-05 1.44330133e-05
      8.66467417e-06 8.19452725e-06 5.73494481e-06 9.81445623e-07
      -6.59543446e-07 -2.04188069e-07 4.30424780e-06 1.73210155e-05
      3.27599519e-05 3.50825467e-05 2.41638572e-05 1.19251717e-05
      4.85475402e-06 3.05360777e-06 3.15089778e-06 3.05360777e-06
      3.21362404e-06 3.21362404e-06 -1.59883493e-05 -1.59883493e-05
      -1.59883493e-05 -1.59883493e-05 -1.59883493e-05 -1.59883493e-05
      -1.05227527e-05 9.09561368e-06 3.06903712e-05 2.98532923e-05
      1.25230727e-05 1.84185865e-06 2.79068360e-07 1.76865024e-06
      5.16871251e-06 1.06336647e-05 1.62116066e-05 2.02294705e-05
      1.90857518e-05 1.21448229e-05 2.25479880e-06 1.66471921e-06
      3.66045333e-06 5.05959952e-06 5.49665720e-06 -5.26369149e-07
      -6.17080923e-06 -6.51919754e-06 -1.00472164e-06 5.78177833e-06
      8.62776869e-06 8.75808200e-06 1.31229472e-05 1.96535002e-05
      1.82764234e-05 9.90691660e-06 2.63887318e-06 -3.72755693e-07
      -1.10383382e-07 3.67846246e-06 1.41946211e-05 2.69229022e-05
      3.30050680e-05 2.66747356e-05 1.34626098e-05 5.11206053e-06
      3.05360777e-06 3.05360777e-06 3.21362404e-06 3.21362404e-06
      -1.28703168e-05 -1.43253992e-05 -1.59883493e-05 -1.59883493e-05
      -1.59883493e-05 -1.02748500e-05 9.25597669e-06 3.08507333e-05
      3.01105993e-05 1.30196604e-05 2.15646787e-06 -4.08018423e-07
      3.47361743e-06 1.02296617e-05 1.66618011e-05 1.94933018e-05
      1.88180838e-05 1.44291680e-05 7.29160865e-06 7.55015208e-07
      -4.35059474e-06 -7.10147697e-06 -8.25474308e-06 -4.57186525e-06
      1.99903980e-06 2.09012160e-06 -3.91901222e-06 -1.02326103e-05
      -1.04235796e-05 -6.48079458e-06 -6.79149161e-06 -6.27509007e-06
      1.81773305e-06 1.16061628e-05 1.83608208e-05 1.88103095e-05
      1.02306713e-05 3.63501340e-06 1.37058930e-06 8.39372944e-08
      1.86774889e-06 9.99883378e-06 2.49402674e-05 3.34224387e-05
      2.67341184e-05 1.33436051e-05 5.01477052e-06 3.21362404e-06
      3.21362404e-06 3.21362404e-06 -3.51621588e-06 -8.08933146e-06
      -1.43253992e-05 -1.57804807e-05 -1.04305336e-05 9.37956156e-06
      3.11300028e-05 3.01323616e-05 1.28471338e-05 2.49950403e-06
      5.82335151e-22 2.37742961e-06 1.28472029e-05 2.18010591e-05
      1.98219241e-05 1.39815220e-05 7.01552699e-06 6.03013802e-07
      -5.11275312e-06 -7.44052022e-06 -5.91761409e-06 -4.92778690e-06
      -5.25721907e-06 -3.59848923e-06 4.27519893e-07 2.66006691e-06
      4.49281657e-07 -3.50115170e-06 -5.55824954e-06 -3.73014632e-06
      -5.33771436e-06 -9.98676933e-06 -1.06831258e-05 -6.66018013e-06
      2.47099410e-06 1.08636532e-05 1.26562500e-05 1.20314335e-05
      7.01010595e-06 1.50795324e-06 -1.38647835e-07 2.48985361e-06
      1.11921590e-05 2.67988326e-05 3.95489369e-05 3.28965034e-05
      1.28202919e-05 2.97897509e-06 3.21362404e-06 3.21362404e-06
      6.08657001e-06 1.30558533e-06 -8.08933146e-06 -1.03526963e-05
      5.16214413e-06 3.07304472e-05 3.40393199e-05 1.48223271e-05
      2.28546514e-06 5.82335151e-22 2.39371525e-06 1.20005125e-05
      2.16788449e-05 2.02950341e-05 1.24359376e-05 5.87528405e-07
      -9.12308133e-06 -9.32709190e-06 -6.02635691e-06 -4.01309126e-06
      -1.52319581e-06 1.60016455e-07 3.28654153e-07 2.19621299e-08
      8.47032947e-20 8.47032947e-20 8.47032947e-20 8.47032947e-20
      8.47032947e-20 3.41613884e-07 -2.28913109e-07 -3.32570244e-06
      -8.08480945e-06 -1.04605288e-05 -9.03071941e-06 -5.40928295e-06
      3.59559999e-06 1.30456274e-05 1.31883453e-05 7.01010595e-06
      1.76530705e-06 4.70241218e-07 2.44548164e-06 1.40228358e-05
      3.89059824e-05 4.61943637e-05 2.28134650e-05 4.78012134e-06
      3.21362404e-06 3.21362404e-06 9.20460388e-06 7.54165239e-06
      -1.90313472e-07 -2.73507794e-06 1.56489896e-05 3.22609158e-05
      2.28486024e-05 6.25495341e-06 -2.54119726e-07 2.02896445e-06
      1.10023511e-05 1.98305133e-05 1.95657376e-05 1.14142376e-05
      2.12479313e-06 -8.47927731e-06 -1.40689763e-05 -8.11044811e-06
      -1.58990258e-06 -2.57106251e-07 8.86688980e-08 1.60016455e-07
      8.47032947e-20 2.19621299e-08 8.47032947e-20 5.29181676e-08
      8.47032947e-20 8.47032947e-20 8.47032947e-20 8.47032947e-20
      8.47032947e-20 8.47032947e-20 -1.52319581e-06 -2.96212647e-06
      -4.74489480e-06 -1.02653412e-05 -9.16717181e-06 3.44186515e-06
      1.33106532e-05 1.31883453e-05 7.01015324e-06 1.26051395e-06
      2.12934623e-07 3.32052264e-06 1.99361948e-05 3.63796171e-05
      2.69219654e-05 9.29278576e-06 3.21362404e-06 3.21362404e-06
      9.45250576e-06 8.95591802e-06 8.18544868e-06 9.87681869e-06
      1.78095215e-05 1.93591895e-05 9.82874190e-06 2.09088989e-06
      2.56294084e-06 1.21420990e-05 1.96613873e-05 1.83695283e-05
      1.09275607e-05 3.15942930e-06 -1.54566726e-06 -1.19511094e-06
      -8.15962693e-08 3.47673495e-06 5.43021360e-06 4.25538701e-06
      1.45384752e-06 8.86688980e-08 8.47032947e-20 8.47032947e-20
      8.47032947e-20 7.48802975e-08 2.19621299e-08 8.47032947e-20
      8.47032947e-20 8.47032947e-20 8.47032947e-20 8.47032947e-20
      8.47032947e-20 5.67764118e-07 1.50971999e-07 -5.69224630e-06
      -1.24809612e-05 -8.73064619e-06 3.60188164e-06 1.32437981e-05
      1.37466823e-05 7.01015324e-06 5.63776723e-07 5.82335151e-22
      3.31545675e-06 1.67707894e-05 2.89726086e-05 2.25019812e-05
      8.49088519e-06 3.21362404e-06 8.95591802e-06 8.95591802e-06
      1.50788846e-05 2.49443074e-05 2.28294793e-05 1.03142766e-05
      1.94382801e-06 1.63301550e-07 3.81561449e-06 1.23176824e-05
      1.61331554e-05 1.26293098e-05 5.48943899e-06 3.13367036e-06
      8.70416534e-06 1.50899423e-05 1.62811521e-05 1.60767631e-05
      1.63340701e-05 1.36298204e-05 8.23081064e-06 4.35178163e-06
      1.45384752e-06 8.47032947e-20 8.47032947e-20 8.47032947e-20
      8.47032947e-20 8.47032947e-20 8.47032947e-20 1.81978578e-07
      1.52001391e-07 4.77718629e-07 1.54196630e-06 4.17179626e-06
      5.29191175e-06 4.09741733e-06 -2.71924932e-06 -1.10588244e-05
      -8.85766531e-06 3.44186515e-06 1.88140311e-05 2.24255837e-05
      9.35536445e-06 -8.39372944e-08 -1.94568315e-07 6.40349936e-06
      2.79309534e-05 3.82521248e-05 2.07352168e-05 7.07322306e-06
      8.95591802e-06 1.34630209e-05 2.18326386e-05 2.58338496e-05
      1.88674403e-05 5.88116836e-06 -2.58335859e-07 2.44658600e-06
      4.36625533e-06 4.12500731e-06 7.17904004e-06 6.84900897e-06
      4.17966157e-06 1.11806748e-05 2.08224519e-05 2.59180561e-05
      2.84936195e-05 3.23532186e-05 3.42733692e-05 3.29795403e-05
      2.91112192e-05 1.91156869e-05 2.80898485e-06 -7.37900291e-06
      -8.37205152e-06 -6.11778978e-06 -1.95347866e-06 1.80114625e-06
      6.20488845e-06 1.00417765e-05 1.39485237e-05 1.57465111e-05
      1.53621932e-05 1.82091608e-05 1.91218805e-05 1.44441883e-05
      7.88553098e-06 -8.38553262e-08 -8.09020912e-06 -7.59851810e-06
      1.35472801e-05 3.20393992e-05 1.77594247e-05 1.78323273e-06
      -1.68437353e-07 1.76225842e-06 1.73500939e-05 3.93273585e-05
      3.49351176e-05 2.22412382e-05 8.74804937e-06 1.58330604e-05
      2.78544721e-05 2.42847618e-05 1.08953473e-05 2.09951099e-06
      2.97081237e-06 1.20753448e-05 1.45248459e-05 8.89174407e-06
      4.30140699e-06 2.10634721e-06 2.66001666e-06 8.56210590e-06
      1.94629756e-05 3.09368770e-05 4.16654038e-05 5.34325700e-05
      5.95247184e-05 5.92454489e-05 5.52788042e-05 3.73513030e-05
      5.13284976e-06 -2.07934627e-05 -3.02321059e-05 -2.53432281e-05
      -9.97946609e-06 8.26474388e-06 2.29276611e-05 3.41442028e-05
      4.19232529e-05 4.04098355e-05 3.07406081e-05 2.73982805e-05
      2.47117150e-05 1.35405671e-05 4.89603326e-06 5.90877426e-06
      5.25479572e-06 -4.16624061e-06 1.09130656e-06 2.37434506e-05
      2.61667046e-05 8.87563510e-06 -1.68437353e-07 -2.57106251e-07
      7.22365303e-06 3.02915523e-05 4.03768390e-05 3.39795442e-05
      5.50246477e-06 9.83658265e-06 2.18905461e-05 2.33743576e-05
      8.55830422e-06 -4.34019114e-07 8.95801804e-06 2.24251617e-05
      2.15866075e-05 1.21540143e-05 3.03766228e-06 -3.19627020e-06
      -1.50046549e-06 3.36012795e-06 1.27562571e-05 3.25164146e-05
      5.54885482e-05 7.44483987e-05 8.29763812e-05 7.89705082e-05
      6.50953443e-05 4.19484095e-05 5.04817490e-06 -3.80281490e-05
      -6.43085441e-05 -6.32885130e-05 -3.67440916e-05 2.49196114e-06
      3.77020515e-05 6.43160020e-05 7.27191727e-05 5.80249034e-05
      4.14794486e-05 3.43108877e-05 2.64680257e-05 9.93947469e-06
      -8.37917742e-06 -1.41615101e-05 -1.37312031e-06 1.26916257e-06
      -7.25629752e-06 1.08411250e-05 3.00004594e-05 1.73395983e-05
      1.75710181e-06 3.76899777e-07 2.43747672e-06 1.92460975e-05
      3.37159181e-05 3.40659608e-05 7.46862361e-06 1.27897338e-05
      2.13049989e-05 1.87216847e-05 5.83783776e-06 2.86997874e-06
      1.50308060e-05 2.44912626e-05 1.66352420e-05 4.76343257e-06
      -4.89645936e-06 -9.75682451e-06 -5.70353859e-06 4.68535882e-06
      1.39297535e-05 3.06848924e-05 6.01722641e-05 8.58803760e-05
      9.69512184e-05 8.58687417e-05 6.17126716e-05 3.74834526e-05
      -1.02611421e-06 -5.68265896e-05 -9.94406437e-05 -1.06538966e-04
      -7.68973987e-05 -2.47409844e-05 3.61489729e-05 8.70591030e-05
      9.68897075e-05 7.54825014e-05 5.63773137e-05 4.20583128e-05
