<?xml version="1.0"?>
<opencv_storage>
<opencv_ml_svm>
  <format>3</format>
  <svmType>C_SVC</svmType>
  <kernel>
    <type>INTER</type>
    <gamma>5.0624999999999998e-01</gamma></kernel>
  <C>100.</C>
  <term_criteria><iterations>100</iterations></term_criteria>
  <var_count>1225</var_count>
  <class_count>4</class_count>
  <class_labels type_id="opencv-matrix">
    <rows>4</rows>
    <cols>1</cols>
    <dt>i</dt>
    <data>
      1 2 3 4</data></class_labels>
  <sv_total>64</sv_total>
  <support_vectors>
    <_>
      116. 106. 89. 109. 99. 81. 104. 91. 69. 107. 97. 73. 128. 120. 97.
      156. 147. 127. 187. 174. 160. 216. 197. 184. 184. 157. 143. 194.
      164. 145. 180. 153. 126. 153. 130. 122. 103. 88. 121. 103. 86.
      116. 102. 83. 114. 103. 83. 112. 103. 83. 106. 96. 78. 104. 87.
      74. 107. 85. 73. 117. 91. 77. 126. 98. 81. 134. 108. 84. 154. 131.
      123. 85. 73. 119. 87. 74. 113. 94. 79. 112. 101. 87. 118. 105. 91.
      120. 104. 91. 123. 101. 89. 125. 101. 89. 116. 93. 78. 118. 95.
      79. 118. 95. 79. 119. 94. 123. 77. 60. 109. 70. 55. 92. 67. 51.
      83. 67. 51. 86. 69. 56. 97. 78. 63. 113. 88. 72. 117. 93. 75. 127.
      105. 87. 128. 111. 92. 130. 111. 96. 117. 97. 155. 111. 80. 142.
      102. 74. 129. 95. 72. 116. 86. 67. 102. 76. 59. 98. 75. 53. 97.
      74. 48. 91. 69. 41. 90. 69. 41. 91. 74. 48. 93. 77. 60. 105. 91.
      153. 115. 73. 150. 111. 73. 153. 113. 84. 155. 115. 90. 143. 110.
      84. 140. 112. 82. 137. 112. 78. 123. 104. 67. 108. 90. 53. 107.
      92. 60. 91. 80. 60. 86. 77. 141. 114. 64. 140. 107. 61. 153. 110.
      71. 158. 112. 78. 154. 109. 76. 156. 118. 83. 153. 127. 87. 141.
      121. 80. 139. 120. 82. 140. 125. 92. 122. 112. 88. 110. 105. 147.
      124. 74. 146. 116. 67. 157. 115. 72. 162. 113. 73. 155. 106. 68.
      155. 111. 74. 150. 117. 78. 132. 109. 71. 142. 123. 88. 128. 114.
      85. 121. 110. 88. 151. 145. 145. 122. 77. 144. 118. 72. 148. 113.
      69. 166. 124. 82. 159. 112. 74. 163. 117. 83. 169. 131. 101. 138.
      108. 83. 122. 101. 79. 128. 113. 94. 150. 134. 121. 156. 144. 139.
      114. 72. 139. 112. 68. 145. 114. 69. 142. 107. 63. 152. 111. 72.
      161. 120. 87. 160. 124. 100. 134. 106. 89. 127. 106. 91. 149. 133.
      121. 158. 142. 135. 147. 135. 144. 117. 73. 138. 111. 67. 150.
      122. 75. 152. 123. 78. 144. 114. 73. 141. 113. 79. 127. 103. 81.
      115. 94. 79. 150. 131. 123. 160. 144. 138. 156. 141. 138. 143.
      137. 154. 128. 82. 146. 120. 74. 156. 128. 81. 149. 125. 79. 142.
      122. 81. 136. 121. 88. 112. 98. 79. 157. 145. 133. 163. 149. 143.
      149. 137. 137. 145. 140. 141. 127. 137. 164. 136. 89. 160. 132.
      85. 152. 126. 80. 148. 126. 85. 136. 122. 86. 103. 97. 68. 148.
      147. 127. 140. 140. 128. 144. 141. 137. 136. 138. 139. 120. 136.
      142. 66. 102. 153. 122. 77. 140. 111. 67. 149. 123. 86. 143. 124.
      91. 106. 95. 68. 155. 149. 130. 145. 145. 131. 137. 141. 135. 131.
      139. 139. 121. 140. 147. 58. 100. 113. 42. 104. 167. 130. 92. 164.
      132. 97. 150. 127. 101. 109. 94. 75. 151. 137. 125. 154. 142. 136.
      144. 134. 134. 140. 143. 147. 116. 137. 145. 60. 103. 118. 38.
      106. 129. 15. 101. 155. 122. 96. 147. 119. 95. 118. 98. 81. 152.
      137. 128. 161. 146. 144. 144. 136. 137. 144. 142. 148. 121. 136.
      145. 61. 100. 115. 42. 107. 128. 18. 104. 134. 10. 107. 136. 120.
      108. 112. 96. 84. 151. 134. 125. 162. 146. 140. 156. 144. 144.
      136. 137. 141. 123. 142. 150. 63. 104. 119. 45. 108. 129. 28. 109.
      136. 14. 104. 139. 7. 104. 115. 109. 104. 150. 142. 135. 155. 141.
      135. 149. 134. 131. 153. 143. 143. 136. 141. 144. 71. 98. 108. 53.
      104. 120. 44. 116. 140. 17. 105. 135. 10. 106. 142. 9. 108. 121.
      118. 110. 143. 137. 130. 156. 144. 138. 155. 142. 140. 145. 135.
      135. 139. 140. 144. 95. 114. 122. 59. 100. 115. 43. 108. 129. 26.
      111. 137. 10. 109. 141. 1. 105. 150. 149. 139. 111. 108. 100. 144.
      135. 131. 152. 143. 140. 150. 139. 141. 148. 144. 149. 127. 136.
      146. 91. 118. 132. 48. 99. 119. 34. 108. 132. 12. 106. 135. 1.
      106. 156. 157. 147. 158. 159. 150. 100. 97. 92. 141. 137. 136.
      153. 146. 149. 140. 133. 140. 139. 138. 148. 125. 137. 149. 81.
      116. 130. 43. 101. 120. 20. 103. 125. 13. 110. 159. 164. 155. 154.
      159. 150. 144. 148. 143. 101. 104. 102. 127. 124. 126. 146. 139.
      146. 144. 136. 146. 137. 138. 148. 120. 136. 148. 80. 117. 131.
      40. 102. 120. 19. 101. 150. 158. 151. 153. 161. 154. 149. 158.
      155. 136. 142. 141. 94. 96. 97. 141. 137. 142. 150. 139. 147. 143.
      135. 142. 140. 139. 148. 123. 138. 147. 81. 116. 129. 43. 101.
      151. 161. 155. 146. 158. 152. 149. 160. 158. 151. 159. 159. 143.
      146. 150. 95. 91. 96. 139. 130. 133. 152. 141. 144. 146. 137. 140.
      139. 140. 144. 120. 138. 145. 81. 119. 145. 156. 153. 147. 158.
      156. 147. 155. 155. 151. 156. 159. 155. 158. 162. 140. 139. 141.
      104. 99. 100. 136. 131. 130. 150. 143. 140. 146. 142. 141. 131.
      136. 137. 121. 140. 146. 156. 156. 148. 156. 156. 151. 154. 158.
      153. 154. 158. 150. 151. 155. 157. 159. 160. 138. 140. 140. 101.
      102. 98. 133. 133. 127. 137. 137. 131. 144. 145. 143. 129. 138.
      148. 155. 158. 148. 153. 156. 153. 152. 156. 162. 158. 163. 154.
      151. 153. 152. 154. 155. 153. 161. 160. 87. 99. 93. 73. 86. 78.
      128. 139. 131. 136. 141. 139. 142. 147. 146. 151. 154. 152. 155.
      159. 152. 151. 155. 157. 154. 156. 160. 157. 159. 140. 145. 144.
      144. 155. 153. 94. 109. 105. 59. 74. 70. 68. 82. 78. 124. 132.
      131. 139. 143. 146. 149. 153. 155. 156. 160. 154. 153. 155. 143.
      143. 143. 155. 157. 157. 149. 155. 154. 141. 152. 150. 83. 97. 96.
      60. 74. 73. 60. 72. 74. 75. 82. 85. 126. 130. 153. 152. 156. 147.
      149. 150. 154. 159. 158. 144. 149. 147. 146. 153. 150. 150. 159.
      156. 145. 153. 153. 78. 85. 88. 53. 59. 66. 79. 84. 93. 66. 68.
      78. 75. 76. 155. 152. 154. 143. 145. 146. 149. 158. 155. 146. 160.
      154. 136. 152. 145. 138. 152. 148. 146. 150. 151. 87. 84. 93. 57.
      50. 63. 69. 61. 78. 72. 66. 83. 65. 62. 150. 149. 151. 149. 153.
      154. 141. 152. 149. 138. 154. 147. 136. 151. 147. 141. 152. 150.
      146. 149. 153. 86. 82. 93. 50. 40. 57. 60. 51. 71. 63. 58. 79. 63.
      61. 145. 150. 153. 145. 150. 151. 144. 150. 149. 144. 151. 148.
      142. 148. 147. 145. 150. 151. 142. 145. 150. 78. 80. 90. 50. 50.
      66. 47. 51. 69. 52. 58. 77. 53. 59. 141. 148. 151. 141. 149. 149.
      143. 147. 148. 144. 149. 148. 145. 147. 147. 146. 150. 151. 142.
      145. 150. 76. 81. 90. 55. 62. 77. 48. 58. 75. 47. 56. 76. 46. 58.
      139. 146. 149. 139. 147. 147. 142. 146. 147. 142. 147. 146. 144.
      146. 146. 145. 149. 150. 142. 145. 150. 77. 82. 91. 46. 53. 68.
      43. 53. 70. 45. 54. 74. 41. 53.</_>
    <_>
      249. 255. 250. 248. 255. 250. 244. 255. 252. 246. 255. 252. 255.
      252. 254. 255. 251. 254. 255. 248. 255. 255. 249. 255. 255. 247.
      253. 255. 253. 255. 249. 253. 254. 241. 249. 251. 255. 250. 249.
      255. 250. 248. 255. 252. 249. 254. 253. 255. 252. 254. 255. 251.
      254. 255. 250. 255. 255. 250. 255. 255. 253. 255. 247. 244. 246.
      253. 255. 255. 250. 255. 253. 254. 252. 253. 254. 252. 255. 252.
      253. 255. 252. 253. 253. 252. 254. 249. 253. 254. 248. 253. 254.
      249. 253. 254. 247. 246. 248. 255. 254. 255. 246. 245. 247. 253.
      255. 255. 253. 253. 255. 253. 253. 255. 252. 253. 255. 252. 253.
      249. 253. 254. 246. 254. 254. 244. 254. 254. 246. 254. 254. 253.
      255. 255. 249. 248. 250. 251. 251. 251. 253. 253. 255. 252. 254.
      255. 252. 254. 253. 252. 254. 251. 253. 254. 248. 253. 254. 246.
      254. 254. 251. 253. 254. 251. 253. 254. 251. 255. 255. 243. 248.
      247. 251. 253. 253. 255. 255. 255. 251. 254. 255. 252. 254. 251.
      253. 254. 248. 253. 254. 248. 253. 254. 249. 253. 254. 253. 252.
      254. 253. 252. 254. 244. 249. 248. 251. 255. 255. 253. 255. 255.
      227. 225. 255. 250. 255. 255. 251. 255. 249. 253. 254. 248. 253.
      254. 253. 252. 254. 253. 252. 254. 249. 254. 253. 249. 254. 253.
      252. 254. 254. 255. 255. 255. 242. 237. 238. 168. 166. 255. 250.
      255. 255. 251. 255. 253. 252. 254. 251. 253. 254. 253. 252. 254.
      251. 253. 254. 246. 254. 253. 246. 254. 253. 249. 251. 251. 245.
      243. 243. 176. 168. 169. 193. 188. 255. 246. 252. 255. 252. 255.
      255. 248. 251. 255. 252. 254. 251. 255. 255. 236. 247. 245. 242.
      255. 253. 243. 254. 252. 227. 229. 229. 158. 153. 154. 207. 200.
      203. 249. 246. 255. 253. 255. 250. 243. 246. 255. 253. 255. 250.
      243. 246. 249. 254. 253. 246. 255. 255. 243. 254. 252. 240. 246.
      245. 156. 154. 154. 216. 211. 213. 253. 246. 249. 255. 254. 246.
      251. 252. 253. 255. 255. 255. 250. 252. 254. 249. 250. 249. 254.
      253. 249. 255. 254. 240. 242. 242. 176. 174. 174. 210. 203. 206.
      244. 237. 240. 255. 253. 255. 249. 253. 240. 250. 250. 247. 255.
      254. 253. 255. 255. 255. 255. 255. 255. 255. 255. 233. 231. 231.
      174. 169. 170. 186. 181. 182. 254. 247. 250. 255. 253. 255. 251.
      254. 255. 228. 247. 244. 255. 255. 240. 253. 251. 239. 247. 246.
      253. 255. 254. 234. 224. 224. 159. 147. 147. 214. 209. 210. 251.
      253. 253. 255. 254. 255. 246. 250. 255. 235. 251. 255. 171. 219.
      243. 249. 248. 248. 255. 255. 248. 255. 254. 243. 246. 244. 175.
      165. 165. 218. 206. 206. 252. 247. 248. 251. 255. 255. 237. 246.
      249. 232. 255. 255. 192. 243. 245. 101. 191. 255. 254. 254. 255.
      255. 254. 238. 239. 237. 157. 160. 158. 194. 195. 191. 255. 255.
      254. 255. 254. 255. 248. 250. 251. 232. 255. 255. 170. 230. 229.
      78. 186. 180. 102. 246. 255. 250. 251. 228. 218. 218. 159. 157.
      156. 207. 210. 208. 245. 250. 248. 250. 253. 251. 251. 251. 251.
      235. 253. 252. 156. 211. 208. 109. 209. 203. 94. 242. 234. 72.
      251. 255. 244. 246. 158. 150. 151. 222. 225. 223. 247. 252. 250.
      253. 251. 250. 253. 255. 255. 237. 253. 252. 184. 234. 230. 108.
      207. 199. 108. 252. 240. 71. 249. 238. 59. 253. 242. 234. 235.
      178. 173. 174. 237. 240. 238. 253. 255. 254. 255. 253. 253. 249.
      251. 251. 239. 255. 255. 144. 194. 192. 119. 222. 215. 98. 243.
      234. 68. 251. 241. 57. 255. 255. 255. 255. 191. 191. 191. 164.
      162. 162. 222. 222. 222. 251. 255. 255. 245. 251. 250. 243. 248.
      251. 221. 246. 248. 143. 206. 204. 118. 228. 222. 83. 248. 240.
      57. 255. 241. 246. 245. 249. 251. 251. 213. 211. 211. 144. 142.
      142. 231. 236. 235. 244. 249. 248. 253. 255. 255. 244. 253. 255.
      212. 243. 246. 122. 194. 194. 91. 220. 215. 73. 244. 250. 255.
      255. 251. 255. 255. 252. 252. 252. 215. 213. 213. 151. 149. 149.
      252. 252. 252. 247. 249. 250. 247. 252. 255. 243. 254. 255. 217.
      249. 254. 108. 183. 185. 110. 229. 250. 255. 255. 243. 248. 247.
      251. 249. 249. 252. 247. 248. 201. 195. 196. 174. 169. 170. 238.
      240. 241. 251. 255. 255. 250. 249. 253. 244. 255. 255. 216. 251.
      255. 122. 196. 243. 251. 250. 251. 255. 255. 255. 253. 254. 255.
      254. 255. 254. 249. 248. 195. 191. 190. 147. 147. 147. 234. 236.
      237. 255. 254. 255. 249. 248. 252. 243. 253. 255. 211. 245. 246.
      254. 253. 247. 252. 251. 255. 254. 255. 255. 249. 250. 255. 251.
      251. 255. 252. 251. 215. 210. 211. 144. 142. 142. 242. 239. 241.
      255. 253. 255. 255. 253. 255. 238. 250. 250. 255. 254. 247. 249.
      249. 255. 255. 255. 255. 254. 255. 255. 248. 248. 255. 254. 254.
      255. 246. 246. 215. 210. 209. 168. 168. 168. 235. 239. 240. 251.
      254. 255. 245. 254. 255. 255. 255. 251. 251. 251. 253. 255. 255.
      254. 254. 254. 252. 247. 246. 255. 253. 253. 255. 254. 254. 248.
      244. 243. 192. 197. 196. 163. 169. 168. 227. 231. 232. 248. 251.
      255. 252. 253. 255. 250. 251. 251. 255. 255. 251. 255. 255. 255.
      251. 250. 255. 251. 250. 255. 255. 254. 253. 255. 254. 246. 252.
      251. 200. 205. 204. 141. 139. 139. 235. 232. 255. 251. 252. 255.
      250. 251. 250. 252. 252. 251. 255. 255. 255. 255. 254. 250. 253.
      251. 244. 251. 248. 244. 253. 250. 245. 251. 250. 255. 255. 255.
      219. 213. 214. 157. 149. 255. 253. 253. 255. 254. 254. 255. 250.
      251. 252. 250. 250. 249. 255. 253. 243. 255. 253. 241. 255. 252.
      246. 255. 254. 253. 255. 254. 250. 246. 245. 255. 254. 255. 203.
      192. 247. 252. 251. 255. 255. 255. 255. 254. 255. 255. 251. 252.
      247. 254. 251. 242. 255. 252. 243. 255. 253. 248. 255. 254. 255.
      255. 254. 254. 249. 248. 255. 250. 251. 255. 254. 244. 252. 251.
      248. 254. 253. 253. 255. 255. 255. 255. 255. 255. 253. 252. 252.
      253. 251. 249. 252. 250. 249. 252. 250. 253. 253. 253. 255. 255.
      255. 255. 254. 255. 248. 243. 248. 255. 255. 245. 251. 250. 245.
      250. 249. 252. 252. 252. 255. 253. 252. 255. 253. 252. 255. 253.
      252. 255. 253. 252. 250. 250. 250. 254. 254. 254. 255. 253. 253.
      255. 255. 251. 253. 253. 251. 253. 253. 251. 253. 253. 253. 253.
      253. 255. 253. 253. 255. 253. 253. 253. 253. 253. 253. 253. 253.
      254. 254. 254. 250. 250. 250. 255. 255. 255. 254. 254. 253. 253.
      253. 253. 253. 253. 253. 253. 253. 253. 253. 253. 253. 253. 253.
      253. 253. 253. 253. 253. 253. 253. 253. 253. 255. 255. 255. 249.
      249. 249. 253. 253. 253. 255. 255. 253. 253. 253. 253. 253. 253.
      253. 253. 253. 253. 253. 253. 253. 253. 253. 253. 253. 253. 253.
      253. 253. 253. 253. 253. 255. 255. 255. 249. 249. 249. 254. 254.
      254. 255. 255.</_>
    <_>
      156. 157. 148. 142. 147. 138. 135. 150. 142. 130. 154. 144. 114.
      141. 132. 101. 131. 120. 136. 163. 153. 140. 166. 153. 109. 135.
      121. 105. 131. 117. 118. 147. 132. 106. 132. 165. 170. 161. 161.
      170. 160. 148. 165. 156. 123. 147. 137. 116. 143. 134. 95. 125.
      114. 91. 117. 104. 106. 132. 119. 112. 137. 123. 123. 148. 134.
      109. 134. 120. 95. 118. 137. 154. 141. 164. 181. 170. 150. 171.
      162. 129. 153. 143. 122. 149. 139. 102. 129. 119. 100. 126. 113.
      107. 131. 119. 107. 127. 114. 126. 144. 131. 136. 153. 139. 123.
      137. 119. 142. 128. 136. 161. 147. 173. 197. 185. 147. 172. 162.
      125. 150. 140. 130. 155. 145. 117. 141. 129. 125. 147. 135. 119.
      137. 124. 120. 135. 121. 158. 171. 157. 142. 152. 111. 140. 124.
      129. 158. 143. 150. 176. 163. 160. 186. 173. 145. 169. 159. 135.
      156. 147. 135. 157. 145. 127. 147. 135. 127. 144. 131. 119. 134.
      120. 146. 159. 145. 144. 155. 130. 159. 143. 117. 146. 130. 122.
      148. 134. 136. 160. 148. 156. 177. 168. 152. 171. 162. 121. 141.
      129. 143. 161. 148. 121. 138. 125. 117. 132. 118. 135. 148. 132.
      149. 160. 136. 164. 145. 139. 166. 150. 103. 129. 115. 125. 150.
      136. 161. 181. 169. 146. 163. 152. 123. 140. 129. 138. 156. 143.
      126. 143. 130. 112. 129. 115. 134. 152. 135. 152. 165. 117. 145.
      126. 138. 164. 146. 120. 143. 128. 133. 153. 140. 160. 177. 166.
      152. 168. 157. 126. 142. 131. 133. 150. 137. 126. 143. 129. 106.
      123. 109. 144. 159. 145. 169. 179. 117. 143. 125. 136. 160. 142.
      135. 156. 141. 133. 151. 138. 151. 167. 156. 163. 179. 168. 137.
      154. 141. 126. 143. 130. 130. 145. 131. 127. 137. 124. 191. 198.
      185. 227. 231. 110. 138. 119. 125. 149. 131. 138. 157. 142. 152.
      167. 153. 146. 160. 148. 168. 182. 170. 150. 167. 154. 140. 154.
      142. 130. 140. 127. 197. 201. 190. 243. 240. 232. 253. 253. 113.
      143. 124. 153. 179. 161. 168. 185. 171. 153. 166. 152. 134. 147.
      133. 142. 155. 141. 172. 189. 175. 136. 149. 135. 203. 207. 196.
      245. 242. 234. 255. 247. 243. 245. 246. 119. 149. 130. 127. 153.
      135. 119. 138. 123. 136. 149. 135. 145. 155. 142. 146. 156. 143.
      142. 155. 141. 209. 219. 206. 246. 250. 239. 247. 248. 239. 237.
      238. 236. 237. 252. 108. 135. 119. 132. 158. 142. 144. 163. 148.
      125. 140. 126. 136. 147. 131. 144. 154. 138. 205. 212. 197. 243.
      250. 237. 238. 244. 233. 238. 249. 241. 229. 252. 248. 200. 248.
      112. 133. 118. 108. 129. 114. 131. 152. 137. 123. 142. 127. 133.
      146. 130. 214. 221. 206. 246. 246. 232. 243. 245. 233. 241. 251.
      239. 231. 255. 247. 190. 241. 237. 111. 195. 117. 129. 117. 138.
      155. 142. 140. 161. 146. 141. 162. 147. 200. 216. 199. 230. 235.
      220. 255. 250. 235. 250. 249. 235. 228. 242. 230. 212. 255. 244.
      104. 190. 182. 100. 226. 139. 147. 137. 134. 146. 134. 148. 167.
      152. 192. 211. 194. 231. 243. 225. 231. 237. 220. 243. 242. 228.
      239. 247. 236. 207. 242. 232. 113. 185. 179. 119. 236. 233. 90.
      242. 142. 146. 140. 140. 148. 137. 198. 210. 192. 224. 237. 215.
      249. 255. 232. 237. 244. 223. 226. 237. 221. 206. 240. 230. 122.
      192. 191. 122. 229. 233. 91. 234. 242. 66. 232. 140. 147. 140.
      154. 162. 151. 224. 232. 215. 249. 255. 235. 244. 247. 222. 242.
      247. 226. 230. 247. 233. 144. 186. 179. 140. 222. 223. 123. 239.
      246. 89. 237. 251. 67. 233. 139. 153. 142. 141. 154. 140. 189.
      197. 180. 238. 240. 220. 248. 247. 226. 241. 243. 223. 240. 255.
      241. 170. 204. 197. 142. 208. 207. 127. 223. 229. 109. 237. 248.
      83. 234. 140. 160. 147. 139. 156. 142. 150. 156. 139. 194. 194.
      176. 247. 246. 226. 242. 244. 225. 237. 247. 234. 220. 247. 238.
      162. 211. 209. 136. 210. 214. 126. 230. 237. 106. 237. 120. 147.
      131. 135. 154. 137. 147. 153. 136. 161. 158. 143. 212. 208. 190.
      242. 242. 226. 237. 246. 233. 226. 243. 234. 216. 246. 241. 164.
      212. 213. 138. 215. 218. 124. 230. 130. 160. 141. 117. 139. 120.
      154. 162. 145. 163. 163. 147. 168. 165. 151. 213. 213. 199. 237.
      244. 231. 234. 245. 235. 235. 249. 243. 200. 230. 225. 172. 222.
      222. 141. 220. 167. 195. 175. 132. 154. 135. 165. 175. 158. 177.
      180. 165. 156. 156. 144. 172. 174. 162. 205. 212. 199. 239. 245.
      234. 238. 244. 233. 237. 250. 242. 213. 243. 238. 174. 226. 156.
      184. 161. 153. 176. 154. 166. 179. 163. 163. 172. 159. 154. 160.
      149. 152. 158. 147. 165. 172. 159. 216. 220. 208. 247. 250. 235.
      245. 249. 237. 227. 241. 230. 207. 239. 125. 147. 123. 140. 161.
      139. 151. 169. 152. 151. 166. 152. 143. 155. 143. 155. 165. 153.
      154. 163. 150. 162. 167. 152. 225. 226. 210. 248. 249. 233. 244.
      246. 234. 224. 237. 117. 135. 112. 119. 138. 117. 133. 155. 137.
      133. 154. 139. 146. 163. 150. 151. 163. 151. 153. 162. 149. 153.
      158. 143. 171. 175. 156. 225. 225. 207. 251. 246. 231. 248. 247.
      130. 142. 120. 119. 134. 113. 119. 141. 122. 116. 139. 124. 133.
      151. 138. 138. 152. 140. 146. 155. 142. 149. 156. 141. 190. 196.
      179. 177. 179. 160. 235. 231. 213. 245. 239. 136. 145. 125. 135.
      147. 127. 130. 152. 133. 134. 158. 140. 134. 153. 138. 143. 157.
      145. 139. 148. 135. 144. 151. 136. 217. 223. 206. 206. 208. 189.
      183. 181. 163. 241. 236. 136. 144. 127. 133. 145. 127. 124. 142.
      125. 120. 139. 122. 116. 133. 119. 133. 146. 132. 133. 142. 129.
      142. 146. 134. 215. 218. 203. 228. 231. 215. 174. 175. 159. 181.
      182. 133. 141. 124. 130. 140. 123. 135. 148. 132. 126. 142. 125.
      136. 151. 137. 140. 150. 137. 138. 145. 132. 134. 136. 124. 203.
      203. 191. 219. 222. 207. 179. 184. 169. 155. 161. 142. 152. 136.
      131. 141. 125. 130. 140. 123. 120. 132. 114. 130. 141. 125. 134.
      144. 128. 140. 144. 132. 142. 142. 130. 188. 186. 175. 226. 226.
      214. 197. 204. 191. 153. 164. 141. 154. 138. 133. 144. 128. 126.
      136. 119. 129. 139. 122. 126. 136. 120. 135. 145. 129. 136. 140.
      128. 149. 151. 139. 185. 185. 173. 243. 245. 233. 201. 210. 197.
      145. 158. 135. 154. 135. 121. 137. 119. 127. 141. 123. 121. 133.
      115. 126. 133. 118. 138. 145. 130. 133. 138. 123. 137. 142. 127.
      173. 180. 165. 229. 239. 223. 208. 221. 205. 146. 159. 150. 170.
      151. 132. 151. 132. 133. 149. 131. 125. 137. 119. 128. 135. 120.
      143. 148. 133. 138. 143. 128. 142. 149. 134. 166. 176. 160. 229.
      242. 226. 214. 227. 211. 155. 168. 162. 182. 163. 142. 161. 142.
      139. 155. 137. 128. 140. 122. 128. 135. 120. 142. 147. 132. 138.
      143. 128. 142. 149. 134. 161. 171. 155. 230. 243. 227. 215. 228.
      212. 153. 166.</_>
    <_>
      255. 255. 252. 255. 255. 252. 255. 255. 254. 255. 255. 254. 255.
      255. 255. 253. 255. 255. 253. 255. 255. 253. 255. 255. 255. 253.
      255. 250. 246. 251. 255. 254. 255. 255. 254. 255. 255. 252. 255.
      255. 252. 255. 255. 254. 255. 255. 254. 255. 255. 255. 253. 255.
      255. 253. 255. 255. 253. 255. 255. 255. 254. 255. 255. 254. 255.
      255. 254. 255. 253. 248. 255. 255. 254. 255. 255. 254. 255. 255.
      255. 255. 255. 255. 255. 255. 255. 255. 255. 255. 253. 255. 255.
      253. 255. 255. 248. 250. 251. 255. 254. 255. 249. 248. 250. 255.
      255. 253. 255. 254. 253. 255. 254. 253. 255. 255. 253. 255. 255.
      255. 255. 255. 255. 255. 255. 253. 255. 255. 253. 255. 255. 253.
      255. 255. 250. 252. 252. 255. 255. 255. 253. 251. 251. 255. 255.
      251. 255. 255. 251. 255. 255. 251. 255. 255. 253. 255. 255. 253.
      255. 255. 253. 255. 255. 253. 255. 255. 253. 255. 255. 253. 255.
      254. 253. 254. 252. 255. 253. 251. 255. 255. 251. 255. 255. 251.
      255. 255. 251. 255. 255. 251. 255. 255. 251. 255. 255. 253. 255.
      255. 253. 255. 254. 251. 252. 250. 255. 254. 250. 255. 255. 251.
      224. 220. 255. 254. 255. 253. 255. 255. 253. 255. 255. 251. 255.
      255. 250. 255. 255. 250. 255. 255. 251. 255. 254. 253. 255. 254.
      254. 250. 249. 255. 255. 252. 249. 240. 237. 147. 138. 255. 253.
      255. 255. 254. 255. 253. 255. 255. 251. 255. 255. 248. 255. 255.
      248. 255. 254. 251. 255. 254. 255. 255. 252. 255. 255. 252. 247.
      235. 233. 166. 154. 150. 185. 173. 255. 252. 255. 255. 252. 255.
      253. 252. 254. 248. 252. 253. 248. 255. 255. 248. 255. 254. 244.
      249. 247. 255. 255. 252. 246. 237. 234. 160. 145. 142. 195. 178.
      175. 194. 179. 255. 250. 255. 255. 253. 255. 254. 251. 253. 251.
      255. 255. 246. 255. 252. 242. 252. 246. 251. 255. 252. 241. 238.
      234. 184. 173. 169. 184. 169. 166. 204. 187. 184. 186. 174. 255.
      245. 249. 255. 253. 255. 254. 249. 251. 250. 252. 252. 250. 255.
      254. 248. 255. 250. 246. 250. 245. 165. 162. 157. 176. 165. 161.
      195. 180. 177. 197. 184. 182. 184. 179. 255. 253. 255. 255. 254.
      255. 255. 254. 255. 255. 254. 253. 247. 248. 244. 252. 254. 248.
      184. 184. 178. 172. 168. 163. 199. 190. 186. 193. 184. 180. 182.
      179. 175. 174. 179. 255. 255. 255. 253. 251. 251. 252. 247. 248.
      255. 252. 251. 254. 249. 246. 188. 184. 179. 156. 150. 145. 195.
      189. 182. 190. 186. 181. 189. 190. 186. 169. 180. 177. 143. 164.
      249. 255. 254. 251. 255. 254. 255. 255. 254. 254. 249. 246. 219.
      208. 204. 170. 158. 154. 202. 190. 184. 192. 184. 177. 186. 188.
      182. 169. 181. 175. 150. 173. 169. 126. 163. 241. 255. 252. 241.
      252. 249. 255. 255. 254. 214. 207. 204. 146. 131. 128. 202. 183.
      178. 205. 189. 183. 199. 191. 184. 186. 193. 186. 145. 166. 158.
      130. 166. 160. 124. 174. 243. 255. 254. 242. 251. 248. 209. 208.
      204. 168. 157. 153. 200. 181. 176. 207. 188. 183. 196. 186. 179.
      187. 188. 184. 154. 171. 167. 133. 166. 162. 122. 171. 169. 118.
      176. 245. 250. 248. 235. 236. 232. 147. 138. 134. 198. 182. 176.
      203. 185. 178. 198. 187. 179. 190. 192. 186. 159. 178. 175. 124.
      160. 160. 116. 165. 167. 122. 180. 185. 107. 171. 236. 237. 235.
      137. 134. 130. 195. 184. 180. 205. 189. 183. 207. 191. 184. 196.
      186. 179. 183. 187. 182. 135. 156. 154. 110. 149. 151. 128. 183.
      186. 101. 164. 172. 106. 174. 250. 253. 251. 190. 191. 187. 133.
      129. 124. 198. 188. 181. 193. 179. 173. 201. 189. 183. 195. 188.
      185. 181. 187. 186. 131. 159. 160. 117. 162. 165. 116. 180. 181.
      99. 173. 236. 241. 239. 239. 243. 238. 186. 185. 181. 152. 148.
      143. 201. 189. 185. 190. 178. 174. 199. 186. 184. 193. 191. 190.
      163. 179. 178. 123. 160. 158. 113. 170. 169. 109. 179. 242. 246.
      241. 249. 253. 248. 248. 249. 245. 177. 175. 174. 142. 132. 132.
      197. 185. 185. 200. 185. 183. 194. 185. 182. 183. 188. 186. 161.
      182. 179. 112. 154. 147. 108. 168. 253. 254. 250. 253. 254. 250.
      252. 255. 253. 246. 246. 246. 181. 176. 177. 161. 153. 154. 186.
      174. 174. 189. 180. 177. 193. 190. 185. 176. 184. 177. 155. 179.
      171. 121. 162. 255. 255. 252. 255. 253. 252. 255. 255. 255. 255.
      254. 255. 243. 245. 246. 158. 157. 159. 147. 145. 144. 194. 191.
      186. 193. 187. 180. 182. 180. 170. 191. 192. 182. 170. 185. 255.
      252. 249. 255. 255. 254. 254. 252. 252. 249. 251. 252. 250. 255.
      255. 244. 252. 252. 142. 147. 145. 163. 165. 159. 193. 186. 177.
      198. 186. 176. 195. 183. 173. 185. 183. 255. 254. 254. 255. 254.
      254. 255. 253. 253. 251. 255. 255. 244. 251. 254. 244. 255. 255.
      225. 233. 232. 147. 151. 145. 166. 159. 150. 208. 192. 180. 197.
      177. 166. 198. 185. 255. 251. 251. 255. 254. 255. 255. 253. 255.
      251. 255. 255. 246. 255. 255. 246. 255. 255. 248. 255. 255. 232.
      233. 229. 149. 142. 133. 177. 162. 153. 205. 186. 178. 199. 183.
      255. 252. 254. 255. 254. 255. 249. 251. 252. 250. 255. 255. 248.
      255. 255. 243. 248. 249. 252. 252. 252. 255. 255. 252. 236. 228.
      221. 155. 144. 136. 183. 174. 165. 191. 183. 255. 251. 252. 255.
      255. 255. 250. 252. 253. 249. 254. 255. 250. 255. 255. 253. 255.
      255. 255. 253. 252. 255. 249. 249. 255. 254. 251. 241. 235. 230.
      129. 126. 121. 177. 177. 252. 251. 253. 255. 254. 255. 251. 255.
      255. 251. 255. 255. 252. 254. 254. 255. 255. 254. 255. 255. 254.
      255. 254. 254. 253. 247. 248. 255. 255. 255. 215. 217. 217. 132.
      135. 251. 255. 255. 249. 253. 254. 253. 255. 255. 255. 255. 254.
      253. 251. 250. 254. 250. 249. 255. 254. 253. 255. 249. 250. 255.
      253. 255. 253. 254. 255. 246. 249. 253. 220. 222. 246. 255. 255.
      247. 252. 253. 254. 254. 254. 255. 255. 254. 255. 255. 252. 255.
      255. 252. 255. 255. 254. 253. 252. 254. 252. 253. 255. 243. 243.
      249. 255. 253. 255. 255. 252. 245. 252. 255. 250. 255. 255. 255.
      255. 255. 255. 251. 250. 255. 253. 250. 255. 255. 252. 253. 254.
      252. 253. 255. 255. 251. 254. 255. 253. 253. 255. 252. 248. 254.
      255. 251. 253. 255. 255. 253. 255. 255. 255. 255. 255. 255. 255.
      255. 255. 255. 254. 255. 255. 254. 254. 254. 254. 253. 253. 253.
      252. 254. 255. 252. 251. 255. 254. 253. 255. 255. 254. 255. 255.
      255. 255. 255. 255. 255. 255. 255. 255. 255. 255. 255. 255. 255.
      255. 255. 255. 254. 254. 254. 253. 253. 253. 255. 254. 255. 254.
      253. 255. 253. 252. 254. 250. 249. 255. 255. 255. 255. 255. 255.
      255. 255. 255. 255. 255. 255. 255. 255. 255. 255. 255. 255. 254.
      254. 254. 253. 253. 253. 252. 251. 253. 252. 251. 253. 255. 254.
      255. 252. 251.</_>
    <_>
      255. 254. 255. 255. 254. 255. 255. 254. 255. 251. 255. 255. 250.
      255. 255. 248. 255. 255. 250. 255. 255. 251. 255. 255. 255. 255.
      255. 255. 250. 251. 255. 251. 252. 255. 254. 255. 254. 255. 255.
      254. 255. 255. 254. 255. 253. 255. 255. 251. 255. 255. 250. 255.
      255. 251. 255. 255. 251. 255. 255. 255. 255. 255. 255. 255. 255.
      255. 254. 255. 255. 251. 255. 255. 255. 255. 255. 255. 255. 255.
      255. 255. 255. 255. 255. 255. 255. 255. 255. 255. 253. 255. 255.
      253. 255. 255. 248. 250. 250. 253. 255. 255. 249. 251. 251. 252.
      252. 253. 255. 255. 253. 255. 255. 255. 255. 255. 255. 255. 255.
      255. 254. 255. 255. 254. 255. 255. 255. 255. 255. 255. 255. 251.
      255. 255. 250. 255. 255. 248. 254. 253. 248. 253. 251. 255. 254.
      253. 255. 254. 255. 255. 255. 255. 254. 255. 255. 254. 255. 255.
      254. 255. 255. 254. 255. 255. 254. 255. 251. 255. 255. 241. 249.
      248. 248. 255. 255. 250. 255. 250. 255. 254. 251. 255. 254. 255.
      255. 255. 255. 254. 255. 255. 254. 255. 255. 254. 255. 255. 253.
      255. 255. 254. 255. 248. 252. 253. 250. 255. 255. 250. 255. 255.
      248. 253. 251. 255. 252. 251. 255. 252. 255. 255. 254. 255. 255.
      254. 255. 254. 255. 255. 254. 255. 255. 254. 255. 255. 254. 255.
      255. 254. 255. 254. 254. 254. 255. 255. 255. 234. 235. 253. 255.
      252. 253. 255. 252. 253. 255. 254. 255. 255. 254. 255. 255. 255.
      255. 255. 255. 255. 254. 255. 255. 254. 255. 255. 248. 251. 255.
      254. 255. 243. 238. 237. 171. 166. 252. 253. 251. 255. 255. 254.
      253. 255. 254. 248. 253. 251. 251. 255. 255. 253. 255. 255. 251.
      249. 249. 255. 254. 255. 255. 252. 254. 255. 247. 249. 171. 157.
      158. 186. 172. 255. 255. 254. 247. 248. 246. 253. 255. 254. 250.
      255. 254. 250. 255. 255. 246. 251. 250. 255. 255. 255. 255. 253.
      252. 255. 243. 245. 197. 179. 180. 178. 157. 159. 189. 173. 255.
      252. 253. 255. 255. 255. 247. 252. 251. 248. 254. 253. 248. 255.
      254. 242. 249. 246. 253. 254. 252. 255. 252. 249. 195. 179. 180.
      176. 155. 157. 204. 183. 185. 193. 179. 255. 254. 255. 250. 250.
      250. 253. 255. 255. 246. 252. 251. 250. 255. 254. 247. 253. 248.
      255. 255. 252. 205. 198. 195. 168. 155. 153. 195. 180. 178. 201.
      185. 186. 190. 182. 255. 251. 255. 255. 254. 255. 250. 252. 252.
      253. 255. 255. 253. 255. 254. 254. 255. 251. 209. 206. 201. 158.
      152. 147. 197. 186. 182. 199. 190. 187. 183. 178. 177. 180. 186.
      255. 253. 255. 249. 250. 254. 255. 254. 255. 251. 251. 251. 255.
      254. 250. 226. 223. 218. 146. 140. 133. 190. 182. 175. 199. 191.
      184. 189. 186. 181. 178. 185. 180. 158. 177. 253. 252. 255. 251.
      251. 255. 249. 248. 250. 255. 253. 253. 228. 221. 218. 153. 144.
      140. 198. 188. 181. 197. 190. 181. 188. 186. 176. 180. 188. 178.
      154. 172. 165. 130. 162. 255. 251. 255. 255. 252. 255. 255. 254.
      255. 240. 238. 238. 153. 148. 145. 186. 180. 175. 196. 187. 183.
      188. 185. 177. 187. 191. 185. 173. 189. 182. 122. 156. 150. 124.
      171. 255. 246. 249. 255. 251. 253. 240. 236. 235. 140. 143. 141.
      178. 181. 179. 185. 186. 184. 192. 188. 187. 184. 187. 185. 169.
      183. 181. 121. 152. 149. 118. 171. 168. 119. 186. 255. 244. 245.
      255. 246. 246. 167. 164. 160. 173. 177. 172. 184. 187. 185. 185.
      186. 184. 193. 189. 188. 186. 188. 188. 138. 154. 153. 141. 178.
      176. 107. 167. 166. 99. 176. 244. 239. 238. 235. 231. 230. 139.
      137. 136. 192. 190. 189. 197. 192. 189. 194. 185. 182. 194. 182.
      180. 184. 180. 179. 142. 155. 153. 132. 167. 163. 117. 176. 172.
      101. 177. 240. 242. 242. 242. 245. 243. 186. 187. 185. 141. 137.
      136. 195. 183. 181. 203. 188. 186. 194. 179. 177. 195. 188. 185.
      171. 180. 177. 126. 156. 151. 119. 173. 168. 111. 181. 239. 247.
      247. 247. 253. 252. 228. 231. 229. 179. 174. 173. 156. 143. 141.
      207. 190. 187. 207. 190. 187. 197. 186. 182. 183. 187. 181. 161.
      181. 176. 119. 159. 154. 111. 169. 238. 248. 248. 238. 246. 246.
      250. 250. 250. 255. 253. 250. 177. 166. 162. 167. 155. 149. 193.
      179. 173. 194. 184. 177. 189. 187. 179. 180. 191. 183. 147. 170.
      166. 121. 161. 247. 252. 255. 251. 255. 255. 255. 255. 255. 250.
      247. 243. 248. 244. 239. 165. 159. 152. 159. 151. 144. 199. 192.
      183. 196. 191. 182. 181. 179. 171. 182. 187. 185. 151. 170. 251.
      252. 255. 253. 255. 255. 251. 249. 249. 255. 255. 252. 255. 255.
      251. 249. 250. 241. 148. 149. 139. 167. 165. 155. 196. 189. 180.
      193. 185. 178. 191. 182. 179. 182. 182. 253. 252. 255. 255. 254.
      255. 255. 253. 253. 255. 253. 252. 252. 253. 249. 253. 255. 249.
      224. 230. 219. 145. 149. 138. 169. 163. 156. 202. 192. 185. 193.
      178. 176. 193. 181. 250. 251. 255. 255. 254. 255. 255. 254. 255.
      255. 255. 254. 255. 255. 251. 253. 255. 251. 251. 255. 249. 226.
      231. 222. 142. 140. 132. 185. 176. 172. 201. 183. 182. 194. 178.
      251. 255. 255. 253. 255. 255. 255. 252. 253. 255. 254. 255. 255.
      253. 252. 249. 248. 244. 253. 255. 252. 248. 255. 248. 215. 217.
      211. 145. 142. 137. 186. 174. 172. 191. 178. 248. 253. 254. 251.
      255. 255. 254. 252. 252. 255. 253. 254. 255. 254. 255. 255. 255.
      254. 255. 255. 254. 245. 251. 246. 251. 255. 252. 216. 217. 213.
      141. 136. 133. 193. 184. 245. 251. 250. 251. 255. 255. 255. 254.
      254. 255. 251. 252. 255. 254. 255. 255. 254. 255. 255. 255. 255.
      251. 255. 255. 245. 250. 249. 253. 255. 254. 194. 192. 191. 153.
      148. 251. 255. 255. 253. 255. 255. 253. 253. 253. 255. 254. 254.
      255. 254. 255. 254. 251. 253. 249. 251. 252. 253. 255. 255. 251.
      255. 255. 244. 246. 246. 251. 249. 248. 197. 194. 255. 255. 254.
      252. 253. 251. 253. 253. 253. 253. 255. 255. 253. 255. 255. 251.
      254. 255. 251. 254. 255. 253. 254. 255. 252. 251. 255. 255. 254.
      255. 255. 254. 255. 255. 253. 255. 253. 252. 255. 254. 253. 255.
      255. 255. 251. 253. 253. 246. 250. 251. 250. 253. 255. 251. 254.
      255. 253. 254. 255. 255. 254. 255. 250. 247. 249. 255. 254. 255.
      255. 251. 255. 255. 255. 255. 255. 255. 255. 255. 255. 255. 255.
      255. 253. 255. 255. 253. 255. 255. 253. 255. 255. 253. 255. 255.
      250. 252. 253. 253. 253. 253. 255. 255. 255. 254. 252. 255. 255.
      255. 255. 255. 255. 255. 255. 255. 255. 255. 255. 255. 255. 255.
      255. 255. 255. 253. 255. 255. 253. 255. 255. 253. 255. 255. 253.
      255. 255. 255. 255. 255. 253. 253. 255. 255. 255. 255. 255. 255.
      255. 255. 255. 255. 255. 255. 255. 255. 255. 255. 255. 255. 253.
      255. 255. 253. 255. 255. 251. 253. 253. 249. 251. 251. 252. 252.
      252. 252. 252.</_>
    <_>
      176. 121. 60. 180. 120. 61. 189. 117. 63. 194. 115. 64. 196. 114.
      67. 195. 113. 65. 195. 115. 60. 193. 117. 58. 193. 119. 55. 196.
      122. 58. 194. 121. 59. 191. 118. 181. 121. 61. 183. 120. 62. 190.
      117. 65. 193. 116. 67. 195. 115. 68. 194. 115. 66. 192. 117. 61.
      191. 119. 59. 193. 122. 58. 184. 115. 52. 188. 118. 59. 186. 116.
      187. 121. 62. 187. 120. 63. 189. 118. 68. 191. 117. 69. 191. 116.
      70. 191. 118. 68. 189. 120. 63. 186. 121. 60. 184. 122. 58. 184.
      123. 61. 184. 122. 68. 184. 123. 188. 122. 63. 188. 121. 64. 188.
      119. 69. 188. 119. 70. 190. 118. 71. 187. 118. 68. 185. 120. 65.
      182. 122. 63. 180. 123. 62. 176. 120. 61. 180. 123. 68. 178. 119.
      183. 123. 63. 185. 122. 64. 185. 121. 67. 186. 120. 69. 190. 118.
      70. 188. 119. 69. 185. 120. 69. 181. 121. 69. 177. 118. 68. 185.
      127. 75. 179. 118. 62. 183. 121. 182. 125. 64. 184. 124. 65. 186.
      122. 67. 187. 121. 68. 191. 120. 70. 189. 120. 71. 186. 120. 72.
      184. 120. 72. 184. 123. 73. 180. 119. 69. 181. 121. 69. 176. 122.
      181. 126. 65. 185. 125. 65. 190. 124. 65. 190. 123. 66. 190. 121.
      72. 188. 120. 73. 187. 121. 73. 188. 121. 72. 190. 120. 66. 185.
      121. 67. 174. 119. 76. 149. 110. 186. 126. 67. 188. 126. 66. 193.
      126. 65. 195. 125. 66. 191. 123. 70. 189. 123. 72. 188. 122. 73.
      188. 122. 73. 185. 122. 71. 180. 125. 80. 152. 111. 79. 159. 133.
      196. 128. 75. 191. 121. 67. 191. 121. 62. 204. 132. 72. 200. 129.
      66. 192. 125. 64. 192. 128. 73. 176. 122. 75. 165. 122. 83. 141.
      108. 82. 171. 151. 134. 210. 200. 193. 119. 71. 202. 129. 77. 197.
      126. 69. 193. 123. 63. 194. 125. 62. 189. 126. 66. 182. 126. 77.
      163. 121. 84. 128. 101. 80. 190. 176. 164. 218. 210. 203. 190.
      193. 198. 126. 79. 190. 121. 71. 202. 135. 78. 188. 125. 65. 199.
      137. 77. 184. 131. 80. 153. 112. 79. 135. 107. 90. 190. 178. 174.
      202. 200. 200. 199. 199. 193. 190. 199. 192. 124. 77. 190. 124.
      75. 186. 124. 70. 187. 133. 80. 166. 120. 73. 155. 118. 84. 143.
      117. 101. 198. 183. 180. 214. 208. 213. 189. 193. 198. 186. 200.
      199. 175. 204. 189. 126. 76. 187. 128. 78. 178. 127. 77. 166. 126.
      84. 126. 102. 80. 135. 122. 114. 210. 201. 204. 206. 199. 206.
      194. 188. 189. 198. 203. 206. 172. 202. 213. 108. 166. 191. 128.
      78. 180. 126. 79. 170. 129. 90. 129. 105. 77. 163. 154. 144. 195.
      194. 196. 195. 194. 203. 187. 188. 198. 201. 205. 210. 172. 193.
      208. 98. 153. 184. 43. 132. 191. 123. 80. 177. 124. 87. 131. 103.
      79. 186. 174. 162. 193. 193. 187. 194. 198. 193. 199. 200. 198.
      194. 205. 209. 162. 189. 209. 94. 147. 184. 55. 144. 205. 42. 160.
      182. 125. 86. 154. 110. 79. 194. 174. 163. 205. 200. 197. 202.
      200. 199. 198. 201. 199. 198. 205. 202. 169. 192. 200. 81. 134.
      167. 65. 148. 204. 38. 151. 231. 14. 149. 164. 132. 96. 162. 137.
      111. 216. 200. 193. 209. 200. 203. 207. 198. 201. 204. 203. 207.
      188. 202. 208. 83. 126. 147. 69. 153. 201. 46. 157. 229. 20. 148.
      237. 13. 152. 163. 135. 100. 144. 120. 92. 186. 169. 160. 214.
      204. 204. 211. 202. 205. 192. 191. 200. 183. 199. 211. 131. 175.
      198. 55. 133. 180. 43. 150. 218. 27. 156. 243. 3. 147. 176. 127.
      89. 182. 141. 108. 135. 111. 89. 193. 183. 173. 199. 201. 201.
      192. 202. 209. 187. 202. 211. 177. 202. 218. 122. 162. 191. 64.
      136. 183. 38. 159. 228. 5. 153. 194. 132. 91. 183. 131. 91. 167.
      132. 99. 132. 115. 94. 184. 187. 178. 194. 206. 208. 198. 208.
      215. 187. 197. 207. 190. 207. 220. 109. 154. 181. 52. 149. 199.
      22. 152. 195. 127. 80. 202. 140. 94. 178. 129. 85. 169. 138. 105.
      121. 114. 97. 191. 195. 190. 201. 201. 201. 201. 203. 204. 198.
      207. 204. 176. 204. 211. 90. 149. 181. 56. 149. 202. 131. 81. 201.
      135. 84. 197. 138. 88. 178. 132. 91. 159. 134. 108. 137. 126. 112.
      205. 197. 190. 211. 208. 203. 196. 202. 191. 196. 210. 208. 169.
      199. 216. 84. 143. 204. 136. 83. 200. 134. 81. 200. 135. 84. 192.
      133. 87. 187. 135. 99. 168. 133. 107. 150. 138. 120. 200. 202.
      190. 200. 206. 195. 206. 213. 210. 195. 205. 212. 161. 192. 202.
      137. 82. 203. 138. 83. 205. 139. 86. 200. 134. 85. 201. 136. 92.
      186. 136. 100. 141. 118. 92. 172. 165. 148. 208. 206. 198. 208.
      209. 205. 198. 200. 200. 190. 206. 199. 135. 81. 206. 140. 87.
      207. 138. 88. 198. 132. 81. 200. 134. 85. 196. 141. 98. 171. 132.
      100. 140. 115. 95. 188. 172. 166. 203. 198. 197. 209. 213. 207.
      191. 204. 202. 137. 86. 205. 139. 88. 206. 137. 87. 202. 136. 85.
      201. 138. 87. 201. 143. 94. 191. 139. 102. 174. 132. 109. 129.
      102. 92. 205. 193. 187. 203. 204. 194. 204. 212. 206. 140. 91.
      204. 138. 89. 205. 138. 89. 203. 140. 89. 198. 140. 88. 196. 138.
      89. 199. 137. 97. 194. 138. 109. 172. 137. 117. 115. 96. 81. 204.
      196. 183. 213. 214. 206. 140. 92. 204. 138. 89. 203. 140. 90. 204.
      144. 92. 202. 142. 90. 197. 136. 86. 199. 134. 90. 196. 136. 100.
      187. 143. 112. 171. 139. 116. 131. 108. 92. 205. 195. 204. 137.
      92. 203. 139. 91. 201. 143. 91. 203. 143. 89. 211. 143. 90. 208.
      142. 91. 200. 142. 93. 193. 141. 95. 190. 136. 95. 191. 143. 109.
      176. 138. 114. 137. 112. 205. 140. 96. 206. 142. 94. 201. 144. 89.
      201. 143. 84. 209. 142. 87. 211. 146. 91. 200. 146. 91. 195. 142.
      91. 201. 142. 93. 196. 135. 95. 192. 141. 109. 175. 136. 206. 142.
      101. 208. 144. 96. 209. 143. 90. 206. 144. 84. 202. 145. 83. 202.
      148. 85. 202. 146. 87. 202. 142. 88. 207. 142. 91. 215. 150. 105.
      202. 140. 100. 188. 137. 202. 141. 97. 204. 142. 94. 211. 145. 92.
      211. 148. 90. 204. 149. 88. 202. 148. 87. 207. 147. 88. 210. 146.
      91. 212. 146. 93. 202. 135. 86. 208. 141. 96. 201. 144. 208. 147.
      97. 208. 148. 96. 209. 146. 95. 207. 147. 95. 205. 147. 95. 205.
      147. 95. 208. 146. 92. 210. 146. 92. 208. 142. 89. 211. 147. 93.
      209. 146. 96. 197. 140. 209. 149. 95. 209. 149. 97. 206. 147. 97.
      206. 147. 97. 206. 147. 98. 206. 147. 97. 207. 146. 96. 209. 147.
      93. 216. 150. 97. 208. 144. 90. 215. 152. 101. 199. 140. 210. 150.
      98. 210. 150. 98. 207. 148. 98. 206. 149. 98. 206. 148. 99. 207.
      148. 98. 208. 147. 97. 210. 148. 94. 214. 148. 95. 207. 143. 89.
      213. 150. 99. 215. 156.</_>
    <_>
      60. 64. 59. 101. 105. 99. 101. 101. 95. 61. 62. 53. 106. 105. 95.
      46. 45. 35. 25. 26. 16. 33. 34. 24. 135. 137. 131. 161. 163. 157.
      204. 205. 196. 219. 218. 49. 52. 50. 66. 67. 63. 78. 78. 72. 52.
      52. 46. 88. 86. 78. 34. 35. 26. 36. 37. 28. 36. 39. 30. 137. 139.
      133. 128. 130. 124. 99. 100. 91. 149. 150. 42. 42. 42. 46. 47. 45.
      54. 52. 51. 42. 41. 37. 92. 91. 87. 42. 41. 37. 32. 31. 27. 30.
      31. 27. 82. 83. 79. 95. 99. 93. 117. 120. 111. 88. 89. 47. 47. 47.
      48. 48. 48. 50. 48. 48. 50. 48. 48. 93. 91. 91. 54. 54. 54. 31.
      31. 31. 28. 29. 27. 49. 52. 50. 98. 102. 97. 124. 127. 118. 146.
      148. 45. 44. 46. 39. 38. 40. 45. 44. 46. 51. 50. 52. 52. 51. 55.
      45. 46. 50. 36. 38. 39. 28. 30. 31. 30. 33. 31. 111. 115. 110.
      147. 150. 141. 140. 143. 40. 39. 41. 42. 41. 43. 37. 36. 40. 39.
      40. 44. 33. 33. 39. 48. 48. 54. 32. 33. 37. 27. 29. 30. 29. 29.
      29. 98. 100. 94. 226. 227. 217. 217. 218. 41. 43. 43. 50. 52. 52.
      35. 37. 38. 33. 36. 40. 41. 44. 49. 60. 63. 68. 33. 34. 38. 33.
      32. 34. 35. 33. 32. 77. 74. 69. 171. 170. 156. 143. 142. 38. 41.
      39. 34. 39. 37. 32. 36. 37. 32. 35. 39. 28. 31. 35. 51. 54. 58.
      41. 43. 44. 36. 34. 34. 33. 30. 26. 46. 41. 32. 88. 83. 68. 81.
      75. 40. 46. 41. 36. 42. 37. 44. 49. 47. 37. 43. 42. 31. 35. 36.
      36. 38. 39. 31. 31. 31. 46. 43. 39. 38. 30. 23. 41. 32. 22. 74.
      66. 49. 109. 99. 68. 75. 68. 43. 50. 43. 70. 76. 71. 91. 96. 94.
      57. 62. 61. 40. 41. 39. 46. 43. 39. 34. 28. 21. 41. 32. 22. 78.
      67. 53. 106. 96. 79. 110. 100. 57. 62. 53. 57. 65. 55. 67. 74. 67.
      90. 96. 91. 83. 87. 82. 37. 37. 31. 42. 40. 30. 47. 41. 28. 70.
      61. 47. 107. 97. 80. 119. 109. 92. 109. 100. 79. 83. 72. 115. 121.
      110. 73. 78. 69. 69. 73. 67. 97. 100. 91. 116. 115. 105. 54. 51.
      37. 63. 56. 39. 108. 98. 80. 116. 106. 88. 113. 105. 88. 111. 105.
      43. 44. 34. 119. 120. 110. 150. 151. 142. 137. 138. 129. 131. 130.
      120. 110. 108. 97. 63. 59. 41. 106. 99. 80. 121. 112. 92. 117.
      110. 91. 114. 108. 95. 104. 104. 49. 47. 37. 99. 98. 88. 99. 97.
      89. 124. 123. 113. 140. 138. 127. 91. 88. 73. 99. 93. 74. 115.
      108. 88. 119. 111. 88. 117. 111. 92. 110. 108. 97. 84. 89. 27. 21.
      14. 104. 98. 91. 95. 89. 82. 109. 107. 97. 103. 100. 86. 97. 93.
      75. 112. 107. 86. 113. 107. 84. 117. 111. 88. 109. 105. 86. 92.
      93. 84. 62. 74. 36. 30. 23. 38. 33. 24. 125. 119. 108. 82. 76. 63.
      109. 102. 85. 111. 105. 86. 105. 98. 78. 111. 105. 86. 112. 109.
      94. 91. 94. 85. 65. 77. 79. 49. 68. 31. 30. 20. 38. 36. 25. 74.
      67. 50. 98. 89. 69. 122. 110. 86. 115. 103. 79. 105. 98. 79. 105.
      103. 93. 85. 90. 91. 60. 76. 88. 46. 70. 92. 43. 72. 32. 35. 26.
      52. 52. 40. 102. 95. 78. 115. 104. 82. 113. 99. 71. 114. 101. 75.
      115. 105. 87. 92. 90. 80. 55. 64. 68. 62. 80. 97. 43. 71. 101. 25.
      59. 31. 35. 29. 43. 44. 34. 91. 88. 73. 118. 109. 89. 118. 105.
      79. 116. 103. 77. 116. 105. 83. 101. 96. 81. 69. 74. 72. 58. 70.
      80. 46. 69. 91. 38. 69. 24. 31. 28. 26. 30. 24. 55. 55. 43. 93.
      87. 68. 121. 111. 87. 122. 109. 83. 112. 100. 76. 111. 104. 85.
      103. 102. 92. 69. 77. 77. 52. 69. 82. 50. 77. 21. 29. 28. 26. 33.
      30. 40. 43. 34. 60. 57. 42. 90. 83. 63. 115. 105. 81. 115. 104.
      77. 112. 102. 78. 110. 106. 88. 103. 106. 97. 73. 85. 87. 46. 68.
      23. 31. 31. 22. 28. 27. 39. 43. 38. 50. 49. 39. 52. 47. 32. 87.
      80. 60. 115. 105. 81. 117. 107. 83. 117. 109. 86. 118. 115. 100.
      100. 104. 98. 68. 83. 24. 29. 32. 15. 20. 21. 30. 35. 34. 45. 46.
      42. 33. 32. 22. 55. 49. 36. 87. 80. 61. 114. 103. 81. 124. 114.
      90. 115. 108. 88. 113. 113. 97. 100. 107. 22. 25. 29. 21. 24. 28.
      24. 27. 31. 35. 37. 38. 28. 29. 27. 34. 31. 26. 50. 44. 33. 87.
      79. 62. 117. 106. 86. 122. 114. 91. 118. 111. 91. 110. 110. 28.
      27. 29. 15. 16. 20. 24. 24. 30. 35. 38. 43. 35. 38. 43. 30. 32.
      33. 28. 27. 23. 40. 35. 26. 83. 74. 60. 113. 104. 84. 126. 115.
      93. 119. 112. 27. 22. 24. 29. 26. 28. 17. 17. 23. 28. 30. 38. 25.
      30. 39. 23. 26. 34. 29. 30. 34. 32. 29. 25. 52. 45. 36. 82. 74.
      57. 110. 99. 79. 120. 109. 36. 30. 31. 26. 21. 23. 26. 24. 30. 99.
      100. 110. 100. 104. 115. 29. 33. 44. 12. 15. 23. 32. 31. 33. 36.
      31. 28. 47. 41. 30. 80. 70. 53. 111. 100. 28. 23. 22. 33. 28. 29.
      18. 17. 21. 43. 45. 53. 54. 58. 69. 23. 27. 38. 22. 27. 36. 24.
      27. 32. 37. 35. 35. 35. 32. 24. 54. 46. 33. 81. 71. 27. 23. 22.
      25. 20. 21. 20. 19. 23. 27. 27. 33. 49. 52. 60. 28. 33. 42. 27.
      33. 40. 28. 32. 37. 31. 33. 34. 36. 37. 35. 43. 40. 32. 42. 39.
      33. 29. 28. 23. 21. 21. 28. 27. 29. 24. 25. 29. 44. 47. 52. 38.
      42. 47. 29. 33. 38. 26. 30. 35. 27. 32. 35. 31. 36. 35. 37. 38.
      34. 34. 35. 36. 34. 34. 20. 20. 20. 18. 18. 18. 21. 20. 22. 29.
      31. 32. 38. 40. 41. 27. 30. 34. 26. 31. 34. 32. 37. 40. 28. 33.
      34. 29. 35. 34. 37. 42. 27. 27. 27. 26. 29. 27. 19. 19. 19. 22.
      25. 23. 26. 26. 26. 53. 55. 55. 42. 47. 46. 30. 34. 35. 32. 37.
      38. 33. 41. 41. 31. 36. 37. 33. 39. 28. 31. 29. 23. 29. 24. 20.
      23. 21. 14. 20. 15. 28. 31. 29. 74. 79. 77. 52. 57. 55. 39. 44.
      43. 34. 39. 38. 32. 38. 37. 33. 38. 37. 32. 37. 32. 36. 31. 30.
      36. 31. 31. 35. 30. 27. 33. 28. 32. 36. 31. 54. 60. 55. 38. 41.
      39. 28. 33. 31. 34. 37. 35. 32. 37. 35. 34. 37. 35. 32. 37. 55.
      56. 52. 55. 59. 54. 60. 61. 57. 58. 62. 57. 55. 56. 52. 48. 52.
      47. 44. 45. 41. 40. 44. 39. 42. 43. 39. 40. 44. 39. 43. 44. 42.
      42. 45.</_>
    <_>
      101. 105. 94. 97. 95. 85. 128. 115. 107. 135. 113. 107. 137. 109.
      102. 175. 149. 142. 157. 142. 133. 127. 117. 107. 116. 100. 93.
      155. 142. 134. 133. 126. 117. 104. 105. 97. 100. 91. 96. 95. 85.
      128. 116. 110. 134. 116. 109. 124. 102. 96. 170. 151. 143. 154.
      139. 130. 133. 118. 109. 121. 103. 96. 154. 141. 133. 127. 120.
      111. 108. 109. 96. 100. 94. 95. 96. 87. 123. 112. 108. 127. 115.
      109. 109. 101. 94. 161. 152. 143. 150. 134. 127. 134. 115. 108.
      122. 100. 94. 163. 145. 138. 139. 134. 125. 106. 107. 99. 98. 94.
      93. 92. 88. 105. 101. 96. 114. 110. 105. 105. 106. 97. 143. 140.
      132. 149. 133. 126. 133. 114. 107. 120. 101. 94. 158. 145. 137.
      126. 124. 114. 107. 106. 101. 93. 93. 93. 89. 88. 85. 91. 86. 94.
      102. 95. 103. 106. 97. 118. 112. 105. 138. 125. 117. 132. 116.
      109. 109. 100. 90. 152. 148. 137. 134. 132. 122. 137. 135. 103.
      92. 94. 98. 94. 93. 83. 90. 87. 83. 91. 84. 94. 95. 86. 90. 85.
      76. 114. 105. 96. 124. 115. 105. 109. 107. 96. 145. 145. 133. 197.
      195. 185. 177. 171. 104. 96. 97. 99. 95. 94. 88. 86. 85. 78. 78.
      72. 90. 82. 75. 86. 79. 70. 88. 88. 76. 116. 118. 106. 117. 121.
      109. 206. 208. 196. 182. 177. 168. 196. 190. 99. 93. 94. 94. 89.
      88. 84. 79. 76. 72. 66. 61. 87. 78. 69. 99. 93. 82. 85. 85. 71.
      121. 126. 111. 190. 197. 184. 186. 190. 179. 181. 178. 170. 193.
      188. 100. 92. 92. 108. 101. 98. 106. 97. 93. 75. 67. 60. 92. 83.
      74. 133. 127. 116. 123. 117. 104. 180. 179. 165. 186. 190. 178.
      175. 181. 170. 195. 195. 189. 236. 232. 101. 92. 89. 100. 94. 89.
      124. 118. 111. 91. 86. 77. 87. 81. 70. 115. 107. 94. 139. 130.
      117. 198. 192. 179. 173. 175. 163. 191. 196. 187. 233. 234. 232.
      233. 234. 103. 92. 88. 95. 89. 84. 97. 95. 87. 81. 80. 70. 70. 66.
      55. 78. 70. 57. 161. 149. 137. 186. 177. 167. 201. 199. 191. 226.
      227. 225. 238. 239. 243. 232. 241. 88. 82. 77. 85. 81. 76. 79. 77.
      69. 76. 75. 65. 59. 55. 44. 86. 80. 69. 177. 170. 161. 194. 188.
      181. 238. 234. 233. 235. 238. 242. 225. 234. 244. 205. 234. 60.
      60. 54. 70. 67. 62. 92. 84. 77. 94. 87. 78. 68. 61. 52. 149. 148.
      138. 181. 189. 179. 229. 236. 233. 237. 238. 242. 226. 232. 243.
      211. 237. 253. 131. 192. 71. 71. 65. 64. 61. 56. 109. 100. 96. 93.
      83. 76. 139. 133. 126. 190. 191. 182. 219. 229. 223. 229. 243.
      242. 226. 238. 244. 208. 235. 249. 139. 197. 216. 105. 201. 83.
      76. 73. 96. 90. 85. 103. 97. 92. 149. 145. 140. 189. 186. 181.
      235. 237. 231. 240. 243. 241. 223. 236. 238. 207. 238. 247. 143.
      204. 218. 98. 200. 218. 77. 211. 65. 52. 50. 91. 80. 76. 141. 137.
      132. 189. 190. 181. 234. 231. 226. 240. 238. 237. 239. 240. 244.
      215. 236. 244. 143. 202. 217. 100. 198. 216. 76. 210. 234. 65.
      221. 113. 92. 90. 131. 117. 111. 200. 199. 189. 228. 232. 221.
      244. 241. 233. 240. 238. 238. 228. 234. 245. 179. 219. 237. 98.
      194. 218. 79. 211. 241. 62. 213. 250. 54. 216. 118. 99. 96. 156.
      144. 138. 187. 188. 178. 233. 237. 226. 244. 241. 233. 244. 242.
      241. 226. 235. 245. 159. 201. 220. 104. 199. 225. 82. 215. 249.
      60. 217. 255. 41. 208. 114. 105. 102. 105. 99. 94. 157. 158. 148.
      197. 198. 188. 238. 237. 227. 235. 237. 231. 234. 241. 244. 201.
      227. 241. 132. 190. 212. 106. 204. 234. 57. 206. 240. 48. 221.
      108. 107. 103. 111. 111. 105. 75. 78. 69. 165. 169. 158. 192. 196.
      184. 236. 240. 229. 231. 234. 232. 238. 250. 255. 202. 233. 248.
      111. 179. 202. 92. 218. 243. 53. 213. 102. 105. 103. 120. 124.
      119. 75. 82. 75. 66. 74. 63. 159. 166. 153. 200. 204. 192. 240.
      237. 229. 237. 238. 236. 226. 238. 244. 189. 231. 244. 103. 190.
      210. 83. 210. 95. 98. 96. 119. 125. 120. 88. 96. 89. 43. 52. 42.
      66. 74. 63. 165. 167. 155. 219. 213. 202. 243. 238. 229. 232. 235.
      233. 218. 240. 245. 173. 226. 239. 98. 187. 97. 95. 94. 108. 111.
      109. 92. 102. 96. 39. 50. 42. 49. 54. 45. 77. 76. 66. 184. 175.
      165. 219. 213. 202. 241. 246. 237. 227. 242. 238. 219. 241. 247.
      174. 220. 74. 70. 69. 92. 90. 89. 62. 69. 66. 40. 47. 44. 45. 44.
      40. 61. 58. 50. 93. 86. 77. 189. 185. 174. 212. 219. 206. 235.
      244. 234. 237. 242. 243. 216. 236. 69. 64. 61. 69. 66. 62. 59. 60.
      58. 38. 38. 38. 38. 30. 31. 50. 40. 40. 39. 35. 30. 86. 87. 77.
      181. 190. 177. 215. 225. 213. 235. 241. 236. 227. 234. 58. 54. 49.
      83. 80. 76. 61. 59. 58. 64. 58. 59. 55. 41. 45. 62. 49. 51. 46.
      42. 41. 43. 47. 41. 95. 105. 93. 182. 195. 181. 221. 229. 219.
      238. 241. 74. 71. 66. 57. 54. 50. 82. 77. 76. 67. 59. 60. 70. 55.
      59. 128. 113. 117. 59. 53. 54. 55. 59. 54. 46. 60. 49. 118. 135.
      122. 183. 193. 181. 229. 231. 77. 74. 69. 53. 50. 46. 85. 80. 79.
      65. 57. 58. 61. 46. 50. 96. 81. 85. 59. 51. 52. 58. 59. 57. 48.
      61. 53. 47. 63. 52. 134. 142. 131. 183. 184. 91. 87. 82. 75. 72.
      67. 94. 91. 87. 71. 66. 65. 69. 59. 59. 62. 50. 50. 68. 58. 58.
      48. 45. 41. 47. 60. 52. 59. 73. 62. 82. 80. 72. 141. 138. 92. 85.
      82. 65. 61. 56. 93. 92. 88. 51. 51. 45. 66. 62. 57. 72. 66. 61.
      66. 57. 53. 49. 45. 40. 62. 70. 60. 76. 84. 74. 80. 77. 69. 91.
      85. 85. 75. 75. 78. 71. 68. 88. 90. 84. 53. 58. 49. 57. 61. 50.
      64. 65. 55. 60. 59. 49. 56. 54. 44. 70. 64. 57. 69. 63. 56. 79.
      75. 70. 99. 94. 87. 77. 77. 76. 71. 68. 74. 76. 70. 57. 62. 53.
      56. 62. 51. 71. 75. 64. 43. 44. 34. 48. 46. 36. 60. 51. 47. 70.
      64. 59. 75. 72. 68. 114. 111. 67. 64. 60. 83. 80. 76. 84. 83. 79.
      68. 68. 62. 44. 44. 38. 41. 42. 33. 50. 50. 44. 40. 40. 34. 47.
      45. 44. 64. 62. 61. 76. 74. 73. 152. 151. 46. 45. 41. 51. 50. 46.
      59. 56. 52. 63. 60. 56. 49. 46. 41. 37. 34. 29. 42. 41. 37. 40.
      41. 37. 44. 44. 44. 59. 61. 61. 93. 94. 92. 158. 159. 37. 36. 32.
      35. 34. 30. 42. 39. 35. 56. 53. 49. 50. 47. 42. 36. 33. 28. 37.
      36. 32. 38. 39. 35. 44. 44. 44. 53. 55. 55. 91. 92. 90. 142. 143.</_>
    <_>
      40. 84. 77. 25. 66. 58. 41. 75. 68. 28. 60. 49. 31. 58. 48. 28.
      61. 47. 42. 78. 66. 27. 70. 57. 42. 83. 75. 55. 96. 88. 45. 82.
      74. 57. 94. 37. 84. 75. 50. 95. 86. 47. 84. 74. 20. 52. 41. 21.
      48. 38. 24. 54. 43. 37. 71. 60. 18. 58. 47. 17. 60. 51. 46. 91.
      82. 51. 94. 83. 52. 94. 21. 75. 62. 39. 90. 76. 22. 65. 50. 20.
      55. 41. 33. 60. 50. 28. 53. 43. 27. 55. 49. 16. 50. 43. 16. 61.
      52. 36. 89. 76. 28. 83. 68. 30. 83. 36. 91. 76. 34. 88. 71. 11.
      58. 42. 21. 62. 47. 33. 66. 52. 29. 56. 46. 30. 59. 50. 40. 73.
      66. 18. 61. 52. 47. 100. 87. 45. 101. 88. 45. 101. 46. 95. 79. 45.
      97. 80. 38. 87. 71. 34. 81. 65. 22. 65. 50. 30. 69. 54. 33. 68.
      54. 43. 77. 66. 34. 74. 63. 36. 79. 70. 29. 78. 70. 42. 90. 38.
      83. 66. 40. 88. 70. 46. 98. 81. 45. 99. 82. 32. 84. 66. 42. 90.
      72. 37. 79. 61. 35. 73. 55. 43. 77. 66. 36. 70. 63. 46. 83. 81.
      59. 95. 43. 82. 66. 39. 82. 67. 36. 87. 73. 45. 100. 85. 40. 98.
      80. 39. 95. 74. 40. 88. 64. 38. 77. 55. 31. 62. 47. 42. 65. 60.
      62. 81. 86. 74. 91. 28. 67. 51. 43. 86. 71. 39. 87. 75. 46. 99.
      86. 41. 96. 79. 24. 77. 57. 22. 70. 46. 13. 52. 30. 18. 44. 30.
      54. 70. 63. 71. 80. 84. 87. 92. 52. 97. 81. 29. 74. 58. 43. 86.
      75. 48. 91. 80. 56. 100. 87. 13. 56. 41. 7. 46. 30. 14. 48. 31.
      32. 57. 43. 66. 81. 73. 98. 103. 102. 129. 130. 26. 71. 55. 24.
      67. 52. 24. 62. 50. 38. 74. 62. 37. 72. 62. 31. 65. 55. 41. 74.
      67. 51. 78. 69. 72. 91. 82. 86. 97. 87. 143. 147. 141. 146. 147.
      38. 77. 62. 42. 78. 64. 56. 89. 75. 27. 57. 46. 47. 75. 69. 32.
      59. 56. 40. 65. 69. 70. 91. 93. 88. 102. 100. 138. 146. 139. 135.
      139. 127. 137. 142. 26. 59. 45. 27. 60. 46. 37. 65. 52. 53. 78.
      68. 39. 62. 58. 33. 54. 56. 72. 89. 98. 87. 102. 111. 135. 147.
      149. 131. 140. 137. 139. 147. 137. 124. 138. 50. 75. 65. 39. 64.
      54. 52. 77. 67. 57. 80. 72. 60. 81. 78. 75. 92. 95. 93. 104. 112.
      128. 137. 147. 137. 145. 152. 130. 141. 145. 127. 142. 145. 113.
      139. 44. 69. 59. 31. 55. 47. 48. 71. 63. 66. 86. 81. 87. 99. 99.
      100. 109. 112. 148. 153. 156. 135. 139. 144. 124. 132. 139. 130.
      146. 158. 99. 126. 147. 54. 95. 27. 58. 49. 46. 74. 68. 63. 84.
      82. 91. 103. 103. 116. 118. 118. 149. 145. 144. 141. 135. 130.
      145. 143. 142. 140. 152. 158. 94. 121. 141. 58. 102. 143. 34. 94.
      29. 58. 49. 60. 86. 80. 89. 105. 104. 114. 122. 122. 147. 144.
      146. 149. 143. 144. 145. 143. 143. 138. 147. 151. 89. 117. 134.
      55. 100. 134. 30. 91. 147. 22. 95. 45. 64. 55. 98. 115. 106. 118.
      129. 126. 142. 148. 147. 148. 147. 151. 137. 139. 150. 124. 138.
      156. 79. 111. 140. 40. 96. 137. 25. 95. 149. 25. 102. 171. 16. 95.
      75. 89. 83. 75. 88. 80. 146. 153. 148. 141. 146. 144. 135. 137.
      138. 134. 143. 153. 112. 133. 154. 58. 96. 130. 28. 90. 138. 33.
      108. 170. 17. 96. 169. 13. 94. 102. 116. 115. 59. 73. 69. 99. 106.
      101. 147. 154. 147. 141. 148. 141. 136. 147. 145. 122. 141. 149.
      100. 131. 154. 55. 99. 140. 38. 97. 153. 28. 98. 168. 17. 93. 77.
      92. 94. 148. 162. 160. 75. 85. 79. 112. 120. 109. 141. 150. 137.
      143. 154. 144. 132. 144. 144. 117. 136. 149. 94. 122. 153. 48. 88.
      137. 37. 95. 160. 27. 100. 78. 96. 97. 75. 92. 89. 66. 76. 70. 61.
      71. 59. 123. 133. 117. 143. 153. 137. 143. 150. 143. 138. 144.
      149. 128. 137. 157. 93. 115. 151. 45. 90. 141. 32. 99. 106. 127.
      124. 70. 87. 83. 75. 88. 80. 48. 57. 47. 73. 82. 69. 133. 140.
      127. 144. 145. 136. 148. 146. 145. 143. 142. 152. 130. 141. 163.
      74. 109. 143. 32. 90. 49. 73. 63. 64. 85. 76. 75. 90. 82. 45. 55.
      49. 64. 70. 65. 69. 71. 65. 159. 155. 150. 152. 146. 141. 149.
      144. 143. 140. 146. 151. 113. 139. 155. 57. 104. 82. 107. 93. 155.
      178. 164. 143. 160. 151. 114. 125. 122. 116. 121. 120. 141. 141.
      141. 83. 78. 75. 154. 148. 143. 149. 143. 136. 145. 149. 144. 132.
      151. 154. 105. 139. 103. 126. 111. 178. 201. 187. 192. 211. 202.
      146. 159. 157. 127. 132. 135. 215. 214. 218. 136. 134. 134. 96.
      93. 88. 139. 142. 133. 148. 156. 146. 129. 143. 139. 131. 150.
      125. 148. 134. 159. 181. 169. 178. 199. 191. 187. 201. 199. 99.
      106. 109. 201. 204. 208. 180. 182. 182. 136. 142. 137. 95. 106.
      96. 122. 133. 123. 145. 155. 149. 133. 143. 93. 114. 106. 88. 109.
      101. 107. 130. 122. 127. 147. 142. 82. 96. 92. 152. 163. 160. 193.
      204. 201. 162. 178. 171. 89. 110. 101. 86. 104. 97. 135. 144. 141.
      140. 144. 61. 82. 79. 51. 73. 68. 46. 70. 62. 65. 89. 81. 54. 75.
      66. 89. 110. 101. 118. 139. 130. 111. 136. 126. 88. 117. 108. 58.
      82. 74. 88. 101. 99. 129. 135. 50. 72. 70. 39. 64. 60. 45. 73. 67.
      55. 85. 74. 46. 74. 61. 52. 82. 69. 63. 93. 80. 56. 89. 75. 59.
      93. 82. 50. 79. 70. 53. 72. 69. 91. 104. 43. 70. 66. 35. 62. 58.
      43. 74. 67. 41. 75. 64. 45. 80. 66. 42. 78. 64. 44. 83. 67. 39.
      78. 62. 41. 77. 63. 47. 79. 68. 48. 75. 66. 46. 66. 56. 87. 80.
      50. 81. 74. 24. 58. 48. 36. 71. 61. 34. 74. 62. 40. 83. 70. 29.
      72. 57. 38. 80. 63. 47. 85. 67. 44. 80. 64. 43. 79. 63. 23. 56.
      58. 89. 80. 37. 68. 59. 33. 64. 55. 38. 71. 64. 57. 94. 86. 43.
      83. 72. 64. 107. 94. 60. 101. 86. 54. 93. 77. 58. 95. 79. 42. 81.
      65. 39. 75. 51. 80. 71. 37. 64. 55. 42. 68. 62. 44. 69. 65. 54.
      81. 78. 45. 74. 71. 82. 116. 110. 73. 111. 105. 51. 92. 84. 54.
      96. 85. 32. 72. 61. 57. 92. 31. 58. 49. 45. 72. 63. 51. 72. 69.
      63. 84. 81. 50. 71. 72. 46. 70. 70. 62. 93. 92. 40. 75. 71. 48.
      89. 84. 56. 98. 91. 45. 86. 78. 69. 103. 35. 62. 53. 101. 128.
      119. 109. 130. 127. 111. 132. 129. 40. 61. 62. 37. 61. 61. 61. 92.
      91. 53. 88. 84. 41. 82. 77. 40. 82. 75. 37. 78. 70. 54. 88.</_>
    <_>
      217. 191. 151. 215. 190. 150. 215. 189. 152. 211. 190. 152. 211.
      189. 153. 210. 191. 154. 209. 192. 153. 210. 193. 154. 215. 195.
      154. 210. 190. 149. 213. 193. 152. 211. 191. 217. 190. 153. 216.
      190. 153. 214. 191. 153. 212. 190. 154. 210. 191. 154. 210. 191.
      154. 209. 191. 154. 209. 192. 153. 208. 189. 151. 209. 189. 148.
      211. 191. 150. 208. 189. 216. 190. 154. 215. 191. 155. 213. 191.
      155. 211. 191. 156. 211. 191. 156. 209. 191. 154. 208. 190. 153.
      208. 191. 152. 206. 187. 149. 213. 194. 156. 211. 192. 154. 204.
      185. 215. 191. 155. 213. 191. 155. 212. 192. 157. 211. 192. 157.
      210. 191. 156. 209. 190. 155. 208. 189. 154. 207. 189. 152. 211.
      192. 155. 208. 189. 151. 208. 189. 151. 212. 194. 213. 191. 156.
      212. 192. 157. 212. 191. 159. 211. 192. 159. 211. 192. 159. 208.
      192. 156. 208. 189. 154. 208. 190. 153. 208. 189. 152. 208. 189.
      152. 204. 186. 149. 208. 189. 212. 192. 157. 212. 192. 157. 211.
      192. 159. 211. 192. 159. 211. 192. 159. 210. 191. 158. 209. 190.
      155. 210. 190. 155. 208. 189. 152. 209. 189. 154. 217. 198. 163.
      194. 176. 212. 192. 157. 212. 192. 157. 211. 192. 159. 211. 192.
      159. 211. 192. 159. 211. 190. 158. 211. 191. 156. 213. 191. 156.
      210. 188. 153. 215. 195. 160. 201. 181. 150. 148. 132. 213. 193.
      158. 212. 192. 157. 212. 191. 159. 212. 191. 159. 211. 190. 158.
      211. 190. 158. 214. 192. 157. 214. 192. 157. 211. 189. 154. 207.
      186. 154. 153. 135. 106. 109. 94. 212. 190. 154. 219. 197. 161.
      212. 190. 155. 218. 196. 161. 209. 187. 152. 214. 192. 157. 214.
      189. 155. 212. 190. 155. 213. 190. 158. 179. 159. 128. 113. 99.
      71. 114. 103. 216. 194. 158. 214. 192. 156. 212. 190. 155. 208.
      186. 151. 222. 200. 165. 206. 184. 149. 220. 197. 165. 214. 191.
      159. 184. 163. 132. 101. 84. 57. 117. 104. 82. 112. 105. 218. 196.
      160. 209. 187. 151. 212. 190. 155. 220. 198. 163. 205. 182. 150.
      215. 192. 160. 221. 197. 167. 190. 168. 140. 113. 94. 67. 116.
      102. 80. 113. 105. 88. 103. 103. 213. 191. 156. 213. 193. 158.
      211. 189. 154. 213. 192. 160. 211. 190. 158. 207. 186. 155. 201.
      180. 152. 135. 115. 90. 111. 97. 75. 117. 107. 89. 99. 97. 86. 98.
      104. 211. 190. 158. 209. 190. 157. 213. 192. 160. 207. 187. 156.
      212. 191. 163. 213. 194. 167. 116. 99. 73. 112. 98. 76. 115. 105.
      87. 105. 101. 90. 94. 98. 93. 91. 104. 208. 188. 157. 214. 196.
      165. 214. 194. 163. 211. 193. 164. 214. 195. 168. 135. 118. 92.
      111. 94. 73. 107. 95. 77. 100. 92. 79. 102. 102. 96. 102. 112.
      112. 49. 68. 210. 192. 163. 209. 193. 164. 214. 195. 168. 203.
      186. 160. 149. 131. 108. 106. 89. 68. 114. 100. 82. 113. 104. 90.
      109. 107. 97. 87. 92. 90. 62. 76. 82. 55. 81. 211. 197. 168. 202.
      188. 160. 212. 195. 169. 157. 139. 116. 101. 81. 63. 115. 99. 82.
      110. 99. 85. 104. 99. 90. 94. 97. 95. 76. 91. 94. 52. 77. 87. 43.
      79. 201. 193. 164. 202. 191. 163. 183. 167. 144. 106. 86. 68. 116.
      95. 80. 116. 98. 87. 112. 100. 94. 95. 96. 94. 73. 88. 91. 49. 78.
      87. 31. 74. 89. 30. 80. 202. 196. 167. 187. 179. 150. 95. 79. 56.
      122. 103. 82. 123. 102. 87. 118. 99. 91. 108. 97. 93. 84. 88. 89.
      55. 75. 80. 44. 80. 90. 34. 83. 99. 24. 81. 206. 198. 168. 137.
      127. 97. 112. 98. 70. 114. 96. 73. 116. 96. 78. 122. 106. 93. 106.
      99. 90. 87. 90. 88. 53. 72. 75. 46. 79. 88. 38. 83. 97. 28. 81.
      206. 195. 163. 176. 165. 133. 118. 104. 75. 111. 94. 67. 127. 111.
      88. 116. 104. 86. 105. 99. 86. 98. 100. 94. 72. 86. 85. 52. 78.
      84. 37. 74. 88. 31. 78. 214. 202. 168. 204. 191. 159. 184. 169.
      137. 110. 96. 67. 111. 98. 72. 116. 105. 83. 104. 100. 82. 104.
      106. 94. 90. 100. 94. 67. 87. 88. 45. 76. 85. 35. 76. 202. 187.
      155. 218. 203. 171. 215. 200. 168. 179. 165. 136. 106. 95. 67.
      101. 94. 69. 110. 105. 84. 102. 102. 86. 96. 101. 92. 86. 99. 97.
      68. 90. 95. 48. 78. 211. 193. 164. 209. 193. 164. 206. 192. 163.
      203. 192. 162. 190. 182. 152. 117. 111. 82. 100. 95. 70. 106. 102.
      83. 101. 100. 86. 100. 104. 98. 90. 100. 100. 67. 86. 214. 195.
      168. 210. 193. 166. 211. 197. 169. 207. 197. 167. 206. 198. 168.
      186. 180. 151. 113. 106. 79. 101. 95. 72. 109. 103. 84. 106. 103.
      89. 101. 101. 95. 87. 95. 210. 192. 169. 209. 193. 170. 207. 194.
      168. 199. 191. 162. 204. 199. 168. 204. 199. 168. 198. 190. 161.
      116. 107. 80. 104. 91. 69. 117. 105. 87. 115. 106. 93. 97. 93.
      212. 193. 172. 204. 187. 166. 213. 199. 176. 208. 199. 172. 200.
      194. 165. 195. 190. 159. 211. 201. 171. 193. 181. 153. 125. 110.
      84. 106. 89. 68. 115. 99. 82. 112. 100. 215. 198. 179. 201. 187.
      165. 206. 194. 170. 205. 196. 169. 204. 198. 169. 205. 199. 170.
      208. 198. 168. 211. 200. 170. 200. 183. 156. 128. 111. 85. 111.
      94. 73. 121. 107. 210. 193. 172. 211. 197. 175. 209. 197. 173.
      199. 190. 163. 201. 193. 164. 210. 202. 173. 206. 196. 166. 204.
      193. 163. 221. 205. 176. 206. 189. 162. 127. 110. 84. 109. 95.
      178. 163. 137. 197. 182. 156. 206. 193. 167. 211. 200. 172. 208.
      197. 169. 203. 193. 163. 208. 198. 168. 212. 201. 171. 205. 194.
      164. 207. 195. 167. 204. 191. 165. 138. 126. 177. 163. 134. 149.
      135. 106. 149. 135. 106. 189. 178. 148. 215. 204. 174. 204. 194.
      164. 206. 196. 166. 208. 198. 168. 204. 194. 164. 201. 190. 162.
      213. 204. 177. 204. 195. 210. 195. 162. 126. 111. 78. 113. 98. 66.
      159. 146. 114. 206. 193. 161. 208. 197. 165. 208. 198. 168. 204.
      196. 166. 205. 199. 170. 201. 195. 166. 194. 190. 162. 203. 199.
      204. 189. 156. 133. 118. 85. 150. 135. 102. 180. 167. 135. 208.
      195. 163. 208. 197. 167. 208. 198. 168. 207. 199. 169. 202. 197.
      166. 201. 196. 165. 210. 206. 177. 196. 192. 211. 198. 166. 208.
      195. 163. 173. 159. 130. 203. 192. 162. 209. 198. 168. 208. 198.
      168. 208. 197. 167. 209. 199. 169. 209. 200. 167. 209. 200. 167.
      201. 194. 161. 199. 197. 212. 199. 167. 209. 196. 164. 172. 160.
      132. 203. 191. 163. 208. 197. 169. 209. 198. 170. 208. 197. 167.
      210. 199. 167. 205. 194. 162. 209. 200. 166. 209. 200. 166. 202.
      198. 212. 199. 167. 210. 197. 165. 172. 160. 132. 204. 192. 164.
      208. 197. 169. 210. 199. 171. 209. 198. 168. 211. 200. 168. 211.
      200. 168. 209. 200. 166. 207. 198. 164. 199. 195.</_>
    <_>
      71. 106. 119. 126. 156. 167. 87. 108. 116. 66. 80. 86. 59. 66. 69.
      73. 84. 82. 42. 56. 54. 48. 70. 65. 52. 74. 69. 35. 55. 50. 21.
      34. 32. 51. 57. 78. 113. 123. 70. 101. 110. 41. 63. 69. 42. 58.
      64. 42. 51. 54. 33. 44. 42. 45. 59. 55. 36. 53. 49. 43. 60. 56.
      27. 44. 40. 34. 45. 43. 43. 49. 78. 110. 116. 95. 125. 130. 33.
      58. 62. 38. 59. 61. 47. 61. 60. 25. 36. 34. 32. 41. 38. 34. 43.
      40. 29. 38. 35. 23. 32. 29. 42. 50. 49. 45. 53. 58. 87. 91. 55.
      84. 88. 37. 65. 66. 35. 59. 59. 57. 75. 74. 49. 62. 60. 31. 38.
      35. 38. 43. 41. 36. 41. 39. 56. 63. 60. 34. 42. 41. 62. 73. 38.
      66. 67. 57. 85. 85. 41. 69. 69. 42. 69. 66. 54. 75. 72. 59. 73.
      71. 52. 58. 57. 44. 46. 46. 49. 54. 52. 51. 58. 55. 43. 57. 53.
      56. 71. 62. 88. 88. 52. 78. 78. 44. 72. 72. 45. 72. 69. 71. 92.
      90. 55. 69. 67. 72. 80. 79. 62. 68. 67. 69. 76. 73. 71. 82. 79.
      36. 52. 45. 61. 77. 134. 159. 161. 29. 54. 56. 76. 101. 103. 74.
      98. 98. 93. 113. 114. 49. 65. 64. 61. 74. 72. 60. 73. 71. 75. 90.
      86. 60. 76. 69. 31. 50. 41. 58. 71. 57. 84. 88. 72. 97. 99. 54.
      79. 83. 96. 119. 121. 57. 78. 80. 35. 55. 56. 44. 62. 61. 59. 76.
      72. 51. 69. 62. 43. 60. 51. 51. 65. 54. 95. 103. 60. 89. 94. 65.
      94. 98. 59. 83. 89. 127. 152. 156. 56. 78. 83. 43. 66. 68. 34. 56.
      54. 29. 49. 44. 26. 43. 34. 55. 64. 54. 95. 96. 86. 180. 173. 54.
      84. 89. 81. 110. 115. 91. 117. 123. 120. 144. 150. 43. 68. 72. 53.
      78. 80. 70. 92. 90. 67. 84. 80. 66. 74. 67. 90. 89. 79. 145. 134.
      126. 240. 224. 73. 104. 107. 82. 113. 116. 70. 99. 104. 29. 55.
      61. 45. 72. 76. 55. 78. 80. 54. 73. 70. 55. 65. 59. 84. 81. 73.
      126. 113. 105. 249. 225. 219. 234. 214. 89. 117. 118. 75. 103.
      104. 50. 77. 81. 33. 60. 64. 83. 105. 110. 62. 82. 83. 83. 96. 94.
      75. 76. 72. 117. 105. 99. 241. 222. 215. 238. 216. 211. 231. 218.
      63. 85. 83. 74. 98. 96. 58. 82. 82. 21. 42. 43. 40. 58. 59. 84.
      96. 96. 96. 99. 97. 115. 109. 104. 222. 208. 202. 239. 223. 217.
      212. 203. 199. 207. 215. 49. 66. 62. 36. 56. 51. 24. 42. 41. 16.
      32. 31. 39. 50. 48. 80. 83. 81. 121. 115. 110. 215. 203. 197. 233.
      220. 212. 216. 210. 203. 216. 225. 222. 189. 220. 49. 62. 54. 45.
      58. 50. 36. 47. 44. 58. 65. 62. 66. 67. 65. 96. 89. 86. 203. 189.
      183. 228. 215. 207. 230. 223. 214. 195. 206. 198. 187. 221. 215.
      119. 179. 54. 65. 57. 52. 63. 55. 53. 61. 54. 46. 50. 44. 83. 77.
      72. 183. 171. 165. 236. 216. 211. 228. 214. 208. 209. 210. 206.
      196. 220. 218. 125. 182. 183. 83. 167. 37. 48. 46. 35. 44. 41. 52.
      60. 53. 70. 73. 64. 183. 177. 166. 231. 216. 207. 231. 211. 206.
      230. 216. 217. 208. 217. 221. 137. 176. 185. 85. 163. 176. 64.
      169. 45. 53. 52. 29. 38. 35. 76. 84. 77. 169. 173. 162. 217. 211.
      198. 221. 209. 197. 237. 218. 213. 223. 212. 214. 161. 174. 182.
      105. 150. 164. 87. 173. 191. 54. 169. 25. 32. 29. 33. 39. 34. 101.
      109. 99. 182. 186. 175. 217. 211. 198. 230. 220. 210. 226. 215.
      207. 219. 215. 214. 164. 183. 188. 107. 153. 164. 83. 164. 179.
      70. 178. 38. 45. 40. 27. 35. 28. 54. 63. 53. 105. 111. 100. 184.
      182. 171. 229. 223. 212. 219. 212. 203. 212. 211. 207. 209. 224.
      226. 154. 192. 197. 84. 150. 161. 70. 163. 21. 36. 28. 37. 53. 42.
      29. 43. 32. 63. 72. 62. 100. 104. 93. 180. 179. 169. 229. 223.
      216. 219. 215. 210. 204. 209. 207. 201. 222. 224. 157. 201. 208.
      88. 158. 29. 50. 41. 8. 29. 20. 29. 48. 39. 36. 53. 44. 90. 101.
      93. 101. 108. 101. 187. 188. 179. 225. 222. 217. 222. 219. 214.
      202. 209. 206. 192. 215. 217. 132. 178. 21. 44. 36. 51. 75. 67.
      47. 70. 65. 34. 57. 52. 37. 59. 54. 66. 82. 75. 103. 114. 106.
      190. 193. 184. 225. 219. 212. 209. 203. 196. 212. 213. 211. 193.
      212. 58. 81. 76. 98. 121. 116. 60. 84. 82. 12. 39. 36. 32. 59. 56.
      24. 49. 45. 64. 85. 77. 110. 124. 113. 200. 201. 191. 230. 224.
      213. 218. 210. 203. 213. 216. 70. 91. 89. 90. 112. 110. 61. 84.
      86. 4. 29. 31. 16. 47. 46. 36. 69. 65. 64. 98. 91. 96. 123. 113.
      100. 117. 103. 205. 210. 195. 225. 219. 208. 218. 212. 47. 71. 71.
      56. 79. 81. 45. 67. 72. 7. 32. 36. 28. 56. 57. 45. 77. 76. 56. 94.
      88. 96. 132. 120. 103. 129. 115. 106. 121. 107. 184. 184. 172.
      216. 211. 13. 47. 47. 40. 71. 72. 43. 65. 70. 24. 44. 49. 55. 74.
      77. 55. 79. 79. 100. 132. 127. 78. 113. 103. 50. 83. 69. 107. 132.
      118. 114. 126. 114. 185. 186. 16. 56. 55. 19. 55. 55. 25. 48. 50.
      26. 43. 46. 22. 35. 37. 86. 104. 105. 96. 120. 118. 61. 93. 88.
      86. 121. 111. 71. 103. 92. 146. 167. 158. 123. 131. 43. 86. 83.
      23. 60. 56. 23. 47. 45. 30. 46. 45. 18. 29. 27. 78. 91. 89. 76.
      94. 93. 79. 103. 101. 71. 102. 99. 113. 145. 140. 109. 134. 130.
      165. 182. 31. 65. 59. 13. 43. 38. 16. 38. 33. 24. 39. 35. 64. 78.
      72. 74. 89. 85. 78. 99. 96. 82. 108. 108. 74. 105. 106. 116. 147.
      148. 108. 138. 139. 153. 174. 41. 56. 52. 24. 40. 33. 37. 52. 44.
      11. 28. 17. 19. 38. 29. 55. 79. 71. 87. 117. 112. 146. 180. 179.
      59. 94. 98. 153. 187. 193. 104. 133. 140. 70. 94. 60. 67. 64. 26.
      33. 28. 30. 43. 35. 17. 34. 23. 24. 45. 36. 24. 51. 42. 73. 103.
      98. 77. 109. 108. 47. 80. 83. 119. 149. 154. 108. 136. 143. 45.
      67. 62. 70. 69. 42. 53. 50. 19. 30. 27. 9. 24. 20. 6. 23. 19. 40.
      60. 55. 55. 77. 75. 28. 50. 48. 77. 101. 101. 70. 91. 92. 76. 96.
      97. 61. 77. 92. 103. 101. 55. 66. 64. 34. 47. 45. 48. 62. 60. 64.
      78. 76. 38. 55. 52. 49. 67. 66. 66. 84. 83. 97. 116. 113. 74. 91.
      88. 88. 102. 100. 81. 95. 47. 58. 56. 52. 63. 61. 55. 67. 67. 61.
      75. 74. 102. 116. 115. 55. 71. 70. 51. 69. 68. 60. 78. 77. 89.
      106. 103. 109. 126. 123. 70. 85. 81. 137. 151.</_>
    <_>
      93. 151. 123. 91. 148. 123. 98. 150. 133. 97. 140. 129. 98. 130.
      125. 99. 124. 120. 119. 147. 141. 122. 155. 141. 98. 134. 117.
      112. 152. 127. 136. 173. 147. 135. 172. 106. 158. 134. 114. 166.
      143. 118. 165. 149. 114. 156. 145. 121. 154. 147. 128. 156. 150.
      142. 169. 160. 126. 154. 141. 122. 156. 139. 138. 176. 154. 141.
      181. 156. 129. 168. 115. 159. 142. 98. 140. 123. 98. 134. 120.
      124. 160. 148. 129. 164. 154. 106. 140. 130. 130. 154. 144. 140.
      164. 152. 105. 134. 119. 123. 159. 142. 136. 181. 162. 138. 180.
      109. 145. 133. 114. 150. 138. 121. 153. 142. 147. 177. 164. 142.
      175. 161. 119. 149. 136. 135. 158. 144. 140. 160. 147. 129. 154.
      140. 124. 154. 141. 148. 189. 174. 148. 184. 108. 141. 134. 127.
      161. 151. 126. 156. 145. 125. 151. 137. 115. 138. 123. 111. 133.
      115. 124. 141. 127. 121. 140. 125. 138. 160. 148. 114. 138. 128.
      109. 133. 125. 118. 139. 117. 150. 143. 128. 159. 150. 129. 156.
      146. 137. 160. 146. 130. 146. 129. 117. 131. 113. 107. 125. 108.
      111. 130. 115. 130. 150. 138. 129. 148. 139. 133. 142. 139. 136.
      141. 111. 142. 133. 116. 146. 135. 116. 140. 128. 115. 132. 119.
      115. 122. 107. 114. 124. 108. 98. 117. 102. 104. 130. 114. 124.
      146. 134. 133. 146. 138. 135. 130. 129. 144. 130. 107. 138. 123.
      108. 134. 120. 116. 134. 121. 120. 132. 120. 117. 124. 111. 112.
      122. 109. 89. 112. 97. 109. 135. 121. 119. 139. 126. 131. 140.
      130. 141. 128. 126. 214. 192. 124. 152. 132. 111. 136. 116. 109.
      119. 106. 107. 115. 104. 96. 110. 99. 101. 121. 109. 116. 140.
      128. 111. 134. 120. 103. 120. 107. 145. 149. 138. 204. 193. 189.
      226. 205. 94. 123. 98. 110. 133. 111. 104. 117. 101. 118. 130.
      118. 111. 128. 119. 107. 128. 120. 138. 155. 146. 122. 133. 123.
      147. 151. 140. 200. 197. 189. 212. 201. 197. 208. 194. 84. 115.
      88. 96. 126. 101. 108. 132. 114. 106. 129. 115. 110. 128. 121.
      111. 122. 119. 123. 121. 120. 154. 145. 142. 213. 198. 195. 209.
      194. 191. 212. 202. 202. 202. 200. 102. 133. 106. 97. 129. 105.
      96. 126. 107. 123. 147. 135. 125. 139. 133. 115. 115. 115. 164.
      150. 152. 217. 196. 199. 225. 200. 204. 213. 196. 199. 202. 198.
      204. 186. 200. 89. 116. 96. 90. 118. 99. 91. 122. 107. 104. 126.
      114. 120. 121. 117. 163. 150. 152. 218. 195. 200. 222. 195. 204.
      217. 193. 203. 210. 198. 210. 186. 194. 211. 128. 159. 86. 104.
      91. 96. 116. 103. 106. 126. 114. 107. 118. 110. 158. 151. 148.
      220. 202. 203. 221. 198. 203. 211. 189. 201. 208. 197. 213. 179.
      185. 204. 130. 155. 181. 110. 160. 98. 104. 99. 107. 111. 105.
      116. 113. 108. 170. 164. 159. 218. 207. 203. 209. 195. 196. 203.
      192. 195. 205. 201. 212. 168. 180. 198. 132. 162. 187. 103. 157.
      188. 83. 153. 118. 116. 116. 115. 110. 109. 174. 161. 159. 215.
      200. 197. 212. 197. 195. 212. 201. 203. 202. 200. 206. 175. 188.
      202. 120. 154. 177. 100. 155. 186. 84. 157. 195. 75. 158. 98. 93.
      95. 174. 168. 169. 214. 201. 199. 214. 199. 197. 212. 194. 195.
      202. 192. 198. 186. 192. 205. 126. 155. 176. 99. 156. 188. 78.
      157. 198. 68. 155. 205. 66. 154. 96. 96. 96. 178. 174. 173. 209.
      197. 195. 216. 198. 197. 220. 199. 201. 214. 200. 206. 170. 175.
      190. 123. 153. 178. 92. 152. 188. 75. 156. 201. 65. 156. 207. 61.
      152. 94. 102. 95. 103. 105. 99. 182. 172. 165. 216. 197. 192. 219.
      195. 195. 214. 194. 199. 199. 195. 207. 156. 172. 195. 110. 153.
      186. 87. 151. 192. 67. 152. 198. 61. 153. 91. 108. 95. 101. 109.
      98. 117. 112. 103. 189. 173. 166. 216. 193. 191. 216. 195. 198.
      207. 193. 204. 190. 191. 211. 146. 168. 196. 108. 153. 190. 78.
      148. 188. 67. 156. 92. 111. 94. 94. 107. 91. 110. 110. 96. 120.
      111. 101. 189. 173. 167. 213. 195. 194. 206. 188. 195. 201. 188.
      202. 185. 186. 207. 148. 169. 197. 104. 155. 188. 77. 152. 79.
      101. 82. 70. 89. 70. 101. 108. 93. 120. 120. 108. 124. 118. 111.
      187. 176. 172. 212. 193. 196. 214. 195. 204. 208. 193. 207. 184.
      185. 206. 138. 167. 194. 92. 149. 84. 105. 83. 95. 115. 96. 88.
      104. 87. 118. 131. 117. 123. 131. 121. 112. 112. 106. 189. 177.
      175. 212. 193. 196. 214. 190. 198. 209. 192. 205. 177. 183. 202.
      132. 163. 104. 126. 107. 89. 114. 94. 80. 103. 88. 97. 120. 106.
      107. 124. 115. 96. 104. 97. 121. 117. 112. 191. 176. 174. 213.
      189. 189. 216. 193. 197. 206. 194. 206. 175. 185. 88. 116. 97. 70.
      100. 81. 70. 101. 86. 77. 107. 96. 98. 123. 113. 84. 99. 91. 104.
      106. 100. 117. 109. 102. 198. 182. 176. 213. 192. 190. 214. 195.
      198. 192. 184. 89. 121. 104. 76. 110. 93. 60. 95. 81. 78. 110. 99.
      93. 117. 109. 82. 99. 90. 84. 91. 84. 108. 107. 97. 126. 120. 109.
      189. 178. 170. 209. 192. 189. 199. 184. 91. 128. 112. 62. 99. 83.
      58. 94. 80. 89. 121. 110. 96. 117. 109. 87. 102. 94. 88. 96. 89.
      83. 91. 80. 97. 104. 91. 121. 123. 111. 195. 188. 179. 209. 196.
      86. 123. 107. 57. 93. 77. 60. 95. 81. 82. 109. 99. 91. 110. 101.
      81. 96. 88. 96. 107. 99. 87. 101. 90. 74. 88. 76. 94. 107. 93.
      109. 110. 100. 193. 184. 76. 108. 91. 77. 109. 92. 68. 94. 80. 63.
      87. 75. 82. 99. 88. 72. 87. 79. 83. 98. 90. 106. 123. 114. 106.
      123. 112. 94. 110. 99. 92. 101. 91. 123. 125. 72. 96. 78. 83. 107.
      89. 72. 93. 78. 84. 102. 89. 85. 103. 90. 85. 102. 91. 78. 97. 88.
      93. 112. 103. 103. 121. 114. 95. 111. 104. 88. 102. 96. 94. 101.
      77. 91. 73. 77. 91. 73. 80. 94. 76. 103. 121. 104. 87. 108. 93.
      88. 113. 99. 90. 111. 102. 89. 107. 100. 79. 93. 89. 114. 125.
      123. 83. 96. 94. 77. 91. 78. 87. 67. 78. 89. 69. 84. 95. 75. 89.
      105. 87. 81. 102. 87. 74. 99. 89. 97. 120. 115. 122. 141. 138. 78.
      91. 89. 90. 101. 99. 87. 101. 100. 91. 108. 84. 96. 74. 87. 99.
      77. 80. 92. 70. 87. 101. 83. 74. 91. 80. 104. 125. 122. 88. 112.
      112. 78. 99. 100. 78. 95. 92. 58. 73. 69. 72. 86. 84. 92. 111. 78.
      94. 77. 84. 100. 82. 98. 112. 94. 98. 115. 102. 80. 101. 99. 81.
      107. 113. 66. 96. 107. 60. 88. 99. 55. 79. 85. 55. 77. 82. 66. 91.
      95. 67. 93. 78. 101. 93. 65. 88. 80. 75. 96. 88. 71. 95. 93. 70.
      101. 110. 70. 106. 124. 71. 111. 136. 69. 109. 137. 77. 114. 136.
      71. 108. 128. 77. 116. 138. 74. 115.</_>
    <_>
      112. 150. 132. 104. 146. 128. 104. 149. 132. 89. 134. 117. 93.
      129. 115. 94. 124. 111. 110. 138. 125. 123. 151. 138. 107. 135.
      122. 115. 148. 134. 136. 169. 155. 134. 169. 113. 151. 133. 112.
      152. 134. 113. 155. 138. 111. 153. 136. 125. 161. 147. 128. 161.
      147. 136. 164. 151. 130. 158. 145. 117. 147. 134. 148. 181. 167.
      143. 179. 165. 119. 154. 118. 154. 138. 113. 149. 133. 115. 145.
      132. 124. 154. 141. 122. 157. 143. 109. 144. 130. 129. 159. 148.
      139. 169. 158. 107. 139. 128. 118. 154. 142. 132. 172. 160. 147.
      183. 115. 151. 135. 114. 147. 132. 117. 143. 130. 142. 168. 155.
      143. 173. 160. 120. 153. 139. 130. 157. 147. 131. 161. 150. 121.
      155. 144. 120. 156. 144. 156. 194. 182. 155. 185. 111. 147. 133.
      125. 158. 144. 123. 151. 138. 131. 155. 143. 127. 149. 137. 117.
      139. 127. 122. 148. 135. 114. 142. 129. 114. 147. 133. 110. 143.
      129. 118. 143. 133. 131. 150. 110. 145. 131. 131. 164. 150. 137.
      165. 152. 141. 166. 152. 125. 142. 131. 107. 125. 112. 102. 126.
      114. 101. 129. 116. 135. 163. 150. 126. 150. 138. 123. 136. 128.
      132. 138. 122. 151. 136. 116. 145. 130. 111. 137. 123. 119. 142.
      127. 113. 130. 117. 106. 123. 109. 99. 124. 110. 108. 137. 122.
      119. 143. 131. 133. 149. 138. 136. 133. 128. 129. 120. 106. 131.
      117. 112. 138. 122. 117. 140. 125. 119. 140. 125. 107. 124. 110.
      105. 124. 109. 93. 120. 104. 101. 128. 112. 130. 148. 135. 137.
      144. 137. 131. 119. 117. 200. 182. 128. 147. 132. 120. 139. 122.
      114. 130. 113. 90. 108. 91. 99. 123. 105. 93. 121. 102. 92. 120.
      101. 114. 135. 120. 115. 125. 113. 130. 127. 122. 189. 175. 176.
      229. 207. 105. 127. 109. 117. 136. 119. 100. 116. 99. 122. 140.
      123. 98. 125. 105. 110. 136. 118. 152. 171. 154. 120. 130. 117.
      130. 128. 120. 194. 182. 180. 217. 200. 203. 208. 189. 89. 116.
      100. 103. 129. 113. 95. 117. 99. 95. 114. 97. 108. 127. 110. 116.
      132. 115. 137. 141. 129. 133. 128. 119. 195. 178. 175. 221. 200.
      203. 221. 200. 209. 209. 194. 83. 114. 99. 95. 124. 108. 102. 129.
      113. 133. 154. 139. 126. 139. 125. 119. 121. 109. 124. 117. 108.
      205. 188. 185. 231. 209. 211. 214. 191. 199. 209. 192. 206. 199.
      197. 103. 133. 120. 88. 119. 104. 85. 114. 99. 108. 128. 115. 129.
      130. 120. 133. 121. 115. 215. 196. 193. 221. 199. 201. 213. 190.
      198. 217. 200. 214. 198. 193. 214. 154. 171. 84. 105. 96. 86. 108.
      96. 116. 138. 126. 105. 119. 108. 137. 134. 126. 212. 197. 194.
      214. 193. 195. 215. 198. 202. 206. 194. 206. 194. 194. 212. 158.
      175. 201. 117. 155. 96. 102. 97. 104. 108. 102. 103. 107. 101.
      132. 132. 126. 200. 196. 191. 208. 201. 198. 205. 194. 196. 207.
      200. 207. 192. 200. 213. 143. 169. 186. 106. 153. 180. 95. 159.
      122. 117. 116. 119. 114. 113. 144. 137. 134. 200. 193. 190. 204.
      199. 196. 203. 201. 201. 199. 199. 205. 184. 196. 208. 135. 165.
      184. 109. 158. 184. 85. 154. 187. 79. 158. 108. 97. 100. 132. 121.
      123. 212. 200. 200. 211. 199. 199. 201. 191. 191. 209. 208. 212.
      179. 191. 203. 138. 171. 191. 99. 156. 187. 81. 153. 193. 72. 152.
      199. 71. 154. 101. 92. 95. 198. 190. 191. 211. 197. 198. 221. 207.
      208. 213. 199. 200. 193. 187. 192. 164. 175. 189. 113. 147. 171.
      91. 153. 189. 76. 154. 200. 70. 154. 206. 66. 154. 91. 95. 90.
      133. 132. 128. 200. 189. 185. 212. 195. 192. 225. 204. 203. 218.
      203. 207. 193. 191. 203. 147. 165. 188. 105. 150. 183. 88. 154.
      195. 71. 156. 202. 60. 155. 93. 109. 98. 101. 109. 99. 150. 142.
      135. 212. 196. 190. 214. 191. 189. 215. 192. 196. 204. 190. 202.
      177. 181. 200. 132. 159. 186. 102. 154. 190. 75. 152. 191. 59.
      154. 82. 106. 88. 103. 118. 104. 96. 96. 84. 159. 146. 138. 209.
      188. 186. 221. 197. 199. 212. 191. 200. 204. 193. 209. 171. 177.
      200. 131. 161. 190. 86. 149. 183. 63. 151. 83. 110. 90. 82. 102.
      83. 103. 110. 95. 114. 109. 100. 156. 144. 138. 210. 192. 191.
      218. 196. 201. 203. 186. 197. 204. 194. 211. 164. 175. 197. 115.
      158. 185. 83. 152. 71. 97. 74. 76. 98. 79. 95. 111. 94. 131. 139.
      128. 96. 98. 92. 151. 146. 143. 208. 196. 196. 212. 195. 199. 213.
      194. 203. 195. 188. 203. 159. 176. 195. 118. 161. 93. 118. 98. 88.
      113. 93. 76. 99. 84. 119. 139. 127. 111. 126. 118. 104. 111. 106.
      160. 157. 153. 204. 192. 192. 208. 187. 190. 212. 196. 203. 195.
      192. 207. 152. 171. 101. 125. 107. 85. 111. 95. 74. 104. 91. 75.
      107. 96. 99. 126. 117. 83. 101. 94. 94. 101. 96. 160. 156. 151.
      202. 189. 187. 213. 195. 196. 203. 187. 194. 188. 185. 92. 117.
      103. 68. 97. 82. 60. 94. 83. 74. 109. 99. 96. 127. 120. 79. 103.
      95. 77. 91. 85. 105. 109. 103. 176. 170. 163. 204. 192. 188. 221.
      200. 202. 207. 192. 93. 123. 110. 71. 104. 90. 66. 102. 90. 80.
      115. 105. 86. 114. 108. 73. 96. 88. 81. 97. 90. 88. 99. 91. 98.
      103. 94. 168. 165. 157. 198. 183. 180. 206. 189. 95. 128. 114. 73.
      106. 92. 61. 95. 84. 84. 115. 106. 96. 120. 112. 86. 107. 99. 90.
      106. 99. 82. 97. 89. 91. 102. 92. 94. 99. 90. 191. 185. 180. 206.
      192. 85. 116. 101. 70. 101. 86. 56. 84. 71. 76. 101. 91. 89. 108.
      99. 81. 97. 90. 86. 100. 94. 94. 109. 101. 81. 96. 88. 92. 103.
      95. 94. 98. 92. 171. 168. 80. 107. 91. 76. 103. 87. 67. 90. 76.
      76. 96. 84. 76. 93. 82. 69. 84. 76. 78. 92. 86. 103. 117. 111.
      116. 130. 124. 112. 124. 118. 89. 99. 93. 95. 101. 78. 100. 82.
      74. 96. 78. 79. 97. 80. 93. 108. 94. 91. 108. 95. 92. 108. 97. 83.
      98. 90. 91. 105. 99. 107. 116. 113. 97. 108. 105. 81. 95. 91. 86.
      97. 67. 85. 68. 69. 87. 70. 86. 102. 85. 93. 110. 96. 85. 103. 90.
      97. 114. 103. 97. 112. 104. 108. 120. 114. 81. 90. 87. 112. 123.
      121. 85. 99. 97. 77. 94. 75. 90. 76. 66. 83. 69. 74. 95. 80. 88.
      111. 97. 71. 96. 82. 81. 103. 91. 89. 104. 96. 116. 128. 122. 77.
      87. 81. 82. 93. 90. 84. 101. 97. 84. 106. 81. 95. 83. 78. 96. 83.
      75. 98. 84. 74. 100. 86. 73. 99. 86. 104. 128. 116. 94. 109. 101.
      79. 92. 84. 79. 89. 83. 68. 82. 76. 70. 87. 83. 76. 99. 76. 90.
      78. 82. 100. 87. 89. 112. 98. 84. 110. 96. 68. 94. 81. 88. 112.
      100. 81. 96. 88. 75. 88. 80. 70. 80. 74. 62. 76. 70. 76. 93. 89.
      86. 109.</_>
    <_>
      114. 95. 88. 154. 139. 130. 101. 95. 84. 72. 75. 59. 75. 83. 66.
      58. 70. 50. 92. 102. 85. 75. 81. 64. 80. 78. 67. 98. 89. 79. 118.
      102. 96. 196. 180. 111. 98. 90. 124. 115. 106. 151. 147. 136. 77.
      77. 63. 71. 77. 60. 76. 84. 67. 86. 94. 77. 74. 77. 62. 72. 68.
      57. 111. 102. 93. 111. 97. 91. 128. 114. 91. 92. 83. 126. 127.
      117. 135. 134. 124. 89. 89. 77. 66. 66. 54. 98. 98. 84. 56. 56.
      42. 69. 67. 56. 83. 79. 68. 127. 118. 109. 99. 87. 81. 85. 73. 77.
      82. 73. 87. 92. 83. 117. 120. 111. 75. 76. 66. 66. 65. 55. 90. 88.
      78. 64. 62. 52. 79. 74. 65. 70. 63. 54. 126. 117. 108. 157. 147.
      140. 107. 97. 91. 93. 87. 71. 73. 67. 69. 73. 67. 72. 77. 68. 111.
      116. 107. 55. 58. 49. 70. 68. 60. 77. 71. 64. 83. 73. 66. 173.
      163. 156. 165. 155. 148. 85. 77. 162. 158. 153. 79. 76. 71. 75.
      79. 73. 79. 86. 79. 64. 72. 65. 60. 64. 58. 78. 76. 68. 76. 70.
      63. 86. 76. 69. 108. 98. 91. 112. 104. 97. 110. 104. 105. 93. 87.
      87. 79. 72. 72. 75. 66. 66. 75. 65. 55. 66. 58. 70. 77. 70. 93.
      93. 87. 86. 80. 75. 83. 75. 68. 88. 82. 75. 106. 104. 94. 76. 75.
      193. 183. 173. 129. 122. 113. 71. 72. 62. 99. 104. 95. 89. 96. 89.
      76. 80. 74. 69. 66. 61. 104. 98. 91. 86. 80. 73. 76. 73. 65. 105.
      106. 96. 213. 214. 140. 137. 123. 109. 108. 94. 78. 77. 67. 109.
      107. 99. 88. 85. 80. 88. 84. 79. 77. 71. 64. 83. 77. 70. 80. 74.
      67. 124. 122. 112. 200. 201. 191. 253. 254. 129. 132. 116. 108.
      109. 93. 81. 79. 68. 97. 92. 83. 94. 86. 79. 96. 87. 83. 91. 85.
      78. 81. 75. 68. 131. 126. 117. 220. 215. 206. 249. 243. 236. 239.
      235. 86. 95. 75. 84. 90. 73. 79. 77. 66. 98. 91. 82. 99. 91. 84.
      90. 84. 77. 89. 86. 78. 122. 119. 111. 222. 213. 204. 242. 228.
      222. 255. 243. 240. 252. 239. 63. 72. 52. 83. 89. 72. 92. 90. 79.
      81. 76. 67. 84. 78. 71. 85. 79. 72. 108. 106. 98. 220. 217. 209.
      251. 239. 233. 255. 242. 239. 251. 233. 234. 241. 234. 93. 96. 80.
      85. 86. 70. 73. 71. 60. 85. 83. 73. 105. 102. 94. 86. 82. 77. 230.
      226. 221. 238. 232. 227. 253. 242. 238. 244. 234. 234. 246. 240.
      245. 224. 236. 86. 87. 71. 73. 73. 59. 83. 82. 72. 108. 105. 97.
      85. 79. 74. 239. 230. 226. 243. 232. 228. 247. 238. 235. 235. 230.
      227. 242. 246. 247. 224. 244. 249. 128. 170. 93. 96. 81. 78. 81.
      66. 69. 70. 60. 111. 108. 100. 238. 226. 222. 249. 229. 228. 255.
      236. 235. 254. 238. 239. 238. 240. 240. 209. 235. 235. 125. 181.
      186. 122. 204. 62. 68. 57. 92. 96. 85. 140. 141. 131. 223. 216.
      207. 254. 235. 230. 254. 229. 227. 255. 231. 233. 246. 237. 240.
      203. 223. 228. 126. 178. 184. 116. 203. 213. 93. 203. 80. 87. 82.
      143. 147. 141. 223. 221. 211. 237. 225. 213. 255. 230. 220. 255.
      235. 228. 247. 232. 230. 211. 222. 226. 141. 189. 201. 117. 199.
      217. 95. 205. 229. 73. 196. 104. 111. 106. 179. 183. 177. 242.
      238. 227. 246. 235. 221. 252. 229. 214. 249. 227. 216. 251. 242.
      239. 183. 199. 205. 136. 191. 206. 117. 203. 227. 85. 198. 230.
      73. 199. 82. 87. 78. 130. 131. 121. 207. 204. 190. 244. 235. 221.
      251. 236. 220. 250. 236. 224. 239. 230. 226. 216. 225. 229. 156.
      193. 207. 132. 199. 220. 104. 201. 229. 90. 205. 64. 68. 56. 78.
      78. 64. 125. 122. 107. 227. 220. 205. 247. 238. 224. 240. 232.
      219. 250. 244. 239. 233. 238. 239. 198. 218. 229. 142. 188. 206.
      125. 200. 226. 98. 196. 93. 96. 80. 111. 112. 96. 111. 104. 87.
      150. 141. 127. 240. 235. 220. 239. 235. 224. 242. 240. 232. 231.
      233. 233. 236. 242. 249. 188. 211. 226. 128. 177. 199. 130. 205.
      106. 110. 91. 110. 110. 92. 114. 105. 91. 141. 130. 116. 164. 158.
      145. 237. 235. 224. 245. 246. 237. 237. 238. 234. 242. 241. 243.
      223. 230. 239. 189. 215. 231. 139. 189. 72. 78. 59. 80. 80. 64.
      103. 91. 79. 115. 98. 89. 154. 143. 135. 153. 148. 139. 216. 217.
      208. 238. 240. 234. 234. 233. 229. 245. 244. 246. 236. 243. 252.
      182. 208. 69. 72. 56. 69. 69. 53. 83. 68. 59. 101. 83. 76. 131.
      115. 109. 109. 98. 94. 124. 122. 114. 219. 222. 213. 243. 241.
      233. 248. 245. 240. 242. 237. 238. 226. 234. 67. 66. 52. 62. 59.
      45. 94. 81. 73. 119. 102. 99. 111. 93. 92. 83. 68. 66. 93. 87. 82.
      155. 154. 144. 229. 229. 217. 248. 246. 235. 253. 245. 238. 249.
      245. 79. 71. 58. 84. 75. 65. 104. 94. 87. 101. 89. 85. 150. 135.
      133. 137. 122. 120. 153. 141. 137. 174. 167. 158. 187. 186. 172.
      234. 234. 218. 250. 242. 229. 250. 243. 90. 75. 66. 95. 82. 74.
      92. 86. 79. 165. 159. 154. 114. 102. 100. 86. 71. 69. 80. 63. 60.
      158. 145. 137. 135. 129. 116. 181. 181. 165. 247. 244. 229. 252.
      249. 107. 88. 80. 101. 86. 77. 90. 85. 76. 89. 87. 79. 149. 140.
      136. 90. 78. 74. 101. 82. 77. 137. 119. 112. 150. 141. 128. 80.
      77. 62. 193. 193. 177. 246. 246. 90. 72. 61. 88. 74. 62. 78. 72.
      61. 89. 87. 76. 123. 118. 109. 89. 79. 72. 96. 78. 71. 119. 101.
      94. 141. 129. 119. 129. 121. 108. 66. 65. 51. 184. 184. 88. 73.
      57. 76. 66. 49. 77. 70. 55. 93. 87. 74. 70. 64. 53. 96. 87. 77.
      119. 106. 98. 118. 102. 95. 106. 90. 83. 90. 80. 70. 113. 109. 98.
      111. 111. 79. 72. 53. 76. 69. 50. 82. 72. 55. 87. 77. 60. 101. 94.
      79. 106. 98. 85. 102. 93. 83. 102. 91. 83. 117. 101. 94. 168. 154.
      148. 83. 75. 68. 162. 159. 72. 68. 50. 73. 66. 49. 67. 57. 39. 89.
      79. 62. 90. 81. 67. 101. 95. 82. 67. 63. 52. 79. 72. 63. 75. 63.
      57. 122. 110. 104. 120. 111. 107. 145. 141. 78. 73. 64. 66. 60.
      49. 71. 64. 49. 77. 70. 55. 84. 76. 63. 66. 59. 50. 65. 59. 52.
      69. 65. 60. 68. 65. 57. 83. 80. 72. 125. 122. 117. 194. 193. 84.
      78. 73. 68. 63. 54. 69. 63. 50. 73. 68. 53. 78. 72. 61. 61. 55.
      48. 61. 55. 50. 63. 60. 55. 62. 60. 52. 89. 90. 81. 61. 63. 57.
      112. 113. 89. 83. 78. 71. 66. 57. 66. 60. 47. 68. 63. 48. 71. 65.
      54. 55. 49. 42. 53. 47. 42. 55. 52. 47. 54. 52. 44. 60. 61. 52.
      70. 72. 66. 64. 65.</_>
    <_>
      125. 107. 168. 137. 121. 182. 130. 121. 178. 116. 110. 169. 114.
      110. 175. 116. 113. 182. 113. 106. 181. 110. 101. 174. 122. 112.
      182. 104. 96. 156. 111. 106. 157. 109. 108. 121. 111. 171. 134.
      124. 184. 131. 123. 183. 124. 117. 178. 126. 120. 185. 131. 123.
      193. 129. 120. 193. 126. 118. 189. 137. 128. 195. 131. 125. 184.
      109. 105. 157. 83. 83. 118. 123. 178. 127. 129. 187. 127. 127.
      187. 128. 123. 185. 134. 124. 190. 137. 126. 194. 136. 125. 193.
      135. 126. 193. 133. 128. 190. 131. 129. 188. 101. 102. 158. 113.
      116. 119. 132. 184. 122. 132. 186. 127. 128. 189. 128. 124. 190.
      134. 123. 193. 136. 122. 193. 134. 123. 191. 133. 125. 188. 129.
      127. 186. 131. 132. 188. 114. 115. 171. 136. 138. 122. 135. 181.
      122. 130. 183. 126. 126. 190. 128. 124. 195. 132. 122. 198. 133.
      124. 197. 136. 127. 194. 134. 129. 190. 130. 127. 182. 129. 127.
      179. 141. 139. 191. 123. 121. 129. 133. 182. 125. 127. 181. 127.
      125. 191. 130. 126. 198. 131. 123. 200. 132. 125. 200. 134. 130.
      196. 133. 129. 188. 129. 127. 179. 130. 127. 177. 131. 126. 177.
      139. 133. 138. 128. 188. 133. 125. 186. 135. 125. 195. 135. 127.
      198. 129. 122. 197. 129. 125. 196. 130. 128. 194. 126. 124. 184.
      141. 138. 193. 118. 113. 164. 130. 121. 171. 108. 99. 140. 124.
      195. 135. 121. 192. 139. 125. 196. 139. 128. 198. 131. 123. 193.
      132. 128. 194. 133. 130. 192. 124. 122. 182. 127. 123. 182. 117.
      111. 164. 95. 88. 133. 106. 96. 135. 121. 203. 134. 120. 198. 137.
      125. 197. 141. 129. 195. 137. 126. 188. 135. 127. 187. 135. 128.
      189. 134. 127. 188. 133. 128. 189. 131. 127. 179. 76. 72. 113. 89.
      82. 128. 118. 201. 141. 130. 210. 136. 126. 196. 140. 132. 195.
      142. 135. 192. 138. 131. 188. 135. 127. 187. 138. 130. 190. 131.
      125. 180. 132. 127. 172. 105. 100. 131. 171. 166. 127. 121. 198.
      128. 124. 196. 129. 127. 193. 127. 126. 188. 134. 132. 192. 121.
      116. 177. 135. 127. 187. 140. 130. 183. 152. 142. 185. 138. 128.
      158. 169. 161. 172. 231. 226. 135. 132. 201. 127. 125. 191. 131.
      133. 198. 130. 132. 196. 126. 128. 192. 133. 133. 193. 141. 135.
      190. 135. 125. 168. 139. 125. 153. 167. 153. 165. 239. 230. 227.
      232. 230. 132. 126. 185. 127. 125. 185. 124. 126. 190. 127. 132.
      195. 116. 121. 184. 143. 144. 200. 128. 123. 168. 138. 126. 154.
      186. 169. 178. 253. 237. 231. 240. 231. 218. 220. 224. 139. 131.
      191. 129. 124. 185. 135. 134. 196. 127. 130. 191. 133. 135. 193.
      127. 125. 171. 139. 131. 161. 195. 183. 195. 234. 218. 212. 240.
      227. 213. 228. 225. 211. 218. 232. 138. 128. 194. 127. 119. 184.
      138. 130. 193. 129. 123. 180. 135. 130. 175. 129. 122. 149. 191.
      178. 186. 239. 226. 218. 239. 224. 208. 239. 230. 216. 215. 222.
      219. 193. 223. 136. 127. 194. 142. 133. 196. 137. 128. 184. 148.
      139. 182. 125. 118. 145. 184. 178. 189. 250. 241. 237. 236. 228.
      215. 233. 225. 212. 212. 218. 213. 195. 225. 236. 95. 153. 133.
      128. 189. 134. 128. 181. 136. 126. 168. 131. 122. 148. 190. 189.
      198. 225. 229. 224. 216. 220. 209. 221. 226. 217. 222. 229. 232.
      188. 214. 230. 90. 154. 185. 68. 167. 127. 134. 184. 125. 128.
      172. 115. 110. 139. 200. 191. 204. 231. 228. 224. 228. 231. 216.
      225. 230. 215. 214. 222. 215. 200. 215. 224. 117. 157. 182. 76.
      160. 202. 41. 160. 111. 134. 172. 120. 135. 167. 164. 165. 185.
      237. 230. 235. 238. 228. 218. 234. 225. 205. 242. 235. 215. 235.
      237. 225. 147. 163. 169. 121. 165. 189. 72. 157. 202. 39. 157.
      104. 132. 166. 118. 139. 167. 100. 104. 123. 199. 191. 201. 235.
      221. 215. 243. 227. 211. 252. 238. 220. 224. 221. 207. 206. 219.
      221. 112. 152. 171. 85. 162. 201. 55. 162. 111. 133. 169. 115.
      132. 165. 141. 145. 173. 116. 112. 131. 220. 207. 215. 243. 228.
      225. 238. 223. 214. 245. 238. 229. 229. 235. 234. 195. 223. 234.
      89. 145. 174. 78. 163. 110. 122. 164. 142. 152. 192. 135. 138.
      176. 141. 139. 169. 117. 110. 131. 205. 193. 205. 230. 217. 219.
      238. 229. 226. 223. 224. 222. 211. 226. 229. 194. 228. 244. 90.
      150. 110. 110. 158. 148. 148. 196. 130. 135. 180. 118. 121. 165.
      137. 136. 175. 116. 111. 140. 181. 170. 190. 241. 230. 240. 234.
      229. 228. 234. 235. 231. 211. 224. 222. 197. 228. 136. 133. 179.
      120. 120. 166. 120. 126. 171. 131. 137. 182. 124. 128. 169. 128.
      126. 162. 121. 112. 139. 193. 183. 199. 238. 230. 230. 223. 219.
      208. 243. 242. 228. 219. 232. 120. 125. 164. 132. 140. 177. 119.
      131. 165. 119. 131. 165. 125. 129. 164. 123. 120. 152. 145. 135.
      165. 122. 114. 131. 192. 187. 188. 224. 223. 209. 247. 243. 219.
      233. 234. 104. 114. 148. 101. 112. 142. 106. 123. 149. 106. 120.
      143. 126. 131. 156. 123. 122. 148. 128. 122. 147. 118. 112. 129.
      87. 86. 88. 191. 191. 179. 232. 228. 204. 248. 243. 107. 120. 152.
      106. 121. 147. 112. 130. 147. 104. 120. 133. 71. 78. 93. 108. 111.
      126. 91. 89. 108. 97. 96. 112. 92. 96. 101. 85. 89. 83. 200. 196.
      177. 240. 233. 111. 126. 152. 114. 131. 152. 116. 135. 150. 87.
      103. 115. 55. 65. 75. 86. 92. 105. 69. 71. 89. 90. 92. 110. 107.
      113. 124. 95. 100. 103. 112. 109. 101. 194. 185. 119. 134. 153.
      105. 121. 138. 81. 97. 113. 86. 102. 115. 85. 95. 112. 99. 107.
      124. 78. 85. 105. 123. 130. 150. 86. 93. 113. 70. 74. 92. 101. 97.
      109. 140. 130. 75. 97. 102. 92. 111. 118. 79. 96. 109. 91. 105.
      123. 74. 82. 105. 131. 136. 161. 107. 114. 141. 69. 75. 104. 72.
      80. 110. 50. 52. 86. 99. 95. 130. 130. 121. 104. 135. 120. 77.
      104. 95. 82. 100. 107. 91. 102. 122. 87. 91. 120. 116. 116. 152.
      132. 134. 169. 84. 90. 127. 37. 43. 86. 97. 101. 150. 125. 124.
      180. 142. 136. 68. 100. 76. 74. 100. 86. 69. 85. 91. 91. 98. 117.
      110. 113. 141. 140. 141. 175. 126. 128. 163. 95. 97. 137. 71. 73.
      121. 78. 81. 132. 121. 121. 181. 127. 122. 70. 89. 74. 92. 109.
      100. 74. 85. 89. 107. 115. 128. 136. 140. 158. 129. 132. 153. 119.
      121. 151. 99. 99. 135. 109. 108. 148. 126. 125. 167. 134. 133.
      175. 129. 128. 83. 99. 82. 84. 98. 86. 64. 74. 74. 87. 96. 100.
      119. 127. 134. 124. 130. 141. 106. 108. 132. 95. 95. 125. 132.
      131. 163. 133. 132. 164. 137. 139. 169. 132. 134. 141. 157. 133.
      143. 158. 137. 140. 151. 143. 138. 147. 144. 142. 150. 149. 143.
      150. 153. 126. 131. 146. 146. 149. 170. 153. 155. 179. 135. 138.
      159. 142. 146. 165. 138. 141.</_>
    <_>
      121. 125. 136. 124. 131. 140. 120. 128. 135. 116. 129. 131. 116.
      130. 129. 127. 144. 141. 118. 132. 131. 120. 132. 132. 119. 128.
      131. 121. 129. 129. 118. 123. 124. 113. 123. 132. 138. 149. 126.
      133. 142. 121. 131. 138. 102. 114. 116. 111. 125. 124. 109. 123.
      121. 117. 130. 128. 128. 139. 137. 115. 120. 121. 109. 113. 114.
      122. 127. 126. 111. 117. 134. 142. 155. 123. 132. 142. 122. 132.
      139. 110. 122. 124. 133. 146. 144. 121. 132. 129. 115. 124. 121.
      115. 122. 119. 121. 123. 123. 111. 111. 111. 108. 106. 105. 126.
      125. 114. 123. 136. 117. 127. 137. 121. 131. 138. 114. 126. 128.
      126. 137. 135. 121. 130. 127. 117. 124. 119. 130. 134. 129. 120.
      121. 117. 115. 113. 112. 128. 124. 123. 127. 122. 118. 129. 143.
      113. 125. 137. 110. 121. 129. 106. 115. 119. 125. 133. 132. 127.
      134. 129. 115. 122. 115. 109. 116. 109. 110. 114. 108. 134. 135.
      131. 129. 128. 124. 120. 117. 114. 128. 140. 118. 130. 140. 137.
      148. 156. 124. 135. 139. 138. 146. 146. 124. 133. 130. 121. 132.
      124. 115. 123. 116. 122. 130. 123. 133. 141. 134. 160. 164. 158.
      118. 120. 128. 143. 152. 117. 130. 138. 128. 140. 146. 127. 138.
      142. 138. 150. 150. 138. 151. 149. 139. 153. 147. 131. 148. 139.
      146. 163. 154. 137. 154. 145. 126. 140. 129. 112. 122. 131. 147.
      153. 118. 134. 140. 121. 136. 139. 129. 144. 146. 118. 131. 133.
      124. 138. 137. 120. 137. 134. 121. 141. 136. 116. 137. 129. 119.
      138. 129. 116. 132. 121. 130. 140. 122. 141. 144. 112. 131. 134.
      123. 141. 142. 137. 155. 156. 119. 137. 138. 125. 143. 144. 122.
      140. 139. 142. 161. 158. 131. 151. 146. 125. 141. 134. 135. 146.
      136. 166. 173. 116. 136. 137. 102. 122. 123. 99. 119. 120. 125.
      145. 146. 118. 137. 140. 121. 139. 140. 132. 147. 149. 141. 155.
      154. 139. 152. 150. 146. 153. 148. 150. 152. 146. 205. 203. 125.
      147. 145. 119. 141. 139. 103. 124. 125. 121. 141. 142. 117. 135.
      136. 117. 130. 132. 143. 152. 155. 144. 150. 149. 142. 143. 141.
      136. 131. 128. 214. 202. 200. 237. 222. 103. 124. 125. 114. 135.
      136. 98. 119. 120. 102. 120. 121. 108. 121. 123. 110. 120. 120.
      138. 140. 140. 143. 139. 138. 154. 142. 140. 207. 192. 190. 233.
      215. 216. 243. 223. 113. 131. 138. 125. 144. 149. 117. 134. 137.
      107. 120. 122. 113. 123. 123. 118. 121. 119. 132. 126. 121. 156.
      142. 136. 210. 190. 185. 242. 221. 219. 243. 221. 226. 226. 212.
      105. 119. 131. 114. 129. 138. 119. 133. 139. 107. 119. 121. 109.
      114. 113. 129. 126. 121. 159. 146. 138. 213. 194. 186. 246. 220.
      213. 242. 217. 215. 232. 213. 222. 219. 215. 116. 126. 143. 120.
      129. 143. 129. 138. 147. 122. 129. 132. 112. 113. 111. 154. 149.
      140. 200. 184. 171. 246. 225. 210. 250. 224. 212. 247. 225. 220.
      221. 212. 222. 181. 191. 114. 121. 146. 114. 121. 141. 127. 133.
      146. 136. 137. 141. 137. 128. 124. 205. 191. 179. 242. 226. 209.
      247. 226. 211. 243. 219. 213. 236. 221. 229. 192. 197. 222. 120.
      150. 99. 107. 144. 107. 112. 143. 131. 130. 150. 136. 125. 133.
      217. 193. 187. 249. 223. 209. 240. 224. 207. 237. 222. 213. 229.
      212. 223. 208. 206. 236. 118. 146. 200. 88. 143. 106. 118. 154.
      129. 135. 164. 134. 128. 147. 194. 177. 181. 254. 225. 216. 247.
      218. 203. 239. 223. 206. 235. 224. 220. 215. 203. 225. 136. 144.
      191. 89. 133. 204. 59. 130. 111. 130. 151. 105. 113. 130. 142.
      131. 139. 232. 209. 207. 254. 227. 213. 248. 224. 206. 238. 220.
      209. 237. 228. 231. 163. 161. 191. 110. 131. 183. 96. 150. 227.
      70. 146. 104. 123. 136. 101. 112. 120. 115. 107. 108. 162. 140.
      135. 248. 221. 207. 252. 225. 211. 251. 233. 226. 223. 213. 219.
      206. 203. 229. 143. 162. 207. 77. 128. 191. 66. 138. 105. 117.
      127. 111. 119. 126. 109. 108. 110. 122. 107. 105. 166. 131. 127.
      253. 219. 213. 240. 224. 218. 229. 221. 221. 234. 224. 236. 202.
      204. 228. 136. 168. 203. 84. 140. 106. 118. 128. 107. 116. 125.
      123. 126. 131. 124. 115. 118. 121. 94. 98. 155. 126. 129. 242.
      227. 225. 238. 226. 224. 234. 219. 217. 232. 225. 228. 203. 215.
      225. 132. 166. 108. 126. 137. 102. 117. 126. 115. 117. 128. 116.
      112. 123. 114. 106. 117. 125. 114. 122. 168. 153. 157. 236. 216.
      215. 244. 225. 217. 239. 226. 212. 231. 224. 215. 196. 208. 101.
      124. 132. 103. 122. 130. 108. 117. 127. 112. 116. 127. 105. 111.
      124. 123. 125. 136. 122. 113. 123. 196. 179. 182. 241. 222. 215.
      245. 226. 213. 242. 226. 210. 229. 223. 89. 115. 121. 95. 119.
      125. 108. 128. 133. 110. 126. 133. 102. 114. 124. 104. 114. 124.
      110. 113. 127. 106. 102. 113. 185. 168. 172. 243. 222. 221. 241.
      222. 219. 238. 224. 98. 123. 127. 106. 131. 133. 117. 142. 144.
      107. 130. 132. 91. 110. 115. 104. 116. 126. 109. 117. 130. 91. 91.
