<?xml version="1.0"?>
<opencv_storage>
<cascade>
  <stageType>BOOST</stageType>
  <featureType>HAAR</featureType>
  <height>30</height>
  <width>30</width>
  <stageParams>
    <boostType>GAB</boostType>
    <minHitRate>9.9500000476837158e-01</minHitRate>
    <maxFalseAlarm>5.0000000000000000e-01</maxFalseAlarm>
    <weightTrimRate>9.4999998807907104e-01</weightTrimRate>
    <maxDepth>1</maxDepth>
    <maxWeakCount>100</maxWeakCount></stageParams>
  <featureParams>
    <maxCatCount>0</maxCatCount>
    <featSize>1</featSize>
    <mode>BASIC</mode></featureParams>
  <stageNum>13</stageNum>
  <stages>
    <!-- stage 0 -->
    <_>
      <maxWeakCount>4</maxWeakCount>
      <stageThreshold>-1.9442709684371948e+00</stageThreshold>
      <weakClassifiers>
        <_>
          <internalNodes>
            0 -1 58 -3.3997442573308945e-02</internalNodes>
          <leafValues>
            4.6774193644523621e-01 -9.5916336774826050e-01</leafValues></_>
        <_>
          <internalNodes>
            0 -1 8 3.9225511252880096e-02</internalNodes>
          <leafValues>
            -8.5747188329696655e-01 6.9300436973571777e-01</leafValues></_>
        <_>
          <internalNodes>
            0 -1 12 4.7514963895082474e-02</internalNodes>
          <leafValues>
            -8.0311828851699829e-01 5.6554353237152100e-01</leafValues></_>
        <_>
          <internalNodes>
            0 -1 65 -1.0443656705319881e-02</internalNodes>
          <leafValues>
            6.7548263072967529e-01 -6.7229324579238892e-01</leafValues></_></weakClassifiers></_>
    <!-- stage 1 -->
    <_>
      <maxWeakCount>5</maxWeakCount>
      <stageThreshold>-2.5772941112518311e+00</stageThreshold>
      <weakClassifiers>
        <_>
          <internalNodes>
            0 -1 38 -2.3013532161712646e-02</internalNodes>
          <leafValues>
            -8.9887641370296478e-02 -9.4779938459396362e-01</leafValues></_>
        <_>
          <internalNodes>
            0 -1 14 3.7293098866939545e-02</internalNodes>
          <leafValues>
            -8.7728720903396606e-01 1.6752599179744720e-01</leafValues></_>
        <_>
          <internalNodes>
            0 -1 19 -1.1144805699586868e-02</internalNodes>
          <leafValues>
            5.7887959480285645e-01 -6.6590815782546997e-01</leafValues></_>
        <_>
          <internalNodes>
            0 -1 53 -6.4440695568919182e-03</internalNodes>
          <leafValues>
            5.2403867244720459e-01 -6.5656775236129761e-01</leafValues></_>
        <_>
          <internalNodes>
            0 -1 60 -1.8873739987611771e-02</internalNodes>
          <leafValues>
            5.7026845216751099e-01 -6.7259114980697632e-01</leafValues></_></weakClassifiers></_>
    <!-- stage 2 -->
    <_>
      <maxWeakCount>6</maxWeakCount>
      <stageThreshold>-1.8700013160705566e+00</stageThreshold>
      <weakClassifiers>
        <_>
          <internalNodes>
            0 -1 1 -8.4734916687011719e-02</internalNodes>
          <leafValues>
            4.9645390361547470e-02 -9.4173783063888550e-01</leafValues></_>
        <_>
          <internalNodes>
            0 -1 9 7.5699299573898315e-02</internalNodes>
          <leafValues>
            -7.3952734470367432e-01 4.7988301515579224e-01</leafValues></_>
        <_>
          <internalNodes>
            0 -1 57 -6.3515505753457546e-03</internalNodes>
          <leafValues>
            3.8077899813652039e-01 -7.5398081541061401e-01</leafValues></_>
        <_>
          <internalNodes>
            0 -1 40 -1.7530482262372971e-02</internalNodes>
          <leafValues>
            5.6825578212738037e-01 -5.2659738063812256e-01</leafValues></_>
        <_>
          <internalNodes>
            0 -1 23 -1.9757626578211784e-02</internalNodes>
          <leafValues>
            5.4223191738128662e-01 -5.7374948263168335e-01</leafValues></_>
        <_>
          <internalNodes>
            0 -1 7 3.6363527178764343e-02</internalNodes>
          <leafValues>
            -5.4524308443069458e-01 5.7899773120880127e-01</leafValues></_></weakClassifiers></_>
    <!-- stage 3 -->
    <_>
      <maxWeakCount>5</maxWeakCount>
      <stageThreshold>-2.2465600967407227e+00</stageThreshold>
      <weakClassifiers>
        <_>
          <internalNodes>
            0 -1 2 -5.9265963733196259e-02</internalNodes>
          <leafValues>
            -2.0408162847161293e-02 -9.3954658508300781e-01</leafValues></_>
        <_>
          <internalNodes>
            0 -1 64 -2.3882512003183365e-02</internalNodes>
          <leafValues>
            2.7809384465217590e-01 -7.8120368719100952e-01</leafValues></_>
        <_>
          <internalNodes>
            0 -1 21 -2.7769528329372406e-02</internalNodes>
          <leafValues>
            7.9605120420455933e-01 -4.8967808485031128e-01</leafValues></_>
        <_>
          <internalNodes>
            0 -1 25 -2.6048887521028519e-03</internalNodes>
          <leafValues>
            5.5109173059463501e-01 -5.6069391965866089e-01</leafValues></_>
        <_>
          <internalNodes>
            0 -1 35 -1.8221683800220490e-02</internalNodes>
          <leafValues>
            7.4690383672714233e-01 -3.9457625150680542e-01</leafValues></_></weakClassifiers></_>
    <!-- stage 4 -->
    <_>
      <maxWeakCount>6</maxWeakCount>
      <stageThreshold>-2.2886209487915039e+00</stageThreshold>
      <weakClassifiers>
        <_>
          <internalNodes>
            0 -1 37 2.2236377000808716e-02</internalNodes>
          <leafValues>
            -9.3127840757369995e-01 -1.6339869797229767e-01</leafValues></_>
        <_>
          <internalNodes>
            0 -1 11 -3.0720517970621586e-03</internalNodes>
          <leafValues>
            2.7321398258209229e-02 -8.4415525197982788e-01</leafValues></_>
        <_>
          <internalNodes>
            0 -1 63 -1.5432218089699745e-02</internalNodes>
          <leafValues>
            4.2497828602790833e-01 -5.9347772598266602e-01</leafValues></_>
        <_>
          <internalNodes>
            0 -1 41 -1.2979095801711082e-02</internalNodes>
          <leafValues>
            4.6774849295616150e-01 -5.5941486358642578e-01</leafValues></_>
        <_>
          <internalNodes>
            0 -1 45 -3.4656159579753876e-02</internalNodes>
          <leafValues>
            4.1620704531669617e-01 -6.9532603025436401e-01</leafValues></_>
        <_>
          <internalNodes>
            0 -1 18 -1.1386214464437217e-04</internalNodes>
          <leafValues>
            -8.9210337400436401e-01 3.0786812305450439e-01</leafValues></_></weakClassifiers></_>
    <!-- stage 5 -->
    <_>
      <maxWeakCount>6</maxWeakCount>
      <stageThreshold>-2.4435005187988281e+00</stageThreshold>
      <weakClassifiers>
        <_>
          <internalNodes>
            0 -1 0 -3.9611034095287323e-02</internalNodes>
          <leafValues>
            -1.0447761416435242e-01 -9.2792791128158569e-01</leafValues></_>
        <_>
          <internalNodes>
            0 -1 36 -1.6062153503298759e-02</internalNodes>
          <leafValues>
            1.5151457488536835e-01 -8.0080485343933105e-01</leafValues></_>
        <_>
          <internalNodes>
            0 -1 61 -1.7115239053964615e-02</internalNodes>
          <leafValues>
            2.7628055214881897e-01 -7.1050232648849487e-01</leafValues></_>
        <_>
          <internalNodes>
            0 -1 13 -4.1371581028215587e-04</internalNodes>
          <leafValues>
            3.9193174242973328e-01 -6.2485057115554810e-01</leafValues></_>
        <_>
          <internalNodes>
            0 -1 62 -4.2785285040736198e-04</internalNodes>
          <leafValues>
            3.0780276656150818e-01 -7.8073811531066895e-01</leafValues></_>
        <_>
          <internalNodes>
            0 -1 47 2.7635851874947548e-02</internalNodes>
          <leafValues>
            -4.0890979766845703e-01 6.6688418388366699e-01</leafValues></_></weakClassifiers></_>
    <!-- stage 6 -->
    <_>
      <maxWeakCount>4</maxWeakCount>
      <stageThreshold>-1.4294381141662598e+00</stageThreshold>
      <weakClassifiers>
        <_>
          <internalNodes>
            0 -1 34 1.6034269332885742e-01</internalNodes>
          <leafValues>
            -9.0014266967773438e-01 8.6206895112991333e-01</leafValues></_>
        <_>
          <internalNodes>
            0 -1 24 -2.2818353027105331e-02</internalNodes>
          <leafValues>
            1.8562470376491547e-01 -7.8936064243316650e-01</leafValues></_>
        <_>
          <internalNodes>
            0 -1 22 1.1951552005484700e-04</internalNodes>
          <leafValues>
            1.3530306518077850e-01 -8.8746380805969238e-01</leafValues></_>
        <_>
          <internalNodes>
            0 -1 29 2.7594185667112470e-04</internalNodes>
          <leafValues>
            1.7254361510276794e-01 -9.8488730192184448e-01</leafValues></_></weakClassifiers></_>
    <!-- stage 7 -->
    <_>
      <maxWeakCount>5</maxWeakCount>
      <stageThreshold>-1.8922054767608643e+00</stageThreshold>
      <weakClassifiers>
        <_>
          <internalNodes>
            0 -1 70 1.1227831244468689e-02</internalNodes>
          <leafValues>
            -9.2027223110198975e-01 3.3333334326744080e-01</leafValues></_>
        <_>
          <internalNodes>
            0 -1 6 -6.1964988708496094e-03</internalNodes>
          <leafValues>
            5.5059760808944702e-01 -7.2529238462448120e-01</leafValues></_>
        <_>
          <internalNodes>
            0 -1 50 -5.4455408826470375e-04</internalNodes>
          <leafValues>
            -8.5073709487915039e-01 1.5932679176330566e-01</leafValues></_>
        <_>
          <internalNodes>
            0 -1 54 -6.4822104759514332e-03</internalNodes>
          <leafValues>
            4.5724621415138245e-01 -5.1873558759689331e-01</leafValues></_>
        <_>
          <internalNodes>
            0 -1 46 -3.3314019674435258e-04</internalNodes>
          <leafValues>
            -8.6321389675140381e-01 2.7911421656608582e-01</leafValues></_></weakClassifiers></_>
    <!-- stage 8 -->
    <_>
      <maxWeakCount>5</maxWeakCount>
      <stageThreshold>-2.2371366024017334e+00</stageThreshold>
      <weakClassifiers>
        <_>
          <internalNodes>
            0 -1 69 1.2721415609121323e-02</internalNodes>
          <leafValues>
            -9.1870713233947754e-01 8.8888891041278839e-02</leafValues></_>
        <_>
          <internalNodes>
            0 -1 15 5.7324931025505066e-02</internalNodes>
          <leafValues>
            -7.6652497053146362e-01 1.0157180577516556e-01</leafValues></_>
        <_>
          <internalNodes>
            0 -1 16 4.1224260348826647e-04</internalNodes>
          <leafValues>
            1.1316629499197006e-01 -9.5819872617721558e-01</leafValues></_>
        <_>
          <internalNodes>
            0 -1 26 -1.9378711294848472e-04</internalNodes>
          <leafValues>
            -8.7151116132736206e-01 1.8169070780277252e-01</leafValues></_>
        <_>
          <internalNodes>
            0 -1 66 2.6411170256324112e-04</internalNodes>
          <leafValues>
            2.0644049346446991e-01 -9.3838930130004883e-01</leafValues></_></weakClassifiers></_>
    <!-- stage 9 -->
    <_>
      <maxWeakCount>6</maxWeakCount>
      <stageThreshold>-2.3251478672027588e+00</stageThreshold>
      <weakClassifiers>
        <_>
          <internalNodes>
            0 -1 55 -3.6987684667110443e-02</internalNodes>
          <leafValues>
            7.6923078298568726e-01 -8.9648622274398804e-01</leafValues></_>
        <_>
          <internalNodes>
            0 -1 67 2.8476959094405174e-02</internalNodes>
          <leafValues>
            -7.1133112907409668e-01 3.4687608480453491e-01</leafValues></_>
        <_>
          <internalNodes>
            0 -1 43 -9.1230094432830811e-02</internalNodes>
          <leafValues>
            5.5512887239456177e-01 -4.8659080266952515e-01</leafValues></_>
        <_>
          <internalNodes>
            0 -1 5 -6.8199522793292999e-03</internalNodes>
          <leafValues>
            3.6218085885047913e-01 -6.5716475248336792e-01</leafValues></_>
        <_>
          <internalNodes>
            0 -1 33 -8.4330851677805185e-04</internalNodes>
          <leafValues>
            -8.3381307125091553e-01 2.2859771549701691e-01</leafValues></_>
        <_>
          <internalNodes>
            0 -1 51 6.3036149367690086e-04</internalNodes>
          <leafValues>
            1.9782730937004089e-01 -9.0566718578338623e-01</leafValues></_></weakClassifiers></_>
    <!-- stage 10 -->
    <_>
      <maxWeakCount>6</maxWeakCount>
      <stageThreshold>-1.9822523593902588e+00</stageThreshold>
      <weakClassifiers>
        <_>
          <internalNodes>
            0 -1 42 -8.9246407151222229e-03</internalNodes>
          <leafValues>
            -6.6666670143604279e-02 -9.1810560226440430e-01</leafValues></_>
        <_>
          <internalNodes>
            0 -1 3 8.3680273965001106e-03</internalNodes>
          <leafValues>
            -6.8864250183105469e-01 3.3482137322425842e-01</leafValues></_>
        <_>
          <internalNodes>
            0 -1 32 1.1277426034212112e-02</internalNodes>
          <leafValues>
            -7.0099896192550659e-01 3.3932057023048401e-01</leafValues></_>
        <_>
          <internalNodes>
            0 -1 20 -1.0304719908162951e-03</internalNodes>
          <leafValues>
            3.3878430724143982e-01 -6.4937132596969604e-01</leafValues></_>
        <_>
          <internalNodes>
            0 -1 70 7.4648046866059303e-03</internalNodes>
          <leafValues>
            -3.4390002489089966e-01 7.4337726831436157e-01</leafValues></_>
        <_>
          <internalNodes>
            0 -1 59 1.7076361109502614e-04</internalNodes>
          <leafValues>
            3.3061039447784424e-01 -8.2041531801223755e-01</leafValues></_></weakClassifiers></_>
    <!-- stage 11 -->
    <_>
      <maxWeakCount>7</maxWeakCount>
      <stageThreshold>-2.3108632564544678e+00</stageThreshold>
      <weakClassifiers>
        <_>
          <internalNodes>
            0 -1 48 1.7327504232525826e-02</internalNodes>
          <leafValues>
            -8.9538753032684326e-01 5.1724135875701904e-01</leafValues></_>
        <_>
          <internalNodes>
            0 -1 31 -1.0070407390594482e-01</internalNodes>
          <leafValues>
            2.6817411184310913e-01 -6.9500494003295898e-01</leafValues></_>
        <_>
          <internalNodes>
            0 -1 4 -2.1698903292417526e-02</internalNodes>
          <leafValues>
            4.7270387411117554e-01 -5.2318423986434937e-01</leafValues></_>
        <_>
          <internalNodes>
            0 -1 49 -4.2020223918370903e-04</internalNodes>
          <leafValues>
            -8.7843221426010132e-01 2.3154039680957794e-01</leafValues></_>
        <_>
          <internalNodes>
            0 -1 52 -3.8746490608900785e-03</internalNodes>
          <leafValues>
            6.2529575824737549e-01 -3.3958545327186584e-01</leafValues></_>
        <_>
          <internalNodes>
            0 -1 39 1.7744007706642151e-01</internalNodes>
          <leafValues>
            -3.1373801827430725e-01 6.7280006408691406e-01</leafValues></_>
        <_>
          <internalNodes>
            0 -1 10 -4.2162407189607620e-03</internalNodes>
          <leafValues>
            3.0871587991714478e-01 -7.4038457870483398e-01</leafValues></_></weakClassifiers></_>
    <!-- stage 12 -->
    <_>
      <maxWeakCount>7</maxWeakCount>
      <stageThreshold>-2.1053178310394287e+00</stageThreshold>
      <weakClassifiers>
        <_>
          <internalNodes>
            0 -1 44 1.8195843696594238e-01</internalNodes>
          <leafValues>
            -8.9828896522521973e-01 7.8571426868438721e-01</leafValues></_>
        <_>
          <internalNodes>
            0 -1 30 -8.5407525300979614e-02</internalNodes>
          <leafValues>
            1.7768961191177368e-01 -7.0822215080261230e-01</leafValues></_>
        <_>
          <internalNodes>
            0 -1 27 -4.4690016657114029e-03</internalNodes>
          <leafValues>
            3.5770744085311890e-01 -6.2525081634521484e-01</leafValues></_>
        <_>
          <internalNodes>
            0 -1 28 1.1262997984886169e-02</internalNodes>
          <leafValues>
            -6.6850423812866211e-01 2.8468066453933716e-01</leafValues></_>
        <_>
          <internalNodes>
            0 -1 56 2.7474333182908595e-04</internalNodes>
          <leafValues>
            2.5702506303787231e-01 -7.5705051422119141e-01</leafValues></_>
        <_>
          <internalNodes>
            0 -1 17 -1.5809657634235919e-04</internalNodes>
          <leafValues>
            2.7960556745529175e-01 -7.2913813591003418e-01</leafValues></_>
        <_>
          <internalNodes>
            0 -1 68 -1.0565445991232991e-03</internalNodes>
          <leafValues>
            3.1920832395553589e-01 -5.6391394138336182e-01</leafValues></_></weakClassifiers></_></stages>
  <features>
    <_>
      <rects>
        <_>
          0 2 30 1 -1.</_>
        <_>
          10 2 10 1 3.</_></rects>
      <tilted>0</tilted></_>
    <_>
      <rects>
        <_>
          0 3 8 25 -1.</_>
        <_>
          4 3 4 25 2.</_></rects>
      <tilted>0</tilted></_>
    <_>
      <rects>
        <_>
          0 5 6 20 -1.</_>
        <_>
          3 5 3 20 2.</_></rects>
      <tilted>0</tilted></_>
    <_>
      <rects>
        <_>
          0 10 3 11 -1.</_>
        <_>
          1 10 1 11 3.</_></rects>
      <tilted>0</tilted></_>
    <_>
      <rects>
        <_>
          1 2 27 1 -1.</_>
        <_>
          10 2 9 1 3.</_></rects>
      <tilted>0</tilted></_>
    <_>
      <rects>
        <_>
          1 8 6 11 -1.</_>
        <_>
          3 8 2 11 3.</_></rects>
      <tilted>0</tilted></_>
    <_>
      <rects>
        <_>
          1 11 2 6 -1.</_>
        <_>
          2 11 1 6 2.</_></rects>
      <tilted>0</tilted></_>
    <_>
      <rects>
        <_>
          1 12 14 5 -1.</_>
        <_>
          8 12 7 5 2.</_></rects>
      <tilted>0</tilted></_>
    <_>
      <rects>
        <_>
          2 1 10 12 -1.</_>
        <_>
          2 1 5 6 2.</_>
        <_>
          7 7 5 6 2.</_></rects>
      <tilted>0</tilted></_>
    <_>
      <rects>
        <_>
          2 2 12 14 -1.</_>
        <_>
          2 2 6 7 2.</_>
        <_>
          8 9 6 7 2.</_></rects>
      <tilted>0</tilted></_>
    <_>
      <rects>
        <_>
          2 6 9 6 -1.</_>
        <_>
          5 6 3 6 3.</_></rects>
      <tilted>0</tilted></_>
    <_>
      <rects>
        <_>
          2 7 4 3 -1.</_>
        <_>
          4 7 2 3 2.</_></rects>
      <tilted>0</tilted></_>
    <_>
      <rects>
        <_>
          2 11 27 4 -1.</_>
        <_>
          11 11 9 4 3.</_></rects>
      <tilted>0</tilted></_>
    <_>
      <rects>
        <_>
          2 21 4 1 -1.</_>
        <_>
          4 21 2 1 2.</_></rects>
      <tilted>0</tilted></_>
    <_>
      <rects>
        <_>
          3 2 10 14 -1.</_>
        <_>
          3 2 5 7 2.</_>
        <_>
          8 9 5 7 2.</_></rects>
      <tilted>0</tilted></_>
    <_>
      <rects>
        <_>
          3 2 12 12 -1.</_>
        <_>
          3 2 6 6 2.</_>
        <_>
          9 8 6 6 2.</_></rects>
      <tilted>0</tilted></_>
    <_>
      <rects>
        <_>
          3 17 5 3 -1.</_>
        <_>
          3 18 5 1 3.</_></rects>
      <tilted>0</tilted></_>
    <_>
      <rects>
        <_>
          4 16 3 9 -1.</_>
        <_>
          4 19 3 3 3.</_></rects>
      <tilted>0</tilted></_>
    <_>
      <rects>
        <_>
          4 19 1 4 -1.</_>
        <_>
          4 21 1 2 2.</_></rects>
      <tilted>0</tilted></_>
    <_>
      <rects>
        <_>
          4 22 10 6 -1.</_>
        <_>
          4 22 5 3 2.</_>
        <_>
          9 25 5 3 2.</_></rects>
      <tilted>0</tilted></_>
    <_>
      <rects>
        <_>
          5 4 3 6 -1.</_>
        <_>
          5 6 3 2 3.</_></rects>
      <tilted>0</tilted></_>
    <_>
      <rects>
        <_>
          5 15 12 4 -1.</_>
        <_>
          9 15 4 4 3.</_></rects>
      <tilted>0</tilted></_>
    <_>
      <rects>
        <_>
          5 19 3 6 -1.</_>
        <_>
          5 21 3 2 3.</_></rects>
      <tilted>0</tilted></_>
    <_>
      <rects>
        <_>
          5 20 14 10 -1.</_>
        <_>
          5 20 7 5 2.</_>
        <_>
          12 25 7 5 2.</_></rects>
      <tilted>0</tilted></_>
    <_>
      <rects>
        <_>
          6 0 15 4 -1.</_>
        <_>
          6 2 15 2 2.</_></rects>
      <tilted>0</tilted></_>
    <_>
      <rects>
        <_>
          7 2 3 4 -1.</_>
        <_>
          7 4 3 2 2.</_></rects>
      <tilted>0</tilted></_>
    <_>
      <rects>
        <_>
          7 6 8 2 -1.</_>
        <_>
          7 7 8 1 2.</_></rects>
      <tilted>0</tilted></_>
    <_>
      <rects>
        <_>
          8 1 3 6 -1.</_>
        <_>
          8 3 3 2 3.</_></rects>
      <tilted>0</tilted></_>
    <_>
      <rects>
        <_>
          8 6 12 6 -1.</_>
        <_>
          8 9 12 3 2.</_></rects>
      <tilted>0</tilted></_>
    <_>
      <rects>
        <_>
          8 22 3 2 -1.</_>
        <_>
          8 23 3 1 2.</_></rects>
      <tilted>0</tilted></_>
    <_>
      <rects>
        <_>
          9 0 12 25 -1.</_>
        <_>
          13 0 4 25 3.</_></rects>
      <tilted>0</tilted></_>
    <_>
      <rects>
        <_>
          9 0 12 30 -1.</_>
        <_>
          13 0 4 30 3.</_></rects>
      <tilted>0</tilted></_>
    <_>
      <rects>
        <_>
          9 6 11 6 -1.</_>
        <_>
          9 9 11 3 2.</_></rects>
      <tilted>0</tilted></_>
    <_>
      <rects>
        <_>
          9 7 9 3 -1.</_>
        <_>
          9 8 9 1 3.</_></rects>
      <tilted>0</tilted></_>
    <_>
      <rects>
        <_>
          9 16 12 11 -1.</_>
        <_>
          13 16 4 11 3.</_></rects>
      <tilted>0</tilted></_>
    <_>
      <rects>
        <_>
          9 19 12 3 -1.</_>
        <_>
          13 19 4 3 3.</_></rects>
      <tilted>0</tilted></_>
    <_>
      <rects>
        <_>
          9 24 10 6 -1.</_>
        <_>
          9 26 10 2 3.</_></rects>
      <tilted>0</tilted></_>
    <_>
      <rects>
        <_>
          9 26 13 4 -1.</_>
        <_>
          9 28 13 2 2.</_></rects>
      <tilted>0</tilted></_>
    <_>
      <rects>
        <_>
          10 0 12 4 -1.</_>
        <_>
          10 2 12 2 2.</_></rects>
      <tilted>0</tilted></_>
    <_>
      <rects>
        <_>
          10 4 11 24 -1.</_>
        <_>
          10 12 11 8 3.</_></rects>
      <tilted>0</tilted></_>
    <_>
      <rects>
        <_>
          10 8 12 8 -1.</_>
        <_>
          14 8 4 8 3.</_></rects>
      <tilted>0</tilted></_>
    <_>
      <rects>
        <_>
          10 11 6 12 -1.</_>
        <_>
          10 15 6 4 3.</_></rects>
      <tilted>0</tilted></_>
    <_>
      <rects>
        <_>
          11 0 8 3 -1.</_>
        <_>
          11 1 8 1 3.</_></rects>
      <tilted>0</tilted></_>
    <_>
      <rects>
        <_>
          11 0 11 15 -1.</_>
        <_>
          11 5 11 5 3.</_></rects>
      <tilted>0</tilted></_>
    <_>
      <rects>
        <_>
          11 1 9 24 -1.</_>
        <_>
          14 1 3 24 3.</_></rects>
      <tilted>0</tilted></_>
    <_>
      <rects>
        <_>
          11 10 7 20 -1.</_>
        <_>
          11 20 7 10 2.</_></rects>
      <tilted>0</tilted></_>
    <_>
      <rects>
        <_>
          11 22 2 2 -1.</_>
        <_>
          11 23 2 1 2.</_></rects>
      <tilted>0</tilted></_>
    <_>
      <rects>
        <_>
          12 6 4 10 -1.</_>
        <_>
          12 11 4 5 2.</_></rects>
      <tilted>0</tilted></_>
    <_>
      <rects>
        <_>
          12 16 2 11 -1.</_>
        <_>
          13 16 1 11 2.</_></rects>
      <tilted>0</tilted></_>
    <_>
      <rects>
        <_>
          12 18 4 2 -1.</_>
        <_>
          12 19 4 1 2.</_></rects>
      <tilted>0</tilted></_>
    <_>
      <rects>
        <_>
          13 3 2 6 -1.</_>
        <_>
          13 5 2 2 3.</_></rects>
      <tilted>0</tilted></_>
    <_>
      <rects>
        <_>
          13 6 1 4 -1.</_>
        <_>
          13 8 1 2 2.</_></rects>
      <tilted>0</tilted></_>
    <_>
      <rects>
        <_>
          13 26 6 3 -1.</_>
        <_>
          13 27 6 1 3.</_></rects>
      <tilted>0</tilted></_>
    <_>
      <rects>
        <_>
          15 2 10 6 -1.</_>
        <_>
          15 2 5 3 2.</_>
        <_>
          20 5 5 3 2.</_></rects>
      <tilted>0</tilted></_>
    <_>
      <rects>
        <_>
          15 13 6 9 -1.</_>
        <_>
          17 13 2 9 3.</_></rects>
      <tilted>0</tilted></_>
    <_>
      <rects>
        <_>
          15 18 4 8 -1.</_>
        <_>
          17 18 2 8 2.</_></rects>
      <tilted>0</tilted></_>
    <_>
      <rects>
        <_>
          15 25 9 1 -1.</_>
        <_>
          18 25 3 1 3.</_></rects>
      <tilted>0</tilted></_>
    <_>
      <rects>
        <_>
          17 0 3 9 -1.</_>
        <_>
          17 3 3 3 3.</_></rects>
      <tilted>0</tilted></_>
    <_>
      <rects>
        <_>
          18 3 10 10 -1.</_>
        <_>
          18 3 5 5 2.</_>
        <_>
          23 8 5 5 2.</_></rects>
      <tilted>0</tilted></_>
    <_>
      <rects>
        <_>
          18 6 4 1 -1.</_>
        <_>
          20 6 2 1 2.</_></rects>
      <tilted>0</tilted></_>
    <_>
      <rects>
        <_>
          18 10 8 8 -1.</_>
        <_>
          22 10 4 8 2.</_></rects>
      <tilted>0</tilted></_>
    <_>
      <rects>
        <_>
          19 3 8 10 -1.</_>
        <_>
          19 3 4 5 2.</_>
        <_>
          23 8 4 5 2.</_></rects>
      <tilted>0</tilted></_>
    <_>
      <rects>
        <_>
          19 21 9 2 -1.</_>
        <_>
          22 21 3 2 3.</_></rects>
      <tilted>0</tilted></_>
    <_>
      <rects>
        <_>
          22 2 4 12 -1.</_>
        <_>
          22 6 4 4 3.</_></rects>
      <tilted>0</tilted></_>
    <_>
      <rects>
        <_>
          22 3 6 14 -1.</_>
        <_>
          22 3 3 7 2.</_>
        <_>
          25 10 3 7 2.</_></rects>
      <tilted>0</tilted></_>
    <_>
      <rects>
        <_>
          24 11 6 8 -1.</_>
        <_>
          26 11 2 8 3.</_></rects>
      <tilted>0</tilted></_>
    <_>
      <rects>
        <_>
          24 18 2 3 -1.</_>
        <_>
          24 19 2 1 3.</_></rects>
      <tilted>0</tilted></_>
    <_>
      <rects>
        <_>
          26 6 4 19 -1.</_>
        <_>
          28 6 2 19 2.</_></rects>
      <tilted>0</tilted></_>
    <_>
      <rects>
        <_>
          26 10 3 7 -1.</_>
        <_>
          27 10 1 7 3.</_></rects>
      <tilted>0</tilted></_>
    <_>
      <rects>
        <_>
          28 8 2 12 -1.</_>
        <_>
          29 8 1 12 2.</_></rects>
      <tilted>0</tilted></_>
    <_>
      <rects>
        <_>
          28 10 2 9 -1.</_>
        <_>
          29 10 1 9 2.</_></rects>
      <tilted>0</tilted></_></features></cascade>
</opencv_storage>
