<?xml version="1.0"?>
<opencv_storage>
<cascade>
  <stageType>BOOST</stageType>
  <featureType>LBP</featureType>
  <height>40</height>
  <width>40</width>
  <stageParams>
    <boostType>GAB</boostType>
    <minHitRate>9.9500000476837158e-01</minHitRate>
    <maxFalseAlarm>5.0000000000000000e-01</maxFalseAlarm>
    <weightTrimRate>9.4999999999999996e-01</weightTrimRate>
    <maxDepth>1</maxDepth>
    <maxWeakCount>100</maxWeakCount></stageParams>
  <featureParams>
    <maxCatCount>256</maxCatCount>
    <featSize>1</featSize></featureParams>
  <stageNum>4</stageNum>
  <stages>
    <!-- stage 0 -->
    <_>
      <maxWeakCount>1</maxWeakCount>
      <stageThreshold>8.1818181276321411e-01</stageThreshold>
      <weakClassifiers>
        <_>
          <internalNodes>
            0 -1 0 -2097153 -752619133 -563883761 -74718585 -1048196709
            -997211489 1527505631 -1185</internalNodes>
          <leafValues>
            -1. 8.1818181276321411e-01</leafValues></_></weakClassifiers></_>
    <!-- stage 1 -->
    <_>
      <maxWeakCount>1</maxWeakCount>
      <stageThreshold>6.0000002384185791e-01</stageThreshold>
      <weakClassifiers>
        <_>
          <internalNodes>
            0 -1 1 -2105345 -33727489 2106832895 -11029569 -391563073
            -72643141 -1843201 -4457793</internalNodes>
          <leafValues>
            -1. 6.0000002384185791e-01</leafValues></_></weakClassifiers></_>
    <!-- stage 2 -->
    <_>
      <maxWeakCount>1</maxWeakCount>
      <stageThreshold>8.1818181276321411e-01</stageThreshold>
      <weakClassifiers>
        <_>
          <internalNodes>
            0 -1 3 -1 -1693726893 -636093345 -2625281 -119546881
            -1064925 -16779329 -1</internalNodes>
          <leafValues>
            -1. 8.1818181276321411e-01</leafValues></_></weakClassifiers></_>
    <!-- stage 3 -->
    <_>
      <maxWeakCount>1</maxWeakCount>
      <stageThreshold>6.0000002384185791e-01</stageThreshold>
      <weakClassifiers>
        <_>
          <internalNodes>
            0 -1 2 -35651585 -2106401 -2236417 -9321 -2105345 -16707
            -4587777 -131073</internalNodes>
          <leafValues>
            -1. 6.0000002384185791e-01</leafValues></_></weakClassifiers></_></stages>
  <features>
    <_>
      <rect>
        0 1 1 10</rect></_>
    <_>
      <rect>
        3 36 8 1</rect></_>
    <_>
      <rect>
        15 0 4 1</rect></_>
    <_>
      <rect>
        36 15 1 7</rect></_></features></cascade>
</opencv_storage>
