<?xml version="1.0"?>
<opencv_storage>
<myhaar type_id="opencv-haar-classifier">
  <size>
    24 24</size>
  <stages>
    <_>
      <trees>
        <_>
          <_>
            <feature>
              <rects>
                <_>
                  8 5 6 6 -1.</_>
                <_>
                  8 5 3 3 2.</_>
                <_>
                  11 8 3 3 2.</_></rects>
              <tilted>0</tilted></feature>
            <threshold>-0.0159060992300510</threshold>
            <left_val>0.9001783728599548</left_val>
            <right_val>-1.0000159740447998</right_val></_></_></trees>
      <stage_threshold>0.9001783728599548</stage_threshold>
      <parent>-1</parent>
      <next>-1</next></_>
    <_>
      <trees>
        <_>
          <_>
            <feature>
              <rects>
                <_>
                  9 8 6 9 -1.</_>
                <_>
                  11 10 2 9 3.</_></rects>
              <tilted>1</tilted></feature>
            <threshold>0.0454048402607441</threshold>
            <left_val>-1.</left_val>
            <right_val>0.8253561258316040</right_val></_></_></trees>
      <stage_threshold>0.8253561258316040</stage_threshold>
      <parent>0</parent>
      <next>-1</next></_>
    <_>
      <trees>
        <_>
          <_>
            <feature>
              <rects>
                <_>
                  5 10 14 12 -1.</_>
                <_>
                  5 13 14 6 2.</_></rects>
              <tilted>0</tilted></feature>
            <threshold>0.0897465124726295</threshold>
            <left_val>-0.9316887259483337</left_val>
            <right_val>0.7856075167655945</right_val></_></_>
        <_>
          <_>
            <feature>
              <rects>
                <_>
                  18 3 4 13 -1.</_>
                <_>
                  19 4 2 13 2.</_></rects>
              <tilted>1</tilted></feature>
            <threshold>0.0150541597977281</threshold>
            <left_val>0.0389658100903034</left_val>
            <right_val>-0.9999924898147583</right_val></_></_>
        <_>
          <_>
            <feature>
              <rects>
                <_>
                  6 3 13 4 -1.</_>
                <_>
                  5 4 13 2 2.</_></rects>
              <tilted>1</tilted></feature>
            <threshold>-0.0172747001051903</threshold>
            <left_val>0.8386033773422241</left_val>
            <right_val>-0.8911551237106323</right_val></_></_></trees>
      <stage_threshold>-0.0665817931294441</stage_threshold>
      <parent>1</parent>
      <next>-1</next></_>
    <_>
      <trees>
        <_>
          <_>
            <feature>
              <rects>
                <_>
                  5 1 8 5 -1.</_>
                <_>
                  7 3 4 5 2.</_></rects>
              <tilted>1</tilted></feature>
            <threshold>-0.0639704763889313</threshold>
            <left_val>0.7724897861480713</left_val>
            <right_val>-0.8081821799278259</right_val></_></_>
        <_>
          <_>
            <feature>
              <rects>
                <_>
                  12 15 2 4 -1.</_>
                <_>
                  11 16 2 2 2.</_></rects>
              <tilted>1</tilted></feature>
            <threshold>8.7989680469036102e-003</threshold>
            <left_val>0.0874461010098457</left_val>
            <right_val>-1.</right_val></_></_>
        <_>
          <_>
            <feature>
              <rects>
                <_>
                  12 15 4 2 -1.</_>
                <_>
                  13 16 2 2 2.</_></rects>
              <tilted>1</tilted></feature>
            <threshold>8.2489177584648132e-003</threshold>
            <left_val>-0.8553301095962524</left_val>
            <right_val>0.7178782820701599</right_val></_></_></trees>
      <stage_threshold>-2.8578040655702353e-003</stage_threshold>
      <parent>2</parent>
      <next>-1</next></_></stages></myhaar>
</opencv_storage>
