<?xml version="1.0"?>
<opencv_storage>
<my_svm type_id="opencv-ml-svm">
  <svm_type>C_SVC</svm_type>
  <kernel><type>LINEAR</type></kernel>
  <C>10.</C>
  <term_criteria><epsilon>2.2204460492503131e-16</epsilon>
    <iterations>1000</iterations></term_criteria>
  <var_all>2500</var_all>
  <var_count>2500</var_count>
  <class_count>14</class_count>
  <class_labels type_id="opencv-matrix">
    <rows>1</rows>
    <cols>14</cols>
    <dt>i</dt>
    <data>
      -4 -3 -2 -1 0 1 2 3 4 5 6 7 8 9</data></class_labels>
  <sv_total>91</sv_total>
  <support_vectors>
    <_>
      7.44331919e-06 -1.77921283e-05 2.27634337e-05 3.64184325e-06
      -1.48541885e-05 1.07972583e-05 -2.93507537e-06 -1.00857069e-05
      -9.37152436e-06 -1.34986185e-05 -9.79328161e-06 -2.86062877e-05
      -2.74223130e-05 -1.01042351e-05 -4.15785653e-05 -3.41401355e-05
      -1.46974480e-05 -4.16947187e-05 -2.38552893e-05 -1.09810771e-05
      -2.71657118e-05 -1.13842052e-05 -4.58798695e-06 -1.15363709e-05
      4.86940053e-08 -5.56708699e-07 4.81404822e-06 -3.07163791e-05
      -3.58237885e-05 -2.61013683e-05 -1.65002184e-05 -2.20902730e-05
      -1.56417373e-05 -2.46043965e-05 -2.96566395e-05 -3.31493175e-05
      -7.95283449e-06 -1.41055807e-05 -2.78141306e-05 -1.58214807e-05
      -1.94729273e-05 -4.17029223e-05 -4.18694935e-06 -7.39414236e-06
      -3.34638316e-05 3.86161537e-06 -1.44642922e-06 -2.81902103e-05
      -3.88491208e-06 -1.69875675e-05 1.36572644e-05 -6.84400447e-06
      1.94924942e-05 9.65421714e-06 -5.33735238e-06 9.48332217e-06
      2.02081765e-06 -2.94343454e-06 -7.04545891e-06 -8.24131894e-06
      -5.51385256e-06 -2.09228729e-05 -1.69071955e-05 -4.81541247e-06
      -2.90327189e-05 -2.10908947e-05 -5.69449639e-06 -2.88118736e-05
      -1.73672997e-05 -7.68477639e-06 -2.12026243e-05 -9.86968553e-06
      -6.96957022e-06 -1.23269956e-05 -2.29045600e-05 -2.45228039e-05
      -2.15731034e-05 -1.37936140e-05 -1.60599429e-05 -1.39458998e-05
      -2.37771674e-05 -2.76852443e-05 -2.72864218e-05 3.18406842e-06
      -2.80947938e-06 -9.93620506e-06 -6.73613476e-06 -1.08574986e-05
      -2.64883511e-05 -4.20025663e-06 -8.62099478e-06 -2.94718229e-05
      -1.14811792e-05 -1.47991195e-05 -3.42227104e-05 -2.28320496e-05
      -2.60667766e-05 -5.32683989e-05 9.36926938e-07 -7.95337382e-06
      1.77299316e-05 1.08018903e-05 6.10100915e-06 1.36282906e-05
      7.45053194e-06 5.16877435e-07 5.17636272e-06 5.09598158e-06
      -6.98682834e-06 7.34422258e-07 3.57695126e-06 -8.59184183e-06
      -4.28967951e-06 -1.70025783e-06 -1.56023107e-05 -8.03912826e-06
      -5.97134385e-06 -1.69079594e-05 -5.57457815e-06 -4.24295604e-06
      -1.22694701e-05 7.39288271e-06 5.63345566e-06 2.48008837e-06
      1.98582620e-05 1.93096876e-05 1.52094926e-05 -2.82996443e-05
      -2.72719881e-05 -3.42482781e-05 1.25238444e-06 2.07656922e-06
      -6.57119699e-06 -5.79323341e-06 -2.58955924e-06 -2.12208251e-05
      -1.99980004e-05 -1.56720089e-05 -3.53356227e-05 -1.06862053e-05
      -8.04750562e-06 -3.76702083e-05 -1.75462774e-05 -1.39169124e-05
      -2.78747466e-05 6.48835430e-06 7.63873413e-06 2.03693980e-05
      4.59127878e-05 4.78490329e-05 1.42536956e-05 1.32332816e-05
      -1.61053213e-05 8.21156573e-06 9.08027323e-06 -1.58905659e-05
      7.92046740e-06 6.71335010e-06 -8.83283428e-06 8.49160278e-06
      5.67620327e-06 -3.39569601e-06 6.62683442e-06 -1.39199685e-07
      -8.33856848e-06 -2.54650672e-06 -8.02451541e-06 -1.51314425e-05
      -1.54516056e-06 -7.45999523e-06 -1.42822992e-05 3.02063268e-06
      -2.17149818e-06 -1.06754514e-05 1.12092994e-05 1.06610378e-05
      -2.77918616e-07 -1.53377860e-05 -1.20227442e-05 -2.80964723e-05
      -3.52140814e-05 -2.72926045e-05 -4.38951211e-05 -2.15786185e-05
      -1.27086778e-05 -4.37731906e-05 -8.50898687e-06 -7.55759856e-07
      -1.75920559e-05 -8.43364251e-06 6.19387777e-07 6.47745219e-06
      5.94456833e-05 6.47191555e-05 8.19301713e-05 4.51546912e-05
      5.01656796e-05 8.20883288e-05 -7.35355343e-06 -1.62453716e-06
      1.28757283e-05 1.93776214e-05 -2.90920361e-05 1.19053693e-05
      1.61343523e-05 -2.48051401e-05 1.08746262e-05 7.62823447e-06
      -1.13225105e-05 1.18122307e-05 1.60342790e-06 -6.06149933e-06
      8.53771508e-06 -4.23270785e-06 -6.97512860e-06 8.48758737e-06
      -4.63806646e-06 -6.60744354e-06 6.43829389e-06 -5.35083609e-06
      -1.49445978e-05 3.27411772e-06 -2.84800785e-06 -1.81838350e-05
      1.00687703e-05 1.18320722e-05 -1.03425873e-05 -4.59002731e-05
      -3.97929980e-05 -6.16220132e-05 -3.29763461e-05 -2.52645532e-05
      -4.98214104e-05 -2.67538041e-07 1.09681587e-05 6.39124892e-06
      4.15441391e-05 5.00646311e-05 6.04696761e-05 7.53429122e-05
      8.49912976e-05 1.02907550e-04 1.10671017e-05 2.19497288e-05
      4.57127935e-05 -5.20350704e-06 6.42221539e-06 4.26698680e-05
      -3.20569816e-05 -2.39730616e-05 2.67748710e-05 3.31453884e-05
      -2.12158411e-05 2.15127620e-05 2.52921764e-05 -1.83961856e-05
      2.43460472e-05 1.61300522e-05 -5.55733368e-06 3.15373873e-05
      1.27552994e-05 6.20560286e-06 2.03480067e-05 3.54598274e-06
      8.00795647e-07 5.60664648e-06 -7.96135373e-06 -1.32799842e-05
      -1.19054823e-06 -1.19466531e-05 -2.62095436e-05 3.13030250e-06
      -1.75258572e-06 -2.26209304e-05 -2.03665713e-05 -1.56449059e-05
      -3.79506746e-05 1.02017793e-06 1.24847320e-05 -2.19659978e-05
      1.21905432e-05 2.27653418e-05 1.44780342e-05 5.43751121e-05
      6.39608406e-05 7.08480147e-05 5.91590069e-05 7.18692390e-05
      9.29497328e-05 -2.44843545e-06 8.46549483e-06 4.00824028e-05
      -2.94129368e-05 -1.60009658e-05 1.31661009e-05 -5.57914500e-05
      -4.59090916e-05 -4.54456494e-06 -4.96295870e-05 -4.34993053e-05
      4.59778166e-05 4.56706621e-05 1.64199503e-06 4.43724020e-05
      4.06677536e-05 4.27031546e-06 5.35953332e-05 4.16423718e-05
      2.04874523e-05 6.45623586e-05 4.65775411e-05 3.45921762e-05
      5.22884911e-05 3.30080111e-05 2.57375414e-05 2.42544120e-05
      7.61133379e-06 -4.67564725e-08 -1.65095571e-06 -9.48619436e-06
      -2.87006587e-05 -1.08896920e-05 -9.92921741e-06 -3.56747260e-05
      -1.47588253e-05 -8.90830324e-06 -3.95435563e-05 3.97845506e-05
      4.81509851e-05 3.63222607e-05 8.32857695e-05 9.48467059e-05
      9.99268086e-05 8.32728165e-06 1.93862379e-05 4.00795361e-05
      -1.54451700e-05 -7.85146676e-06 2.85056431e-05 -4.49625477e-05
      -3.72608956e-05 3.05628714e-06 -5.56994055e-05 -4.62073367e-05
      -1.14189424e-05 -3.80704405e-05 -3.27339258e-05 7.50335266e-06
      -9.99005788e-05 -1.00256708e-04 6.98067961e-05 5.86517599e-05
      2.42978258e-05 7.03385231e-05 5.74831029e-05 2.86108370e-05
      6.86370113e-05 5.02978401e-05 3.17442864e-05 6.71090020e-05
      4.84852135e-05 3.45595072e-05 7.32462941e-05 5.61446795e-05
      4.38438474e-05 7.40251198e-05 6.24384265e-05 4.94561682e-05
      4.72737484e-05 4.18048003e-05 2.09213376e-05 1.16109895e-05
      1.46340935e-05 -1.25642055e-05 4.65448757e-05 5.53975588e-05
      3.91650974e-05 7.95485612e-05 8.99942970e-05 8.86283888e-05
      2.40540412e-05 3.29392933e-05 5.18966663e-05 -1.49387624e-05
      -9.72943781e-06 2.23005518e-05 -3.15611724e-05 -2.97465158e-05
      1.69665273e-05 -5.28605196e-05 -5.12777697e-05 -5.11977760e-06
      -9.34415220e-05 -8.94595141e-05 -5.12139595e-05 -7.81506315e-05
      -7.53950881e-05 -4.12726949e-05 -1.57606326e-06 -5.27969087e-06
      6.88039436e-05 4.33019995e-05 2.49580789e-05 7.68353420e-05
      5.07798504e-05 3.43165921e-05 4.92663603e-05 2.45585325e-05
      1.07322712e-05 6.25374087e-05 4.43411263e-05 3.02229855e-05
      7.18189840e-05 5.65393893e-05 4.22224293e-05 6.21142826e-05
      5.61137567e-05 3.84013729e-05 4.23535312e-05 4.56200178e-05
      8.02175873e-06 4.08417836e-05 4.83182012e-05 3.17872364e-05
      9.30942115e-05 1.01997204e-04 9.81128251e-05 1.60362251e-05
      2.52687441e-05 3.61527564e-05 -2.75653838e-05 -2.27740729e-05
      9.38500943e-06 -2.96025228e-05 -3.27096641e-05 1.44760361e-05
      -7.00275705e-05 -7.50172403e-05 -2.61832138e-05 -8.01560818e-05
      -8.60677901e-05 -4.07790067e-05 5.44175236e-07 -3.17137324e-06
      2.86307877e-05 1.93782694e-06 -3.08722406e-07 7.70371025e-06
      2.19664726e-05 2.09800692e-05 4.52022687e-05 6.32461706e-06
      -1.90651735e-06 6.32938682e-05 2.82190176e-05 1.66770660e-05
      2.89613399e-05 1.98266184e-06 -1.18045491e-05 4.58597460e-05
      2.41560283e-05 1.02186241e-05 4.69001461e-05 3.51655326e-05
      1.34648399e-05 4.35721950e-06 1.45771230e-06 -1.45632293e-05
      6.02410946e-05 6.79034492e-05 5.73108882e-05 8.11050777e-05
      9.24180858e-05 8.71361262e-05 1.86954239e-05 2.77438630e-05
      3.63316249e-05 -2.24566156e-05 -1.67301860e-05 7.43594501e-06
      -2.96683611e-05 -3.26674563e-05 9.61421210e-06 -7.24558340e-05
      -7.63310964e-05 -2.60793404e-05 -7.09788656e-05 -8.00586204e-05
      -3.16809565e-05 1.65235895e-06 -8.14595751e-06 1.99354745e-05
      4.30287372e-07 -1.01251680e-05 1.28680076e-05 2.34572235e-05
      1.86282650e-05 2.96364651e-05 1.45095669e-07 4.69779161e-06
      9.45337451e-05 4.44341786e-05 4.16846633e-05 8.26057149e-05
      3.70688940e-05 3.25384826e-05 4.64023396e-05 1.61109983e-05
      3.92648644e-06 5.55041661e-05 3.36199737e-05 1.76461235e-05
      2.34531071e-05 1.57762497e-05 -3.48185586e-06 3.55671837e-05
      3.73911244e-05 3.25337205e-05 5.89286974e-05 6.89751105e-05
      6.50223155e-05 2.52731625e-05 3.87491382e-05 4.55763693e-05
      -1.80654260e-05 -9.75271178e-06 1.49630769e-05 -4.45033911e-05
      -4.39087053e-05 -6.04462002e-06 -5.70143602e-05 -6.23821325e-05
      -1.65205965e-05 -5.69449767e-05 -6.65525149e-05 -2.36131036e-05
      2.85605256e-05 1.90773026e-05 3.12262746e-05 1.50400210e-05
      2.17716729e-06 2.13742023e-05 1.11246991e-05 -1.89540617e-06
      1.75508358e-05 1.28769088e-05 6.00637668e-06 1.58743878e-05
      5.08562116e-05 5.90993805e-05 8.49895296e-05 2.94099955e-05
      2.32896200e-05 5.08080011e-05 1.66783593e-06 -4.65544827e-06
      2.82835135e-05 -3.50470077e-06 -2.15512555e-05 1.35541577e-05
      -5.91813614e-06 -3.07248702e-05 -4.25350891e-06 -8.62346042e-06
      -1.16259225e-05 7.52376072e-05 8.03793810e-05 8.27208351e-05
      7.21327597e-05 8.37342668e-05 9.27837027e-05 -2.93074099e-05
      -1.78451937e-05 3.35856384e-06 -3.99675300e-05 -3.51532290e-05
      1.03856939e-06 -8.21943031e-05 -8.66990158e-05 -4.20055767e-05
      -5.33802959e-05 -6.10605857e-05 -1.89607072e-05 1.91286927e-05
      7.07288018e-06 1.55362595e-05 1.68295865e-05 5.39137272e-06
      2.32095463e-05 2.69157408e-06 -1.00344823e-05 4.88502565e-06
      4.60998417e-05 3.05395515e-05 4.56730340e-05 3.95868701e-05
      3.34450087e-05 3.76719036e-05 2.70635719e-05 3.52607531e-05
      3.58829275e-05 -2.26538159e-05 -3.55366537e-05 3.60696467e-05
      -1.25425977e-05 -2.70468518e-05 1.14034174e-05 -1.99100359e-05
      -3.80789643e-05 2.05162405e-06 -1.47847149e-05 -4.06583713e-05
      1.70297099e-05 1.32861860e-05 1.60150630e-05 7.74487198e-05
      8.29173950e-05 9.39805905e-05 5.13814257e-06 1.45107842e-05
      3.80487145e-05 -4.02847982e-05 -3.12136035e-05 2.78861921e-06
      -7.65540462e-05 -7.71239356e-05 -2.96346316e-05 -5.57168569e-05
      -6.25095417e-05 -2.30715450e-05 7.07142226e-06 -4.69802308e-06
      8.40714802e-06 1.44040669e-05 4.29732336e-06 1.85562149e-05
      -1.21475859e-05 -2.40428344e-05 -1.57148061e-05 2.42771057e-05
      1.33160429e-05 1.48908821e-05 5.40385154e-05 4.36326882e-05
      5.33983621e-05 4.68299368e-05 4.17774463e-05 4.48734390e-05
      4.30212458e-05 4.83710428e-05 3.06368711e-05 -2.73026562e-05
      -4.87201505e-05 4.13645976e-05 -6.39762402e-06 -2.91948891e-05
      -6.49561525e-06 -4.01827274e-05 -6.60642690e-05 4.46422882e-06
      -1.33576050e-05 -1.92486386e-05 8.56942497e-05 8.52646408e-05
      9.29681264e-05 4.22201229e-05 5.05830722e-05 6.44596439e-05
      -6.82149112e-05 -5.65597693e-05 -2.89564377e-05 -3.50453556e-05
      -2.59571589e-05 6.84580300e-06 -6.63887186e-05 -7.00169694e-05
      -3.22792766e-05 2.13227067e-05 9.85814859e-06 3.24908724e-05
      3.35223922e-05 1.97741665e-05 3.63992658e-05 -8.37323933e-06
      -2.29027373e-05 -6.51848541e-06 2.71184836e-05 1.34652519e-05
      1.94521654e-05 5.05201060e-05 4.22647609e-05 4.29017491e-05
      4.54994370e-05 4.02593869e-05 3.53587420e-05 4.29195898e-05
      4.36084301e-05 3.93954360e-05 3.29916256e-05 3.39846629e-05
      4.07353400e-05 -1.53302317e-05 -4.30850669e-05 2.82916026e-05
      -2.13450330e-05 -4.35052425e-05 -5.43012902e-06 -3.60919948e-05
      -5.64229013e-05 2.52473073e-05 8.28945304e-06 1.17196741e-05
      1.14550254e-04 1.12379334e-04 1.24163416e-04 -1.32245887e-05
      -4.90039156e-06 1.09814064e-05 -5.84863155e-05 -4.63168544e-05
      -2.64998271e-05 -7.48020757e-05 -6.82699319e-05 -3.72774048e-05
      -1.48822637e-05 -1.50531214e-05 1.13934175e-05 2.52938062e-05
      1.26966352e-05 3.19387800e-05 1.67844173e-05 -4.03125614e-06
      2.26559550e-05 8.24633298e-06 -1.49123198e-05 7.75845729e-06
      5.22152004e-05 3.57499448e-05 5.18311936e-05 2.67766845e-05
      1.88560170e-05 1.63195455e-05 4.38509087e-05 5.02709299e-05
      3.14836470e-05 3.81365935e-05 4.27222731e-05 2.34520121e-05
      6.95146737e-05 6.36295445e-05 5.74905753e-05 5.14424391e-06
      -2.41420657e-05 2.58317941e-05 -1.85868485e-05 -5.60468907e-05
      2.79715823e-05 -1.60505624e-06 -8.07424749e-06 7.91756465e-05
      6.78894794e-05 7.07412473e-05 1.14193981e-05 1.16522251e-05
      2.46265663e-05 -1.20882805e-05 -3.39705480e-06 1.35569690e-05
      -3.00349111e-05 -1.76389985e-05 -1.99698979e-06 -6.10247516e-05
      -5.18507513e-05 -2.80190270e-05 2.05352371e-05 1.78073969e-05
      2.42582864e-05 1.56859314e-05 5.25856831e-06 3.08607232e-05
      -2.57425145e-05 -4.01338293e-05 -1.35343353e-05 3.45036933e-05
      1.71576212e-05 3.95075331e-05 3.68098699e-05 2.21090777e-05
      3.61503990e-05 5.27348202e-05 4.51478081e-05 4.22606463e-05
      -4.76840469e-05 -4.65290941e-05 -6.54652249e-05 -2.55901705e-05
      -2.49574696e-05 -4.32502966e-05 -4.79080481e-05 -5.79611806e-05
      4.68982435e-05 -3.97704241e-07 -2.44870207e-05 5.07521108e-05
      1.44198502e-05 -1.79645504e-05 1.39838869e-06 -1.54162699e-05
      -2.52154932e-05 9.18133956e-05 8.75467595e-05 9.07205103e-05
      -2.09711179e-05 -1.63419118e-05 1.94290874e-06 -2.58064465e-05
      -1.74795823e-05 4.16237663e-06 -4.00909012e-05 -2.97372226e-05
      -1.76525100e-05 -2.88631077e-06 1.55817020e-06 1.50793066e-05
      1.17930731e-05 9.29021462e-06 3.62193168e-05 -7.30958072e-06
      -1.11078407e-05 1.23747222e-05 -1.59229785e-06 -3.06952006e-06
      1.83518332e-05 5.61572051e-05 5.67051029e-05 6.68413413e-05
      3.77917022e-05 3.55676857e-05 3.22002707e-05 -3.88004300e-05
      -4.58407485e-05 -5.00337665e-05 -8.61796343e-06 -2.03250256e-05
      -2.59271492e-05 5.06333781e-05 3.97961885e-05 3.63512627e-05
      1.24748194e-05 3.76874414e-06 4.27978885e-05 2.23961047e-06
      -2.56950079e-05 2.85888855e-05 -1.69807845e-06 -1.91428462e-05
      1.82249896e-05 1.01942451e-05 5.18474053e-07 7.94745138e-05
      8.17453765e-05 8.22166912e-05 -9.50540380e-06 -6.07534957e-06
      1.65568981e-05 -4.21862205e-05 -3.56751407e-05 -1.26150171e-05
      -3.30994044e-05 -2.73924234e-05 -1.79624130e-05 1.16768597e-05
      1.52086886e-05 1.91574927e-05 2.62692683e-05 2.26522843e-05
      4.44883299e-05 -4.16767871e-05 -4.11044712e-05 -9.92129480e-06
      5.43275273e-05 5.97016806e-05 7.06547071e-05 1.52866087e-05
      2.05147244e-05 3.22822962e-05 -9.40319733e-05 -8.91447125e-05
      -9.27896326e-05 -2.80484455e-05 -3.18447055e-05 -3.79026969e-05
      2.80156819e-05 1.49854204e-05 1.50626020e-05 1.11756977e-04
      9.75273797e-05 1.01338468e-04 3.52352617e-05 3.05143003e-05
      4.38058123e-05 5.37407914e-06 -2.07849098e-05 1.65335623e-05
      -1.00302632e-05 -2.82609981e-05 6.51460359e-05 5.84958725e-05
      4.64485383e-05 5.07381628e-05 5.35127328e-05 5.82111752e-05
      -1.77532002e-05 -1.10505498e-05 1.20211698e-05 -6.45941545e-05
      -5.93726581e-05 -2.81109969e-05 -1.80541138e-05 -1.55293492e-05
      -4.00494719e-06 3.44849213e-05 3.43155116e-05 2.61765072e-05
      1.77155562e-06 -3.16026126e-06 2.38644097e-05 -8.07718243e-06
      -1.05754953e-05 2.61762743e-05 4.32099478e-05 4.73019572e-05
      6.38684214e-05 1.02972290e-05 1.74265533e-05 2.41778962e-05
      -8.79916261e-05 -8.36808613e-05 -8.63885725e-05 -6.96878124e-05
      -7.28015002e-05 -7.63676508e-05 2.42064598e-05 1.12529151e-05
      1.21317471e-05 1.36119525e-05 4.39752012e-06 4.14327906e-06
      3.86940737e-05 3.42904932e-05 1.78228329e-05 -1.44903606e-05
      -4.54095716e-05 1.37817699e-06 -2.02450829e-05 -3.54790645e-05
      1.02866092e-04 9.64120554e-05 8.75100595e-05 1.17080908e-05
      1.85833360e-05 2.34446197e-05 -4.00054778e-05 -3.46800844e-05
      -8.39391214e-06 -6.84183178e-05 -6.64265172e-05 -2.96184062e-05
      7.83810083e-06 3.75096079e-06 1.40934981e-05 4.75920206e-05
      4.10116518e-05 4.91807186e-05 2.41195266e-05 1.75834211e-05
      3.98061566e-05 -1.12854741e-05 -1.72285490e-05 1.11153995e-05
      2.29942525e-05 2.73110909e-05 3.64529624e-05 3.89406268e-05
      4.66214733e-05 5.24639072e-05 -7.53038403e-05 -7.18162628e-05
      -7.17289950e-05 -1.94970494e-06 -3.05211688e-06 -5.20026424e-06
      5.00802453e-05 4.25069447e-05 4.39090873e-05 1.15777466e-05
      3.93664368e-06 6.42504028e-06 6.04045454e-05 5.61698944e-05
      2.17761899e-05 -2.59873855e-06 -3.84816594e-05 6.19217371e-06
      -9.09891605e-06 -2.35419666e-05 1.11416339e-04 1.10023575e-04
      1.05257604e-04 -2.01964522e-05 -1.16237270e-05 -2.92747404e-06
      -6.93309121e-05 -6.45351756e-05 -3.26092049e-05 -5.66257877e-05
      -6.02556429e-05 -2.24904034e-05 2.55497889e-05 1.86874076e-05
      1.93840806e-05 5.59162254e-05 4.86851604e-05 5.89027186e-05
      -2.57821102e-05 -3.43145584e-05 -2.01241182e-05 -1.52949233e-05
      -2.53144699e-05 2.32070829e-06 5.31391233e-05 5.60189037e-05
      6.60465084e-05 -4.03754029e-06 -3.96253739e-07 6.83583130e-06
      -7.26088765e-05 -6.67356508e-05 -6.40031358e-05 -3.15920879e-05
      -2.90239332e-05 -2.83872687e-05 7.04105696e-05 7.07120707e-05
      7.08671287e-05 3.05592148e-05 2.56826806e-05 2.96518338e-05
      8.11209029e-05 7.86207602e-05 -8.47379943e-06 -2.25192362e-05
      -5.94025296e-05 -1.74520392e-05 -2.55218965e-05 -3.88348562e-05
      7.79050242e-05 8.40332068e-05 7.91266284e-05 -3.24827306e-05
      -2.19070589e-05 -9.52475602e-06 -6.98905060e-05 -6.72022870e-05
      -3.35599834e-05 -3.37751007e-05 -3.80935708e-05 -8.43519729e-07
      3.00101819e-05 1.89217862e-05 2.64302762e-05 4.35154761e-05
      3.05958783e-05 4.27994710e-05 -5.99210507e-05 -7.55011133e-05
      -6.21526342e-05 -7.65691675e-06 -1.68813367e-05 -2.27381752e-05
      -1.17395946e-04 -1.21084617e-04 -1.09899782e-04 -3.91427202e-05
      -3.54768381e-05 -2.87695166e-05 -5.78174840e-05 -5.24428506e-05
      -4.92671570e-05 -6.97112682e-06 -1.05470212e-06 1.16121919e-06
      4.16931653e-05 4.34369540e-05 4.59896219e-05 -9.83256086e-06
      -6.34243543e-06 -5.99172745e-06 9.27559522e-05 9.33576594e-05
      -4.75153911e-06 -1.47874380e-05 -4.22302255e-05 -6.54931728e-06
      -1.23697364e-05 -2.24120577e-05 5.22127848e-05 6.23903688e-05
      5.96058853e-05 -3.69853187e-05 -2.59101344e-05 -1.22585561e-05
      -6.61600279e-05 -6.52715316e-05 -2.82985548e-05 -1.23503723e-05
      -1.84755627e-05 2.07275643e-05 2.93688172e-05 1.60276668e-05
      3.40890583e-05 2.46402869e-05 6.98274562e-06 2.18353289e-05
      -3.43582942e-05 -5.05146272e-05 -3.56436067e-05 -2.11712231e-05
      -3.12036209e-05 -2.39051551e-05 -8.49022617e-05 -8.50471333e-05
      -7.96631793e-05 -2.69135744e-05 -2.46887685e-05 -1.87314254e-05
      6.55362237e-05 7.39551178e-05 7.60448456e-05 -4.94444103e-05
      -4.17664705e-05 -3.81993086e-05 9.78550588e-07 7.33602019e-06
      7.98836390e-06 1.58975145e-05 1.72836862e-05 2.06121094e-05
      9.79030665e-05 9.90336630e-05 5.66424660e-06 -2.01426656e-06
      -1.95134817e-05 9.06920923e-06 8.11854625e-06 -2.69096063e-06
      4.23407291e-05 5.65821065e-05 5.10694772e-05 -3.95602074e-05
      -2.76079045e-05 -1.51045560e-05 -6.82456812e-05 -6.58505596e-05
      -3.05806207e-05 2.64996083e-06 -5.18200886e-06 3.11302501e-05
      3.13742712e-05 1.45082722e-05 3.49447801e-05 8.31648595e-06
      -1.07072938e-05 2.90364255e-06 -3.47401474e-05 -5.37809101e-05
      -4.14264468e-05 2.07457015e-06 -9.32431612e-06 -2.87755074e-06
      4.18564414e-05 3.66386885e-05 4.31326516e-05 9.13248514e-05
      9.48685483e-05 1.02183018e-04 3.71543342e-06 1.35527598e-05
      1.50921178e-05 -1.09097287e-04 -1.02037870e-04 -9.85418956e-05
      1.47900018e-05 2.17136658e-05 2.43240829e-05 3.35939433e-07
      2.98639316e-06 6.44047122e-06 1.11660098e-04 1.13088492e-04
      -1.20505083e-05 -2.13725234e-05 -3.47051755e-05 -1.21816447e-05
      -1.39637077e-05 -2.26895609e-05 4.22650519e-05 5.45195107e-05
      4.96531320e-05 -3.97711556e-05 -2.77018316e-05 -1.51888034e-05
      -7.64289580e-05 -7.18282608e-05 -3.76654825e-05 -3.47503646e-06
      -8.82523818e-06 2.47568096e-05 6.23224769e-05 4.72298634e-05
      5.34824212e-05 -1.01205878e-05 -2.67618052e-05 -1.56007445e-05
      -1.85387962e-05 -3.54638105e-05 -2.62642461e-05 5.49030156e-05
      4.35205548e-05 5.07405202e-05 7.32660410e-05 6.75198753e-05
      7.52006163e-05 5.87733120e-05 5.90530144e-05 6.67749191e-05
      -3.09566326e-06 5.67452844e-06 7.53686845e-06 -1.17579031e-04
      -1.10333611e-04 -1.06778425e-04 1.03854163e-05 1.43874850e-05
      1.78703867e-05 4.57679562e-06 9.74482191e-06 1.17430318e-05
      1.15101830e-04 1.16937648e-04 2.96506073e-06 -1.03437051e-05
      -1.96340807e-05 9.34517357e-06 2.04009848e-06 -4.55204326e-06
      3.84047817e-05 4.78441289e-05 4.02918013e-05 -2.72967445e-05
      -1.66371829e-05 -1.06917250e-05 -7.36286602e-05 -6.83719991e-05
      -3.94899434e-05 4.00020872e-06 1.00734803e-06 3.07971168e-05
      3.95366915e-05 2.77423133e-05 3.81118771e-05 -5.60225953e-06
      -1.90435167e-05 -1.14993891e-05 -1.39566737e-05 -3.17384620e-05
      -1.81975684e-05 4.39156393e-05 3.09943134e-05 4.13214984e-05
      6.75991250e-05 6.30817085e-05 7.32114349e-05 6.18126869e-05
      6.23131709e-05 6.79395525e-05 -6.99290104e-06 9.76921910e-07
      3.48611616e-06 -1.16518611e-04 -1.10189547e-04 -1.07832733e-04
      1.00256702e-05 1.35403125e-05 1.51016302e-05 4.34583126e-06
      7.73890861e-06 7.42951215e-06 1.33891270e-04 1.33757509e-04
      5.18025299e-05 2.96074722e-05 2.46920681e-05 4.65203448e-05
      3.59984333e-05 2.88017036e-05 4.93762236e-05 5.78363033e-05
      4.63209180e-05 -2.63086786e-05 -1.37674451e-05 -1.57088252e-05
      -7.69683029e-05 -6.88959044e-05 -4.91447572e-05 1.10386272e-05
      9.36136985e-06 3.21518819e-05 2.23024508e-05 1.70026178e-05
      2.21055270e-05 1.59119027e-05 2.89945137e-06 8.94719597e-06
      -1.64339781e-05 -3.41500454e-05 -1.51392305e-05 3.56217024e-05
      2.40514892e-05 4.17048286e-05 6.37729972e-05 6.05631321e-05
      7.49943574e-05 6.26190304e-05 6.58324934e-05 7.29870007e-05
      -5.02252851e-06 -1.46137859e-06 4.68431290e-06 -1.14426308e-04
      -1.09867979e-04 -1.08598448e-04 1.47718365e-05 1.65342390e-05
      1.45936147e-05 7.13260260e-06 6.22462767e-06 7.35073763e-06
      1.35196984e-04 1.34689064e-04 7.09389060e-05 4.02638652e-05
      2.74396843e-05 5.17834596e-05 3.28166061e-05 2.42458391e-05
      8.44957103e-05 8.64013200e-05 7.39103343e-05 -3.15343750e-05
      -2.05473771e-05 -2.57944193e-05 -7.02681646e-05 -6.11468349e-05
      -4.67346108e-05 1.16371086e-06 6.12426538e-06 2.36932228e-05
      1.84004257e-05 1.64974190e-05 9.49093464e-06 1.42850413e-05
      7.82817733e-06 1.01371916e-05 -4.29148313e-05 -5.48312346e-05
      -3.24867251e-05 3.91359208e-05 2.77212257e-05 5.41676236e-05
      6.21460495e-05 6.13450102e-05 7.76324014e-05 5.73694379e-05
      6.26100082e-05 7.14926136e-05 -2.94833967e-06 1.91391587e-06
      6.28356702e-06 -1.20023571e-04 -1.15776049e-04 -1.16391631e-04
      2.12536288e-05 1.91128056e-05 1.81413670e-05 9.62867762e-06
      4.10768052e-06 4.60233696e-06 1.34888163e-04 1.31674562e-04
      6.69102446e-05 2.94717720e-05 9.79006745e-06 2.89180734e-05
      3.86413967e-06 -2.05259767e-06 1.17375334e-04 1.12917056e-04
      9.81909252e-05 -3.48579269e-05 -2.45197734e-05 -3.75831296e-05
      -5.44579270e-05 -4.21121040e-05 -3.78541881e-05 -1.53091150e-05
      -5.66074414e-06 2.82686688e-06 3.65140659e-05 3.92498951e-05
      9.05377692e-06 1.56631359e-05 1.52623015e-05 1.61717362e-05
      -7.17391013e-05 -8.05518503e-05 -5.11013095e-05 3.62157552e-05
      2.61709338e-05 5.16723485e-05 6.38919300e-05 6.19320490e-05
      8.30895660e-05 4.97985384e-05 5.36189727e-05 6.25058310e-05
      4.24650079e-06 6.53268717e-06 1.12768112e-05 -1.26338331e-04
      -1.29166496e-04 -1.28865257e-04 2.31989234e-05 1.70836938e-05
      1.34194097e-05 1.40251796e-05 2.72748980e-06 4.18749050e-06
      1.48907478e-04 1.43982514e-04 6.78675569e-05 2.17681754e-05
      -4.07559310e-06 1.85490953e-05 -1.52997072e-05 -2.13430885e-05
      1.15176997e-04 1.09798188e-04 8.84319597e-05 -2.50713401e-05
      -1.65877373e-05 -3.62550199e-05 -4.80910167e-05 -3.21457337e-05
      -3.84370760e-05 -4.04780112e-05 -2.95001573e-05 -2.76468418e-05
      4.21807490e-05 5.36682346e-05 1.46261200e-05 2.01192088e-05
      2.41381531e-05 1.91579638e-05 -6.80047087e-05 -7.54326975e-05
      -4.31466433e-05 1.30669305e-05 4.47344928e-06 4.30383116e-05
      6.46037952e-05 6.57747878e-05 8.98002691e-05 4.59149196e-05
      4.89651211e-05 6.09282142e-05 1.17556538e-05 1.24722383e-05
      1.64609155e-05 -1.27361171e-04 -1.35855880e-04 -1.35135037e-04
      2.16851568e-05 1.04362889e-05 5.62757668e-06 1.56094447e-05
      3.75712625e-06 2.65538756e-06 1.43526704e-04 1.39622076e-04
      6.46306580e-05 1.19221768e-05 -1.07375063e-05 2.37840250e-05
      -1.29080281e-05 -2.22177605e-05 8.53659585e-05 7.72771091e-05
      5.39868961e-05 1.81450978e-05 2.41137786e-05 1.16903573e-06
      -2.84929993e-05 -1.41659593e-05 -2.36738197e-05 -5.94140656e-05
      -4.16825205e-05 -4.89409031e-05 3.46633860e-05 5.15809224e-05
      2.40850532e-05 1.73515164e-05 2.85923652e-05 1.87692385e-05
      -3.46317029e-05 -3.88994340e-05 -3.06906213e-06 -3.52902643e-05
      -3.92568254e-05 4.15363411e-06 7.08506705e-05 7.13592017e-05
      9.42061961e-05 4.86180288e-05 4.98287409e-05 6.42467057e-05
      1.33788881e-05 1.54730187e-05 1.62825963e-05 -1.26590399e-04
      -1.34109461e-04 -1.35421884e-04 1.28269785e-05 -1.59630247e-06
      -6.21564595e-06 2.01035582e-05 2.36216329e-06 3.47343735e-06
      1.32439833e-04 1.29434353e-04 5.38081404e-05 1.81663631e-06
      -1.26880195e-05 2.56190469e-05 -1.31723773e-05 -1.69017712e-05
      4.65375015e-05 2.97542319e-05 1.45546755e-05 4.26334555e-05
      4.56128691e-05 2.76903556e-05 -2.26705724e-05 -1.62411343e-05
      -1.93739397e-05 -6.87854772e-05 -5.38618151e-05 -5.83073997e-05
      2.30908518e-05 4.05180290e-05 2.39716446e-05 2.36272881e-05
      3.70255184e-05 1.83370485e-05 -3.68277688e-06 -3.40562269e-06
      2.57493284e-05 -7.40877513e-05 -7.79058246e-05 -3.66669992e-05
      6.85284249e-05 6.98196600e-05 9.37028381e-05 4.83383592e-05
      4.80466479e-05 6.79929726e-05 9.66191328e-06 7.60541161e-06
      1.78879855e-05 -1.26605679e-04 -1.34297807e-04 -1.33629001e-04
      -7.32905846e-07 -1.40769444e-05 -2.14680676e-05 1.37619563e-05
      2.56685303e-06 -3.93309574e-06 1.36559975e-04 1.33963156e-04
      7.13868794e-05 2.05664783e-05 7.55759174e-06 4.68220605e-05
      6.45596174e-06 1.13864007e-05 6.94032906e-06 -1.93712858e-05
      -1.79775525e-05 8.67470953e-05 7.28338564e-05 7.55690853e-05
      -4.08465951e-07 -1.81827076e-07 7.61137426e-06 -4.98212103e-05
      -4.16705698e-05 -3.54385957e-05 -3.15601137e-05 -1.71213469e-05
      -2.19430749e-05 4.38288589e-05 5.76624661e-05 3.28757123e-05
      1.47055680e-05 1.97130121e-05 3.25323526e-05 -6.94409537e-05
      -6.85048362e-05 -3.69152476e-05 1.96477540e-05 1.30208600e-05
      5.11685830e-05 5.74476435e-05 5.03431584e-05 8.55654580e-05
      1.78716618e-05 1.44616797e-05 3.31835327e-05 -3.62876835e-06
      -1.06816310e-06 -5.47334082e-07 1.45742466e-04 1.50442269e-04
      1.32192974e-04 1.43946367e-04 1.50250591e-04 1.24198021e-04
      1.07497806e-04 1.08121138e-04 9.42903862e-05 5.28631317e-05
      3.69101508e-05 7.38807357e-05 3.61734565e-05 2.50792418e-05
      -4.51920168e-05 -7.19922755e-05 -6.53016468e-05 9.99913536e-05
      8.32006408e-05 9.09668597e-05 -5.32060267e-06 -8.61547960e-06
      -1.39919632e-06 -2.64337032e-05 -2.10822018e-05 -1.66264836e-05
      -5.78377112e-05 -4.52140594e-05 -4.83389194e-05 4.30152541e-05
      5.46585543e-05 4.90661405e-05 2.61415280e-05 3.25179972e-05
      3.39166982e-05 -1.08719278e-05 -1.36660101e-05 6.04031447e-06
      -5.24401803e-05 -5.61312991e-05 -2.19429439e-05 1.32916930e-05
      5.63930485e-07 3.81657992e-05 1.13882095e-06 -5.86865963e-06
      2.12553350e-05 -2.01265493e-06 -1.31163586e-06 6.11390851e-06
      1.34645350e-04 1.44783247e-04 1.34540955e-04 1.01955113e-04
      1.11975642e-04 9.31371906e-05 6.57177516e-05 6.80196827e-05
      6.57154960e-05 2.77137606e-05 1.63160312e-05 3.45151602e-05
      1.82805763e-06 -1.54018144e-05 -3.84469058e-05 -6.15353565e-05
      -5.57862550e-05 1.19993556e-05 -4.93099947e-07 4.59167723e-06
      6.13183583e-05 6.56485281e-05 6.00090934e-05 -3.67864523e-05
      -2.43040213e-05 -3.07610862e-05 -4.50267507e-05 -3.56750570e-05
      -3.33986354e-05 -2.87574858e-05 -1.72301934e-05 -8.61060835e-06
      4.62709722e-05 4.78696711e-05 3.27523339e-05 1.12681319e-05
      5.42577300e-06 1.82741514e-05 -4.69577681e-05 -5.91345924e-05
      -3.53862633e-05 -1.55748239e-05 -2.88932642e-05 4.90333105e-06
      7.41800750e-06 -2.68398844e-06 2.80443492e-05 3.87298460e-05
      3.16371079e-05 5.61584930e-05 6.86682179e-05 6.93659094e-05
      8.59647917e-05 -4.98556460e-07 1.89360537e-06 7.78248341e-06
      -2.74625131e-06 -5.55065662e-06 1.88269023e-05 -1.06324751e-05
      -2.18296263e-05 -6.52818926e-06 -3.27056914e-05 -4.71613021e-05
      -7.39929965e-06 -2.46268555e-05 -3.86868378e-05 -9.57626762e-05
      -1.00928264e-04 -1.02600767e-04 6.84956904e-05 7.84021468e-05
      6.42041414e-05 -1.90000501e-05 -5.03994670e-06 -1.64287376e-05
      -2.56028106e-05 -1.47192131e-05 -1.47239944e-05 -6.01943320e-05
      -5.62857967e-05 -4.65036355e-05 3.16176338e-05 3.01746550e-05
      4.25688595e-05 3.02070348e-05 2.23734078e-05 2.38625362e-05
      1.72331820e-05 4.21443428e-06 2.13902058e-05 -4.32050074e-05
      -5.85272901e-05 -3.39583785e-05 -9.64508217e-06 -2.19014692e-05
      5.13032637e-06 3.09197858e-05 2.25507956e-05 5.17031403e-05
      3.10283831e-05 2.62184531e-05 5.45313087e-05 -2.63648853e-05
      -3.01874825e-05 -7.52094502e-06 -1.82944386e-05 -2.03620602e-05
      -2.50767789e-05 -4.98702211e-05 -6.73178292e-05 -1.35503706e-05
      -3.06113652e-05 -5.53868231e-05 -2.17008583e-05 -3.02130866e-05
      -6.36199256e-05 -6.67166023e-05 -6.58508070e-05 -8.27691911e-05
      -1.16283572e-05 -1.92354992e-06 -1.93541164e-05 5.14058956e-05
      6.66680789e-05 5.46863193e-05 -2.75242637e-05 -1.69735195e-05
      -1.95225057e-05 -3.89729175e-05 -3.55214870e-05 -2.76179817e-05
      -3.60618833e-05 -4.54198962e-05 -2.15823202e-05 6.29136412e-05
      4.70004234e-05 4.82655596e-05 4.38666102e-05 2.59114095e-05
      3.26004774e-05 -1.46670554e-05 -2.99227959e-05 -1.80314873e-05
      -4.40462463e-05 -5.11027756e-05 -3.13806086e-05 -1.11500628e-06
      -8.94810910e-06 1.44519136e-05 3.25854380e-05 2.62490266e-05
      5.80065062e-05 3.36113917e-05 2.97215847e-05 5.61815323e-05
      2.80358490e-05 2.38499670e-05 -3.47052446e-05 -5.68852229e-05
      -8.21284193e-05 -4.66337951e-06 -2.41622074e-05 -4.92706349e-05
      -4.33467285e-05 -5.04207710e-05 -7.91975690e-05 -2.93456087e-05
      -2.63047550e-05 -5.50781187e-05 -6.36715122e-05 -5.40123183e-05
      -7.35164067e-05 4.19356984e-05 5.28539713e-05 3.87925575e-05
      7.02449233e-06 1.50743344e-05 1.09595630e-05 -2.19583235e-05
      -2.45328465e-05 -1.56917868e-05 -4.92287436e-05 -6.30270661e-05
      -3.61169332e-05 1.12168455e-05 -6.93003221e-06 2.01131916e-05
      5.66190065e-05 4.14623610e-05 3.46308261e-05 3.43657121e-05
      2.10860144e-05 1.74259731e-05 -3.14651584e-06 -1.03579232e-05
      -8.20704554e-06 -3.91146314e-05 -4.23599195e-05 -3.16661826e-05
      -7.42990051e-06 -8.17602995e-06 1.17437376e-05 2.59663848e-05
      2.58671498e-05 4.92788204e-05 2.44751463e-05 2.26584361e-05
      -8.36435811e-06 -3.18322091e-05 -6.55719923e-05 -1.24846292e-05
      -3.10425967e-05 -6.46443223e-05 -3.64154948e-05 -4.58819122e-05
      -7.85977827e-05 -3.76308308e-05 -4.40584372e-05 -7.90866179e-05
      -5.58234206e-05 -5.25371834e-05 -7.50226391e-05 -4.43354693e-05
      -3.93698647e-05 -4.97074689e-05 4.62812532e-05 4.79811461e-05
      4.53224275e-05 6.01282863e-06 4.03802822e-08 1.07695105e-05
      -1.45218528e-05 -2.58874370e-05 -5.12024462e-06 -3.45687986e-05
      -5.05536773e-05 -2.80517543e-05 1.40343345e-05 1.88104877e-06
      1.51631648e-05 5.56911946e-05 4.54449764e-05 3.82440157e-05
      3.13002020e-05 2.93803259e-05 1.40732636e-05 -5.43535543e-06
      -1.20157029e-06 -1.45902904e-05 -2.75233124e-05 -1.94534132e-05
      -2.07507455e-05 2.94637039e-06 1.12557509e-05 1.14809436e-05
      4.29144930e-05 4.53380198e-05 -3.36404264e-05 -6.08409609e-05
      -9.65871659e-05 -3.95530187e-05 -6.54807081e-05 -9.88628381e-05
      -2.89287182e-05 -4.54819856e-05 -7.65341465e-05 -1.40818411e-05
      -2.47417738e-05 -5.60540684e-05 -2.77117251e-05 -3.17857812e-05
      -6.92309550e-05 -7.22164550e-05 -7.73272477e-05 -8.72880191e-05
      2.14039937e-05 1.38794503e-05 1.88814192e-05 2.97504957e-05
      2.13312669e-05 3.21292428e-05 -2.66379459e-07 -1.01293999e-05
      3.52506254e-06 -2.14670290e-05 -2.96240105e-05 -1.74354991e-05
      -4.58830691e-05 -5.71901837e-05 -4.41667034e-05 3.07165537e-05
      2.65275503e-05 2.60363195e-05 5.50862278e-05 5.91844509e-05
      2.91433571e-05 3.27279413e-05 4.29776228e-05 2.07834873e-05
      3.61714160e-06 1.74374090e-05 -2.25998019e-06 -3.90189161e-05
      -2.70511300e-05 -4.08708620e-05 -2.31998183e-05 -1.53069886e-05
      -3.94034832e-05 -7.45586003e-05 -1.08135318e-04 -1.95365828e-05
      -5.01161267e-05 -8.35231767e-05 -2.65192211e-05 -5.60603512e-05
      -8.39305285e-05 -5.05963508e-05 -7.25998179e-05 -9.73905262e-05
      -2.75558250e-05 -4.38474235e-05 -7.54945941e-05 -3.02261633e-05
      -4.47922066e-05 -5.99468185e-05 -5.33612656e-05 -6.59717334e-05
      -6.11706637e-05 6.79500863e-06 -2.36504638e-06 6.04502657e-06
      1.23755108e-05 4.21681443e-06 9.55436008e-06 -5.42056932e-06
      -9.08090169e-06 -5.57636531e-06 -7.24982692e-06 -1.18402477e-05
      -6.20850324e-06 -4.59911971e-05 -4.51909982e-05 -4.26125516e-05
      -3.17639746e-07 5.57391104e-06 3.84955229e-06 5.24045499e-05
      6.27242262e-05 3.73238800e-05 4.85010387e-05 6.15084282e-05
      2.65712079e-05 2.27402870e-06 1.74262987e-05 -4.70867735e-06
      -2.70430100e-05 -1.52500670e-05 -4.66939600e-05 -7.95343585e-05
      -1.06889667e-04 -2.15738964e-05 -6.12728109e-05 -8.61057997e-05
      -2.42092465e-05 -5.48096032e-05 -8.27650147e-05 -2.67966261e-05
      -5.39087050e-05 -7.96632958e-05 -2.40741920e-05 -5.02385083e-05
      -6.43755484e-05 -5.81485983e-06 -2.87967796e-05 -5.37562955e-05
      -2.53877715e-05 -4.42533674e-05 -4.15510985e-05 -3.08247581e-05
      -4.24398531e-05 -3.87584660e-05 4.34753820e-05 3.71994392e-05
      3.66595232e-05 1.91896161e-05 1.92444058e-05 1.74263550e-05
      -2.39318615e-05 -2.15150212e-05 -2.10614689e-05 -2.59388871e-05
      -2.12997529e-05 -1.83726097e-05 -2.66904772e-05 -2.34187337e-05
      -1.96468300e-05 -1.86858288e-05 -8.25285406e-06 -1.19894939e-05
      4.82468204e-05 5.94712365e-05 4.44688339e-05 2.59870740e-05
      3.98043994e-05 3.12271777e-06 3.38180143e-05 4.49330619e-05
      -2.76050446e-06 -3.86949832e-05 -5.83071960e-05 3.77471661e-05
      1.77910044e-06 -1.81380674e-05 2.95694317e-05 -6.06321737e-06
      -3.05966787e-05 3.32274976e-06 -3.12351985e-05 -5.23520866e-05
      -5.63919957e-06 -3.82783437e-05 -5.28606579e-05 2.30635433e-05
      -6.14298779e-06 -2.26586290e-05 4.26346469e-06 -1.63638251e-05
      -3.84721425e-05 -2.66704155e-05 -4.15186951e-05 -4.49751969e-05
      -5.47796371e-05 -6.25478569e-05 -5.92565084e-05 3.68524088e-05
      3.75418640e-05 4.38559910e-05 3.43775209e-05 3.76564058e-05
      4.19421085e-05 -8.12080361e-06 -5.34032370e-06 3.05019148e-06
      -2.61001896e-05 -2.30958449e-05 -7.73151805e-06 -3.97057702e-05
      -3.64221087e-05 -2.48106280e-05 -4.76497298e-05 -4.40925724e-05
      -4.45801998e-05 2.30617079e-05 3.15024336e-05 2.27901473e-05
      5.43783171e-05 6.67154527e-05 -1.96258970e-05 -5.88442563e-05
      -7.35462891e-05 7.07095637e-07 -3.12178308e-05 -5.19141868e-05
      3.25550104e-07 -3.52048555e-05 -5.64210095e-05 -7.37695518e-06
      -4.34877365e-05 -6.59728394e-05 2.49534173e-06 -3.35435325e-05
      -5.20299509e-05 -3.29619138e-06 -3.06995498e-05 -5.02016374e-05
      -1.77363054e-05 -3.94077360e-05 -5.69006588e-05 -1.19193310e-05
      -2.81164248e-05 -4.80163326e-05 5.81687982e-06 -3.30665603e-06
      -7.76368779e-06 -3.72919931e-05 -3.94568924e-05 -3.16310616e-05
      1.80246407e-05 1.87826699e-05 2.83885311e-05 1.95675912e-05
      2.41353264e-05 3.49059883e-05 -1.44579590e-05 -1.30168937e-05
      6.64427080e-06 -2.29975922e-05 -2.20560269e-05 -3.52745337e-06
      -2.54701245e-05 -2.89405343e-05 -1.58692656e-05 -3.23727763e-05
      -3.26389454e-05 -2.78140633e-05 -3.90616769e-05 -3.05568392e-05
      -3.95205534e-05 -7.08166481e-05 -8.43481612e-05 -4.52511558e-05
      -7.10456006e-05 -8.96408019e-05 -3.14799036e-05 -6.44016109e-05
      -8.47464980e-05 -2.91399501e-05 -6.11658324e-05 -8.42727968e-05
      7.79995935e-06 -2.08072252e-05 -5.26807198e-05 -1.40014151e-06
      -2.53679500e-05 -5.66609815e-05 -1.62966114e-06 -2.14585361e-05
      -4.21838886e-05 3.07770529e-06 -9.69930534e-06 -2.55112118e-05
      2.75274833e-05 1.93107626e-05 4.37425479e-06 5.61449961e-05
      5.11868129e-05 4.49968429e-05 1.48476533e-06 8.73257761e-07
      1.18381085e-05 1.32320356e-05 1.29707787e-05 3.20187610e-05
      2.65085291e-05 2.57180982e-05 4.11911606e-05 -2.18823999e-07
      -1.49895811e-06 1.46234506e-05 -1.83231032e-06 -7.43503369e-06
      1.32397154e-05 -1.86793332e-05 -2.47560183e-05 -7.19530408e-06
      -1.77203474e-05 -1.94705244e-05 -3.39643975e-06 -2.73202259e-05
      -3.92444344e-05 1.34317111e-06 -2.51176207e-05 -4.24619320e-05
      1.24994892e-06 -2.36561536e-05 -4.65359626e-05 -1.73767367e-05
      -4.46013146e-05 -7.44589343e-05 1.85017070e-05 -8.19445177e-06
      -4.56114503e-05 3.06041620e-05 8.04809406e-06 -2.81316024e-05
      4.15351715e-05 2.15394375e-05 -4.21828281e-06 3.19288520e-05
      1.56572332e-05 -3.04400601e-06 3.24801877e-05 2.37269614e-05
      1.02825243e-05 5.03461924e-05 4.69202896e-05 2.50437006e-05
      3.67599023e-05 3.42104067e-05 2.21737337e-05 -5.76688035e-06
      -6.33789386e-06 4.41122165e-06 -7.68943437e-07 -1.24523433e-06
      8.04145657e-06 3.38085592e-05 2.92682562e-05 4.42265955e-05
      2.82856035e-06 -6.33918717e-06 1.17399513e-05 -1.04114642e-05
      -1.88227605e-05 -1.42782870e-08 -1.57326122e-05 -2.09004484e-05
      3.36180274e-05 1.41312757e-05 5.02403873e-06 3.90979258e-05
      2.01436033e-05 5.01033082e-06 1.78133796e-05 -6.97572347e-08
      -2.92918248e-05 7.32285071e-06 -1.07452961e-05 -4.80782437e-05
      2.48024153e-05 4.73472028e-06 -3.43914071e-05 1.15606244e-05
      -7.44102817e-06 -4.67907885e-05 1.69332707e-05 -1.16450940e-06
      -3.53621872e-05 2.28391236e-05 1.28289266e-05 -1.52665416e-05
      4.81861352e-05 4.01774523e-05 1.89327529e-05 -1.54497138e-05
      -1.99412243e-05 -3.47677051e-05 2.01777311e-05 1.76458980e-05
      4.18558238e-06 4.85685305e-05 4.86610406e-05 2.60673678e-05
      4.01500401e-05 3.79278063e-05 3.07398732e-05 1.04786786e-05
      5.20137019e-06 1.37805791e-05 3.18907478e-05 2.25308740e-05
      3.53121577e-05 2.83100562e-05 1.80350653e-05 3.00278843e-05
      1.39609811e-05 1.13890901e-05 8.21008871e-06 -1.11144673e-05
      -2.02791944e-05 3.12086104e-06 -1.42824174e-05 -3.10981959e-05
      -3.71470669e-05 -5.34511128e-05 -8.25399038e-05 -2.61828573e-05
      -3.94898634e-05 -7.57697708e-05 -2.12664345e-05 -3.45223234e-05
      -7.27186853e-05 -3.30315233e-05 -4.98142326e-05 -8.45372269e-05
      -2.76336777e-05 -3.60381200e-05 -6.87412903e-05 -3.38892028e-06
      -1.62464021e-05 -4.36100236e-05 -8.78305127e-06 -1.77694692e-05
      -4.21483783e-05 8.86167345e-06 6.23249480e-06 -1.46888806e-05
      -1.31967399e-05 -1.58795883e-05 -3.72367358e-05 4.88335309e-06
      5.17575245e-06 -1.12692287e-05 4.34602553e-05 4.18015479e-05
      2.45027586e-05 6.41331426e-05 5.98616680e-05 4.20299111e-05
      2.12337582e-05 1.50069782e-05 1.10904366e-05 2.30080259e-05
      1.29130012e-05 1.66154896e-05 -2.27005899e-06 -3.93874916e-06
      3.12904285e-06 -1.83195698e-05 -3.25520050e-05 2.14331112e-06
      -1.68304268e-05 -3.69807422e-05 2.24052383e-06 -1.20556415e-05
      -3.78589102e-05 6.22617517e-06 -4.76320884e-06 -3.35142977e-05
      -1.08959957e-05 -1.95766515e-05 -4.89729427e-05 -2.25147305e-05
      -3.12087577e-05 -5.94952653e-05 -1.99080496e-05 -2.92174282e-05
      -5.19383029e-05 -4.94433471e-06 -1.39490103e-05 -3.25847104e-05
      3.27521848e-05 2.28355311e-05 5.47274749e-06 3.82082690e-05
      3.14478420e-05 9.07934282e-06 9.13109147e-07 -2.19267440e-06
      -3.19928440e-05 2.30847149e-06 4.01542479e-07 -2.76668779e-05
      2.85636652e-05 2.74812101e-05 2.96665303e-06 4.63854667e-05
      4.38550123e-05 2.55336327e-05 3.10304458e-05 2.71795416e-05
      1.46852444e-05 3.32199088e-05 3.05909853e-05 1.28202382e-05
      2.08587135e-05 2.23626412e-05 1.35930131e-05 -7.80461687e-06
      -2.43133672e-05 1.98894359e-05 1.95786743e-06 -1.86953894e-05
      2.77814124e-05 1.39622553e-05 -1.04332221e-05 3.18044113e-05
      2.27297678e-05 -5.65822893e-06 1.67724484e-05 9.72428188e-06
      -1.52369576e-05 6.80897074e-06 2.41672865e-07 -2.11170773e-05
      6.82611426e-06 -2.30055684e-06 -1.90630708e-05 1.61311455e-05
      5.47827995e-06 -9.55830183e-06 -8.19519573e-06 -1.79781618e-05
      -3.38363752e-05 -4.06876779e-06 -1.19650340e-05 -3.39766848e-05
      -2.33369501e-05 -2.89003638e-05 -5.98723527e-05 -1.51141385e-05
      -1.92165826e-05 -5.33895000e-05 -9.90468561e-06 -1.07036685e-05
      -4.14371279e-05 5.29935414e-06 4.04670209e-06 -2.08523634e-05
      7.52894630e-06 9.42025144e-06 -6.64682102e-06 2.63586317e-05
      2.46368327e-05 1.17923291e-05 3.09822462e-05 3.88679764e-05</_>
    <_>
      7.80758819e-06 3.08657509e-05 2.32670245e-05 6.20687524e-06
      2.75186685e-05 2.05822344e-05 -4.93519565e-06 1.43530860e-05
      8.12061353e-06 -1.39037493e-05 -4.10810981e-06 -6.29853366e-06
      -3.90270798e-05 -3.63487270e-05 -4.18775053e-05 -4.64628392e-05
      -5.11978724e-05 -5.05755270e-05 -2.70749351e-05 -3.83614024e-05
      -2.72411762e-05 -7.77539026e-06 -1.79701019e-05 -7.55856718e-06
      8.50158631e-06 -9.25400229e-07 8.23361006e-06 -3.78935729e-05
      -4.14825045e-05 -3.57257959e-05 -5.05564858e-05 -4.94718079e-05
      -5.25269788e-05 -3.42684216e-05 -2.83428762e-05 -4.00635545e-05
      -6.34257140e-06 4.15499517e-06 -1.93971919e-05 -8.06710250e-06
      4.91151786e-06 -2.25163931e-05 -5.87526472e-07 7.55378551e-06
      -2.20911024e-05 2.14210118e-07 7.49341325e-06 -2.58948967e-05
      -3.70713974e-06 5.80970550e-07 1.44679789e-05 3.62772989e-05
      2.89584968e-05 1.83127722e-05 3.95849602e-05 3.10698379e-05
      8.22965467e-06 2.69393149e-05 2.06620298e-05 8.03973035e-06
      2.01558050e-05 1.84811724e-05 7.36301445e-06 1.08917302e-05
      1.04517767e-05 -2.31127306e-05 -2.54869228e-05 -2.37111872e-05
      -2.85258720e-05 -3.44852815e-05 -2.81639914e-05 -2.31834056e-05
      -3.06786678e-05 -2.68926578e-05 -4.36917362e-05 -4.76873574e-05
      -4.60149276e-05 -1.82769836e-05 -1.76964622e-05 -2.38863613e-05
      -4.23201018e-05 -3.75257732e-05 -4.77260219e-05 -3.31992233e-05
      -2.74690519e-05 -4.49261388e-05 -1.58940802e-05 -8.08406548e-06
      -2.60691104e-05 -1.44984133e-05 -7.14067301e-06 -2.79523374e-05
      -5.70502107e-06 -3.32194617e-07 -2.37257445e-05 -6.42970144e-06
      -2.69570978e-06 -1.90714145e-05 2.62663325e-05 2.39369074e-05
      1.49303187e-05 3.47986388e-05 2.71808585e-05 6.82699329e-06
      2.33890914e-05 1.66843529e-05 -7.30307920e-06 7.59725344e-06
      5.07993263e-06 -6.19167122e-06 4.69193719e-06 8.67912968e-06
      2.67249798e-05 3.05012909e-05 3.78312761e-05 4.61923310e-06
      3.97557369e-06 1.17382351e-05 -6.03289163e-06 -6.31916191e-06
      -5.88963167e-06 4.19638081e-06 4.29310785e-06 -6.01931504e-07
      -2.77030267e-06 2.74886247e-06 -1.22416204e-05 -2.72188026e-05
      -2.08589154e-05 -4.06961117e-05 -2.76365772e-05 -1.80547686e-05
      -4.27852574e-05 -2.84669877e-05 -1.55082507e-05 -4.01567013e-05
      -1.69963769e-05 -1.22452038e-05 -2.63321945e-05 2.37777022e-05
      2.63860948e-05 2.22812304e-07 3.59323822e-05 3.68509500e-05
      2.11961215e-05 7.31726032e-05 7.07096842e-05 6.10936258e-05
      1.32280315e-04 1.26086496e-04 3.22995729e-05 4.20867691e-05
      3.57346798e-05 2.63755555e-05 3.94776398e-05 3.28132228e-05
      2.31598224e-05 3.46217967e-05 3.43264073e-05 9.81986705e-06
      1.82550757e-05 2.50617322e-05 3.59620208e-05 3.97356707e-05
      4.67657628e-05 1.76105241e-05 2.13888252e-05 2.50878275e-05
      -4.90978437e-06 4.54458768e-06 -5.47666923e-06 -2.72961893e-06
      7.32012222e-06 -1.48011577e-05 -6.29312990e-06 4.75705292e-06
      -2.26140874e-05 -3.88710305e-06 7.70381394e-06 -2.12071518e-05
      -1.65210076e-05 -5.67760617e-06 -3.64720254e-05 -6.64851086e-07
      7.06253832e-06 -2.42500228e-05 3.80753445e-05 4.03220620e-05
      2.39823730e-05 5.50085824e-05 5.43591086e-05 4.59219591e-05
      1.15757626e-04 1.12959809e-04 9.98179603e-05 1.09439454e-04
      1.02640894e-04 9.74346840e-05 3.00283536e-05 2.21248229e-05
      3.32006894e-05 3.77136566e-05 2.93878693e-05 3.20335312e-05
      3.96263567e-05 3.23209679e-05 2.36197211e-05 3.07425435e-05
      3.69126756e-05 1.49197549e-05 1.98251619e-05 2.89063282e-05
      2.10106955e-05 2.64911050e-05 2.91970809e-05 1.35578739e-05
      2.44004059e-05 1.52656594e-05 6.72270289e-06 2.16086919e-05
      -1.08832535e-06 1.37093809e-06 1.95486919e-05 -1.34521979e-05
      1.13018923e-05 2.88036408e-05 -6.51014307e-06 -1.22519878e-05
      7.80387779e-07 -3.01648124e-05 1.87323167e-05 2.66400475e-05
      -2.36741982e-07 6.20500577e-05 6.48937785e-05 4.16710027e-05
      1.05514337e-04 1.04010513e-04 8.40239663e-05 1.27024134e-04
      1.21864716e-04 1.06107655e-04 4.72085994e-05 4.34892499e-05
      3.18591992e-05 2.99405178e-06 -1.34959680e-06 -4.59397214e-08
      -2.62249378e-05 -3.64880652e-05 4.41268712e-05 4.64020886e-05
      3.96907126e-05 2.39684814e-05 2.85628939e-05 2.36602900e-05
      -7.84834901e-06 -2.99922999e-06 2.13845382e-07 -1.46602088e-06
      3.57693148e-06 5.81397353e-06 -3.79192988e-06 5.37775441e-06
      -4.53441089e-06 -6.85426812e-06 4.89879540e-06 -1.36646922e-05
      2.11163533e-05 3.77807155e-05 7.95002597e-06 2.70128530e-05
      4.64399527e-05 1.04807814e-05 4.94413780e-06 2.10959643e-05
      -1.49900634e-05 3.87709697e-05 5.02606927e-05 1.67919097e-05
      6.59898069e-05 6.64303152e-05 4.58191389e-05 1.20929166e-04
      1.13905422e-04 1.02687402e-04 8.89981966e-05 8.62412999e-05
      7.59908580e-05 2.39773544e-05 1.82957483e-05 1.03455877e-05
      -1.93600426e-05 -2.26935135e-05 -3.42528256e-05 -4.64254626e-05
      -4.92746913e-05 -4.69060251e-05 -5.69764961e-05 -6.14714809e-05
      4.58636132e-05 4.60466617e-05 4.72369029e-05 1.97805948e-05
      2.43139039e-05 2.26213906e-05 3.36283006e-06 1.20556606e-05
      5.92181868e-06 1.79008694e-05 2.87667062e-05 1.15272815e-05
      7.04312788e-06 2.16739609e-05 -4.61392574e-06 -3.63152731e-06
      1.27833391e-05 -1.84075216e-05 2.21148712e-05 4.07275329e-05
      2.02083402e-06 4.04846614e-05 5.42564048e-05 1.98236357e-05
      5.13912892e-05 6.00815729e-05 2.13185904e-05 9.37181394e-05
      9.29572998e-05 6.40276194e-05 1.35979149e-04 1.24134385e-04
      1.19684089e-04 4.36648843e-05 2.79193991e-05 3.84787963e-05
      -1.57973300e-05 -2.80249424e-05 -1.78391547e-05 -4.24402897e-05
      -5.01866343e-05 -4.71403182e-05 -4.49181316e-05 -4.51086853e-05
      -5.30374637e-05 -4.12617956e-05 -4.07938132e-05 -4.33569076e-05
      -2.95283735e-05 -2.88069550e-05 4.20594879e-05 4.66289821e-05
      4.84935408e-05 1.77416041e-05 2.39690798e-05 1.97636509e-05
      2.40808622e-05 3.38011487e-05 1.83718439e-05 1.65428009e-05
      3.29352770e-05 4.42896180e-06 6.27960435e-06 2.66415573e-05
      -1.11298559e-05 7.12401743e-06 2.73646274e-05 -1.20320719e-05
      2.00674804e-05 3.18639031e-05 -4.92059826e-06 3.74499432e-05
      4.27102932e-05 1.25239958e-05 1.13987400e-04 1.10335568e-04
      8.27039548e-05 1.14315313e-04 9.99433032e-05 9.01411549e-05
      4.24868413e-05 2.34566323e-05 3.35340192e-05 -1.23089312e-05
      -3.44779764e-05 -1.50744081e-05 -2.98957275e-05 -4.61679920e-05
      -2.49837976e-05 -2.49382410e-05 -3.09077186e-05 -2.16038352e-05
      -3.31241827e-05 -2.91479046e-05 -3.47074129e-05 -9.06313562e-06
      -1.41928899e-06 -1.28429283e-05 -2.62875292e-05 -2.27308064e-05
      3.52987445e-05 4.29907559e-05 3.97642107e-05 3.00115335e-05
      4.18792915e-05 3.13457967e-05 2.14926386e-05 3.37372658e-05
      1.64795292e-05 1.21613430e-05 2.88709325e-05 -1.83296368e-06
      2.86947834e-05 4.50326224e-05 4.53673238e-06 1.15905068e-05
      2.42048973e-05 -1.07781834e-05 6.77825592e-05 7.25540231e-05
      2.79366923e-05 1.09820809e-04 1.01339378e-04 7.36672955e-05
      1.26297193e-04 1.02553800e-04 1.02972444e-04 3.07507617e-05
      -1.21382493e-06 1.43703783e-05 -9.57985867e-06 -3.84283303e-05
      -1.52448574e-05 -2.33724404e-05 -4.93719053e-05 -2.50453013e-05
      -2.50553749e-05 -3.91106769e-05 -2.18349705e-05 -6.16170473e-06
      -7.61720685e-06 -1.25208339e-06 -1.11815452e-05 -3.60544868e-06
      -6.16256602e-06 -2.20722050e-05 -1.45712938e-05 -3.18048365e-06
      -1.50429869e-05 -1.46348439e-05 3.09085626e-05 4.20876968e-05
      3.38049867e-05 2.93528137e-05 4.02631122e-05 2.57776719e-05
      2.08871170e-05 3.58038560e-05 6.53957977e-06 2.06797995e-05
      3.42694511e-05 5.01011891e-06 2.36449323e-05 3.11872500e-05
      -4.21388813e-06 4.67135469e-05 5.10313694e-05 1.23728960e-05
      6.75288611e-05 5.99093983e-05 3.63910585e-05 1.17720694e-04
      9.65979561e-05 8.48785930e-05 4.23932870e-05 5.79215157e-06
      2.21026639e-05 9.64424453e-06 -3.26258596e-05 -3.13168766e-06
      -1.20674958e-05 -4.62290736e-05 -2.10674771e-05 -2.25240947e-05
      -4.69990628e-05 -2.75284456e-05 2.48030719e-05 9.90517401e-06
      2.09083701e-05 -1.82580970e-05 -2.12070354e-05 4.43005501e-06
      -2.97236311e-05 -2.20594338e-05 -7.71061332e-06 -4.50212283e-05
      -3.91214053e-05 -1.61901771e-05 -8.09908452e-05 -8.15376698e-05
      3.38964928e-05 4.10881839e-05 2.92654968e-05 2.45238734e-05
      3.62804822e-05 1.65740003e-05 2.75653529e-05 4.36100563e-05
      1.68097249e-05 3.65542951e-06 1.36281769e-05 -1.45167960e-05
      4.50702464e-05 4.61017735e-05 2.04523913e-05 8.74757170e-05
      8.01391434e-05 6.23953529e-05 9.95268783e-05 7.69870821e-05
      7.17079674e-05 5.40841247e-05 2.44156436e-05 3.13255186e-05
      1.10330211e-06 -3.59858786e-05 -1.37308916e-05 -1.95718949e-05
      -5.79253610e-05 -3.28244205e-05 -3.72870340e-06 -3.41787272e-05
      -1.86225880e-05 3.81845421e-05 1.57772629e-05 2.18599052e-05
      1.23153732e-05 1.36835729e-06 1.92075659e-05 -1.59950578e-05
      -1.95069733e-05 -9.62236754e-06 -6.93822149e-05 -6.38358761e-05
      -4.72446227e-05 -6.74221155e-05 -6.18664199e-05 -4.37869494e-05
      -7.17209878e-06 -1.17622840e-05 2.66102998e-05 3.02616736e-05
      1.35403743e-05 2.67304258e-05 3.69952941e-05 1.22408601e-05
      2.78776479e-05 3.83793013e-05 1.23204154e-05 3.43145584e-05
      3.93182963e-05 1.53975379e-05 6.38923666e-05 5.84131194e-05
      3.97522526e-05 1.22882630e-04 1.06795109e-04 9.92809510e-05
      8.22381771e-05 5.56838822e-05 6.47318084e-05 -4.41476504e-06
      -3.60002996e-05 -1.83643551e-05 -9.06884179e-06 -4.27248706e-05
      -2.04470398e-05 -2.01160474e-05 -5.34880637e-05 -3.63397412e-05
      3.42117055e-05 5.79595780e-06 1.17920754e-05 -4.36935488e-06
      -2.03472882e-05 -5.39663688e-06 -2.18197201e-05 -3.07424343e-05
      -1.95334305e-05 -6.94719420e-05 -7.26609214e-05 -5.94306875e-05
      -4.03814265e-05 -3.83968800e-05 -1.16689134e-05 -1.57785398e-05
      -1.47891369e-05 -1.26140912e-06 -1.00300940e-05 -1.60035997e-05
      1.46918283e-05 1.89428156e-05 -5.31416981e-06 2.58553519e-05
      2.88887986e-05 1.14907716e-05 3.69084410e-05 3.81913269e-05
      1.65475594e-05 8.79853615e-05 8.53687598e-05 5.35278014e-05
      9.65497529e-05 8.71038937e-05 7.14650741e-05 1.02056059e-04
      8.42942754e-05 8.01269780e-05 7.49802120e-06 -1.74873512e-05
      -3.10001974e-06 -9.48980687e-06 -3.68185611e-05 -1.48843210e-05
      -1.52476450e-05 -4.03842496e-05 -2.28875924e-05 2.97428251e-05
      6.74331841e-06 1.91122908e-05 4.01658735e-06 -1.43718826e-05
      -9.91489014e-06 -1.84733653e-05 -3.24248649e-05 -1.25754796e-05
      -5.12217375e-05 -5.91711141e-05 -5.37537744e-05 -3.59940641e-05
      -4.10976245e-05 -2.77748350e-05 6.31223202e-07 -3.53035512e-06
      9.86230316e-06 -1.43626278e-06 -8.20183686e-06 9.38377411e-07
      3.11841472e-06 -3.42273006e-06 1.97958652e-05 1.88204922e-05
      -5.74814794e-06 2.10847120e-05 1.93477790e-05 2.76960304e-06
      4.16987968e-05 3.56344244e-05 2.70384826e-05 8.75068945e-05
      7.61066476e-05 6.59384168e-05 1.35173847e-04 1.22228070e-04
      1.11911475e-04 3.60538907e-05 2.11319639e-05 1.57916329e-05
      -3.38996615e-05 -5.31010446e-05 -4.28339445e-05 -1.60093223e-05
      -3.50195696e-05 -2.05472534e-05 1.13560436e-05 -4.43403951e-06
      4.26802717e-06 2.70616019e-05 1.18154885e-05 1.43983025e-05
      2.18054447e-06 -9.28573445e-06 9.29416819e-06 -4.95669919e-05
      -6.01490283e-05 -4.84388038e-05 -2.58219661e-05 -3.53894502e-05
      -2.04895350e-05 -8.18128865e-06 -1.40520860e-05 -8.74175112e-06
      -1.53782980e-06 -1.26944578e-05 -7.75592525e-06 -9.75884450e-06
      -2.04181488e-05 -1.94546938e-05 -7.89112255e-06 -1.33394005e-05
      2.79339711e-05 1.50928299e-05 -1.27506178e-06 3.02390563e-05
      1.61123444e-05 1.61858009e-06 5.01478353e-05 3.79886842e-05
      2.03499676e-05 8.30625722e-05 7.08930456e-05 5.67735842e-05
      9.75361982e-05 8.39939894e-05 7.42704069e-05 3.01088562e-06
      -9.63363800e-06 -1.69028444e-05 -2.52544469e-05 -3.40305342e-05
      -3.75199088e-05 -1.19087599e-05 -2.09091631e-05 -1.75607602e-05
      1.70306048e-05 1.11699301e-05 1.71363627e-05 8.29741839e-06
      6.88751697e-07 1.78416667e-05 -2.06101686e-05 -2.75751772e-05
      -9.38259291e-06 -6.05658497e-05 -6.89031076e-05 -4.13748021e-05
      1.66983118e-05 7.13831196e-06 1.98625203e-05 1.27214407e-05
      1.20947936e-06 3.14208251e-06 6.03259032e-05 4.57193455e-05
      3.92245747e-05 6.29747592e-05 4.89037739e-05 3.66977511e-05
      3.89049783e-05 3.45581793e-05 2.80382865e-05 1.05429162e-05
      -6.07057245e-06 2.15717591e-05 7.05555294e-06 -5.42832595e-06
      8.35819810e-05 6.92637259e-05 5.27977427e-05 1.01739010e-04
      8.98603903e-05 7.50157051e-05 2.80962577e-05 1.46405428e-05
      7.62554419e-06 -7.90082777e-06 -1.80317438e-05 -2.39165693e-05
      -5.77550236e-06 -6.71647922e-06 -2.18570876e-05 2.48856122e-05
      2.63438051e-05 1.28682377e-05 9.11930510e-06 7.77151763e-06
      1.11703857e-05 -3.30180010e-05 -3.60306731e-05 -3.87180262e-06
      -7.86991804e-05 -8.00611597e-05 -5.54591606e-05 3.00840147e-05
      2.55966970e-05 3.79558842e-05 3.03681136e-05 1.84967939e-05
      3.15804245e-05 1.45710452e-04 1.30086599e-04 1.31255612e-04
      1.41621451e-04 1.22842597e-04 1.15675917e-04 8.74307079e-05
      7.33144116e-05 5.77716710e-05 4.54567862e-06 -5.86660053e-06
      3.28101269e-05 1.26030336e-05 -3.12915108e-06 4.99152520e-05
      3.77923352e-05 2.08539805e-05 7.61568444e-05 6.70496156e-05
      4.22785997e-05 9.11351599e-05 8.28663542e-05 6.62929597e-05
      -8.96697566e-06 -2.23883471e-05 -2.10002690e-05 -6.64212075e-06
      -1.83317279e-05 -1.72388409e-05 2.10216986e-05 2.70342844e-05
      -2.51823599e-06 3.39033140e-05 4.02681835e-05 2.25580898e-05
      -2.02910906e-05 -2.03977725e-05 2.24188934e-05 -4.89994127e-05
      -4.90422790e-05 -2.55646773e-05 -2.36062588e-05 -3.02093486e-05
      -2.05719552e-05 1.11267698e-04 1.08970737e-04 1.09426459e-04
      9.32933181e-05 7.85303637e-05 8.50217693e-05 1.49193278e-04
      1.30607412e-04 1.38207979e-04 1.88915044e-04 1.76836096e-04
      1.71974578e-04 1.83267461e-04 1.71374850e-04 1.64263343e-04
      -4.30761611e-06 -1.03387365e-05 5.57846688e-05 3.60427111e-05
      1.20339455e-05 5.91621283e-05 4.62652570e-05 2.66092356e-05
      7.55573346e-05 6.93731708e-05 4.23196980e-05 7.07241343e-05
      6.59098223e-05 4.38429015e-05 7.95989217e-06 -5.32734794e-06
      -4.84350949e-06 -6.82798100e-06 -1.64063131e-05 -1.75299938e-05
      3.53633295e-05 3.83758852e-05 4.98955706e-06 1.81253345e-05
      2.46428135e-05 5.31634805e-06 -9.45573720e-06 -9.78871321e-06
      8.97386144e-06 -6.24263994e-05 -6.21387589e-05 -3.07140726e-05
      1.89810489e-05 2.19736867e-05 2.83342724e-05 3.13660130e-04
      3.08722229e-04 3.06912902e-04 -3.84062841e-05 -5.15406755e-05
      -4.34664544e-05 1.66857688e-04 1.50531792e-04 1.55247908e-04
      -2.43822469e-05 -3.70853340e-05 -3.32954514e-05 1.33622147e-04
      1.24934697e-04 1.20268553e-04 -5.63925532e-05 -6.24411332e-05
      6.11782452e-05 4.15294453e-05 2.36076994e-05 7.12397523e-05
      5.76148923e-05 3.66362547e-05 8.93187898e-05 8.31196303e-05
      5.38720706e-05 3.88597618e-05 3.00116080e-05 1.43391107e-05
      7.37996197e-06 -4.53297707e-06 -2.77617551e-06 -4.63591959e-06
      -1.47561213e-05 -1.92046082e-05 5.26261501e-05 4.96469147e-05
      2.25993645e-05 1.25108500e-05 1.68541010e-05 9.04974968e-06
      -3.73261246e-05 -3.69100853e-05 -1.45399335e-05 -2.95945320e-05
      -2.81576231e-05 7.67380413e-07 1.87025056e-04 1.91812986e-04
      1.95792876e-04 6.46533081e-05 6.06518915e-05 6.52644667e-05
      6.28882481e-05 4.94545857e-05 5.68137621e-05 7.77757377e-05
      6.21226718e-05 6.89358421e-05 -5.13322302e-05 -6.29690039e-05
      -6.02934342e-05 1.63430777e-05 1.07014275e-05 6.29012538e-06
      -3.84461491e-05 -4.47396706e-05 5.09512829e-05 3.48151334e-05
      2.30067781e-05 8.07962570e-05 7.20786629e-05 4.54469191e-05
      1.12075439e-04 1.03190090e-04 8.18451153e-05 8.34019920e-06
      1.14887155e-06 -1.34873726e-05 -7.13597774e-06 -2.00975228e-05
      -2.63383936e-05 3.31660613e-06 -7.72559179e-06 -1.58278253e-05
      5.67353927e-05 5.09091005e-05 2.70006585e-05 1.73939316e-05
      1.57258310e-05 1.45178501e-05 8.05884047e-05 8.16131651e-05
      9.61572514e-05 -1.30563913e-05 -1.06126272e-05 1.10515584e-05
      5.88984331e-05 6.51601149e-05 6.98953445e-05 4.35509210e-05
      4.21434306e-05 4.33860369e-05 1.35195078e-05 9.34894251e-06
      6.27031204e-06 7.97915418e-05 6.53874522e-05 6.56526681e-05
      -1.39424563e-04 -1.48948689e-04 -1.42087985e-04 9.61218029e-06
      5.42334783e-06 2.69159591e-06 -2.73832102e-05 -3.55025331e-05
      4.68455000e-05 3.93785631e-05 1.12328871e-05 7.92729406e-05
      6.80860103e-05 3.80276069e-05 1.06225008e-04 9.62478516e-05
      8.11345526e-05 -7.32750505e-06 -1.97630543e-05 -2.31754493e-05
      -1.86066973e-05 -3.16917212e-05 -3.83700208e-05 2.63467500e-05
      1.05492772e-05 -2.41828525e-06 4.35793700e-05 3.02439857e-05
      7.30594002e-06 1.29343325e-05 3.76927960e-06 5.27386783e-06
      1.74497167e-04 1.75786758e-04 1.83479759e-04 -6.67500135e-05
      -6.23814558e-05 -4.86270146e-05 -1.40728935e-05 -9.53286781e-06
      1.54893496e-06 -9.05093621e-05 -9.58692835e-05 -8.92795360e-05
      -3.11819458e-05 -3.68759065e-05 -3.59999249e-05 7.52245469e-05
      6.32586089e-05 6.09096278e-05 -6.28104099e-05 -7.86228338e-05
      -7.04225822e-05 -1.47469273e-05 -2.62844496e-05 -1.47032879e-05
      -6.00944913e-05 -6.57629716e-05 4.88867045e-05 4.26339939e-05
      6.58710542e-06 6.41992301e-05 5.78473337e-05 2.76093033e-05
      7.21779943e-05 6.17523838e-05 5.38882960e-05 -1.17212712e-05
      -2.45752017e-05 -2.80782206e-05 -7.87635690e-06 -2.11725910e-05
      -3.07925875e-05 5.48023927e-05 4.05612518e-05 1.73322587e-05
      2.91566375e-05 1.08798931e-05 1.04211031e-05 -1.89025968e-06
      -1.51562126e-05 -1.11688223e-05 1.25743216e-04 1.26422165e-04
      1.32747809e-04 -1.42284262e-04 -1.40733071e-04 -1.47517640e-04
      -2.43720438e-04 -2.47574470e-04 -2.36118591e-04 -2.80361797e-04
      -2.95420148e-04 -2.86965515e-04 -1.47926286e-04 -1.50592328e-04
      -1.61990654e-04 2.36935721e-05 1.87956521e-05 1.48462459e-05
      -3.55511256e-05 -4.20016040e-05 -3.20399740e-05 7.40158885e-06
      3.28377473e-06 1.32070518e-05 -2.39685905e-05 -2.39417241e-05
      4.71508538e-05 4.33720015e-05 9.43675786e-06 6.62598686e-05
      5.96057253e-05 3.57995741e-05 5.15663560e-05 4.03710692e-05
      3.80406054e-05 -1.16069859e-05 -2.42205260e-05 -2.72734178e-05
      6.88623641e-06 -5.63863023e-06 -2.27437831e-05 7.23557387e-05
      5.47549535e-05 3.25663386e-05 3.45801818e-05 1.37923462e-05
      2.04955868e-05 -1.27296962e-05 -3.01820528e-05 -2.73121186e-05
      3.11587210e-05 3.33754688e-05 2.38228895e-05 -4.55053596e-05
      -4.08955020e-05 -4.97895453e-05 -2.26200267e-04 -2.28481193e-04
      -2.18253088e-04 -1.29561100e-04 -1.34899761e-04 -1.25036036e-04
      -1.03453647e-04 -1.07104534e-04 -1.16137264e-04 8.83033426e-05
      8.46804833e-05 7.43768906e-05 -1.16263662e-04 -1.21899095e-04
      -1.10446214e-04 -1.00348734e-05 -1.98362213e-05 -7.25434347e-06
      -4.77179565e-05 -5.68873293e-05 3.92678121e-05 4.03130689e-05
      1.12995276e-05 7.66371741e-05 7.42035845e-05 5.02319781e-05
      4.87499310e-05 4.01894176e-05 3.82808867e-05 -1.28888223e-05
      -2.99765543e-05 -2.37031763e-05 5.69752820e-06 -1.02477934e-05
      -2.35078805e-05 7.01674217e-05 5.09051424e-05 3.11082185e-05
      4.15070572e-05 1.77621841e-05 2.37214026e-05 -2.38984867e-05
      -4.21588338e-05 -2.94900874e-05 -5.99342711e-05 -6.08834380e-05
      -7.18747542e-05 -7.86508899e-05 -7.36593211e-05 -7.64925135e-05
      -7.88305551e-05 -8.67097842e-05 -8.23072987e-05 1.59778108e-04
      1.52124689e-04 1.66745172e-04 -6.21560903e-05 -6.25140092e-05
      -7.46571459e-05 6.61369268e-05 6.13040538e-05 5.84229310e-05
      -7.10880267e-05 -7.39492098e-05 -6.70484587e-05 2.62263966e-05
      2.44270068e-05 3.47896166e-05 -7.03032201e-05 -8.13364604e-05
      1.78583468e-05 1.94343447e-05 -2.92216578e-06 8.02396753e-05
      7.69087201e-05 5.11282815e-05 2.19609865e-05 1.22278943e-05
      1.24268445e-05 -1.95845732e-05 -3.73497714e-05 -2.85815204e-05
      1.89242055e-05 5.88953890e-06 -1.11509871e-05 6.67666172e-05
      4.98417285e-05 2.81321118e-05 5.67146963e-05 2.90999269e-05
      3.26084300e-05 -4.08170708e-05 -5.58002539e-05 -4.93787993e-05
      -4.96404646e-05 -4.89815466e-05 -6.37537159e-05 -1.45510812e-05
      -8.36066192e-06 -1.58203657e-05 -1.29595446e-05 -1.99438400e-05
      -1.16134543e-05 1.73358058e-04 1.65920923e-04 1.75684239e-04
      -8.21023932e-05 -8.51181539e-05 -9.47182489e-05 7.09083833e-05
      6.72783717e-05 5.28369092e-05 -8.68928910e-05 -9.58872042e-05
      -8.24331000e-05 3.09000061e-05 2.63481434e-05 3.82901198e-05
      -1.73254557e-05 -2.53864528e-05 2.56861676e-05 2.48218676e-05
      4.30700766e-06 6.57838173e-05 6.01926949e-05 4.03327358e-05
      2.53228300e-05 1.43403222e-05 1.38310916e-05 -1.10867486e-05
      -2.61909918e-05 -2.42727219e-05 1.56450224e-05 2.36284382e-06
      -1.21987459e-05 7.14964553e-05 5.31146543e-05 3.52620009e-05
      5.18180677e-05 2.78725693e-05 2.74278864e-05 -1.89683506e-05
      -3.35903605e-05 -3.40404222e-05 -5.18750385e-05 -5.17113986e-05
      -6.16895195e-05 -2.27533783e-05 -1.83469892e-05 -2.77885920e-05
      -1.38223540e-05 -1.85611243e-05 -1.82417625e-05 1.76354079e-04
      1.66374302e-04 1.73165317e-04 -1.01640893e-04 -1.08093962e-04
      -1.16798285e-04 6.18759805e-05 5.60313783e-05 4.51514934e-05
      -8.76128179e-05 -9.49526802e-05 -8.34296443e-05 2.81903140e-05
      2.17750166e-05 3.31283300e-05 -1.03976549e-06 -8.89453622e-06
      3.40353872e-05 2.34146592e-05 1.86091493e-05 5.29620957e-05
      4.44149446e-05 3.46173038e-05 3.34714277e-05 2.31717295e-05
      2.59993703e-05 -7.75067656e-06 -2.08071851e-05 -1.59850424e-05
      9.01076965e-06 -5.87110117e-06 -1.53891906e-05 7.83350697e-05
      6.05810856e-05 3.93934861e-05 3.80133970e-05 1.88348786e-05
      1.16357942e-05 1.02011518e-05 -2.03454897e-06 -1.04227975e-05
      -4.86774370e-05 -5.19717214e-05 -5.23617127e-05 -2.67357500e-05
      -2.18732730e-05 -3.25220135e-05 -8.10546953e-06 -8.72262899e-06
      -1.21121220e-05 1.81983065e-04 1.78551301e-04 1.77116017e-04
      -1.04612795e-04 -1.10577392e-04 -1.21066318e-04 3.48649410e-05
      2.69467419e-05 2.01082858e-05 -1.04161387e-04 -1.13210030e-04
      -1.01319041e-04 3.02621120e-05 2.24469150e-05 3.68291330e-05
      -3.17834674e-05 -3.73185285e-05 3.81486389e-05 2.64558257e-05
      2.61290443e-05 5.42375346e-05 4.37651724e-05 4.10125685e-05
      5.09068086e-05 3.97996664e-05 4.09337335e-05 -1.90649862e-05
      -3.05876347e-05 -2.59693988e-05 1.77060110e-06 -1.40571219e-05
      -1.70181083e-05 8.12680810e-05 6.68778812e-05 4.27231244e-05
      2.29815087e-05 1.08731474e-05 -2.91063384e-06 3.15182733e-05
      2.65952567e-05 6.82851760e-06 -6.65723346e-05 -6.85572522e-05
      -6.63137544e-05 -2.27968867e-05 -2.04353910e-05 -2.52137779e-05
      -1.15891626e-05 -1.13137430e-05 -2.14349748e-05 1.83928540e-04
      1.81138807e-04 1.75775844e-04 -1.05388659e-04 -1.14124588e-04
      -1.19688979e-04 1.60044601e-05 5.75993818e-06 2.93621429e-06
      -1.39691329e-04 -1.44648744e-04 -1.39288866e-04 -1.10868978e-05
      -1.92600746e-05 -1.12118687e-05 -4.47162456e-05 -5.30690158e-05
      3.12597404e-05 1.85114204e-05 2.84387406e-05 5.54110193e-05
      4.30398468e-05 4.86626013e-05 6.32360679e-05 5.42151502e-05
      5.33004168e-05 -3.17429985e-05 -3.91184694e-05 -4.35234651e-05
      -6.08876917e-07 -1.36324106e-05 -1.79039707e-05 8.30165955e-05
      7.08287771e-05 4.37644012e-05 2.31760259e-05 1.59701485e-05
      -1.28130096e-05 4.14818460e-05 4.11586334e-05 1.36924245e-05
      -7.96372478e-05 -8.22041402e-05 -7.71690684e-05 -2.42094429e-05
      -2.20803395e-05 -2.68137755e-05 -1.43126499e-05 -1.41679566e-05
      -2.67746473e-05 1.85310651e-04 1.82991367e-04 1.65830221e-04
      -9.89310502e-05 -1.13072711e-04 -1.15840412e-04 1.03863276e-05
      -8.51395089e-06 -2.25029862e-06 -1.40363481e-04 -1.50389140e-04
      -1.43409634e-04 -1.74920333e-05 -2.59314675e-05 -1.88384583e-05
      -4.70276063e-05 -5.60115623e-05 2.02040537e-05 1.02210912e-07
      2.07991689e-05 5.09458187e-05 3.59523583e-05 4.14988754e-05
      7.63706412e-05 7.09714150e-05 6.53426468e-05 -2.78743373e-05
      -3.38904720e-05 -4.00785248e-05 -6.67151335e-06 -2.06259265e-05
      -1.98049820e-05 6.51452792e-05 5.38357381e-05 3.49875882e-05
      4.16769872e-05 4.23073907e-05 -1.44770329e-05 4.59187213e-05
      4.56664238e-05 1.83716147e-05 -5.51517987e-05 -5.88757575e-05
      -5.93017394e-05 -2.71596218e-05 -3.01618511e-05 -2.53034759e-05
      -1.55285306e-05 -1.04023457e-05 -2.83338431e-05 1.91576910e-04
      1.92576204e-04 1.69155668e-04 -7.94154766e-05 -9.67327287e-05
      -9.64273058e-05 1.61037460e-05 -6.62413413e-06 -4.86975068e-07
      -1.42303092e-04 -1.54323483e-04 -1.49020751e-04 -8.32002661e-06
      -1.99432397e-05 -1.31466159e-05 -7.18198717e-05 -8.27718468e-05
      8.43158796e-06 -1.10147521e-05 1.59526335e-05 3.20662584e-05
      1.73216904e-05 2.72246380e-05 8.52751764e-05 7.91999410e-05
      7.67426391e-05 -5.53610289e-06 -1.13411288e-05 -1.65086658e-05
      -1.95807879e-05 -3.42539497e-05 -2.95330337e-05 2.98175473e-05
      1.83093598e-05 1.02905369e-05 7.46444202e-05 7.78642570e-05
      2.40937698e-05 3.77665674e-05 4.57021561e-05 1.27019066e-05
      -1.55539492e-05 -1.66851842e-05 -1.99145361e-05 -4.13636990e-05
      -4.48316605e-05 -3.99350429e-05 -1.11943000e-05 -3.85055955e-06
      -2.69173415e-05 1.99986665e-04 1.92292006e-04 1.72753716e-04
      -8.43644084e-05 -1.00809026e-04 -1.04579391e-04 1.09473831e-05
      -1.12111484e-05 -1.86266368e-06 -1.51659275e-04 -1.67834543e-04
      -1.61752017e-04 -3.98182419e-06 -1.61688258e-05 -1.09489083e-05
      -5.52923266e-05 -6.56556440e-05 4.51109236e-06 -9.16754743e-06
      1.49680172e-05 1.76154772e-05 3.61473167e-06 1.73272347e-05
      9.11767493e-05 8.17076871e-05 8.03023431e-05 1.68193819e-05
      8.09119229e-06 5.80703727e-06 -2.70978744e-05 -4.68417857e-05
      -3.95066600e-05 1.18877815e-05 -7.04810645e-06 -1.27512085e-05
      9.75400981e-05 9.74118229e-05 4.71291060e-05 3.21619736e-05
      3.76221433e-05 2.77811023e-06 3.13103592e-05 3.14503122e-05
      2.07822159e-05 -6.56255652e-05 -6.85687628e-05 -6.10729476e-05
      -1.43149355e-05 -1.01292771e-05 -2.54142651e-05 1.93170141e-04
      1.88425664e-04 1.79746290e-04 -1.06859799e-04 -1.20600060e-04
      -1.17799071e-04 -1.43974439e-05 -3.37144847e-05 -2.59647768e-05
      -1.77461305e-04 -1.95307308e-04 -1.93866508e-04 -2.18788246e-05
      -3.79191988e-05 -3.68673063e-05 -4.32118068e-05 -5.13358827e-05
      -2.73137698e-06 -1.05534145e-05 -8.71624337e-08 7.48375805e-06
      -4.50253674e-06 2.54294378e-06 6.29534043e-05 4.50076950e-05
      5.21328075e-05 6.14152232e-05 4.31977896e-05 4.68061589e-05
      -2.43714248e-06 -2.67120558e-05 -2.86109971e-05 -1.21659568e-05
      -3.32492491e-05 -5.15520878e-05 7.20483295e-05 6.27964037e-05
      1.44612495e-05 5.71364617e-05 5.22266055e-05 -1.98791440e-06
      3.61505154e-05 3.42470557e-05 2.80171953e-05 -2.95904883e-05
      -2.99966632e-05 -3.02745902e-05 -4.55322079e-05 -5.05874123e-05
      -4.05701321e-05 2.32458202e-04 2.24129573e-04 2.41069356e-04
      -1.52779568e-04 -1.61353790e-04 -1.53849367e-04 -2.32227230e-05
      -3.01902182e-05 -3.24175089e-05 -1.33340553e-04 -1.41690267e-04
      -1.52038672e-04 8.06980242e-05 7.50972904e-05 5.71128585e-05
      2.06404638e-05 5.31804289e-06 -1.95983357e-05 -2.11035276e-05
      -1.71676056e-05 -3.64206971e-06 -1.00280686e-05 2.98887608e-06
      5.01154464e-05 3.10633441e-05 4.20786018e-05 1.16206757e-04
      9.40785831e-05 1.04530089e-04 1.41681639e-05 -8.83461325e-06
      -9.86654413e-06 -9.04789795e-06 -3.14599529e-05 -4.48773208e-05
      2.21008922e-05 8.56953829e-06 -2.44775147e-05 1.00132602e-04
      9.12770338e-05 4.36382943e-05 4.36279915e-05 4.16194052e-05
      1.62490414e-05 2.33814790e-05 2.39855417e-05 1.81509095e-05
      -3.48790563e-05 -3.56067176e-05 -2.11027145e-05 1.63927340e-04
      1.50233609e-04 1.68756611e-04 -1.54388210e-04 -1.60916621e-04
      -1.49032217e-04 3.61295897e-05 2.93956964e-05 2.65569779e-05
      -7.86884921e-05 -8.94362456e-05 -9.91916168e-05 1.23544247e-04
      1.13297305e-04 9.97275929e-05 7.49850324e-06 -8.80714470e-06
      -1.85152057e-05 -2.17143097e-05 -1.93707765e-05 1.17468608e-06
      -5.95173242e-06 1.20429340e-05 1.50424448e-05 -5.41219651e-06
      1.87377536e-05 1.03071143e-04 7.70366169e-05 9.59969402e-05
      5.97566468e-05 3.84319028e-05 4.92514082e-05 -1.95697667e-05
      -3.98358898e-05 -3.99049350e-05 -5.06350261e-06 -2.16318094e-05
      -3.80387173e-05 7.34210844e-05 6.52105373e-05 3.24113716e-05
      4.82631403e-05 4.38386051e-05 1.25962970e-05 5.00854003e-06
      2.42186252e-06 1.59070805e-05 -1.21876692e-05 -1.83354132e-05
      -2.16879707e-05 -2.40811351e-05 -3.05049671e-05 -1.53910823e-05
      -2.76870178e-05 -3.26351583e-05 -1.90764367e-05 1.09093060e-04
      9.62524209e-05 1.03233288e-04 1.39264346e-04 1.30124841e-04
      1.23740072e-04 1.45176076e-04 1.33460897e-04 1.19028846e-04
      -2.49525638e-05 -3.42080348e-05 -8.49249045e-06 -1.00981688e-05
      -2.29458487e-06 1.82786807e-05 1.24643693e-05 1.81836622e-05
      -3.29904674e-06 -1.76526937e-05 6.94148548e-06 4.48516330e-05
      2.95585505e-05 4.86265126e-05 1.01547754e-04 8.33513986e-05
      1.02903563e-04 -5.32455351e-06 -2.32478706e-05 -1.20489885e-05
      -6.13108523e-06 -2.06338809e-05 -2.37374970e-05 1.18221542e-05
      1.57953912e-06 -1.36235094e-05 8.37303596e-05 7.49831961e-05
      5.47801028e-05 8.22483562e-05 7.80252958e-05 3.27145863e-05
      3.07779192e-05 2.63956445e-05 1.28572510e-05 -2.02693391e-05
      -2.57934789e-05 -2.43813283e-05 -3.34638025e-05 -4.97487454e-05
      -4.95413042e-05 -1.40237125e-06 -8.17862019e-06 -1.09572306e-06
      4.22966259e-05 3.38309801e-05 2.47105145e-05 1.65039564e-05
      1.25914739e-05 1.22477047e-06 5.08324410e-05 4.09252862e-05
      6.93357663e-07 3.21045604e-06 1.19536207e-05 2.19237027e-05
      2.07738212e-05 3.05570502e-05 3.45825151e-06 -5.82824259e-06
      1.69748218e-05 2.48682045e-05 1.64068897e-05 3.92000802e-05
      9.66146690e-05 8.18413828e-05 1.01258651e-04 4.68610779e-05
      3.64339357e-05 5.09648708e-05 -1.47208775e-05 -2.56796993e-05
      -2.02639567e-05 -1.00202824e-05 -2.35668467e-05 -3.24061402e-05
      4.06358304e-05 3.14075442e-05 -7.76051365e-07 5.76857274e-05
      5.56310915e-05 2.10795297e-05 3.59159822e-05 2.86361719e-05
      2.95815717e-05 2.63011534e-05 1.90484152e-05 -3.86884449e-06
      -1.06540347e-05 -1.57076593e-05 -1.97075024e-05 -1.30868193e-06
      -1.05659201e-05 -1.53247493e-05 -1.47074470e-05 -2.76859828e-05
      -3.35829427e-05 -1.21077155e-05 -1.58835010e-05 -2.84234447e-05
      -1.76758967e-05 -2.28569497e-05 4.56394810e-06 1.66116263e-06
      1.53091951e-05 1.49650014e-05 1.20309478e-05 2.61306395e-05
      -6.48104879e-06 -8.31903526e-06 3.64016046e-06 1.17535583e-05
      6.41103816e-06 2.46854233e-05 5.69305630e-05 4.90694983e-05
      6.41389197e-05 9.03603868e-05 8.28620687e-05 9.44422718e-05
      3.91522144e-06 -6.78683182e-06 1.79952872e-06 -1.30292110e-05
      -2.22852741e-05 -2.82032561e-05 1.66361824e-05 1.02815384e-05
      -1.50155574e-05 9.25412678e-05 8.84446345e-05 4.51948108e-05
      9.68773675e-05 9.04638582e-05 1.07209917e-05 7.37305891e-05
      6.50608563e-05 1.85125627e-05 1.87592123e-05 1.06481739e-05
      -1.39624526e-05 -2.37015811e-05 -3.56672026e-05 -4.69478182e-05
      -1.77414986e-05 -2.49812383e-05 -3.71759124e-05 -1.38594805e-05
      -1.39810872e-05 -2.70066175e-05 5.23169365e-06 4.66537722e-06
      1.46675529e-06 -1.48604681e-06 9.61777459e-06 7.09390270e-06
      7.96857148e-06 1.54148802e-05 -1.72649088e-05 -1.47802084e-05
      -5.06566721e-06 -1.11474237e-05 -7.85908742e-06 1.29244236e-05
      1.85290664e-05 1.75384939e-05 2.98046052e-05 7.39657262e-05
      7.39161842e-05 8.02993018e-05 5.35267645e-05 4.78106995e-05
      4.94596788e-05 -5.65333778e-07 -8.80860625e-06 -1.40468301e-05
      -4.41347838e-05 -5.53758400e-05 -7.29095846e-05 2.60305442e-05
      1.43997504e-05 -1.56816714e-05 4.99193156e-05 4.13215312e-05
      2.61185996e-05 7.22590921e-05 6.40685248e-05 2.00496652e-05
      5.14918429e-05 4.46891245e-05 1.52714965e-05 1.07264386e-05
      7.00504279e-06 -2.81607827e-05 4.02298065e-05 3.93486116e-05
      1.56227034e-05 -2.01061812e-05 -2.10432918e-05 -4.52388631e-05
      2.83474787e-06 4.32620027e-06 -1.87440837e-05 -1.59592655e-05
      -1.06784973e-05 -7.63129265e-06 -9.71254212e-06 -5.20483763e-06
      -1.82312979e-05 -1.15126231e-05 -4.88410706e-06 -1.59356314e-05
      -8.45864088e-06 -2.47195658e-06 -1.45870990e-05 -7.84438998e-06
      7.31182217e-06 3.64272455e-05 3.63977379e-05 4.24852587e-05
      9.17832585e-05 8.40695138e-05 8.79446379e-05 2.53251164e-05
      1.61179814e-05 1.60282088e-05 1.22180063e-05 -6.69762676e-06
      -1.29898863e-05 -7.56390000e-06 -2.32040711e-05 -4.16788498e-05
      1.87831611e-05 3.16793398e-06 -3.05472349e-05 1.09382068e-04
      9.90640110e-05 4.13543930e-05 7.49993269e-05 6.73118120e-05
      2.75128732e-05 7.49721221e-05 7.15593633e-05 4.55233785e-05
      1.64646026e-05 2.01337680e-05 -1.69206705e-05 -3.78321456e-05
      -2.87506518e-05 -5.87890136e-05 -1.40455068e-05 -8.51163168e-06
      -2.87285366e-05 -2.82553228e-05 -2.38866196e-05 -2.33240189e-05
      -2.48670403e-05 -2.29280886e-05 -2.93859630e-05 -2.38185366e-05
      -2.33557384e-05 -3.29893155e-05 -2.32173461e-05 -2.12371069e-05
      -2.20173715e-05 -1.33565636e-05 -1.42154408e-06 8.93707147e-06
      5.38502445e-06 1.07357118e-05 3.41681334e-05 3.00090960e-05
      3.94877898e-05 9.60716352e-05 7.97613902e-05 8.80199659e-05
      2.53521011e-05 4.92410800e-06 1.38935484e-05 -1.64207140e-05
      -3.84540581e-05 -3.82773324e-05 -2.07416861e-06 -2.37141121e-05
      -3.58309771e-05 2.90310290e-05 9.80314053e-06 -1.34769871e-05
      7.47019221e-05 6.49233698e-05 2.51197271e-05 7.85564553e-05
      7.36823786e-05 2.78962234e-05 5.87664181e-05 5.78965337e-05
      2.91726083e-05 2.69989141e-05 3.44039181e-05 -4.15428440e-06
      1.40928842e-05 1.88104623e-05 -3.50530026e-05 -3.10193791e-05
      -2.67967189e-05 -2.29874004e-05 -2.14383072e-05 -1.92656080e-05
      -2.68206422e-05 -1.96463789e-05 -2.52923583e-05 -2.48894939e-05
      -1.81014475e-05 -2.41566286e-05 -1.70399180e-05 -1.23719747e-05
      -6.00936528e-06 3.49258698e-06 4.46036029e-06 1.73650715e-05
      2.80617478e-05 1.89600505e-05 3.79135345e-05 7.25646532e-05
      5.64681177e-05 7.43020573e-05 1.02929567e-04 8.01707283e-05
      9.73334973e-05 5.68052310e-05 3.12918055e-05 4.36849441e-05
      -1.44227115e-05 -4.19140961e-05 -3.45121807e-05 -1.12192229e-05
      -3.30880830e-05 -3.73133553e-05 2.58776163e-05 7.83793075e-06
      -8.68219558e-06 5.30092730e-05 4.41618467e-05 2.05821088e-05
      7.43048731e-05 7.17892981e-05 3.64816624e-05 4.36880619e-05
      4.56266098e-05 1.40519496e-05 4.25703220e-05 4.39518335e-05
      -1.99246297e-05 -1.90598475e-05 -1.75200821e-05 7.45574744e-06
      5.30677835e-06 7.60866396e-06 -6.24397671e-06 -5.22543633e-06
      -3.71196893e-06 -1.85178269e-05 -2.04334319e-05 -1.71788088e-05
      -1.79857816e-05 -2.17271026e-05 -1.54782247e-05 -4.43766430e-06
      -1.05000327e-05 1.88746390e-06 7.51511664e-07 -1.20728064e-05
      1.28729489e-05 2.93931189e-05 1.28933661e-05 3.80219644e-05
      9.18437436e-05 6.61082449e-05 9.23046391e-05 1.14003822e-04
      8.77844504e-05 1.12159694e-04 4.86378121e-05 1.91305135e-05
      3.93222035e-05 -6.79030427e-06 -3.36116718e-05 -2.02496594e-05
      -1.35056607e-05 -3.20034924e-05 -2.62605699e-05 -1.88763227e-06
      -1.50139031e-05 -1.41039909e-05 8.94598816e-06 -2.07646985e-06
      -2.64091295e-06 7.31461478e-05 6.84256011e-05 5.16130094e-05
      8.36047693e-05 7.55187502e-05 -1.40693301e-05 -2.32907878e-05
      -1.63386958e-05 -2.28995555e-06 -6.47943125e-06 -3.21052039e-06
      -1.32258056e-05 -2.17957113e-05 -1.43667876e-05 -2.25836411e-05
      -2.86142440e-05 -2.16747758e-05 -1.83374414e-05 -2.44592175e-05
      -1.65173060e-05 -1.59331867e-05 -2.56785333e-05 -1.43859661e-05
      -1.11209638e-05 -2.66391271e-05 -6.43167732e-06 -1.41647592e-06
      -2.37941749e-05 7.36107404e-06 3.60520789e-05 1.32542073e-05
      5.20315880e-05 8.00795679e-05 5.34342835e-05 8.22190705e-05
      1.12717760e-04 8.75612459e-05 1.13368427e-04 4.38348579e-05
      2.03782256e-05 4.02697515e-05 4.21915638e-06 -1.22958609e-05
      5.11272765e-06 -1.08944532e-05 -2.80665081e-05 -1.03866832e-05
      -1.97075988e-05 -3.51235358e-05 -1.97663703e-05 9.76903630e-06
      -3.00975034e-06 7.45729449e-06 1.58493731e-05 -2.93977610e-06
      -3.43709107e-05 -4.36959417e-05 -3.40653169e-05 -4.05160827e-05
      -4.91794199e-05 -4.28430176e-05 -5.20169160e-05 -5.96605751e-05
      -5.39173125e-05 -3.55402917e-05 -4.69751249e-05 -4.03872436e-05
      -8.80960761e-06 -2.46237960e-05 -1.85282843e-05 -1.80451279e-05
      -3.35153818e-05 -2.16014105e-05 -1.05801273e-05 -2.77228537e-05
      -9.47474109e-06 -2.70479850e-05 -4.38784155e-05 -1.64373505e-05
      -9.39323570e-08 -2.11218903e-05 1.10732608e-05 5.34168576e-05
      3.21338703e-05 6.44011743e-05 6.67065979e-05 5.42978123e-05
      7.71134874e-05 9.69853209e-05 8.27451004e-05 1.05927473e-04
      7.58757233e-05 5.80738051e-05 7.99223490e-05 4.49782328e-06
      -1.13584674e-05 1.42715071e-05 4.94256210e-06 -1.52652810e-05
      1.43971793e-05 -2.04729567e-05 -4.04349921e-05 -9.99528129e-06
      -4.61053605e-06 -3.14721583e-05 -3.55405828e-05 -4.96526336e-05
      -3.43893480e-05 -3.24029206e-05 -4.82217474e-05 -3.63876425e-05
      -3.96069336e-05 -5.28837591e-05 -5.09251113e-05 -3.53199503e-05
      -4.93368861e-05 -4.90674829e-05 -2.50892390e-06 -2.22588606e-05
      -2.13858311e-05 2.71860245e-06 -1.48865365e-05 -1.38714895e-05
      2.99906083e-06 -1.46711409e-05 1.13600663e-06 -1.73573371e-05
      -3.39766812e-05 -1.32095929e-05 -1.57267441e-05 -3.39572143e-05
      -3.24725374e-06 -8.16883221e-06 -2.24687083e-05 5.66630843e-06
      2.43314116e-05 1.73600347e-05 4.28387721e-05 6.03623448e-05
      4.95407439e-05 7.11767279e-05 9.20213279e-05 8.08746699e-05
      9.92896312e-05 1.02229169e-04 8.64150425e-05 1.07923712e-04
      3.14201825e-05 1.07348424e-05 3.71026726e-05 2.80624099e-05
      -6.97940266e-07 2.75751099e-05 4.88069281e-06 -2.29125817e-05
      -2.90132175e-05 -4.12808440e-05 -2.35398711e-05 -1.83923967e-05
      -2.89276668e-05 -2.06161312e-05 -2.47756689e-05 -3.78173863e-05
      -4.36365881e-05 -3.28587412e-05 -4.75091292e-05 -5.94486082e-05
      -2.05036031e-05 -3.88792760e-05 -5.18868255e-05 -1.95595640e-05
      -4.20599208e-05 -4.77735884e-05 -2.32270577e-05 -4.17157789e-05
      -3.35113182e-05 -2.68370004e-05 -4.27332816e-05 -2.40665486e-05
      -2.47393018e-06 -1.48054169e-05 7.43531564e-06 -2.91407523e-05
      -4.21636614e-05 -1.65947931e-05 -1.97981262e-05 -2.78037387e-05
      -1.25699871e-05 3.04025684e-06 -2.87720945e-06 1.60155560e-05
      2.91841152e-05 1.95700395e-05 3.16755322e-05 7.39490351e-05
      6.21859217e-05 7.05815619e-05 1.11148933e-04 9.49855894e-05
      1.08524822e-04 9.62107806e-05 7.01725075e-05 8.54478785e-05
      5.47884374e-05 3.13096825e-05 -4.79519949e-05 -6.13906304e-05
      -4.76594250e-05 -6.04949309e-05 -7.51773114e-05 -6.58235367e-05
      -5.64785296e-05 -7.64933357e-05 -8.02941649e-05 -4.40221484e-05
      -5.62078094e-05 -7.29455278e-05 -4.80857634e-05 -6.02419022e-05
      -7.95835440e-05 -5.19640489e-05 -6.69333094e-05 -7.86308010e-05
      -4.48185492e-05 -6.25666798e-05 -5.72562021e-05 -2.17386387e-05
      -4.08691776e-05 -2.43291743e-05 -3.78012628e-05 -5.78951440e-05
      -3.72676441e-05 -4.29251886e-05 -5.50249424e-05 -3.62280480e-05
      -3.77708020e-05 -4.58623072e-05 -3.53688010e-05 -1.85183853e-06
      -7.29877638e-06 -5.08323046e-06 1.39963604e-05 5.91251546e-06
      6.85585383e-06 1.46137600e-05 2.31819467e-06 1.76452268e-05
      3.00464235e-05 1.70370513e-05 2.69802586e-05 1.08258639e-04
      8.82287131e-05 9.53251365e-05 1.05024134e-04 8.72269447e-05
      -3.63249856e-05 -5.84889385e-05 -4.80143681e-05 -2.99145468e-05
      -4.86288191e-05 -4.43554745e-05 -3.83485749e-05 -5.43246169e-05
      -5.91435091e-05 -3.50014416e-05 -4.81511197e-05 -5.78351792e-05
      -3.37375604e-05 -4.68580402e-05 -5.72008939e-05 -3.83321421e-05
      -5.36770385e-05 -6.19670827e-05 -2.23810639e-05 -4.13045273e-05
      -3.70070156e-05 -1.22273868e-05 -3.19700193e-05 -1.97641584e-05
      1.13028445e-05 -8.79970321e-06 7.10669110e-06 2.37138738e-06
      -1.21209087e-05 -1.21342509e-06 -5.81627592e-06 -1.67041471e-05
      -1.55957532e-05 -5.36901825e-06 -1.49124789e-05 -1.62525503e-05
      3.32137984e-06 -7.01140607e-06 -6.74431612e-06 -1.15845769e-05
      -2.09612008e-05 -1.69103314e-05 -1.60889158e-05 -3.25524379e-05
      -1.83455249e-05 4.27991654e-06 -1.20778413e-05 7.01552835e-06
      5.48114294e-05 4.31034168e-05 -2.64820883e-05 -4.98986919e-05
      -4.17310803e-05 1.37142179e-05 -7.73580996e-06 -4.09001359e-06
      3.26964800e-05 1.46962229e-05 9.72941507e-06 3.10717878e-05
      1.50381056e-05 4.51529104e-06 -1.33609535e-06 -1.66170630e-05
      -2.42317310e-05 -3.73833573e-05 -5.36765001e-05 -5.73040961e-05
      -3.55188604e-05 -5.42050693e-05 -5.02609291e-05 -2.54393017e-05
      -4.65929261e-05 -3.66387576e-05 -1.37644365e-05 -3.13427372e-05
      -2.09972750e-05 -2.41154776e-05 -4.03599333e-05 -3.37421079e-05
      -2.45456868e-05 -3.77927354e-05 -3.81058417e-05 -2.01704861e-05
      -3.12038355e-05 -3.62421852e-05 -2.31363865e-05 -3.26059562e-05
      -3.80036618e-05 -3.90187270e-05 -5.08504672e-05 -5.12170845e-05
      -4.23001075e-05 -5.23483905e-05 -4.53784814e-05 -1.67254912e-05
      -2.76163391e-05 -1.74861216e-05 -3.13317541e-05 -3.74961455e-05</_>
    <_>
      3.73802650e-05 2.35552161e-05 3.28395254e-05 3.78279983e-05
      2.50543890e-05 3.11397125e-05 2.10358321e-05 1.31055795e-05
      1.48469189e-05 1.46198909e-05 7.08315747e-06 5.30259831e-06
      -1.71801526e-06 -1.76306014e-06 -5.69908752e-06 -1.17322152e-05
      -1.28175052e-05 -1.27677358e-05 -5.84781083e-06 -6.01953388e-06
      3.65013489e-06 -9.82390702e-06 -1.19141705e-05 1.46123932e-06
      -9.39957408e-06 -1.11768150e-05 4.04548246e-06 -1.20619679e-05
      -1.31561865e-05 -1.84494570e-06 -8.53784604e-06 -5.83243991e-06
      -5.16538557e-06 -2.00896557e-05 -1.48711888e-05 -2.69150314e-05
      -7.53965969e-06 -3.19288620e-06 -2.50106714e-05 -3.09026746e-07
      1.41792907e-06 -2.61573514e-05 6.40337021e-06 9.20555613e-06
      -2.12116665e-05 7.25628479e-06 1.00538527e-05 -1.85821355e-05
      -7.06026549e-06 -7.51037396e-06 4.75211527e-05 3.56564778e-05
      4.29082866e-05 3.65379565e-05 2.57159882e-05 2.92811292e-05
      1.39464355e-05 6.32072306e-06 4.98266763e-06 5.98047018e-06
      4.16376622e-07 -1.28218585e-06 -3.32925697e-06 -6.18401873e-06
      -9.44286239e-06 -1.19555452e-05 -1.42697536e-05 -1.28140600e-05
      -6.50700940e-06 -8.28155135e-06 -3.31224169e-06 -1.29329774e-05
      -1.52963457e-05 -5.08711673e-06 -1.95206740e-05 -2.05912474e-05
      -1.01376463e-05 -5.42939961e-06 -4.81962752e-06 8.55904545e-07
      -1.73662702e-05 -1.55946072e-05 -1.54488207e-05 -1.00690977e-06
      3.10672567e-06 -8.42330610e-06 -1.12000098e-05 -5.41185273e-06
      -2.39785040e-05 -4.54058818e-06 -1.16351600e-06 -2.02846404e-05
      -3.74479373e-06 5.22280516e-07 -2.42706301e-05 -3.91735648e-06
      1.58316766e-06 -3.27378075e-05 2.75823786e-05 3.30141374e-05
      3.87393920e-05 3.11646327e-05 3.13172022e-05 2.48137658e-05
      1.73254066e-05 1.55198013e-05 4.96840494e-06 -5.94940786e-07
      -7.55645488e-06 1.05313552e-06 -2.60619095e-06 -8.29267901e-06
      1.50585788e-06 -3.19036326e-06 -9.30560327e-06 -5.01232671e-06
      -9.98274481e-06 -1.34624252e-05 -3.19519836e-06 -7.24935671e-06
      -7.39130155e-06 -6.79946970e-06 -9.96643303e-06 -7.42640350e-06
      3.98727934e-06 4.39207179e-06 5.54129929e-06 -2.61479763e-05
      -2.22414164e-05 -2.27796045e-05 -3.45891522e-06 1.17408979e-06
      -4.66066285e-06 -1.13049737e-06 8.49403114e-06 -3.68491715e-06
      -1.20176128e-05 -8.08081779e-07 -1.57475042e-05 -1.41591827e-05
      -1.87797446e-06 -3.30336079e-05 2.34404956e-06 1.64850881e-05
      -1.75924652e-05 5.26700605e-05 6.42153682e-05 4.16835355e-05
      6.04750494e-05 7.43068886e-05 2.76487699e-05 2.37645163e-05
      1.66150858e-05 1.77093352e-05 1.33595713e-05 6.56504017e-06
      4.73987438e-06 2.17036109e-06 -6.30316981e-06 2.89595528e-06
      -5.69834015e-07 -7.99996906e-06 2.45809224e-06 -2.09804762e-06
      -1.04800856e-05 -1.22786776e-06 -4.83365420e-06 -1.28255397e-05
      9.32266573e-07 -1.40748693e-06 -1.02882705e-05 3.64450284e-06
      2.71137787e-06 -4.78609627e-06 5.13460054e-06 7.75207081e-06
      -1.59574242e-07 1.85161264e-06 1.05395256e-05 7.15341343e-07
      -2.45684678e-05 -1.29609034e-05 -2.01787116e-05 -2.48385568e-05
      -1.10469091e-05 -2.87895436e-05 1.29981654e-05 2.84213147e-05
      2.60013280e-06 3.43131760e-05 5.17725748e-05 3.10129653e-05
      6.43233434e-05 8.39834829e-05 6.20641586e-05 3.22133856e-05
      4.98474692e-05 3.57600948e-05 -8.37851132e-07 1.62140059e-05
      2.73599599e-05 2.79262094e-05 1.62020824e-05 2.17428078e-05
      2.16955377e-05 1.02093518e-05 1.29605623e-05 1.16666261e-05
      1.01660089e-06 5.24574170e-06 2.81131861e-06 -6.22485913e-06
      2.39684528e-06 -2.13246608e-06 -1.34884403e-05 9.90415060e-07
      -3.76618232e-06 -1.54189602e-05 -1.13085650e-06 -2.70781527e-07
      -1.92653642e-05 5.58033571e-06 8.29082728e-06 -1.20389432e-05
      -4.76677315e-06 4.35204538e-06 -1.35463770e-05 -2.80956901e-05
      -1.36867639e-05 -2.49235491e-05 -2.15838122e-06 1.39652284e-05
      -1.13523811e-05 2.95383397e-05 4.97022811e-05 2.98244649e-05
      3.63020335e-05 5.75705453e-05 4.15082395e-05 4.12671106e-05
      6.48050700e-05 4.94278647e-05 1.73922388e-06 2.72722227e-05
      1.19818105e-05 7.27515999e-06 3.24155990e-05 2.44648072e-05
      -2.04672506e-05 2.82686256e-06 1.98287999e-05 2.36531814e-05
      1.03101393e-05 1.39437298e-05 1.68443021e-05 4.58130535e-06
      9.03285581e-06 8.25056850e-06 -2.07882999e-06 2.50219159e-06
      -9.25429219e-07 -1.16745869e-05 2.61702553e-06 -1.62485844e-06
      -1.44324767e-05 1.48651395e-07 -2.01336388e-06 -1.95016564e-05
      -8.27576605e-06 -5.59516639e-06 -2.69035263e-05 -3.32757577e-06
      3.62206447e-06 -1.75823770e-05 -1.79238159e-05 -4.14656824e-06
      -2.50430530e-05 1.74377910e-05 3.58161087e-05 2.49311233e-06
      2.03939089e-05 4.31008011e-05 2.06142286e-05 3.34540127e-05
      5.74653459e-05 4.06820182e-05 2.52445861e-05 5.31629375e-05
      3.91446447e-05 1.91918775e-06 2.99012736e-05 2.06475725e-05
      -8.82851782e-06 2.06632849e-05 1.12707221e-05 -3.05809299e-05
      -2.85961210e-06 -4.27257191e-06 -1.00463412e-05 1.08323329e-05
      1.28585962e-05 1.76502799e-05 6.92947833e-06 4.36831897e-06
      6.41681481e-06 -4.27034320e-06 1.19381639e-06 2.29530201e-06
      -7.37220171e-06 -7.04130457e-07 -2.75304183e-06 -1.38941814e-05
      5.20631647e-06 2.90317166e-06 -1.27831618e-05 2.60037154e-06
      3.77092510e-06 -1.46935545e-05 -1.04501551e-05 -2.27199553e-06
      -2.38348312e-05 -6.10252073e-07 1.10980218e-05 -1.90499213e-05
      1.25192601e-05 3.15019097e-05 -5.81310996e-06 3.08378512e-05
      5.34249193e-05 2.16266908e-05 4.73404325e-05 7.48947423e-05
      5.46312658e-05 1.59187880e-06 3.01988584e-05 1.73608387e-05
      -1.99744263e-05 1.04660521e-05 4.02304022e-06 -3.31245210e-05
      -2.21958362e-06 -7.76479646e-06 -2.30354071e-05 6.20118999e-06
      1.76373908e-06 1.20069683e-06 2.37625572e-05 2.83252721e-05
      -2.77032414e-05 -1.59296360e-05 1.90024566e-05 2.49262048e-05
      1.62810975e-05 6.11261976e-06 9.47512126e-06 -4.53368557e-07
      2.95839368e-06 3.54810800e-06 -6.91493324e-06 2.19300911e-09
      5.68658038e-07 -1.17104910e-05 4.93416837e-06 8.01384704e-06
      -9.88158808e-06 3.95733059e-06 9.63070943e-06 -6.67566292e-06
      -2.84886323e-06 5.97824237e-06 -2.29033612e-05 1.14977320e-05
      2.80035238e-05 -8.10345045e-06 3.07604896e-05 5.45287985e-05
      1.98701746e-05 3.75450909e-05 6.40934813e-05 3.75616037e-05
      -9.00810278e-07 2.61130099e-05 1.17168365e-05 -2.59708304e-05
      3.75712966e-06 -4.05770197e-06 -2.10065737e-05 8.22367656e-06
      7.39954930e-06 -3.25855240e-06 2.60171510e-05 2.64320606e-05
      -2.38974208e-05 4.65310313e-06 2.03108721e-06 -4.66126949e-05
      -2.49979857e-05 -2.18815676e-05 -2.82334877e-05 -1.92469197e-05
      2.82454803e-05 3.28215610e-05 2.77701583e-05 3.47344976e-05
      3.84714112e-05 3.06779875e-05 4.16183684e-06 6.71341377e-06
      2.66806921e-07 1.49990194e-06 5.82925350e-06 -2.12307441e-06
      3.59510959e-05 4.16965158e-05 2.87426046e-05 -1.83162647e-05
      -6.86488420e-06 -2.43356008e-05 4.66640540e-06 2.33434348e-05
      -1.36986419e-05 3.19617866e-05 5.58706488e-05 2.30873247e-05
      4.41008560e-05 6.87279389e-05 4.60540250e-05 -1.66201753e-05
      9.95925529e-06 -4.84363272e-06 -3.54998956e-05 -7.25613745e-06
      -1.43485686e-05 -7.56395866e-06 1.71880129e-05 1.84516521e-05
      -1.64013109e-05 8.65848324e-06 9.76757019e-06 -4.72459978e-05
      -2.15806685e-05 -2.34207291e-05 -2.80953518e-05 -3.18234083e-06
      5.84611325e-06 -3.55504453e-05 -1.82138119e-05 -2.00306713e-05
      -3.10539713e-06 4.75967317e-06 2.24816745e-06 5.03150068e-06
      3.07977029e-06 9.75704734e-06 1.21888033e-05 7.58851047e-06
      1.13541955e-05 1.53996352e-05 9.08639686e-06 2.91784927e-05
      3.57168719e-05 2.60285615e-05 -6.23217920e-06 2.55483360e-06
      -5.42739372e-06 -2.87453486e-06 1.11890840e-05 -1.41635091e-05
      2.78394091e-05 4.91204955e-05 2.30247078e-05 2.80214263e-05
      5.24201459e-05 2.96852959e-05 -6.63893570e-06 1.84146938e-05
      5.73511443e-06 1.21333164e-06 2.40890022e-05 2.10028047e-05
      -1.22235724e-05 1.28108850e-05 1.54476384e-05 -1.96076871e-05
      4.68431881e-06 1.14379245e-05 -3.30632101e-05 -1.42099570e-05
      -7.11069379e-06 -4.02812002e-05 -2.11899060e-05 -1.42684185e-05
      -3.76040516e-05 -1.91610234e-05 -1.53067904e-05 -4.08958522e-06
      1.12245134e-05 5.26566237e-06 -1.12394491e-05 -1.05328331e-06
      1.27207613e-05 1.33514304e-05 1.16946794e-05 1.22382253e-05
      1.24686921e-05 1.07312271e-05 4.43715498e-06 9.23096923e-06
      2.02767660e-06 1.26460791e-05 2.19899066e-05 1.60048203e-05
      -9.29169164e-06 2.73371529e-06 -1.59946048e-05 3.28576280e-05
      5.03862466e-05 3.05163740e-05 3.45230801e-05 5.86106835e-05
      3.92001275e-05 8.28378916e-07 2.79536434e-05 1.44281239e-05
      -3.00757802e-05 -2.48915444e-06 -9.07768572e-06 -4.10398070e-06
      2.02786086e-05 2.29657308e-05 -1.60725394e-05 4.52838685e-06
      1.69634677e-05 -5.38020977e-05 -3.70964844e-05 -2.18668592e-05
      -1.24036014e-05 8.20832270e-07 1.43084026e-05 -2.82583005e-05
      -1.62968445e-05 -9.62484864e-06 -8.82032055e-06 1.71021827e-06
      -2.50197513e-06 6.46353783e-06 1.62774541e-05 8.75719252e-06
      2.39792626e-05 2.87998355e-05 3.90789755e-05 3.69705376e-05
      3.40652659e-05 2.05521828e-05 2.00962677e-05 1.66571008e-05
      3.22863116e-07 6.39327300e-06 -2.12760597e-06 -1.29188238e-05
      -1.49692050e-06 -1.30271046e-05 1.11561721e-05 2.82741257e-05
      1.12281350e-05 3.81204591e-05 6.02621112e-05 4.48286373e-05
      1.55710368e-05 3.88869666e-05 2.85252354e-05 -2.68346193e-05
      -1.15330670e-06 -4.50978632e-06 -2.51145266e-05 -3.20435305e-07
      2.70331452e-06 -2.07039375e-05 -2.25985573e-07 9.83251448e-06
      -4.22233279e-05 -2.60148518e-05 -6.84662018e-06 -2.37749919e-05
      -1.29954669e-05 -9.18691569e-07 -1.84848523e-05 -9.57163229e-06
      6.60257456e-07 -3.22981890e-07 6.58099088e-06 8.15117619e-06
      1.36394319e-05 2.00906798e-05 1.33130006e-05 7.87010777e-06
      1.19288788e-05 -8.63682828e-07 -6.73944260e-06 -2.66409461e-06
      2.45590381e-05 1.98497437e-05 1.36167973e-05 1.95617013e-05
      1.81416890e-05 1.01776650e-05 2.82944188e-06 9.98558789e-06
      5.45170178e-06 -6.59243960e-06 7.36754964e-06 -1.35724649e-05
      2.25783897e-05 4.28654639e-05 2.59243679e-05 1.08542854e-05
      3.59019759e-05 2.26950142e-05 -1.32440764e-05 1.41148475e-05
      9.66512744e-06 -2.28976241e-05 3.09521647e-06 6.56677776e-06
      -7.34155401e-06 1.33619606e-05 2.57927077e-05 -4.71310741e-05
      -3.08491326e-05 -1.52100647e-05 -2.77122399e-05 -1.55715989e-05
      3.62075184e-06 -1.63134810e-05 -8.18078024e-06 5.09965048e-06
      -9.12506039e-06 -5.63168396e-06 2.23330653e-06 2.06251516e-05
      2.28136960e-05 2.08390466e-05 9.04275294e-06 8.46986040e-06
      -1.70397470e-06 4.28821522e-06 5.74940168e-06 -7.13971849e-06
      -1.63254163e-06 1.09692201e-06 6.03754506e-06 -9.96186387e-08
      -9.41122016e-06 3.09707248e-05 2.93194898e-05 2.29064281e-05
      2.79651840e-06 8.49448406e-06 -5.23239851e-06 9.88381180e-06
      2.30522328e-05 7.35122057e-06 3.46542874e-05 5.53646678e-05
      4.55627451e-05 1.52958501e-06 2.74991817e-05 1.44297146e-05
      -3.79870289e-05 -1.13678825e-05 -1.12486778e-05 -1.00988900e-05
      1.50443611e-05 2.10099133e-05 -3.75560921e-05 -1.78231076e-05
      -3.52973689e-06 -3.10599462e-05 -1.73048356e-05 4.91572746e-06
      -1.16705705e-05 -5.41397696e-07 1.48710078e-05 -1.13837141e-05
      -6.92511776e-06 4.63806418e-06 8.43171983e-06 1.15001512e-05
      1.26196901e-05 1.78493046e-05 1.59264964e-05 1.13889591e-05
      4.28700332e-05 3.58574762e-05 2.55751347e-05 4.61181844e-05
      3.90968635e-05 2.99350722e-05 5.06281431e-05 4.96315333e-05
      5.50151617e-06 -1.05914455e-06 -9.40468635e-06 2.87313997e-05
      2.54909573e-05 1.94720687e-05 3.53070868e-06 1.17996697e-05
      -1.12437638e-05 2.09755763e-05 3.54911790e-05 1.90511837e-05
      2.93929079e-05 5.06911383e-05 3.60583435e-05 -3.24016287e-06
      2.08605834e-05 1.15305056e-05 -3.63042709e-05 -9.23286552e-06
      -7.25506425e-06 -2.71676072e-05 -5.14955491e-06 5.55085580e-06
      -3.40377737e-05 -1.37756178e-05 1.20160312e-05 -2.71444769e-05
      -1.24520657e-05 5.98453425e-06 -3.36571770e-06 5.70364773e-06
      1.72127893e-05 1.06662625e-07 3.92243146e-06 7.61318915e-06
      4.10632128e-05 3.86407592e-05 3.44111941e-05 4.64274526e-05
      3.88890912e-05 2.97725765e-05 7.82470161e-05 6.58735880e-05
      5.69209114e-05 8.30283316e-05 6.95102208e-05 5.97285034e-05
      1.08925757e-04 1.01060985e-04 -5.09866095e-06 -1.09606981e-05
      -1.81748237e-05 -1.26302621e-05 -1.22839720e-05 -2.99541534e-05
      2.35132393e-05 3.24509274e-05 1.05535619e-05 3.31022566e-05
      5.38301356e-05 3.15515754e-05 -6.23803771e-06 1.91745894e-05
      2.82158544e-06 -2.89902509e-05 -1.37118903e-07 -9.90639819e-06
      -2.72386546e-06 2.45383308e-05 2.85905971e-05 -5.07178047e-05
      -2.63461188e-05 -1.43585175e-05 -3.24999455e-05 -1.36625458e-05
      1.58970136e-06 -1.30965900e-05 4.19854615e-07 1.62703200e-05
      -1.89929124e-05 -1.12969565e-05 -2.21214987e-06 5.16153086e-05
      5.51426201e-05 5.22124064e-05 4.22167504e-05 3.68829060e-05
      3.31151823e-05 6.64525360e-05 5.55514671e-05 4.72541542e-05
      6.46869885e-05 4.66503298e-05 3.87780456e-05 1.02661623e-04
      8.61039225e-05 7.76087618e-05 1.57284681e-04 1.45253740e-04
      6.11396717e-06 4.18286504e-07 -1.35021583e-05 -1.46249863e-06
      8.23775565e-07 -2.61328314e-05 2.20843704e-05 3.92526672e-05
      1.12677199e-05 1.87638925e-05 4.78489565e-05 2.40213176e-05
      -2.27474775e-05 1.20047762e-05 -4.08372898e-06 -3.71603492e-05
      1.46619371e-07 -6.64954678e-06 -3.07927512e-05 7.11686369e-07
      4.64388540e-06 -2.93050580e-05 -5.51890025e-06 1.09346238e-05
      -6.08081473e-06 1.29850096e-05 2.36739015e-05 -3.52850220e-05
      -2.36313172e-05 -1.07195974e-05 2.24012510e-05 2.89960062e-05
      3.62130413e-05 4.13204034e-05 4.28692620e-05 4.46572922e-05
      1.46713001e-05 1.15132743e-05 7.81069957e-06 -1.89669536e-05
      -3.06438451e-05 -3.52386014e-05 9.13581825e-05 7.39527459e-05
      6.44441679e-05 1.83017706e-04 1.66777274e-04 1.57035363e-04
      2.14084677e-04 2.05884775e-04 5.08960875e-06 6.62973252e-06
      -1.73583794e-05 1.11655900e-05 1.76461635e-05 -1.23166637e-05
