<?xml version="1.0"?>
<opencv_storage>
<my_svm type_id="opencv-ml-svm">
  <svm_type>C_SVC</svm_type>
  <kernel><type>LINEAR</type></kernel>
  <C>100.</C>
  <term_criteria><epsilon>2.2204460492503131e-16</epsilon>
    <iterations>1000</iterations></term_criteria>
  <var_all>2500</var_all>
  <var_count>2500</var_count>
  <class_count>2</class_count>
  <class_labels type_id="opencv-matrix">
    <rows>1</rows>
    <cols>2</cols>
    <dt>i</dt>
    <data>
      1 2</data></class_labels>
  <sv_total>1</sv_total>
  <support_vectors>
    <_>
      -4.58698138e-04 -2.94196623e-04 7.45009020e-05 -1.20480297e-04
      -2.70287474e-05 3.54994525e-04 -4.35107868e-05 -9.11377210e-05
      2.47904740e-04 9.30946626e-05 -1.04847320e-04 1.50805368e-04
      2.65092065e-04 -2.48145116e-05 1.22653932e-04 7.05585189e-05
      -2.21384689e-04 -1.38564050e-04 6.20197243e-05 -5.04204691e-05
      -1.56482391e-04 1.13001137e-04 1.55680769e-04 -3.15889920e-05
      -2.11535356e-04 -5.30743200e-05 -2.78672960e-04 -2.22996765e-04
      4.46073063e-05 -1.70773419e-04 -1.77925802e-04 1.28297979e-04
      6.61887025e-05 -4.34848218e-04 -8.51215736e-05 -7.72031635e-05
      1.02794038e-04 3.61471815e-04 4.23110672e-04 -4.84547811e-04
      -2.43579809e-04 -8.88865543e-05 -8.67899726e-05 4.31637409e-06
      2.73078185e-04 1.57104252e-04 3.22047446e-04 6.55939977e-04
      -8.30500037e-04 -4.21932782e-04 -4.49243962e-04 -3.16465303e-04
      -1.99398028e-06 -1.22378959e-04 -1.14530099e-04 2.00479655e-04
      -3.45814711e-04 -5.17759763e-04 -2.71998433e-04 -1.55916441e-05
      -3.14533187e-04 -1.23558028e-04 3.38844722e-04 -4.78616676e-06
      1.43105121e-04 6.27063971e-04 3.65887885e-04 3.65855987e-04
      1.95629516e-04 6.45949331e-05 -3.24924877e-05 1.83801050e-04
      2.01847899e-04 4.02691330e-05 -3.26843542e-06 1.86042103e-04
      -4.14945753e-05 7.07667277e-05 3.27959890e-04 1.66766389e-04
      -1.90904553e-04 3.93429727e-05 -3.08136878e-05 -3.04166548e-04
      -3.74256088e-05 -3.48159301e-05 -3.92948605e-05 1.92234438e-04
      2.51249061e-04 -2.94193305e-04 -1.16770279e-04 3.27405796e-05
      -6.70275040e-05 -3.23873355e-05 2.58549204e-04 -2.54993734e-04
      -1.17478980e-04 1.42272562e-04 -2.90807802e-04 7.59111063e-05
      -1.12655442e-04 1.85243189e-04 3.29893839e-04 -1.23433449e-04
      6.87002102e-05 2.03455013e-04 6.69288274e-05 -2.56017643e-06
      8.02101422e-05 4.66817619e-05 -7.33030174e-05 -6.03359513e-05
      6.17463884e-05 -2.29197671e-04 -1.90786464e-04 3.66404449e-04
      1.61402088e-04 1.13366485e-04 1.39545213e-04 2.83336994e-05
      -2.96656654e-05 -9.48864836e-05 -7.77456298e-05 -1.35670925e-04
      -2.05467586e-04 4.35578550e-05 -1.12464251e-04 1.50441947e-05
      2.24786534e-04 1.81491865e-04 -1.43703393e-04 1.19047341e-04
      9.25356871e-05 -8.86921480e-05 1.31410576e-04 1.96468871e-04
      -6.74608091e-05 -2.62546855e-05 4.01886246e-05 1.47832528e-04
      8.88463619e-05 1.91146610e-04 2.74909507e-05 -7.43149187e-08
      2.03011383e-04 -3.05215644e-06 -3.64038642e-05 8.23411756e-05
      4.29677428e-04 3.97465366e-04 -2.30796111e-04 -1.30932414e-04
      -4.66118108e-05 -4.32949018e-04 -3.95843992e-04 -3.60718259e-04
      -8.73302124e-05 -1.10244546e-04 -1.36520306e-04 -1.11321853e-04
      -2.81558692e-04 -3.24970606e-04 -6.88736463e-06 -1.89326151e-04
      -2.86583905e-04 -9.95901210e-05 -3.04831221e-04 -3.67335131e-04
      2.74358841e-04 2.29181591e-04 1.99624308e-04 3.39424878e-04
      4.11187677e-04 4.07231448e-04 -1.85186058e-04 -3.88181215e-05
      -2.34205527e-05 -2.88310024e-04 -2.03969394e-04 -1.82395350e-04
      1.46610964e-05 1.57138813e-04 1.80617892e-04 -2.68699776e-04
      -2.05965014e-04 -1.39196767e-04 -9.30043898e-05 -1.19501019e-04
      -5.78401014e-05 -4.20902907e-05 -1.07574582e-04 -2.28414756e-05
      2.83271074e-04 2.04474782e-04 3.60080914e-04 4.44408739e-04
      3.97898781e-04 4.47167840e-04 -5.06633951e-04 -6.19728176e-04
      -1.00058904e-04 2.05306700e-04 4.63867400e-05 -1.17991112e-04
      1.27527557e-04 -5.50247423e-05 -6.94652772e-05 -4.29423671e-05
      -2.42747803e-04 7.37979281e-05 6.26955516e-05 -1.35237540e-04
      2.48047698e-04 2.11029997e-04 7.23207631e-05 -4.62666358e-05
      -6.99065858e-05 -1.75677618e-04 -6.99742523e-05 -2.77006457e-05
      -9.58041983e-06 -1.01912330e-04 1.00066154e-05 8.28772754e-05
      -2.16797358e-04 -6.22401931e-05 5.25177420e-05 3.32112395e-05
      1.46062623e-04 1.98465757e-04 1.92963475e-04 2.56262108e-04
      3.36107507e-04 -1.42595338e-04 -1.75261666e-04 -5.06818251e-05
      3.52192728e-04 2.64647737e-04 3.06223112e-04 -1.30484477e-04
      -2.67855183e-04 -2.03450545e-04 1.29381107e-04 -4.36909322e-05
      -2.39097108e-06 4.83225420e-04 3.46102926e-04 3.35406832e-04
      3.88132845e-04 3.45375796e-04 -2.71714001e-04 -2.00946801e-04
      -3.84303305e-04 -3.82814877e-04 -2.99478765e-04 -4.90387029e-04
      -5.71065575e-05 -2.45523734e-05 -2.31678932e-04 -1.14933282e-05
      1.63161767e-05 -1.94187523e-04 -5.53075836e-07 -2.97267775e-06
      -7.99286790e-05 -1.43991114e-04 -3.82861690e-05 -6.13045995e-05
      -3.52348259e-04 -2.73357058e-04 -1.38950665e-04 -3.70160473e-04
      -1.92710169e-04 -3.11016520e-05 -3.34591139e-04 -1.90400722e-04
      2.11197803e-05 -2.54752202e-04 -2.22057715e-04 -5.49567303e-05
      -3.00961256e-04 -3.88505869e-04 -2.90868920e-04 3.69188463e-04
      1.87880461e-04 3.21269239e-04 3.27425805e-04 7.88281322e-05
      1.84370059e-04 3.77352873e-04 1.21188808e-04 1.84326753e-04
      3.33339704e-04 1.15465067e-04 2.00401788e-04 8.28351040e-06
      -1.73625129e-04 -1.08064291e-04 -3.08034185e-04 -3.48508416e-04
      1.50482374e-04 7.25265345e-05 -1.62166005e-04 -3.02225253e-05
      -2.89419422e-05 -2.87435512e-04 1.81666052e-04 2.11882041e-04
      8.44650494e-05 -1.45506798e-04 -1.97288718e-05 -1.24870625e-04
      -1.44204110e-04 6.49725844e-05 8.38015112e-05 -2.33445153e-05
      2.78362742e-04 3.87342792e-04 -1.69970284e-04 4.83224103e-05
      2.79390253e-04 -1.80896182e-04 -1.04198934e-05 2.12572224e-04
      1.94446475e-04 2.48140044e-04 4.41972748e-04 -1.18581454e-04
      -1.80122370e-04 -5.21293332e-05 1.03762497e-04 -1.14825118e-04
      -6.40121380e-06 2.03963413e-04 -1.18489326e-04 -1.26882460e-05
      3.65802611e-04 8.47301781e-05 1.48229607e-04 6.07713591e-05
      -1.65238424e-04 -1.32486821e-04 3.84198182e-04 2.06167009e-04
      3.46871006e-04 -3.90164176e-04 -4.71797626e-04 -3.59125814e-04
      -2.78604595e-04 -2.89010612e-04 1.85104014e-04 -2.42070073e-05
      -2.73000915e-04 -5.74092655e-06 -1.91476385e-04 -4.06764651e-04
      -5.14409148e-05 -8.86947382e-05 -1.69979816e-04 -3.43061722e-04
      -2.42431139e-04 -2.72946665e-04 -4.33925889e-04 -1.29301872e-04
      -4.45240903e-06 -3.48953297e-04 -4.27671912e-05 2.09135833e-04
      -2.34536528e-05 2.04356664e-04 4.93386411e-04 -4.59038100e-04
      -3.46570974e-04 -6.41515799e-05 2.17041263e-04 2.27880577e-04
      3.94011091e-04 1.43496422e-04 -8.41163637e-06 1.22405909e-04
      3.68181791e-04 4.97234214e-05 1.62734505e-04 1.26099316e-04
      -2.48521625e-04 -1.45416561e-04 -2.51211623e-05 -3.04905872e-04
      -2.17604829e-04 8.11649079e-06 -1.66070982e-04 -1.14484705e-04
      -1.50593580e-04 -1.94357053e-04 -9.65217114e-05 7.98914243e-06
      -3.73563817e-05 1.50657404e-04 3.29390663e-04 3.42658255e-04
      3.80386773e-04 -3.99611199e-05 -2.56435800e-04 8.19041670e-05
      -2.42980299e-04 -3.91680078e-04 -9.44460553e-05 -1.63802586e-04
      -1.95724831e-04 -2.77056242e-04 -1.87926562e-04 -1.37748430e-04
      -2.54958228e-04 1.02477417e-04 2.76998617e-04 -1.73075838e-04
      1.85914832e-05 2.49160657e-04 -3.20362131e-04 -9.15854798e-06
      2.79915956e-04 4.21725817e-05 2.03206728e-04 4.95819026e-04
      2.03509244e-05 -1.12948968e-04 7.37125010e-05 1.80031755e-04
      -1.26736350e-05 1.56979717e-04 5.48247539e-04 1.83957367e-04
      3.04758985e-04 1.22673227e-04 -2.00127601e-04 -9.41450562e-05
      -1.73501699e-04 -3.06626927e-04 -2.70084362e-04 -6.05299610e-05
      -8.74352336e-05 -5.39709508e-05 -3.03812121e-04 -2.18372123e-04
      -1.23762497e-04 -1.21205960e-06 1.22482903e-04 1.90809427e-04
      -4.32423949e-05 -1.08818494e-04 4.20874130e-04 -6.28386697e-05
      -1.82268384e-04 3.92684218e-04 1.87782949e-04 8.01007191e-05
      -1.30218177e-04 -2.80079141e-04 -2.89235177e-04 -2.38101675e-05
      1.75438166e-04 2.25073265e-04 -3.84113700e-05 2.57826992e-04
      4.43109631e-04 -4.55800735e-04 -7.92900973e-05 1.24983912e-04
      -3.54965770e-04 -5.53023638e-05 1.96382243e-04 -1.00849822e-04
      -1.78575719e-04 3.54063523e-05 -1.30646758e-05 -4.36843366e-05
      8.40737266e-05 -5.36287735e-05 -2.95841397e-04 -1.91099811e-04
      1.75172681e-04 -5.52033162e-05 -2.47999888e-05 1.48332954e-04
      -1.16557501e-04 -2.11498755e-05 2.26639149e-05 -5.80240448e-05
      -3.21337066e-05 1.18838798e-04 1.64462937e-04 1.58411684e-04
      -2.56356812e-04 -4.00964964e-05 -5.08195808e-05 -1.83962737e-04
      -2.65958370e-05 -2.20189013e-05 7.73799620e-05 7.73139109e-05
      2.44254916e-04 -1.29848733e-04 -1.92252221e-04 6.27480389e-04
      3.62891762e-04 3.63587140e-04 -1.15987050e-05 -1.07447035e-04
      -7.83733194e-05 -2.70749530e-04 -1.93534739e-04 -9.46755827e-05
      -7.13623158e-05 2.35463056e-04 3.16437276e-04 -2.30950667e-04
      1.35575901e-04 2.04504177e-04 1.83442207e-05 2.88426672e-04
      3.56341247e-04 1.05800564e-05 8.76255290e-05 2.18935311e-04
      3.84776722e-05 -5.88152725e-05 -1.67176222e-05 2.88264255e-05
      -4.72523789e-05 -5.75785671e-05 2.78456107e-04 1.19427918e-04
      1.26227838e-04 2.78287898e-05 -2.61918231e-05 6.28119551e-06
      -7.59280156e-05 4.29298689e-06 -3.64029474e-05 3.67394969e-05
      1.65535239e-04 9.68552486e-05 -2.73059268e-04 -5.03996052e-05
      -1.13296068e-04 -2.83104688e-04 -7.80465562e-05 -1.49603438e-04
      -1.21760040e-05 -2.81478733e-05 5.18608067e-05 -8.53580786e-05
      -6.17197657e-06 -1.67471007e-05 -1.83667216e-04 -1.03513834e-04
      -2.45922256e-05 -5.72768622e-05 -4.66389292e-06 4.96849789e-05
      5.30680518e-05 1.24952945e-04 -2.83757196e-04 -5.15549145e-05
      -1.24649050e-05 -2.19689697e-04 -1.73339417e-04 -1.47826620e-04
      -9.27151632e-05 5.88237708e-05 2.79359865e-05 1.38351636e-04
      2.02706011e-04 2.12206811e-04 -4.31769295e-05 -2.26973425e-05
      -5.24237694e-05 7.22310069e-05 3.77109609e-05 -1.89028488e-05
      2.55647628e-05 1.15294552e-05 1.89377552e-05 -2.18766552e-04
      -1.94565873e-04 -1.80565024e-04 -1.60736075e-04 -3.65280393e-05
      -8.44140377e-05 -4.80763520e-05 5.13021041e-05 1.68642982e-05
      -3.11314303e-04 -1.16557821e-04 -1.98499212e-04 -3.84496525e-05
      5.34802712e-05 -6.92700560e-05 6.56468765e-05 1.91693161e-05
      1.41794881e-04 8.02141367e-05 2.27790559e-04 1.04277045e-04
      1.10341032e-04 2.84592330e-04 -6.82397804e-05 -4.75557790e-05
      8.42237023e-06 -2.38062112e-05 9.69317355e-08 1.17521216e-04
      -6.48904461e-05 2.35827265e-05 7.88298348e-05 8.44754977e-05
      1.42010744e-04 1.98083580e-04 -2.95171631e-04 -2.22137154e-04
      -2.57455744e-04 1.53012894e-04 1.63111239e-04 1.65760895e-04
      -9.10493982e-05 -3.39410253e-05 -9.79470278e-05 -1.85181940e-04
      -1.39321273e-04 -1.80505012e-04 -2.81576940e-04 -1.43336845e-04
      -1.26641724e-04 -2.57853040e-04 -1.34050017e-04 -1.22662881e-04
      -1.25014121e-04 3.60451886e-05 2.00516070e-06 -2.03445288e-05
      5.45962466e-05 5.54681101e-05 -8.70901204e-05 -8.31784637e-05
      -8.59928041e-05 2.86826817e-05 -6.95625931e-05 -9.52467817e-05
      3.62851279e-05 -1.72937507e-04 -1.30724104e-04 -1.20137025e-04
      1.83396900e-04 -2.11033635e-04 -2.72814475e-04 2.75703110e-06
      5.99235755e-05 5.82220819e-05 2.55303486e-04 5.19623936e-05
      -3.67886787e-05 6.86287676e-05 2.78200750e-05 -1.81536612e-04
      -1.37414667e-04 1.39011172e-04 5.54642611e-05 8.58400672e-05
      -1.61854783e-04 -2.42857772e-04 -2.33067272e-04 -1.59556264e-04
      -2.28190431e-04 -1.90331688e-04 -6.88404034e-05 -1.69625364e-05
      -8.10738347e-05 -1.89798593e-04 -1.02946273e-04 -1.11375753e-04
      -1.87861719e-04 3.49246693e-05 4.95022614e-05 -1.54888388e-04
      1.46446928e-05 1.17269286e-04 -1.38762611e-04 -3.58985308e-05
      3.04071982e-05 -9.30010719e-06 -4.92909885e-06 6.08418086e-05
      1.14216171e-04 -9.59075696e-05 -1.61750268e-05 3.96538089e-05
      -2.20233254e-04 -1.78301852e-04 1.68161845e-04 -6.53491952e-05
      -1.19955293e-04 -3.32594464e-05 3.40149680e-04 2.15540960e-04
      1.49376938e-04 4.87408834e-04 8.49750650e-05 9.76673764e-05
      3.13785160e-04 -7.81724593e-05 -1.95848377e-04 -4.09199383e-05
      -7.74896907e-05 -2.78561638e-04 -1.89105267e-04 2.18458677e-04
      1.79416929e-05 1.34415735e-04 3.49212118e-04 1.54107867e-04
      2.16991350e-04 -1.96552995e-04 -2.45892268e-04 -1.58706796e-04
      2.46118962e-05 8.65061229e-05 1.23041202e-04 -2.97535938e-04
      -1.23732432e-04 -5.21434195e-05 -3.11152049e-04 -6.11046926e-05
      5.74934302e-06 -2.47998163e-04 -3.13937962e-05 8.00728449e-05
      -2.20685833e-04 -1.40805219e-04 -4.09652093e-05 -4.76059613e-05
      -2.06180630e-04 -8.50487959e-06 2.05392280e-04 -1.49081534e-04
      5.75275444e-05 1.52385226e-04 -2.74007878e-04 -4.61640775e-05
      2.54122890e-04 -1.65061894e-04 -2.70042859e-04 -1.37988653e-04
      1.61969700e-04 8.39919157e-05 1.56764276e-04 4.23373393e-04
      -2.39639558e-04 -2.38599590e-04 -1.56301394e-04 4.18228999e-04
      2.30123987e-04 3.26336158e-04 2.24539166e-04 1.18217595e-05
      3.85469684e-05 -5.07002551e-05 -3.42164130e-04 -3.00431886e-04
      3.93823691e-04 1.45094586e-04 1.96773137e-04 -1.77169990e-04
      -3.00960062e-04 -2.25679963e-04 9.77918244e-05 1.79607901e-04
      2.94628378e-04 -3.90795001e-04 -1.08071792e-04 -4.63595497e-05
      -4.01685538e-04 -2.75850653e-05 1.21694829e-05 -3.07083363e-04
      -8.56719907e-06 7.07177023e-05 -1.84457007e-04 -1.48210238e-04
      -2.12866489e-05 1.12096996e-05 -1.41004188e-04 -9.26664711e-07
      2.45330710e-04 -1.50138905e-04 7.85863158e-05 2.08091820e-04
      -2.73313432e-04 -1.42284087e-04 2.80176930e-04 -1.14475319e-04
      -2.67972267e-04 -6.23169617e-05 -2.70234596e-05 -7.13057743e-05
      1.94198772e-04 2.46497191e-04 -3.68223060e-04 -3.53834912e-05
      -1.87011246e-04 1.57708084e-04 2.12593062e-04 1.17278942e-04
      8.80079460e-05 -6.30690265e-05 -1.00155463e-04 1.50457825e-04
      -1.02316728e-04 -8.30206554e-05 1.83388227e-04 -2.04155163e-04
      -7.13293630e-05 2.16738277e-04 7.37201435e-06 1.26990388e-04
      -1.24586237e-04 -1.64268545e-06 5.59696527e-05 -4.25673556e-04
      -3.54093463e-05 -1.44289679e-05 -3.02062748e-04 2.17812703e-04
      1.59431147e-04 -4.67866485e-04 -5.39652028e-05 -1.66894621e-04
      -1.66696060e-04 -1.07528918e-04 -1.28074753e-04 1.21649013e-04
      -5.22203700e-05 -2.00424402e-04 1.62837881e-04 -2.57307198e-04
      -2.91905802e-04 2.52768717e-04 -1.33590613e-04 -2.47306394e-04
      -3.44867643e-04 -4.43157944e-04 -3.41854960e-04 1.16215633e-05
      -3.76864846e-05 -3.39312886e-04 -2.91893315e-07 -4.40173280e-05
      -2.37871282e-04 2.08894227e-04 -3.59979422e-05 -3.93425609e-04
      -2.39194938e-04 -4.46117163e-04 -6.23427768e-05 -2.38017834e-04
      -2.68507865e-04 3.54010059e-04 5.22793089e-05 7.26264479e-05
      2.81658140e-04 -9.97098978e-05 8.92245680e-06 7.71380437e-05
      -1.35762137e-04 4.87444549e-06 -3.65669955e-04 -1.70320185e-04
      -6.50821457e-05 -4.08868451e-04 -1.69487503e-05 -1.61012249e-05
      -4.46536142e-04 1.03257444e-04 2.18960940e-05 -5.54399623e-04
      -1.90822990e-04 -2.07588906e-04 -4.73386208e-05 -3.70825182e-05
      -9.55771393e-05 3.63917323e-04 1.47726460e-04 -2.29225825e-05
      1.82073651e-04 -2.59386143e-04 -3.97554511e-04 3.64851119e-04
      6.62846796e-05 -1.95913017e-04 7.20330863e-04 6.71833113e-04
      -4.41680168e-04 -5.02376788e-05 -3.68724250e-05 -1.18736447e-04
      1.73570879e-04 1.51834771e-04 2.05603774e-05 3.23537010e-04
      1.44012054e-04 -1.81326817e-04 -1.09613124e-04 -2.92993354e-04
      3.97889118e-04 9.27297224e-05 1.00440360e-04 2.81477609e-04
      -1.19500779e-04 -4.86198260e-05 2.82523775e-04 -9.73749411e-05
      -3.86273001e-07 6.61782760e-05 -1.38162184e-04 3.71087299e-06
      2.18479454e-05 1.97456131e-04 2.74578080e-04 -4.70372062e-04
      -1.00032426e-04 -1.13678951e-04 -5.15628839e-04 -7.21689721e-05
      -1.26224011e-04 -3.31960357e-04 -5.35757026e-05 -1.62809709e-04
      1.40692107e-04 8.36789332e-05 -3.42255626e-05 1.65763762e-04
      -7.52613414e-05 -2.27777375e-04 1.13473267e-04 -1.73687265e-04
      -3.33364675e-04 2.63773982e-04 1.60404306e-05 -1.50927473e-04
      -1.84223434e-04 -1.90352759e-04 -3.21034575e-04 7.85184529e-05
      6.65444895e-05 -4.72798602e-05 2.16593384e-04 1.35586000e-04
      -1.16304487e-04 5.65184964e-05 -6.24161839e-05 7.13235204e-05
      -2.74465651e-06 -1.16706273e-04 5.01927570e-04 1.20827623e-04
      1.33621390e-04 2.03708987e-04 -2.47814576e-04 -1.24599159e-04
      2.62497633e-04 -1.36941730e-04 2.48298638e-05 -8.59951688e-05
      -2.72403006e-04 -1.21637335e-04 2.42638518e-04 3.87495995e-04
      4.07235842e-04 -5.47407661e-04 -1.94784356e-04 -1.54700261e-04
      -4.49662213e-04 -1.48073304e-04 -2.14074811e-04 -7.93573636e-05
      1.09819375e-04 7.42520751e-06 2.62913469e-04 1.46052567e-04
      -2.43925806e-05 -1.24600425e-04 -3.69694724e-04 -4.50241321e-04
      3.32707568e-04 1.42143210e-04 -1.34463817e-05 1.18638338e-04
      -4.49251165e-05 -1.24308062e-04 2.36200867e-04 1.57571209e-04
      -1.13681614e-04 2.38390741e-04 2.11714811e-04 -3.70448019e-04
      -1.10453009e-04 -1.98209687e-04 -3.22740525e-05 3.67871908e-05
      -5.46780248e-05 1.71362073e-04 3.21602579e-06 -9.72732159e-05
      3.58691643e-04 -1.38003714e-04 -3.79165322e-05 3.17275175e-04
      -1.96135894e-04 -4.70307750e-05 3.28980823e-04 -4.80370036e-05
      9.03381151e-05 7.35515205e-05 -8.89237926e-05 -3.56864643e-06
      -1.39654905e-04 6.42831264e-06 2.27467026e-05 -5.55379025e-04
      -2.43587972e-04 -2.60396308e-04 -2.39689543e-04 -4.57495553e-05
      -1.38408839e-04 -4.63871838e-05 -4.86915160e-05 -2.46785901e-04
      2.93905963e-04 -3.20618369e-06 -1.10248067e-04 8.93322649e-05
      -1.62792334e-04 -2.70946854e-04 3.28045600e-04 2.42453694e-04
      1.06494190e-04 1.86938254e-04 4.74180124e-05 -1.68402985e-05
      1.72717220e-04 -1.95648769e-04 -3.32789823e-05 3.98181495e-04
      3.90837988e-04 -2.64118135e-04 3.79550625e-06 -2.56434760e-05
      3.04742513e-04 3.45208595e-04 2.23696057e-04 4.13501868e-04
      1.52238281e-04 1.07748681e-04 4.48177307e-04 -1.73839377e-04
      -3.78952573e-05 4.88684513e-04 -8.76368722e-05 5.96311329e-05
      1.92254534e-04 -1.47227576e-04 3.30275407e-06 2.45263327e-05
      -5.10253740e-05 -6.57271016e-07 -3.55398224e-04 -1.56817245e-04
      -2.44585593e-04 -3.02293280e-04 -3.44461369e-05 -1.33737834e-04
      -2.64659047e-05 1.91238505e-05 -1.36452261e-04 -1.27485240e-04
      -2.63324415e-04 -4.12556576e-04 2.44709110e-04 -6.51211230e-05
      -2.31976839e-04 4.29833279e-04 1.69705396e-04 4.58628820e-05
      -4.41237826e-05 -5.62066646e-07 -5.96547652e-05 9.46507280e-05
      1.08837470e-04 8.48303753e-05 1.39082724e-04 -1.74162022e-04
      -3.42886487e-04 1.37894240e-04 1.32193716e-04 -2.40464899e-04
      1.98914986e-05 -1.33464473e-05 8.79751460e-05 4.09508793e-05
      -5.69666736e-05 2.66331830e-04 -9.32597759e-05 -8.99612569e-05
      3.08198156e-04 -2.37577333e-04 -1.10160930e-04 5.21909271e-04
      -1.38012538e-05 1.48302672e-04 2.41550151e-04 -2.04951375e-05
      1.36171424e-04 -4.66491692e-05 -1.10813871e-05 -4.29168995e-06
      -3.40211613e-04 -1.16689647e-04 -2.44005758e-04 -8.93118631e-05
      1.68145925e-04 -7.40766118e-05 4.53070170e-05 3.84234045e-05
      -1.90490668e-04 -2.15626533e-05 -2.73455546e-04 -3.75438540e-04
      3.18267499e-04 -3.34892211e-05 -1.54801048e-04 4.19641670e-04
      2.43106828e-04 1.41430064e-04 -3.01793538e-04 -1.76699948e-04
      -2.29439596e-04 -6.29713468e-05 1.74306304e-04 1.70930260e-04
      1.68940547e-04 9.02121683e-05 -2.44301336e-04 3.26218957e-04
      3.12792137e-04 -3.26251786e-04 5.07529785e-06 2.63058682e-05
      1.99640475e-04 1.08219574e-04 -3.68535484e-06 4.48054605e-04
      1.42653298e-04 1.30910819e-04 4.58865892e-04 -7.45211946e-05
      2.17067991e-05 2.96377431e-04 -1.91738247e-04 -1.48222083e-04
      1.85875295e-04 -1.91421968e-05 6.49077265e-05 1.17305579e-04
      2.70054967e-04 1.30790562e-04 -6.48515939e-04 -3.51097609e-04
      -5.14089945e-04 -8.66695264e-05 1.89052211e-04 -1.72574088e-04
      1.07653424e-04 9.26765006e-06 -2.29292549e-04 8.96158454e-05
      -1.91154075e-04 -3.85286869e-04 3.70753754e-04 4.27546693e-05
      -7.57319649e-05 3.28540307e-04 1.46964274e-04 1.45094251e-04
      -3.83259292e-04 4.92424442e-06 3.68120283e-07 -2.11373816e-04
      2.25649186e-04 2.46089679e-04 -8.33262311e-05 3.89376555e-06
      -2.47029791e-04 1.80434727e-04 1.96853071e-04 -4.92434192e-04
      -1.83573706e-04 -7.29233361e-05 4.36563743e-04 3.42268468e-04
      2.80978362e-04 3.17363156e-04 -6.87216962e-05 -3.32846539e-05
      3.99467797e-04 -1.33922527e-04 -3.56839846e-05 2.20759728e-04
      -1.77876165e-04 -1.56003327e-04 1.51399418e-05 -1.04566941e-04
      -7.15172428e-05 -4.12802678e-04 -2.55626161e-04 -3.01583059e-04
      -7.87948156e-05 2.19249501e-04 -3.44240402e-06 -4.48740146e-04
      -1.64543788e-04 -4.65460675e-04 2.94490426e-04 1.49282976e-04
      -6.68572975e-05 2.80031702e-04 1.96600340e-05 -2.95878999e-04
      1.53939516e-04 -1.34151618e-04 -3.08944145e-04 1.79279941e-05
      -4.11764677e-06 -6.87940119e-05 -6.80118916e-04 -8.84077308e-05
      -1.37088515e-04 -4.19187272e-04 2.57916719e-04 2.24481468e-04
      -2.24611154e-04 1.27095947e-04 -3.90004570e-05 5.50264725e-04
      5.40850451e-04 -3.57555138e-04 -1.11271329e-04 -1.47639686e-04
      1.85755925e-04 1.46566861e-04 4.22929224e-05 3.27205315e-04
      2.52316604e-05 2.06454188e-05 3.78319266e-04 -8.87456408e-05
      -6.95320778e-05 5.29244833e-04 1.21058125e-04 8.75535334e-05
      -5.09341698e-05 -1.09639463e-04 -1.17192874e-04 -2.83980480e-04
      -1.34968999e-04 -2.15643406e-04 -1.63685254e-04 1.48310413e-04
      -1.23481484e-04 -2.35081287e-04 -1.64285211e-05 -3.23347980e-04
      1.58150040e-04 4.31464032e-05 -2.71845027e-04 4.55454690e-04
      1.69616571e-04 -2.68276526e-05 1.47936866e-04 -1.03854582e-04
      -2.20327624e-04 1.05183099e-04 1.21304467e-04 1.42720062e-04
      -6.16286183e-04 7.95118249e-05 6.52966264e-05 -7.12441164e-04
      8.83526955e-05 1.86716556e-04 -5.59982262e-04 1.07698270e-05
      -1.85558602e-04 2.88249255e-04 3.16521007e-04 -2.47300457e-04
      -9.19464765e-06 1.25687229e-05 -1.34609800e-04 -1.40476404e-04
      -1.69683990e-04 2.69524578e-04 -2.74732429e-05 1.54556055e-05
      1.21600991e-04 -2.72931153e-04 -2.36893495e-04 3.70920607e-04
      6.11135256e-05 6.65398547e-05 -1.41180033e-04 -1.38996271e-04
      -1.69747014e-04 -2.42993061e-04 -3.81331920e-05 -1.32368470e-04
      -3.20130581e-04 7.47706508e-06 -2.26046468e-04 -8.85240515e-05
      9.51239781e-05 -1.54309178e-04 -2.99414041e-05 -1.12415946e-04
      -4.00543067e-04 5.58975502e-04 3.10054573e-04 1.66937651e-04
      1.19636265e-04 -5.67851421e-05 -6.71242524e-05 4.51691121e-05
      1.47607483e-04 2.26399236e-04 -5.77251660e-04 2.22443632e-04
      2.46015232e-04 -1.04446162e-03 -7.08624284e-05 8.77536877e-05
      -5.49771590e-04 1.15019131e-04 -4.69498831e-04 -1.09575543e-04
      -4.41099201e-06 -2.23456067e-04 8.65540133e-05 1.49660365e-04
      -4.16743751e-05 -3.84462255e-05 -8.49906137e-05 3.37208796e-04
      1.83140452e-04 1.34361893e-04 1.01589947e-04 -2.13366118e-04
      -2.72224424e-04 2.19587819e-04 -2.75713228e-05 3.31866295e-06
      3.67197827e-05 2.13009807e-05 -5.40195906e-05 -9.78473181e-05
      6.31068251e-05 -8.89692092e-05 -2.47242249e-04 1.16577176e-05
      -2.12391664e-04 -1.03996623e-04 8.55865437e-05 -1.69096005e-04
      -4.74981971e-05 -1.17834781e-04 -3.56769247e-04 3.98894190e-04
      2.45720294e-04 8.66281189e-05 1.28301806e-04 7.69991093e-05
      1.17997422e-06 -2.67128955e-04 -8.94053665e-05 7.56470627e-06
      -5.23913710e-04 2.56271276e-04 3.79257282e-04 -1.03806891e-03
      -1.30853092e-04 8.31211437e-05 -3.83495295e-04 3.26545909e-04
      -2.00638693e-04 3.84762825e-05 2.09325044e-05 -3.41351959e-04
      6.24902459e-05 6.14761302e-05 -6.89460285e-05 4.03301101e-06
      -6.19332423e-05 2.26152231e-04 1.24848797e-04 5.50205077e-05
      1.10133828e-04 -1.21462974e-04 -1.61569187e-04 1.89300321e-04
      4.12708905e-05 -1.75567984e-05 8.03743023e-05 6.94128948e-06
      -1.10004898e-04 -3.22021697e-05 7.13652407e-05 -6.23382875e-05
      -8.12968865e-05 9.77209056e-05 -1.07844789e-04 -8.26877804e-05
      4.48060709e-05 -1.81457784e-04 6.45298933e-05 -6.82520040e-05
      -2.34500461e-04 3.05226422e-04 1.54382200e-04 3.28542155e-05
      1.27738007e-04 9.57599113e-05 1.15899151e-04 -4.50167077e-04
      -2.22466391e-04 -6.61699596e-05 -5.07087680e-04 2.66259565e-04
      4.66724799e-04 -8.39049637e-04 1.16919919e-05 3.31648858e-04
      -6.47259702e-04 -3.27079761e-05 -1.94321750e-04 -8.15334988e-06
      -7.58559645e-06 -1.51455039e-04 1.75477253e-04 1.97172121e-04
      -1.14195878e-04 -4.29951069e-05 -1.20631652e-04 -3.94270864e-05
      -1.17541684e-04 -1.74186789e-04 1.29710723e-04 -3.62180399e-05
      -8.66122791e-05 1.05449246e-04 -8.02968862e-05 -9.02653046e-05
      -1.43825804e-04 -1.67301056e-04 -2.63688300e-04 -5.91069984e-05
      -1.84059190e-05 -1.31037988e-04 -1.08243970e-04 8.17048385e-06
      -1.98921203e-04 -3.66343193e-05 4.17978554e-05 -1.66866346e-04
      1.74776560e-05 -8.21134745e-05 -2.04740791e-04 2.93317542e-04
      1.60270458e-04 6.52454910e-05 1.33378111e-04 1.27729625e-04
      2.01041650e-04 -3.88595625e-04 -1.34458227e-04 5.82796893e-05
      -5.17991430e-04 2.04997676e-04 4.18886077e-04 -6.49467343e-04
      8.03309667e-05 4.23798279e-04 -4.55479021e-04 -8.50532087e-05
      -2.71559780e-04 -1.48274819e-04 1.58806542e-05 1.66073427e-04
      3.65009793e-04 4.35034774e-04 -7.74403306e-05 8.18778499e-05
      4.46627055e-05 -3.93244090e-06 -4.28598614e-05 -1.06968815e-04
      3.54844553e-04 2.24840012e-04 1.42089470e-04 1.55420406e-04
      -2.00936847e-05 -2.70649562e-05 -1.51434797e-04 -1.90623192e-04
      -2.56256986e-04 2.82228775e-05 -3.86903230e-05 -1.08488268e-04
      -8.31216166e-05 -6.53360330e-05 -2.35737389e-04 9.02760803e-05
      8.70634685e-05 -9.95462833e-05 -1.15409784e-06 -1.25675724e-04
      -2.36561405e-04 2.01085757e-04 1.16331386e-04 2.14383872e-05
      6.14470409e-05 8.39084023e-05 1.47357408e-04 -2.55844963e-04
      2.81413668e-05 2.04157011e-04 -5.58732136e-04 1.29067776e-04
      3.94794741e-04 -5.02488692e-04 7.91968632e-05 4.12673806e-04
      3.77469041e-05 3.20238178e-05 -1.52116438e-04 9.19524318e-05
      2.41662419e-04 -2.28323843e-05 1.47554209e-04 1.30355038e-04
      -1.33300025e-04 -2.97093375e-05 -6.63902529e-06 -1.43391599e-05
      -2.79030482e-05 -4.23058082e-05 3.27366841e-04 9.81028134e-05
      1.12130809e-04 2.69095326e-04 -1.35929176e-05 -3.32059753e-05
      3.01516138e-05 -1.87706377e-04 -1.74316039e-04 1.14828945e-04
      -1.79183789e-05 -9.19374434e-05 -5.15122883e-06 2.46587388e-05
      -1.61351913e-04 1.73147768e-04 2.17324210e-04 4.91323262e-05
      -1.96117093e-04 -1.45013037e-04 -3.10958305e-04 2.63786774e-07
      4.98821428e-05 -9.57225857e-05 -1.05253821e-04 3.03833094e-05
      -1.88887934e-05 -1.71835956e-04 1.06267114e-04 2.46991520e-04
      -5.02024835e-04 1.42325778e-04 3.86465254e-04 -5.02499985e-04
      -3.58774887e-05 3.59618862e-04 -1.62054603e-05 -2.19493381e-06
      -1.05675681e-04 3.67332308e-04 4.08470107e-04 -5.32477337e-04
      -1.39001233e-04 -1.22757527e-04 -5.60889457e-05 1.19595752e-04
      1.39482450e-04 -1.62899320e-04 -2.43204457e-04 -2.00455775e-04
      3.99964891e-04 1.65483052e-05 1.22530100e-05 4.77183698e-04
      -1.60959444e-05 6.08081518e-06 4.86133358e-04 1.07268192e-04
      1.34087750e-04 3.48783826e-04 1.61725780e-04 8.22475849e-05
      -4.73213440e-05 7.81082854e-05 -1.38538191e-04 -2.19152294e-04
      1.00720448e-04 -1.72437591e-04 -3.86088534e-04 1.09166458e-05
      -3.92011891e-04 -2.51635007e-04 1.16569325e-04 -2.11687046e-04
      1.15908013e-04 4.22474521e-04 2.23130890e-04 -2.40323134e-04
      9.76297015e-05 8.38055566e-05 -3.61275335e-04 8.58629937e-05
      2.41022659e-04 -2.47569464e-04 1.09625253e-04 4.82552947e-04
      -2.86524650e-04 -1.89117403e-04 -2.86364171e-04 6.28373382e-05
      3.29539325e-05 -2.39279849e-04 1.01198733e-04 8.65969705e-05
      9.60046746e-05 2.77005020e-04 3.24012130e-04 1.40044765e-04
      1.80435236e-04 2.94228259e-04 3.87370441e-04 1.82694912e-05
      2.11492370e-04 3.57195560e-04 -1.66439480e-04 -4.99858870e-05
      1.20434845e-04 -3.80095997e-04 -2.65940413e-04 1.49306361e-04
      -8.95061166e-05 -4.04544589e-05 -1.61525357e-04 -9.05982743e-05
      -1.96248831e-04 -1.55426780e-04 8.84696128e-05 -2.09410486e-04
      -2.96580401e-04 3.10083306e-05 -3.03051522e-04 -2.44359340e-04
      2.27523444e-04 -1.85931363e-04 -3.46507113e-06 4.30140615e-04
      1.95791828e-04 -3.06050002e-04 8.62767338e-05 6.13446391e-05
      -3.95498413e-04 3.59069345e-05 2.12499872e-04 -2.68745178e-04
      9.01792373e-05 4.35633934e-04 -3.74807452e-04 -1.22987374e-04
      -1.99778835e-04 3.78096483e-05 -9.48532033e-05 -1.79760420e-04
      7.15061760e-05 5.13511486e-06 -1.50880544e-04 -7.98920064e-06
      -1.69520365e-06 7.31795371e-05 2.28595571e-04 3.70807247e-04
      -4.64351106e-05 -2.10805578e-04 -3.35498880e-05 1.02443933e-04
      -3.10475618e-04 -7.43174314e-05 4.22784418e-04 -2.10635681e-05
      2.09154008e-04 4.49717598e-04 6.69346264e-05 2.24057469e-04
      1.16947718e-04 -1.40743883e-04 -5.99249615e-05 1.95486573e-04
      9.09047885e-05 -7.26726357e-05 -1.75123387e-05 6.79968653e-05
      -1.61294665e-04 -3.02360368e-05 1.60711003e-04 -5.12999868e-05
      1.81901651e-05 3.09553579e-04 2.10030063e-04 -2.82256864e-04
      7.70102706e-05 2.52540223e-04 -5.10852726e-04 -2.93271787e-05
      3.17452796e-04 -3.79901758e-04 -2.05419146e-05 4.66184778e-04
      -3.41336039e-04 -5.57672574e-05 1.10198431e-04 2.94343277e-04
      3.87174987e-05 -1.97839545e-05 1.18528616e-04 -1.76277426e-05
      -2.99234966e-06 2.45690637e-04 2.05253033e-04 8.58270287e-05
      1.96023495e-04 2.58307264e-04 -2.87490955e-04 -2.66266172e-04
      -8.33298618e-05 1.44865946e-04 -3.50258815e-05 1.79918949e-04
      4.09718865e-04 4.89786980e-05 2.87270377e-04 3.38644226e-04
      -1.62393218e-04 -4.09703534e-06 3.45845765e-04 -4.47380662e-05
      2.50694720e-05 3.13756580e-04 2.14810443e-05 -4.43685494e-05
      8.81505039e-05 -6.69512301e-05 -3.03753011e-04 1.19548313e-04
      1.01104713e-04 -1.09828601e-04 5.35505060e-05 1.87292404e-04
      1.83831915e-04 -2.30648744e-04 5.35897452e-05 2.94801168e-04
      -5.92636410e-04 -1.12664646e-04 3.55007651e-04 -4.77142778e-04
      -5.10829414e-05 4.57584712e-04 -3.60403646e-04 -3.29941067e-05
      1.60519965e-04 1.28239815e-04 -3.76088778e-04 3.00214742e-04
      3.51609284e-04 -9.68335007e-05 1.91991949e-05 3.02829110e-04
      7.81713898e-05 -1.33267342e-04 1.63063654e-04 9.31288523e-05
      -2.97728286e-04 -8.34039092e-05 -6.19851344e-05 -4.18036434e-05
      -4.67993668e-05 6.99643424e-05 2.22752977e-04 -2.49510631e-05
      1.58102615e-04 7.71781488e-05 -3.79952922e-04 -2.53724400e-04
      5.94193523e-04 -2.75046768e-05 2.12680206e-05 5.27639815e-04
      2.58023574e-05 -1.27826119e-04 4.06662817e-04 -3.23884706e-05
      -3.00592830e-04 3.47362715e-04 7.53925269e-05 -2.04112905e-04
      6.52774834e-05 1.64013429e-04 4.30044893e-05 -2.77326821e-04
      1.57589911e-05 1.64956451e-04 -6.02690910e-04 -1.07516404e-04
      3.71538510e-04 -6.09304348e-04 -6.87986030e-05 4.96387132e-04
      -4.66262194e-04 -2.70083074e-05 -5.00051356e-05 -1.88874576e-04
      -7.91779952e-04 3.02367844e-04 2.45853560e-04 -3.23659187e-04
      -3.65242922e-05 2.29285681e-04 -1.26840707e-04 -1.62925324e-04
      1.26142637e-04 -4.77099893e-05 -2.42090027e-04 9.88368702e-05
      3.92884067e-05 -1.86174497e-04 1.29472455e-05 1.07663422e-04
      1.69832128e-04 5.13555751e-05 1.96340363e-04 4.34448069e-04
      6.24047098e-05 1.64290686e-04 5.98837971e-04 -1.82503700e-05
      -3.61781858e-05 6.88222819e-04 -4.13080170e-06 -1.68550338e-04
      6.51384238e-04 3.75689415e-05 -3.21632455e-04 5.46128314e-04
      8.53290549e-05 -2.22807983e-04 2.36080436e-04 1.17418240e-04
      -3.15053221e-05 -1.51180473e-04 3.36909325e-05 1.31646171e-04
      -5.48351381e-04 -1.19198266e-05 4.11589426e-04 -6.04952977e-04
      3.49401162e-05 5.48426353e-04 -5.14410727e-04 1.53132642e-05
      5.41540328e-04 2.51879479e-04 -3.99094744e-04 7.05889484e-04
      6.01264532e-04 9.94437141e-05 1.83151351e-04 3.38263402e-04
      -5.39873290e-05 1.50391061e-05 2.90020776e-04 7.32919943e-05
      -6.11342148e-06 3.50402144e-04 2.82149093e-04 -4.00071149e-04
      -1.47897954e-04 -4.12388363e-05 -3.11798882e-04 -1.94897715e-04
      -1.78255486e-05 2.11819406e-05 -2.09133970e-04 -8.60610453e-05
      4.77068214e-04 -8.20968053e-05 -7.86832970e-05 6.13922894e-04
      -1.19919714e-04 -2.97404302e-04 7.49805651e-04 -7.36434013e-05
      -3.73125309e-04 6.69733388e-04 5.57459061e-05 -3.03478068e-04
      3.95204086e-04 1.55638627e-04 -6.73618997e-05 -1.15410141e-04
      -2.30082369e-05 1.50255182e-05 -5.55890962e-04 -1.06251195e-04
      3.21803440e-04 -5.84414927e-04 1.11724999e-04 5.60752000e-04
      -6.78858138e-04 2.45653846e-05 5.42446622e-04 1.96106746e-04
      -2.93950347e-04 7.17029470e-05 -1.77710739e-04 -5.57946099e-04
      -2.10899714e-04 -2.02663403e-04 -5.23292052e-04 2.44917930e-04
      3.89217399e-04 1.89939063e-04 -2.32070859e-04 1.07500171e-04
      9.88447428e-05 -2.97137129e-04 -7.40226369e-06 1.56897324e-04
      1.79641851e-04 3.10845615e-04 5.94428973e-04 6.71420912e-06
      -6.63342144e-05 2.32593462e-04 2.23505733e-04 -1.40345306e-04
      3.94509480e-05 5.12422586e-04 -6.32187366e-05 -1.34704678e-04
      7.80286500e-04 2.71180743e-05 -2.61430308e-04 6.47999055e-04
      -9.02147949e-05 -3.57762503e-04 4.56135924e-04 6.25485991e-05
      -7.08947846e-05 2.94442216e-05 -3.18182574e-05 6.65608968e-05
      -3.23763728e-04 -4.47440470e-05 3.94024741e-04 -4.40985634e-04
      1.07817803e-04 6.24050153e-04 -6.63729501e-04 -3.86737011e-05
      5.39733621e-04 2.16876739e-04 3.07550945e-05 3.71098256e-04
      4.86533172e-05 -7.67869205e-05 2.06478406e-04 -6.25494067e-05
      -1.07384985e-04 5.84923720e-04 4.81519906e-04 6.01112202e-04
      -8.70237272e-05 -2.13064668e-05 1.89681596e-04 -5.43485570e-04
      -4.05223196e-04 -6.59740326e-05 -1.64044832e-04 6.13236407e-05
      5.60088200e-04 -5.31760270e-05 1.20123623e-05 4.26844315e-04
      -3.22606764e-04 -3.53905751e-04 -7.00483506e-05 2.54050130e-04
      -6.12349613e-05 3.17973863e-05 5.13387844e-04 -6.52129966e-05
      -9.43985215e-05 5.92154916e-04 -3.51203817e-05 -1.17148629e-04
      4.29174223e-04 -3.39060061e-05 -2.48253618e-05 1.83813667e-04
      -2.92566601e-05 1.39081021e-04 -2.59071967e-04 -2.26982156e-04
      1.88566904e-04 -9.12866308e-05 1.88631748e-04 7.10581546e-04
      -1.60952943e-04 3.17785685e-04 2.64795875e-04 1.62786055e-05
      8.64678441e-05 7.37092705e-05 -2.42990616e-04 -1.72000509e-04
      6.84082261e-05 -3.00312618e-04 -2.07022313e-04 4.37099836e-04
      1.37264462e-04 3.18596780e-04 6.23014130e-05 5.60161061e-05
      3.29022936e-04 -1.82737698e-04 -9.04522603e-05 2.99736683e-04
      -1.14488459e-04 6.06022368e-05 6.12727075e-04 -3.34616605e-04
      -2.11692197e-04 3.37995501e-04 2.28049284e-05 1.55302187e-05
      4.10266686e-04 2.35201762e-04 1.52073626e-04 4.00939520e-04
      8.85413683e-05 -2.71249533e-04 -2.09833815e-04 2.76532926e-04
      -1.78050803e-04 -1.75742127e-04 2.61685374e-04 -1.71651322e-04
      -9.08679867e-05 6.92206449e-05 -2.58545770e-04 -8.18673361e-05
      -3.03344510e-04 -5.18796674e-04 -1.03624618e-04 -2.99610430e-04
      -3.64099571e-04 2.04467524e-05 -3.38132115e-04 -1.60976968e-04
      -6.93912516e-05 -1.57430244e-04 2.42552724e-05 3.33220960e-04
      1.44279809e-04 2.95817707e-04 3.24157649e-04 1.52424136e-05
      1.31458626e-04 3.03066277e-04 1.75391815e-05 1.63650329e-04
      2.22952207e-04 9.26522916e-05 2.67213327e-04 2.17710040e-05
      4.99127127e-05 2.91248929e-04 -2.58847896e-04 -6.92802132e-05
      3.77523887e-04 -2.94665224e-04 -1.50124339e-04 3.46591842e-04
      -5.30229008e-04 -3.18117498e-04 9.05459019e-05 -1.92243260e-05
      1.72239568e-04 5.19532827e-04 -1.34937829e-04 -2.90755415e-04
      -1.43429672e-04 -1.95659595e-05 -1.33893016e-04 -9.65599684e-05
      4.13330796e-04 2.15284657e-04 2.93486199e-04 9.94694783e-05
      -2.13716470e-04 -9.04339831e-05 4.04885912e-04 -5.18605411e-05
      2.04771204e-04 5.72216988e-04 1.45082406e-04 3.91645037e-04
      3.13645054e-04 1.03003615e-04 -3.59356694e-04 -3.12246237e-04
      -2.75900275e-05 2.46270036e-04 2.57566920e-04 4.31993511e-04
      2.48842058e-04 1.45316408e-05 1.03740102e-04 4.10997221e-04
      1.17724412e-04 1.69353254e-04 3.39155726e-04 1.12112473e-04
      1.64797966e-04 9.62101331e-05 2.48749848e-06 9.27911969e-05
      -3.40299943e-04 -2.37097469e-04 1.54120225e-05 -6.16814126e-04
      -3.86387808e-04 -4.52076310e-05 -4.49113810e-04 -1.33009060e-04
      2.07747289e-04 -2.63768190e-04 -8.80064399e-05 1.74031986e-04
      -2.67396419e-04 -2.87879484e-05 1.12929505e-04 -1.33006935e-04
      -7.96415479e-05 -2.23388161e-05 9.51281181e-05 1.16904885e-05
      2.94962538e-05 5.67066236e-05 -2.60601868e-04 -1.89118538e-04
      3.90274799e-04 -1.87591591e-04 -9.41647886e-05 7.17559597e-04
      8.14164669e-05 8.22778748e-05 5.09992475e-04 2.21666710e-06
      -6.13099604e-04 -2.65042007e-04 -1.39917684e-04 -2.10121871e-04
      -4.79646587e-07 -6.91664445e-06 -2.77546642e-05 -5.21283910e-05
      -9.61180631e-05 1.97048299e-04 -3.14681893e-05 -1.36418923e-04
      2.69731099e-04 4.31168082e-05 -1.41088865e-04 -7.23080075e-06
      -1.78223709e-04 -3.28574213e-04 -3.08333911e-05 -7.33012494e-05
      -1.04632520e-04 -3.06893489e-05 9.79524120e-05 1.85782454e-04
      1.72672699e-05 2.47045828e-04 4.45433310e-04 -5.46016789e-04
      -2.07389574e-04 -6.09538583e-05 -3.29342583e-04 -2.96212966e-05
      6.20592327e-05 3.27286216e-05 1.78447764e-04 2.14131869e-04
      9.87789317e-05 1.01725374e-04 9.27214278e-05 1.50676831e-04
      -9.78399839e-05 -1.25472900e-04 7.00038450e-04 1.39147101e-04
      1.29888052e-04 7.57043483e-04 7.72453423e-05 1.98345806e-05
      2.58021697e-04 -3.61428945e-04 -7.40225252e-04 -2.57244392e-04
      -2.18006709e-04 -3.89727211e-04 -6.53876414e-05 -3.48740359e-05
      1.78789138e-04 2.52243015e-04 1.41435914e-04 3.32490192e-04
      2.16657572e-04 -7.12921537e-05 4.20746976e-04 1.69141713e-04
      -1.67785285e-04 1.86202873e-04 -5.37219275e-05 -3.62279126e-04
      2.16128756e-05 -1.23943566e-04 -2.81528162e-04 3.27193324e-04
      2.95685459e-04 2.33000421e-04 -3.23623070e-04 -2.16555316e-04
      -1.85841127e-04 -4.84050310e-04 -3.02950299e-04 -1.74263230e-04
      -5.38124412e-04 -2.30642268e-04 -1.53966117e-04 -3.66077002e-04
      -8.90971642e-05 -3.87563450e-05 -3.83712395e-05 1.93526284e-04
      1.72955188e-04 6.56903467e-06 6.07094125e-06 -3.15931502e-05
      5.01529605e-04 1.08062050e-04 8.46817566e-05 6.21197280e-04
      1.10663452e-04 1.05902356e-04 7.66976853e-04 3.40316328e-04
      -4.11803514e-04 1.92105244e-06 9.65864820e-05 -4.26668383e-04
      -1.64507728e-04 -1.26612606e-04 -1.15200986e-04 -1.57356713e-04
      -3.00972461e-04 1.53644243e-04 -1.98936377e-05 -3.33103613e-04
      3.46193381e-04 -2.76828705e-05 -4.28923784e-04 5.07960096e-04
      1.45990460e-04 -2.46816286e-04 1.46440609e-04 -1.71731590e-04
      -4.40692762e-04 1.92556938e-04 -1.04538427e-04 -2.36421445e-04
      -9.01877866e-05 -2.58194603e-04 -2.80503154e-04 3.73902556e-04
      3.62248247e-04 4.43971279e-04 -4.44629659e-05 1.82993113e-04
      2.72805541e-04 -2.77467363e-04 7.19519667e-05 1.62537544e-04
      -4.70130821e-04 -3.63084728e-05 3.98435695e-05 -2.64532340e-04
      -1.01776241e-04 -1.47000519e-05 2.63813214e-04 2.60692614e-04
      3.14642966e-04 -9.79551914e-05 -2.51570775e-04 -1.97927598e-04
      -3.62415361e-04 -2.45062634e-04 -5.44706651e-04 -2.69445271e-04
      -2.23712530e-04 -3.13366036e-05 1.78449802e-04 1.71232052e-04
      2.80504144e-04 2.30865655e-04 1.23943973e-04 1.60201234e-04
      -5.97077960e-05 -3.05051857e-04 4.86952864e-04 1.67011895e-04
      -1.86021236e-04 3.43541004e-04 -6.82500904e-05 -3.77312914e-04
      1.33691021e-04 -2.39092537e-04 -4.86627512e-04 3.52879404e-04
      2.79652977e-05 -1.97029163e-04 3.22631851e-04 6.73656177e-05
      4.24640748e-05 1.14919960e-04 -3.40181487e-07 1.08820044e-04
      -2.65977869e-04 -1.50798442e-04 -7.68430764e-05 -1.94846463e-04
      6.99031007e-05 1.29137406e-04 -2.75674654e-04 1.09942346e-04
      1.42129691e-04 -4.29799547e-04 -8.60196888e-05 1.06274629e-05
      -1.58686278e-04 7.03333935e-05 1.67974315e-04 -1.22141471e-04
      7.09690867e-05 1.42454563e-04 -1.31199786e-05 2.60770408e-04
      -2.68973847e-04 -9.35734133e-05 -1.08677181e-04 -5.68588293e-05
      -1.00017860e-05 -3.58223383e-06 1.36648421e-04 8.90964584e-05
      -9.77645868e-06 1.75862820e-04 5.46300216e-05 -9.18402657e-05
      1.59525895e-04 -6.63220053e-05 -2.87207164e-04 1.98132548e-04
      -5.55225561e-05 -2.26817458e-04 1.24052851e-04 -6.56439079e-05
      -2.05431264e-04 4.59786606e-05 -1.21108133e-04 -1.85235345e-04
      2.77729443e-04 1.28893196e-04 9.93736248e-05 1.54930836e-04
      5.41318987e-05 7.14788694e-05 -9.15865021e-05 -1.26141094e-04
      -1.60823023e-04 -2.42943002e-04 -2.33186060e-04 -2.83190719e-04
      3.96185569e-05 1.22261918e-04 7.95849483e-05 -6.44608299e-05
      1.21102690e-04 8.76650302e-05 -8.07682518e-05 8.32892110e-05
      1.12652306e-04 2.59256543e-04 4.06074774e-04 5.29173703e-04
      -2.83150992e-04 -7.74570653e-05 -1.69081177e-04 -1.17226293e-04
      -1.15153962e-04 -1.31382360e-04 -1.15329443e-04 -1.33946320e-04
      3.24214197e-05 -3.28096321e-05 -1.02978214e-04 1.12452188e-04
      -5.66265444e-05 -1.29698630e-04 -3.88325825e-05 -1.65432488e-04
      -2.89836607e-04 -3.99094897e-05 -1.38569536e-04 -2.77236570e-04
      6.25309985e-05 -5.30516845e-05 -1.67880949e-04 1.65529098e-04
      1.06340041e-04 1.82559797e-05 -9.25544464e-06 -1.32796995e-04
      -1.39313022e-04 -9.60961333e-05 -2.16502303e-04 -2.42563838e-04
      8.41951914e-05 -5.48713761e-05 -8.24870876e-05 1.01293022e-04
      6.82677683e-06 -7.63960998e-05 1.07859079e-04 5.81695531e-05
      8.63598962e-06 -4.66036981e-05 8.75587284e-06 -5.67099014e-05
      -1.21130361e-04 1.92234784e-05 6.63555693e-05 -5.44672475e-05
      1.44956983e-04 2.17962457e-04 -8.01262831e-06 1.03735925e-04</_></support_vectors>
  <decision_functions>
    <_>
      <sv_count>1</sv_count>
      <rho>-9.9003748379448986e-01</rho>
      <alpha>
        1.</alpha>
      <index>
        0</index></_></decision_functions></my_svm>
</opencv_storage>
