<?xml version="1.0"?>
<opencv_storage>
<my_svm type_id="opencv-ml-svm">
  <svm_type>C_SVC</svm_type>
  <kernel><type>LINEAR</type></kernel>
  <C>100.</C>
  <term_criteria><epsilon>2.2204460492503131e-16</epsilon>
    <iterations>1000</iterations></term_criteria>
  <var_all>2500</var_all>
  <var_count>2500</var_count>
  <class_count>7</class_count>
  <class_labels type_id="opencv-matrix">
    <rows>1</rows>
    <cols>7</cols>
    <dt>i</dt>
    <data>
      1 2 3 4 5 6 7</data></class_labels>
  <sv_total>21</sv_total>
  <support_vectors>
    <_>
      -8.74683437e-08 -1.52599750e-06 -8.01520309e-06 1.32950190e-05
      1.07314745e-05 5.74036176e-06 -7.92108131e-06 -1.12778098e-05
      -1.36157059e-05 -1.32177775e-05 -1.76948997e-05 -1.85871922e-05
      -1.14156037e-05 -1.24543058e-05 -1.35149776e-05 -1.60083928e-05
      -1.80044117e-05 -1.70173553e-05 -7.01344425e-06 -8.80713833e-06
      -6.66629558e-06 1.21068333e-05 1.35449209e-05 1.49714406e-05
      -2.76767054e-08 5.46397678e-06 7.19870286e-06 -3.15619582e-06
      3.73820058e-06 4.63141851e-06 2.53066974e-05 3.49179936e-05
      3.17048107e-05 7.07214576e-06 1.82396816e-05 1.47392129e-05
      -1.16773390e-05 1.27934902e-06 -3.13118062e-06 -1.42067256e-05
      -7.18612341e-07 -5.41055942e-06 5.90058744e-06 1.91631916e-05
      1.56160713e-05 7.41312715e-06 1.54797635e-05 1.51281129e-05
      2.64310142e-06 1.34477648e-06 6.45451428e-06 7.18717320e-06
      7.77696073e-07 8.96510483e-06 9.25633685e-06 3.92275888e-06
      2.99621524e-06 2.80455242e-06 -2.36964365e-06 -2.91133279e-06
      -3.60557215e-06 -6.37654784e-06 -8.26798157e-07 -3.21971220e-06
      -4.47498132e-06 3.31631600e-06 1.87401247e-06 1.26807174e-06
      -3.43148508e-06 -5.30490115e-06 -3.31149340e-06 3.14685803e-06
      5.44131581e-06 5.95856091e-06 -7.24510119e-06 -3.58010857e-06
      -2.35993775e-06 8.90045612e-06 1.50868600e-05 1.40318716e-05
      4.10865459e-06 1.24502376e-05 9.93416415e-06 -1.26622645e-05
      -3.58657439e-06 -6.52947438e-06 -3.36183530e-06 5.93645154e-06
      2.62252161e-06 2.58687351e-06 1.47712881e-05 1.13228434e-05
      -1.17245008e-05 -2.93133166e-06 -5.94325365e-06 -1.59705050e-05
      -1.17535974e-05 -1.00940715e-05 -1.12035505e-05 -1.53677029e-05
      1.11297049e-05 1.52730536e-05 6.58392992e-06 -8.16873398e-06
      -4.36831078e-06 -1.06550024e-05 1.61070675e-05 2.05600827e-05
      1.42741446e-05 -1.07066799e-05 -7.82874213e-06 -1.35532937e-05
      1.58592738e-05 1.58236980e-05 1.31744200e-05 5.70683005e-06
      6.92367348e-06 5.14536941e-06 8.81010692e-06 1.07079786e-05
      8.51794539e-06 6.07621905e-06 8.19441902e-06 7.68776408e-06
      -2.11313509e-05 -1.79169074e-05 -1.84674391e-05 -3.85399062e-06
      -1.33752167e-06 -2.06310301e-06 1.09837792e-05 1.62244287e-05
      1.28123647e-05 3.32502213e-06 9.73496208e-06 7.31577484e-06
      -1.69061805e-05 -1.05412437e-05 -1.42618765e-05 -1.49858215e-05
      -8.33027298e-06 -1.09766097e-05 2.11774341e-06 6.78509241e-06
      3.65530036e-06 -6.63098490e-06 -7.21189599e-06 -8.44446276e-06
      -1.10667888e-05 -1.87542391e-05 9.08060520e-06 1.83781285e-05
      8.88088380e-06 -9.78449316e-06 -3.31373303e-06 -1.12782036e-05
      -1.99604001e-05 -1.27886606e-05 -1.98642974e-05 -2.96321850e-05
      -2.48567667e-05 -3.14289464e-05 4.52802487e-06 8.12090002e-06
      3.92442143e-06 -1.84220335e-06 2.48867821e-07 -2.39963788e-06
      -4.67225345e-06 -2.44084504e-06 -5.72206045e-06 2.52684754e-06
      3.41411851e-06 1.60419609e-06 -2.16991211e-05 -2.06887507e-05
      -2.13809690e-05 -2.26184802e-05 -2.11716688e-05 -2.17673678e-05
      -4.14872966e-06 -3.76200433e-06 -4.22550102e-06 1.13402336e-06
      1.88968954e-06 1.37769305e-07 -1.61550579e-05 -1.45553577e-05
      -1.72897817e-05 -2.71883400e-05 -2.77549079e-05 -2.82246492e-05
      -2.38066405e-05 -2.43899594e-05 -2.53142080e-05 -1.20906889e-05
      -1.62402393e-05 -1.66650279e-05 -1.64712378e-06 -9.31355498e-06
      -1.90877618e-05 -7.65949062e-06 -1.75373279e-05 -2.23405495e-05
      -1.16665105e-05 -2.19670455e-05 -1.75449222e-05 -9.28709051e-06
      -1.54773879e-05 -1.74755987e-05 -1.11352720e-05 -1.83905067e-05
      -3.88463650e-06 1.70441479e-06 -1.98245129e-06 -1.71457486e-05
      -1.31350189e-05 -1.69991017e-05 -6.44485362e-06 -3.12191128e-06
      -7.70854786e-06 -2.34052635e-07 8.57923908e-07 -8.08720472e-07
      -2.71261561e-05 -2.81995908e-05 -2.83743520e-05 -1.38439555e-05
      -1.43230982e-05 -1.42913377e-05 5.70647853e-06 2.16030730e-06
      4.38648931e-06 -4.06044273e-06 -7.05751427e-06 -5.47977970e-06
      -4.05176434e-06 -7.78738922e-06 -6.69016663e-06 -1.69670136e-06
      -7.48247430e-06 -4.75422848e-06 9.36036213e-06 2.68370127e-06
      5.10700465e-06 -2.18267155e-06 -9.76692900e-06 -8.50972265e-06
      -2.84102475e-06 -9.68089171e-06 -1.61180760e-05 -2.46288732e-06
      -1.14321329e-05 -2.65717827e-05 -1.59017964e-05 -2.31598824e-05
      -1.24618127e-05 -4.14953411e-06 -9.66943207e-06 1.26027780e-05
      2.10446779e-05 1.60333493e-05 7.49780565e-06 1.38151681e-05
      9.92872629e-06 -4.74118133e-06 -3.20019467e-07 -3.96914356e-06
      -1.19333508e-05 -1.00603065e-05 -1.27050735e-05 -1.33204449e-05
      -1.31133811e-05 -1.56168262e-05 -1.05832596e-05 -1.34362772e-05
      -1.37493116e-05 -1.77406073e-05 -2.11580209e-05 -2.01951898e-05
      -4.15258000e-06 -1.13410770e-05 -8.17179716e-06 8.42695681e-06
      8.22872096e-07 5.07050891e-06 2.16927056e-05 1.29888167e-05
      1.68532060e-05 3.94699327e-06 -6.86273779e-06 -2.74230661e-06
      -9.20302682e-06 -2.01850544e-05 -1.51502754e-05 -6.38563688e-06
      -1.57991035e-05 -1.32930636e-05 -7.90330705e-06 -1.15241455e-05
      -1.69016330e-05 -6.53162715e-06 -1.31356446e-05 -8.31930720e-06
      1.60591037e-06 -3.57096974e-06 7.07492973e-07 8.67763538e-06
      4.96186476e-06 7.20183516e-06 1.56846581e-05 1.08916147e-05
      9.89086220e-06 1.72009204e-05 1.33647327e-05 -1.27002231e-05
      -8.23489790e-06 -1.10658029e-05 -1.09824659e-05 -1.03544398e-05
      -1.14737359e-05 -1.54965837e-05 -1.88396934e-05 -1.85519912e-05
      -1.73118187e-05 -2.20477887e-05 -2.00218619e-05 -5.41457393e-06
      -1.12564139e-05 -9.54045572e-06 2.15373275e-05 1.38169698e-05
      1.69928080e-05 2.26104657e-05 1.39158537e-05 1.85167646e-05
      -1.39520398e-06 -1.33009626e-05 -7.91489583e-06 -1.94948043e-05
      -3.09258576e-05 -2.40249046e-05 -1.91306208e-06 -1.22834508e-05
      -5.70679504e-06 -8.72844794e-07 -7.74120326e-06 -2.46722971e-06
      3.36420794e-06 2.11110819e-06 -1.63345594e-05 -7.39986172e-06
      -1.20024215e-05 1.36919434e-05 2.27231867e-05 1.86523921e-05
      7.73794181e-06 1.37849211e-05 1.14894283e-05 1.28150768e-05
      1.80730876e-05 1.61919197e-05 -6.92492040e-06 -1.93656433e-06
      -3.74333672e-06 -7.75182252e-06 -5.48738581e-06 -4.79666096e-06
      6.42256850e-07 -1.66235498e-06 2.67130559e-07 -1.59064166e-05
      -2.02733700e-05 -1.79415365e-05 -1.28150250e-05 -1.80691623e-05
      -1.77403708e-05 7.99912959e-06 1.81689768e-06 4.11880910e-06
      1.71198462e-05 7.14994076e-06 1.08608383e-05 -1.15649789e-06
      -1.13110500e-05 -5.71899591e-06 -3.73107650e-06 -1.34404636e-05
      -9.36504784e-06 1.67746714e-06 -7.36713491e-06 -2.16791932e-06
      4.70828991e-06 -4.46170270e-06 1.99470196e-06 7.95492178e-06
      2.29988314e-06 5.47670015e-06 -8.24623100e-07 -7.45405714e-07
      -1.50830228e-05 -9.97091411e-06 -1.27351159e-05 5.45652028e-07
      4.94698179e-06 2.71499971e-06 1.76592894e-05 2.31121303e-05
      2.17931793e-05 1.43324187e-05 1.90892461e-05 1.72998771e-05
      1.75802652e-05 2.17479883e-05 2.01289586e-05 2.59773287e-06
      3.10165774e-06 2.45845945e-06 -1.05617628e-05 -1.44038577e-05
      -1.33314161e-05 2.07793710e-06 -1.86208922e-06 -1.96096835e-06
      1.97405552e-05 1.28803331e-05 1.56510196e-05 1.53196634e-05
      8.23565824e-06 1.17479103e-05 1.49056643e-06 -5.96981772e-06
      -4.25219287e-06 5.30756915e-06 -3.54332428e-06 9.72969588e-07
      7.20892695e-06 -4.16415816e-07 4.33513742e-06 9.85945007e-06
      3.15354532e-06 7.70371753e-06 5.90315722e-07 -3.49817083e-06
      1.34339894e-06 2.11063298e-06 -1.05071685e-07 1.80430288e-06
      1.35529854e-06 1.47084495e-06 5.91923754e-06 1.06091957e-05
      1.09102766e-05 2.57713364e-05 2.79347096e-05 2.68437216e-05
      2.76678784e-05 2.95763657e-05 2.85250626e-05 2.22376621e-05
      2.27530290e-05 2.27217497e-05 2.68240638e-05 2.79511532e-05
      2.91378401e-05 2.67663472e-05 2.75996117e-05 2.50741123e-05
      2.57500524e-05 2.38594166e-05 2.50559660e-05 2.47289772e-05
      2.07483354e-05 2.28627650e-05 1.86766138e-05 1.09671801e-05
      1.43666412e-05 1.17298760e-05 3.24555663e-06 6.56059592e-06
      6.00267776e-06 -1.17295292e-06 1.30161732e-06 8.67590552e-06
      8.99391239e-07 3.12450356e-06 1.00612697e-05 5.04027184e-06
      7.67308302e-06 9.19495687e-06 6.18670674e-06 7.87764657e-06
      3.50895061e-06 1.26106761e-06 2.71000476e-06 3.07369464e-06
      -4.03381762e-07 1.50477433e-06 3.97321901e-06 2.25896770e-06
      1.01754731e-05 1.11938871e-05 1.10674755e-05 2.97748284e-05
      3.12391785e-05 2.97459210e-05 2.42309634e-05 2.43072409e-05
      2.38495577e-05 1.94578242e-05 2.01475050e-05 2.05473989e-05
      3.14510507e-05 3.06463480e-05 3.29425020e-05 3.52330499e-05
      3.23161366e-05 2.96444887e-05 3.47425412e-05 3.22531014e-05
      3.40846163e-05 3.14400495e-05 2.40526388e-05 2.57285792e-05
      2.02037972e-05 1.33216563e-05 1.54373192e-05 1.35441614e-05
      5.23025074e-06 7.89531077e-06 1.59947613e-05 7.08051948e-06
      1.04281189e-05 1.41324454e-05 8.15888961e-06 8.90837146e-06
      1.04053197e-05 6.10918414e-06 6.97263067e-06 8.70706208e-06
      4.55797135e-06 5.31977776e-06 9.11399457e-06 5.75119702e-06
      4.97710562e-06 7.07877689e-06 4.79044411e-06 2.24670816e-06
      9.08527909e-06 1.98031489e-06 9.34037530e-07 1.86374086e-06
      3.56955616e-06 2.06397162e-05 2.09570862e-05 2.08343590e-05
      2.49192472e-05 2.43726445e-05 2.55210562e-05 1.70783569e-05
      1.95607281e-05 1.90604787e-05 2.44143394e-05 2.43051927e-05
      2.57347092e-05 2.10541293e-05 1.88199992e-05 2.12772829e-05
      1.65168931e-05 1.20275990e-05 1.46852426e-05 2.68933145e-05
      1.99827100e-05 2.38528573e-05 1.68649276e-05 7.63698881e-06
      1.23558684e-05 1.25948345e-05 4.65648873e-06 5.56596524e-06
      1.81669111e-05 9.48487741e-06 1.07209908e-05 1.60913460e-05
      8.44113038e-06 8.00285216e-06 8.39943732e-06 2.47164212e-06
      4.25200881e-07 3.44349678e-06 -1.78565995e-06 -4.40402664e-06
      7.44155523e-06 2.80936297e-06 -2.08113192e-06 1.38880205e-05
      6.31224430e-06 1.24302676e-06 1.58381190e-05 1.03506750e-06
      4.73280352e-06 7.98742167e-06 9.51512993e-06 2.21360642e-06
      5.15496822e-06 5.52509619e-06 1.68065453e-05 1.81109590e-05
      1.86818834e-05 7.03080832e-06 8.09125413e-06 8.94627647e-06
      2.23648822e-05 2.22075960e-05 2.49835302e-05 8.35174887e-06
      5.63684443e-06 1.07446567e-05 4.20517381e-06 -1.66554639e-06
      3.65471647e-06 1.82913318e-05 1.11075369e-05 1.61649095e-05
      1.00867692e-05 8.37105006e-07 6.49310959e-06 8.77266484e-06
      -1.98310977e-06 9.97192956e-07 9.75241528e-06 -9.90537501e-07
      -5.69518306e-07 1.66443242e-05 5.96212794e-06 5.20221238e-06
      1.62442520e-05 4.38181769e-06 1.61330047e-06 1.10295341e-05
      -9.85387150e-09 -4.50987591e-06 1.13616015e-05 1.26267889e-06
      -5.87263003e-06 1.72424425e-05 2.13630983e-06 -5.78672234e-06
      1.83590528e-05 -6.40719600e-06 -4.06221807e-06 3.73857546e-07
      2.05178026e-06 2.89545142e-06 7.83341875e-06 9.94760921e-06
      -5.90959553e-06 -8.74742170e-07 1.17477532e-06 -4.08613096e-06
      -1.43481270e-06 2.56815883e-06 1.20201921e-05 1.14998720e-05
      1.62169326e-05 -1.72331397e-06 -2.58137652e-06 2.69167049e-06
      -1.94559516e-06 -7.58615352e-06 1.80177402e-08 1.95651482e-05
      1.01423720e-05 1.79683666e-05 1.57107042e-05 6.84617180e-06
      1.15531411e-05 1.25026263e-05 1.55202940e-06 5.68739370e-06
      6.35996184e-06 -6.61675040e-06 -4.97841438e-06 1.48897316e-05
      -1.02135694e-07 -1.16206902e-08 1.95889133e-05 5.25394898e-06
      2.29463876e-06 2.32486545e-05 5.10094424e-06 -6.06009820e-08
      1.81035284e-05 1.46578273e-07 -8.62822162e-06 1.36343479e-05
      -9.33751926e-06 -1.83063348e-05 -4.36025448e-06 -3.53954383e-05
      -3.96112364e-06 5.17165927e-06 4.64863615e-06 9.42171118e-06
      1.60294276e-05 1.82253207e-05 -2.16946282e-05 -1.45941731e-05
      -1.38496953e-05 -4.43149474e-06 5.99760952e-09 3.88126909e-06
      5.43815031e-06 6.11891483e-06 1.07751412e-05 -8.43225166e-07
      -9.76960109e-07 4.91295850e-06 4.93171683e-06 2.20060912e-07
      6.99943894e-06 1.51211598e-05 8.23988557e-06 1.53851506e-05
      1.62907181e-05 6.47877732e-06 1.29320924e-05 1.63658060e-05
      3.21502944e-06 1.02459062e-05 1.32425221e-05 -2.13000612e-06
      1.21939058e-06 1.32600271e-05 -5.70223801e-06 -3.51026824e-06
      1.63913919e-05 -4.60156252e-06 -6.41700899e-06 1.65572783e-05
      -8.53579786e-06 -1.27346993e-05 1.82812437e-06 -2.32651564e-05
      -3.08373637e-05 -1.22432548e-05 -4.27291598e-05 -5.05569296e-05
      -3.34759461e-05 -7.19500968e-05 6.27410918e-06 1.38019550e-05
      1.60667769e-05 3.55848761e-06 1.12285943e-05 1.44278492e-05
      -2.17128900e-06 1.59321894e-06 6.89000080e-06 -1.29268903e-06
      4.51314747e-07 7.72826934e-06 5.69422127e-06 6.69280416e-06
      1.36841691e-05 2.96893973e-06 2.54770885e-06 9.44032126e-06
      1.29002938e-05 7.03589194e-06 1.45768299e-05 1.41082819e-05
      5.12962561e-06 1.20081031e-05 8.07534161e-06 -4.47388948e-06
      1.38928965e-06 1.61994503e-05 1.18272062e-07 3.73037301e-06
      2.44785351e-05 3.46637034e-06 2.95989867e-06 2.29218404e-05
      -3.81125074e-06 -7.50036270e-06 1.68787901e-05 -1.34150305e-05
      -1.99492897e-05 6.66394999e-06 -2.63859329e-05 -3.65027699e-05
      -1.50989781e-05 -5.14100138e-05 -6.31223884e-05 -3.63928702e-05
      -7.57445814e-05 -8.90845549e-05 -4.65312805e-05 -8.97453065e-05
      4.22317389e-05 4.29678475e-05 4.85192904e-05 1.68388578e-05
      1.75029327e-05 2.31914346e-05 2.74806152e-05 2.84310972e-05
      3.44053187e-05 1.04466335e-05 1.21317426e-05 1.98488851e-05
      -6.67249697e-06 -4.92675190e-06 2.34340268e-06 2.82841233e-06
      2.34619529e-06 9.67519100e-06 2.31105369e-05 1.72688979e-05
      2.44986040e-05 1.26102614e-05 2.53374765e-06 7.80151368e-06
      1.50800188e-05 -2.35859648e-06 1.88154949e-08 2.07266585e-05
      -2.89028412e-06 -5.80106780e-06 2.84728903e-05 -4.28867315e-06
      -1.15844014e-05 2.59578064e-05 -1.52385701e-05 -2.86411305e-05
      9.76943375e-06 -3.75140553e-05 -5.65276496e-05 -1.26064760e-05
      -6.13024458e-05 -8.40285211e-05 -3.15488905e-05 -8.01343122e-05
      -1.03653154e-04 -4.29751672e-05 -9.23325788e-05 -1.17214156e-04
      -6.47493216e-05 -1.12295143e-04 2.44576859e-05 2.44309176e-05
      2.95100763e-05 1.12201233e-05 1.16906231e-05 1.64855956e-05
      4.50517655e-06 3.19808396e-06 1.01299620e-05 3.16128057e-06
      2.43050908e-06 1.07279029e-05 5.99621490e-06 5.85189309e-06
      1.42426234e-05 7.95034248e-06 3.34135507e-06 1.19325159e-05
      1.22492820e-05 5.20513686e-06 1.08792228e-05 1.04899354e-05
      -3.34161405e-06 -9.58551254e-07 1.42292074e-05 -6.74988814e-06
      -6.50565244e-06 2.30033947e-05 -8.99848601e-06 -1.40894881e-05
      2.18553105e-05 -1.96133024e-05 -3.26411573e-05 6.12555914e-06
      -4.29539396e-05 -6.32481460e-05 -1.37597053e-05 -6.91659006e-05
      -9.51203183e-05 -2.97889019e-05 -8.48523487e-05 -1.13977650e-04
      -4.43179742e-05 -9.86251398e-05 -1.29322085e-04 -6.16186881e-05
      -1.12616668e-04 -1.44567864e-04 -6.98418953e-05 -1.16674215e-04
      -1.09887551e-05 -9.42804763e-06 -2.78702532e-06 3.36375524e-06
      6.54358610e-06 1.39694966e-05 4.28236262e-07 9.10328424e-07
      9.56338317e-06 -2.70954979e-06 -2.70426176e-06 4.35947413e-06
      6.19766433e-06 3.10010932e-06 1.15078292e-05 6.39630662e-06
      1.05638992e-06 7.84497024e-06 1.06025691e-05 -1.89738080e-06
      2.75914726e-06 6.00649309e-06 -1.25756624e-05 -1.13544120e-05
      6.79533605e-06 -2.06802015e-05 -2.32508864e-05 4.33589412e-06
      -3.29380418e-05 -4.11628280e-05 -9.09975824e-06 -5.34261126e-05
      -6.96228672e-05 -2.67805881e-05 -8.05638265e-05 -1.02535814e-04
      -4.13755515e-05 -9.73817660e-05 -1.24750703e-04 -4.96404682e-05
      -1.05327657e-04 -1.36430943e-04 -6.54609976e-05 -1.19600751e-04
      -1.52443550e-04 -8.33286831e-05 -1.33590162e-04 -1.65907302e-04
      -7.88908947e-05 -1.20535355e-04 -5.17800481e-06 -1.74109672e-07
      6.04534989e-06 9.83578229e-06 1.34007023e-05 2.21436076e-05
      5.46982301e-06 9.36420111e-06 1.71286047e-05 5.91346407e-06
      4.48646097e-06 1.40947141e-05 1.56973729e-05 1.08426430e-05
      1.77467537e-05 8.50816195e-06 -4.17393977e-07 5.14915200e-06
      4.91495757e-06 -1.07107890e-05 -8.03327202e-06 -6.82339032e-06
      -3.12598640e-05 -3.16733895e-05 -9.17831949e-06 -4.29233660e-05
      -4.93773405e-05 -2.50361845e-05 -6.63412065e-05 -7.78010653e-05
      -4.47289131e-05 -9.44745188e-05 -1.14069408e-04 -5.97532890e-05
      -1.14763759e-04 -1.40202581e-04 -6.15278623e-05 -1.19344884e-04
      -1.48616251e-04 -6.60280275e-05 -1.22360638e-04 -1.54792113e-04
      -6.90393354e-05 -1.21559700e-04 -1.54777226e-04 -6.63269384e-05
      -1.12143978e-04 -1.42292949e-04 -5.10655409e-05 -9.09427108e-05
      -6.09798417e-06 -6.14740614e-08 7.33929255e-06 1.66864211e-05
      1.96093333e-05 2.91214037e-05 5.44463683e-06 1.00571069e-05
      1.72022683e-05 1.04593992e-05 1.01522237e-05 1.79555009e-05
      2.03872351e-05 1.53769815e-05 2.02963311e-05 1.12758889e-05
      -3.97334645e-07 4.83571648e-06 -4.26810084e-06 -2.47106564e-05
      -2.20640486e-05 -3.17880804e-05 -6.06716276e-05 -6.32427036e-05
      -4.80180533e-05 -8.75761398e-05 -9.53641575e-05 -5.80123487e-05
      -1.04155952e-04 -1.18834781e-04 -6.34891039e-05 -1.17416566e-04
      -1.39271724e-04 -6.54111791e-05 -1.23538965e-04 -1.51063548e-04
      -6.49038047e-05 -1.23143865e-04 -1.54873327e-04 -7.23836129e-05
      -1.27796142e-04 -1.62523822e-04 -6.01191387e-05 -1.12381822e-04
      -1.45286700e-04 -3.22698543e-05 -7.63705975e-05 -1.05774379e-04
      -1.43180523e-05 -4.93648004e-05 -2.04895405e-05 -1.30107273e-05
      -3.42909561e-06 1.20301720e-05 1.88962895e-05 2.74744707e-05
      8.28477641e-06 1.34202073e-05 2.07744215e-05 1.41596884e-05
      1.30235831e-05 2.06772002e-05 1.59525971e-05 9.73960232e-06
      1.70984749e-05 1.73878561e-06 -1.04945029e-05 -6.87445709e-06
      -1.53648452e-05 -3.60828017e-05 -3.59764927e-05 -5.06508914e-05
      -8.00952184e-05 -8.40508656e-05 -6.63965548e-05 -1.07484448e-04
      -1.18317730e-04 -7.18706724e-05 -1.21379075e-04 -1.37307114e-04
      -6.99327575e-05 -1.23356935e-04 -1.48954408e-04 -6.40994695e-05
      -1.21793280e-04 -1.51504675e-04 -6.09264789e-05 -1.17451083e-04
      -1.52107343e-04 -6.07238362e-05 -1.11985406e-04 -1.48099367e-04
      -3.86024803e-05 -8.39541099e-05 -1.16954201e-04 -5.09239453e-06
      -4.40751865e-05 -7.21453616e-05 -9.68685526e-07 -3.18417224e-05
      3.30753323e-06 1.09084122e-05 2.33783248e-05 1.48892095e-05
      2.30952191e-05 3.36709381e-05 6.33696436e-06 1.25618717e-05
      2.24962878e-05 1.30420985e-05 1.22995089e-05 2.10867638e-05
      1.22694446e-05 7.73321517e-06 1.40085176e-05 -2.71849012e-06
      -1.46871398e-05 -1.14259010e-05 -1.38660234e-05 -3.31105730e-05
      -3.39474136e-05 -3.48991525e-05 -6.35985416e-05 -6.83496692e-05
      -3.59068181e-05 -7.70371189e-05 -8.95689154e-05 -4.78220172e-05
      -9.69516332e-05 -1.15247742e-04 -6.07691618e-05 -1.13760791e-04
      -1.40435281e-04 -7.13596382e-05 -1.26807747e-04 -1.57484246e-04
      -6.88883811e-05 -1.22596699e-04 -1.55987917e-04 -4.51127780e-05
      -9.23207554e-05 -1.25739083e-04 -8.53080110e-06 -4.88554724e-05
      -7.96152599e-05 1.16688143e-05 -1.94563308e-05 -4.61403761e-05
      1.55964863e-05 -7.88623129e-06 6.46799208e-06 1.63816403e-05
      2.90110511e-05 7.76953584e-06 1.59935043e-05 2.93647390e-05
      -1.75727777e-07 5.34039145e-06 1.73594908e-05 1.33870526e-05
      1.60423278e-05 2.64049231e-05 1.60386171e-05 1.23746458e-05
      1.85700937e-05 -2.99219778e-06 -1.26854575e-05 -9.07844151e-06
      -7.28953273e-06 -2.58867622e-05 -2.76467072e-05 -6.79539198e-06
      -3.28520109e-05 -3.89492379e-05 -1.52262046e-05 -5.01546274e-05
      -6.38437778e-05 -2.47168919e-05 -6.91322493e-05 -8.78287028e-05
      -3.95501775e-05 -8.97951322e-05 -1.15952949e-04 -6.19257771e-05
      -1.13960501e-04 -1.43370504e-04 -6.74968469e-05 -1.13526206e-04
      -1.44066536e-04 -3.47164641e-05 -7.54560897e-05 -1.06268126e-04
      -2.61250534e-06 -3.44268446e-05 -6.22014559e-05 1.00976069e-06
      -2.20032798e-05 -4.41766060e-05 7.29890371e-06 -6.27292184e-06
      8.93023935e-06 1.76883568e-05 3.17137637e-05 -8.52028734e-06
      8.41706537e-07 1.46514712e-05 -1.28875708e-05 -6.48593505e-06
      5.72484896e-06 1.25876577e-05 1.59118663e-05 2.53292546e-05
      1.57497143e-05 1.53043420e-05 2.19863105e-05 9.99677241e-07
      -4.30776799e-06 -1.35547316e-06 8.84309429e-06 -5.85658154e-06
      -6.91120704e-06 2.20821221e-06 -1.94486984e-05 -2.54828446e-05
      4.70149598e-06 -2.48750584e-05 -3.71460519e-05 -3.07796881e-06
      -4.13916569e-05 -5.81925451e-05 -1.40979464e-05 -5.78688559e-05
      -8.17985201e-05 -3.20371364e-05 -7.62892741e-05 -1.04338797e-04
      -4.36959635e-05 -8.09456615e-05 -1.07902284e-04 -3.25176879e-05
      -6.47880515e-05 -9.02344182e-05 -1.36386561e-05 -3.57811150e-05
      -5.65472583e-05 -3.68300198e-06 -1.68660081e-05 -3.25564106e-05
      4.94494088e-06 -8.47204944e-07 2.71017916e-06 1.28643387e-05
      2.54595852e-05 -1.63761626e-06 6.07604352e-06 1.97768568e-05
      -1.46462189e-05 -8.07541892e-06 4.19629805e-06 9.00543000e-06
      1.43900297e-05 2.34759245e-05 9.42946554e-06 1.18506987e-05
      1.92014941e-05 2.44398507e-07 -1.61977653e-06 2.25292388e-06
      1.09851671e-05 3.57553199e-06 3.42598082e-06 1.13374354e-05
      -3.94061408e-06 -9.07705453e-06 1.10152350e-05 -1.22710026e-05
      -2.13340754e-05 6.22223615e-06 -2.25538952e-05 -3.83303159e-05
      -1.48905156e-06 -3.71385540e-05 -5.65210757e-05 -8.60483760e-06
      -4.20350734e-05 -6.37233316e-05 -1.19464248e-05 -4.17753581e-05
      -6.39705686e-05 -4.49823801e-06 -2.37859167e-05 -4.47904858e-05
      -8.44025726e-06 -1.59178271e-05 -3.27455673e-05 -1.16359333e-05
      -1.26196910e-05 -2.39617329e-05 -9.36626475e-06 -3.81324412e-06
      8.72030682e-07 8.87762417e-06 2.17563065e-05 6.36703987e-07
      7.95476899e-06 2.27507571e-05 -1.80186198e-05 -1.12076714e-05
      2.13963995e-06 4.11388874e-06 1.23443951e-05 2.23902189e-05
      7.19806349e-06 1.19026199e-05 2.05778106e-05 -3.28592364e-06
      -3.42280174e-07 3.52152483e-06 6.26114161e-06 5.48909293e-06
      4.95677295e-06 1.11240215e-05 3.26021268e-06 -6.79844504e-07
      1.48141107e-05 1.15562807e-06 -5.98826682e-06 1.92680418e-05
      -1.02291131e-06 -1.21716030e-05 1.13378737e-05 -1.55612488e-05
      -2.99224575e-05 9.27008477e-06 -1.44538471e-05 -3.09406169e-05
      1.08077529e-05 -7.24690881e-06 -2.24243140e-05 3.05364665e-05
      2.17938905e-05 9.77721265e-06 1.01436117e-05 1.41502569e-05
      7.05335106e-06 -6.25820030e-06 5.11587405e-06 4.50167988e-07
      -1.98887647e-05 -2.60263505e-06 -5.44365412e-06 2.82518795e-06
      1.50034639e-05 -7.53940230e-06 1.43490229e-06 1.44201294e-05
      -2.40550744e-05 -1.56324713e-05 -3.44462637e-06 -5.40921235e-07
      9.85330826e-06 2.01062448e-05 8.06924072e-06 1.63434543e-05
      2.43107734e-05 -9.76716547e-06 -3.74900060e-06 2.99876729e-06
      -3.75602508e-06 -4.65692523e-07 1.77505376e-06 8.80359676e-06
      6.34585058e-06 5.44353861e-06 9.10954441e-06 2.02870683e-06
      -8.49346463e-07 1.85151821e-05 6.73780687e-06 -7.22582001e-07
      1.54035461e-05 -9.12038217e-07 -9.73635633e-06 1.34287948e-05
      -1.36729895e-07 -1.15878174e-05 2.45900665e-05 1.71861848e-05
      9.01164549e-06 4.70845771e-05 5.26548101e-05 4.65296143e-05
      2.82372330e-05 4.63670476e-05 4.51025808e-05 1.13281940e-05
      3.59808728e-05 3.82574326e-05 -7.66220001e-06 1.81395244e-05
      -4.61803256e-06 2.32775437e-06 1.41357968e-05 -8.42252120e-06
      -1.70220949e-06 9.83107111e-06 -3.19161336e-05 -2.23562020e-05
      -1.07752976e-05 -1.26720215e-05 -4.41147313e-06 6.35783772e-06
      4.87280568e-06 1.54549689e-05 2.40460777e-05 -9.15039709e-06
      -4.23108503e-07 6.16761463e-06 -4.43336057e-06 1.87037108e-06
      7.08050447e-06 1.47430558e-06 3.59649061e-06 6.07135280e-06
      1.33660319e-06 6.10577189e-08 4.56705493e-07 9.71927602e-06
      3.30061880e-06 1.71483862e-06 1.39067743e-05 6.24059157e-06
      3.68798669e-06 1.64129069e-05 1.31675342e-05 7.98163273e-06
      3.78111836e-05 4.27541017e-05 4.06037325e-05 5.43549941e-05
      7.06444698e-05 7.09639935e-05 4.37286290e-05 7.14120470e-05
      7.67560632e-05 3.26644731e-05 6.90076049e-05 7.93467480e-05
      1.46551192e-05 5.37083179e-05 1.18854086e-06 8.40330813e-06
      1.81349697e-05 -9.25828317e-06 -1.06227856e-06 8.46302191e-06
      -3.67281100e-05 -2.71043773e-05 -1.70374860e-05 -2.59172411e-05
      -1.65987585e-05 -7.16546037e-06 -1.89800426e-06 1.13497808e-05
      1.98828602e-05 -8.70338044e-06 1.88440902e-06 8.97530572e-06
      -4.27393661e-06 6.16824263e-06 1.09637258e-05 -3.55354973e-06
      2.48070046e-06 7.97264875e-06 1.96157703e-06 4.17876072e-06
      6.19022421e-06 1.03598416e-06 2.60802744e-06 4.24649534e-06
      7.27510724e-06 5.31882142e-06 6.71390126e-06 1.07548394e-05
      1.43935076e-05 1.45881559e-05 4.26829283e-05 5.62063033e-05
      5.81633540e-05 5.73119760e-05 8.20957866e-05 8.89044677e-05
      5.24775787e-05 9.03508408e-05 1.02736296e-04 4.96567591e-05
      9.63658604e-05 1.11994530e-04 3.56038618e-05 8.31639554e-05
      1.51108316e-06 5.33148932e-06 1.39945741e-05 -4.39722953e-06
      2.34794447e-06 1.20966288e-05 -3.20663239e-05 -2.22590679e-05
      -1.31241250e-05 -3.03089546e-05 -1.91359341e-05 -9.90349326e-06
      -7.48869388e-06 5.34693481e-06 1.49993157e-05 -1.22975389e-05
      2.59801618e-06 1.00391626e-05 -8.43468206e-06 3.34313404e-06
      1.13160031e-05 -5.51085941e-06 4.18385343e-06 1.01625692e-05
      -1.27061958e-06 4.63422839e-06 6.72877422e-06 -1.62504386e-06
      4.65596122e-06 7.96977383e-06 -1.39695521e-06 3.35850723e-06
      9.41908365e-06 6.90314266e-07 9.60658963e-06 1.60565323e-05
      3.18186867e-05 5.20737376e-05 5.97843573e-05 5.52735291e-05
      8.77860948e-05 9.75334406e-05 5.72998433e-05 1.04010323e-04
      1.18405616e-04 6.11354189e-05 1.14417984e-04 1.34221686e-04
      5.41605186e-05 1.07138840e-04 -9.02822649e-06 -8.59843749e-06
      1.51968345e-06 -1.18591388e-05 -8.76962349e-06 1.98335033e-06
      -3.18872917e-05 -2.73190544e-05 -1.43790148e-05 -3.11197145e-05
      -2.36080432e-05 -1.32523692e-05 -7.88326633e-06 8.56895156e-07
      1.20021286e-05 -6.10272082e-06 3.44616205e-06 1.18107073e-05
      -1.03297389e-05 1.47990409e-06 7.40993164e-06 -2.95101268e-06
      6.03214266e-06 1.02955382e-05 -9.06872992e-06 -2.13447447e-06
      2.62427716e-06 -3.37095071e-06 5.07159984e-06 7.89107980e-06
      -3.60352419e-06 5.73397347e-06 8.39753920e-06 -4.51077585e-06
      1.19329970e-05 1.78609625e-05 2.18289042e-05 4.80664603e-05
      5.88449147e-05 4.82594514e-05 8.79238214e-05 1.01269972e-04
      5.33254351e-05 1.06313892e-04 1.24092432e-04 6.07125039e-05
      1.19940603e-04 1.43992322e-04 6.36069672e-05 1.25096558e-04
      -3.07783885e-05 -3.54200602e-05 -2.46425843e-05 3.64210769e-06
      2.37726994e-07 1.37177949e-05 -1.36999315e-05 -1.43914485e-05
      -1.01003184e-06 -2.28184781e-05 -2.22408689e-05 -8.53678739e-06
      -3.25442784e-06 -2.10449230e-06 1.01961423e-05 -5.55813813e-06
      -3.11692361e-06 1.16573810e-05 7.80113965e-07 5.40390829e-06
      1.03240691e-05 -2.84603288e-06 3.78165691e-06 5.04846003e-06
      -2.83176587e-06 2.87600847e-06 3.29359955e-06 -8.26557607e-06
      3.46722481e-06 4.08873302e-06 -9.57529664e-06 5.71220198e-06
      8.27980602e-06 -1.01713349e-05 1.30276803e-05 1.99763053e-05
      2.22738017e-05 5.57644235e-05 6.76553464e-05 4.11391811e-05
      8.30575082e-05 9.95875380e-05 5.14188287e-05 1.04669445e-04
      1.26510044e-04 6.06629728e-05 1.23055084e-04 1.52500463e-04
      5.75125414e-05 1.25083228e-04 -1.06335383e-05 -1.87512960e-05
      -9.45876491e-06 3.04567993e-06 -1.22177471e-06 9.39923302e-06
      8.81053256e-06 5.16876389e-06 1.92972984e-05 -8.70094573e-06
      -9.08812035e-06 3.58806005e-06 -1.21710391e-05 -1.16919509e-05
      -7.86308590e-07 4.53662892e-07 2.29570401e-06 1.07413880e-05
      -8.49202877e-08 2.38537336e-06 9.55031555e-06 -7.65356447e-07
      4.15961949e-06 4.92932168e-06 -6.87780357e-06 1.15443822e-06
      1.09850035e-07 -9.24948381e-06 1.47204389e-06 3.20766048e-07
      -1.33868225e-05 1.79331369e-06 4.12939426e-06 -1.43054585e-05
      1.18794987e-05 1.90580176e-05 1.87437799e-05 5.52873644e-05
      6.92101385e-05 3.32989985e-05 7.94791194e-05 9.91901907e-05
      4.24661885e-05 9.86289524e-05 1.22959013e-04 5.58293577e-05
      1.19644974e-04 1.50506530e-04 5.45850235e-05 1.27750929e-04
      -2.47675234e-05 -3.01152122e-05 -2.36963242e-05 1.06640691e-05
      7.35579124e-06 1.27339954e-05 2.20088132e-05 1.87960813e-05
      3.00283682e-05 5.71119062e-06 7.21613924e-06 1.86406342e-05
      -1.59289411e-05 -1.36277049e-05 -3.08418566e-06 -7.30384181e-06
      -3.68229803e-06 5.27482416e-06 -5.41475686e-07 4.32008028e-06
      1.03300099e-05 -5.09147321e-06 6.49346418e-07 3.10960377e-06
      -6.07372522e-06 1.36885967e-06 2.27076384e-06 -9.03339696e-06
      2.32389539e-06 1.48344475e-06 -1.50351652e-05 1.79950814e-06
      4.03546710e-06 -1.23208729e-05 1.17108793e-05 1.86716679e-05
      1.88381819e-05 5.59936962e-05 6.98748700e-05 3.48402864e-05
      8.18627377e-05 1.03326012e-04 4.26594161e-05 1.01200931e-04
      1.28453787e-04 5.47546915e-05 1.21303710e-04 1.54099907e-04
      5.43368333e-05 1.27051957e-04 -2.13636904e-05 -2.63843140e-05
      -2.43424838e-05 1.34411539e-05 9.27413748e-06 1.17722366e-05
      1.20561335e-05 1.23120999e-05 1.82428503e-05 1.27215912e-06
      3.90754440e-06 1.22832671e-05 -2.05569177e-05 -1.41901764e-05
      -5.47473428e-06 -3.16028782e-05 -2.46775198e-05 -1.60263353e-05
      -5.64583797e-06 -7.54556950e-08 5.90317131e-06 -1.37320933e-06
      5.33241518e-06 8.38195956e-06 -6.63301853e-06 1.07777021e-06
      1.96530982e-06 -9.48970228e-06 5.83225585e-07 2.75726097e-06
      -1.42504323e-05 3.26290888e-07 4.87499346e-06 -1.46533466e-05
      1.00079769e-05 1.84563596e-05 1.67313847e-05 5.16296204e-05
      6.69292058e-05 3.18952953e-05 8.18094413e-05 1.00777565e-04
      3.80233432e-05 9.96116141e-05 1.26865372e-04 5.22599767e-05
      1.22732032e-04 1.53589877e-04 5.18515008e-05 1.26146304e-04
      -2.55385908e-06 -9.15543296e-06 -1.07301121e-05 2.19090794e-06
      -3.36990979e-06 -3.63724325e-06 -1.49014681e-06 -6.76372849e-07
      1.79531514e-06 1.15571029e-05 1.42887902e-05 2.13747771e-05
      -1.22409456e-05 -4.32545812e-06 5.05755634e-06 -3.98516095e-05
      -3.01161817e-05 -2.13730746e-05 -1.98025136e-05 -1.10062019e-05
      -3.78799041e-06 -1.06618763e-05 -2.89176796e-06 6.13182692e-06
      -5.55572979e-06 6.51557173e-07 4.12239206e-06 -9.52178198e-06
      5.83354847e-07 3.74633896e-06 -1.47875098e-05 6.22700441e-07
      4.96119128e-06 -1.45541035e-05 1.08211207e-05 1.96516539e-05
      1.21174307e-05 5.06985307e-05 6.55947006e-05 3.19658757e-05
      8.13673178e-05 1.02618425e-04 3.67360553e-05 9.99798431e-05
      1.27968044e-04 4.83066397e-05 1.19993558e-04 1.51466316e-04
      5.33311868e-05 1.27008854e-04 8.70367057e-06 -1.34414177e-06
      -6.91312016e-06 -1.83456208e-07 -9.42731185e-06 -1.27292651e-05
      8.27958866e-06 6.15303907e-06 6.61613876e-06 1.67867893e-05
      2.11842143e-05 2.38267694e-05 -2.27468081e-05 -1.65723486e-05
      -9.52242499e-06 -3.43123575e-05 -2.53058279e-05 -1.76516751e-05
      -1.93709093e-05 -1.04574174e-05 -2.03596960e-06 -5.68294854e-06
      3.25652877e-06 9.06333480e-06 -8.12043072e-06 -1.08757138e-06
      3.81804739e-06 -1.08956092e-05 -2.74108658e-07 3.37516690e-06
      -1.51821087e-05 -2.61406598e-07 5.03796218e-06 -1.00105935e-05
      1.33158119e-05 2.32668317e-05 1.41186929e-05 4.99835951e-05
      6.54248652e-05 3.34086726e-05 8.24718882e-05 1.01700702e-04
      3.86609136e-05 1.00572419e-04 1.27215317e-04 4.96198882e-05
      1.19525263e-04 1.51534405e-04 5.07280929e-05 1.24210972e-04
      4.83027725e-06 -7.99287591e-06 -1.54497575e-05 1.77109760e-05
      7.99744157e-06 2.13230715e-06 3.07128757e-05 2.62076464e-05
      2.39016845e-05 2.92363129e-05 2.61433324e-05 2.96442176e-05
      3.05493836e-06 6.94465780e-06 1.37290590e-05 -1.46524271e-05
      -6.71191128e-06 -3.75283918e-07 -9.75329931e-06 -3.03778097e-06
      6.84351562e-06 -1.85732988e-05 -9.94932998e-06 -1.28477822e-07
      -1.30827893e-05 -5.71946021e-06 -2.77059087e-07 -1.36814879e-05
      -3.15623015e-06 1.43437944e-06 -1.92378229e-05 -3.72197587e-06
      2.59471199e-06 -9.38347512e-06 1.25358838e-05 2.32631610e-05
      1.34231168e-05 4.81241004e-05 6.35233519e-05 3.01480177e-05
      7.75294757e-05 9.67302258e-05 3.72757277e-05 9.58139135e-05
      1.20167191e-04 4.91501196e-05 1.16603929e-04 1.46089937e-04
      4.60702322e-05 1.19580596e-04 8.39422501e-06 -8.35913124e-06
      -1.65031797e-05 2.91889119e-05 1.53791043e-05 9.35331263e-06
      3.24750727e-05 2.40430509e-05 2.22751169e-05 9.50976755e-06
      6.23357255e-06 8.39997938e-06 3.12689099e-06 2.14567785e-06
      8.16815464e-06 -1.06057287e-05 -7.24359916e-06 7.71488885e-07
      5.90900072e-07 5.99591840e-06 1.65995953e-05 -3.13622809e-06
      2.83524446e-06 1.23502659e-05 -1.19037459e-05 -6.40600229e-06
      2.19958383e-06 -4.92048684e-06 3.15691523e-06 9.21566880e-06
      -1.12562893e-05 6.99193151e-07 7.05413049e-06 -3.16582214e-06
      1.71746760e-05 2.62620288e-05 1.62797787e-05 4.84212760e-05
      6.21842919e-05 3.63607942e-05 7.68734535e-05 9.62351114e-05
      4.27807026e-05 9.62053964e-05 1.19011762e-04 5.40422152e-05
      1.14643342e-04 1.42853678e-04 4.49788386e-05 1.14879025e-04
      2.30403784e-05 3.82149983e-06 -2.46614695e-06 3.87907421e-05
      2.34778072e-05 1.74808702e-05 3.20258987e-05 1.80916322e-05
      1.63049681e-05 1.30798153e-05 3.60798754e-06 6.94387609e-06
      7.43496639e-06 2.31631111e-06 8.35389983e-06 -5.87436853e-06
      -6.80067751e-06 2.13850012e-06 -1.72876553e-05 -1.45920358e-05
      -5.07787718e-06 1.29463142e-05 1.69348932e-05 2.45135088e-05
      -8.05321451e-06 -4.88951946e-06 4.77146614e-06 -2.07113535e-05
      -1.40756010e-05 -6.84078850e-06 -2.11578572e-05 -9.42008774e-06
      -3.55346947e-06 -1.21802368e-05 3.92783613e-06 1.22450265e-05
      2.78543012e-05 5.48254939e-05 6.62092352e-05 4.65433513e-05
      7.99439294e-05 9.37623190e-05 4.77243884e-05 9.09975497e-05
      1.12104339e-04 5.63300346e-05 1.08599968e-04 1.33644120e-04
      5.17265544e-05 1.12850386e-04 7.91839830e-06 -1.16606816e-05
      -1.60916825e-05 1.87605820e-05 1.35445589e-06 -2.97884617e-06
      7.26473309e-06 -6.90716161e-06 -8.22644597e-06 1.22600213e-05
      1.09158941e-06 2.86313639e-06 2.64204682e-05 1.60658219e-05
      2.31953691e-05 9.46205910e-06 4.55308873e-06 1.17658146e-05
      2.08952906e-06 -2.23224163e-07 1.18841335e-05 5.03563388e-06
      5.17293256e-06 1.46356233e-05 2.38148368e-05 2.62343819e-05
      3.48250214e-05 -7.71826944e-06 -2.93596986e-06 5.01279555e-06
      -1.94117802e-05 -1.12274520e-05 -4.34953790e-06 -2.56660369e-05
      -1.14357090e-05 -6.25974508e-06 -6.45647197e-06 1.34506026e-05
      2.19512040e-05 1.36148155e-05 4.04904931e-05 5.37506676e-05
      2.03058153e-05 5.37640881e-05 7.06824867e-05 4.08974483e-05
      8.10544589e-05 1.00700650e-04 3.20842119e-05 8.09053599e-05
      7.87844419e-06 -8.77565344e-06 -1.26784362e-05 8.30168756e-06
      -7.89726437e-06 -1.08403347e-05 1.85703902e-05 5.21910215e-06
      5.71384589e-06 2.77029048e-05 1.53481287e-05 1.64125249e-05
      3.38527279e-05 2.16273165e-05 2.70720247e-05 1.52801131e-05
      6.22084417e-06 1.33536232e-05 1.33215535e-05 8.97469363e-06
      2.11142324e-05 2.93827907e-05 2.71157114e-05 3.72832546e-05
      2.23471143e-05 2.07297180e-05 2.99702879e-05 2.06993946e-06
      5.37890901e-06 1.19118558e-05 -2.10491507e-05 -1.55787002e-05
      -1.00210400e-05 -2.73290043e-05 -1.57485538e-05 -1.20413388e-05
      -2.76905030e-05 -1.39493250e-05 -5.81413269e-06 -2.79925607e-05
      -9.73526676e-06 1.03606749e-06 -1.80487259e-05 4.41699012e-06
      1.76128178e-05 -5.39887469e-06 2.37722215e-05 3.78203804e-05
      5.47069249e-06 3.89593079e-05 -3.88141734e-06 -1.87229907e-05
      -2.01496696e-05 1.66620139e-05 2.64388723e-06 1.78679568e-06
      2.39062210e-05 9.64881474e-06 9.88564352e-06 2.70384025e-05
      1.30474491e-05 1.46739249e-05 2.58837426e-05 1.35047112e-05
      1.73743974e-05 1.26519053e-05 1.47473154e-08 6.73378236e-06
      1.47731362e-05 5.45824378e-06 1.48592244e-05 3.55950324e-05
      3.00400879e-05 3.71233655e-05 1.20627001e-05 6.44533975e-06
      1.69402410e-05 1.16969550e-05 1.17854588e-05 1.81830292e-05
      -7.54724988e-06 -3.62254968e-06 6.21872402e-08 -1.10728270e-05
      -3.70395446e-06 -2.09592781e-06 -1.83924658e-05 -9.06332843e-06
      -4.10413622e-06 -2.18726091e-05 -9.07626691e-06 -4.06767776e-06
      -2.22698145e-05 -6.48355126e-06 2.60998286e-06 -1.46354423e-05
      3.78121490e-06 1.24713442e-05 -1.40356917e-06 2.08215479e-05
      -1.11965919e-05 -2.32757484e-05 -2.35093485e-05 1.09888770e-05
      -1.45217302e-06 -1.68960173e-06 1.51017957e-05 2.56035946e-06
      3.53185192e-06 1.57380655e-05 2.33595051e-06 4.74004673e-06
      1.66645223e-05 2.61655850e-06 5.48029220e-06 8.93254219e-06
      -2.89805166e-06 3.50050129e-07 2.84674161e-06 -8.59263309e-06
      -5.34231276e-07 3.01496129e-05 2.02544561e-05 2.61815640e-05
      2.02421488e-05 1.19648621e-05 2.04146527e-05 2.65251606e-06
      -1.07657434e-06 4.49269601e-06 -2.60699144e-05 -2.65940762e-05
      -2.34124018e-05 -2.84293637e-05 -2.43045415e-05 -2.23551324e-05
      -1.76081394e-05 -1.01938795e-05 -8.47427509e-06 -1.10253968e-05
      -7.91211562e-07 2.91989920e-07 -2.34379841e-05 -9.68665881e-06
      -7.47984632e-06 -2.86181148e-05 -1.33723643e-05 -1.08982485e-05
      -2.43461909e-05 -1.01632659e-05 -6.81310712e-06 -1.75619898e-05
      -1.65253296e-05 7.91193906e-06 -2.41922203e-06 -1.38051348e-06
      2.32738275e-05 1.18899879e-05 1.31232146e-05 2.42497790e-05
      1.20000877e-05 1.19390024e-05 2.87217172e-05 1.73359404e-05
      1.83936318e-05 9.23858897e-06 -2.48797096e-06 -5.50974562e-07
      -6.75596220e-06 -1.94273252e-05 -1.43650877e-05 1.79800700e-05
      7.54917028e-06 1.23751925e-05 1.42387698e-05 4.48846049e-06
      9.28547524e-06 3.84733903e-06 -1.37155325e-06 2.41049361e-06
      -6.12083522e-06 -8.95700032e-06 -4.64765162e-06 -6.42370833e-06
      -4.91395122e-06 -3.54799272e-06 -3.64751468e-05 -2.92731675e-05
      -2.92345030e-05 -3.58767429e-05 -2.50612793e-05 -2.83416448e-05
      -2.16880217e-05 -9.28869486e-06 -1.03048651e-05 -2.82204401e-05
      -1.46875764e-05 -1.51851646e-05 -2.83284753e-05 -1.74322104e-05
      -9.42473434e-06 -1.98876787e-05 -1.66271766e-05 5.06239803e-06
      -5.76488856e-06 -3.49501397e-06 1.13855758e-05 6.57929718e-07
      4.00990047e-07 1.32548676e-05 1.90200649e-06 1.07537653e-06
      2.20661514e-05 1.01870446e-05 1.02781232e-05 1.26550788e-06
      -9.81147787e-06 -7.31607906e-06 -1.34018628e-05 -2.85824335e-05
      -2.61564364e-05 7.49968285e-06 -5.10471091e-06 -1.25040208e-06
      2.64568212e-06 -9.06101013e-06 -4.31220269e-06 1.50476999e-05
      8.02088925e-06 1.12499838e-05 -1.13223780e-06 -4.19408298e-06
      -2.16633998e-06 -6.26982683e-06 -4.61495983e-06 -5.27230850e-06
      -2.52974551e-05 -1.77320944e-05 -2.03777527e-05 -4.04765924e-05
      -3.03848356e-05 -3.29681279e-05 -4.99287235e-05 -3.70305388e-05
      -3.97981094e-05 -3.54096956e-05 -2.17035085e-05 -2.56429576e-05
      -2.28574027e-05 -8.65085713e-06 -8.85188638e-06 -1.77166276e-05
      -1.68530551e-05 1.34269112e-05 2.46817649e-06 3.33379785e-06
      1.49840316e-05 5.53278414e-06 3.70733028e-06 8.55707640e-06
      -2.32654861e-06 -2.28726299e-06 1.24883281e-05 -3.16608428e-08
      -2.30131036e-07 -5.20474532e-06 -1.67696635e-05 -1.42963390e-05
      -3.62925539e-06 -1.63446111e-05 -1.33564045e-05 2.49477289e-05
      1.45272534e-05 1.93522901e-05 2.10878643e-05 1.02228769e-05
      1.56989245e-05 1.37486477e-05 5.54018879e-06 1.10005303e-05
      -1.45950162e-05 -1.84044784e-05 -1.38888481e-05 -2.33281407e-05
      -2.12991108e-05 -2.25365511e-05 -3.55434313e-05 -3.36535741e-05
      -3.48736285e-05 -3.05177637e-05 -2.37760305e-05 -2.84024227e-05
      -3.90820824e-05 -2.89773016e-05 -3.60022423e-05 -3.55469419e-05
      -2.62109133e-05 -3.09441821e-05 -1.94135137e-05 -8.51554978e-06
      -2.02298722e-07 -9.59902900e-06 -1.42745375e-05 1.21143712e-05
      2.09412690e-07 -2.00657087e-06 1.40850252e-05 2.90777211e-06
      8.20342962e-07 2.10627222e-05 8.77505408e-06 8.34903949e-06
      1.71482006e-05 6.38409892e-06 6.46807030e-06 3.38472819e-06
      -7.01120052e-06 -3.96415408e-06 7.72939256e-06 -1.37025461e-06
      3.55292264e-06 4.27171290e-05 3.12214688e-05 3.95274001e-05
      2.24358009e-05 1.25021188e-05 2.07494813e-05 5.63018466e-06
      -2.36669848e-06 6.13659404e-06 -1.34661605e-05 -2.18081441e-05
      -1.51959002e-05 -2.12203795e-05 -2.69985867e-05 -2.33409337e-05
      -2.89260024e-05 -3.54072363e-05 -3.23977001e-05 -1.88639224e-05
      -2.11877359e-05 -2.31182330e-05 -3.67479915e-05 -3.68589317e-05
      -3.90687492e-05 -4.87739817e-05 -4.55586778e-05 -5.07861296e-05
      -2.44132461e-05 -2.16074022e-05 -1.94895692e-05 -3.03150773e-05
      -3.65039778e-05 -1.08908453e-05 -2.22820436e-05 -2.80560325e-05
      -1.56116494e-06 -1.34749644e-05 -1.64810044e-05 2.62250455e-06
      -1.01262412e-05 -1.20953709e-05 3.10634618e-06 -7.42611110e-06
      -4.91722994e-06 2.31031294e-07 -9.77010768e-06 -6.85180430e-06
      -2.25295207e-06 -1.04591236e-05 -3.30812622e-06 2.48868582e-05
      1.66302416e-05 2.47565604e-05 1.54616064e-05 6.70573945e-06
      1.67256258e-05 9.53933159e-06 -5.44623390e-07 9.77969557e-06
      -1.73704052e-06 -1.13043770e-05 -2.88721162e-06 -5.42835414e-06
      -1.52166631e-05 -8.72924556e-06 -1.27971007e-05 -2.21539285e-05
      -1.97704558e-05 -3.17003980e-07 -7.37803748e-06 -7.20745038e-06
      -1.67641811e-05 -2.12072446e-05 -2.44458570e-05 -3.01395521e-05
      -3.13286910e-05 -3.76531025e-05 -2.27030596e-05 -2.39932488e-05</_>
    <_>
      -1.68967890e-05 -7.38206154e-07 -3.74095544e-05 2.22196672e-06
      1.88028062e-05 -1.26454734e-05 2.05507640e-05 3.63686740e-05
      1.23027967e-05 5.94997982e-06 2.06608565e-05 9.20586081e-06
      1.65396614e-05 2.89612890e-05 2.90726020e-05 7.07741401e-06
      1.77861421e-05 2.55819614e-05 -6.28011003e-06 2.06334585e-06
      2.06628338e-05 2.11722454e-05 3.85574349e-05 5.43144270e-05
      2.04148218e-05 4.17875344e-05 5.35850995e-05 -1.61269982e-05
      1.67431390e-05 2.13412313e-05 -1.26222367e-05 2.52548107e-05
      1.74878624e-05 -3.67415669e-05 2.76964761e-06 -1.16938872e-05
      -5.08150515e-05 -2.28564750e-05 -4.56177186e-05 1.42377694e-05
      2.71122026e-05 1.59310844e-06 4.30701548e-05 3.95419520e-05
      1.16302581e-05 5.67811803e-05 4.49063627e-05 9.08599486e-06
      7.45301368e-05 5.28616802e-05 2.59166736e-05 3.85121093e-05
      7.26464577e-06 2.46975032e-05 4.02661499e-05 1.02424465e-05
      2.30413207e-05 4.17657757e-05 2.09968275e-05 8.36591698e-06
      2.46159107e-05 1.17605359e-05 9.68022232e-06 2.06646946e-05
      2.04571188e-05 8.65453057e-06 1.69850118e-05 2.34187191e-05
      3.63526260e-06 1.40867996e-05 2.76627179e-05 1.16718438e-05
      2.66109237e-05 4.00878707e-05 -1.46582561e-05 6.94685696e-06
      1.54520258e-05 -1.65557449e-05 1.26136556e-05 1.35657983e-05
      -2.36833548e-05 1.16797382e-05 5.71324790e-06 -3.87167165e-05
      -2.52531731e-06 -1.72105902e-05 -3.87370892e-05 -1.49285133e-05
      -3.52441930e-05 2.99192852e-05 4.38980242e-05 1.96426718e-05
      3.75765230e-05 3.10814212e-05 6.04852221e-06 2.66248153e-05
      1.09435514e-05 -2.24705054e-05 5.41671943e-05 3.05987523e-05
      3.04828809e-05 4.03872400e-05 1.87147125e-05 1.35163500e-05
      2.60888919e-05 5.12640963e-06 1.01089536e-05 2.64680384e-05
      8.50952256e-06 -2.31366466e-05 -2.48831043e-06 -1.51444419e-05
      9.15353723e-07 1.39935537e-05 9.09569462e-06 -5.44231671e-06
      8.09572975e-06 7.80226310e-06 3.89817757e-07 1.61789831e-05
      1.68011247e-05 8.26859377e-06 2.17812685e-05 2.70094952e-05
      -1.98097550e-05 -3.35934715e-06 2.24870701e-06 -7.73438842e-06
      1.10870851e-05 1.30356684e-05 -2.83830468e-06 2.67018459e-05
      2.04279695e-05 -9.65233812e-06 2.23003772e-05 6.20207720e-06
      -3.22144024e-06 1.35216624e-05 -6.49760159e-06 8.67914150e-06
      1.57597515e-05 -1.00273510e-05 1.21048797e-05 -2.79717096e-06
      -2.94799374e-05 4.62702883e-06 -1.77891980e-05 -5.39065477e-05
      -2.05489978e-05 -5.09365454e-05 -3.01050295e-06 1.28512502e-05
      -4.78966967e-06 -2.06903405e-05 -4.79708069e-06 -1.89656075e-05
      -3.35403383e-05 -1.84478267e-05 -3.20883628e-05 -4.50454136e-05
      -2.86679988e-05 -4.10248940e-05 -1.60941072e-05 -1.15150124e-06
      -1.28372512e-05 -1.36618473e-05 -2.59477565e-06 -9.27200381e-06
      -1.17233612e-05 3.29104682e-06 -2.03810691e-06 2.77165473e-08
      1.32804353e-05 1.10007340e-05 -8.46206240e-06 7.93041454e-06
      7.71823579e-06 -7.28136911e-06 8.30194040e-06 8.43985072e-06
      -1.48819856e-06 1.71722113e-05 1.22739766e-05 2.10146336e-05
      3.70642447e-05 2.52995997e-05 4.47324237e-06 7.89858859e-06
      -8.13245060e-06 6.79281948e-06 -7.14894782e-07 -2.23194475e-05
      2.26454495e-06 -1.14831882e-05 -3.78066798e-05 -8.06677053e-06
      -2.91170454e-05 -6.27331974e-05 -1.34401362e-05 -4.07982698e-05
      -3.33294629e-05 -1.24598218e-05 -2.16997014e-05 -2.12221075e-05
      -2.89133186e-06 -1.44585083e-05 -1.15354014e-05 3.62761716e-06
      -4.68766757e-06 -5.56244595e-06 7.61351066e-06 -5.56125451e-06
      -5.10284463e-06 7.06276751e-06 -7.03621799e-06 -1.35982500e-05
      -2.29780403e-06 -1.47048522e-05 -1.27211588e-05 -3.31941351e-07
      -1.20283685e-05 -1.55281796e-05 -1.33899027e-06 -9.50884987e-06
      -3.68435940e-05 -2.81921166e-05 -2.98821196e-05 -5.88232410e-07
      6.89989429e-06 6.85223722e-06 2.59664175e-05 2.72677789e-05
      2.62122085e-05 1.94605273e-05 1.52949251e-05 1.02430540e-05
      1.28439815e-05 3.52081952e-06 -6.79302912e-06 2.54265324e-05
      1.71524971e-05 -2.28207045e-06 2.59038206e-05 1.08187505e-05
      -1.19407787e-05 -9.95811661e-06 -2.90821954e-05 -5.79138468e-05
      -5.17724511e-05 -6.19300627e-05 -2.43777940e-05 3.94982135e-06
      -6.99783129e-07 -3.45605695e-05 -1.10822120e-05 -1.84635901e-05
      6.79087270e-06 1.96364672e-05 1.14669429e-05 3.99543715e-05
      4.71103958e-05 3.60074300e-05 1.19704519e-05 1.93352425e-05
      2.52771952e-06 -6.90858406e-06 -1.58584737e-06 -1.60982290e-05
      -1.12608059e-05 -1.68456518e-06 -1.50680871e-05 -8.13629686e-06
      5.02754983e-06 -8.74737270e-06 -1.41849596e-05 -6.16042507e-06
      -1.07805290e-05 -1.59985780e-06 -1.10056749e-06 -4.95659378e-06
      1.44546384e-05 -2.05899624e-07 -2.17155139e-06 3.47004207e-05
      1.89916100e-05 1.83047632e-05 4.19121097e-05 2.57241263e-05
      1.94406985e-05 1.14401164e-05 -3.49227275e-06 -2.02529209e-05
      -2.28077115e-05 -3.49054135e-05 -5.92520446e-05 -3.71538335e-05
      -4.45549449e-05 -7.38248928e-05 -5.38378372e-05 -5.69438344e-05
      -3.36383928e-05 -1.59718661e-06 -2.42861029e-06 -1.42726740e-05
      1.42108538e-05 1.20153372e-05 6.12214762e-06 1.99721890e-05
      1.07903716e-05 1.54426762e-05 1.88208523e-05 7.01469480e-06
      2.15553191e-05 2.54697497e-05 7.05424509e-06 -1.84128567e-06
      9.53500773e-07 -1.84375240e-05 -1.25402912e-05 -3.02121657e-06
      -1.92595926e-05 -1.54687204e-05 -5.88774537e-06 -1.87926944e-05
      -2.87339280e-05 -2.42351271e-05 -3.23269778e-05 -5.67206553e-06
      -1.10338515e-05 -1.42177278e-05 4.18566051e-05 2.30266414e-05
      2.62166523e-05 3.94378912e-05 1.30519074e-05 1.37823981e-05
      -1.15725370e-05 -3.97067197e-05 -4.37449744e-05 -3.27314701e-05
      -5.45607400e-05 -6.68459106e-05 -2.84911075e-05 -3.64131010e-05
      -5.77178907e-05 -5.55659426e-05 -5.63508293e-05 -8.05922537e-05
      -4.83293006e-05 -5.08038647e-05 -3.98639095e-05 -2.85493002e-06
      -5.36512880e-06 8.45300383e-06 3.88870503e-05 3.27555354e-05
      -6.41825545e-06 8.12496819e-06 -1.02484336e-07 -9.78437311e-06
      -6.64923800e-06 -1.61456392e-05 -1.92021143e-05 -2.04619191e-05
      -3.83476872e-05 -2.29948037e-05 -2.24770884e-05 -3.94176750e-05
      -6.68614621e-06 -1.79443032e-06 -1.87436235e-05 -4.76866844e-05
      -4.00330973e-05 -4.93347179e-05 -2.05861852e-05 -2.19170379e-05
      -2.97509978e-05 3.06643997e-05 2.23117513e-05 1.99887727e-05
      3.16068472e-05 6.00613475e-06 1.01827845e-05 1.12943817e-05
      -2.05110246e-05 -2.01705279e-05 8.02078011e-06 -1.90316496e-05
      -2.34485233e-05 -2.18758123e-05 -3.83282495e-05 -5.19998139e-05
      -4.11567271e-05 -4.43533427e-05 -6.36581244e-05 -4.98987865e-05
      -4.69556289e-05 -6.59875514e-05 -3.44643813e-05 -3.20105137e-05
      -6.19958664e-05 -2.13089425e-05 -2.80325603e-05 -3.35245240e-05
      1.66290462e-07 -8.38996857e-06 -3.50568298e-05 -1.75157966e-05
      -2.65344916e-05 -3.92825277e-05 -3.36853082e-05 -4.32412417e-05
      -3.07661467e-05 -2.87839903e-05 -4.29166757e-05 -4.99641783e-06
      -1.00685847e-05 -2.27831006e-05 -1.91571671e-05 -2.13723561e-05
      -3.31711090e-05 1.55271282e-05 9.86646137e-06 1.88773402e-06
      3.69389527e-05 2.82030396e-05 2.62220165e-05 1.31905153e-05
      1.34939071e-07 -2.53348207e-06 1.37457610e-05 -9.74981685e-06
      -7.99963072e-06 7.85644443e-06 -2.00018840e-05 -2.20731399e-05
      -1.21942639e-05 -3.55906377e-05 -3.92873626e-05 -1.79948638e-05
      -3.57861063e-05 -4.60037772e-05 -3.65540109e-05 -3.52443130e-05
      -5.28873497e-05 -2.47294684e-05 -1.66077625e-05 -4.11480432e-05
      -2.42240458e-05 -2.15673299e-05 -7.04996855e-05 -3.09528550e-05
      -4.18591735e-05 -4.07645566e-05 -9.28276586e-06 -1.83338379e-05
      -4.71481144e-05 -2.39798701e-05 -3.52322495e-05 -2.57535685e-05
      -1.49783300e-05 -2.81496341e-05 -1.24394737e-05 -1.41640612e-05
      -2.29725028e-05 1.54866357e-05 1.04265719e-05 2.48369065e-06
      2.87256044e-05 1.73057506e-05 1.16518631e-05 5.59982254e-05
      4.58625873e-05 4.27995401e-05 2.92016357e-05 1.51916938e-05
      1.29183572e-05 1.73797253e-05 -2.37414497e-06 -9.93290996e-07
      6.04084653e-06 -1.21289340e-05 -1.28742004e-05 -5.93266805e-06
      -2.68291569e-05 -2.93460580e-05 -5.62846208e-06 -2.29251455e-05
      -2.85512724e-05 -1.01092483e-05 -1.81555970e-05 -3.06057846e-05
      -2.61874156e-05 -2.75670609e-05 -4.50223924e-05 -1.79123326e-05
      -1.57609302e-05 -3.75424788e-05 -2.96632097e-05 -2.34479012e-05
      -5.19530367e-05 -1.76899521e-05 -3.20381769e-05 -3.24686225e-05
      -5.12169379e-07 -1.39854501e-05 -4.24046957e-05 -1.99856986e-05
      -3.05665526e-05 -2.09916216e-05 -3.71186798e-06 -1.56161059e-05
      -4.67105474e-06 -3.04541368e-06 -1.10961882e-05 2.62444337e-05
      1.65462552e-05 1.41425226e-05 6.78003271e-05 5.71944292e-05
      5.44578688e-05 5.24686984e-05 3.45957196e-05 3.65156448e-05
      3.15905090e-05 8.84145629e-06 1.15091261e-05 2.67600553e-05
      9.00175837e-06 8.56362294e-06 -9.59351837e-07 -1.38175537e-05
      -1.89306775e-05 -1.55325251e-05 -2.51787023e-05 -3.16597980e-05
      -7.42598149e-06 -1.03915236e-05 -2.01682687e-05 -1.98004782e-05
      -2.20179209e-05 -3.49851507e-05 -2.53251837e-05 -2.86748455e-05
      -4.67837199e-05 -1.93162759e-05 -1.38386013e-05 -3.95531715e-05
      -3.25076762e-05 -2.33156388e-05 -1.71589454e-05 1.13364085e-05
      -8.96337951e-07 -1.11845475e-05 1.62553551e-05 2.75008074e-06
      -3.52564857e-05 -1.23928394e-05 -2.13414878e-05 -2.46050859e-05
      -2.92980394e-06 -1.20661671e-05 -3.70523117e-06 2.13203612e-06
      -2.04480762e-06 2.87879793e-05 2.56793264e-05 2.52169812e-05
      4.51278393e-05 3.29961149e-05 3.51327981e-05 3.67342545e-05
      1.63181976e-05 1.88428057e-05 2.90627613e-05 9.35336357e-06
      1.28623906e-05 1.13246560e-05 -5.84960958e-07 -5.31044316e-06
      -1.18317312e-05 -1.63065324e-05 -2.37321456e-05 -1.81102751e-05
      -1.71812844e-05 -2.72563848e-05 -2.04305925e-05 -1.69915184e-05
      -3.05095109e-05 -2.70186520e-05 -2.45689498e-05 -4.37853632e-05
      -2.27841429e-05 -2.68588738e-05 -4.72291176e-05 -1.34001211e-05
      -1.55454964e-05 -4.76297428e-05 -1.69567447e-05 -1.22577849e-05
      -2.21345526e-05 -5.57604210e-07 -9.31739942e-06 -1.38007072e-05
      1.07852320e-05 -3.47688285e-07 -1.88201120e-05 1.56379576e-06
      -5.02923103e-06 -3.73985495e-05 -2.23755778e-05 -3.05628673e-05
      -1.06951920e-05 -2.60043066e-06 -6.32210822e-06 -1.19122987e-07
      1.49253538e-06 9.59559657e-07 -6.57398186e-06 -1.51254999e-05
      -1.21251824e-05 1.77185466e-05 4.15748809e-06 9.36675497e-06
      7.85680095e-06 -7.35883668e-06 -3.88244871e-06 -1.11645322e-05
      -2.25972381e-05 -2.48481010e-05 -3.09718598e-05 -3.25743276e-05
      -3.72444374e-05 -3.20666695e-05 -2.71125591e-05 -3.57303070e-05
      -3.15501275e-05 -2.48210163e-05 -4.31722256e-05 -2.57196134e-05
      -2.19850608e-05 -4.17645679e-05 -1.25804527e-05 -1.94972854e-05
      -4.42391356e-05 -9.76300271e-06 -1.65468900e-05 -5.09706406e-05
      4.48064930e-06 -3.94195104e-06 -4.16759394e-05 -2.46869276e-05
      -2.67434170e-05 -2.71616282e-05 -9.95388200e-06 -1.33395151e-05
      -2.67056621e-05 -8.81020151e-06 -1.09694465e-05 -4.09766290e-05
      -2.77092258e-05 -3.09108982e-05 -1.45116901e-05 -3.98237307e-06
      -6.69676365e-06 -1.56705792e-05 -7.46674232e-06 -9.78746175e-06
      -3.03972429e-05 -2.94352649e-05 -2.80532113e-05 2.94637266e-05
      2.28949739e-05 2.69459415e-05 -9.21570154e-06 -1.50587057e-05
      -1.30582566e-05 -2.18968144e-05 -2.48532015e-05 -2.99279745e-05
      -4.18188392e-05 -3.36682424e-05 -4.37005692e-05 -3.74323718e-05
      -3.00030733e-05 -4.20861033e-05 -2.66271618e-05 -2.01690764e-05
      -4.08540946e-05 -1.22727870e-05 -1.36281406e-05 -3.85819985e-05
      -1.26133446e-05 -1.98648231e-05 -4.66834244e-05 8.03387309e-07
      -1.48283980e-05 -5.20372560e-05 1.03990615e-05 -1.37395236e-05
      -4.55884183e-05 -2.94162728e-05 -3.00297143e-05 -5.10634891e-05
      -3.44678083e-05 -3.48002795e-05 -5.98697225e-05 -4.52314998e-05
      -4.47912716e-05 -2.00210361e-05 -1.01275546e-05 -1.40323373e-05
      -1.48058316e-05 -7.42888960e-06 -8.81932101e-06 -3.33216030e-06
      2.67570067e-06 7.19710272e-07 9.05438355e-06 1.77427664e-05
      1.74802699e-05 7.78894719e-06 1.45503336e-05 9.97724510e-06
      -2.25432577e-05 -1.45881568e-05 -1.66619920e-05 -3.11963231e-05
      -2.22786930e-05 -2.72939633e-05 -3.39738654e-05 -2.27422006e-05
      -3.20951331e-05 -2.55980849e-05 -1.93488631e-05 -3.24209614e-05
      -1.30467206e-05 -1.32884061e-05 -3.43520223e-05 -3.66260133e-06
      -1.19940723e-05 -3.56122800e-05 -7.63508160e-06 -1.99784099e-05
      -4.92090730e-05 4.68355711e-06 -1.90432784e-05 -6.03306216e-05
      3.19461674e-06 -3.56379423e-05 -1.22187503e-05 -5.74493924e-06
      -1.06766483e-05 -4.72703068e-05 -3.74068986e-05 -4.07037878e-05
      -4.22200683e-05 -3.51922863e-05 -3.13730998e-05 -3.07120317e-05
      -2.21817772e-05 -1.78929076e-05 -1.28726242e-05 -4.16888452e-06
      -2.49220619e-07 1.11786239e-05 1.59450956e-05 2.19438680e-05
      2.42567075e-05 3.30559778e-05 3.90155692e-05 -2.01757630e-05
      -6.11296264e-06 -2.53120334e-06 -4.04643906e-05 -2.47134121e-05
      -2.42390925e-05 -4.38301940e-05 -3.08332965e-05 -3.55810444e-05
      -2.76966312e-05 -1.95017365e-05 -3.06811016e-05 -1.97790887e-05
      -1.79103627e-05 -3.91947324e-05 -1.64050034e-05 -2.09513328e-05
      -4.57993920e-05 -1.04476590e-06 -1.20959130e-05 -4.43417048e-05
      4.18498121e-06 -1.41023129e-05 -5.33269376e-05 1.34736456e-05
      -2.55312589e-05 -7.90321574e-05 9.16871250e-06 -5.30559264e-05
      2.89134732e-05 1.75118039e-05 4.52591712e-06 -1.25274701e-05
      -1.80770967e-05 -2.63405600e-05 1.18201006e-05 1.61143817e-05
      1.42522649e-05 1.16043987e-06 1.46133061e-05 1.79289873e-05
      -6.48119965e-07 3.80765323e-06 1.65328693e-05 2.25888289e-05
      2.57406573e-05 4.70525483e-05 2.57914962e-06 9.93329286e-06
      2.65904673e-05 -3.33272073e-05 -2.20512902e-05 -6.31838248e-06
      -5.21988186e-05 -3.29001086e-05 -2.87280654e-05 -3.93974151e-05
      -2.51151687e-05 -3.00571792e-05 -2.69728353e-05 -1.99938440e-05
      -3.77826800e-05 -1.67659873e-05 -1.70307176e-05 -4.29504216e-05
      -1.62955475e-05 -2.26445245e-05 -6.10541611e-05 3.85856811e-06
      -1.12522093e-05 -5.26251097e-05 2.10838843e-05 -1.27252761e-05
      -6.13098600e-05 3.12418742e-05 -2.89847048e-05 -9.66139487e-05
      1.98309408e-05 -7.56495938e-05 3.68974579e-05 1.77912916e-05
      -3.42391701e-07 2.06476579e-05 9.85859788e-06 -2.68425947e-06
      -7.86537021e-06 3.25843416e-07 -4.64981940e-06 -4.74757235e-06
      6.70215331e-06 1.35083110e-05 2.09779337e-05 2.38094981e-05
      4.01848010e-05 1.23443915e-05 1.32902142e-05 3.76159660e-05
      -2.05353808e-05 -1.43341113e-05 1.18195530e-05 -4.34213180e-05
      -3.11146869e-05 -1.66208993e-05 -5.45958610e-05 -4.03170925e-05
      -3.21975967e-05 -3.28478854e-05 -2.32662842e-05 -2.81598695e-05
      -1.53989349e-05 -1.27754893e-05 -3.17202903e-05 -1.00981890e-06
      -8.52922039e-06 -3.97863114e-05 -5.68747555e-06 -1.29365908e-05
      -5.55171246e-05 -1.16448484e-06 -1.54302215e-05 -6.10787974e-05
      2.32995571e-05 -1.39983549e-05 -7.07749277e-05 1.07523701e-05
      -6.01455686e-05 -1.31134380e-04 -4.60468364e-05 -1.56472233e-04
      1.39732683e-05 -3.25176552e-06 -2.06147070e-05 1.66620703e-05
      1.02060085e-05 -4.52986160e-06 -5.65397886e-06 4.78342145e-07
      -5.22699293e-06 -4.17855426e-06 7.47194053e-06 1.03866896e-05
      2.68994863e-05 3.42331150e-05 4.48348692e-05 4.63614879e-06
      9.78159733e-06 2.76546016e-05 -1.87228125e-05 -1.40699558e-05
      4.34942240e-06 -4.96854482e-05 -4.12387017e-05 -3.11810181e-05
      -4.40771946e-05 -3.63930994e-05 -3.24718749e-05 -2.63957099e-05
      -1.99814076e-05 -3.17407030e-05 -1.70671010e-05 -1.76888043e-05
      -4.22206722e-05 -3.72940076e-06 -1.58118764e-05 -4.83694530e-05
      -3.79767175e-06 -1.17991303e-05 -5.33008788e-05 -3.43152647e-06
      -1.94248314e-05 -6.14173041e-05 4.70381201e-06 -3.48713547e-05
      -8.53779493e-05 -5.22348309e-05 -1.17881042e-04 -1.80426505e-04
      -1.38267904e-04 -2.42509341e-04 4.90496350e-05 3.56998607e-05
      1.40931461e-05 2.64687787e-05 1.99356527e-05 5.37108144e-06
      4.18254649e-06 1.29970449e-05 5.63323556e-06 9.11984171e-06
      2.33950541e-05 2.91766719e-05 2.74903086e-05 3.85306448e-05
      4.93101215e-05 -1.61388998e-05 -5.25051792e-06 8.82253516e-06
      -2.73703008e-05 -2.17875404e-05 -6.15959425e-06 -3.61644888e-05
      -3.15503967e-05 -2.57555039e-05 -3.04729638e-05 -3.20369872e-05
      -3.27576308e-05 -1.82769127e-05 -2.22541894e-05 -3.53221476e-05
      -1.76759913e-05 -2.57964311e-05 -5.25377000e-05 -1.84710279e-05
      -2.77324543e-05 -5.93050900e-05 -6.38611618e-06 -1.25877741e-05
      -5.82103021e-05 -1.45637896e-05 -2.97380229e-05 -6.98465810e-05
      -5.68632349e-05 -8.93376127e-05 -1.33595502e-04 -1.45108759e-04
      -1.98802518e-04 -2.48716853e-04 -1.89622733e-04 -2.71487021e-04
      1.46061643e-06 -1.33683598e-05 -3.62793835e-05 1.63530149e-05
      3.26943496e-06 -1.43605466e-05 1.01752107e-06 1.20431769e-05
      6.57270903e-07 2.13441017e-05 3.47523091e-05 3.78017940e-05
      3.22340056e-05 4.83376170e-05 5.60246481e-05 -2.57584925e-05
      -1.30172857e-05 -4.48604897e-06 -3.10485448e-05 -2.67462965e-05
      -1.58101375e-05 -3.07754563e-05 -2.92261939e-05 -2.70925757e-05
      -2.06000914e-05 -2.89255822e-05 -3.42683561e-05 -1.09451184e-05
      -2.16333246e-05 -3.79004196e-05 -6.94229402e-06 -1.63018794e-05
      -4.58548602e-05 -1.29486634e-05 -2.24169598e-05 -5.36830739e-05
      -1.52278526e-05 -1.92729349e-05 -5.76562852e-05 -3.72566501e-05
      -4.14494207e-05 -7.86606397e-05 -1.12882823e-04 -1.34568923e-04
      -1.68290950e-04 -1.86622172e-04 -2.21471564e-04 -2.52158643e-04
      -1.85212601e-04 -2.28358665e-04 1.57179275e-05 -3.17652757e-06
      -2.46485633e-05 2.99887597e-05 1.80104671e-05 -9.03242835e-07
      2.00268278e-05 3.26710870e-05 2.04795324e-05 2.56179410e-05
      4.21321056e-05 4.03978920e-05 3.53807991e-05 5.35848412e-05
      6.03811677e-05 -4.30824548e-05 -2.54907154e-05 -1.71633419e-05
      -3.06233051e-05 -2.15295004e-05 -1.37575516e-05 -2.63090260e-05
      -2.48914585e-05 -2.75417133e-05 -2.25045333e-05 -2.88256306e-05
      -4.10199282e-05 -1.09568982e-05 -2.40346344e-05 -4.20351171e-05
      -1.81721111e-06 -1.24652634e-05 -4.36235714e-05 -6.62475168e-06
      -1.15002640e-05 -4.62231328e-05 -2.68444910e-05 -2.17384913e-05
      -5.91212665e-05 -4.62078860e-05 -3.72364957e-05 -7.03685291e-05
      -1.03501778e-04 -1.09075416e-04 -1.29507171e-04 -1.26348867e-04
      -1.24837679e-04 -1.38413205e-04 -1.21059238e-04 -1.04033606e-04
      4.37876370e-05 2.55029609e-05 4.38628740e-06 2.81978992e-05
      1.91255185e-05 3.79219318e-06 2.32986204e-05 3.35942459e-05
      2.38614521e-05 1.74766337e-05 3.49000038e-05 3.55764860e-05
      1.75090663e-05 4.34933863e-05 4.92747495e-05 -3.91754729e-05
      -2.11736970e-05 -1.25090273e-05 -3.07449809e-05 -2.00597879e-05
      -1.61254993e-05 -2.70047221e-05 -2.51408474e-05 -3.04443856e-05
      -1.25093638e-05 -2.16913868e-05 -3.81117861e-05 -1.02656586e-05
      -2.16928729e-05 -4.67137179e-05 -8.82600943e-06 -1.82831191e-05
      -4.74370681e-05 -1.78121154e-05 -1.67323960e-05 -4.88956575e-05
      -3.52968091e-05 -1.77611182e-05 -4.56900998e-05 -3.33833013e-05
      -9.79852484e-06 -2.86145569e-05 -3.07413175e-05 -5.43890928e-06
      -1.49094576e-05 -1.36790813e-05 3.02570734e-05 3.70314192e-05
      8.11496557e-06 9.38510639e-05 2.22194067e-05 -1.00227692e-06
      -2.03530890e-05 1.96021319e-05 9.16642693e-06 -6.19572165e-06
      1.92414209e-05 2.50048033e-05 2.13614821e-05 1.78794380e-05
      3.69961999e-05 3.92664915e-05 4.57568058e-06 2.78853531e-05
      3.69885602e-05 -3.12035954e-05 -8.77692128e-06 -6.41891006e-07
      -3.24843168e-05 -2.21261507e-05 -2.23650750e-05 -2.53890739e-05
      -2.37428394e-05 -3.04485056e-05 -1.77257243e-05 -2.50326193e-05
      -4.28962958e-05 -1.40588454e-05 -2.56977255e-05 -5.07434488e-05
      -1.25972765e-05 -1.44465575e-05 -4.89384292e-05 -2.21799692e-05
      -8.90222327e-06 -4.13328708e-05 -2.15935106e-05 8.16841111e-06
      -1.71847641e-05 -2.97992392e-05 1.36825438e-05 2.35655375e-06
      -4.19838079e-06 4.87283105e-05 4.74818771e-05 2.44429589e-06
      8.43625603e-05 1.12818190e-04 4.50295665e-05 1.80759889e-04
      -2.15158889e-05 -4.85639794e-05 -5.86929527e-05 -9.51495986e-06
      -2.36360866e-05 -3.33437492e-05 -5.22207347e-06 2.16199646e-06
      5.36794596e-06 1.94453660e-05 3.74250994e-05 4.41643861e-05
      1.48295931e-06 2.61600599e-05 4.06682848e-05 -5.29830504e-05
      -2.65823292e-05 -1.70799722e-05 -3.58732250e-05 -2.80738932e-05
      -2.41260168e-05 -2.80231325e-05 -2.64262835e-05 -3.42949716e-05
      -9.14979501e-06 -1.40294160e-05 -3.19004066e-05 -1.39456643e-05
      -2.16214776e-05 -4.63691576e-05 -2.50834328e-05 -2.37186578e-05
      -5.24994175e-05 -3.60477170e-05 -1.87519436e-05 -4.22360608e-05
      -2.57627635e-05 1.80678417e-05 2.23281177e-07 -2.31446484e-05
      3.99298260e-05 3.76355383e-05 -1.41060809e-05 7.04418489e-05
      8.47509000e-05 4.09644199e-05 1.55499976e-04 2.01718707e-04
      7.58683236e-05 2.27801167e-04 -2.01669263e-05 -4.86863573e-05
      -5.75730155e-05 -6.24016047e-06 -2.37868189e-05 -2.86641225e-05
      1.63720586e-06 3.02809849e-06 8.75199112e-06 1.76707399e-05
      3.42675958e-05 4.90992497e-05 -3.89757088e-06 2.37813856e-05
      3.94411290e-05 -5.77202009e-05 -3.50063128e-05 -2.18768728e-05
      -3.72029535e-05 -2.74566446e-05 -2.12921095e-05 -3.00887623e-05
      -3.06508373e-05 -3.50405571e-05 -1.33125677e-05 -2.16226545e-05
      -3.55982265e-05 -1.87290352e-05 -2.27514374e-05 -4.83973272e-05
      -2.60616871e-05 -2.21056562e-05 -5.10454993e-05 -3.17611193e-05
      -6.37341873e-06 -3.03796915e-05 -2.45974952e-05 2.80180175e-05
      1.34131014e-05 -3.67755347e-05 4.76165369e-05 5.09247948e-05
      -1.75011082e-05 9.52100090e-05 1.18519434e-04 4.57607057e-05
      1.85955447e-04 2.40696812e-04 6.45512846e-05 2.33687097e-04
      -8.14174291e-06 -4.08587803e-05 -5.01509312e-05 1.10160790e-05
      -8.23468235e-06 -1.13500728e-05 1.15918765e-05 1.00838806e-05
      2.19200992e-05 1.54660283e-05 3.37908750e-05 5.40134788e-05
      -8.15120711e-06 1.75144414e-05 3.73308940e-05 -6.68857683e-05
      -4.32652996e-05 -2.49182322e-05 -3.94732670e-05 -2.78989173e-05
      -2.07042740e-05 -3.28170718e-05 -3.30324910e-05 -3.97923686e-05
      -1.87291444e-05 -2.34990657e-05 -4.06312975e-05 -1.69945070e-05
      -1.91178024e-05 -4.60571755e-05 -2.11560528e-05 -1.65050824e-05
      -4.17273695e-05 -2.17983397e-05 3.81862810e-06 -1.90852697e-05
      -1.83008106e-05 3.31302108e-05 2.98647392e-05 -3.48899521e-05
      5.36189254e-05 6.92541216e-05 -1.02981194e-05 1.21537181e-04
      1.59055970e-04 4.79925402e-05 2.09159523e-04 2.77412939e-04
      6.77338248e-05 2.48646102e-04 3.05056301e-06 -2.97535626e-05
      -3.74747906e-05 1.44029291e-05 -4.81491861e-06 -6.43910471e-06
      -5.66032577e-06 -2.75118896e-06 9.69609118e-06 9.67622054e-06
      2.86013346e-05 5.03443807e-05 -1.56965270e-05 1.01020914e-05
      3.38622158e-05 -7.57121525e-05 -4.95792228e-05 -3.04656387e-05
      -4.31276821e-05 -3.49473848e-05 -2.95657264e-05 -2.53534290e-05
      -2.63806851e-05 -3.25912515e-05 -2.11177667e-05 -2.27046858e-05
      -4.24747668e-05 -1.06754242e-05 -1.22442971e-05 -4.04682651e-05
      -1.39353597e-05 -1.14707864e-05 -3.72705508e-05 -2.05168544e-05
      -1.04233811e-06 -1.98601992e-05 -1.36650397e-05 3.22147243e-05
      3.26513618e-05 -3.16798760e-05 5.49359465e-05 7.88317629e-05
      1.07841004e-06 1.45937505e-04 1.87275684e-04 4.03086669e-05
      2.18644214e-04 2.93416932e-04 7.54250723e-05 2.67658092e-04
      1.68881616e-05 -1.84770597e-05 -2.63413676e-05 2.25937329e-05
      -1.05058587e-06 7.34502066e-07 -1.55655089e-05 -1.23152658e-05
      2.83525515e-06 -1.10274359e-05 9.34990021e-06 3.03629186e-05
      -2.14865704e-05 6.26735573e-06 3.32196796e-05 -7.21400866e-05
      -4.70280065e-05 -2.87758885e-05 -4.35768525e-05 -3.34998549e-05
      -2.50396133e-05 -2.68460881e-05 -2.59129829e-05 -3.41144041e-05
      -2.18598470e-05 -2.28821173e-05 -4.39989635e-05 -7.28292707e-06
      -1.21455614e-05 -4.32478409e-05 -3.90756895e-06 -8.62727029e-06
      -3.77680772e-05 -1.76900376e-05 -5.25178211e-06 -2.75816619e-05
      -8.14706982e-06 2.58281907e-05 3.24896537e-05 -2.28698827e-05
      5.28214005e-05 8.08075711e-05 1.10881365e-05 1.53763423e-04
      2.05144650e-04 3.78490731e-05 2.20333692e-04 3.02395085e-04
      7.01202953e-05 2.75434402e-04 1.91147774e-05 -1.61125972e-05
      -2.35187290e-05 1.80187781e-05 -4.03751028e-06 -3.03414390e-06
      -9.98400992e-06 -6.06383946e-06 7.16853992e-06 -2.18404311e-05
      5.02889804e-07 2.54648512e-05 -2.14259780e-05 1.00071902e-05
      3.67602115e-05 -6.91333262e-05 -4.74044209e-05 -2.96027538e-05
      -4.20246652e-05 -3.29181021e-05 -2.96141916e-05 -2.72755460e-05
      -2.47570970e-05 -3.76224707e-05 -2.02185092e-05 -2.26831144e-05
      -4.62188436e-05 -8.63699461e-06 -1.49970956e-05 -4.68485268e-05
      1.11701922e-06 -9.59613044e-06 -3.99452620e-05 -8.55217877e-06
      -8.34384718e-06 -2.77799172e-05 2.41669386e-06 2.19942413e-05
      3.07507180e-05 -1.64031499e-05 4.94195119e-05 8.10361307e-05
      1.61717289e-05 1.53221015e-04 2.09298043e-04 3.87375730e-05
      2.27220196e-04 3.14315344e-04 5.99564155e-05 2.70861550e-04
      2.17107354e-05 -1.65071215e-05 -2.34156723e-05 2.07377125e-05
      3.04787648e-07 -3.59970358e-07 1.46634818e-06 6.26297924e-06
      2.22135077e-05 -2.97879797e-05 -4.32549223e-06 1.94036238e-05
      -2.80331988e-05 2.20399374e-06 3.02541102e-05 -6.91504538e-05
      -4.30438376e-05 -2.42842289e-05 -3.73376570e-05 -3.03068646e-05
      -2.54780753e-05 -2.91842534e-05 -2.78784773e-05 -3.93199807e-05
      -2.11746883e-05 -2.37164040e-05 -4.91078245e-05 -7.00787268e-06
      -1.46514103e-05 -5.05188873e-05 3.12459360e-06 -1.12960506e-05
      -4.20898432e-05 3.87630007e-06 -1.09166640e-05 -2.83099052e-05
      5.34391074e-06 1.14139375e-05 2.22097005e-05 -7.56383088e-06
      4.59247713e-05 8.05615127e-05 1.06216376e-05 1.42715231e-04
      2.02509647e-04 4.81030438e-05 2.31307014e-04 3.23195680e-04
      5.84197041e-05 2.69032695e-04 3.65952837e-05 5.55741190e-06
      -2.82116594e-06 2.43691138e-05 4.42497549e-06 1.99084980e-06
      1.22925667e-06 5.89188357e-06 2.06204259e-05 -1.85559984e-05
      1.78736150e-06 2.56195290e-05 -1.49079669e-05 2.83071904e-06
      2.93833909e-05 -6.25483735e-05 -4.55167537e-05 -2.48685228e-05
      -3.88409790e-05 -4.02583210e-05 -3.47889763e-05 -2.74042795e-05
      -3.25443616e-05 -4.46866652e-05 -1.57243921e-05 -2.20932307e-05
      -4.99087546e-05 -8.61951048e-06 -1.65846723e-05 -4.70253253e-05
      1.14360500e-06 -1.41325718e-05 -4.65188787e-05 -8.80074253e-07
      -1.04968349e-05 -2.35959997e-05 -2.58698537e-06 3.53861378e-06
      1.69544910e-05 -6.84078577e-06 4.32274937e-05 8.33266968e-05
      7.94100288e-06 1.37822732e-04 1.96463210e-04 5.31124024e-05
      2.34812949e-04 3.22136708e-04 6.15911267e-05 2.72728328e-04
      2.59717908e-05 9.32856256e-06 -2.12367991e-06 4.87884281e-05
      3.95690731e-05 3.02421377e-05 1.51160166e-05 2.20676666e-05
      2.79500728e-05 1.44958512e-05 2.79515079e-05 4.46578924e-05
      9.48894649e-06 1.35361570e-05 3.83655060e-05 -3.03858615e-05
      -3.02429071e-05 -7.77242803e-06 -3.50042865e-05 -4.27731065e-05
      -4.21573059e-05 -2.35744756e-05 -3.17913546e-05 -4.87645993e-05
      -1.02323895e-06 -7.52368896e-06 -4.16450748e-05 -1.48068748e-05
      -1.92579646e-05 -5.38533823e-05 1.32073382e-07 -1.83736247e-05
      -4.09108434e-05 -1.66294340e-05 -1.90046630e-05 -2.87646399e-05
      1.45881097e-06 1.90774663e-05 3.74872870e-05 -1.80617499e-05
      4.76546556e-05 8.78127830e-05 -2.18107016e-06 1.27515654e-04
      1.89743179e-04 5.62526729e-05 2.37409418e-04 3.21108731e-04
      7.21145771e-05 2.79914442e-04 6.33455129e-05 4.72502688e-05
      3.09613970e-05 4.90004531e-05 3.97641597e-05 2.96529088e-05
      2.61191944e-05 3.31570736e-05 3.55373049e-05 3.20945765e-05
      4.24282334e-05 5.32630293e-05 1.63380500e-05 1.55761209e-05
      3.67260218e-05 -2.35587740e-05 -2.77325125e-05 -1.22286874e-05
      -3.18573439e-05 -4.61123200e-05 -4.42919518e-05 -3.46148227e-05
      -4.66437778e-05 -6.31146686e-05 -7.81139261e-06 -1.38905834e-05
      -5.07447512e-05 -1.73960307e-05 -2.11379629e-05 -5.89067458e-05
      -1.48190029e-05 -2.19085159e-05 -4.87542420e-05 -2.15015843e-05
      -1.83462816e-05 -2.71467070e-05 -1.22141837e-05 1.70577096e-05
      3.77897668e-05 -3.08957351e-05 3.98785887e-05 8.37549596e-05
      -1.48101972e-05 1.12749258e-04 1.72395055e-04 5.86484311e-05
      2.32476435e-04 3.15683486e-04 8.22381480e-05 2.86270893e-04
      2.97948354e-05 1.52783105e-05 -7.66853827e-06 4.47968268e-05
      3.51234012e-05 1.68739934e-05 3.18234997e-05 3.89790839e-05
      3.73322764e-05 4.68247890e-05 6.10779025e-05 6.84416664e-05
      3.57454555e-05 3.84014929e-05 5.39369103e-05 -1.31293464e-05
      -1.70835683e-05 -2.02141973e-06 -2.43097820e-05 -3.88107110e-05
      -3.71911010e-05 -5.05707612e-05 -6.66753476e-05 -7.90178892e-05
      -2.46473646e-05 -2.75797975e-05 -6.09939816e-05 -2.35210609e-05
      -2.77204672e-05 -6.24054228e-05 -2.74122704e-05 -2.36524174e-05
      -5.46065712e-05 -3.19137835e-05 -1.90433093e-05 -3.24943940e-05
      -1.98329617e-05 1.98030266e-05 3.42186577e-05 -3.35985605e-05
      4.15857758e-05 8.11333230e-05 -1.71443935e-05 1.04677121e-04
      1.67321632e-04 6.93764305e-05 2.32731094e-04 3.22508044e-04
      8.65548354e-05 2.79824308e-04 1.24060953e-05 -9.76081174e-06
      -3.44353248e-05 2.52327736e-05 1.69809318e-05 -6.56060001e-06
      1.85488425e-05 2.67230789e-05 1.81496798e-05 2.56354833e-05
      4.23817401e-05 4.18353484e-05 2.84619218e-05 3.51789240e-05
      4.58593240e-05 -9.83533755e-06 -1.32779260e-05 -3.11173812e-06
      -2.61624937e-05 -3.95461393e-05 -3.89822235e-05 -4.63080396e-05
      -5.88201401e-05 -7.39591705e-05 -4.24182363e-05 -5.05463577e-05
      -7.85379816e-05 -3.02595381e-05 -2.77857198e-05 -6.58143908e-05
      -2.70692944e-05 -2.20776255e-05 -5.21237016e-05 -3.98521515e-05
      -1.82574095e-05 -3.36884987e-05 -2.58270120e-05 1.65257461e-05
      2.84488178e-05 -3.76581520e-05 3.89882589e-05 7.56709996e-05
      -2.38828270e-05 9.35893477e-05 1.55175323e-04 8.22009388e-05
      2.36232241e-04 3.24272929e-04 8.82827080e-05 2.75568193e-04
      2.92906007e-05 4.65552557e-06 -1.92859152e-05 3.99507417e-06
      -6.52234530e-06 -3.12500561e-05 8.64905087e-06 1.41814353e-05
      8.93693482e-07 7.27910162e-07 9.77017407e-06 7.33953766e-06
      -8.64970480e-06 2.73654950e-06 4.35660513e-06 -4.87308807e-06
      -2.71397562e-06 2.82787778e-06 -1.60818508e-05 -2.44016101e-05
      -2.78045409e-05 -2.49667119e-05 -3.67414395e-05 -4.65872326e-05
      -6.39125137e-05 -6.80911326e-05 -9.67301166e-05 -2.95568607e-05
      -2.59221542e-05 -6.23433007e-05 -2.36640917e-05 -1.58539733e-05
      -4.54473484e-05 -3.47190471e-05 -8.22600032e-06 -2.82638557e-05
      -2.59350818e-05 2.30400565e-05 3.14346289e-05 -3.35153381e-05
      4.34224057e-05 7.57791786e-05 -2.55369614e-05 8.67244162e-05
      1.45945625e-04 8.01510978e-05 2.32762599e-04 3.18155682e-04
      9.02780666e-05 2.74302409e-04 4.97327928e-05 2.64849386e-05
      4.87528951e-06 1.81201867e-05 1.98173279e-06 -2.10287490e-05
      3.78528348e-05 4.39022515e-05 2.82845685e-05 5.92846163e-06
      1.75009063e-05 6.55775011e-06 -3.38919199e-05 -2.76805113e-05
      -3.15740144e-05 3.62690321e-06 7.53133145e-06 3.71963120e-06
      -1.02822050e-05 -1.49989173e-05 -2.11674796e-05 -1.11513191e-06
      -1.05845402e-05 -2.68869771e-05 -7.33581110e-05 -8.03611765e-05
      -1.11812406e-04 -5.41478294e-05 -5.35654908e-05 -8.95616322e-05
      -3.87786968e-05 -3.21136395e-05 -6.50060101e-05 -2.52287973e-05
      -6.11662199e-06 -2.37543463e-05 -2.57309130e-05 2.11982078e-05
      2.57418014e-05 -2.54925635e-05 4.80836607e-05 8.06582393e-05
      -1.80361076e-05 9.03457767e-05 1.50554115e-04 8.20468413e-05
      2.31138984e-04 3.13483353e-04 8.50720535e-05 2.67868600e-04
      5.35452418e-05 3.35004152e-05 1.91193722e-05 4.47694656e-05
      3.46713787e-05 1.65255933e-05 4.80234339e-05 4.83144977e-05
      3.70796697e-05 2.31695776e-05 2.87458352e-05 1.71780994e-05
      -4.06124345e-05 -3.73214607e-05 -4.54411929e-05 9.97045663e-06
      1.59102055e-05 4.83491522e-06 1.99760070e-05 1.67070830e-05
      1.86355419e-06 9.21106505e-07 -5.63780941e-06 -2.62728609e-05
      -6.60465375e-05 -7.39659808e-05 -1.07372660e-04 -7.03968108e-05
      -8.08552650e-05 -1.16197210e-04 -5.73516008e-05 -6.24136082e-05
      -8.57730774e-05 -3.19440041e-05 -2.32650455e-05 -3.82232174e-05
      -2.96829130e-05 2.48943115e-06 1.35750852e-05 -2.64142982e-05
      4.11991386e-05 7.58659735e-05 -2.21900136e-05 8.89579678e-05
      1.43762634e-04 7.52238557e-05 2.24659030e-04 3.05964146e-04
      7.85393204e-05 2.68484524e-04 1.63621844e-05 2.12192731e-06
      -6.83274220e-06 5.20959657e-05 4.16696894e-05 3.34726938e-05
      5.06237811e-05 4.90545754e-05 4.27121049e-05 1.72251862e-06
      1.04071728e-06 -5.40372275e-06 -5.34606734e-05 -5.68733012e-05
      -6.71515227e-05 -4.58705608e-06 -1.20725781e-05 -2.73815422e-05
      5.57705353e-05 5.20965586e-05 3.16467704e-05 1.49948009e-05
      7.08145217e-06 -2.31774884e-05 -2.50963494e-05 -3.94161798e-05
      -7.29358726e-05 -5.27679986e-05 -6.95339986e-05 -1.04299717e-04
      -4.88968253e-05 -6.70304507e-05 -9.41760591e-05 -3.45336484e-05
      -3.92548427e-05 -5.36343287e-05 -3.18038874e-05 -8.97039808e-06
      2.04600525e-07 -2.35477455e-05 3.81423451e-05 7.04519334e-05
      -2.10765211e-05 8.28411648e-05 1.35618480e-04 7.63112184e-05
      2.22918854e-04 2.99838197e-04 7.87042591e-05 2.66787538e-04
      -3.95883508e-05 -4.43695062e-05 -4.52329659e-05 1.25875367e-05
      8.88539125e-06 4.49199979e-06 2.20971342e-05 2.19201193e-05
      1.75903897e-05 -1.44852784e-05 -1.80055486e-05 -2.20660222e-05
      -4.64092627e-05 -5.08857047e-05 -6.24564927e-05 -2.70599576e-05
      -4.03233316e-05 -5.64708098e-05 -1.83160446e-05 -2.55006616e-05
      -5.62941241e-05 1.09310031e-05 1.54781412e-06 -3.55488810e-05
      -7.99423287e-06 -2.82865840e-05 -6.39379650e-05 -3.33349599e-05
      -5.52410675e-05 -8.99554652e-05 -2.16472945e-05 -4.51501692e-05
      -6.91005043e-05 -3.03103589e-05 -4.43660356e-05 -5.63782050e-05
      -3.14516801e-05 -2.01738021e-05 -6.47566230e-06 -1.94876684e-05
      2.75957682e-05 5.54186772e-05 -1.09176526e-05 7.85993761e-05
      1.28588072e-04 7.78744579e-05 2.10637925e-04 2.83335190e-04
      8.19661946e-05 2.57400330e-04 -4.75384695e-05 -4.30595028e-05
      -3.64752814e-05 -5.29080426e-05 -4.89867489e-05 -4.71897220e-05
      -1.88780050e-05 -2.00201193e-05 -1.91627169e-05 2.12394716e-05
      1.61075423e-05 1.41873497e-05 -5.64934180e-06 -1.78203572e-05
      -2.55932828e-05 -3.97216763e-06 -1.79022518e-05 -3.68784749e-05
      9.01940075e-06 -5.44486238e-06 -3.28939059e-05 2.26765842e-05
      5.18448451e-06 -3.06164657e-05 6.84687402e-05 4.75145716e-05
      1.00271445e-05 6.70768031e-06 -1.61894786e-05 -5.47195741e-05
      1.65425790e-05 -1.18752851e-05 -3.58266770e-05 -2.86854392e-05
      -4.61441632e-05 -5.56210762e-05 -5.65026239e-05 -5.35781037e-05
      -4.74541557e-05 -4.76833302e-05 -1.19756578e-05 1.59079846e-05
      -5.04964992e-05 2.40289755e-05 6.41336956e-05 5.07475088e-05
      1.58879746e-04 2.21113820e-04 6.74977928e-05 2.20904665e-04
      -2.74705599e-05 -1.37432089e-05 -5.32399235e-06 -3.15706966e-05
      -2.19861377e-05 -1.64985831e-05 9.55700034e-06 8.86719590e-06
      1.65065176e-05 4.25217622e-05 3.39748185e-05 3.79852390e-05
      3.04504483e-05 1.29970813e-05 1.10514211e-05 6.72202168e-06
      -1.24154885e-05 -2.39482415e-05 1.24918597e-05 -6.32343199e-06
      -2.84398338e-05 4.95937566e-05 2.86926825e-05 -7.18100227e-06
      8.53484817e-05 6.54633623e-05 2.60180550e-05 5.43422211e-05
      3.55575758e-05 -2.60541515e-06 4.58954446e-06 -1.98963135e-05
      -4.56476082e-05 -2.32364509e-05 -4.08415326e-05 -5.72749486e-05
      -5.75627964e-05 -5.91167991e-05 -5.45674375e-05 -6.79492368e-05
      -4.71741878e-05 -2.87219500e-05 -4.95469139e-05 -5.78134802e-07
      3.37899801e-05 3.48049143e-05 1.12207228e-04 1.60085561e-04
      4.54256005e-05 1.58649695e-04 -4.67867067e-05 -3.03007801e-05
      -2.13654002e-05 -1.12936468e-05 3.68627593e-06 1.08642844e-05
      2.40515274e-05 2.83716308e-05 3.52925672e-05 5.20158392e-05
      4.71646672e-05 5.04730888e-05 2.54154293e-05 1.01886508e-05
      1.10135552e-05 -1.26346413e-06 -2.08459933e-05 -2.89437030e-05
      -1.13016058e-05 -2.70512101e-05 -4.85009878e-05 1.58541188e-05
      -2.27285068e-06 -3.44114669e-05 2.86616360e-05 1.22485544e-05
      -2.17291854e-05 5.17149274e-05 3.27755697e-05 -1.84299256e-06
      3.25999026e-05 1.11438276e-05 -1.52008515e-05 7.23202106e-07
      -1.65223773e-05 -3.35985314e-05 -7.44282124e-06 -1.55732287e-05
      -1.77762449e-05 -2.37735239e-05 -1.72124255e-05 -9.67006963e-06
      -3.58709294e-05 -1.10904175e-05 7.20243406e-06 -1.68854058e-06
      4.13261660e-05 7.03174592e-05 3.46399247e-05 1.04505118e-04
      -4.00342833e-05 -2.51495749e-05 -1.45512295e-05 -3.26532222e-06
      9.08988477e-06 1.63742770e-05 2.81597313e-05 3.19055871e-05
      3.69418412e-05 4.00567005e-05 3.34104261e-05 3.66779786e-05
      1.91252348e-05 9.78774551e-06 7.92672199e-06 -1.42840381e-05
      -2.40750433e-05 -3.23716704e-05 -1.57538980e-05 -2.42424139e-05
      -3.97001459e-05 -2.44618673e-06 -1.15455896e-05 -3.95456918e-05
      1.64484900e-05 4.39194218e-06 -2.43936356e-05 2.16225835e-05
      7.81534709e-06 -2.01126513e-05 -1.33778667e-05 -3.29391441e-05
      -5.89979245e-05 -2.51274869e-05 -4.26435035e-05 -6.18714475e-05
      -4.55519730e-05 -5.67479146e-05 -6.91406458e-05 -8.47478896e-06
      -1.42773097e-05 -2.05701272e-05 3.87261389e-06 2.30578689e-06
      1.45539491e-06 -3.93024820e-05 -2.48335855e-05 -2.24210107e-05
      -6.64618346e-05 -3.72052818e-05 -4.63272409e-05 -3.52448369e-05
      -2.71704812e-05 -5.92039441e-06 2.79409824e-06 8.80172593e-06
      3.76427924e-05 3.97864424e-05 4.63549222e-05 3.88531116e-05
      4.07151674e-05 4.23659767e-05 3.02186108e-05 3.24545144e-05
      3.07527007e-05 -4.47131242e-06 -8.15627061e-07 -1.21684752e-05
      -1.09090615e-05 -7.57887710e-06 -2.28598201e-05 1.10278017e-06
      9.57538546e-08 -1.77720904e-05 1.04777573e-05 5.56174564e-06
      -1.75968125e-05 2.20259790e-05 1.31944316e-05 -8.64191497e-06
      8.82757922e-06 -7.87952831e-06 -3.06237562e-05 7.56724921e-06
      -1.32310379e-05 -3.40240003e-05 -1.70767235e-05 -3.46462475e-05
      -5.23778617e-05 -3.34239958e-05 -4.98571062e-05 -7.02318430e-05
      -6.02509635e-06 -2.19823378e-05 -4.03430386e-05 -1.45850381e-05
      -2.25852418e-05 -4.32692759e-05 -4.12945228e-05 -3.67215216e-05
      -4.02884598e-06 -8.36706113e-06 1.58722503e-06 9.42619499e-06
      8.52004268e-06 1.50900360e-05 2.73070818e-05 2.86112281e-05
      3.07443552e-05 4.29547399e-05 4.86374593e-05 4.32654269e-05
      4.44372781e-05 5.51860903e-05 4.99993730e-05 5.22771018e-07
      1.80142997e-05 6.08366827e-06 -2.08643487e-05 -5.13930945e-06
      -1.94799468e-05 1.91913344e-07 1.20205332e-05 -2.07106928e-06
      1.34686061e-05 1.67079415e-05 1.47866569e-06 4.69631523e-05
      4.51047090e-05 2.77114450e-05 2.79474152e-05 1.39745644e-05
      -4.60738329e-06 5.52582060e-05 3.55031334e-05 1.28083211e-05
      5.76888633e-05 3.48398680e-05 7.85527482e-06 4.35119591e-06
      -2.25505537e-05 -5.18246852e-05 -2.41112448e-05 -5.05072312e-05
      -8.52734520e-05 -1.67705366e-05 -3.52879506e-05 -7.99394620e-05
      -2.60842044e-05 -2.60730158e-05 -3.22631822e-05 -3.59188743e-05
      -2.83985883e-05 -9.99339363e-07 -2.28568160e-06 3.63524077e-06
      1.12254838e-05 1.20915192e-05 1.65894562e-05 2.41391372e-05
      3.22886808e-05 2.89133968e-05 2.02681531e-05 3.48280846e-05
      2.75590246e-05 -1.18904682e-05 7.11492430e-06 -3.56057990e-06
      -2.04027820e-05 2.25827421e-06 -1.03326020e-05 1.76510184e-05
      3.87896434e-05 2.47034459e-05 3.86638567e-06 1.55756024e-05
      3.35872824e-06 2.57831307e-05 2.75589355e-05 1.53496076e-05
      2.10207054e-06 -2.39694555e-06 -1.92495536e-05 -9.74313662e-06
      -2.36515843e-05 -4.74543413e-05 3.02581921e-05 6.56433212e-06
      -2.43185259e-05 4.54333458e-05 1.96509754e-05 -1.94879995e-05
      2.29287652e-05 -4.40421854e-06 -5.43741298e-05 -1.58135826e-05
      -4.14144488e-05 -9.40604587e-05 -3.28635651e-05 -4.25218313e-05
      -5.43324459e-05 -5.50300938e-05 -5.00523602e-05 -4.26875995e-05
      -4.20629949e-05 -3.52758580e-05 -2.19673930e-05 -1.96862784e-05
      -1.54212848e-05 -1.35548471e-05 -9.92908735e-06 -8.44653914e-06
      -6.45310001e-06 2.33491210e-06 -7.67367055e-07 -3.39104590e-05
      -1.86876168e-05 -2.93527337e-05 -2.99758285e-05 -1.07513415e-05
      -2.54696588e-05 -1.64402572e-05 -3.35015989e-06 -1.39871372e-05
      -1.67454582e-05 8.28243799e-07 -1.28728179e-05 2.16644639e-06
      1.29002092e-05 2.03750096e-06 -3.68779838e-05 -3.32782110e-05
      -4.56757443e-05 -2.19055801e-05 -2.58805849e-05 -4.47199163e-05
      -8.38144024e-06 -2.70616238e-05 -5.37845517e-05 1.26442192e-05
      -4.52598897e-06 -4.27637315e-05 2.34104973e-05 1.03031778e-06
      -4.89805352e-05 -9.79661399e-06 -2.93699286e-05 -8.85671543e-05
      2.33863066e-05 2.22238555e-06 -4.54245783e-05 -4.59277362e-05
      -3.70849557e-05 -3.99296296e-05 -3.94577146e-05 -3.34084762e-05
      -2.04719727e-05 -1.93976975e-05 -1.01765027e-05 3.56321607e-06
      5.69844315e-06 1.00110947e-05 2.06972654e-05 2.93297035e-05
      2.68679596e-05 -7.77063087e-06 2.31676518e-06 -6.65587550e-06
      -1.97927438e-05 -5.31358955e-06 -1.92015832e-05 -2.54766474e-05
      -1.06818779e-05 -2.39379224e-05 1.78316750e-05 3.69717745e-05
      2.49155073e-05 4.11584151e-05 5.69290205e-05 4.75758607e-05
      2.34438812e-06 1.24942189e-05 1.61104481e-06 1.37873383e-06
      3.66881250e-06 -1.09417333e-05 4.46416334e-06 -5.08526955e-06
      -3.45562512e-05 3.30242692e-05 1.90298815e-05 -1.73756034e-05
      5.97503022e-05 4.21464320e-05 -9.76013325e-06 3.91217291e-05
      2.13526764e-05 -3.90012465e-05 5.82679277e-05 3.39514481e-05</_>
    <_>
      6.04637808e-06 1.59945466e-05 7.83648738e-06 5.17864964e-06
      1.19697452e-05 4.81531060e-06 1.64361863e-05 1.98833841e-05
      1.32490268e-05 2.56568073e-05 2.94263536e-05 2.44632647e-05
      2.14761731e-05 2.53586713e-05 1.96512829e-05 5.43609895e-06
      9.91754223e-06 4.47493358e-06 3.69182817e-06 1.30838989e-05
      6.00247495e-06 3.17973318e-05 4.59411858e-05 3.74236915e-05
      -6.74138028e-06 1.05792451e-05 4.42218862e-07 -2.63449692e-05
      -5.47650916e-06 -1.73579137e-05 -8.44840451e-06 1.05021445e-05
      -2.44399098e-06 -2.60929282e-05 -1.07644209e-05 -2.42455280e-05
      -4.79471164e-05 -4.20123033e-05 -5.42121779e-05 -7.42914881e-06
      -9.52333085e-06 -2.03307718e-05 1.09373977e-05 9.15541875e-07
      -7.20267326e-06 4.45173428e-05 3.21912084e-05 2.38083430e-05
      7.31647788e-06 -1.09277835e-06 3.40922161e-05 4.36765040e-05
      3.53050127e-05 1.41903201e-05 2.26878255e-05 1.48764584e-05
      2.44483745e-05 3.21077387e-05 2.48919350e-05 2.87747043e-05
      3.46275083e-05 2.83828449e-05 1.58367584e-05 2.01558196e-05
      1.39779804e-05 2.49723653e-05 2.89156724e-05 2.24948162e-05
      1.63574314e-05 2.55109571e-05 1.81771229e-05 1.66982609e-05
      2.82072870e-05 1.95900684e-05 -3.16738042e-05 -1.74829711e-05
      -2.84511880e-05 -2.13998610e-05 -4.97736301e-06 -1.63514342e-05
      -1.78093123e-05 -1.69279122e-06 -1.45155964e-05 -2.02890824e-05
      -7.85845168e-06 -2.13634539e-05 -2.36007127e-05 -1.88053255e-05
      -2.98998821e-05 -7.08235802e-06 -9.21033552e-06 -1.75919595e-05
      -1.41898608e-05 -2.36925080e-05 -3.25326910e-05 3.96559926e-06
      -6.74332023e-06 -1.35837363e-05 -2.38595512e-05 -3.00520296e-05
      4.29405700e-05 5.35141335e-05 4.48781757e-05 5.78201298e-06
      1.56813567e-05 7.48364118e-06 4.00721765e-05 4.98494664e-05
      4.06104627e-05 1.89458242e-05 2.69857373e-05 1.86722955e-05
      3.31382798e-05 3.97101394e-05 3.15829602e-05 3.42389249e-05
      4.06260733e-05 3.24980574e-05 3.39897888e-05 4.13915659e-05
      3.24954090e-05 2.91930937e-05 3.71644164e-05 2.88821611e-05
      -1.86223588e-05 -9.77242598e-06 -1.93701180e-05 -6.49368621e-06
      2.39099109e-07 -9.36322613e-06 -5.99552732e-06 1.60318189e-06
      -1.05167446e-05 2.15299679e-06 9.39377423e-06 -2.24158725e-06
      -1.35661849e-05 -1.24814514e-05 -2.31758986e-05 -3.77911128e-05
      -3.88317239e-05 -4.76243367e-05 -3.94981798e-05 -4.52631502e-05
      -5.55712104e-05 -1.92628650e-05 -2.64424980e-05 -3.50495720e-05
      -2.38909597e-05 -2.61364457e-05 4.26136867e-05 5.59914151e-05
      4.56579728e-05 8.19831621e-06 2.10363596e-05 1.10477322e-05
      2.86344966e-05 4.00359313e-05 2.97693914e-05 1.69509694e-05
      2.68054209e-05 1.75950026e-05 3.63370054e-05 4.44720754e-05
      3.41970335e-05 2.94989186e-05 3.62063693e-05 2.61803507e-05
      1.76659232e-05 2.31185695e-05 1.19336773e-05 2.63970669e-05
      2.89907512e-05 1.90732699e-05 -2.38548764e-05 -2.19337235e-05
      -3.10866926e-05 -1.50914957e-05 -1.38383220e-05 -2.37241129e-05
      -1.72313867e-05 -1.54550526e-05 -2.61578025e-05 -1.01776177e-05
      -1.01332262e-05 -2.02018255e-05 -3.89559973e-05 -3.91468784e-05
      -4.85920682e-05 -6.29848655e-05 -6.50877482e-05 -7.40673713e-05
      -4.73802247e-05 -4.97839719e-05 -5.88734074e-05 -8.95304038e-06
      -9.49134574e-06 -1.96959336e-05 -1.92852258e-05 -1.65117999e-05
      1.70063176e-05 3.34916513e-05 2.15748150e-05 1.27206731e-05
      2.87466428e-05 1.69093346e-05 3.25766705e-05 4.75808301e-05
      3.61166858e-05 2.38956545e-05 3.51132585e-05 2.40591307e-05
      2.52828449e-05 3.47428941e-05 2.35922416e-05 2.10368617e-05
      2.63055099e-05 1.51481527e-05 1.03644934e-05 1.15580115e-05
      7.86596161e-07 8.64554568e-06 7.44655608e-06 -2.53382063e-06
      -3.04473906e-05 -3.56829842e-05 -4.45212754e-05 -2.46629352e-05
      -3.02485278e-05 -3.79359371e-05 -2.56346739e-05 -3.19371866e-05
      -3.91934154e-05 -3.66942550e-05 -4.12285153e-05 -5.01303002e-05
      -3.43354368e-05 -3.49070542e-05 -4.34320755e-05 -2.97378447e-05
      -2.85664082e-05 -3.70313392e-05 -1.89048515e-05 -1.71116008e-05
      -2.59099943e-05 -1.72166583e-05 -1.31408788e-05 -2.26395150e-05
      -1.90620085e-05 -1.16441197e-05 -1.35445916e-05 6.43166686e-06
      -6.50328775e-06 -3.17706326e-05 -1.35705723e-05 -2.56204439e-05
      1.20932036e-05 2.81000011e-05 1.47911660e-05 3.48606263e-05
      4.75664056e-05 3.48294343e-05 1.01190481e-05 1.89218536e-05
      5.54796998e-06 -1.80515144e-06 1.60622869e-06 -1.02961758e-05
      -1.89263064e-05 -2.02000374e-05 -3.13467172e-05 -3.27797025e-05
      -3.86593711e-05 -5.04396776e-05 -2.66266197e-05 -3.47340174e-05
      -4.48787941e-05 -3.68921465e-05 -4.62617863e-05 -5.54121580e-05
      -2.43949034e-05 -3.42386084e-05 -4.18745913e-05 5.81178847e-06
      6.68808156e-08 -8.49748722e-06 6.73527074e-06 3.92784750e-06
      -2.62844651e-06 -1.31370361e-05 -1.08759577e-05 -1.91953550e-05
      -2.44600415e-05 -1.79640065e-05 -2.62264075e-05 -1.96003875e-05
      -1.09806806e-05 -2.03010604e-05 -2.30407968e-05 -1.25216247e-05
      -3.02114840e-05 -8.06687513e-06 -2.34370254e-05 -3.97658187e-05
      -1.93326105e-05 -3.38844475e-05 -5.44454315e-06 1.26704017e-05
      -2.83192162e-06 4.54241854e-06 1.69408995e-05 3.37393749e-06
      1.22164620e-05 2.01674520e-05 5.96113068e-06 -1.43044826e-05
      -1.21231869e-05 -2.44343100e-05 -3.39832295e-05 -3.61107377e-05
      -4.73091895e-05 -3.54697950e-05 -4.27621017e-05 -5.36089392e-05
      -4.12156696e-05 -5.08850062e-05 -6.13619777e-05 -2.52842619e-05
      -3.43295833e-05 -4.41442244e-05 9.47665831e-06 6.71535020e-07
      -8.19937577e-06 7.59088152e-06 1.82287579e-06 -4.67132941e-06
      -1.51434306e-05 -1.57723971e-05 -2.46361160e-05 -2.48356446e-05
      -2.04402404e-05 -2.85038823e-05 -1.94727909e-05 -9.94790025e-06
      -1.77159036e-05 -3.53832547e-05 -2.35430198e-05 -3.37328784e-05
      -4.36238588e-05 -3.28632850e-05 -5.53664577e-05 -3.08575909e-05
      -4.84103875e-05 -4.05119245e-05 -1.94461663e-05 -3.66283057e-05
      -1.95465218e-05 -2.36618439e-06 -1.91338731e-05 8.19666366e-06
      1.95275843e-05 4.84230623e-06 2.71436170e-06 8.92609660e-06
      -5.29089357e-06 8.34090679e-06 7.72102794e-06 -4.23472193e-06
      3.54289296e-06 -5.04076411e-07 -1.30060180e-05 -2.03018772e-05
      -2.76806986e-05 -3.82501676e-05 -2.08759175e-05 -2.89546242e-05
      -4.03037702e-05 -1.80194147e-05 -2.56406656e-05 -3.61964412e-05
      -9.70334440e-06 -1.63890545e-05 -2.55792747e-05 -8.93569450e-06
      -1.36168819e-05 -2.23750048e-05 -1.57617669e-05 -1.37627649e-05
      -2.31731829e-05 -3.56092096e-05 -2.81616212e-05 -3.74375340e-05
      -4.08848937e-05 -2.92882760e-05 -3.84603773e-05 -4.59950716e-05
      -3.27684284e-05 -4.26441657e-05 -2.33344672e-05 -1.01776832e-05
      -2.71394219e-05 -3.33413641e-06 -2.23649695e-05 -2.93743378e-05
      -8.99792212e-06 -2.73021578e-05 -1.41204309e-05 1.74644686e-06
      -1.54080044e-05 4.34078174e-06 1.35849577e-05 -2.90215007e-06
      1.62466004e-05 2.00779141e-05 6.11734458e-06 1.18610569e-05
      1.00042880e-05 -2.74994750e-06 -5.50337336e-06 -1.04794690e-05
      -2.27598248e-05 2.70191213e-05 2.16434546e-05 9.52446680e-06
      1.86459001e-05 1.24195631e-05 1.29668854e-06 -1.58041421e-05
      -1.92432635e-05 -3.09001443e-05 -2.97804363e-05 -3.06803449e-05
      -4.18225245e-05 -2.36043124e-05 -2.09297923e-05 -3.26266963e-05
      -2.75017446e-05 -2.19334179e-05 -3.19604187e-05 -3.11176191e-05
      -2.23490697e-05 -3.12804150e-05 -2.48656197e-05 -1.12661864e-05
      -2.10280195e-05 -8.11691189e-06 6.73639215e-06 -5.51068251e-06
      -1.21096391e-05 2.62301910e-06 1.40712400e-05 3.57116187e-05
      1.56570622e-05 1.15052435e-05 2.99416006e-05 1.18889257e-05
      1.70883995e-05 3.08255658e-05 1.16320280e-05 1.51556851e-05
      2.27646342e-05 6.12108124e-06 1.79957697e-05 1.97329373e-05
      6.53549614e-06 1.81457635e-05 1.56215283e-05 2.93924313e-06
      2.55558516e-05 2.25245931e-05 1.04295150e-05 4.23214296e-05
      3.99536584e-05 2.74073172e-05 8.74532725e-06 7.27718634e-06
      -5.62555078e-06 -2.24529231e-05 -2.11656952e-05 -3.42790518e-05
      -2.74270005e-05 -2.23254065e-05 -3.60595513e-05 -1.61830121e-05
      -9.25296536e-06 -2.23740426e-05 -1.55369671e-05 -6.67953373e-06
      -1.74774286e-05 -1.73234621e-05 -5.24389043e-06 -1.58534895e-05
      -1.17261825e-05 1.09323696e-06 -1.08858130e-05 -6.72843817e-06
      7.23753692e-06 -5.02284274e-06 -4.94519327e-06 9.42014140e-06
      4.57687065e-06 2.24765663e-05 2.90348680e-06 2.75264301e-06
      1.73739681e-05 -1.79773804e-06 -1.64134372e-06 9.29143880e-06
      -9.32233888e-06 2.58141381e-06 8.59108695e-06 -7.00762166e-06
      1.26289769e-05 1.17385680e-05 -7.61952265e-07 1.55461457e-05
      1.31983188e-05 6.05663573e-08 4.11319998e-05 3.99861055e-05
      2.65844301e-05 4.09756285e-05 4.14431233e-05 2.72815832e-05
      1.04958090e-05 1.34293759e-05 -2.28169966e-07 -1.07166416e-05
      -2.92747768e-06 -1.86041925e-05 -1.21314679e-05 -2.63281504e-06
      -1.63900204e-05 -7.47199101e-06 3.64481116e-06 -1.06636271e-05
      -7.39685811e-06 6.18007516e-06 -6.32933688e-06 -5.23834251e-06
      6.22382095e-06 -5.10971495e-06 -4.21064033e-06 7.92345600e-06
      -3.74127694e-06 -7.69238886e-06 5.60278932e-06 -7.77148580e-06
      -3.93531036e-06 9.84451526e-06 8.52940229e-06 2.15103628e-05
      3.21723815e-06 4.94473079e-06 1.67623421e-05 -1.87398734e-06
      -4.90621051e-06 2.81683856e-06 -1.26702935e-05 1.25111674e-05
      1.70044586e-05 2.23285747e-06 1.49969092e-05 1.36353465e-05
      1.88214415e-06 8.89421699e-06 8.64436424e-06 -4.29335751e-06
      1.85880235e-05 2.01618477e-05 6.29384749e-06 1.07228789e-05
      1.31327733e-05 6.84729571e-07 2.93656103e-06 8.99658335e-06
      -5.92047763e-06 -3.59197179e-06 7.01369527e-06 -9.12593168e-06
      -5.12238012e-06 8.00014732e-06 -7.51139032e-06 -6.90685738e-06
      6.82424616e-06 -6.96293273e-06 -7.48536922e-06 6.48153218e-06
      -6.94504888e-06 -7.24635902e-06 6.17382148e-06 -5.80145115e-06
      -3.83309089e-06 8.00079306e-06 -3.70868520e-06 1.03641378e-06
      1.26307023e-05 -2.48292281e-07 -2.84123507e-06 1.01993273e-05
      -7.72160456e-06 1.77498904e-07 -1.55741091e-05 -1.45401418e-05
      -6.90285879e-06 -2.25517870e-05 2.79700885e-06 9.07754293e-06
      -5.45821422e-06 7.99417285e-06 1.02205267e-05 -3.81092991e-06
      -2.51097163e-06 3.82165325e-07 -1.27614358e-05 -2.87836372e-07
      2.42713827e-06 -1.06359139e-05 6.71420366e-06 9.31000613e-06
      -4.29834608e-06 -3.88064194e-07 5.17339458e-06 -8.50308334e-06
      -6.35356946e-06 1.17988372e-06 -1.36467552e-05 -8.21068988e-06
      2.12912028e-06 -1.34908332e-05 -1.11717673e-05 7.02942998e-07
      -1.29792488e-05 -7.27311090e-06 6.73755767e-06 -7.50120034e-06
      -3.69844088e-06 9.34385298e-06 -4.76051355e-06 -5.32188415e-06
      7.01864701e-06 -3.40182487e-06 -4.08491360e-06 6.83056078e-06
      -3.38752034e-06 4.88773048e-06 1.45335880e-05 3.75082732e-06
      1.29662362e-06 1.19361648e-05 -1.34459078e-05 -9.00581563e-06
      -2.14865941e-05 -1.76701576e-06 1.79355561e-06 -1.09363482e-05
      7.16868817e-06 1.10596375e-05 -9.16876331e-07 -4.89365266e-06
      -1.82350743e-06 -1.36297713e-05 -8.96170695e-06 -4.83456006e-06
      -1.71136835e-05 -2.50878475e-06 3.57742670e-06 -1.06523503e-05
      7.39741108e-06 1.32824016e-05 -1.24051019e-06 1.06655207e-05
      1.60979616e-05 2.95305699e-06 1.47002170e-08 8.37460902e-06
      -6.28493353e-06 -4.48659466e-06 4.55104691e-06 -9.64016272e-06
      -1.19402939e-05 5.02832620e-07 -1.39709155e-05 -5.53913878e-06
      6.91844207e-06 -6.60580918e-06 8.79359675e-07 1.37472134e-05
      1.14739555e-06 9.20187688e-07 1.19126498e-05 2.32729190e-06
      -2.83075110e-06 7.02005764e-06 -2.28821091e-06 -1.79737958e-06
      7.30613237e-06 -2.62092180e-06 4.25252301e-06 1.15933199e-05
      5.63793901e-06 5.99504529e-06 -4.46299919e-06 9.90182252e-06
      1.06518037e-05 7.55024359e-07 -2.26770353e-05 -1.91575236e-05
      -3.10811629e-05 -1.65300644e-05 -1.15601479e-05 -2.46059608e-05
      -3.97878739e-06 9.99074132e-07 -1.22354450e-05 9.33418050e-06
      1.71000920e-05 3.22356459e-06 5.40461724e-06 1.28607817e-05
      -1.87762328e-06 3.18645981e-08 9.42594852e-06 -6.07378888e-06
      -7.92080215e-08 8.09107678e-06 -7.15785927e-06 -9.49279524e-07
      8.12039980e-06 -6.29020951e-06 -3.35537720e-06 6.14373084e-06
      -8.04472165e-06 -3.35584446e-06 5.93393179e-06 -4.78354605e-06
      3.23697634e-07 1.05993140e-05 -1.03043010e-06 2.46308844e-07
      1.04877408e-05 1.42900296e-06 -2.84234557e-06 6.95339122e-06
      -7.24667927e-07 -3.35006030e-06 5.46695583e-06 -2.50529388e-06
      4.22278072e-06 8.37081461e-06 1.53292217e-06 -2.94185179e-06
      -1.30935714e-05 -2.40211557e-05 -2.63754246e-05 -3.79332196e-05
      -4.01273501e-05 -3.95701027e-05 -4.77129288e-05 -2.97794613e-05
      -2.52290865e-05 -3.39671278e-05 -9.22803883e-06 -1.73463980e-06
      -1.15915545e-05 1.22206084e-05 2.18915102e-05 1.15233415e-05
      -1.38014855e-06 9.18172827e-06 -3.43876650e-06 2.67288101e-06
      1.39449203e-05 1.62713775e-06 -9.92368768e-06 1.15870000e-06
      -1.01227270e-05 -6.17086926e-06 5.20985850e-06 -5.46956971e-06
      -2.72904003e-06 7.79926268e-06 -3.67329585e-06 -5.29938188e-06
      5.10366544e-06 -5.38307768e-06 -4.33012474e-06 6.36741197e-06
      -4.10014991e-06 -4.85248984e-06 6.51535493e-06 -2.41509611e-06
      -5.18927027e-06 6.54566202e-06 -4.84028135e-07 -1.12987539e-06
      8.94583900e-06 1.28079012e-06 2.02601063e-06 9.28040754e-06
      1.42335730e-05 5.93148741e-07 -1.32991972e-05 -1.31216702e-05
      -2.28379213e-05 -3.43051179e-05 -6.01576039e-06 -7.24040819e-06
      -1.40677175e-05 1.08217528e-05 1.53628844e-05 1.25186853e-05
      1.32676030e-06 1.07533342e-05 8.12236431e-06 -5.46087040e-06
      5.57854173e-06 4.46870308e-06 -1.04250671e-06 1.21207840e-05
      7.95909909e-06 -9.43902069e-06 4.51241021e-06 -1.20489574e-06
      -1.11117824e-05 3.38169411e-06 -2.80126233e-06 -8.60397540e-06
      5.98404858e-06 -6.89960473e-07 -6.07288939e-06 7.25760901e-06
      -2.35860534e-06 -4.12101690e-06 8.87159968e-06 -8.78693186e-07
