<?xml version="1.0"?>
<opencv_storage>
<my_svm type_id="opencv-ml-svm">
  <svm_type>C_SVC</svm_type>
  <kernel><type>LINEAR</type></kernel>
  <C>100.</C>
  <term_criteria><epsilon>2.2204460492503131e-16</epsilon>
    <iterations>100</iterations></term_criteria>
  <var_all>2500</var_all>
  <var_count>2500</var_count>
  <class_count>2</class_count>
  <class_labels type_id="opencv-matrix">
    <rows>1</rows>
    <cols>2</cols>
    <dt>i</dt>
    <data>
      1 2</data></class_labels>
  <sv_total>1</sv_total>
  <support_vectors>
    <_>
      -2.13818530e-05 -9.38363883e-06 3.52933944e-06 -1.65213878e-05
      -8.70872282e-06 5.80893584e-06 -6.48723835e-06 -2.61435662e-06
      1.05076479e-05 -2.29623474e-05 -2.02148112e-05 -3.57457998e-06
      1.11080744e-05 1.36402996e-05 2.96308444e-05 1.22822494e-05
      1.34389566e-05 2.92721579e-05 -1.12869102e-05 -9.99452368e-06
      3.75731770e-06 -5.66113340e-06 -5.99359737e-06 9.04490753e-06
      -9.99412259e-06 -1.13867154e-05 4.59124840e-06 -1.67233866e-05
      -1.80174138e-05 -1.61433934e-06 -8.37257448e-06 -4.96750590e-06
      1.01539781e-05 -1.69630894e-05 -5.30724401e-06 4.63361584e-06
      -1.87595269e-05 1.51884990e-06 6.80797802e-06 -1.25012239e-05
      1.25957522e-05 1.81600753e-05 -2.64088267e-05 -7.67160770e-07
      -2.65745780e-06 -2.86448812e-05 -8.81418600e-06 -9.65923846e-06
      -3.38593782e-05 -2.29945708e-05 -2.02275260e-05 -1.30115341e-05
      -6.23751646e-07 -3.67062239e-05 -3.06150760e-05 -1.55430262e-05
      -2.35849038e-05 -1.74106663e-05 -4.06655045e-06 -2.65698600e-05
      -2.31091890e-05 -5.43737360e-06 -6.67997074e-06 -6.28184625e-06
      9.71310328e-06 -1.87376263e-05 -1.91163072e-05 -4.99455655e-06
      -1.99168862e-05 -1.96517976e-05 -6.02903037e-06 -1.53928358e-05
      -1.60286490e-05 -2.14921306e-06 -1.58003149e-05 -1.71926058e-05
      -1.51591121e-06 -1.83576940e-05 -1.70045951e-05 -5.23789686e-06
      -1.19520482e-05 -3.14693875e-06 5.11315102e-06 -2.38657376e-05
      -9.35193202e-06 -2.85344208e-06 -2.83586705e-05 -1.00856996e-05
      -2.31041690e-06 -3.87180407e-05 -1.67937469e-05 -1.33117810e-05
      -2.68247422e-05 -9.10416475e-06 -6.83996268e-06 -1.18273529e-05
      4.81843608e-06 -4.90061751e-08 -4.14330789e-05 -2.99433341e-05
      -1.41956525e-05 -9.72233829e-06 -1.52186794e-06 -3.32753625e-05
      -2.87881794e-05 -1.91191630e-05 -2.20254860e-05 -1.40706134e-05
      -6.63463834e-06 -2.24952928e-05 -1.67472190e-05 -5.71213968e-06
      -3.68677938e-05 -3.71254391e-05 -2.74586928e-05 -2.53585167e-05
      -3.01337404e-05 -1.88000522e-05 -9.61848059e-07 -4.83976692e-06
      4.75872412e-06 -2.48938813e-05 -2.92981022e-05 -1.99951082e-05
      -1.26908617e-05 -1.84449800e-05 -9.25145741e-06 -1.69788673e-05
      -1.85357057e-05 -1.56307142e-05 -5.91299977e-06 1.47124933e-06
      2.86067097e-06 -1.04311694e-05 2.89694935e-06 5.26619169e-06
      -1.47457704e-05 4.20773404e-06 5.62300606e-08 -9.13081567e-06
      1.56077003e-05 8.85314932e-08 3.19965948e-05 5.03523115e-05
      1.30951466e-05 3.45370427e-05 4.72753272e-05 -3.04860851e-06
      8.16700594e-06 1.81702489e-05 -1.93443502e-05 -1.03261345e-05
      -1.06104073e-06 -3.07749542e-05 -2.27590153e-05 -1.28665415e-05
      -3.33762582e-05 -2.02704068e-05 -1.39998228e-05 -3.02944682e-05
      -1.86855686e-05 -9.87518160e-06 -2.58464534e-05 -1.99623337e-05
      -1.14407258e-05 -2.22722356e-05 -2.31797731e-05 -1.26453269e-05
      -2.71652789e-05 -2.81237735e-05 -1.84445307e-05 -3.23535751e-05
      -3.52606876e-05 -2.38265347e-05 -1.48460958e-05 -1.82843705e-05
      -1.00665357e-05 -1.94482545e-05 -2.11775168e-05 -1.35346454e-05
      -8.96465463e-06 -4.67610505e-07 3.21455195e-06 -3.06727343e-05
      -1.19330816e-05 -1.52722077e-05 4.78467291e-06 3.23719541e-05
      -1.19163969e-05 -2.59666035e-06 2.15291202e-05 -1.30690323e-05
      5.89648016e-06 2.73808837e-05 -9.01662861e-06 7.90435479e-06
      2.33048650e-05 -2.47011885e-05 2.12745799e-05 3.26756272e-05
      -1.88818140e-05 -1.39387669e-06 6.20199808e-06 -1.45054328e-05
      -8.95473818e-07 8.83635312e-06 -2.56197891e-05 -9.99568692e-06
      -3.92272159e-06 -2.74011854e-05 -1.15777975e-05 -3.18392699e-06
      -3.14427052e-05 -1.66675909e-05 -1.03394259e-05 -3.50566115e-05
      -2.36342439e-05 -1.45814174e-05 -3.89854649e-05 -2.82641668e-05
      -1.94033455e-05 -3.70663001e-05 -2.59865519e-05 -1.63108016e-05
      -3.24849607e-05 -2.19900157e-05 -1.40358889e-05 -1.50961423e-05
      -4.15948853e-06 -1.12289047e-06 -1.84074761e-05 5.21903394e-06
      -1.75781606e-05 -4.11991550e-06 1.35026012e-05 -3.58436887e-06
      -9.73468650e-06 2.79572282e-06 -1.11267827e-05 7.46505521e-06
      2.47559838e-05 -1.75731493e-05 1.87656697e-05 2.99608982e-05
      -6.70312875e-06 1.30725766e-05 2.09985938e-05 -1.03365519e-05
      1.23735554e-05 1.76185858e-05 -8.01623264e-06 7.71471787e-06
      1.44608457e-05 -1.50068454e-05 -2.30047476e-07 6.60593514e-06
      -1.41389028e-05 1.52154200e-06 4.00585441e-06 -1.69108407e-05
      -1.17617276e-06 3.67619941e-06 -4.37070958e-06 1.14541790e-05
      1.62487522e-05 -8.89780949e-06 1.10780975e-05 1.48704503e-05
      -7.54666462e-06 1.40438160e-05 1.74004017e-05 -9.54995448e-06
      8.73059525e-06 1.26596769e-05 1.09200556e-07 1.55504931e-05
      1.87579226e-05 -9.18629939e-06 1.40800439e-05 -1.22389847e-05
      2.66021789e-06 1.58397925e-05 5.07878167e-06 2.27350347e-06
      1.86758389e-05 -1.53179790e-05 2.29866419e-05 3.71132810e-05
      -7.12475003e-06 2.56571730e-05 3.42897547e-05 -5.95956635e-07
      1.03967386e-05 1.58857129e-05 -4.23415759e-06 1.18245507e-05
      1.62688502e-05 5.29876297e-06 1.31312772e-05 1.80605111e-05
      -8.43951398e-07 1.38272171e-05 2.04073549e-05 5.75870672e-06
      2.11168681e-05 2.67563919e-05 5.59150931e-06 1.96421479e-05
      2.34155559e-05 -7.88256602e-06 6.96224106e-06 1.21487346e-05
      -3.23107383e-06 1.03371940e-05 1.29696955e-05 -1.32349851e-05
      6.90727074e-06 4.85357941e-06 1.65699385e-05 3.49322363e-05
      3.19532155e-05 1.01758460e-05 2.34253694e-05 1.67743365e-05
      2.81727580e-06 2.08664078e-05 1.13273836e-05 -4.16692201e-05
      -2.16936351e-05 -2.87110615e-05 4.48295305e-06 1.77683760e-05
      -1.77701768e-05 2.63884976e-05 3.74800402e-05 -9.28521422e-06
      7.83385258e-06 1.65975198e-05 -6.22010293e-06 5.37321421e-06
      1.09393304e-05 4.83271970e-06 1.39351505e-05 1.59180363e-05
      9.43435953e-06 1.22479196e-05 1.02986623e-05 1.18763110e-05
      6.18511251e-07 3.77306009e-07 -3.79587419e-07 1.01561327e-05
      1.70920775e-05 8.41660585e-06 1.97317258e-05 2.54109891e-05
      -7.99839290e-06 8.06864762e-07 6.39924110e-06 -1.24381604e-05
      -2.63706738e-06 4.57235819e-06 -1.32734594e-05 -4.37457720e-06
      -4.03421609e-06 -7.16713157e-06 4.57786109e-06 7.25279233e-06
      8.67233393e-06 8.84943074e-06 7.74437649e-06 1.68339989e-06
      5.55660336e-06 8.66424728e-07 -2.72594334e-05 -2.02477877e-05
      -2.84187136e-05 -5.25097767e-06 1.05943354e-05 -2.40770332e-05
      1.72651999e-05 2.54183778e-05 -7.73457759e-06 1.11011204e-05
      1.81948453e-05 3.07472237e-06 1.35714681e-05 1.41817491e-05
      1.09220555e-05 1.22478377e-05 9.63829370e-06 1.39215963e-05
      -2.49993877e-06 3.40261636e-06 5.16226510e-06 -3.69893642e-05
      -3.69460140e-05 -9.16370936e-06 -1.37004436e-05 -2.24754094e-05
      -3.72031792e-07 3.25179053e-06 1.15653620e-05 7.16062516e-07
      4.68358076e-06 1.11058253e-05 8.01643819e-06 8.78243281e-06
      1.35052233e-05 6.42404848e-06 9.88311058e-06 1.47386736e-05
      -3.63209938e-06 2.57032048e-06 3.33267167e-06 6.12980239e-06
      1.74266970e-05 5.43340002e-06 -3.54664212e-06 -1.10961150e-06
      8.58977364e-06 -1.31711931e-05 -1.07099058e-05 -1.00254638e-05
      5.08329595e-06 1.40822804e-05 -2.06484328e-05 1.70442090e-05
      3.11488438e-05 -1.11708541e-05 1.38547975e-05 1.71715019e-05
      2.45383239e-06 1.36335930e-05 1.38729074e-05 1.21277399e-05
      5.67865209e-06 1.00306306e-05 1.42976105e-05 -1.41821210e-05
      -1.38490259e-05 4.71492649e-06 3.03586330e-06 -2.77570371e-06
      1.19048691e-05 -2.82810979e-05 -3.64911357e-05 6.29199405e-07
      -4.29432366e-05 -5.17070657e-05 9.34838863e-06 1.01587639e-05
      1.40015945e-05 7.23050198e-06 7.31667069e-06 1.12911221e-05
      7.01909858e-06 5.83538258e-06 7.71889518e-06 7.71810301e-06
      1.06917405e-05 1.04300616e-05 1.12583530e-05 1.34143975e-05
      1.18392891e-05 -1.80303286e-05 -1.37072466e-05 -3.35211348e-06
      -2.44772637e-05 -1.83780412e-05 -1.53595320e-05 1.70693365e-05
      2.48635115e-05 2.27326109e-06 3.17556332e-05 4.21840596e-05
      7.24896563e-06 8.28893462e-06 1.58379571e-05 -1.99977626e-06
      1.08567447e-05 1.77551774e-05 9.60034231e-06 3.67734424e-06
      1.08720669e-05 1.32091409e-05 -1.51582217e-05 -1.83988996e-05
      7.68274367e-06 -3.31499609e-06 -9.83053451e-06 9.62600461e-06
      -3.07322989e-05 -4.67185018e-05 -1.28096008e-06 -3.26831432e-05
      -4.24596947e-05 -2.60907359e-06 -2.55005798e-05 -3.03357610e-05
      8.03000512e-06 6.30950854e-06 7.32164881e-06 2.54133374e-06
      3.10286168e-07 3.22208120e-06 1.23476339e-05 1.36832969e-05
      1.34965139e-05 1.55903069e-06 7.07440631e-06 8.19008346e-06
      -1.50472833e-05 -1.21710327e-05 -8.54856353e-06 -1.23935195e-06
      3.78397317e-06 6.64064510e-06 -1.54001100e-05 -4.63540482e-06
      -3.02716962e-05 2.50013236e-05 3.39669932e-05 -2.34774257e-06
      9.03075488e-06 1.34614138e-05 2.85404258e-06 8.41520523e-06
      1.16030078e-05 1.00117104e-05 2.55613281e-06 9.76153842e-06
      7.60392641e-06 -2.93721473e-06 3.01356522e-06 -4.08273218e-06
      -1.09747261e-05 -1.56453752e-05 6.03431135e-06 -3.66431632e-05
      -4.96367866e-05 -1.81701500e-06 -3.30926086e-05 -3.85301682e-05
      -1.05734789e-05 -1.58308030e-05 -1.55934213e-05 -4.03456443e-06
      -4.78022002e-06 -8.00788166e-06 1.50003007e-05 1.38675869e-05
      1.66658374e-05 7.25109476e-06 8.74719353e-06 1.09179264e-05
      -3.44236128e-06 -1.66129769e-06 -3.15117575e-07 8.30975569e-06
      1.03048005e-05 1.29127948e-05 4.00130739e-06 1.02966305e-05
      1.43162752e-05 -2.06024270e-05 -1.06735579e-05 -2.22219751e-05
      1.96362471e-05 3.13549572e-05 -1.06655189e-05 1.49583802e-05
      1.96195251e-05 5.11994529e-07 1.12535799e-05 1.22510337e-05
      1.33454578e-05 9.33425235e-06 5.70320344e-06 1.47704177e-05
      1.03186449e-06 3.55743555e-06 1.65963343e-06 -1.20976592e-05
      -1.09660923e-05 8.90448973e-06 -3.62994324e-05 -4.72083157e-05
      -1.23999655e-07 -3.11679651e-05 -3.74900992e-05 -1.11150612e-05
      -7.19695254e-06 -8.36162599e-06 -1.65986000e-06 1.57205659e-06
      -2.49776485e-06 5.11636335e-06 -2.33399214e-06 -5.80327378e-06
      -4.33026980e-06 -4.48924175e-06 1.82621260e-08 -2.70602072e-06
      1.35631308e-06 3.32246191e-06 2.44985722e-06 7.37569690e-06
      5.34043977e-07 -1.39723570e-05 -1.51823333e-05 -6.64935783e-07
      -4.78048532e-05 -4.61115596e-05 -3.68854344e-05 2.13657841e-05
      3.29975992e-05 -5.50368759e-06 2.10951985e-05 2.52604150e-05
      1.70538976e-06 8.67352901e-06 9.04358694e-06 7.19646096e-06
      2.80824167e-07 6.42921850e-06 9.28825375e-06 8.83039957e-06
      4.72472175e-06 1.14802961e-05 5.08318635e-06 4.21926643e-06
      4.07899915e-06 -3.93613227e-05 -4.91539504e-05 -6.88443970e-06
      -2.61679506e-05 -3.13418641e-05 -5.49875176e-06 -1.13643409e-05
      -1.50141150e-05 -5.18901743e-06 2.69847237e-06 -2.36555525e-06
      4.34398726e-06 4.65757148e-06 1.35678511e-06 2.93501080e-06
      5.95318454e-07 -2.07915537e-06 -6.67138238e-07 -2.47063599e-06
      -3.23741779e-06 -1.31092256e-05 -1.61658063e-05 -1.51943132e-05
      -7.08065227e-06 -6.57166220e-06 -5.92605784e-06 4.12110558e-06
      4.57262831e-06 3.43520242e-07 -2.32296061e-05 -1.89589700e-05
      -2.21030987e-05 1.88191007e-05 3.00527536e-05 -9.13733038e-06
      8.56415500e-06 1.14376362e-05 7.35396361e-06 1.13114891e-06
      4.91892115e-06 1.00633515e-05 1.98411817e-05 2.26251977e-05
      1.31765282e-05 2.32956882e-05 1.90414412e-05 3.07832852e-05
      -4.65344747e-05 -5.59915134e-05 -1.54516365e-05 -3.25934598e-05
      -4.05235623e-05 -8.85529062e-06 -3.63168738e-06 -8.19084289e-06
      2.30945602e-06 -3.74254938e-08 -4.09899394e-06 -2.45132537e-06
      3.94346489e-06 -1.50507924e-06 3.19143828e-06 4.38041798e-06
      2.04798630e-06 2.52291693e-06 1.26169050e-06 1.65818363e-07
      -2.44637831e-05 -2.78231400e-05 -3.48829562e-05 -1.59251249e-05
      -2.54678707e-05 -2.48174183e-05 -3.26773770e-05 -3.82821818e-05
      -2.55415598e-05 -3.79617486e-05 -3.86220054e-05 -2.77215513e-05
      2.82069377e-05 3.17681370e-05 1.06137322e-05 1.51255326e-05
      2.13182102e-05 2.30243427e-06 7.15987471e-06 7.50521576e-06
      1.00913803e-05 -2.51116944e-06 6.34186108e-06 7.55695964e-07
      9.53095787e-06 2.41925454e-06 8.30096906e-06 -4.13524904e-05
      -5.07330806e-05 -1.84770561e-05 -4.23636993e-05 -4.61234267e-05
      -1.07550813e-05 -1.35162627e-05 -1.42170775e-05 -3.92029688e-06
      2.46888903e-05 2.32514194e-05 2.40558929e-05 2.40940772e-05
      2.00518571e-05 2.62651738e-05 2.58844811e-05 2.21952032e-05
      2.44722141e-05 2.45126612e-05 2.31567919e-05 2.54229653e-05
      4.12180962e-05 4.23055644e-05 -2.31810372e-05 -2.24926916e-05
      -2.54029146e-05 -1.03073717e-05 -1.48876634e-05 -1.87672740e-05
      -1.17095224e-05 -1.46074690e-05 -1.67150611e-05 4.47582170e-06
      3.10571045e-06 1.06385087e-05 2.52990703e-05 3.09734241e-05
      1.10001025e-07 6.67611175e-06 8.80005791e-06 5.08982293e-06
      5.14724161e-06 7.20823482e-06 1.03484817e-05 1.87610385e-05
      1.43570333e-05 1.09010416e-05 1.43313637e-05 9.27249766e-06
      1.53317433e-05 -3.38876162e-05 -4.12624868e-05 -4.38736697e-06
      -1.51779022e-05 -1.48360095e-05 -2.68074103e-07 1.45109800e-06
      8.85265933e-07 1.12178432e-05 3.51193048e-05 3.95598036e-05
      4.13114758e-05 3.03637116e-05 3.58836915e-05 3.60409613e-05
      -2.52711052e-05 -1.95748999e-05 -1.61650823e-05 -3.64059415e-05
      -2.88570991e-05 -2.55199666e-05 -9.15685996e-06 -1.33719254e-06
      -1.98371108e-05 -1.76635185e-05 -1.13066153e-05 -4.29196843e-05
      -4.46456725e-05 -3.31805677e-05 -2.50434787e-05 -2.61366877e-05
      -1.52862012e-05 6.47366619e-07 9.05177330e-06 -8.84103883e-06
      1.50183787e-05 1.95820467e-05 8.00952137e-07 8.92271873e-06
      5.17176886e-06 1.04327091e-05 2.29386524e-06 4.09995982e-06
      1.18202820e-06 1.42758045e-05 9.48229808e-06 1.13798669e-05
      -3.77837714e-05 -4.35162365e-05 -1.77911825e-05 -2.67272208e-05
      -3.39068647e-05 -5.29589261e-06 -1.24710596e-05 -1.31052911e-05
      8.91767343e-07 2.35311963e-05 2.95404461e-05 3.13074997e-05
      -4.69931138e-06 5.14666954e-06 6.13760039e-06 -5.32567674e-06
      3.60378544e-06 4.70113400e-06 -3.18998673e-06 4.74688750e-06
      6.89596072e-06 6.68582970e-06 1.72476575e-05 1.96116907e-05
      1.97522095e-05 2.99862295e-05 -3.92316542e-06 -4.04496677e-06
      -3.10672726e-06 -2.99877502e-05 -3.37175625e-05 -2.17872112e-05
      -3.05776884e-05 -3.09141033e-05 -1.66354002e-05 -3.56363489e-06
      6.28347516e-06 -2.19291596e-05 5.79887046e-06 1.33494868e-05
      1.73401793e-06 9.00447776e-06 4.83459235e-06 1.25468177e-05
      2.07278172e-05 2.10511862e-05 1.03051416e-05 1.98995149e-05
      1.96267938e-05 1.47563296e-05 -3.19660576e-05 -3.90802779e-05
      -5.45509783e-06 -1.12271136e-05 -1.39495187e-05 2.16461942e-07
      -8.06430398e-06 -6.40905637e-06 1.91375148e-06 -4.12279223e-05
      -3.49585098e-05 -3.29998838e-05 1.46262691e-05 2.42322858e-05
      2.68016229e-05 1.10254477e-05 1.96412584e-05 2.15149248e-05
      -4.65051471e-06 2.09245331e-06 2.75301977e-06 1.21623270e-05
      2.21165628e-05 2.44394723e-05 4.82435667e-07 1.15698003e-05
      7.61395449e-06 8.77692128e-06 -1.84812575e-06 -1.43663065e-05
      -2.09808404e-05 -1.32028190e-05 -3.09399111e-05 -2.52036425e-05
      -2.10264643e-05 1.65440797e-05 2.09909704e-05 1.41587486e-06
      4.88265141e-06 1.00320276e-05 3.99998498e-06 8.82982647e-07
      7.34730520e-06 4.49805611e-06 1.74830693e-05 1.12845883e-05
      1.07813339e-05 -1.87672213e-05 -2.46692107e-05 -1.14346867e-05
      -2.93449157e-05 -3.58500874e-05 -9.44885323e-06 -1.10214714e-05
      -1.21971007e-05 -3.59633032e-06 -7.50764229e-05 -7.41399490e-05
      -6.74374969e-05 -2.75864058e-05 -2.10791422e-05 -1.90496994e-05
      1.11819136e-05 2.01517014e-05 2.17239613e-05 -2.07474077e-05
      -1.23576228e-05 -1.14231434e-05 -2.50103203e-05 -1.90441642e-05
      -1.99973765e-05 -6.09859035e-06 -5.14098701e-06 -4.83545546e-06
      6.02416185e-06 5.44880231e-06 -6.45117143e-06 -9.92542027e-06
      -1.34868242e-05 -2.45374140e-05 -2.89465042e-05 -2.43787763e-05
      -1.38190080e-05 -7.76971865e-06 -1.33142175e-05 1.08488393e-05
      1.44549449e-05 2.83865688e-07 5.76550428e-06 8.98938652e-06
      1.08246222e-05 2.04427670e-06 3.50648770e-06 7.76497200e-06
      2.85252208e-05 2.79487049e-05 1.79693598e-05 -3.38864447e-05
      -4.29085449e-05 -9.27037036e-06 -1.20425948e-05 -1.54107693e-05
      -2.26785824e-06 -2.02236588e-05 -2.15117125e-05 -1.98941816e-05
      -6.99108059e-05 -6.88451109e-05 -6.30805080e-05 -1.01696232e-05
      -5.95039273e-06 -1.63011885e-06 -2.15142627e-05 -1.37519464e-05
      -8.80189054e-06 -1.89651764e-05 -1.11248637e-05 -9.88677129e-06
      4.72946194e-05 4.56261987e-05 4.36143710e-05 2.29962261e-05
      1.94780587e-05 1.77141974e-05 3.79766316e-05 3.89056368e-05
      -4.89311014e-06 -1.12597745e-05 -1.35964983e-05 -3.08385643e-05
      -3.32687669e-05 -2.44431831e-05 2.90737626e-06 9.16520821e-06
      -5.30480202e-06 1.14013874e-05 1.07087617e-05 5.03692536e-06
      7.17413377e-06 1.11866893e-05 1.37219840e-05 1.75122284e-06
      7.75899196e-07 1.06928637e-05 3.31262381e-05 3.17081358e-05
      1.96243327e-05 -4.10095345e-05 -4.71582716e-05 -1.51674776e-05
      -1.32559153e-05 -1.49206453e-05 -8.18553781e-06 -2.64293176e-05
      -2.99435578e-05 -2.59058015e-05 -7.48094026e-05 -7.29804087e-05
      -6.76200507e-05 -3.28021706e-05 -2.70207911e-05 -2.18754667e-05
      -2.02674710e-05 -1.32137729e-05 -8.07124161e-06 1.04456603e-05
      1.36496092e-05 1.32840232e-05 3.18540478e-05 3.21416919e-05
      2.94074325e-05 4.50812549e-05 4.02806436e-05 4.02559563e-05
      7.10632230e-05 6.86685453e-05 -2.10383314e-05 -2.80588629e-05
      -2.60177003e-05 -1.32813457e-05 -1.47677747e-05 9.74869636e-07
      9.93372851e-06 1.44734995e-05 5.00026793e-08 9.57383236e-06
      8.70203894e-06 7.50467143e-06 5.55735869e-06 1.12737389e-05
      1.27806215e-05 1.22894053e-05 1.25592860e-05 1.75810837e-05
      2.24867817e-05 1.87806145e-05 1.30447588e-05 -2.73200312e-05
      -3.28139831e-05 -6.89137005e-06 -7.61197725e-06 -1.00171846e-05
      -3.79365429e-06 -3.39787948e-05 -3.79532285e-05 -3.25503024e-05
      -6.00735693e-05 -5.79998159e-05 -5.29488461e-05 -2.21371683e-05
      -1.68398365e-05 -1.12693988e-05 -1.90149112e-05 -1.13562146e-05
      -8.15605017e-06 4.79497794e-05 5.06470824e-05 4.89015511e-05
      6.92809044e-05 7.01852405e-05 6.73999966e-05 1.21469100e-04
      1.22428202e-04 1.21944046e-04 1.34474700e-04 1.36339368e-04
      -1.06483458e-05 -1.21105722e-05 -1.21894773e-05 -1.98126327e-05
      -1.47486944e-05 -5.68518544e-06 1.09241937e-05 1.61083099e-05
      6.73492696e-06 8.09726043e-06 9.31879094e-06 9.74657360e-06
      3.64502557e-06 6.08032269e-06 1.66995487e-05 1.62446904e-05
      2.13172934e-05 7.00439523e-06 1.11218842e-05 1.43488222e-07
      9.49663354e-06 -1.00234156e-05 -1.51404338e-05 3.96355790e-06
      -3.75227864e-06 -6.12362373e-06 -2.21002597e-06 -2.60178840e-05
      -2.96237831e-05 -2.60419456e-05 -5.28807277e-06 -4.70511168e-06
      -3.91782260e-06 3.85670101e-05 4.21316035e-05 4.38346760e-05
      4.59665316e-05 4.84421907e-05 4.62354656e-05 8.96647834e-05
      9.00793020e-05 8.70973599e-05 1.22717203e-04 1.24575919e-04
      1.21492121e-04 1.59668940e-04 1.62319076e-04 1.59172952e-04
      1.65537131e-04 1.70993488e-04 -1.23644404e-05 -1.29306673e-05
      -1.28439233e-05 -1.77987804e-05 -1.18126718e-05 -1.01043258e-06
      1.29829659e-05 1.79846138e-05 2.88069305e-06 1.46116536e-05
      1.71921783e-05 1.32750893e-05 5.12988481e-06 5.75881859e-06
      1.67493235e-05 1.56438582e-05 2.27013752e-05 4.08142114e-06
      -3.16486489e-06 -1.42850868e-05 -4.72343118e-06 -1.15536350e-05
      -1.31464330e-05 -4.93208972e-07 -3.07928212e-06 -6.62694401e-06
      -4.67001564e-06 7.62474997e-07 -3.65055416e-06 -1.27079943e-06
      2.95998107e-05 2.62655340e-05 2.21655300e-05 6.02973305e-05
      6.03627886e-05 5.58713218e-05 6.82285536e-05 7.01300742e-05
      6.41818915e-05 9.01632084e-05 9.03145046e-05 8.57100895e-05
      1.27923326e-04 1.29220192e-04 1.25624501e-04 1.38855830e-04
      1.38095114e-04 1.34891787e-04 1.26555839e-04 1.30476634e-04
      -4.28037038e-06 -5.58569036e-06 -1.08337053e-05 -2.53771905e-05
      -2.18999267e-05 -2.05917149e-06 1.41417158e-05 1.89108559e-05
      8.39313998e-07 6.45077807e-06 9.53359904e-06 6.15147337e-06
      6.37260609e-06 9.02658849e-06 1.24852313e-05 2.22092494e-05
      2.57661322e-05 1.02335789e-05 -1.16689880e-05 -2.36081214e-05
      -1.34496013e-05 -1.09201410e-05 -1.44359565e-05 9.91960064e-07
      5.35230811e-07 -2.27500959e-06 -2.77794038e-06 5.59589034e-06
      2.56707267e-06 3.25318047e-06 5.10183636e-05 4.98402551e-05
      4.50985281e-05 8.91674863e-05 8.77564526e-05 8.46726762e-05
      9.70475085e-05 9.68722889e-05 9.17223879e-05 1.04412415e-04
      1.03561986e-04 9.77218951e-05 1.01477242e-04 1.01796148e-04
      9.69195826e-05 8.88156719e-05 8.68093921e-05 8.41197834e-05
      6.76283744e-05 6.84867628e-05 3.54394433e-05 2.92048262e-05
      1.93297055e-05 -1.87452442e-05 -2.13007061e-05 3.88854278e-06
      8.24468134e-06 1.15036864e-05 2.18978039e-06 5.88743023e-06
      7.76965044e-06 1.03276989e-05 3.51693416e-06 5.43969782e-06
      1.53420351e-05 1.37543793e-05 1.43852139e-05 4.06849767e-06
      -2.99012299e-07 -1.20467466e-05 -7.13097461e-06 -9.40704649e-06
      -1.35636074e-05 -6.82145640e-07 -8.21368849e-06 -1.23981572e-05
      -1.19197257e-05 -4.28984276e-06 -9.48113848e-06 -5.62205787e-06
      2.02513129e-05 1.83715765e-05 1.55690286e-05 3.37585552e-05
      3.16081932e-05 2.95564987e-05 5.02604053e-05 4.80494164e-05
      4.64165132e-05 5.35286163e-05 5.12264742e-05 4.92806648e-05
      3.28804599e-05 3.09195348e-05 2.71737499e-05 3.87187210e-05
      3.50238734e-05 3.32523450e-05 3.85464773e-05 4.11513611e-05
      4.77938593e-05 4.58332142e-05 2.40339705e-05 -8.18729586e-06
      -9.47081662e-06 1.98225389e-05 6.35345759e-06 1.08213899e-05
      6.98132817e-06 5.97213057e-06 6.82473728e-06 8.05561103e-06
      1.04815558e-06 4.11172869e-06 1.20619634e-05 -1.21320027e-05
      -1.13784481e-05 -7.90906051e-06 1.09597304e-05 -9.91718366e-07
      -5.38512950e-06 -6.84058841e-06 -9.55901669e-06 -7.95012454e-07
      2.41113275e-06 -3.22500432e-06 -1.86821296e-06 2.22982658e-06
      -4.70289615e-06 -1.33581679e-07 4.98720055e-06 3.01660748e-07
      -2.24072619e-06 8.11651535e-06 2.58434397e-06 1.13830879e-06
      1.10171623e-05 6.30545719e-06 5.01861177e-06 1.76184640e-05
      1.20204686e-05 9.96822928e-06 8.61587978e-06 2.81292000e-06
      4.06306663e-06 -1.10850515e-05 -1.22067040e-05 -9.93317190e-06
      -9.95079099e-05 -9.65220243e-05 4.51271917e-05 4.05787287e-05
      2.24203468e-05 -2.00490945e-06 -5.33387492e-06 2.92452423e-05
      9.66810603e-06 1.56514598e-05 1.09238435e-05 7.82157622e-06
      9.63084676e-06 1.34078891e-05 -6.69972565e-07 4.39820997e-06
      9.38643916e-06 -1.58295807e-05 -1.17699274e-05 1.07147548e-06
      3.08214330e-05 1.72564796e-05 6.74184366e-06 -1.83221073e-06
      -9.61614478e-06 3.58874763e-06 8.85265763e-06 3.16110527e-06
      3.35537351e-07 4.49225240e-07 -5.64164202e-06 -1.57043883e-06
      1.62005526e-05 1.23164045e-05 7.39327879e-06 2.70192577e-05
      2.34363742e-05 2.25182703e-05 2.62296144e-05 2.21333303e-05
      2.29324633e-05 3.07534574e-05 2.77372674e-05 2.85316728e-05
      -5.58071442e-05 -5.63653739e-05 -5.17899316e-05 -9.84381331e-05
      -9.93996946e-05 -9.20453094e-05 -1.10844143e-04 -1.09469460e-04
      4.53566572e-05 3.75363634e-05 2.80688109e-05 -1.12831885e-05
      -1.09756274e-05 2.05306387e-05 8.56248062e-06 1.49407706e-05
      1.65578567e-05 5.05517573e-06 5.73296393e-06 9.02442389e-06
      7.09747974e-06 1.05283598e-05 1.29536620e-05 -1.60070394e-05
      -1.27354233e-05 2.74772310e-06 5.34006540e-05 4.09859567e-05
      2.00476043e-05 -4.00279623e-06 -1.22847468e-05 1.48948629e-06
      3.84849727e-06 -1.39793690e-06 -5.90467516e-06 2.99332714e-06
      -4.11361589e-06 3.17984586e-07 2.57919382e-05 2.11467031e-05
      2.01359708e-05 4.00742319e-05 3.82123799e-05 3.77715260e-05
      3.21412808e-05 3.34186043e-05 3.67464272e-05 -3.65840897e-05
      -3.38754871e-05 -2.85596270e-05 -7.73184292e-05 -7.48308667e-05
      -6.67955101e-05 -9.60365287e-05 -9.64991850e-05 -8.71131269e-05
      -1.49901840e-04 -1.49622865e-04 3.44510700e-05 2.77664458e-05
      1.74452507e-05 -1.96765031e-05 -1.98419875e-05 9.54182087e-06
      8.97101108e-06 1.81455216e-05 2.68043186e-05 7.90326067e-06
      7.93711934e-06 5.39485609e-06 8.22674247e-06 9.33626961e-06
      1.55846101e-05 3.00802571e-06 6.63399578e-06 7.75415083e-06
      6.10135903e-05 5.77069004e-05 2.90455719e-05 2.05039373e-06
      -6.13043994e-06 -9.35089361e-07 -1.51616962e-06 -4.97801921e-06
      -5.44225531e-06 4.05878609e-06 -2.80845643e-06 2.49046980e-06
      3.69143345e-05 3.55257907e-05 3.40655424e-05 3.18664024e-05
      3.64362131e-05 3.91920476e-05 1.37912211e-05 2.05218730e-05
      2.69785432e-05 -2.01885941e-05 -1.32766017e-05 -6.81491065e-06
      -6.63399769e-05 -6.24776148e-05 -5.50176883e-05 -1.23199745e-04
      -1.21517529e-04 -1.13448688e-04 -1.27832041e-04 -1.28677653e-04
      5.58862812e-05 4.77083304e-05 4.23635684e-05 3.58771067e-05
      3.78408440e-05 3.59309779e-05 -1.27237054e-05 -6.70505642e-06
      9.39550864e-06 7.70974202e-06 1.17375403e-05 7.52664801e-06
      1.05880608e-05 1.09770926e-05 1.34755519e-05 6.28163798e-06
      8.51611094e-06 1.43299585e-05 1.55160797e-05 1.18209664e-05
      9.03406089e-06 -4.37457084e-06 -1.60907857e-05 -1.02353633e-05
      -1.47543301e-06 -7.65655204e-06 -4.12545569e-06 9.36716515e-06
      5.57191925e-06 7.29808971e-06 -4.51817541e-05 -4.53723696e-05
      -4.63723372e-05 -9.32137391e-06 -6.68935718e-06 -6.67929953e-07
      1.22384072e-05 1.92830448e-05 2.36873584e-05 -4.66297433e-06
      2.93583753e-06 6.87809188e-06 -3.13024175e-05 -2.43226659e-05
      -2.02943811e-05 -6.00359635e-05 -5.50284203e-05 -4.96830944e-05
      -7.34440546e-05 -6.79134755e-05 5.14933199e-05 3.97299409e-05
      4.52860040e-05 4.58325812e-05 4.55401496e-05 3.00298889e-05
      -2.84343369e-05 -2.59225053e-05 7.74921409e-06 7.76491197e-06
      1.07315673e-05 9.33341471e-06 9.24861797e-06 1.02998301e-05
      1.17001782e-05 7.04180184e-06 1.17750833e-05 1.40775646e-05
      -4.01203897e-06 -1.00103416e-05 7.72580097e-06 2.54711504e-05
      1.74340166e-05 -8.35740138e-06 -3.41558166e-06 -1.36511026e-05
      -9.03363969e-07 -1.14769000e-05 -1.74849174e-05 -1.16685069e-05
      -7.50042382e-05 -7.20530443e-05 -7.05195343e-05 -3.00382344e-05
      -2.59906155e-05 -2.20628881e-05 -4.35573565e-05 -3.77127690e-05
      -3.49167931e-05 -2.52844420e-05 -1.78342252e-05 -1.47543606e-05
      -2.28205809e-05 -1.37218194e-05 -1.16085512e-05 2.97614088e-06
      1.29632954e-05 1.57353588e-05 -5.86944179e-06 2.76451624e-06
      3.19025021e-05 2.67171872e-05 3.00071642e-05 3.34535944e-05
      3.36869671e-05 1.73550252e-05 -2.06241093e-05 -2.29777379e-05
      1.87471978e-05 6.67581025e-06 9.39471283e-06 1.57430277e-05
      8.54679274e-06 9.86497344e-06 8.47319734e-06 7.44826548e-06
      1.01356691e-05 8.49214939e-06 5.00294573e-06 2.56049134e-06
      1.35690707e-05 2.90204098e-05 2.35936823e-05 6.61861259e-06
      1.34429611e-05 4.66172096e-08 6.42922578e-06 -2.13000458e-05
      -2.32093607e-05 -2.16223052e-05 -1.02307888e-04 -1.02934187e-04
      -9.44677304e-05 -8.43192392e-05 -8.04884257e-05 -7.86659512e-05
      -6.35539982e-05 -5.74643818e-05 -5.70768934e-05 -5.53440223e-05
      -4.68529652e-05 -4.65422054e-05 -5.42275302e-05 -4.63733049e-05
      -4.53706489e-05 5.36096240e-06 1.30086537e-05 1.55594007e-05
      1.17132904e-05 2.24028008e-05 3.87323344e-05 4.31668013e-05
      4.29412939e-05 5.47614436e-05 5.74700389e-05 4.31266380e-05
      8.95488301e-06 1.04636629e-05 2.22426661e-05 -2.41676071e-06
      -1.50740982e-06 2.54453716e-05 6.55956273e-06 6.11369114e-06
      7.62835407e-06 8.97743030e-06 7.78298818e-06 1.20425248e-05
      7.22999994e-06 9.17555371e-06 1.38873411e-05 8.87441729e-06
      4.53975190e-06 1.21198082e-05 2.47773678e-05 1.54093250e-05
      -6.64541903e-06 -1.99991118e-05 -1.97852642e-05 -2.12624891e-05
      -6.40527360e-05 -6.68881330e-05 -5.63537287e-05 -7.70792321e-05
      -7.89957194e-05 -7.72168933e-05 -7.23803023e-05 -7.48576203e-05
      -7.32632980e-05 -4.66961683e-05 -4.73926812e-05 -4.68724429e-05
      -2.99234071e-05 -2.98126179e-05 -2.88190422e-05 -2.69255543e-05
      -2.75618931e-05 -2.63375332e-05 -5.53343898e-06 -2.54127917e-06
      3.96563955e-05 5.29968565e-05 4.69359511e-05 1.27938956e-05
      1.57159902e-05 1.10619867e-05 2.88357642e-05 3.03207325e-05
      1.63152217e-05 -3.54812692e-05 -3.73212570e-05 1.81749529e-05
      7.33483921e-06 6.36692812e-06 1.17576210e-05 5.16577211e-06
      8.47468073e-06 9.01853673e-06 5.26717940e-06 9.07278172e-06
      1.25419319e-05 2.56527642e-06 3.61879893e-06 1.49043117e-05
      2.34384024e-05 2.39228830e-05 9.05871821e-06 -1.65834831e-06
      -1.21230069e-05 -1.42939598e-05 -2.04348144e-05 -2.59977987e-05
      -2.20678321e-05 -2.35560601e-05 -3.20607323e-05 -3.25522342e-05
      -4.53599314e-05 -5.52928723e-05 -5.61098022e-05 -5.49609504e-05
      -6.16312464e-05 -6.14703386e-05 -4.15088980e-05 -4.58276445e-05
      -4.55653717e-05 -3.41687992e-05 -3.92091497e-05 -4.11563597e-05
      -1.73318076e-05 -2.11536135e-05 8.23668233e-06 2.52140744e-05
      1.60449927e-05 3.57580552e-06 8.12337748e-06 4.73278124e-06
      1.24323324e-05 9.66827793e-06 5.22346727e-06 -9.68175027e-06
      -7.12548172e-06 3.87707541e-06 1.12290309e-06 4.74036051e-06
      2.32894290e-05 7.56504960e-06 6.47949309e-06 1.12686967e-05
      3.21199400e-06 6.60454180e-06 9.67559572e-06 5.46664342e-06
      7.89816386e-06 6.40974440e-06 5.61721436e-06 4.08135793e-06
      9.78862681e-06 1.86622547e-05 1.08001886e-05 -6.04892239e-06
      5.81101676e-06 -2.19245817e-06 -6.43736075e-06 5.67917482e-07
      -3.72619411e-06 -7.68232894e-06 2.47279445e-06 -4.78051288e-06
      -7.98399196e-06 4.86494901e-06 -3.79778862e-06 -1.44011449e-06
      6.36736695e-06 -1.13556905e-06 -4.63547394e-07 7.68608243e-06
      2.85818885e-07 -2.01415401e-06 5.25813857e-06 -8.65849699e-07
      1.58919320e-05 2.55219966e-05 1.74564157e-05 1.33015747e-05
      1.20041259e-05 1.40040675e-05 1.35630971e-05 1.23503469e-05
      6.32985029e-06 2.25369713e-05 2.97473343e-05 1.19339675e-05
      -2.04679509e-05 -1.41787705e-05 1.87370533e-05 9.57312750e-06
      8.22032052e-06 1.53834335e-05 1.04553665e-05 8.89723651e-06
      1.16948486e-05 5.49521837e-06 8.87885744e-06 5.08249786e-06
      1.68202052e-06 5.68344512e-06 4.92683967e-06 7.87847512e-06
      9.28459576e-06 3.87988257e-06 1.88437025e-05 1.47571591e-05
      -8.68141979e-06 3.75576815e-06 -2.25392114e-06 -6.70987174e-06
      3.42027988e-06 -3.73697799e-06 -2.02299248e-06 8.53630752e-07
      -6.19823732e-06 -3.89740899e-06 1.96199790e-06 -2.89166223e-06
      -3.04664513e-06 9.53247081e-08 -2.96973963e-06 -5.62657078e-06
      -6.78495667e-07 -6.04312027e-06 4.27525538e-06 -1.94498170e-06
      -8.51704863e-06 4.91082164e-06 -6.07694392e-06 -3.06674633e-06
      1.13342285e-05 1.01546111e-05 5.19966170e-06 3.58513535e-05
      3.74069823e-05 2.87605435e-05 4.70421583e-06 7.87240333e-06
      2.14735337e-05 1.01414219e-06 5.65667392e-07 3.35510886e-05
      1.30594326e-05 7.05591992e-06 1.51277336e-05 6.24077211e-06
      6.54125051e-06 8.71196698e-06 9.10522613e-06 1.08373188e-05
      1.14601798e-05 7.49405990e-06 8.08492132e-06 6.14164219e-06
      2.01756066e-05 2.42794777e-05 1.82119293e-05 3.27128655e-05
      2.21666924e-05 2.96500230e-06 1.75345795e-05 1.91344225e-06
      1.19229367e-06 4.86660929e-06 -3.80610049e-06 -9.02490399e-07
      1.63059056e-07 -7.52654751e-06 -2.94468032e-06 5.49547167e-07
      -4.28197927e-06 -6.43375552e-06 2.41556927e-06 -1.79038091e-06
      8.40301254e-07 -1.43300031e-05 -1.04816818e-05 2.19570029e-06
      -8.51390814e-06 -7.79285983e-06 1.22961101e-05 5.50131017e-06
      8.11732298e-06 2.16678363e-05 1.75681289e-05 1.84030596e-05
      3.09452989e-05 2.67742398e-05 2.26353623e-05 1.24496719e-05
      5.21924085e-06 3.79871162e-05 6.48286505e-06 6.36580808e-06
      2.36691430e-05 8.42046938e-06 7.63102526e-06 1.19055439e-05
      4.90642515e-06 3.64908215e-06 8.76671766e-06 4.49487197e-06
      5.86070200e-06 4.68863300e-06 7.68591417e-06 4.56359612e-06
      1.30632216e-05 2.33449064e-05 2.18187251e-05 1.79364270e-05
      2.48840970e-05 1.68781971e-05 -7.42188286e-06 1.33842741e-05
      6.86248495e-06 -5.59889168e-06 4.48779201e-06 -3.35956975e-06
      3.77804525e-07 -1.52993027e-06 -8.54146765e-06 -5.96403243e-06
      6.39355221e-07 -4.24794507e-06 -1.68618699e-05 -3.25086148e-05
      -2.31291324e-05 -9.54549341e-06 -1.95482753e-05 -1.53582205e-05
      1.65139918e-05 6.35320021e-06 1.12946682e-05 1.53986039e-05
      8.07537072e-06 1.31629704e-05 2.37958902e-05 1.01487049e-05
      1.49459520e-05 2.27246928e-05 7.91353341e-06 2.56401709e-05
      -4.17235270e-07 -5.46737056e-06 2.89800264e-05 5.77089259e-06
      5.00653596e-06 2.01244166e-05 1.24723729e-05 1.41023393e-05
      8.06068238e-06 8.59237934e-06 6.09421022e-06 9.29605540e-06
      9.31954128e-06 8.81905271e-06 9.38770336e-06 4.45123214e-06
      3.28172996e-06 3.44805107e-06 2.61482874e-05 2.56029798e-05
      2.29765992e-05 2.51004094e-05 1.85121335e-05 1.01181047e-06
      1.17006202e-05 4.02624482e-06 -6.89883063e-06 9.75377588e-07
      -4.68802546e-06 -4.02700061e-06 3.97072017e-06 -3.51002768e-06
      -5.22642904e-06 -2.13399344e-05 -1.53204783e-05 7.76692559e-06
      -8.66446771e-06 -1.98916132e-06 7.61848378e-06 -7.91826733e-06
      -1.00244074e-06 2.43114810e-05 1.08860122e-05 2.15718901e-05
      1.74539728e-05 5.04339232e-06 6.52460585e-06 7.57004454e-06
      -2.38391749e-06 1.32210016e-06 2.62690046e-05 2.14591400e-05
      3.38091486e-05 -4.27568102e-06 -9.08408128e-06 2.77338950e-05
      6.90181696e-06 7.24969095e-06 1.79188464e-05 5.54756298e-06
      7.71044233e-06 2.99056956e-06 7.26694816e-06 7.14417229e-06
      7.06960600e-06 4.84559678e-06 6.43659860e-06 5.53353993e-06
      1.23233558e-05 1.37193483e-05 1.19683291e-05 1.95670818e-05
      1.83658358e-05 1.47883147e-05 6.82068094e-06 3.31156662e-06
      -1.77929887e-05 2.15107539e-05 1.17082773e-05 -5.62125706e-06
      4.32035858e-06 -3.34412948e-06 4.69134511e-06 -1.01157939e-05
      -8.69614450e-06 2.42319447e-06 -1.24290300e-05 -9.52925620e-06
      1.09769981e-05 -3.07637561e-06 1.27922635e-06 1.22494412e-05
      3.14116096e-06 7.15433634e-06 7.94338303e-06 8.38405299e-07
      4.23974961e-06 4.35627680e-06 1.95308388e-07 -6.15835688e-07
      9.97857478e-06 7.13960117e-06 9.81730295e-07 2.55562518e-05
      2.96471171e-05 3.99776327e-05 9.42343831e-06 5.35885920e-06
      4.83647855e-05 8.65480160e-06 1.07515307e-05 1.23464306e-05
      1.51649228e-05 1.57987215e-05 1.38677788e-05 7.95987580e-06
      9.40481641e-06 1.10772135e-05 7.79967559e-06 6.23325104e-06
      1.70798685e-05 7.09192136e-06 8.67469862e-06 1.44774515e-06
      1.60687650e-05 2.10335820e-05 4.38539064e-06 5.82320263e-06
      4.32698562e-06 -2.91849506e-06 3.06881229e-05 2.43895338e-05
      1.33650274e-05 4.84228030e-06 5.34363426e-06 5.90642139e-06
      -2.86524823e-06 -5.93154006e-08 4.46560534e-06 -1.87514979e-06
      2.11902284e-06 7.45027683e-06 6.62771981e-06 9.32844159e-06
      -1.17720901e-05 -8.59352531e-06 -7.54725443e-06 -6.52488097e-06
      -1.67880137e-06 -4.31505623e-06 -4.05619204e-07 -1.23934512e-07
      -4.24364907e-06 1.96803303e-05 2.26298998e-05 1.87044916e-05
      3.91045069e-05 3.44159671e-05 5.68853029e-05 9.26915504e-07
      1.39861277e-06 3.42601015e-05 6.61815784e-06 8.46827697e-06
      1.37494289e-05 4.70712575e-06 6.29320175e-06 4.34386902e-06
      1.05768013e-05 1.23312275e-05 1.05543322e-05 1.13162569e-05
      1.09707380e-05 9.17790931e-06 1.12640591e-05 6.87410511e-06
      2.94089955e-06 2.76998562e-05 2.95728642e-05 8.58046496e-06
      1.76044632e-05 1.76102421e-05 -1.29838463e-05 -1.75741097e-05
      -1.36087538e-05 -2.48097658e-05 -2.67260166e-05 -2.21803057e-05
      -3.17753183e-05 -3.19378378e-05 -2.74093618e-05 -3.69109766e-05
      -3.69391237e-05 -3.26211630e-05 -3.46955167e-05 -3.21827465e-05
      -3.29578215e-05 -3.02551452e-05 -2.63218153e-05 -3.36948397e-05
      -2.11797596e-05 -1.95358662e-05 -2.24566102e-05 -6.22974630e-06
      -5.33240211e-07 -7.32973831e-06 4.40809890e-06 -8.97363464e-07
      1.24028929e-06 3.12253396e-05 3.22695305e-05 5.46451702e-05
      2.52689806e-05 2.88325427e-05 6.29424540e-05 -5.63740059e-06
      -3.47434195e-07 1.12071448e-05 5.63021786e-06 9.16627869e-06
      1.82994700e-05 1.24461485e-05 1.25272991e-05 8.51870664e-06
      1.49983389e-05 1.31763072e-05 5.10802374e-06 2.14000975e-05
      2.28617791e-05 1.17922320e-06 2.48200067e-05 2.37288550e-05
      -3.06124530e-05 -2.71064073e-05 -1.67266408e-05 -3.35995719e-05
      -2.77281833e-05 -1.75143941e-05 -4.91722167e-05 -4.20565120e-05
      -3.15285797e-05 -4.21825971e-05 -3.60924569e-05 -2.76479677e-05
      -4.76819732e-05 -4.40093900e-05 -3.79362973e-05 -2.61921468e-05
      -2.20910861e-05 -2.13294443e-05 -1.75775112e-05 -1.57295417e-05
      -1.85958106e-05 -2.54846254e-05 -2.70968303e-05 -2.87821495e-05
      -1.45081585e-05 -1.24768767e-05 -1.45078902e-05 1.10397687e-05
      1.19558881e-05 1.83942066e-05 1.90173923e-05 2.38260545e-05
      3.71281640e-05 3.13579949e-05 3.88258268e-05 6.30033537e-05
      -1.60759555e-05 -1.45617696e-05 3.50111113e-05 3.59469686e-06
      1.03447874e-05 1.10488418e-05 8.60985620e-06 1.05894514e-05
      9.36560900e-06 1.25472006e-05 1.19916685e-05 6.59485841e-06
      2.09770606e-05 1.85488570e-05 -2.25116692e-05 -1.63801615e-05
      -4.72344846e-06 -2.41826510e-05 -1.54603022e-05 -4.98480267e-06
      -2.58590881e-05 -1.86204234e-05 -9.55586893e-06 -1.59708306e-05
      -9.23660537e-06 5.88516798e-07 -1.43290135e-05 -7.58453371e-06
      4.93665493e-06 -2.35179705e-05 -1.74947072e-05 -8.08264758e-06
      -2.13245912e-05 -1.95607008e-05 -1.57383110e-05 -1.11034688e-05
      -1.32218584e-05 -1.05121862e-05 -1.50837434e-06 -3.77094534e-06
      -1.55001078e-06 -7.13069039e-06 -1.21001458e-05 -3.29452996e-06
      1.49071757e-05 6.31487183e-06 1.62881515e-05 2.43693958e-05
      2.94986858e-05 3.81091086e-05 4.11103174e-05 4.42151613e-05
      7.24130296e-05 1.08526583e-05 1.53796245e-05 4.38687675e-05
      5.30240959e-06 6.05016476e-06 2.61358491e-05 6.97517862e-06
      8.77225557e-06 1.38248652e-05 1.20808927e-05 2.14818538e-05
      -1.87834939e-05 -1.02571094e-05 1.46328901e-07 -6.66563710e-06
      -2.46180520e-09 7.83842552e-06 -1.42482359e-05 -7.93039271e-06
      6.39900748e-07 3.77798392e-06 1.08105505e-05 2.16680619e-05
      -9.45711417e-06 -8.31041689e-08 9.98804353e-06 -1.89331859e-05
      -9.30693750e-06 -8.90977276e-07 -2.06737095e-05 -1.63504410e-05
      -6.88915679e-06 -6.95006429e-06 -8.70217991e-06 1.80997404e-06
      9.50653248e-06 5.36033122e-06 4.43622184e-06 -2.03944910e-06
      -7.43037162e-06 -8.68308121e-07 -9.69723715e-06 -1.11937898e-05
      -9.40684276e-06 1.84862001e-05 1.85577774e-05 2.00126487e-05
      3.36500634e-05 3.56430719e-05 4.46978265e-05 2.21213631e-05
      2.48440483e-05 4.45698097e-05 4.00428289e-05 4.02122132e-05
      7.44808494e-05 1.33345256e-05 9.77606214e-06 4.85815144e-05
      3.03248385e-06 4.63155766e-06 -5.19725381e-06 1.13521864e-05
      2.08435868e-05 -7.96353925e-06 2.99778253e-06 1.65238707e-05
      1.59960346e-05 2.76784122e-05 4.34378526e-05 1.16314868e-05
      2.29892103e-05 3.60060076e-05 4.64229652e-06 1.75335426e-05
      2.98088271e-05 -5.61781599e-06 8.09475478e-06 2.21181344e-05
      -1.69759824e-05 -8.73378940e-06 6.17844944e-06 -2.61482601e-05
      -1.79610997e-05 -1.64087896e-06 -1.77905895e-05 -1.35654745e-05
      -7.36851462e-06 -1.44625528e-05 -1.27331250e-05 -1.14095683e-05
      -1.66952268e-05 -2.03893469e-05 -1.91875588e-05 -1.97926620e-05
      -2.23140341e-05 -2.28224781e-05 -1.39582526e-05 -1.33949443e-05
      -1.72537693e-05 1.12182361e-05 9.91492652e-06 1.41405062e-05
      2.10341022e-05 1.59730189e-05 3.60633385e-05 2.70322635e-05
      3.13877827e-05 4.85078235e-05 3.78041987e-05 3.57526442e-05
      -1.05271047e-05 8.05244417e-06 2.12977156e-05 -8.84873498e-06
      6.37218227e-06 2.35903244e-05 4.25337794e-06 1.79848485e-05
      3.44450091e-05 9.71829536e-07 1.58791408e-05 2.77924300e-05
      -2.78360676e-06 1.22174042e-05 1.93845153e-05 8.87524584e-06
      2.49022469e-05 3.75913842e-05 -1.36513381e-05 -2.55700661e-06
      1.35027130e-05 -2.90885164e-05 -1.74902289e-05 -3.03165280e-07
      -1.99984570e-05 -9.17060424e-06 -1.14495970e-06 -2.22430317e-05
      -1.08318454e-05 -8.62370962e-06 -1.87519872e-05 -1.44864453e-05
      -9.88369811e-06 -1.89018174e-05 -1.96231431e-05 -1.36909448e-05
      -1.42706822e-05 -1.97306690e-05 -1.32807381e-05 -1.84446144e-05
      -2.02740084e-05 -1.50788101e-05 -2.51729170e-06 -2.68199483e-06
      9.52425196e-08 2.13979329e-05 2.15373711e-05 2.16471599e-05
      3.82265462e-05 3.44022374e-05 -8.64261347e-06 7.79496168e-06
      2.34595882e-05 -6.54879341e-06 6.62445836e-06 2.60846700e-05
      1.65240488e-06 1.53080655e-05 3.29753784e-05 5.39467578e-07
      1.41217215e-05 2.68058684e-05 -4.96766643e-06 6.74423200e-06
      1.75108798e-05 3.29562863e-06 1.40329494e-05 2.51910587e-05
      -1.88144677e-05 -9.85568840e-06 3.70539783e-06 -2.39474066e-05
      -1.83254451e-05 -4.76709783e-06 -2.32741859e-05 -1.82306685e-05
      -5.25230598e-06 -2.48404940e-05 -2.08744714e-05 -9.75094008e-06
      -2.11646438e-05 -1.83802531e-05 -1.08022905e-05 -2.40270310e-05
      -2.24001542e-05 -1.35439450e-05 -8.76990180e-06 -1.05208865e-05
      -3.55414431e-06 -1.66160532e-06 -4.64703271e-06 1.94044901e-06
      -5.56722762e-06 -5.78470645e-06 -1.27576349e-08 -8.73285956e-07
      -3.73081576e-07 8.34376169e-06 5.60744184e-06 2.23695542e-06</_></support_vectors>
  <decision_functions>
    <_>
      <sv_count>1</sv_count>
      <rho>2.3842646727435116e-01</rho>
      <alpha>
        1.</alpha>
      <index>
        0</index></_></decision_functions></my_svm>
</opencv_storage>
