<?xml version="1.0"?>
<opencv_storage>
<my_svm type_id="opencv-ml-svm">
  <svm_type>C_SVC</svm_type>
  <kernel><type>LINEAR</type></kernel>
  <C>1.0000000000000001e-01</C>
  <term_criteria><epsilon>2.2204460492503131e-16</epsilon>
    <iterations>1000</iterations></term_criteria>
  <var_all>2500</var_all>
  <var_count>2500</var_count>
  <class_count>14</class_count>
  <class_labels type_id="opencv-matrix">
    <rows>1</rows>
    <cols>14</cols>
    <dt>i</dt>
    <data>
      -5 -4 -3 -2 -1 1 2 3 4 5 6 7 8 9</data></class_labels>
  <sv_total>91</sv_total>
  <support_vectors>
    <_>
      1.06739089e-05 9.43476971e-06 1.10315041e-05 1.12102780e-05
      1.54520512e-05 1.64723679e-05 1.77531474e-05 2.56937528e-05
      2.42410861e-05 1.85106874e-05 1.66467034e-05 1.61918015e-05
      2.00228296e-05 1.88268787e-05 1.64095527e-05 1.26475743e-05
      1.48955824e-05 1.27555923e-05 1.91819836e-05 1.30579338e-05
      2.18220121e-05 1.68159040e-05 9.65893742e-06 -3.30239544e-07
      -3.16894989e-06 -5.11580538e-06 -1.16886201e-06 -4.16198645e-06
      -2.04563594e-06 8.33419290e-06 -3.50694540e-06 6.72956801e-08
      -5.95646725e-07 -5.21282163e-06 5.63731146e-06 6.67832455e-06
      1.55532825e-06 3.59958608e-06 7.08990740e-07 -4.29468309e-06
      -5.77786523e-06 -3.56777582e-06 -6.38392066e-07 -5.79195466e-06
      -5.17582384e-06 -3.39049802e-06 -6.25760208e-07 -3.09078450e-06
      -2.54351062e-06 -5.79245307e-06 3.01434920e-06 1.90253595e-05
      2.05090582e-05 1.08087079e-05 1.11021691e-05 1.75207188e-05
      1.72041073e-05 1.16974543e-05 1.56112856e-05 2.07805642e-05
      2.53280723e-05 2.13031799e-05 1.87623154e-05 1.65268575e-05
      1.65027559e-05 1.43351008e-05 1.22462125e-05 9.49965761e-06
      1.47516203e-05 1.16709152e-05 1.96604487e-05 2.10865783e-05
      2.16556291e-05 1.74478337e-05 1.07022588e-05 1.52052689e-05
      1.11969357e-05 6.09530571e-06 8.28115208e-06 1.54318095e-05
      1.16409410e-05 7.70685620e-06 5.51267021e-06 -5.67617963e-06
      2.47644977e-07 1.49620098e-06 -4.11358906e-06 -2.30478440e-06
      -4.64255527e-06 -8.29292003e-06 -8.71491739e-06 -1.02967706e-05
      -8.25759344e-06 -1.06688412e-05 -1.05566005e-05 -1.25825154e-05
      -1.24179105e-05 -1.28716865e-05 -4.40067242e-06 -6.98976555e-06
      6.20208903e-06 1.36345216e-05 8.25598272e-06 -3.41446980e-06
      -6.44738248e-06 -3.22250617e-06 -2.92270192e-06 -9.57224643e-07
      -1.37805456e-08 2.63103107e-06 5.06602601e-06 4.17530646e-06
      6.36986579e-06 7.57287899e-06 7.73608008e-06 9.15030250e-06
      1.71110078e-05 1.62225879e-05 1.96736710e-05 2.48894321e-05
      3.21017251e-05 2.94621623e-05 2.80023251e-05 2.79583001e-05
      3.47313944e-05 3.65263477e-05 2.39584697e-05 2.69354059e-05
      2.86889353e-05 2.30522237e-05 2.59452663e-05 2.66977422e-05
      2.21199571e-05 4.67686823e-06 2.26796374e-06 -1.09775431e-06
      -8.97930659e-06 -6.66147798e-06 -7.31417367e-06 -9.63092589e-06
      -9.41814051e-06 -1.26543282e-05 -9.88592092e-06 -9.43762552e-06
      -1.03088169e-05 -1.42743338e-05 -1.38458345e-05 -1.36767139e-05
      -5.68357609e-06 -7.50415393e-06 9.01042040e-06 6.11082669e-06
      -7.27282031e-06 -1.51711538e-05 -1.57840368e-05 -1.76354806e-05
      -1.95135817e-05 -1.24164308e-05 -1.16066276e-05 -1.22485990e-05
      -1.08643844e-05 -5.48086564e-06 6.43840337e-07 3.21149719e-06
      2.94601614e-06 6.81839356e-06 2.22307372e-05 2.57819302e-05
      2.76030041e-05 3.43617066e-05 3.71793612e-05 3.23688437e-05
      3.36438279e-05 4.07926127e-05 4.51309206e-05 4.87375728e-05
      3.49155307e-05 3.12707707e-05 3.19916362e-05 2.75309358e-05
      3.36385929e-05 3.31374249e-05 3.11033073e-05 2.06119257e-05
      1.54196368e-05 5.78698155e-06 -6.10522966e-06 -9.33646061e-06
      -1.24401004e-05 -1.41218079e-05 -1.31414026e-05 -1.58775692e-05
      -1.40236289e-05 -1.29340060e-05 -1.27636840e-05 -1.39163676e-05
      -1.04152878e-05 -1.09934217e-05 -4.68350163e-06 -6.19712819e-06
      9.65639970e-07 3.34007473e-06 -1.17120508e-05 -1.63649893e-05
      -1.46387038e-05 -1.74503912e-05 -1.90938154e-05 -1.85187237e-05
      -1.45156773e-05 -1.23449026e-05 -1.08137601e-05 -7.86587225e-06
      -3.87839236e-06 6.33673972e-06 1.73853023e-05 2.50270750e-05
      3.03326797e-05 2.92352361e-05 2.58986274e-05 2.77604031e-05
      2.79649030e-05 2.95533373e-05 3.46889101e-05 4.17223273e-05
      4.44660254e-05 3.96738978e-05 3.06220754e-05 2.29304878e-05
      2.42609185e-05 2.76553073e-05 2.82135206e-05 2.69480806e-05
      2.87047114e-05 2.70768342e-05 2.56051881e-05 1.99645710e-05
      1.11867266e-05 2.10755161e-06 -7.65756249e-06 -1.54346126e-05
      -1.51426539e-05 -1.74616671e-05 -1.72417240e-05 -1.70920830e-05
      -1.48070694e-05 -1.46629500e-05 -1.27999492e-05 -1.55923135e-05
      -8.53657093e-06 -9.99490749e-06 1.33264041e-06 8.54919381e-06
      -1.41881756e-05 -1.88809936e-05 -1.59710326e-05 -1.84660876e-05
      -1.23958516e-05 -1.32186215e-05 -1.90875307e-05 -1.28376359e-05
      -7.37267555e-06 -1.37368829e-06 6.76425498e-06 2.07155172e-05
      2.92442019e-05 3.13080927e-05 2.65622602e-05 2.82766759e-05
      2.71954923e-05 2.01105213e-05 1.49171137e-05 1.97343961e-05
      2.90421813e-05 3.57379213e-05 3.29855320e-05 2.25346939e-05
      1.96401270e-05 1.29622895e-05 7.83188716e-06 1.22336523e-05
      1.28639122e-05 2.32823841e-05 2.46553518e-05 2.61251007e-05
      2.58323907e-05 2.52755035e-05 2.39721376e-05 1.92577008e-05
      1.01461792e-05 -4.74580293e-06 -1.32736595e-05 -1.74361867e-05
      -1.45390195e-05 -1.60869768e-05 -1.75427904e-05 -1.89281745e-05
      -1.55640955e-05 -1.46162738e-05 -1.02510703e-05 -1.10278588e-05
      4.73524597e-06 1.36594608e-05 -1.09370221e-05 -2.03424170e-05
      -1.98568214e-05 -2.01352141e-05 -1.10870560e-05 -1.03327811e-05
      -1.71169850e-05 -9.15645342e-06 1.29203920e-06 1.38001878e-05
      2.30450078e-05 3.21152729e-05 3.16907244e-05 2.89236868e-05
      2.16381541e-05 1.32640052e-05 5.97297776e-06 -5.78218248e-07
      1.52303664e-06 1.35727778e-05 2.45608589e-05 2.58479540e-05
      1.98240778e-05 1.59740011e-05 1.30415337e-05 2.29214356e-06
      -9.84878443e-06 -6.92197727e-06 -2.87557577e-06 5.13663372e-06
      1.63569566e-05 2.31837221e-05 2.44319290e-05 2.62654230e-05
      2.87101611e-05 2.79958131e-05 2.47105891e-05 1.42128983e-05
      -4.03403965e-06 -1.64277390e-05 -1.57571267e-05 -1.72908694e-05
      -1.92737170e-05 -2.08092642e-05 -1.66557638e-05 -1.43677216e-05
      -1.12593871e-05 -1.15053208e-05 2.02769627e-07 5.72399358e-06
      -8.95458652e-06 -1.91481104e-05 -1.91948548e-05 -1.95074826e-05
      -2.13343865e-05 -1.58579496e-05 -1.39901695e-05 9.13109716e-07
      1.69392169e-05 2.86758914e-05 3.20667459e-05 3.19155843e-05
      2.49082259e-05 1.91871131e-05 1.05539038e-05 -2.93966582e-06
      -7.51823563e-06 -1.15077919e-05 -1.24690441e-05 -4.72146621e-06
      1.17662285e-05 1.41720102e-05 1.20755140e-05 1.98858515e-06
      -3.54796498e-06 3.46251795e-07 -1.29990376e-05 -1.83422508e-05
      -1.50669212e-05 -1.38176856e-05 -9.26408484e-06 1.55174541e-06
      7.32870103e-06 1.61078351e-05 2.34668933e-05 2.32613038e-05
      2.27059536e-05 2.10447070e-05 1.08049835e-05 -7.32215904e-06
      -1.68397273e-05 -2.04634907e-05 -1.82349522e-05 -1.90442825e-05
      -1.80836960e-05 -1.91730196e-05 -1.43212565e-05 -1.40773300e-05
      1.33219498e-06 9.02246393e-06 -8.75865499e-06 -2.21279315e-05
      -2.12084906e-05 -1.98358066e-05 -1.40028378e-05 -1.29209457e-05
      -6.04446058e-08 1.68752431e-05 2.76365099e-05 3.04532805e-05
      2.85556707e-05 2.13500007e-05 8.79908930e-06 -3.15113994e-06
      -1.21534958e-05 -2.03732288e-05 -1.58374787e-05 -2.17337692e-05
      -2.62235590e-05 -4.88687238e-06 -1.65014072e-07 -6.71273165e-06
      -1.73938333e-05 -2.10608396e-05 -1.43492289e-05 -1.53121891e-05
      -1.80567386e-05 -2.88426527e-05 -2.81862340e-05 -2.56416133e-05
      -2.16223598e-05 -1.73010285e-05 -1.18601602e-05 -9.52554842e-07
      1.17188783e-05 1.88313970e-05 2.26437132e-05 2.51140864e-05
      2.03476538e-05 1.03215598e-05 -4.29395186e-06 -1.36826147e-05
      -1.80718762e-05 -1.93068299e-05 -2.05891047e-05 -1.93057494e-05
      -1.67881080e-05 -1.49022526e-05 -6.01803868e-06 4.60921882e-07
      -1.19903852e-05 -1.89895472e-05 -1.46307966e-05 -1.40981456e-05
      -1.25722972e-05 -3.58696320e-06 1.34473794e-05 2.39679212e-05
      2.61280711e-05 2.29794896e-05 1.39200001e-05 1.28014119e-06
      -1.09774619e-05 -1.81094765e-05 -1.81975265e-05 -2.32004495e-05
      -2.88928495e-05 -3.25255460e-05 -3.06145776e-05 -1.94357526e-05
      -2.22156432e-05 -3.06450274e-05 -2.65281615e-05 -3.09150200e-05
      -2.58389555e-05 -2.39015972e-05 -2.78645257e-05 -4.13532471e-05
      -4.98793888e-05 -3.40751394e-05 -3.07253067e-05 -2.53162616e-05
      -2.20409493e-05 -1.83916327e-05 -9.15709643e-06 4.21771301e-06
      1.70755848e-05 2.35293555e-05 2.26685443e-05 2.02743722e-05
      1.19245606e-05 -2.06092272e-06 -1.51898093e-05 -1.92950101e-05
      -2.00567847e-05 -1.82452732e-05 -1.50301184e-05 -1.36373228e-05
      -1.09546681e-05 -4.52765653e-06 -1.41857445e-05 -1.82023723e-05
      -1.33882222e-05 -1.16442397e-05 -8.13882707e-06 1.02340719e-05
      2.31255399e-05 2.55119994e-05 2.22669787e-05 1.00746265e-05
      -5.95327992e-06 -1.57707800e-05 -1.98535836e-05 -2.09668906e-05
      -2.28449444e-05 -3.09111165e-05 -4.88487130e-05 -4.64859841e-05
      -3.24385510e-05 -2.72284706e-05 -2.99336189e-05 -3.42207568e-05
      -3.07042101e-05 -2.68338590e-05 -2.24383257e-05 -2.82670680e-05
      -3.73568437e-05 -4.27006853e-05 -5.15557040e-05 -5.40891742e-05
      -4.76057539e-05 -3.73848306e-05 -3.05300709e-05 -2.66505704e-05
      -2.15310793e-05 -1.19666274e-05 3.96413770e-06 1.72687178e-05
      2.25301028e-05 2.34053241e-05 2.21638493e-05 1.38098912e-05
      -3.87523414e-06 -1.58755647e-05 -1.94489330e-05 -1.71544252e-05
      -1.58742077e-05 -1.44997284e-05 -1.21017556e-05 -4.31245417e-06
      -1.71603751e-05 -2.06914156e-05 -1.47418368e-05 -8.15966905e-06
      6.80450341e-07 1.82893600e-05 2.51674646e-05 2.20487345e-05
      1.04444080e-05 -6.83043618e-06 -1.85571225e-05 -2.14279862e-05
      -2.41712823e-05 -2.91970664e-05 -3.92230431e-05 -4.61484669e-05
      -5.53497739e-05 -4.22953708e-05 -2.65803701e-05 -2.70718319e-05
      -2.65263679e-05 -2.64743812e-05 -2.90384487e-05 -2.40594964e-05
      -1.74168217e-05 -2.09253558e-05 -2.92192526e-05 -3.98001175e-05
      -4.63220931e-05 -6.22026128e-05 -5.93705918e-05 -5.37832748e-05
      -4.63624492e-05 -3.45813787e-05 -2.57829379e-05 -2.08218062e-05
      -1.09551020e-05 3.58751026e-06 1.78892333e-05 2.29293219e-05
      2.47612443e-05 2.49136483e-05 1.35431146e-05 -4.54048359e-06
      -1.64141657e-05 -1.77711609e-05 -1.48678455e-05 -1.31375682e-05
      -1.44438263e-05 -5.92709875e-06 -2.08205165e-05 -2.10900180e-05
      -8.99326096e-06 4.07954258e-06 1.48167774e-05 2.17408433e-05
      2.33448591e-05 1.32256473e-05 -5.64091488e-06 -1.80025927e-05
      -2.08574329e-05 -2.35791431e-05 -3.43736065e-05 -4.65059529e-05
      -5.43214192e-05 -5.65669689e-05 -5.03342126e-05 -3.50825212e-05
      -2.51198599e-05 -2.71156350e-05 -2.27062192e-05 -1.83516022e-05
      -2.45429710e-05 -2.28552581e-05 -2.09299160e-05 -1.95109151e-05
      -2.24504129e-05 -3.50901028e-05 -4.38191528e-05 -5.46499068e-05
      -6.17191399e-05 -6.14583696e-05 -5.78038525e-05 -4.81710667e-05
      -3.59366095e-05 -2.60009547e-05 -1.99482329e-05 -1.17942282e-05
      4.50967673e-06 1.76539615e-05 2.40218869e-05 2.70495857e-05
      2.47692442e-05 1.00831467e-05 -1.03398370e-05 -1.84338587e-05
      -1.40890061e-05 -1.18953703e-05 -1.67407252e-05 -8.37666903e-06
      -2.11534498e-05 -1.89258462e-05 -1.92780294e-06 1.51025788e-05
      2.44730090e-05 2.33024857e-05 1.91043200e-05 1.46074387e-06
      -1.56335100e-05 -2.17739562e-05 -2.39366582e-05 -3.35129153e-05
      -4.83781841e-05 -5.81499262e-05 -6.07754082e-05 -5.55731785e-05
      -4.05631981e-05 -3.03227516e-05 -2.47592288e-05 -2.45713418e-05
      -1.98423222e-05 -1.59831270e-05 -2.99060048e-05 -3.46262350e-05
      -3.32527343e-05 -2.63324400e-05 -2.83934696e-05 -2.82621168e-05
      -3.65090455e-05 -4.52668646e-05 -5.87643553e-05 -6.20632709e-05
      -6.14635428e-05 -5.83238943e-05 -5.08016201e-05 -3.60831727e-05
      -2.49932982e-05 -2.08324727e-05 -1.01478663e-05 7.74063665e-06
      2.08915535e-05 2.66453935e-05 2.65318577e-05 1.85594690e-05
      -1.07035930e-06 -1.42165482e-05 -1.24290536e-05 -1.04042620e-05
      -1.79788403e-05 -9.33943920e-06 -1.59382671e-05 -1.45264357e-05
      4.20902006e-06 2.13399471e-05 2.66873103e-05 2.13170952e-05
      7.64751803e-06 -1.15451630e-05 -2.14759311e-05 -2.30829955e-05
      -3.01431228e-05 -4.66579804e-05 -5.84787886e-05 -6.12132499e-05
      -6.22867301e-05 -4.64936202e-05 -3.15827710e-05 -2.99854037e-05
      -2.26690863e-05 -1.56138449e-05 -1.03453658e-05 -1.32727855e-05
      -2.83759582e-05 -4.13770213e-05 -4.16287985e-05 -2.87512376e-05
      -3.00231222e-05 -2.73371115e-05 -3.15526559e-05 -3.74666379e-05
      -4.46052036e-05 -5.06607503e-05 -5.37496817e-05 -5.18871930e-05
      -5.27400152e-05 -4.84159355e-05 -3.47334098e-05 -2.59091121e-05
      -1.84314977e-05 -2.12240275e-06 1.57716768e-05 2.52397222e-05
      2.56825970e-05 2.33299488e-05 1.20396589e-05 -4.38905499e-06
      -1.35655773e-05 -1.28856900e-05 -1.91183317e-05 -8.54014434e-06
      -9.23910738e-06 -8.21453705e-06 1.31349288e-05 2.85861770e-05
      2.70183373e-05 1.21434787e-05 -7.15607393e-06 -2.02733299e-05
      -2.23101033e-05 -2.45133797e-05 -3.31356532e-05 -4.29130268e-05
      -4.80750423e-05 -5.00264978e-05 -4.80194940e-05 -3.29397553e-05
      -3.27627968e-05 -4.27736959e-05 -2.68841650e-05 -3.74726187e-06
      1.09989232e-05 5.63370850e-06 -6.63045648e-06 -1.60857035e-05
      -3.11524091e-05 -3.14007375e-05 -2.99499716e-05 -3.02819517e-05
      -2.52500704e-05 -2.54288443e-05 -1.92573316e-05 -2.67486812e-05
      -3.22837986e-05 -3.03467368e-05 -3.58016805e-05 -4.68402577e-05
      -4.68138132e-05 -3.61130078e-05 -2.45182946e-05 -1.29286400e-05
      4.93718926e-06 2.10037088e-05 2.47919543e-05 2.57720840e-05
      2.21411683e-05 8.62548677e-06 -4.29742295e-06 -7.56568625e-06
      -1.73469289e-05 -1.82574570e-06 -7.67268284e-06 3.24301737e-07
      1.59969186e-05 3.20025938e-05 2.10544495e-05 1.11133659e-06
      -1.42656527e-05 -2.44008279e-05 -2.42679380e-05 -2.90691078e-05
      -2.50925968e-05 -1.85581521e-05 -2.62322610e-05 -2.63230431e-05
      -2.12607229e-05 -1.70373969e-05 -2.80506738e-05 -2.62758313e-05
      -8.23283881e-06 2.36601827e-05 3.71564529e-05 2.63542661e-05
      1.72900181e-05 9.31783234e-06 -3.75491868e-06 -1.46755556e-05
      -2.21684895e-05 -2.59414774e-05 -2.10816797e-05 -3.12816451e-06
      1.24736653e-06 -5.34993114e-06 -8.22798211e-06 -5.18252773e-06
      -1.07128744e-05 -1.96367801e-05 -3.26399168e-05 -3.39965809e-05
      -2.19096310e-05 -1.78604896e-05 -7.47297008e-06 1.31252036e-05
      2.43188770e-05 2.63707407e-05 2.85981041e-05 1.50985015e-05
      -1.72064188e-06 -8.88101476e-06 -1.24813632e-05 2.83659460e-06
      -1.62310289e-06 5.64082666e-06 1.76806243e-05 3.05313370e-05
      1.40300044e-05 -8.72468991e-06 -2.17189754e-05 -2.08863112e-05
      -2.03676864e-05 -2.26193206e-05 -5.60510989e-06 7.59742943e-06
      -1.40566669e-06 -5.95113988e-06 5.49474271e-06 -6.14919963e-06
      -2.02500414e-05 -1.42999752e-05 1.39473877e-05 5.17675144e-05
      5.25149117e-05 4.04885905e-05 4.31503395e-05 3.54112599e-05
      2.65060753e-05 1.88453214e-05 -1.79467281e-06 -2.06922978e-05
      -1.45502172e-05 3.80351207e-06 1.49070247e-05 1.64084086e-05
      1.36388035e-05 1.71029769e-05 1.42126482e-05 1.11860018e-05
      1.66448331e-07 -1.63963377e-05 -1.42309809e-05 -1.40595130e-05
      -1.26748209e-05 4.95684708e-06 2.11621082e-05 2.48772194e-05
      2.94033289e-05 2.02472675e-05 4.50548077e-06 -5.69952681e-06
      -6.21476511e-06 7.04725744e-06 5.57593830e-06 1.52625325e-05
      2.16174885e-05 2.61556070e-05 3.65147821e-06 -1.56013284e-05
      -2.35036568e-05 -1.75334353e-05 -1.34351239e-05 -7.77143578e-06
      1.07183660e-05 1.81863597e-05 1.25923943e-05 1.06835159e-05
      1.65183919e-05 2.77725553e-06 -1.18494745e-05 -8.63396599e-06
      3.49909860e-05 5.83612054e-05 6.06746289e-05 5.20478352e-05
      5.07429686e-05 4.38386705e-05 2.99643416e-05 2.88610845e-05
      1.98927992e-05 4.58442258e-07 8.75808269e-07 1.52044840e-05
      2.72690068e-05 3.53193718e-05 3.15629586e-05 2.77133531e-05
      2.29937286e-05 2.26815646e-05 1.39294443e-05 -7.00256305e-06
      -7.85097382e-06 -4.58360500e-06 -1.10368310e-05 -5.44444583e-06
      1.39584317e-05 2.37630447e-05 3.04350633e-05 2.41534108e-05
      1.04194778e-05 4.07926336e-07 -2.41140287e-06 9.64933315e-06
      1.02226177e-05 2.01286475e-05 2.29085363e-05 2.18114892e-05
      -4.88488149e-06 -1.98035759e-05 -1.75739297e-05 -1.28239944e-05
      -1.15140474e-05 -4.43049248e-06 7.81117615e-06 1.29241116e-05
      1.93355208e-05 2.57516149e-05 1.41312184e-05 4.30757291e-06
      -1.57927443e-05 6.46389981e-06 4.04776474e-05 4.35873117e-05
      5.27047632e-05 4.63408287e-05 3.79898120e-05 3.64545995e-05
      3.10228315e-05 3.04882578e-05 2.15213440e-05 8.97305108e-06
      7.05132470e-06 1.40675356e-05 4.11412766e-05 4.37196104e-05
      3.33399148e-05 2.24011528e-05 2.03692362e-05 2.31202594e-05
      1.10109504e-05 -5.88276180e-06 -1.30108838e-05 -4.66997290e-06
      -7.12607562e-06 -8.43279668e-06 8.60166256e-06 2.27494420e-05
      2.91625274e-05 2.44011135e-05 1.42408007e-05 4.89951572e-06
      -4.55397810e-07 1.08155336e-05 1.02344038e-05 2.07656885e-05
      2.31332160e-05 2.01032781e-05 -7.19233367e-06 -2.16125336e-05
      -1.19372089e-05 -2.93041694e-06 -8.02519480e-06 -1.22906476e-05
      -7.34810692e-06 2.55821146e-06 1.93704545e-05 2.85525111e-05
      1.34871470e-05 -2.47742128e-06 -1.44484065e-05 1.65290403e-05
      3.44234868e-05 2.92466448e-05 3.66919157e-05 2.68981312e-05
      1.02569957e-05 2.79701108e-05 3.51959025e-05 3.15463149e-05
      2.07423382e-05 7.78993490e-06 3.07018695e-06 2.21629125e-05
      4.62670687e-05 4.58723589e-05 2.23559891e-05 9.73627630e-06
      1.25044753e-05 1.62159595e-05 8.51873119e-06 -5.17941498e-06
      -1.78802893e-05 -9.82040001e-06 -2.90568164e-06 -4.77225467e-06
      6.46951503e-06 2.13948642e-05 2.87598632e-05 2.83313911e-05
      2.45906449e-05 1.50173601e-05 2.07113021e-06 1.19627775e-05
      9.14102839e-06 2.15928922e-05 2.19661488e-05 1.59950469e-05
      -7.97800203e-06 -1.99440765e-05 -1.14289878e-05 7.24628194e-07
      -5.24717279e-06 -1.80778588e-05 -1.44394198e-05 2.59792910e-06
      1.76419308e-05 2.15259915e-05 6.97680980e-06 -4.98758118e-06
      -4.10595294e-06 -6.75841108e-08 1.37052057e-05 1.21116136e-05
      4.84692782e-06 -1.51287679e-06 -8.68734242e-06 1.21622033e-05
      3.02840890e-05 3.36608718e-05 1.97609443e-05 7.06599985e-06
      2.40444319e-06 1.92662737e-05 4.35711554e-05 5.00439673e-05
      1.83899647e-05 2.04911521e-06 1.51846507e-07 -2.04192247e-06
      -1.04232311e-06 -9.77446689e-06 -1.84378023e-05 -1.09340799e-05
      1.22017832e-06 -5.43321903e-07 4.87370244e-06 1.90399933e-05
      2.96405324e-05 3.24956745e-05 2.36563210e-05 1.43900743e-05
      2.96622125e-06 1.27895419e-05 8.86460020e-06 2.28634672e-05
      1.94998720e-05 8.85556074e-06 -9.98849191e-06 -1.99140050e-05
      -1.58178300e-05 -1.46868224e-05 -1.58217790e-05 -1.84748878e-05
      -7.32282615e-06 1.14918657e-05 1.88203521e-05 1.80728202e-05
      1.28080774e-05 4.59099374e-06 -1.78142782e-05 -3.49210823e-05
      -2.86164686e-05 -2.01909043e-05 -2.30582573e-05 -7.38725248e-06
      -1.11275112e-05 1.27875583e-05 2.87658313e-05 3.28792848e-05
      2.21062528e-05 7.88298894e-06 -2.55619534e-06 6.96760026e-06
      4.46877166e-05 5.25188188e-05 2.20173642e-05 -1.73924127e-06
      -5.33018601e-06 -8.98132930e-06 -1.23740210e-05 -1.28236670e-05
      -1.86513280e-05 -1.16739020e-05 2.04848993e-06 7.51840730e-07
      2.59530702e-06 1.50716114e-05 2.61320984e-05 3.00450411e-05
      2.76034061e-05 1.98046164e-05 2.71511340e-06 1.33680815e-05
      8.93806282e-06 2.42273945e-05 1.84232031e-05 4.72693637e-06
      -1.06724747e-05 -2.12482410e-05 -2.25289277e-05 -3.91777576e-05
      -3.77326542e-05 -2.31492450e-05 4.30364679e-07 1.72832279e-05
      1.99589649e-05 2.09110112e-05 8.70201893e-06 -8.78160279e-07
      -3.40652114e-05 -3.62193387e-05 -2.69489410e-05 -3.93728078e-05
      -2.44006897e-05 -7.04532931e-06 1.81365544e-06 2.51027304e-05
      3.39163817e-05 2.91598899e-05 1.39418607e-05 1.08151762e-05
      1.29355985e-05 1.83363645e-05 4.63077486e-05 4.74013104e-05
      2.23694133e-05 -3.87988121e-06 -2.69948578e-06 -1.65413508e-06
      -1.79533308e-05 -1.40586408e-05 -1.62185370e-05 -1.07479136e-05
      5.55205190e-07 -2.32336765e-06 -4.77258027e-06 8.96425991e-06
      2.55381583e-05 3.13056516e-05 2.93917328e-05 2.40971622e-05
      3.35319464e-06 1.16892024e-05 1.21254379e-05 2.10719827e-05
      1.84910914e-05 5.63630783e-06 -1.13622127e-05 -2.39471319e-05
      -2.99905951e-05 -4.98244626e-05 -5.20066096e-05 -3.20344079e-05
      2.14301531e-06 1.80383140e-05 2.21347782e-05 1.75172190e-05
      1.21195008e-05 1.58823023e-05 -2.72844627e-05 -3.28861133e-05
      -3.03726647e-05 -4.62711541e-05 -1.79817580e-05 1.59811725e-06
      2.53143025e-05 3.32896961e-05 2.85166989e-05 2.77118797e-05
      1.44224359e-07 5.53916095e-08 1.80395236e-05 1.57864724e-05
      3.48037029e-05 4.25014186e-05 2.33731371e-05 5.86174664e-09
      4.78299000e-07 4.74516855e-06 -1.20242375e-05 -2.35341595e-05
      -1.97611953e-05 -9.75466355e-06 1.26020018e-06 -4.31697072e-06
      -8.90908086e-06 6.27340069e-06 2.83748595e-05 3.46512788e-05
      3.22128799e-05 2.34608651e-05 1.94673612e-06 9.74609702e-06
      9.71366080e-06 2.05902343e-05 1.84606670e-05 5.15805959e-06
      -1.10496303e-05 -2.14923657e-05 -3.06391630e-05 -5.19724708e-05
      -5.63368267e-05 -2.51313104e-05 6.90400520e-06 1.89863476e-05
      2.35342704e-05 2.14265929e-05 2.03846612e-05 7.46677460e-06
      -1.72925338e-05 -3.82624639e-05 -3.41153682e-05 -3.47248351e-05
      -1.33766825e-05 1.80014031e-05 4.33799905e-05 4.28740750e-05
      2.57611118e-05 1.14274671e-05 -1.22817237e-05 -4.37677409e-06
      1.49862999e-05 1.12523703e-05 2.56850726e-05 3.55416123e-05
      1.58870371e-05 2.19815388e-06 3.57928752e-06 9.07359754e-06
      -6.37342282e-06 -2.06345067e-05 -2.07062512e-05 -1.04182627e-05
      6.19662160e-07 -4.34747426e-06 -8.35185801e-06 5.27291513e-06
      2.61476453e-05 3.67168650e-05 3.02659264e-05 2.17598026e-05
      1.09404323e-06 9.92867353e-06 9.36856668e-06 2.09451064e-05
      1.89977309e-05 4.24540758e-06 -1.13068763e-05 -2.14732954e-05
      -3.34246324e-05 -4.71338062e-05 -4.75060333e-05 -2.15188848e-05
      1.10687624e-05 1.97944210e-05 1.71029078e-05 2.33452047e-05
      2.31299437e-05 4.78698985e-06 -1.45561507e-05 -3.26485315e-05
      -3.11938347e-05 -2.85401893e-05 3.47864307e-06 3.56837118e-05
      4.95112436e-05 4.30622131e-05 2.72525031e-05 -8.94544064e-06
      -2.90156786e-05 -1.74962352e-05 6.50890524e-06 2.23271454e-05
      2.66189963e-05 3.55790726e-05 9.10285326e-06 2.17546562e-06
      9.60386842e-06 1.32367422e-05 2.97018482e-06 -7.77524019e-06
      -1.90918126e-05 -1.10373003e-05 2.31834906e-06 -3.74862975e-06
      -9.09218488e-06 3.39195003e-06 2.07386965e-05 3.10926625e-05
      2.91212928e-05 2.08867132e-05 -5.10333962e-07 1.10678720e-05
      1.01742862e-05 2.15923938e-05 2.00841296e-05 5.14767362e-06
      -1.10638375e-05 -2.25640633e-05 -2.75811544e-05 -4.49577456e-05
      -2.94715774e-05 -1.31633196e-05 7.97759094e-06 2.23480329e-05
      2.56768599e-05 2.52797417e-05 2.34345516e-05 9.01228668e-06
      -5.45603280e-06 -1.80787756e-05 -2.51191486e-05 -1.65802830e-05
      1.77928614e-05 4.39853975e-05 4.46721860e-05 3.77581891e-05
      1.51574668e-05 -2.68292551e-05 -4.21018194e-05 -3.57870158e-05
      -2.17582419e-06 2.78961288e-05 3.17347076e-05 4.07711304e-05
      1.26496325e-05 -1.60605134e-06 1.52251450e-05 1.78555474e-05
      1.63835703e-05 1.39216745e-05 -7.35779531e-06 -1.07823334e-05
      3.24770463e-06 -3.51035987e-06 -6.89584749e-06 9.39229994e-06
      2.51254205e-05 3.40246297e-05 2.98566265e-05 2.15834407e-05
      -3.55701604e-06 1.10939118e-05 1.02510003e-05 2.12653813e-05
      2.21204300e-05 8.93161450e-06 -8.93196011e-06 -2.29656216e-05
      -2.12826744e-05 -2.47097305e-05 -1.85422050e-05 -1.24321141e-05
      7.63954722e-06 2.10130002e-05 2.54979423e-05 2.60722190e-05
      2.26644879e-05 1.70248441e-05 -1.00416646e-05 -9.60956095e-06
      -4.37648987e-06 6.78859976e-07 3.73441435e-05 4.62075004e-05
      4.29000756e-05 3.32380259e-05 -3.61357229e-06 -4.53630164e-05
      -4.62099779e-05 -5.58420797e-05 -1.29370369e-06 2.23805655e-05
      3.47937421e-05 4.17694646e-05 2.40725276e-05 -9.35789544e-08
      2.11585957e-05 2.48421857e-05 2.93474150e-05 3.08496019e-05
      5.99932582e-06 -9.25480981e-06 1.62126753e-06 9.47563024e-07
      3.25946485e-06 1.66861792e-05 2.80143922e-05 3.45188273e-05
      2.99545300e-05 2.15717846e-05 -3.17200875e-06 1.10235815e-05
      9.64959418e-06 2.05240922e-05 2.44670500e-05 1.27794920e-05
      -6.82843302e-06 -2.21234241e-05 -1.68421775e-05 -2.95552741e-06
      -1.87098685e-05 -1.48182935e-05 1.27760659e-05 2.00113809e-05
      1.98149373e-05 2.64516457e-05 2.48263077e-05 1.22745369e-05
      -6.44383636e-06 -4.62680146e-06 1.88407412e-05 3.22154556e-05
      4.22752346e-05 4.91891296e-05 4.40814438e-05 2.79092637e-05
      -1.73290482e-05 -3.71322712e-05 -5.94771082e-05 -4.49195759e-05
      -1.61869093e-06 2.65096369e-05 4.12815825e-05 4.06245745e-05
      3.16072219e-05 1.36986964e-05 3.56678102e-05 3.51672024e-05
      4.15266841e-05 3.76554890e-05 1.66887512e-05 -5.09176402e-07
      1.10411497e-06 2.34911204e-06 9.74313662e-06 1.90468800e-05
      2.61593977e-05 3.26167137e-05 2.84712114e-05 2.00113427e-05
      -9.65719323e-07 1.01258165e-05 7.99827740e-06 2.07037174e-05
      2.63247566e-05 1.52745324e-05 -2.76040078e-06 -1.58388666e-05
      -3.15193643e-06 -2.92225013e-06 -1.75305213e-05 -6.45807449e-06
      1.45219128e-05 2.36123924e-05 3.29706745e-05 3.09154857e-05
      2.97433890e-05 1.41547043e-05 4.61222908e-06 1.15994944e-05
      3.16393380e-05 4.45373335e-05 4.56299640e-05 4.66745805e-05
      4.32721754e-05 1.71260654e-05 6.74123612e-07 -2.37242293e-05
      -3.63903637e-05 -3.09111383e-05 -1.91547929e-06 2.52996106e-05
      4.19525641e-05 4.28089988e-05 3.06315596e-05 2.26435313e-05
      4.97598230e-05 5.14879721e-05 5.69914555e-05 4.67758946e-05
      2.52366990e-05 1.49359175e-05 4.38718644e-06 -4.15953718e-06
      8.72732562e-06 2.01896928e-05 2.70709515e-05 3.48033936e-05
      2.38630055e-05 1.60717063e-05 -1.60593800e-06 7.56847521e-06
      6.14119699e-06 2.11691658e-05 2.80047989e-05 1.83237262e-05
      4.97512838e-06 -5.92929246e-06 6.65252992e-06 1.49257562e-06
      -9.79383549e-06 -7.34274909e-06 1.33845870e-05 2.40308327e-05
      3.71544957e-05 3.43957327e-05 2.95551308e-05 1.62439665e-05
      1.15192925e-05 2.70895798e-05 3.81951540e-05 4.64530713e-05
      4.50785665e-05 5.80852902e-05 4.91086757e-05 2.43471131e-05
      7.51374318e-06 3.51478047e-06 -1.44672131e-05 -1.38432761e-05
      -7.31516548e-06 4.79996515e-06 2.44783041e-05 4.41200827e-05
      3.55965967e-05 3.08244562e-05 6.03128574e-05 6.65501648e-05
      6.67741115e-05 5.52419042e-05 2.76634728e-05 2.65199633e-05
      6.92546200e-06 -4.76290506e-06 1.15909506e-05 2.00575923e-05
      2.62716039e-05 2.76340816e-05 1.54471563e-05 8.17273576e-06
      -8.68994721e-06 6.72347687e-06 3.07024379e-06 1.77898382e-05
      2.39477358e-05 1.93891337e-05 1.59983119e-05 1.34112006e-05
      8.48770196e-06 6.57661258e-06 1.95259517e-07 -8.26539463e-07
      1.20753793e-05 2.56766343e-05 3.05470094e-05 2.93078010e-05
      2.39443507e-05 1.43087682e-05 1.34948550e-05 3.62151186e-05
      4.58416107e-05 4.91411993e-05 4.51108208e-05 6.06151516e-05
      4.96210996e-05 3.06629991e-05 2.00015620e-05 2.32476941e-05
      8.99325187e-06 -1.54345962e-05 -2.08208039e-05 -1.86961097e-05
      5.06428660e-06 2.93737230e-05 4.37651288e-05 4.69347469e-05
      6.20059000e-05 6.76628042e-05 5.64686889e-05 4.89781596e-05
      3.37462443e-05 2.21171631e-05 7.47560716e-06 2.64429013e-06
      1.95934354e-05 2.36930628e-05 2.68649728e-05 2.28105509e-05
      6.47540446e-06 1.27509838e-06 -1.30744020e-05 5.52285883e-06
      -4.00737463e-06 5.74698197e-06 2.15074142e-05 2.46812178e-05
      4.00442441e-05 2.34301206e-05 3.56322016e-06 2.75349834e-07
      -2.23030884e-06 -6.03826265e-06 -5.40245856e-06 1.94999821e-08
      5.54193639e-06 1.10148085e-05 8.03374041e-06 1.08593640e-05
      8.08270306e-06 2.50430567e-05 3.57569370e-05 4.45257792e-05
      5.10673017e-05 4.59458606e-05 3.45264343e-05 2.81122921e-05
      4.12389163e-05 2.16610642e-05 8.96820075e-06 -1.47197734e-05
      -4.40438453e-05 -2.26932170e-05 5.63068579e-06 1.17112832e-05
      2.50170433e-05 3.64414554e-05 3.97061849e-05 4.68577309e-05
      3.60339691e-05 2.85039350e-05 1.95734337e-05 1.46905495e-05
      1.66112022e-05 2.27741002e-05 2.48714568e-05 2.20403836e-05
      2.51300717e-05 2.09424215e-05 4.15670547e-06 -6.37433970e-07
      -1.87902242e-05 -5.72038971e-07 -6.92988806e-06 -1.22730603e-06
      1.16376159e-05 2.37429631e-05 4.55661284e-05 2.80000659e-05
      9.30675651e-06 1.44920079e-06 1.45518595e-06 -1.52741006e-06
      -8.54785321e-06 -1.26677778e-05 -6.45372211e-06 9.12410724e-06
      2.20643797e-05 1.98278613e-05 1.18397520e-05 7.12103520e-06
      1.23071150e-05 2.45654755e-05 3.67902612e-05 3.53682808e-05
      3.40933111e-05 3.02309109e-05 4.55611516e-05 2.82401088e-05
      -2.19157369e-06 -3.33269309e-05 -4.24553218e-05 -2.94433339e-05
      -1.38862424e-05 5.14314979e-06 1.60235631e-05 2.46957152e-05
      2.93705325e-05 3.35032528e-05 3.49747897e-05 1.74722154e-05
      2.41140024e-05 2.13099192e-05 2.82182264e-05 3.57003082e-05
      3.12210468e-05 2.51242818e-05 2.33908977e-05 1.10108949e-05
      -2.93810467e-06 -4.66932352e-06 -1.95026551e-05 -4.55465442e-06
      -8.56564475e-06 -6.97290488e-06 7.73211013e-06 3.86349639e-05
      5.07375662e-05 3.97172807e-05 2.38025350e-05 6.42074974e-06
      -1.54551827e-07 -2.44787338e-06 -8.55076996e-06 -2.05654833e-05
      -2.42556544e-05 -9.10842937e-06 -1.45694150e-06 -3.22734934e-07
      -1.15691737e-05 -3.52677525e-05 -3.20071485e-05 -1.58698713e-05
      -5.56712439e-06 -7.36361517e-06 -1.37500247e-05 1.17214802e-06
      -1.24099711e-06 -2.71956452e-07 -1.63441491e-05 -4.10378452e-05
      -3.42485073e-05 -4.62509342e-05 -2.85080714e-05 -1.61236749e-05
      -8.12092640e-06 -1.08737649e-05 -2.35218045e-06 -5.93265986e-06
      3.01910745e-06 2.44348371e-06 7.76891193e-06 2.21372338e-05
      3.85043895e-05 4.66805468e-05 3.82899743e-05 2.49327641e-05
      1.78926311e-05 5.36956941e-06 -5.44850172e-06 -5.46961337e-06
      -1.70104522e-05 -4.50628158e-06 -8.67555264e-06 -8.18343779e-06
      1.07739324e-05 3.92565235e-05 5.34606224e-05 5.87682880e-05
      4.64503610e-05 2.40570007e-05 1.38408359e-05 1.47117107e-05
      1.36427361e-05 3.44264117e-06 -1.03355515e-05 -1.08047143e-05
      -5.83328983e-07 2.06015602e-06 -1.36841882e-05 -3.87623222e-05
      -4.48564642e-05 -3.72658578e-05 -2.15169948e-05 -2.06248606e-05
      -2.75298735e-05 -1.95480752e-05 -2.56811436e-05 -2.87398489e-05
      -3.89462657e-05 -4.32143206e-05 -3.93802657e-05 -4.61799500e-05
      -5.21758338e-05 -4.77413814e-05 -2.28087210e-05 -3.08211493e-05
      -2.45000883e-05 -2.59502303e-05 -1.90772116e-05 3.22184860e-07
      5.94979110e-06 2.77802792e-05 4.17129777e-05 5.17477019e-05
      4.94422748e-05 3.31579031e-05 1.51791519e-05 5.69051281e-06
      -9.82147594e-06 -1.07546293e-05 -1.26689611e-05 -2.20259972e-06
      -1.02786253e-05 -1.18429052e-05 1.64577978e-05 3.13997043e-05
      5.55240476e-05 6.23553569e-05 5.78625695e-05 4.28704625e-05
      2.91911783e-05 2.46463987e-05 2.26729171e-05 1.55677099e-05
      3.97939993e-06 -6.99105249e-06 -1.47982264e-05 -2.53580783e-05
      -3.11933363e-05 -3.80826932e-05 -3.99026576e-05 -2.94161800e-05
      -2.02698247e-05 -2.26166267e-05 -1.99815695e-05 -1.94246986e-05
      -1.63083787e-05 -2.28114368e-05 -3.49319562e-05 -2.82630463e-05
      -3.21110128e-05 -2.72159068e-05 -3.89489469e-05 -3.88150838e-05
      -3.03340566e-05 -3.11405529e-05 -2.22577455e-05 -7.61822037e-07
      1.43336474e-05 2.89484033e-05 4.75745728e-05 6.18980557e-05
      6.41771840e-05 6.39041100e-05 5.29119861e-05 2.60897723e-05
      2.98962277e-07 -1.11501538e-06 -1.22991523e-05 -1.34550464e-05
      -1.84265409e-05 1.01069475e-06 -3.32009677e-06 -9.01016028e-06
      1.68398674e-05 2.47304506e-05 5.29607642e-05 6.17043770e-05
      6.40422732e-05 5.58845713e-05 4.37110757e-05 3.39387916e-05
      2.49757577e-05 2.01695693e-05 2.04961307e-05 1.28411284e-05
      -1.05196550e-05 -2.29667257e-05 -2.39286128e-05 -2.87693001e-05
      -3.46148081e-05 -1.98802518e-05 -1.89603743e-05 -2.52898371e-05
      -2.40261834e-05 -1.08403547e-05 -1.87090609e-05 -2.65315011e-05
      -2.64264290e-05 -2.04325843e-05 -3.16581354e-05 -3.32624368e-05
      -3.31727460e-05 -2.83005593e-05 -2.75728944e-05 -1.34157499e-05
      -2.66503525e-06 8.46961848e-06 2.44917264e-05 3.78412697e-05
      5.77363899e-05 6.58500867e-05 6.61718150e-05 6.78367433e-05
      5.39290049e-05 2.40297904e-05 -3.17523859e-06 -5.28613327e-06
      -1.67313901e-05 -1.67571980e-05 -1.07878841e-05 1.78440098e-06
      -1.11249449e-06 2.10911048e-06 1.98333146e-05 1.50032220e-05
      3.02559602e-05 5.02623770e-05 6.05975874e-05 6.00068925e-05
      5.57204803e-05 4.85284800e-05 3.35589793e-05 2.50903631e-05
      2.65223189e-05 2.24137584e-05 1.43538282e-05 4.57116926e-07
      -1.69583582e-05 -1.51160584e-05 -2.14588090e-05 -1.84175387e-05
      -1.93848846e-05 -2.34736963e-05 -1.94477598e-05 -1.09706198e-05
      -1.53572983e-05 -1.51981494e-05 -2.48209417e-05 -2.38417197e-05
      -1.92951757e-05 -2.51073288e-05 -1.61455027e-05 -1.92194821e-05
      -1.54143963e-05 -8.12020335e-06 1.29246482e-05 3.00085212e-05
      3.61296006e-05 5.43586830e-05 6.58503632e-05 6.99858792e-05
      6.63629908e-05 6.67999047e-05 4.96612192e-05 2.28082445e-05
      -2.97222323e-06 -1.13460437e-05 -1.71450811e-05 -1.68923470e-05
      -1.17750624e-05 -1.46024718e-07 -1.38239841e-06 2.70147189e-06
      6.09927201e-06 3.34254196e-06 1.39605309e-05 2.90543485e-05
      4.15016475e-05 5.15449392e-05 5.13434861e-05 4.74383123e-05
      3.68617948e-05 2.64026694e-05 1.63729856e-05 1.36705530e-05
      5.26569647e-06 5.41680311e-06 -8.97646805e-06 -2.00753348e-05
      -3.05060476e-05 -3.41981940e-05 -3.58323923e-05 -3.69486625e-05
      -2.69425855e-05 -2.18119712e-05 -2.37047279e-05 -2.48627257e-05
      -2.59995268e-05 -2.85112146e-05 -2.49892782e-05 -2.09616774e-05
      -1.72266155e-05 -1.09637622e-05 -1.81383143e-06 1.68848474e-05
      2.17822144e-05 3.74214433e-05 4.94709893e-05 5.88082003e-05
      6.37676494e-05 6.54827527e-05 6.31781440e-05 4.98276495e-05
      3.25277761e-05 1.79966410e-05 -4.42039527e-06 -5.77711535e-06
      -1.32135920e-05 -1.55803700e-05 -1.23203854e-05 1.22543915e-05
      -1.28855436e-06 -4.38553388e-06 -7.28335181e-06 -1.43773404e-05
      -7.32589615e-06 3.76555795e-06 1.79331000e-05 3.53398245e-05
      4.10964603e-05 3.95330499e-05 3.28026035e-05 2.31338545e-05
      1.14405984e-05 2.38778148e-06 -1.67295843e-06 -4.94331744e-06
      -1.12431226e-05 -1.60834461e-05 -2.52121936e-05 -3.52231546e-05
      -4.32391316e-05 -4.10820940e-05 -3.70377020e-05 -3.28902752e-05
      -3.31600822e-05 -3.36660778e-05 -3.42569256e-05 -3.57308600e-05
      -3.12849843e-05 -2.30771075e-05 -1.61564676e-05 -1.23773134e-05
      -4.12661120e-06 7.41264375e-06 1.50035103e-05 2.61441237e-05
      3.50440896e-05 3.88820372e-05 4.17551601e-05 3.80175079e-05
      2.98325358e-05 1.32647219e-05 -9.34491084e-07 -9.17484795e-06
      -2.00170634e-05 -1.31027982e-05 -1.42998588e-05 -1.67687449e-05
      -1.40831080e-05 -9.45178101e-07 -3.93230039e-06 -1.70910771e-05
      -1.85527133e-05 -2.38880821e-05 -1.67945382e-05 -8.86142698e-06
      3.10607879e-06 2.06591867e-05 3.25265901e-05 3.27121343e-05
      3.28032875e-05 3.14219724e-05 2.61205332e-05 1.54004392e-05
      2.41853945e-06 -8.46052353e-06 -1.16606379e-05 -1.28075108e-05
      -1.59714018e-05 -1.92896405e-05 -2.58139371e-05 -2.10328526e-05
      -2.30522528e-05 -2.13706553e-05 -2.09613245e-05 -2.17834931e-05
      -2.18313107e-05 -2.16358712e-05 -2.09896680e-05 -1.55457874e-05
      -1.02040385e-05 -5.71466308e-06 5.47690479e-06 1.32587711e-05
      1.98103280e-05 2.33919964e-05 2.84820853e-05 2.87043895e-05
      2.50183311e-05 1.17218224e-05 -1.93634060e-06 -1.11932241e-05
      -1.86169291e-05 -2.41264497e-05 -2.64027694e-05 -1.19551023e-05
      -7.83325868e-06 -1.01515216e-05 -4.42336750e-06 -5.67184406e-06
      2.17365050e-06 -2.92334767e-06 -1.21672701e-05 -2.16546850e-05
      -2.62978265e-05 -1.62727374e-05 -1.38230671e-05 1.19738411e-06
      1.70190033e-05 2.30254664e-05 3.11705226e-05 3.37220699e-05
      3.04877176e-05 2.38337925e-05 1.87363858e-05 8.31538364e-06
      4.25548905e-07 -7.29143039e-06 -1.09202929e-05 -1.07409433e-05
      -1.41319024e-05 -1.55167072e-05 -1.76982503e-05 -1.95506618e-05
      -1.77733964e-05 -1.61405023e-05 -1.43027883e-05 -1.29738764e-05
      -1.36867548e-05 -8.11583959e-06 5.36585219e-07 7.66175981e-06
      1.62989109e-05 2.05827910e-05 2.23497300e-05 2.30105634e-05
      2.42292608e-05 2.04009921e-05 1.74219640e-05 -1.49560822e-06
      -1.61109419e-05 -2.35140524e-05 -2.62503690e-05 -2.79363612e-05
      -2.49666264e-05 -1.08540908e-05 -8.89785224e-06 -1.20526756e-05
      7.61297360e-06 1.73206045e-05 1.23062546e-05 1.31790239e-05
      6.48743116e-06 -1.16543515e-05 -1.82104141e-05 -2.05840370e-05
      -2.15897871e-05 -1.42839799e-05 -4.89055083e-06 6.27012611e-08
      1.22487754e-05 2.20485144e-05 2.54053848e-05 2.47867192e-05
      2.26003758e-05 1.98043308e-05 1.33464082e-05 7.22442792e-06
      3.97957774e-06 1.85076351e-06 -4.80296308e-07 -9.67853885e-06
      -1.26253881e-05 -1.46776547e-05 -9.76316915e-06 -2.58641307e-06
      2.63018728e-06 4.27968689e-06 5.11678763e-06 1.12697007e-05
      1.80743791e-05 2.18312125e-05 2.26947086e-05 2.50596368e-05
      2.52479513e-05 2.38501143e-05 1.84246837e-05 1.12093949e-05
      -2.34293384e-06 -1.32927207e-05 -2.02098090e-05 -2.53736362e-05
      -2.52343998e-05 -2.50751964e-05 -2.22708659e-05 -1.41572864e-05
      -1.58460880e-05 -1.98460148e-05 1.75388868e-05 2.79708438e-05
      1.29253103e-05 1.11759909e-05 1.78902555e-05 8.51618370e-06
      6.53813549e-06 -7.79369111e-06 -1.62536235e-05 -1.72847267e-05
      -1.16620622e-05 -6.26295832e-06 3.00465672e-06 1.52661942e-05
      2.19681497e-05 2.63712191e-05 2.84705420e-05 2.77913532e-05
      2.60162069e-05 2.56013664e-05 2.51632919e-05 2.18309615e-05
      2.18338155e-05 1.30691187e-05 9.27105793e-06 7.34130026e-06
      1.05935460e-05 1.55781945e-05 1.99252645e-05 2.17774814e-05
      2.25374988e-05 2.49970071e-05 2.76926985e-05 2.77651125e-05
      2.38974899e-05 2.46472828e-05 2.25373078e-05 1.27564390e-05
      -1.37521909e-06 -8.07969354e-06 -1.81856067e-05 -2.31834965e-05
      -2.42070619e-05 -2.44423736e-05 -2.31576560e-05 -2.62168942e-05
      -2.12555333e-05 -1.27646099e-05 -1.71350093e-05 -2.14452157e-05
      1.68851202e-05 2.03470299e-05 4.73032469e-06 8.72742294e-06
      8.16930060e-06 1.34433712e-05 5.32691001e-06 3.82806775e-06
      -9.55682117e-06 -2.60967063e-05 -2.89188483e-05 -2.30891656e-05
      -1.79904800e-05 -9.45425927e-06 -1.70736564e-06 8.41370365e-06
      1.88184204e-05 2.40788886e-05 3.05048252e-05 2.89155905e-05
      2.83095033e-05 2.70213604e-05 2.87405528e-05 2.72760262e-05
      2.95914797e-05 2.79733049e-05 2.72041052e-05 2.82246510e-05
      2.84433445e-05 2.95226037e-05 3.13236742e-05 3.05880167e-05
      3.21703701e-05 3.13060118e-05 2.68395597e-05 1.99243150e-05
      1.69213945e-05 1.65368601e-06 -1.26070372e-05 -1.79629660e-05
      -1.76023132e-05 -2.24636406e-05 -2.53739381e-05 -2.61993082e-05
      -2.56868407e-05 -2.89188301e-05 -1.95825833e-05 -9.74247905e-06
      -1.75962214e-05 -2.14907814e-05 1.73791177e-05 2.65554954e-05
      1.99783899e-05 1.07112483e-05 8.18044555e-06 1.81557316e-05
      1.11534964e-05 1.90963710e-05 4.75043453e-06 -1.79474846e-05
      -2.60398356e-05 -2.21856844e-05 -2.16830485e-05 -1.69269297e-05
      -1.35818655e-05 -6.35040351e-06 1.84781220e-06 1.62811430e-05
      3.08254275e-05 2.39178898e-05 2.34625531e-05 2.71374774e-05
      2.83951467e-05 3.00168704e-05 2.39305245e-05 2.48383694e-05
      2.52130394e-05 2.62745725e-05 2.62502181e-05 2.73128189e-05
      2.71238041e-05 1.90199862e-05 1.78193877e-05 1.79183462e-05
      1.50552742e-05 2.81329335e-06 4.86634008e-06 -5.01715613e-06
      -1.19683164e-05 -1.67494272e-05 -1.92105181e-05 -1.65468100e-05
      -1.49396783e-05 -1.64936046e-05 -1.35094133e-05 -1.54092595e-05
      -1.07432961e-05 -9.46007640e-06 -1.58237781e-05 -1.99039350e-05
      1.60283325e-05 2.12285813e-05 2.24364940e-05 2.24552914e-05
      1.80706284e-05 2.30663882e-05 2.34113431e-05 2.92204259e-05
      1.96686833e-05 2.25238341e-06 -3.80987558e-06 -4.81176448e-06
      -4.65021367e-06 -2.28643262e-06 -2.19966091e-06 -4.22783114e-06
      -1.81998951e-06 7.68257178e-06 2.38172524e-05 1.95954544e-05
      2.56867679e-05 3.12720040e-05 3.16794831e-05 3.11565054e-05
      2.64569044e-05 2.62572066e-05 2.49307959e-05 2.43064223e-05
      2.48527722e-05 2.56889998e-05 2.23682837e-05 1.12104335e-05
      6.26002929e-06 4.52531640e-06 2.11535053e-06 -4.17198225e-06
      7.97864504e-06 5.35067511e-06 -2.25499912e-06 -2.54717179e-06
      -2.29167131e-06 -5.16271939e-06 -3.33882122e-06 -1.29383243e-05
      -1.47865003e-05 -1.21707453e-05 -8.97440168e-06 -1.53563615e-05
      -1.88397280e-05 -1.94918666e-05 1.63972036e-05 2.00432769e-05
      2.00456543e-05 2.05822798e-05 1.79921699e-05 2.37618096e-05
      2.28401877e-05 2.69448574e-05 2.10057387e-05 8.42000463e-06
      4.73384307e-06 4.29856846e-06 3.84934538e-06 4.97376413e-06
      1.49237781e-06 -5.47982245e-06 -8.30857971e-06 -3.09124198e-06
      1.14509012e-05 7.58597207e-06 1.32123632e-05 1.94378936e-05
      2.13393178e-05 2.23006973e-05 2.18334244e-05 2.17982106e-05
      2.04340668e-05 2.01367657e-05 2.06508412e-05 2.13138410e-05
      1.77185921e-05 6.76843683e-06 -9.26500434e-07 -4.76029800e-06
      -6.53430880e-06 -9.02999545e-06 4.13602766e-06 1.08190329e-06
      -5.11570852e-06 -5.04300851e-06 -5.04496120e-06 -8.38946926e-06
      -6.41474344e-06 -1.41483952e-05 -1.37977568e-05 -9.49146306e-06
      -5.84972304e-06 -1.25272700e-05 -1.76338890e-05 -1.86681118e-05</_>
    <_>
      1.64479952e-05 1.09123102e-05 5.78112076e-06 -3.38517793e-06
      -2.02921001e-06 1.76140441e-06 2.08048391e-06 1.19243532e-05
      1.46199900e-05 1.23422597e-05 1.38557079e-05 1.01468477e-05
      1.66085847e-05 1.54568370e-05 1.25017796e-05 1.05265290e-05
      1.23321042e-05 6.90829165e-06 9.86947362e-06 6.90926299e-06
      8.90621413e-06 2.83939221e-06 -1.02262475e-05 -1.42448825e-05
      -1.58932853e-05 -1.48567697e-05 -1.33466892e-05 -1.28727006e-05
      -1.31579718e-05 -9.67513006e-06 -1.14616287e-05 -8.96070833e-06
      -3.74415299e-06 7.93771051e-06 2.18616988e-05 2.22761773e-05
      1.12053876e-05 -2.47607409e-06 -1.24955432e-05 -1.87276510e-05
      -1.38071537e-05 -1.47260762e-05 -1.14401209e-05 -1.49026328e-05
      -1.94410968e-05 -1.34066941e-05 -6.39836799e-06 -7.84657823e-06
      -8.42914233e-06 -1.30732442e-05 1.43855768e-05 1.98605812e-05
      1.17488444e-05 2.89014451e-07 1.57531090e-07 1.88194497e-06
      1.97071159e-07 -1.69952341e-06 6.08577602e-06 9.34061063e-06
      1.34920274e-05 9.03517957e-06 1.24179624e-05 1.19176229e-05
      1.34402708e-05 1.61282951e-05 1.36499966e-05 1.30007502e-05
      1.58077528e-05 1.08440654e-05 8.43756061e-06 1.27985932e-05
      1.65933034e-05 1.11465652e-05 2.52193854e-06 3.08523863e-06
      5.92163997e-06 1.56495696e-06 3.33335288e-06 3.84290752e-06
      3.33477402e-07 -8.18669321e-07 5.55689439e-06 1.06247671e-05
      2.13839194e-05 2.05100096e-05 8.38241886e-06 -4.87897705e-06
      -1.16614165e-05 -1.04037372e-05 -8.96646634e-06 -1.08106824e-05
      -1.06408397e-05 -1.35792270e-05 -1.48548543e-05 -9.86252780e-06
      -3.26605209e-06 -1.95010287e-07 -2.33557921e-06 -7.45469288e-06
      1.23632544e-05 1.69213436e-05 1.25600745e-05 -1.57983834e-06
      -5.25309406e-06 -5.72301815e-06 -1.49348116e-05 -1.75978785e-05
      -1.61318876e-05 -1.29573282e-05 -8.05453510e-06 -6.84008455e-06
      -2.09365271e-06 -1.34148445e-06 -3.89967369e-07 4.72658621e-06
      1.62726683e-05 2.35688804e-05 2.61003861e-05 2.53381841e-05
      2.48549968e-05 2.72448196e-05 3.27438902e-05 3.22828491e-05
      2.96496291e-05 2.59138142e-05 2.25583299e-05 2.64931841e-05
      2.65690851e-05 2.24209471e-05 1.52959437e-05 1.58303337e-05
      1.83361099e-05 1.26290161e-05 1.66379414e-05 1.69521554e-05
      5.85496673e-06 -5.94146695e-06 -6.98440226e-06 4.49283846e-07
      1.52057078e-06 -7.46487046e-07 2.52877430e-06 2.67886026e-06
      -4.15812480e-07 -4.29427757e-07 3.09436450e-06 3.28264628e-06
      6.04999968e-06 3.32027730e-06 1.42776271e-05 1.18138541e-05
      -1.40901568e-06 -1.11738809e-05 -8.92094249e-06 -8.97976497e-06
      -1.60106283e-05 -2.32992898e-05 -2.84519465e-05 -2.68468611e-05
      -2.33354695e-05 -1.71227366e-05 -8.78325591e-06 -6.59602892e-06
      -4.78746688e-06 4.41166731e-06 1.78357113e-05 2.56081366e-05
      3.00335505e-05 3.29999348e-05 3.34056131e-05 2.95242935e-05
      2.90985372e-05 3.54507392e-05 2.77766594e-05 2.62269987e-05
      2.37011282e-05 2.75464863e-05 2.89077179e-05 2.21914652e-05
      2.41249709e-05 2.46651780e-05 2.04253520e-05 9.56763779e-06
      7.71313444e-06 6.51017717e-06 -3.75574268e-06 -1.20272070e-05
      -9.95145001e-06 -6.27650661e-06 -2.99853173e-06 -7.25721702e-06
      -5.43756414e-06 -4.61982017e-06 -5.64311813e-06 -3.38226391e-06
      3.88332001e-06 6.44787042e-06 9.82298297e-06 8.74615671e-06
      8.18775516e-06 5.28955525e-06 -1.07289625e-05 -1.47715773e-05
      -8.06154549e-06 -8.38178585e-06 -1.39897747e-05 -2.86849299e-05
      -3.25232868e-05 -2.83504833e-05 -2.48017186e-05 -1.80557581e-05
      -9.39064103e-06 -2.46154013e-06 8.19883189e-06 2.65630806e-05
      3.70005000e-05 3.43452703e-05 3.33979515e-05 2.95413083e-05
      2.71756871e-05 2.91363049e-05 2.83136123e-05 2.80964523e-05
      2.28445406e-05 1.71043666e-05 1.20933564e-05 1.47381306e-05
      1.91353938e-05 1.78388709e-05 1.99112947e-05 1.77811726e-05
      2.23462703e-05 1.90438586e-05 1.76875128e-05 1.43506222e-05
      5.73396665e-06 -1.69262563e-07 -2.50117228e-06 -5.86597253e-06
      -5.69140047e-06 -8.22483071e-06 -1.00367815e-05 -1.08162030e-05
      -9.07483445e-06 -9.90331864e-06 -5.19258037e-06 -1.68141980e-06
      7.34119340e-06 5.36333937e-06 9.74106842e-06 7.37492155e-06
      -1.20513068e-05 -1.57327177e-05 -8.17156251e-06 -8.89476814e-06
      -1.02546464e-05 -2.40282734e-05 -3.67973626e-05 -2.81619523e-05
      -2.03597683e-05 -1.16903111e-05 -1.63811308e-06 7.46362866e-06
      1.53599321e-05 2.69539833e-05 2.99776711e-05 3.07972077e-05
      3.01022137e-05 1.83313387e-05 1.06734715e-05 1.69014584e-05
      2.35044427e-05 2.50224566e-05 1.93376763e-05 1.25980887e-05
      6.66702954e-06 4.39812538e-06 2.34026493e-06 4.78478705e-06
      3.40407041e-06 9.11633560e-06 1.44491396e-05 1.82072145e-05
      2.08694382e-05 2.17347661e-05 2.04518583e-05 1.62783690e-05
      8.81336291e-06 2.86276872e-06 7.32293415e-07 -2.60322827e-06
      -2.41998214e-06 -5.34021592e-06 -8.39555378e-06 -1.26642708e-05
      -8.38924370e-06 -4.43399495e-06 1.62777917e-06 -2.51069423e-07
      1.03441471e-05 1.11156332e-05 -1.02830318e-05 -1.75892965e-05
      -1.44015248e-05 -1.39693329e-05 -7.69013241e-06 -2.02754472e-05
      -3.08265408e-05 -2.00246122e-05 -9.42080078e-06 -1.11346360e-07
      7.48214597e-06 1.28694210e-05 1.36728004e-05 1.56566475e-05
      1.38374116e-05 1.11806394e-05 9.39730944e-06 7.76587876e-06
      1.17308236e-05 1.85106019e-05 2.27785895e-05 2.40073095e-05
      2.26232951e-05 1.76772246e-05 1.38197420e-05 1.09716962e-06
      -3.96205996e-06 -4.70755549e-06 -3.70736529e-06 -4.39594920e-08
      6.36402274e-06 9.29140879e-06 1.31039424e-05 1.88103768e-05
      2.41777470e-05 2.48651158e-05 2.27252185e-05 1.87177902e-05
      9.11292500e-06 6.96532823e-07 1.52609607e-06 -8.83954954e-08
      -6.40249482e-06 -1.31408187e-05 -9.94981019e-06 -8.60196633e-06
      -2.37791369e-06 -4.43528870e-06 7.13880490e-06 2.15637101e-06
      -8.85265035e-06 -2.09847331e-05 -1.49269845e-05 -5.38437462e-06
      -1.07250198e-05 -2.13156272e-05 -2.26882603e-05 -3.21265543e-06
      1.62873766e-05 2.65089420e-05 2.44969469e-05 1.67452963e-05
      9.75136300e-06 7.92750598e-06 7.55193378e-06 3.38674249e-06
      4.47725142e-06 4.06167601e-06 2.67365203e-06 3.39863573e-06
      1.10637793e-05 1.99756741e-05 2.25897275e-05 1.60638410e-05
      7.11492794e-06 -7.71750194e-07 -8.07785000e-06 -7.74970795e-06
      -6.17338173e-06 -5.14612839e-06 -7.20088428e-06 -4.52352197e-06
      -2.43053660e-06 1.96609153e-06 7.82426469e-06 1.43822344e-05
      2.14328975e-05 2.27162218e-05 1.63387667e-05 5.46386445e-06
      -5.94231686e-08 -1.88878926e-06 -4.80656990e-06 -1.44804844e-05
      -1.74763154e-05 -1.88430622e-05 -8.79407526e-06 -1.00853631e-05
      7.84348595e-06 6.42558098e-06 -1.05190429e-05 -2.31056274e-05
      -1.50224159e-05 -5.71243527e-06 -5.99176292e-06 -1.66352547e-05
      -8.68245115e-06 1.48873687e-05 2.94992024e-05 2.96278595e-05
      2.20639995e-05 1.08546583e-05 4.83063604e-06 3.78305413e-06
      1.50241783e-06 -2.80413315e-06 -3.66658060e-06 -6.78846027e-06
      -9.18209662e-06 -4.34250160e-06 -1.45406079e-06 1.82310862e-06
      5.08465200e-06 3.78049367e-06 -1.17648506e-06 -1.42614199e-05
      -2.48277356e-05 -2.48893830e-05 -1.88200720e-05 -1.60264572e-05
      -1.31309389e-05 -1.03259754e-05 -8.37027255e-06 -6.90434717e-06
      -3.71380088e-06 3.80138522e-06 1.49712996e-05 2.30343139e-05
      2.20734910e-05 1.60541713e-05 8.28130305e-06 4.46661352e-06
      -3.61548427e-06 -1.76172562e-05 -2.27908386e-05 -2.15967175e-05
      -1.54908757e-05 -1.25973984e-05 5.91892967e-06 2.23635175e-06
      -1.24274484e-05 -2.22842409e-05 -1.42945237e-05 -8.50947072e-06
      -1.44881296e-05 -1.60684231e-05 -1.34808306e-06 1.62846973e-05
      2.00361046e-05 1.23897826e-05 6.21251866e-06 2.06794948e-06
      -2.33473514e-07 -1.80169945e-06 -3.52478446e-06 -9.44758813e-06
      -1.74312299e-05 -2.13161202e-05 -2.10575618e-05 -1.99440146e-05
      -2.00284503e-05 -1.75280111e-05 -9.36965353e-06 -1.10089331e-05
      -1.74030047e-05 -2.42598799e-05 -3.22232263e-05 -4.10362700e-05
      -4.27587074e-05 -2.95611608e-05 -2.75721868e-05 -2.18787645e-05
      -1.52685898e-05 -1.10497685e-05 -8.58721251e-06 -4.86132785e-06
      4.11305291e-06 1.58847215e-05 2.15257351e-05 2.24098749e-05
      1.79849940e-05 9.69789744e-06 -3.54915528e-06 -1.92686621e-05
      -2.51059028e-05 -2.31482209e-05 -1.42828048e-05 -1.14892500e-05
      5.22259916e-06 2.62639355e-06 -1.24917451e-05 -2.78322586e-05
      -2.54054357e-05 -1.45948970e-05 -1.13312044e-05 -3.36214293e-06
      2.71962654e-06 6.19404227e-06 5.99707391e-06 1.55178827e-06
      -1.74433956e-06 -3.37070560e-06 -4.26310498e-06 -7.36553375e-06
      -1.55622092e-05 -2.48053420e-05 -3.79488738e-05 -3.94638191e-05
      -3.01087166e-05 -2.51128276e-05 -2.55867362e-05 -2.38088851e-05
      -1.69779360e-05 -1.46501861e-05 -1.74387133e-05 -2.66626394e-05
      -3.92128386e-05 -4.40770345e-05 -4.68819926e-05 -4.86376375e-05
      -4.56154448e-05 -3.98430202e-05 -2.87753592e-05 -1.76372414e-05
      -1.16772890e-05 -8.23188384e-06 -3.87644650e-06 4.78002175e-06
      1.53830297e-05 2.32923703e-05 2.55810792e-05 1.88861977e-05
      6.45459636e-07 -2.18540372e-05 -3.10230644e-05 -2.91919896e-05
      -2.14951488e-05 -1.89297243e-05 5.41463442e-06 4.54741485e-06
      -1.70395324e-05 -3.73498660e-05 -3.22048982e-05 -9.81219546e-06
      6.89580520e-06 1.29443442e-05 5.28471855e-06 -4.32994256e-07
      -6.47451827e-07 -2.19251342e-06 -4.32757633e-06 -6.67811810e-06
      -1.16874589e-05 -2.13459971e-05 -3.55303346e-05 -4.13863854e-05
      -4.77618778e-05 -4.27809318e-05 -2.98164159e-05 -2.32897855e-05
      -2.22277777e-05 -2.03065865e-05 -2.16175813e-05 -2.01975799e-05
      -1.50345077e-05 -1.85495755e-05 -3.18726743e-05 -4.03643426e-05
      -4.52482782e-05 -5.27999218e-05 -5.25979267e-05 -5.01093236e-05
      -4.24079299e-05 -2.93838493e-05 -1.74428988e-05 -1.04228720e-05
      -6.96981806e-06 -3.95113693e-06 5.60840817e-06 1.71073789e-05
      2.59989411e-05 2.81551584e-05 1.55622602e-05 -1.12868865e-05
      -3.00816464e-05 -3.75455347e-05 -3.43202591e-05 -3.22348242e-05
      3.43462330e-06 -2.76767565e-07 -2.78981552e-05 -4.18232776e-05
      -2.29524721e-05 6.62609682e-06 2.24580635e-05 1.91472318e-05
      6.63340370e-06 -1.26013731e-06 -2.97203201e-06 -4.73762429e-06
      -7.22311506e-06 -1.36484605e-05 -2.62839912e-05 -3.97768854e-05
      -4.82177857e-05 -4.83185577e-05 -4.82041032e-05 -3.75588206e-05
      -2.54031820e-05 -2.09542668e-05 -1.94054392e-05 -1.94491458e-05
      -2.44088151e-05 -1.90264909e-05 -1.44534679e-05 -1.47005358e-05
      -2.23077495e-05 -3.48764333e-05 -4.60858500e-05 -5.02970579e-05
      -5.31916630e-05 -5.20655012e-05 -4.98892150e-05 -4.29806059e-05
      -3.17356316e-05 -2.07914782e-05 -1.34356942e-05 -9.15063083e-06
      -2.94950496e-06 7.77495370e-06 2.20552065e-05 3.03926536e-05
      2.84080779e-05 7.84706390e-06 -1.83932934e-05 -3.68937108e-05
      -3.89975066e-05 -3.84635860e-05 4.86904355e-06 -2.73664318e-06
      -2.99010844e-05 -3.89613197e-05 -1.37883544e-05 1.57405284e-05
      2.52951140e-05 1.47830106e-05 4.21733603e-06 -2.67392625e-06
      -5.35972367e-06 -7.38990093e-06 -1.22730289e-05 -2.57274714e-05
      -4.09093154e-05 -4.92260915e-05 -5.08479134e-05 -4.61752534e-05
      -4.23261154e-05 -3.10874893e-05 -2.14139618e-05 -1.89815783e-05
      -1.53393885e-05 -1.74109919e-05 -2.74332815e-05 -2.49524510e-05
      -2.05041815e-05 -1.57135764e-05 -2.20578077e-05 -2.87250205e-05
      -3.80440688e-05 -4.60873489e-05 -5.29529752e-05 -5.30988509e-05
      -5.27288175e-05 -5.14098865e-05 -4.78064831e-05 -4.00185781e-05
      -2.82444726e-05 -1.64757239e-05 -8.46401144e-06 7.58257897e-07
      1.55880753e-05 2.69708780e-05 2.99544990e-05 1.93725809e-05
      -2.52514951e-06 -2.63791189e-05 -3.53537980e-05 -3.68490510e-05
      5.65851360e-06 -3.43339320e-06 -2.40215832e-05 -3.39568396e-05
      -1.06425186e-05 1.34848387e-05 1.80929383e-05 6.48023479e-06
      -1.81889993e-06 -5.68090172e-06 -8.17592900e-06 -1.17750815e-05
      -2.31098547e-05 -3.97597796e-05 -4.94933229e-05 -5.17340013e-05
      -5.30485704e-05 -4.38604002e-05 -3.67672947e-05 -2.76775208e-05
      -1.77177990e-05 -1.47392011e-05 -1.36091339e-05 -2.14339016e-05
      -3.47611531e-05 -4.19331736e-05 -3.19311293e-05 -1.37634825e-05
      -1.73434491e-05 -2.44074072e-05 -3.25793808e-05 -4.06656400e-05
      -4.99224334e-05 -5.18295819e-05 -5.32124905e-05 -5.34915889e-05
      -5.37852138e-05 -5.21631300e-05 -4.19146199e-05 -2.53220642e-05
      -1.24370408e-05 -4.41022030e-06 5.68135283e-06 1.84798591e-05
      2.67171508e-05 2.37737386e-05 1.20555778e-05 -1.12077942e-05
      -2.90327189e-05 -3.40426704e-05 -3.26709596e-06 -9.66291464e-06
      -2.00350623e-05 -2.89988602e-05 -8.07818560e-06 8.05145191e-06
      6.58557155e-06 -2.76386504e-06 -5.62955302e-06 -7.64592914e-06
      -1.14368559e-05 -2.16338867e-05 -3.55167613e-05 -4.22114863e-05
      -4.21572768e-05 -4.11607034e-05 -4.12006957e-05 -3.38995851e-05
      -3.13731580e-05 -3.03998258e-05 -1.97772551e-05 -1.04859801e-05
      -4.83285157e-06 -1.15413977e-05 -2.34579475e-05 -2.84857397e-05
      -2.91612014e-05 -2.13357071e-05 -1.78082155e-05 -1.68715960e-05
      -2.23866991e-05 -2.98017858e-05 -3.73098264e-05 -3.81506979e-05
      -3.90096648e-05 -3.91272879e-05 -4.28606145e-05 -5.05478383e-05
      -4.82687574e-05 -3.30402836e-05 -1.75651749e-05 -8.65596758e-06
      -3.00714487e-06 8.61581702e-06 2.21129376e-05 2.50433477e-05
      2.22911240e-05 6.60542901e-06 -1.38168552e-05 -2.39694273e-05
      -1.61965490e-05 -1.44551959e-05 -1.82197582e-05 -1.90493483e-05
      -7.68238078e-06 4.98692907e-06 -1.51284723e-06 -4.63658580e-06
      -5.69580880e-06 -1.19514752e-05 -1.95473749e-05 -3.48083267e-05
      -3.94999079e-05 -2.90018579e-05 -1.85420886e-05 -1.39193671e-05
      -1.58088642e-05 -1.33666153e-05 -1.74556335e-05 -2.06566547e-05
      -1.57892446e-05 -2.18094874e-06 1.25166534e-05 1.31462675e-05
      5.43481156e-06 -5.93667573e-06 -1.48800009e-05 -1.47484016e-05
      -9.79671950e-06 7.92840751e-07 2.24839118e-06 -5.71527744e-06
      -7.92970877e-06 -1.11464960e-05 -7.68926020e-06 -5.66780227e-06
      -1.42564922e-05 -2.97886563e-05 -4.38153947e-05 -4.25815560e-05
      -2.66333755e-05 -1.29792588e-05 -5.96179552e-06 3.37551569e-06
      2.12659470e-05 2.55368122e-05 2.91141660e-05 1.54059562e-05
      -7.91787443e-06 -2.12071573e-05 -2.26646553e-05 -1.76775702e-05
      -1.14148543e-05 -6.33376567e-06 3.67167331e-07 6.85715486e-06
      -1.72672856e-06 -5.45155081e-06 -8.21678441e-06 -1.57385020e-05
      -2.87669955e-05 -3.92247857e-05 -2.70697183e-05 -4.21700997e-06
      9.87862677e-06 1.55563685e-05 1.63476889e-05 1.01858660e-07
      -6.84737643e-06 -1.73804019e-05 -1.35075788e-05 9.89927958e-06
      2.20412821e-05 2.75506682e-05 3.54010372e-05 2.09215432e-05
      1.29503167e-06 -2.80523886e-06 -1.58589455e-06 5.80161623e-06
      1.71906850e-05 1.66465652e-05 1.66819445e-05 1.40048714e-05
      1.08037048e-05 1.70421481e-05 1.50166625e-05 -2.47697449e-06
      -2.58306936e-05 -4.21088953e-05 -3.71092574e-05 -2.06423811e-05
      -7.84658641e-06 1.77100901e-06 1.79181916e-05 2.24541636e-05
      2.88979609e-05 2.18799978e-05 7.19453783e-06 -4.97722067e-06
      -1.97369263e-05 -1.52976954e-05 -3.61932166e-06 7.74137425e-06
      1.22864994e-05 1.07893547e-05 -2.19836602e-06 -6.92115509e-06
      -9.49596324e-06 -2.02231549e-05 -3.56954079e-05 -3.40031111e-05
      -8.83350003e-06 1.31385441e-05 2.40703448e-05 3.12059819e-05
      3.06775692e-05 1.18599091e-05 -1.95004577e-06 -1.58151179e-05
      -1.24842825e-06 2.36840187e-05 3.67403627e-05 4.30786749e-05
      4.30549335e-05 2.90532098e-05 2.86118438e-06 -3.38611153e-06
      1.10977419e-06 9.06727564e-06 2.66675852e-05 3.32609379e-05
      2.85453516e-05 2.37175373e-05 1.94837576e-05 2.35692605e-05
      2.33804913e-05 1.35408309e-05 -4.59111288e-06 -2.75052735e-05
      -3.39052349e-05 -2.62257508e-05 -1.23559257e-05 -3.39005601e-06
      9.64417359e-06 1.86716097e-05 2.96807793e-05 2.76341107e-05
      2.46458203e-05 1.88822632e-05 -1.44192727e-05 -9.18835849e-06
      2.64759865e-06 9.24477172e-06 1.19873202e-05 1.10198071e-05
      -2.29528268e-06 -7.78303001e-06 -1.21303374e-05 -2.68085787e-05
      -3.59834485e-05 -1.76231551e-05 8.77089224e-06 2.05096221e-05
      2.84815178e-05 3.99315322e-05 3.63433028e-05 1.85749741e-05
      -4.83028452e-06 -5.01448403e-06 1.07268270e-05 2.79213091e-05
      4.80523340e-05 4.87258403e-05 4.12191766e-05 2.48850756e-05
      6.88448517e-06 -2.53165258e-08 -2.27467990e-06 9.33582214e-06
      2.78801108e-05 3.33138960e-05 3.38308346e-05 2.32350212e-05
      2.31838349e-05 2.48521574e-05 2.25804251e-05 2.06499790e-05
      9.26159828e-06 -9.73886381e-06 -3.04513960e-05 -3.48813410e-05
      -2.00070208e-05 -7.49600395e-06 5.39819212e-06 1.72024811e-05
      2.83202189e-05 2.79978049e-05 3.15974430e-05 2.97857096e-05
      -1.13345659e-05 -3.88193394e-06 6.29526949e-06 2.48976039e-06
      1.50846745e-06 6.48120067e-06 -1.36858034e-06 -8.38088454e-06
      -1.71816446e-05 -3.37359525e-05 -3.17401937e-05 -8.96794245e-06
      1.06121543e-05 2.21820119e-05 3.35314071e-05 4.57239512e-05
      4.17062001e-05 1.39558633e-05 -1.99873671e-06 6.05343257e-06
      1.32171426e-05 2.59463613e-05 4.56760463e-05 4.75095876e-05
      3.75506752e-05 2.63022775e-05 1.26512041e-05 2.92515074e-06
      1.98618159e-06 1.06803282e-05 1.89709790e-05 3.25034925e-05
      3.05379908e-05 1.74425713e-05 1.55144298e-05 1.78330884e-05
      1.88497852e-05 2.24888117e-05 1.54234949e-05 -8.13983490e-07
      -2.55719879e-05 -3.68187284e-05 -2.51453057e-05 -1.07616688e-05
      2.11961310e-06 1.30371454e-05 2.66579773e-05 2.88078409e-05
      3.28198075e-05 3.24475441e-05 -1.10169512e-05 -2.14181318e-06
      7.54983512e-06 -2.31323696e-07 -3.40130146e-06 3.13699456e-06
      -1.51623829e-06 -9.22344043e-06 -1.98533271e-05 -3.36276753e-05
      -2.75165712e-05 -1.67953203e-05 -3.94386507e-06 1.89934235e-05
      3.81243881e-05 4.88572914e-05 3.69649788e-05 1.38993610e-05
      6.72069746e-06 4.57197120e-06 1.02514887e-05 2.14981683e-05
      3.17867671e-05 4.66755628e-05 4.02555306e-05 2.25958902e-05
      1.01581290e-05 5.45832199e-06 3.53788960e-06 1.30433491e-05
      1.40009879e-05 1.84129749e-05 1.82886197e-05 1.20303812e-05
      5.21494485e-06 7.63994103e-06 1.02448557e-05 1.52528273e-05
      1.51938139e-05 1.46108039e-06 -1.70063922e-05 -3.32009658e-05
      -2.88784868e-05 -1.40822349e-05 -3.65454912e-06 4.82234918e-06
      2.34140171e-05 3.03517954e-05 2.97717925e-05 3.04622918e-05
      -1.12867310e-05 -1.76553851e-06 7.05805223e-06 9.16193244e-07
      -3.16931869e-06 7.76926811e-07 -2.05017614e-06 -1.16843248e-05
      -2.31091562e-05 -3.48119720e-05 -2.98901614e-05 -2.32692146e-05
      -1.08106260e-05 1.63629247e-05 3.99836063e-05 5.08670819e-05
      3.91567773e-05 2.39137280e-05 5.24586085e-06 -4.46660897e-06
      1.61415744e-06 1.04530600e-05 2.43173545e-05 5.05835742e-05
      3.99895871e-05 2.52272566e-05 8.38895539e-06 3.43501165e-06
      7.41314489e-06 1.74855977e-05 1.00453262e-05 4.46602326e-06
      1.18769440e-05 8.64932372e-06 1.89855962e-06 2.74599415e-06
      6.78174501e-06 1.05518729e-05 1.13710694e-05 2.55795635e-06
      -1.46720076e-05 -3.45746485e-05 -3.44823093e-05 -1.65646470e-05
      -4.73135196e-06 7.50233767e-07 1.95684679e-05 2.73967744e-05
      3.20987419e-05 3.36310404e-05 -1.14266941e-05 -1.66353743e-06
      6.86997964e-06 1.71924955e-06 -3.16654700e-06 -9.86034706e-07
      -2.55956456e-06 -1.61343669e-05 -3.15941325e-05 -4.38876086e-05
      -4.07372136e-05 -3.05127742e-05 -1.45867079e-05 1.23735199e-05
      3.95512034e-05 5.28923701e-05 4.39370124e-05 2.09383834e-05
      -2.50931203e-06 -5.35115123e-06 -2.93684229e-06 -3.80990491e-06
      2.12660343e-05 4.77196627e-05 3.76084608e-05 2.86299219e-05
      1.24535309e-05 3.03105958e-06 7.12660631e-06 2.48675406e-05
      2.01558032e-05 8.17197906e-06 1.46442326e-05 8.01834722e-06
      2.80551762e-06 2.77698291e-06 9.67437063e-06 1.42639201e-05
      9.61615115e-06 4.21588493e-06 -1.07048772e-05 -3.21542284e-05
      -3.82287217e-05 -2.10519902e-05 -5.27295197e-06 1.22751169e-06
      2.03819709e-05 2.86705090e-05 3.05435460e-05 3.26556328e-05
      -1.17326463e-05 -2.38486018e-06 8.21595495e-06 -4.50233216e-07
      -4.71006751e-06 -1.86935821e-07 -3.81374684e-06 -2.15494892e-05
      -3.91267677e-05 -5.14947315e-05 -4.84366210e-05 -4.33776695e-05
      -2.81759148e-05 5.12310680e-06 3.87921646e-05 5.54971884e-05
      4.55259542e-05 2.70691962e-05 -3.39754047e-06 -1.51244740e-05
      -2.17215947e-05 -2.21108712e-05 1.32465620e-05 3.91818467e-05
      4.48618521e-05 2.86302111e-05 8.93475772e-06 7.66407629e-06
      5.26231452e-06 2.10158869e-05 2.63606071e-05 6.54587802e-06
      5.32615604e-06 1.97235318e-06 3.97189615e-06 7.12759856e-06
      1.21742823e-05 1.81780688e-05 1.37060169e-05 2.39227074e-06
      -9.78442768e-06 -2.90758962e-05 -3.75314412e-05 -2.50871562e-05
      -9.39543588e-06 1.71300417e-06 2.17001834e-05 2.94657366e-05
      3.22368578e-05 2.85039205e-05 -1.20881077e-05 -9.66501830e-07
      1.31384186e-05 7.25000518e-06 1.56130875e-06 1.67152075e-06
      -3.69655618e-06 -2.10900926e-05 -4.13530506e-05 -5.12826846e-05
      -5.21451439e-05 -4.36480368e-05 -2.84184116e-05 7.23088135e-07
      3.96998621e-05 5.70265183e-05 4.75064990e-05 3.17598096e-05
      2.49647633e-06 -2.47346106e-05 -2.96952549e-05 -2.16058215e-05
      6.10356165e-06 3.27653615e-05 4.71781495e-05 3.29027134e-05
      1.16783485e-05 4.48379933e-06 4.60597266e-06 2.13768526e-05
      2.49139539e-05 4.63720153e-06 -2.83967233e-06 -2.78620610e-06
      1.27186115e-06 8.87156511e-06 1.77925740e-05 2.55427785e-05
      1.70537915e-05 3.60171862e-06 -9.74304567e-06 -2.94697275e-05
      -3.90994574e-05 -2.69209850e-05 -1.01338810e-05 1.67277005e-06
      2.16645512e-05 3.07923146e-05 2.87020830e-05 2.63233815e-05
      -1.23151531e-05 2.84702446e-06 2.39302590e-05 2.26545108e-05
      1.31115257e-05 4.78962966e-06 -3.78574509e-06 -1.98051948e-05
      -4.07882144e-05 -4.94907545e-05 -4.75652159e-05 -4.20130709e-05
      -2.38091961e-05 4.48376977e-06 3.85080166e-05 6.06222966e-05
      5.32550293e-05 3.26330737e-05 8.68259485e-06 -2.27564360e-05
      -2.88702395e-05 -1.94772947e-05 2.62140338e-06 3.46011147e-05
      4.87153920e-05 3.63954059e-05 1.59674746e-05 2.38245343e-06
      -9.25197753e-07 1.49552034e-05 2.53496928e-05 1.10126957e-05
      -2.84200655e-06 5.36502739e-07 -4.35799302e-06 9.00515897e-06
      2.35692951e-05 2.51356014e-05 2.18251680e-05 8.14580835e-06
      -1.16117035e-05 -2.94389483e-05 -3.76484059e-05 -2.61738478e-05
      -1.05089812e-05 1.92610983e-07 1.82622225e-05 2.56852654e-05
      2.96162198e-05 2.79105006e-05 -1.31948964e-05 5.59362024e-06
      2.99814728e-05 3.04939604e-05 1.91554846e-05 7.00955979e-06
      -2.82366409e-06 -1.75664536e-05 -3.47797250e-05 -4.91427709e-05
      -3.82316794e-05 -3.38977006e-05 -2.17185261e-05 7.93712934e-06
      4.24603095e-05 6.07261645e-05 5.57397980e-05 4.23461133e-05
      1.81076775e-05 -1.42794424e-05 -2.55777704e-05 -2.34412782e-05
      -2.14374973e-06 3.83481492e-05 4.40480944e-05 3.48128196e-05
      2.07881985e-05 1.24271992e-06 -3.54537042e-06 1.18574653e-05
      2.18005098e-05 9.28712234e-06 4.48590427e-08 4.02583828e-06
      -1.88233605e-06 1.14499408e-05 3.23567692e-05 2.85686037e-05
      2.71262015e-05 1.04739938e-05 -1.05687250e-05 -2.93659868e-05
      -3.36750199e-05 -2.31582526e-05 -9.65397612e-06 1.88476679e-06
      2.01651546e-05 2.76963165e-05 2.91676351e-05 2.64202663e-05
      -1.46923239e-05 6.07206994e-06 2.99105959e-05 3.04140649e-05
      1.89491857e-05 7.79452603e-06 -7.20582989e-07 -1.48387617e-05
      -2.85065817e-05 -4.16828807e-05 -3.55446828e-05 -2.82906331e-05
      -2.02345673e-05 5.50672667e-06 4.40492367e-05 5.86817187e-05
      5.65861374e-05 4.63853685e-05 1.22071215e-05 -7.71586201e-06
      -1.97414083e-05 -2.39246892e-05 6.62618868e-06 3.14841454e-05
      4.04118073e-05 3.30041294e-05 1.85222525e-05 -1.13505268e-06
      -2.36643885e-07 3.94485414e-06 1.85638455e-05 1.08313297e-05
      1.14888544e-05 6.91902642e-06 6.33159925e-06 1.16648134e-05
      3.71024544e-05 3.87284126e-05 3.75031959e-05 1.55365924e-05
      -1.10073388e-05 -3.08344170e-05 -2.91705092e-05 -1.52752382e-05
      -5.56983150e-06 2.85479450e-06 2.05394899e-05 2.94666806e-05
      2.68935710e-05 2.69976044e-05 -1.47104765e-05 6.46378203e-06
      2.91254782e-05 3.00232041e-05 1.82250624e-05 6.63868605e-06
      -2.09403709e-07 -1.02396789e-05 -2.17955494e-05 -3.02883363e-05
      -3.28121532e-05 -2.73143978e-05 -1.93315973e-05 7.63172739e-06
      4.49440340e-05 5.89235242e-05 5.89798692e-05 4.14478782e-05
      1.46946213e-05 -8.44559327e-06 -1.77979800e-05 -1.58706298e-05
      2.70283977e-07 3.23068816e-05 3.80431775e-05 3.99829005e-05
      1.61841635e-05 4.16219882e-06 -4.88495243e-06 -2.30404976e-06
      2.11151855e-05 3.06986294e-05 2.95620830e-05 2.13848962e-05
      2.00685809e-05 2.45929950e-05 4.62749704e-05 4.20099459e-05
      4.22420890e-05 1.35457622e-05 -1.55422313e-05 -3.39607614e-05
      -2.73683581e-05 -1.05662248e-05 -3.71758802e-07 5.02969897e-06
      2.00225404e-05 2.84096332e-05 2.64412884e-05 2.53388007e-05
      -1.34757338e-05 6.29678425e-06 2.79524320e-05 3.02422177e-05
      1.99692968e-05 8.46514649e-06 1.15631724e-06 -5.86863462e-06
      -1.12553398e-05 -2.05901397e-05 -2.53117996e-05 -2.20882957e-05
      -1.83863231e-05 1.26556770e-05 5.07157456e-05 6.08603477e-05
      6.65457337e-05 4.04728380e-05 1.92968619e-05 -6.61156855e-06
      -2.05997967e-05 -1.39377225e-05 -5.44391651e-06 2.69068150e-05
      3.93994378e-05 4.10580433e-05 2.65790768e-05 4.90578168e-06
      -4.35792299e-06 -2.46527520e-06 2.11842325e-05 3.88980734e-05
      4.52840031e-05 4.29718166e-05 3.98205084e-05 4.15361319e-05
      5.35637228e-05 4.44542238e-05 4.07070402e-05 1.21310459e-05
      -2.01048970e-05 -3.42995227e-05 -2.58529617e-05 -1.14927579e-05
      2.26025236e-06 1.22145893e-05 2.38513821e-05 2.89429645e-05
      2.22969284e-05 2.20907223e-05 -1.45259719e-05 2.12355280e-06
      2.21071605e-05 2.89559939e-05 2.42110509e-05 1.49374127e-05
      6.02410137e-06 -1.82343456e-06 1.75053276e-06 -5.26147414e-06
      -1.96643832e-05 -1.94818967e-05 -1.53432757e-05 1.17104018e-05
      5.23269373e-05 6.57940764e-05 6.39249774e-05 4.38628049e-05
      1.71035008e-05 -1.30585477e-06 -1.95062148e-05 -2.03288782e-05
      -4.95171935e-06 2.94952260e-05 4.65275407e-05 3.80450620e-05
      2.24407922e-05 3.68117890e-06 -4.08687993e-06 1.70880446e-06
      1.07021042e-05 3.07479095e-05 4.51947126e-05 5.15765605e-05
      5.36266016e-05 4.96333378e-05 6.04929555e-05 5.61097986e-05
      3.57667486e-05 7.79144557e-06 -2.12020568e-05 -2.52170739e-05
      -1.77504789e-05 -8.75401383e-06 3.88933267e-06 1.52507027e-05
      2.57168613e-05 2.42127408e-05 1.88376780e-05 2.03456439e-05
      -2.07305984e-05 -4.67609607e-06 1.17588734e-05 2.66576062e-05
      2.78198604e-05 1.59451920e-05 1.19523856e-05 6.23165852e-06
      8.15751173e-06 2.12173927e-06 -1.05881027e-05 -1.98417401e-05
      -1.38828209e-05 1.13088490e-05 4.47854945e-05 6.33783275e-05
      5.98492334e-05 3.77902543e-05 1.29742220e-05 -3.69188638e-06
      -1.76618541e-05 -2.18405330e-05 -8.34766979e-06 2.97276638e-05
      4.81341121e-05 4.06353138e-05 2.09783284e-05 1.75145988e-06
      -4.97359997e-06 -9.22096569e-06 8.37495975e-08 1.59245810e-05
      3.34982105e-05 4.72222346e-05 5.56795312e-05 5.24659226e-05
      6.00061721e-05 5.46956435e-05 2.63286984e-05 2.33730771e-06
      -1.16099009e-05 -1.41439505e-05 -7.92112678e-06 -1.24352630e-06
      8.82651784e-06 1.81019204e-05 2.52433656e-05 2.15055188e-05
      1.37778025e-05 1.97325990e-05 -2.58265936e-05 -9.76423325e-06
      7.69218241e-06 2.25454951e-05 2.77122508e-05 2.03849995e-05
      2.12246632e-05 9.39494657e-06 1.15855883e-05 7.52061942e-06
      -5.72543331e-06 -2.03100681e-05 -2.18071746e-05 -8.93349625e-06
      1.74800898e-05 4.23503589e-05 3.44823675e-05 2.04028602e-05
      -1.76994672e-06 -1.01161577e-05 -2.14738884e-05 -2.27782293e-05
      -7.27742236e-06 1.44304195e-05 2.43221184e-05 2.34982217e-05
      1.20064833e-05 -1.14399581e-05 -1.39663816e-05 -1.36411600e-05
      -1.30535982e-05 2.37097902e-06 1.65996425e-05 2.86533868e-05
      4.30534965e-05 4.20825490e-05 3.46022280e-05 2.70636883e-05
      3.83423048e-06 -6.81102438e-06 -6.12264421e-06 1.12427335e-06
      4.51841788e-06 9.03982163e-06 1.50598407e-05 1.97818881e-05
      2.63905677e-05 2.16890785e-05 1.40153779e-05 1.93151463e-05
      -3.03370962e-05 -1.62071537e-05 1.11344957e-06 1.71857246e-05
      2.43096747e-05 2.28476747e-05 2.66779061e-05 1.51250460e-05
      7.84089934e-06 7.34206924e-06 1.15183002e-06 -1.37410889e-05
      -2.16291028e-05 -1.68418192e-05 -4.83534723e-06 7.55721021e-06
      1.01748201e-05 -8.87845715e-07 -1.33127141e-05 -1.43619009e-05
      -2.41416965e-05 -2.87884741e-05 -1.77593611e-05 -2.37715585e-06
      5.55079123e-06 -9.60175157e-07 -4.04275534e-06 -1.68616698e-05
      -2.38497814e-05 -2.69464163e-05 -2.80896620e-05 -2.54191891e-05
      -1.53024957e-05 8.85376608e-08 1.03731600e-05 1.07521382e-05
      5.10387417e-06 -4.54009751e-06 -3.39836856e-06 -6.34741900e-06
      7.84644362e-06 1.53288765e-05 1.59722040e-05 2.01249550e-05
      2.39770779e-05 2.43558407e-05 2.80376444e-05 1.95119846e-05
      1.03764150e-05 1.59608317e-05 -3.00554748e-05 -2.13327239e-05
      -1.42244235e-05 2.52292421e-06 2.36788546e-05 3.56832934e-05
      3.59784317e-05 2.35798871e-05 1.54642803e-05 1.32601872e-05
      7.09742653e-06 -5.96741302e-06 -1.82220083e-05 -2.55509112e-05
      -2.58959608e-05 -1.97422996e-05 -2.19285484e-05 -2.55265950e-05
      -2.61921141e-05 -3.20352701e-05 -3.73602852e-05 -3.92915354e-05
      -3.37979800e-05 -2.60762663e-05 -3.28814349e-05 -2.72745947e-05
      -2.49013210e-05 -2.17840079e-05 -2.47876997e-05 -3.19969004e-05
      -3.37589736e-05 -4.52870663e-05 -3.90105124e-05 -3.09325405e-05
      -2.57352076e-05 -2.28083354e-05 -2.74010381e-05 -3.19817191e-05
      -1.48063773e-05 -3.59762953e-06 4.66843039e-06 1.53112178e-05
      2.35124171e-05 3.28465794e-05 3.11180956e-05 2.17299312e-05
      1.72234340e-05 1.03693228e-05 5.34949004e-06 1.31518309e-05
      -2.69148040e-05 -2.07103840e-05 -2.07959947e-05 -9.35414755e-06
      1.95531320e-05 3.64771513e-05 4.36406008e-05 4.03808444e-05
      2.73238729e-05 1.92019343e-05 1.75159403e-05 1.05808558e-05
      -7.55205610e-06 -2.14177617e-05 -2.37090662e-05 -2.41510425e-05
      -2.27410874e-05 -2.38108296e-05 -2.17324523e-05 -3.42713938e-05
      -4.12807640e-05 -4.27237610e-05 -3.34665820e-05 -2.85306542e-05
      -3.32622076e-05 -2.51268666e-05 -3.10371142e-05 -3.50550326e-05
      -3.86222309e-05 -3.89611268e-05 -3.62899918e-05 -4.62728131e-05
      -4.84257580e-05 -4.56133203e-05 -3.29015602e-05 -3.64853622e-05
      -2.76306928e-05 -2.83357676e-05 -1.80027073e-05 3.16065007e-06
      8.46269540e-06 1.65730926e-05 2.47353128e-05 3.91365829e-05
      4.01909783e-05 2.54911447e-05 1.08691138e-05 7.08715606e-06
      -7.96951497e-07 6.74402008e-06 -2.19719605e-05 -1.75677487e-05
      -2.26693373e-05 -2.43485774e-05 8.96677648e-06 3.15623183e-05
      4.87019206e-05 4.87312318e-05 3.88623848e-05 3.22788292e-05
      2.97247989e-05 2.67080959e-05 1.40153979e-05 -3.32220930e-06
      -1.25610777e-05 -1.83257198e-05 -1.94471886e-05 -2.33112623e-05
      -2.21283590e-05 -3.05796675e-05 -3.56386881e-05 -3.11035328e-05
      -1.78374539e-05 -1.80863171e-05 -2.13031635e-05 -1.41587097e-05
      -1.27107523e-05 -1.84285418e-05 -2.29116959e-05 -2.04463668e-05
      -2.91568704e-05 -3.40371625e-05 -3.45441149e-05 -3.23581189e-05
      -2.47514527e-05 -2.19434769e-05 -1.40111133e-05 1.26670295e-06
      1.06855596e-05 2.44033508e-05 3.38032369e-05 4.41353186e-05
      4.80611234e-05 5.32881822e-05 4.43969620e-05 1.99954211e-05
      3.25857422e-06 8.39027325e-06 -1.29031335e-07 5.92213519e-06
      -2.44957246e-05 -1.28249085e-05 -1.63631721e-05 -3.25641740e-05
      -7.41329632e-06 1.92921798e-05 4.83387048e-05 5.50378209e-05
      5.14721287e-05 3.93418231e-05 3.56224518e-05 3.70469497e-05
      2.72872530e-05 1.73577100e-05 1.39414342e-05 1.75282912e-06
      -1.62708930e-05 -1.86559773e-05 -1.90320043e-05 -2.51891215e-05
      -3.15971920e-05 -2.16782737e-05 -1.45594840e-05 -2.36755095e-05
      -1.75621772e-05 -1.18775088e-05 -1.31958213e-05 -1.76830745e-05
      -1.65497913e-05 -1.49983334e-05 -3.06378024e-05 -3.05410140e-05
      -2.83307618e-05 -2.67120449e-05 -2.57947631e-05 -1.72443506e-05
      1.39471979e-06 1.26267551e-05 2.11371698e-05 2.73187779e-05
      4.25453654e-05 5.39204557e-05 5.65527880e-05 5.96171994e-05
      5.00277383e-05 2.44038019e-05 5.20720641e-06 7.74160890e-06
      3.50680892e-07 7.80053051e-06 -1.66025147e-05 -1.30753024e-05
      -1.69549421e-05 -2.76927876e-05 -1.12226198e-05 8.32249839e-07
      2.91974884e-05 5.29678509e-05 5.60543958e-05 5.12478364e-05
      4.88370388e-05 4.67749487e-05 3.74260198e-05 3.13183264e-05
      2.99892945e-05 1.61505359e-05 1.97159898e-06 -1.13384822e-05
      -2.22121544e-05 -2.22469462e-05 -2.81052471e-05 -2.08567817e-05
      -1.80493025e-05 -2.04015978e-05 -1.83333850e-05 -9.99694657e-06
      -1.10261890e-05 -1.12773396e-05 -1.92336447e-05 -2.41409325e-05
      -2.88627489e-05 -2.88005740e-05 -1.95672092e-05 -2.19250560e-05
      -1.48066183e-05 -6.57700957e-06 1.26944888e-05 2.61836576e-05
      2.75548919e-05 3.87342152e-05 5.68264513e-05 6.22092921e-05
      5.87992181e-05 5.67202042e-05 4.60324591e-05 2.77213912e-05
      7.25499058e-06 3.93862820e-06 -7.95738799e-08 8.62491197e-06
      -1.41741102e-05 -1.61287226e-05 -2.11288370e-05 -2.41648104e-05
      -2.14073698e-05 -1.82068361e-05 8.01061833e-06 3.45378030e-05
      4.35126531e-05 4.84917182e-05 4.82364449e-05 4.29233078e-05
      3.39938561e-05 2.87672210e-05 2.19348476e-05 1.86307971e-05
      7.69959206e-06 -2.00800446e-06 -1.85627414e-05 -3.03767920e-05
      -3.53658324e-05 -3.38747886e-05 -3.22521555e-05 -3.15325524e-05
      -2.27991095e-05 -1.84792825e-05 -1.92157731e-05 -1.95658140e-05
      -2.11111055e-05 -2.38753455e-05 -2.08208185e-05 -1.97245281e-05
      -1.70144085e-05 -1.26511013e-05 -2.06475306e-06 1.55157995e-05
      2.11157021e-05 2.82762539e-05 3.77478245e-05 4.96156681e-05
      5.68860341e-05 5.94050362e-05 5.54098042e-05 4.68557846e-05
      3.61603998e-05 2.42467631e-05 1.12055377e-05 7.64319429e-06
      6.02481578e-07 9.05389334e-06 -1.85955432e-05 -7.67062556e-06
      -2.02907813e-05 -2.58749988e-05 -2.78814550e-05 -3.02308345e-05
      -1.60233358e-05 8.35285755e-06 2.30707246e-05 3.71719725e-05
      4.23223064e-05 4.02175356e-05 3.18959137e-05 2.07122812e-05
      1.07713076e-05 9.09859409e-06 9.54324696e-06 3.75236687e-06
      -7.67622441e-06 -2.04245425e-05 -3.16454389e-05 -3.55044176e-05
      -3.72113536e-05 -3.58228717e-05 -3.23436725e-05 -2.88934752e-05
      -2.90321332e-05 -3.03311590e-05 -3.06766815e-05 -2.86633349e-05
      -2.21518112e-05 -1.71078627e-05 -1.30631224e-05 -8.27083204e-06
      -6.01018598e-07 6.40612416e-06 9.43000850e-06 1.82340136e-05
      3.03819943e-05 3.68360488e-05 3.69355148e-05 3.52129464e-05
      2.97380666e-05 2.01408275e-05 1.30528570e-05 8.66880782e-06
      3.61753541e-06 5.04631089e-06 9.97221832e-07 8.75511887e-06
      -2.08560195e-05 -1.41637620e-05 -2.24118594e-05 -3.08278177e-05
      -3.64407606e-05 -3.90726418e-05 -3.15960751e-05 -1.44878532e-05
      6.47544539e-06 2.53269700e-05 3.42004641e-05 3.36876183e-05
      3.25794499e-05 2.63603197e-05 1.69338618e-05 1.16669326e-05
      6.18108470e-06 3.05649860e-06 6.56012560e-07 -4.96625489e-06
      -1.21294397e-05 -1.72271230e-05 -2.19614885e-05 -2.01388084e-05
      -2.27033815e-05 -2.06075292e-05 -1.99611059e-05 -2.12262694e-05
      -1.95795710e-05 -1.61566222e-05 -1.26978157e-05 -7.52548203e-06
      -4.55617464e-06 -3.71855026e-06 1.42587646e-06 5.02650028e-06
      8.84198926e-06 1.77352631e-05 2.63481325e-05 2.52856844e-05
      1.66498667e-05 7.37216851e-06 3.59320188e-06 3.17845775e-06
      2.71180397e-06 -4.25962497e-07 -2.33414212e-07 7.49738638e-06
      7.23467383e-06 1.39247195e-05 -2.22418421e-05 -2.52820228e-05
      -2.27566579e-05 -2.94445072e-05 -3.55794327e-05 -3.38414648e-05
      -3.67259381e-05 -2.23986353e-05 -7.58654323e-06 9.19296781e-06
      2.29693796e-05 2.84658199e-05 3.32943782e-05 3.17658632e-05
      2.56067269e-05 1.71189840e-05 1.36246917e-05 8.89171770e-06
      4.79706341e-06 1.57517821e-08 -3.93467644e-06 -8.58974636e-06
      -1.47470637e-05 -1.78408372e-05 -2.07930007e-05 -2.06425611e-05
      -1.76611920e-05 -1.64541816e-05 -1.31488778e-05 -1.03956982e-05
      -1.13078495e-05 -7.24636948e-06 -2.95678569e-06 -6.92077435e-07
      5.91068101e-06 1.22364081e-05 1.61725566e-05 1.98755934e-05
      2.12782998e-05 1.39751246e-05 8.41275141e-06 -1.49768050e-06
      -4.63503966e-06 -3.20829417e-06 -6.21751383e-07 -2.86754153e-06
      -1.41917610e-06 6.41445604e-06 7.58965007e-06 1.29730934e-05
      -2.35329189e-05 -1.37124780e-05 -2.48331708e-05 -2.53732524e-05
      -2.66318275e-05 -2.32888251e-05 -2.24867454e-05 -1.89850452e-05
      -1.33871135e-05 -5.19683681e-06 6.27935833e-06 1.16827314e-05
      1.70006679e-05 2.08645615e-05 2.33763712e-05 2.11410297e-05
      1.60157851e-05 1.18974949e-05 4.18173931e-06 4.75234884e-07
      -2.03898071e-06 -7.11887833e-06 -1.03890688e-05 -1.56152455e-05
      -1.59942756e-05 -1.67361413e-05 -1.12038724e-05 -8.23592745e-06
      -6.56774455e-06 -3.43900683e-06 -2.42098480e-07 4.41309612e-06
      7.17595321e-06 1.27184812e-05 1.74226479e-05 2.17185043e-05
      2.31265021e-05 2.19615267e-05 1.62209035e-05 7.01786030e-06
      -7.12509745e-07 -1.82907570e-06 -3.35917298e-06 -6.19117736e-06
      -4.21158938e-06 -2.29928423e-06 -1.09878734e-07 2.96036751e-06
      1.01633202e-06 5.78206391e-06 -1.14761278e-05 -6.58076715e-06
      -1.29079817e-05 -2.25740641e-05 -1.46916136e-05 -1.33777876e-05
      -1.15645271e-05 -1.28875554e-05 -1.47912988e-05 -1.10683368e-05
      -1.00537079e-06 4.64838422e-06 9.45391275e-06 1.59544907e-05
      2.10937669e-05 2.40032768e-05 2.58394466e-05 2.35605548e-05
      1.85920780e-05 1.89570928e-05 1.61432781e-05 7.41779468e-06
      6.23064534e-06 3.49725678e-06 1.53221424e-06 -8.14577845e-08
      3.00799638e-06 4.48966148e-06 3.72507361e-06 6.49836693e-06
      1.35595419e-05 1.88015511e-05 2.12245050e-05 2.30285386e-05
      2.21344962e-05 2.10955131e-05 1.83111115e-05 1.34415968e-05
      4.67600512e-06 -2.36765868e-06 -8.09742050e-06 -5.82968505e-06
      -3.05546814e-06 -3.99695682e-06 -5.31267096e-06 -6.09736617e-06
      -1.17109323e-06 3.61402135e-06 -6.23760968e-07 4.14688338e-06
      -3.61960497e-06 -3.78076948e-06 -1.37548341e-05 -1.29368536e-05
      -1.59030333e-05 -8.78958326e-06 -1.61315784e-05 -1.18612534e-05
      -1.70243420e-05 -1.86216184e-05 -1.43609805e-05 -7.97940720e-06
      -3.01582872e-06 2.91878109e-06 7.51990501e-06 1.41215096e-05
      2.05622728e-05 2.34146228e-05 2.56106759e-05 2.68467429e-05
      2.44718394e-05 1.90670580e-05 1.97298068e-05 1.93774740e-05
      2.06317618e-05 1.96792553e-05 1.89793809e-05 1.99054739e-05
      1.85757090e-05 2.00092600e-05 2.46155960e-05 2.50121157e-05
      2.59577046e-05 2.19310950e-05 1.82731892e-05 1.41381661e-05
      9.94304264e-06 2.94088068e-06 -3.54654276e-06 -9.12251289e-06
      -1.04629562e-05 -9.91530851e-06 -5.08077073e-06 -2.51183496e-06
      -5.70413704e-06 -1.19748001e-05 -4.44509578e-06 3.95226971e-06
      1.34152140e-06 6.47407478e-06 1.42438307e-06 1.63035145e-06
      -8.99031693e-06 -1.63085369e-05 -1.43399002e-05 -7.92086485e-06
      -1.41568671e-05 -6.22043626e-06 -1.09936682e-05 -1.31499110e-05
      -1.16902920e-05 -6.17025853e-06 -2.91976653e-06 1.57886222e-06
      1.32867683e-06 3.56137571e-06 1.06807329e-05 1.95959783e-05
      2.61344358e-05 2.43983868e-05 2.21278697e-05 2.26445700e-05
      2.80393560e-05 2.95099253e-05 2.57281554e-05 2.67901887e-05
      2.64418450e-05 2.73860242e-05 2.57570573e-05 2.42317165e-05
      2.49234090e-05 2.13399580e-05 1.82414096e-05 1.24933549e-05
      8.71621160e-06 2.84170346e-06 3.30835269e-06 -1.94026438e-06
      -7.21243441e-06 -1.13754650e-05 -1.50716824e-05 -1.06395655e-05
      -1.97299869e-06 1.67245742e-06 4.24526434e-07 -5.65907931e-06
      -2.67268888e-06 1.50409539e-06 3.11299937e-06 8.23575738e-06
      5.23390213e-07 -1.85400597e-06 -4.69601355e-06 -7.61250385e-06
      -1.30326898e-05 -9.97367988e-06 -9.54364441e-06 -3.22632286e-06
      -4.20442530e-06 -9.34782020e-06 -7.51401831e-06 -9.20764251e-06
      -5.75331660e-06 8.42530667e-08 -8.32035141e-07 -4.43597582e-06
      2.63461266e-06 1.30863082e-05 1.97162408e-05 1.69686791e-05
      1.49815651e-05 1.97566933e-05 2.54310562e-05 2.74015692e-05
      2.34643558e-05 2.31624927e-05 2.33184637e-05 2.14596294e-05
      1.96863311e-05 1.22850579e-05 1.31158622e-05 1.11802428e-05
      8.28156681e-06 3.27114685e-06 3.48707067e-06 3.08498920e-06
      9.64133505e-06 1.57783109e-06 -2.54212296e-06 1.18832679e-06
      9.44061753e-07 8.19046477e-07 9.93729373e-06 9.28311965e-06
      2.21245614e-06 -2.28890485e-06 -2.48158244e-06 -1.18494972e-06
      -2.33880101e-07 2.10743110e-06 6.05541936e-06 2.36505321e-06
      -1.26375494e-06 -4.91000674e-06 -1.06392672e-05 -8.28943030e-06
      -9.52495702e-06 -5.25696214e-06 -5.08673611e-06 -1.03240163e-05
      -8.87883289e-06 -1.14765844e-05 -9.95250139e-06 -4.94473716e-06
      -5.49359720e-06 -8.91364652e-06 -1.91115396e-06 8.41055771e-06
      1.43024163e-05 1.12530215e-05 8.17816272e-06 1.15094963e-05
      1.61020471e-05 1.74461547e-05 1.67025573e-05 1.78074533e-05
      2.08597103e-05 2.02906231e-05 1.61590015e-05 7.62562877e-06
      8.45218528e-06 5.03031697e-06 -1.50271376e-06 -4.15501518e-06
      -2.50311018e-06 -3.08993799e-06 2.41757698e-06 -6.24473205e-06
      -8.79230993e-06 -4.46681679e-06 -2.96321514e-06 -4.93545349e-06
      2.72728448e-06 4.18573882e-06 2.14501733e-06 8.29477244e-07
      -1.19546860e-06 -3.23759059e-06 -3.91049298e-06 -7.81132997e-07</_>
    <_>
      8.40769019e-07 7.58715828e-07 2.88759861e-06 4.55706731e-06
      7.98483234e-06 7.37464916e-06 9.04991066e-06 1.65807469e-05
      1.69823015e-05 1.36700091e-05 1.29066393e-05 1.33710455e-05
      1.67493872e-05 1.60739964e-05 1.46776883e-05 1.20272634e-05
      1.22399670e-05 1.20294208e-05 1.73068984e-05 1.47550090e-05
      2.35543175e-05 2.13583844e-05 1.50127125e-05 7.11545408e-06
      4.34285766e-06 2.51256051e-06 7.06220635e-06 4.12497502e-06
      3.85479825e-06 1.06302950e-05 -1.54751285e-06 -4.05507581e-06
      -7.75222543e-06 -1.30293283e-05 -5.66729614e-06 -3.68175415e-06
      -7.69108465e-06 -5.92555944e-06 -6.79658342e-06 -1.08184531e-05
      -1.21924704e-05 -1.09840821e-05 -7.54716075e-06 -1.15863113e-05
      -1.02049262e-05 -9.13733493e-06 -8.06604294e-06 -9.50153117e-06
      -9.38309950e-06 -1.11528980e-05 -5.22091386e-06 8.31632769e-06
      1.07575788e-05 3.61015714e-06 4.06991467e-06 9.00410032e-06
      9.86499617e-06 6.62806860e-06 1.05071767e-05 1.57135764e-05
      1.99839487e-05 1.75789010e-05 1.60115524e-05 1.44111982e-05
      1.51738732e-05 1.55945381e-05 1.55339167e-05 1.46483044e-05
      1.75804416e-05 1.58253115e-05 2.49615750e-05 2.55927080e-05
      2.16652334e-05 1.91749896e-05 1.40020047e-05 1.76163630e-05
      1.55911275e-05 1.38415435e-05 1.48208183e-05 1.76708618e-05
      1.06733114e-05 2.69736370e-06 -3.05444655e-06 -9.88871398e-06
      -5.76807088e-06 -7.02833995e-06 -1.14615450e-05 -1.00902926e-05
      -1.17594627e-05 -1.51620297e-05 -1.53747860e-05 -1.71676129e-05
      -1.43442176e-05 -1.56609694e-05 -1.54189565e-05 -1.71308329e-05
      -1.72506898e-05 -1.89913972e-05 -1.15625653e-05 -1.25801143e-05
      -2.44413809e-06 3.79475910e-06 -7.75722597e-09 -7.35724097e-06
      -8.17687123e-06 -5.57677095e-06 -3.95553889e-06 -2.19587696e-06
      2.95712908e-07 4.10372286e-06 6.67231780e-06 5.67013012e-06
      7.02149873e-06 1.01316928e-05 1.42121071e-05 1.90903829e-05
      2.63527891e-05 2.56106832e-05 2.60275137e-05 2.64355822e-05
      3.20984000e-05 2.92053828e-05 2.28758581e-05 2.28944227e-05
      2.80659224e-05 3.10470859e-05 2.30392052e-05 2.35399475e-05
      2.28239405e-05 1.73347926e-05 1.86451143e-05 1.47854998e-05
      9.06442438e-06 1.39466306e-06 1.45188937e-06 -4.63962715e-06
      -1.18333810e-05 -1.33889625e-05 -1.59250631e-05 -1.75083860e-05
      -1.68001206e-05 -1.90920673e-05 -1.68244605e-05 -1.64417270e-05
      -1.66082118e-05 -1.98386697e-05 -1.90787523e-05 -1.92447533e-05
      -1.42910440e-05 -1.44955711e-05 1.39294923e-06 -1.55674809e-06
      -1.14770064e-05 -1.71856755e-05 -1.70757921e-05 -1.74223351e-05
      -1.83256852e-05 -1.23236541e-05 -1.07520400e-05 -1.00240495e-05
      -8.02781869e-06 -2.04537605e-06 6.69085603e-06 1.31541574e-05
      1.72386990e-05 2.07548346e-05 3.02800836e-05 3.06915863e-05
      3.01739146e-05 3.21885636e-05 3.31355513e-05 2.97044626e-05
      2.81719604e-05 3.15956568e-05 3.50707887e-05 3.77585020e-05
      2.82520396e-05 2.42416081e-05 2.41081707e-05 2.26531265e-05
      2.54129100e-05 2.18170935e-05 2.08157817e-05 1.39904560e-05
      1.23115169e-05 7.35327512e-06 -1.18754849e-06 -8.78800529e-06
      -1.58727362e-05 -1.92251900e-05 -1.88218855e-05 -2.07295325e-05
      -1.96244255e-05 -1.90015617e-05 -1.69722352e-05 -1.79070066e-05
      -1.67084236e-05 -1.71929405e-05 -1.27048979e-05 -1.24582330e-05
      -4.37565222e-06 -3.72390627e-06 -1.58034709e-05 -1.97700010e-05
      -1.85447734e-05 -1.97246773e-05 -2.12388986e-05 -1.98922226e-05
      -1.66944064e-05 -1.47168412e-05 -1.09425082e-05 -4.55680890e-07
      1.14602426e-05 1.98731377e-05 2.43336071e-05 2.72388861e-05
      2.88691263e-05 2.74255817e-05 2.46572235e-05 2.54989664e-05
      2.55831092e-05 2.73479545e-05 3.28038950e-05 3.82686994e-05
      3.99631863e-05 3.62915926e-05 2.92524455e-05 2.18729274e-05
      2.18255991e-05 2.45048122e-05 2.32594812e-05 2.29840134e-05
      2.26264310e-05 1.99083879e-05 1.96729161e-05 1.74687302e-05
      1.15481535e-05 3.01223508e-06 -7.97635948e-06 -1.77785114e-05
      -1.95754092e-05 -2.25577060e-05 -2.24931609e-05 -2.29332982e-05
      -2.03831441e-05 -2.01098355e-05 -1.99016540e-05 -2.20806469e-05
      -1.54099944e-05 -1.49476964e-05 -5.36826292e-06 -5.89096771e-07
      -1.85481094e-05 -2.22076924e-05 -2.05697033e-05 -2.16990593e-05
      -1.67567141e-05 -1.64460653e-05 -2.09349109e-05 -1.41869423e-05
      -2.82865267e-06 1.12215002e-05 2.13777221e-05 2.73942514e-05
      2.82370220e-05 2.77273157e-05 2.46083437e-05 2.62990216e-05
      2.62205376e-05 2.11216266e-05 1.72133950e-05 2.26982265e-05
      3.28063543e-05 4.03761005e-05 3.96917749e-05 3.17314552e-05
      2.83298668e-05 2.11677161e-05 1.54243698e-05 1.61617536e-05
      1.50628721e-05 2.21543232e-05 2.26348475e-05 2.23530587e-05
      2.13516032e-05 2.08385518e-05 2.02074334e-05 1.68192510e-05
      7.40567702e-06 -5.89885713e-06 -1.30940189e-05 -1.98111047e-05
      -1.98300731e-05 -2.11230963e-05 -2.22953440e-05 -2.35821208e-05
      -2.18156329e-05 -2.17012348e-05 -1.83512238e-05 -1.71258744e-05
      -1.79316282e-06 3.72306681e-06 -1.59106476e-05 -2.40715217e-05
      -2.31092818e-05 -2.18267833e-05 -1.59413539e-05 -1.39423828e-05
      -1.49824982e-05 -3.95032339e-06 9.66850712e-06 2.09176142e-05
      2.54807273e-05 2.94698184e-05 2.80009881e-05 2.66399293e-05
      2.22150993e-05 1.69273244e-05 1.47709425e-05 9.96572271e-06
      1.02525164e-05 1.99886199e-05 2.78860298e-05 2.89832951e-05
      2.46776508e-05 2.09931131e-05 1.78427090e-05 1.11612371e-05
      7.09502146e-08 2.34475397e-06 7.45678517e-06 1.30651606e-05
      1.89546099e-05 2.33545525e-05 2.36892065e-05 2.34244562e-05
      2.45052343e-05 2.33060091e-05 1.89562143e-05 1.20406503e-05
      2.76482979e-07 -1.28573774e-05 -1.83651755e-05 -2.06140467e-05
      -2.21462342e-05 -2.34758390e-05 -2.03899308e-05 -1.89451112e-05
      -1.69064369e-05 -1.52146149e-05 -4.79891105e-06 -2.45718616e-06
      -1.58024541e-05 -2.29959187e-05 -2.20136462e-05 -2.26828452e-05
      -2.26121920e-05 -1.24335957e-05 -2.98735495e-06 1.13234337e-05
      2.07866633e-05 2.62393587e-05 2.70891287e-05 2.77225627e-05
      2.41493090e-05 2.16478165e-05 1.78704740e-05 8.34430102e-06
      4.34204594e-06 -3.26935105e-06 -9.93155027e-06 -6.19013144e-06
      2.87771581e-06 3.56510122e-06 5.38624727e-06 -1.59197884e-06
      -7.59789464e-06 -5.42371799e-06 -1.69802734e-05 -1.90188020e-05
      -9.97269854e-06 -4.08407277e-06 2.18135096e-06 1.21406893e-05
      1.59402462e-05 1.78725713e-05 2.04332919e-05 1.93278465e-05
      1.82656313e-05 1.82047370e-05 1.31527277e-05 -7.58714634e-07
      -1.38065780e-05 -2.09638019e-05 -2.04575263e-05 -2.06668083e-05
      -2.03827949e-05 -2.21481823e-05 -1.91550807e-05 -1.70873773e-05
      -2.37019003e-06 1.01394278e-06 -1.46144184e-05 -2.57889205e-05
      -2.34149556e-05 -2.21659830e-05 -1.15080147e-05 -1.32677053e-06
      1.26038440e-05 2.14788506e-05 2.50050689e-05 2.54532952e-05
      2.48386968e-05 2.29058733e-05 1.65012298e-05 7.50228719e-06
      -1.62866297e-06 -1.17210147e-05 -1.50700653e-05 -2.68426811e-05
      -3.40673032e-05 -1.88165486e-05 -1.62797842e-05 -1.91342333e-05
      -1.96439814e-05 -2.01161092e-05 -1.87331261e-05 -2.58577256e-05
      -3.16206970e-05 -3.89077250e-05 -3.48182839e-05 -2.70336313e-05
      -1.65615256e-05 -6.82822338e-06 6.85863199e-07 8.83433859e-06
      1.50143778e-05 1.73035914e-05 1.89254733e-05 2.00585710e-05
      1.72557138e-05 1.20370078e-05 2.22351241e-06 -1.04389082e-05
      -1.93119104e-05 -2.23846746e-05 -2.28428235e-05 -2.14824940e-05
      -2.00371142e-05 -1.67210346e-05 -3.28706687e-06 -2.46993113e-06
      -1.65846086e-05 -2.35503685e-05 -1.87251135e-05 -1.48349536e-05
      -2.41579619e-06 9.80244386e-06 1.88439717e-05 2.16809512e-05
      2.22753206e-05 2.06790082e-05 1.72469954e-05 1.19541610e-05
      2.34452591e-06 -1.04501814e-05 -2.06798395e-05 -3.02287826e-05
      -3.77841388e-05 -4.05289175e-05 -3.50109840e-05 -2.39465517e-05
      -2.50807534e-05 -2.91270280e-05 -2.18048190e-05 -2.36935648e-05
      -2.24838350e-05 -2.61849291e-05 -3.19330866e-05 -4.16557741e-05
      -5.02996554e-05 -4.25400540e-05 -3.75689742e-05 -2.76450337e-05
      -1.78145874e-05 -7.60346575e-06 1.91384311e-06 1.10056590e-05
      1.73082062e-05 1.92735843e-05 1.82532949e-05 1.75158602e-05
      1.50318729e-05 3.23026188e-06 -1.35879745e-05 -2.28426343e-05
      -2.37874010e-05 -2.17947527e-05 -1.84468154e-05 -1.51765598e-05
      -3.28630995e-06 -2.56510134e-06 -1.55564503e-05 -2.19927242e-05
      -1.66164646e-05 -7.87666704e-06 5.90478749e-06 1.76295307e-05
      2.10339185e-05 2.13406856e-05 1.95717694e-05 1.34412539e-05
      5.49983406e-06 -2.42059696e-06 -1.40106122e-05 -2.80025652e-05
      -3.92438669e-05 -4.31681947e-05 -5.00170318e-05 -4.27097548e-05
      -2.82154015e-05 -2.28586996e-05 -2.33196733e-05 -2.56851617e-05
      -2.25493513e-05 -2.02179381e-05 -1.75791811e-05 -2.38582215e-05
      -3.15560937e-05 -3.51138224e-05 -4.42122619e-05 -5.03030860e-05
      -4.90327293e-05 -4.28442581e-05 -3.41987143e-05 -2.46334821e-05
      -1.28013889e-05 7.52736042e-08 1.14953918e-05 1.73673725e-05
      1.89868915e-05 1.87841870e-05 2.00026916e-05 1.44272499e-05
      -2.42690294e-06 -1.77907750e-05 -2.28985427e-05 -2.14272604e-05
      -1.92435982e-05 -1.58738949e-05 -2.72681996e-06 4.12149689e-07
      -1.42161598e-05 -2.02082574e-05 -1.08374525e-05 2.37770359e-06
      1.33940994e-05 2.06323002e-05 2.08377642e-05 2.03916552e-05
      1.61612588e-05 4.99782209e-06 -6.14661667e-06 -1.65980164e-05
      -3.03121797e-05 -4.23942438e-05 -5.01036593e-05 -4.68320504e-05
      -4.67711980e-05 -3.42905405e-05 -2.15832442e-05 -2.23504740e-05
      -2.01231596e-05 -1.96346555e-05 -2.13611602e-05 -1.83198954e-05
      -1.38397218e-05 -1.73541539e-05 -2.46596610e-05 -3.31014962e-05
      -3.85332933e-05 -5.04586678e-05 -5.08612175e-05 -4.90450402e-05
      -4.54874462e-05 -3.91600115e-05 -2.76015362e-05 -1.25536071e-05
      9.89741466e-07 1.12741436e-05 1.86307916e-05 1.95767607e-05
      2.10488033e-05 2.13009334e-05 1.17312984e-05 -6.52689323e-06
      -1.94561399e-05 -2.16651770e-05 -1.77607344e-05 -1.42576182e-05
      -4.71822204e-06 -1.69019302e-07 -1.52080956e-05 -1.46721013e-05
      3.80448637e-06 1.61539301e-05 1.94029144e-05 1.99257993e-05
      2.05225551e-05 1.88482263e-05 1.05405243e-05 -4.22084668e-06
      -1.79657727e-05 -3.06863694e-05 -4.24097307e-05 -4.88145452e-05
      -5.02121657e-05 -4.74814588e-05 -4.01297621e-05 -2.83970003e-05
      -2.04943153e-05 -2.17694342e-05 -1.73813478e-05 -1.39932436e-05
      -1.87632795e-05 -1.79543076e-05 -1.65005240e-05 -1.53652582e-05
      -1.87466012e-05 -2.97035567e-05 -3.69121735e-05 -4.46111771e-05
      -5.06555261e-05 -5.06647812e-05 -4.96473040e-05 -4.78588408e-05
      -4.16400399e-05 -2.74522754e-05 -1.17419468e-05 5.40548342e-07
      1.25586748e-05 1.87009955e-05 2.07248941e-05 2.30992446e-05
      2.02663468e-05 5.88608373e-06 -1.17159370e-05 -2.04323824e-05
      -1.75791611e-05 -1.42341096e-05 -6.68196708e-06 -2.20069251e-06
      -1.27967878e-05 -5.20301546e-06 1.49312064e-05 2.19746198e-05
      2.13581188e-05 1.90461178e-05 1.92432326e-05 1.21332951e-05
      -1.02877959e-06 -1.72187156e-05 -3.15886064e-05 -4.22204503e-05
      -4.81000534e-05 -4.94872547e-05 -4.95282693e-05 -4.49357649e-05
      -3.22175001e-05 -2.47188073e-05 -2.00180075e-05 -1.79054259e-05
      -1.28581078e-05 -8.88193608e-06 -2.05836059e-05 -2.61391542e-05
      -2.54247188e-05 -2.02106621e-05 -2.26515058e-05 -2.37677559e-05
      -3.09870338e-05 -3.66313070e-05 -4.47375860e-05 -4.63277393e-05
      -4.60603551e-05 -4.53302309e-05 -4.63738033e-05 -4.07503867e-05
      -2.66755396e-05 -1.20690338e-05 3.44842169e-06 1.54246427e-05
      2.03016571e-05 2.24860887e-05 2.20630081e-05 1.51512413e-05
      7.56215798e-07 -1.36482959e-05 -1.68704319e-05 -1.46977854e-05
      -7.84209624e-06 -3.34825677e-06 -5.95303527e-06 3.59597357e-06
      1.94405784e-05 2.26768298e-05 2.17223223e-05 1.78080627e-05
      1.09919793e-05 -1.56934800e-06 -1.66741829e-05 -3.18925340e-05
      -4.20371580e-05 -4.48870778e-05 -4.51851447e-05 -4.65449084e-05
      -4.89659396e-05 -3.71039896e-05 -2.55143532e-05 -2.30789792e-05
      -1.42827266e-05 -6.93211905e-06 -3.12661632e-06 -5.36882544e-06
      -1.88722042e-05 -3.02028984e-05 -2.97048246e-05 -2.05731867e-05
      -2.33439750e-05 -2.22853596e-05 -2.51531819e-05 -2.78759744e-05
      -3.10084033e-05 -3.54654512e-05 -3.76579010e-05 -3.64014668e-05
      -3.98984303e-05 -4.43239769e-05 -3.84068808e-05 -2.43901450e-05
      -6.57000146e-06 9.85709812e-06 1.87745900e-05 2.16430599e-05
      2.15836772e-05 1.95929952e-05 1.27993990e-05 -2.46334844e-06
      -1.50424548e-05 -1.61538937e-05 -1.05431955e-05 -3.89960678e-06
      5.60368790e-07 9.29381804e-06 2.19016620e-05 2.49365276e-05
      2.29503730e-05 1.51501454e-05 1.06858568e-06 -1.45651502e-05
      -2.79839369e-05 -3.80560450e-05 -3.91121976e-05 -3.35793193e-05
      -3.21449697e-05 -3.65512751e-05 -3.94213057e-05 -2.69996945e-05
      -2.61028490e-05 -2.81208431e-05 -9.11687948e-06 8.27051645e-06
      1.32630757e-05 4.16316198e-06 -8.72180226e-06 -1.53706751e-05
      -2.08598449e-05 -1.92357893e-05 -2.16340759e-05 -2.32257626e-05
      -1.77722177e-05 -1.90321898e-05 -1.91054405e-05 -2.59100452e-05
      -2.88658721e-05 -2.75142102e-05 -2.99196035e-05 -3.68904402e-05
      -4.03558988e-05 -3.43613392e-05 -1.87290916e-05 -1.38082851e-06
      1.21750054e-05 1.97215541e-05 2.07993980e-05 2.05417418e-05
      2.02323699e-05 1.01061050e-05 -4.55117925e-06 -1.03360935e-05
      -1.11930121e-05 3.46599364e-07 4.70390705e-06 1.67345370e-05
      2.09731406e-05 2.57042593e-05 2.02163847e-05 1.02597751e-05
      -3.63516347e-06 -2.40267291e-05 -3.01916898e-05 -2.86800678e-05
      -1.81642827e-05 -1.21524035e-05 -2.18118621e-05 -2.60237975e-05
      -2.46150048e-05 -1.98894613e-05 -2.21614155e-05 -8.69791074e-06
      9.92666628e-06 3.11196709e-05 3.60538615e-05 2.21969040e-05
      9.36807282e-06 2.79671121e-06 -3.43667148e-06 -1.11198342e-05
      -1.82675940e-05 -1.75575624e-05 -1.15903586e-05 -6.28584667e-06
      -9.03287764e-06 -1.00594625e-05 -1.09748553e-05 -9.03354794e-06
      -1.28655320e-05 -1.57270533e-05 -2.29945508e-05 -3.15837788e-05
      -2.85410351e-05 -1.48602167e-05 1.75455102e-06 1.52552002e-05
      2.13014209e-05 2.13058083e-05 2.48608085e-05 1.44676869e-05
